~o
<STREAMINFO> 1 39
<VECSIZE> 39<NULLD><MFCC_D_A_0><DIAGC>
~s "silst"
<MEAN> 39
 -1.242829e+01 -1.180331e+01 -7.702971e+00 9.317202e+00 -1.711316e+01 1.156252e+01 -6.252048e+00 -3.004344e+00 1.808791e+00 -1.885590e+00 -4.101755e+00 2.252276e+00 5.102455e+01 -3.864177e-02 -1.733156e-02 8.279721e-03 -4.902685e-03 -3.275365e-02 -3.221748e-02 -3.085129e-02 -8.073981e-03 1.792351e-03 -4.107055e-03 -3.589130e-02 -5.081307e-02 -2.242620e-02 7.295342e-03 3.580516e-04 -1.295360e-03 -1.114236e-02 -1.255022e-02 5.896429e-03 -6.807777e-04 -7.042759e-03 -6.188419e-03 -1.211883e-02 8.746875e-03 1.491945e-02 5.581573e-03
<VARIANCE> 39
 1.597392e+02 7.321734e+01 1.321674e+01 2.585028e+01 4.033234e+01 3.905059e+01 9.658319e+00 2.657668e+01 2.434723e+01 1.122268e+01 1.221097e+01 9.729038e+00 1.614861e+02 7.026659e-02 1.380156e-01 2.363957e-01 3.514350e-01 4.137918e-01 5.616025e-01 6.534510e-01 6.471106e-01 6.978469e-01 6.029554e-01 6.509321e-01 6.312421e-01 2.457306e-02 1.144437e-02 2.227681e-02 3.958198e-02 6.602549e-02 8.000244e-02 1.107427e-01 1.224811e-01 1.293670e-01 1.415924e-01 1.207696e-01 1.257442e-01 1.248778e-01 3.638604e-03
<GCONST> 6.342351e+01
~h "a"
<BEGINHMM>
<NUMSTATES> 5
<STATE> 2
<MEAN> 39
 1.346638e+01 -1.769753e+01 -2.321059e+00 9.929847e+00 -2.315094e+01 1.317037e+01 -4.898025e+00 -2.818130e+00 9.541871e+00 -1.597990e+01 -6.235233e+00 2.337503e+00 7.994771e+01 1.136284e+00 9.526837e-02 -1.801893e+00 -8.171857e-01 3.571458e-02 -2.147335e+00 -2.594785e-01 9.209184e-01 6.578178e-01 -1.291435e+00 2.597535e-01 4.756145e-01 1.480203e+00 -3.094287e-01 -5.108039e-02 1.573519e-01 1.607068e-01 2.381335e-01 1.508832e-01 4.248033e-02 -6.966904e-02 -9.304056e-02 3.906793e-01 1.982002e-01 8.729343e-02 -2.429868e-01
<VARIANCE> 39
 9.910148e+00 2.480080e+01 2.467855e+01 2.665484e+01 5.660301e+01 6.942951e+01 2.512900e+01 4.336500e+01 4.012644e+01 3.901193e+01 3.284384e+01 2.733842e+01 1.750307e+01 1.549352e+00 3.273585e+00 2.441450e+00 3.150324e+00 3.902485e+00 5.335257e+00 2.075171e+00 3.142769e+00 3.446767e+00 4.216413e+00 2.157441e+00 3.267720e+00 1.572218e+00 2.957862e-01 5.424774e-01 4.675941e-01 5.158637e-01 6.195006e-01 9.606873e-01 3.712198e-01 4.678579e-01 5.318695e-01 7.310809e-01 3.574302e-01 3.723087e-01 2.887647e-01
<GCONST> 1.198909e+02
<STATE> 3
<MEAN> 39
 1.506928e+01 -1.759643e+01 -6.849481e+00 8.497450e+00 -2.199065e+01 8.109971e+00 -4.061653e+00 -3.924525e-01 1.029395e+01 -1.687105e+01 -4.202020e+00 4.389878e+00 8.244049e+01 8.567537e-02 1.273979e-01 -2.531230e-01 2.201636e-01 1.918856e-01 2.535750e-01 3.654912e-02 -1.485330e-01 -6.301804e-02 1.531299e-01 3.502615e-01 4.254808e-01 -2.048346e-01 -2.056688e-01 1.675232e-01 5.223734e-01 3.269877e-01 7.886041e-02 6.277611e-01 -7.390144e-03 -2.780297e-01 -1.277831e-01 3.740864e-01 -7.506329e-02 -1.710792e-01 -4.383183e-01
<VARIANCE> 39
 3.480038e+00 1.227437e+01 1.671760e+01 1.976696e+01 5.146208e+01 6.445848e+01 1.931395e+01 4.939272e+01 3.428372e+01 2.812822e+01 2.777710e+01 2.198047e+01 7.213480e+00 2.938195e-01 1.165375e+00 1.428323e+00 1.777582e+00 3.313526e+00 3.821361e+00 1.455418e+00 2.294022e+00 1.889381e+00 2.043679e+00 1.686334e+00 1.514389e+00 7.459776e-01 1.085220e-01 2.142982e-01 2.164793e-01 3.045671e-01 5.233519e-01 5.594146e-01 2.523733e-01 3.757977e-01 3.473700e-01 4.753919e-01 2.767725e-01 3.115514e-01 1.235408e-01
<GCONST> 1.006541e+02
<STATE> 4
<MEAN> 39
 1.359488e+01 -1.533781e+01 -3.785359e+00 1.204651e+01 -2.017712e+01 1.575019e+01 -4.920669e+00 -4.275701e+00 8.599058e+00 -1.336299e+01 -3.294165e+00 5.551172e+00 7.725816e+01 -6.311746e-01 6.009809e-01 1.001501e+00 8.661524e-01 4.485065e-01 1.061527e+00 -5.406000e-03 -4.776509e-01 -3.615283e-01 1.244307e+00 2.987746e-02 -1.179773e-01 -1.262164e+00 -1.638187e-01 -8.183526e-02 1.434442e-01 -9.198487e-04 -4.921698e-02 -1.409849e-01 8.643752e-03 7.802891e-02 -5.315902e-03 8.783676e-02 -1.066830e-01 -1.211473e-01 -4.960671e-02
<VARIANCE> 39
 8.432779e+00 1.567729e+01 1.900446e+01 2.017073e+01 4.156022e+01 4.359664e+01 2.211735e+01 4.328344e+01 3.204047e+01 3.268214e+01 3.313153e+01 2.330643e+01 2.196091e+01 4.667377e-01 1.607079e+00 1.507945e+00 1.481637e+00 2.523341e+00 3.227149e+00 1.897554e+00 2.257538e+00 1.677837e+00 1.966975e+00 1.933236e+00 1.753119e+00 7.853835e-01 9.232058e-02 3.204329e-01 3.139281e-01 2.742304e-01 4.560400e-01 5.642377e-01 3.199109e-01 3.921795e-01 3.278124e-01 3.856658e-01 3.706114e-01 3.168314e-01 1.691035e-01
<GCONST> 1.044169e+02
<TRANSP> 5
 0.000000e+00 1.000000e+00 0.000000e+00 0.000000e+00 0.000000e+00
 0.000000e+00 5.213507e-01 4.786493e-01 0.000000e+00 0.000000e+00
 0.000000e+00 0.000000e+00 7.139202e-01 2.860798e-01 0.000000e+00
 0.000000e+00 0.000000e+00 0.000000e+00 6.527057e-01 3.472943e-01
 0.000000e+00 0.000000e+00 0.000000e+00 0.000000e+00 0.000000e+00
<ENDHMM>
~h "b"
<BEGINHMM>
<NUMSTATES> 5
<STATE> 2
<MEAN> 39
 8.782446e+00 -8.238769e+00 1.871783e-01 1.863485e+01 -1.562368e+01 1.860386e+01 -4.498607e+00 -5.752351e+00 7.318401e+00 -6.362366e+00 -4.225305e+00 1.573276e+00 6.830912e+01 -7.303820e-01 7.835458e-01 7.774104e-01 6.565817e-01 -6.225736e-02 3.875372e-01 2.603449e-01 3.295552e-01 2.828443e-01 9.420022e-01 3.031771e-01 6.460679e-01 -1.229040e+00 7.609818e-02 -5.960307e-01 -2.381366e-02 -1.372996e-01 8.182698e-02 2.218622e-01 -4.173933e-02 -1.790243e-01 -1.646724e-01 -4.896609e-01 -9.619068e-02 -6.920174e-02 4.629793e-01
<VARIANCE> 39
 5.073264e+01 2.517337e+01 1.513706e+01 2.237512e+01 2.572487e+01 2.519496e+01 1.725758e+01 2.480546e+01 2.450412e+01 1.740104e+01 1.386519e+01 1.591964e+01 3.590829e+01 2.163401e-01 1.243023e+00 6.495103e-01 8.805702e-01 1.020792e+00 1.234425e+00 8.985314e-01 1.283811e+00 1.097704e+00 1.916467e+00 1.056401e+00 9.624919e-01 8.762836e-01 8.249704e-02 2.843233e-01 1.434031e-01 2.166365e-01 2.263635e-01 3.077884e-01 2.024706e-01 2.846422e-01 2.595169e-01 3.153458e-01 2.124286e-01 2.274854e-01 1.697023e-01
<GCONST> 9.130313e+01
<STATE> 3
<MEAN> 39
 7.336173e+00 -6.788611e+00 2.419454e+00 2.109572e+01 -1.367667e+01 1.915521e+01 -4.696785e+00 -5.263020e+00 8.027255e+00 -4.726522e+00 -3.323143e+00 2.298122e+00 6.658886e+01 -1.758808e-01 -1.110466e+00 5.287792e-01 -1.387347e-01 1.141616e-01 1.172876e+00 3.357166e-01 1.054269e-01 -1.314392e-01 -7.562044e-01 -9.540149e-02 2.858419e-01 4.299509e-01 5.033880e-01 -9.593411e-01 -4.228027e-01 -3.630214e-01 1.562553e-01 1.929325e-02 -4.153388e-01 -3.708469e-01 -1.170185e-01 -1.007287e+00 -2.300631e-01 -3.315834e-01 1.080350e+00
<VARIANCE> 39
 5.370741e+01 2.036761e+01 1.950045e+01 3.246487e+01 2.680245e+01 2.337562e+01 1.846357e+01 2.682142e+01 2.110212e+01 1.568057e+01 1.288553e+01 9.389592e+00 3.924881e+01 1.149250e+00 3.115444e+00 1.080365e+00 1.774475e+00 2.028857e+00 2.543572e+00 1.460496e+00 1.848889e+00 1.597058e+00 2.129139e+00 1.089060e+00 1.270594e+00 1.307586e+00 1.795566e-01 3.757678e-01 2.207295e-01 3.856732e-01 5.550312e-01 6.364639e-01 3.786490e-01 4.942545e-01 3.652125e-01 4.544405e-01 2.369130e-01 2.850642e-01 2.282829e-01
<GCONST> 1.045712e+02
<STATE> 4
<MEAN> 39
 4.984876e+00 -1.266219e+01 1.359646e+00 1.717212e+01 -1.447217e+01 2.227672e+01 -2.694919e+00 -4.495341e+00 6.242852e+00 -7.564535e+00 -3.894110e+00 3.325357e+00 6.746931e+01 1.737815e+00 -2.674204e+00 -2.651715e-01 -6.904611e-02 3.907643e-01 1.053295e+00 -7.597408e-01 -9.127210e-01 -6.096882e-02 -2.660907e+00 -4.214924e-01 -4.547355e-01 3.058031e+00 3.466241e-01 4.227221e-02 -2.527221e-01 2.644480e-01 2.651734e-01 -8.779503e-01 -7.528588e-01 -2.972078e-01 2.060464e-01 -1.999334e-01 -7.287189e-02 -5.221680e-01 5.023401e-01
<VARIANCE> 39
 7.055574e+01 7.241757e+01 3.180205e+01 4.292836e+01 4.737548e+01 5.227530e+01 1.747113e+01 2.524146e+01 3.274494e+01 3.148683e+01 1.379377e+01 1.287322e+01 6.423567e+01 3.578362e+00 5.790056e+00 2.642658e+00 4.624765e+00 6.962769e+00 6.273250e+00 3.871913e+00 3.880960e+00 2.972969e+00 3.372959e+00 1.540225e+00 2.238282e+00 4.228742e+00 5.177147e-01 1.328073e+00 3.870803e-01 6.225959e-01 8.163718e-01 9.935722e-01 5.005786e-01 4.682103e-01 3.987251e-01 5.851970e-01 3.479926e-01 3.878905e-01 1.050865e+00
<GCONST> 1.277589e+02
<TRANSP> 5
 0.000000e+00 1.000000e+00 0.000000e+00 0.000000e+00 0.000000e+00
 0.000000e+00 6.195948e-01 3.804052e-01 0.000000e+00 0.000000e+00
 0.000000e+00 0.000000e+00 3.929600e-01 6.070400e-01 0.000000e+00
 0.000000e+00 0.000000e+00 0.000000e+00 4.380888e-01 5.619112e-01
 0.000000e+00 0.000000e+00 0.000000e+00 0.000000e+00 0.000000e+00
<ENDHMM>
~h "c"
<BEGINHMM>
<NUMSTATES> 5
<STATE> 2
<MEAN> 39
 3.719963e+00 -2.526782e+01 1.393762e+01 2.277104e+01 -1.390603e+01 2.083317e+01 -5.125933e+00 -6.439967e+00 8.324368e+00 -7.191728e+00 -3.234339e+00 3.982893e+00 7.733829e+01 -2.001918e+00 -4.191230e+00 2.321054e+00 -2.811291e-01 -5.862626e-01 -2.843707e-01 1.980925e-02 5.026837e-01 -8.894213e-03 -3.921128e-01 -7.155623e-01 1.046408e+00 1.354374e+00 6.350528e-01 6.358040e-01 -1.002178e+00 -1.942559e-01 3.327533e-01 1.818050e-01 -2.518337e-01 -6.770881e-01 -2.524854e-01 -2.039856e-01 2.720633e-02 -3.414307e-01 9.568740e-02
<VARIANCE> 39
 2.358269e+01 1.049661e+02 4.568764e+01 2.279250e+01 3.682999e+01 3.525320e+01 3.126569e+01 3.896249e+01 3.491832e+01 2.477234e+01 2.916407e+01 1.966713e+01 1.590665e+01 2.108414e+00 7.371655e+00 6.231928e+00 2.110415e+00 3.780535e+00 2.993887e+00 3.538599e+00 5.039818e+00 2.733414e+00 2.767469e+00 2.665446e+00 2.447780e+00 1.352029e+00 8.508969e-01 3.550011e+00 1.515997e+00 3.682097e-01 7.598646e-01 6.730886e-01 6.024801e-01 7.504960e-01 6.414195e-01 3.676967e-01 5.222126e-01 4.884352e-01 4.724700e-01
<GCONST> 1.269210e+02
<STATE> 3
<MEAN> 39
 3.827561e+00 -2.918021e+01 1.098057e+01 2.054307e+01 -1.154030e+01 2.111259e+01 -5.588286e+00 -1.172782e+01 5.411547e+00 -8.673736e+00 -5.197640e+00 3.813200e+00 8.077720e+01 2.885740e+00 3.018009e+00 -3.289401e+00 8.285630e-02 1.235653e+00 2.327618e-01 -7.853023e-01 -1.693995e+00 -7.937165e-01 -1.481403e+00 6.232077e-02 -1.052740e+00 1.507547e-01 4.693838e-01 7.548245e-01 -3.565542e-01 4.919552e-02 -1.025494e-01 -1.003712e-01 -2.539411e-01 2.601762e-01 3.489686e-01 -3.125412e-01 1.779450e-01 -6.529658e-02 -1.353861e-01
<VARIANCE> 39
 2.821063e+01 3.293750e+01 3.850334e+01 1.880230e+01 1.904326e+01 4.760720e+01 1.545143e+01 2.514803e+01 2.301888e+01 3.038646e+01 1.571944e+01 1.414546e+01 5.854686e+00 1.639893e+00 2.396765e+00 4.156852e+00 1.818442e+00 1.935278e+00 2.085075e+00 2.718380e+00 1.809963e+00 2.470458e+00 2.308126e+00 1.078780e+00 1.553634e+00 3.373012e-01 7.709152e-01 1.429994e+00 1.015776e+00 2.977725e-01 4.526059e-01 4.215005e-01 3.660775e-01 3.239557e-01 3.565914e-01 4.189307e-01 3.122272e-01 4.073015e-01 9.245028e-02
<GCONST> 1.079091e+02
<STATE> 4
<MEAN> 39
 1.024539e+01 -2.155997e+01 6.746226e+00 2.349592e+01 -9.946684e+00 2.154906e+01 -1.290225e+01 -1.334726e+01 8.997491e+00 -1.323345e+01 -5.027508e+00 -1.900686e-01 7.980574e+01 6.497278e-01 8.200928e-01 -7.178410e-01 -1.181970e-01 1.010117e-01 -4.603840e-01 -9.563787e-01 8.078602e-02 3.691039e-01 -7.602110e-01 1.660506e-01 -2.485375e-01 5.855069e-02 -4.619353e-01 -4.079307e-01 4.106658e-01 -1.279653e-01 -1.254266e-01 -3.216014e-02 2.504723e-01 3.316039e-01 4.297907e-02 3.103910e-01 7.482766e-02 2.794275e-01 -9.739872e-02
<VARIANCE> 39
 5.236633e+00 1.005927e+01 3.301278e+01 1.399528e+01 2.130509e+01 2.446116e+01 2.490229e+01 1.090171e+01 2.432352e+01 2.086523e+01 9.563680e+00 1.578231e+01 5.450704e+00 1.581221e+00 2.020076e+00 3.703671e+00 1.018071e+00 1.243392e+00 1.278985e+00 2.541353e+00 1.077414e+00 1.147701e+00 2.564750e+00 1.143677e+00 1.149209e+00 2.702934e-01 2.567170e-01 4.842920e-01 4.390480e-01 2.192421e-01 2.952838e-01 1.906116e-01 3.013752e-01 2.059314e-01 2.505151e-01 3.555624e-01 1.270269e-01 2.079783e-01 6.663339e-02
<GCONST> 9.174042e+01
<TRANSP> 5
 0.000000e+00 1.000000e+00 0.000000e+00 0.000000e+00 0.000000e+00
 0.000000e+00 7.796768e-01 2.203232e-01 0.000000e+00 0.000000e+00
 0.000000e+00 0.000000e+00 6.177061e-01 3.822940e-01 0.000000e+00
 0.000000e+00 0.000000e+00 0.000000e+00 6.479148e-01 3.520851e-01
 0.000000e+00 0.000000e+00 0.000000e+00 0.000000e+00 0.000000e+00
<ENDHMM>
~h "d"
<BEGINHMM>
<NUMSTATES> 5
<STATE> 2
<MEAN> 39
 8.341427e+00 -1.180748e+01 1.204648e+00 1.697165e+01 -1.771487e+01 1.952286e+01 -4.112393e+00 -7.561729e+00 5.569992e+00 -8.605389e+00 -7.106914e+00 -1.007285e+00 7.019585e+01 -4.523710e-01 7.272565e-01 4.094043e-01 4.857466e-01 6.683186e-03 1.038515e-01 1.481321e-01 3.822084e-01 3.275719e-01 9.656793e-01 2.423204e-01 3.458637e-01 -9.886092e-01 -5.008481e-02 -3.753322e-01 -1.934868e-02 -7.003015e-02 2.992067e-02 6.003797e-02 -9.170157e-02 -2.511889e-02 -1.530798e-02 -1.278425e-01 1.581829e-01 1.966092e-01 1.717671e-01
<VARIANCE> 39
 3.606511e+01 3.947915e+01 3.013525e+01 2.342690e+01 3.029537e+01 2.606847e+01 1.968196e+01 2.214622e+01 2.909048e+01 2.832184e+01 3.233388e+01 4.763822e+01 3.272009e+01 4.145328e-01 1.621820e+00 1.355659e+00 1.388184e+00 1.176130e+00 1.423935e+00 1.502276e+00 1.311342e+00 1.528608e+00 2.031502e+00 1.418828e+00 1.228928e+00 1.110765e+00 6.114902e-02 3.508065e-01 2.494200e-01 2.529888e-01 2.984678e-01 3.873983e-01 2.823056e-01 2.790531e-01 2.716340e-01 3.214270e-01 3.592345e-01 2.813236e-01 1.350652e-01
<GCONST> 1.009760e+02
<STATE> 3
<MEAN> 39
 1.097299e+01 -8.064032e+00 4.541745e+00 1.805254e+01 -1.892552e+01 2.119894e+01 -3.085931e+00 -5.975791e+00 1.002226e+01 -7.473567e+00 -7.313951e+00 -3.449351e+00 7.150330e+01 -7.290846e-01 1.806198e-01 5.719821e-01 4.285637e-01 4.214143e-02 3.888637e-01 -5.492571e-02 2.873849e-01 5.611831e-02 6.816053e-01 8.077261e-01 1.196168e+00 -9.772952e-01 3.055923e-02 -6.825770e-01 -1.140358e-01 -2.586233e-01 5.194746e-02 4.406742e-02 -5.874294e-02 -8.222728e-02 -1.967101e-01 -4.776978e-01 -5.290193e-02 9.136734e-02 4.651690e-01
<VARIANCE> 39
 8.204988e+00 1.566144e+01 1.740712e+01 1.658611e+01 2.728052e+01 2.094207e+01 1.530222e+01 1.902823e+01 2.583645e+01 1.580876e+01 3.125418e+01 5.247807e+01 1.086359e+01 2.392537e-01 1.558612e+00 9.742603e-01 1.123652e+00 1.443346e+00 1.804839e+00 1.208124e+00 1.311177e+00 1.627238e+00 1.665149e+00 1.645126e+00 1.680344e+00 6.534532e-01 5.472424e-02 5.052334e-01 2.323866e-01 2.758219e-01 3.252266e-01 3.969994e-01 2.665475e-01 2.947012e-01 3.756334e-01 3.590468e-01 3.522338e-01 4.089186e-01 2.621390e-01
<GCONST> 9.592381e+01
<STATE> 4
<MEAN> 39
 8.366268e+00 -1.044052e+01 4.932802e+00 1.930564e+01 -1.657004e+01 2.208940e+01 -3.849564e+00 -6.097015e+00 7.765906e+00 -6.453650e+00 -4.093366e+00 1.600816e+00 6.971741e+01 -2.014458e-01 -3.015473e+00 1.356500e-01 -1.193378e+00 -3.917512e-01 6.748562e-01 -2.029659e-01 1.162973e-01 -1.292348e-01 -1.390820e+00 -1.689196e-01 6.666921e-01 1.543508e+00 4.615072e-01 -5.829574e-01 -2.848225e-01 -4.865602e-01 -5.784339e-02 -1.404772e-01 -2.967088e-01 -2.705516e-01 -4.760272e-02 -9.422512e-01 -3.247912e-01 -2.639296e-01 9.573137e-01
<VARIANCE> 39
 9.543645e+00 3.422033e+01 2.196940e+01 2.502485e+01 3.559754e+01 2.581301e+01 1.799695e+01 1.894321e+01 2.223494e+01 1.766703e+01 1.883883e+01 2.050637e+01 1.087522e+01 8.239951e-01 3.505246e+00 2.200173e+00 2.334423e+00 3.390632e+00 3.432915e+00 2.319014e+00 2.731458e+00 3.206895e+00 3.146827e+00 1.815662e+00 2.076232e+00 1.900597e+00 1.026980e-01 8.035709e-01 3.924384e-01 4.949677e-01 5.321822e-01 6.304154e-01 4.270280e-01 4.211720e-01 3.849352e-01 4.513024e-01 3.728059e-01 4.292147e-01 2.105216e-01
<GCONST> 1.099430e+02
<TRANSP> 5
 0.000000e+00 1.000000e+00 0.000000e+00 0.000000e+00 0.000000e+00
 0.000000e+00 3.628060e-01 6.371940e-01 0.000000e+00 0.000000e+00
 0.000000e+00 0.000000e+00 5.568062e-01 4.431938e-01 0.000000e+00
 0.000000e+00 0.000000e+00 0.000000e+00 5.371482e-01 4.628517e-01
 0.000000e+00 0.000000e+00 0.000000e+00 0.000000e+00 0.000000e+00
<ENDHMM>
~h "e"
<BEGINHMM>
<NUMSTATES> 5
<STATE> 2
<MEAN> 39
 1.206620e+01 -1.901896e+01 -6.042929e-01 1.644187e+01 -1.251955e+01 1.938018e+01 -9.555028e+00 -1.157507e+01 4.280000e+00 -1.404030e+01 -2.458753e+00 3.672492e+00 7.923288e+01 1.224675e+00 -6.745982e-01 -1.651763e+00 -5.682777e-01 6.213500e-01 -6.940647e-01 -1.649525e+00 -9.193481e-01 1.955531e-01 -1.377647e+00 8.104948e-01 6.285602e-01 1.822052e+00 -2.139056e-01 1.154809e-01 2.103590e-01 1.012480e-01 -8.117860e-02 7.158168e-03 -4.575178e-03 1.228073e-01 2.766616e-01 4.095558e-01 1.543471e-01 3.403883e-02 -2.450405e-01
<VARIANCE> 39
 1.257269e+01 1.878046e+01 2.947219e+01 3.678007e+01 3.680023e+01 4.229661e+01 3.319613e+01 2.532149e+01 2.680000e+01 2.903247e+01 1.715205e+01 2.655687e+01 1.915368e+01 1.491448e+00 3.863852e+00 2.770014e+00 3.344796e+00 2.950066e+00 3.725005e+00 2.322345e+00 2.410864e+00 2.555215e+00 3.344859e+00 2.063911e+00 3.566403e+00 1.339497e+00 3.375410e-01 5.655468e-01 5.023172e-01 5.238750e-01 5.650218e-01 6.710896e-01 4.726996e-01 4.106732e-01 4.364712e-01 5.696330e-01 3.016464e-01 4.119863e-01 2.710044e-01
<GCONST> 1.160934e+02
<STATE> 3
<MEAN> 39
 1.392065e+01 -2.032691e+01 -3.683988e+00 1.546913e+01 -1.188080e+01 1.722621e+01 -1.261928e+01 -1.250055e+01 6.258218e+00 -1.458887e+01 8.069506e-01 5.620108e+00 8.253528e+01 5.520745e-03 1.363490e-01 -2.576008e-02 1.071516e-02 4.618594e-02 -4.232153e-02 -2.043906e-01 -9.774305e-03 4.176788e-01 4.990284e-01 3.224813e-01 1.571764e-02 -1.045934e-01 -2.968650e-01 3.690891e-01 5.069040e-01 2.366454e-01 -1.002840e-01 2.322865e-01 5.357692e-01 2.356009e-01 -1.452626e-01 4.588704e-01 -2.635361e-01 -2.741341e-01 -6.102298e-01
<VARIANCE> 39
 3.306256e+00 8.246339e+00 2.053559e+01 3.279315e+01 3.299776e+01 2.957248e+01 2.235142e+01 2.218596e+01 2.107349e+01 2.173772e+01 2.061500e+01 3.120027e+01 6.261641e+00 3.798218e-01 1.035321e+00 1.858664e+00 2.303829e+00 2.278022e+00 2.450835e+00 1.753299e+00 1.189481e+00 1.688357e+00 1.640183e+00 1.381246e+00 1.411348e+00 9.113635e-01 1.221791e-01 2.350052e-01 2.720693e-01 3.154196e-01 4.335071e-01 4.064305e-01 3.047105e-01 2.531151e-01 3.129962e-01 4.332145e-01 2.563075e-01 3.418267e-01 1.081208e-01
<GCONST> 9.662000e+01
<STATE> 4
<MEAN> 39
 1.228127e+01 -1.785657e+01 -1.559351e-02 1.830852e+01 -1.138878e+01 1.906448e+01 -1.239336e+01 -1.290570e+01 6.669027e+00 -1.049665e+01 -1.913969e-02 3.101595e+00 7.841573e+01 -5.835532e-01 1.007750e+00 7.923325e-01 6.943352e-01 -1.505178e-01 2.274028e-01 8.931273e-01 4.909782e-01 -2.131959e-01 1.205760e+00 -2.580649e-01 -2.369502e-01 -1.443935e+00 -1.346174e-01 -7.289885e-02 4.919888e-02 -2.536413e-02 -1.422854e-01 -2.780486e-02 1.677970e-01 8.100174e-02 -1.743519e-01 -6.364879e-02 -1.491581e-01 6.278691e-02 -8.829546e-02
<VARIANCE> 39
 6.757956e+00 1.263838e+01 3.096305e+01 3.778445e+01 3.530120e+01 3.057352e+01 2.909389e+01 2.757177e+01 3.370404e+01 3.056385e+01 1.944500e+01 2.839061e+01 1.521394e+01 5.455509e-01 1.742098e+00 1.793523e+00 1.660000e+00 2.020837e+00 2.043401e+00 1.853139e+00 1.249344e+00 1.977746e+00 2.233433e+00 1.617426e+00 1.759830e+00 1.118418e+00 8.843044e-02 3.969901e-01 3.224906e-01 3.412232e-01 4.125952e-01 4.007277e-01 3.326990e-01 2.759098e-01 3.614982e-01 4.354107e-01 2.679962e-01 3.045869e-01 2.119603e-01
<GCONST> 1.031251e+02
<TRANSP> 5
 0.000000e+00 1.000000e+00 0.000000e+00 0.000000e+00 0.000000e+00
 0.000000e+00 5.053875e-01 4.946125e-01 0.000000e+00 0.000000e+00
 0.000000e+00 0.000000e+00 6.800293e-01 3.199707e-01 0.000000e+00
 0.000000e+00 0.000000e+00 0.000000e+00 5.799583e-01 4.200417e-01
 0.000000e+00 0.000000e+00 0.000000e+00 0.000000e+00 0.000000e+00
<ENDHMM>
~h "f"
<BEGINHMM>
<NUMSTATES> 5
<STATE> 2
<MEAN> 39
 2.229349e+00 -2.629577e+01 4.207479e+00 9.859408e+00 -2.043123e+01 2.361088e+01 -8.471725e+00 -4.052361e+00 5.231785e+00 -1.219975e+01 -2.599536e+00 5.423911e+00 7.180048e+01 -7.790930e-01 -1.679051e+00 -9.829393e-02 -8.782201e-01 -1.972570e-01 3.004795e-02 -4.303505e-01 2.408477e-01 -9.945310e-02 -3.675908e-01 -1.426131e-02 1.040052e-01 2.415905e-01 3.677463e-01 4.757744e-01 -2.985388e-01 9.850138e-02 4.567989e-02 -2.556055e-01 1.596410e-01 7.212598e-03 1.359550e-01 8.259404e-02 -7.537965e-02 -1.184706e-01 8.231501e-02
<VARIANCE> 39
 2.841452e+01 4.718862e+01 2.310071e+01 4.019415e+01 2.735593e+01 3.105936e+01 1.769418e+01 2.111075e+01 2.600843e+01 2.692865e+01 1.528164e+01 1.285996e+01 2.666600e+01 4.798083e-01 2.110020e+00 9.828559e-01 1.286887e+00 1.031969e+00 1.570667e+00 2.038243e+00 1.337830e+00 1.654742e+00 1.473697e+00 1.053085e+00 6.978841e-01 5.215871e-01 1.559707e-01 6.115734e-01 2.081683e-01 2.463861e-01 2.025814e-01 3.300983e-01 3.604681e-01 2.510867e-01 2.811981e-01 3.833802e-01 2.330668e-01 1.846217e-01 1.723457e-01
<GCONST> 9.760249e+01
<STATE> 3
<MEAN> 39
 -2.381603e-01 -2.932365e+01 2.005075e+00 6.852812e+00 -2.081520e+01 2.293284e+01 -8.976380e+00 -2.976745e+00 6.230530e+00 -1.118661e+01 -2.555568e+00 5.393105e+00 7.147910e+01 1.659917e+00 1.895744e+00 -9.888662e-01 7.603385e-01 8.269387e-02 -1.345727e+00 2.982652e-01 -1.959727e-01 1.712228e-01 1.280525e-01 -6.837567e-01 -6.855762e-01 2.884353e-01 9.467601e-01 1.136896e+00 -8.082896e-03 5.914586e-01 1.777694e-01 -3.748850e-01 6.036136e-02 -6.265336e-02 3.525858e-01 -2.645725e-01 -2.029904e-01 -3.533688e-01 3.788007e-01
<VARIANCE> 39
 3.664297e+01 5.120046e+01 4.345758e+01 3.305632e+01 4.050945e+01 5.083904e+01 2.424486e+01 3.517772e+01 3.248800e+01 1.705455e+01 1.553864e+01 9.746884e+00 5.600689e+01 2.408525e+00 6.619834e+00 2.414862e+00 2.821372e+00 2.120516e+00 2.716729e+00 1.829024e+00 2.427665e+00 1.957937e+00 3.032848e+00 1.958654e+00 1.689715e+00 2.260456e+00 2.360088e-01 7.622829e-01 6.953465e-01 5.640056e-01 5.566532e-01 9.542311e-01 2.939356e-01 3.062802e-01 2.942706e-01 4.221546e-01 3.694618e-01 2.245842e-01 7.384416e-01
<GCONST> 1.173798e+02
<STATE> 4
<MEAN> 39
 4.429196e+00 -2.002416e+01 -1.283276e-01 7.770988e+00 -2.042319e+01 1.890328e+01 -7.779249e+00 -2.958362e+00 7.602270e+00 -1.240073e+01 -7.357840e+00 3.473418e+00 7.116550e+01 3.073605e+00 2.119125e+00 -3.636542e-01 9.058814e-01 -1.273596e-01 -8.246366e-01 2.155374e-01 -7.896387e-02 1.041755e+00 -1.195906e+00 -4.564356e-01 -8.001699e-01 1.911556e+00 4.207070e-02 5.716248e-02 1.230475e-01 3.539548e-01 4.936061e-02 -1.860949e-02 -1.763234e-01 4.918209e-02 1.871513e-01 -7.980348e-02 3.406885e-01 -1.749720e-02 5.013609e-02
<VARIANCE> 39
 6.450880e+01 5.179916e+01 2.769319e+01 3.363652e+01 2.356755e+01 5.298199e+01 2.486580e+01 1.617561e+01 2.519034e+01 3.477671e+01 2.860335e+01 1.998737e+01 6.123753e+01 7.740005e+00 8.499590e+00 4.901460e+00 3.656060e+00 4.401883e+00 4.956291e+00 1.449922e+00 1.189670e+00 2.046303e+00 2.617344e+00 3.706671e+00 2.218120e+00 1.079573e+01 8.003269e-01 1.180454e+00 4.756366e-01 4.997856e-01 2.357084e-01 7.760869e-01 2.287951e-01 2.817670e-01 3.708249e-01 5.580072e-01 6.389408e-01 4.661263e-01 1.088489e+00
<GCONST> 1.252225e+02
<TRANSP> 5
 0.000000e+00 1.000000e+00 0.000000e+00 0.000000e+00 0.000000e+00
 0.000000e+00 8.137484e-01 1.862516e-01 0.000000e+00 0.000000e+00
 0.000000e+00 0.000000e+00 4.602580e-01 5.397421e-01 0.000000e+00
 0.000000e+00 0.000000e+00 0.000000e+00 4.976850e-01 5.023150e-01
 0.000000e+00 0.000000e+00 0.000000e+00 0.000000e+00 0.000000e+00
<ENDHMM>
~h "g"
<BEGINHMM>
<NUMSTATES> 5
<STATE> 2
<MEAN> 39
 9.351887e+00 -1.069159e+01 4.143538e+00 2.245199e+01 -1.288994e+01 2.035434e+01 -9.060220e+00 -9.890628e+00 7.181767e+00 -5.676479e+00 -6.618157e-01 1.786849e+00 7.065652e+01 -7.143278e-01 -2.295686e-01 5.644777e-01 1.395798e-01 -1.298940e-01 1.533375e-01 2.992009e-02 9.149686e-01 3.434348e-01 2.912945e-01 4.219957e-01 8.134879e-01 -6.964368e-01 -5.288633e-02 -1.198764e+00 6.131206e-02 -4.064976e-01 5.195702e-02 2.303883e-01 -4.074284e-02 2.083120e-01 1.983686e-02 -7.294332e-01 -1.418056e-01 -6.330517e-02 7.619066e-01
<VARIANCE> 39
 1.397470e+01 2.921535e+01 2.497904e+01 1.792027e+01 2.100187e+01 2.081501e+01 2.275098e+01 2.688769e+01 2.081553e+01 2.657043e+01 1.972909e+01 2.158521e+01 1.286088e+01 5.485432e-01 6.353842e+00 1.904085e+00 2.078551e+00 1.929192e+00 2.175625e+00 2.816969e+00 2.970919e+00 1.897509e+00 3.253042e+00 1.745487e+00 1.443278e+00 1.832634e+00 6.907502e-02 9.587659e-01 2.112048e-01 3.025035e-01 3.138982e-01 4.446637e-01 4.201623e-01 5.506695e-01 2.327060e-01 5.611295e-01 2.952330e-01 4.132463e-01 2.895673e-01
<GCONST> 1.064696e+02
<STATE> 3
<MEAN> 39
 5.999888e+00 -1.510794e+01 5.885722e+00 2.027588e+01 -1.308060e+01 2.070968e+01 -7.505713e+00 -5.463763e+00 7.613619e+00 -6.553493e+00 -5.007662e-01 3.011346e+00 7.061256e+01 -5.130402e-01 -4.428010e+00 6.296090e-01 -9.206865e-01 1.838337e-01 1.122877e+00 -4.002076e-01 9.755282e-01 1.491268e-01 -1.769238e+00 3.399946e-01 -1.416526e-01 2.127770e+00 5.166826e-01 -1.042852e-01 -2.167556e-01 1.187686e-01 3.447670e-01 -1.492267e-01 -4.976854e-01 -7.251437e-01 -1.426048e-01 -5.800630e-01 -3.196694e-01 -5.039177e-01 6.990544e-01
<VARIANCE> 39
 1.828567e+01 5.445544e+01 2.659577e+01 3.047657e+01 3.457930e+01 2.600624e+01 3.125717e+01 2.275425e+01 1.928551e+01 1.840970e+01 1.710791e+01 1.577192e+01 1.428973e+01 1.201140e+00 4.729700e+00 2.952839e+00 3.248871e+00 2.692674e+00 4.303883e+00 3.097202e+00 4.916817e+00 2.507560e+00 3.301595e+00 2.882461e+00 3.134685e+00 1.284946e+00 9.528902e-02 1.066377e+00 3.839152e-01 4.619080e-01 3.791001e-01 5.609239e-01 4.147947e-01 4.892624e-01 3.226173e-01 3.870393e-01 3.157997e-01 2.792922e-01 2.378482e-01
<GCONST> 1.134095e+02
<STATE> 4
<MEAN> 39
 6.949771e+00 -2.550395e+01 7.047967e+00 1.914961e+01 -1.327627e+01 2.344945e+01 -1.090239e+01 -6.627166e+00 8.343981e+00 -1.217224e+01 -1.275762e+00 6.114846e-01 7.740504e+01 1.117025e+00 -5.516549e-01 -3.731369e-01 7.310753e-01 1.643716e+00 -7.316597e-01 -1.608957e+00 -1.489446e+00 -4.452254e-01 -2.031560e+00 -5.623455e-01 -8.931574e-01 1.966310e+00 4.780666e-01 1.521439e+00 -6.539304e-01 3.187192e-01 3.745446e-01 -6.205205e-01 -4.865519e-02 -5.337773e-01 -1.584798e-01 1.777322e-01 -1.654225e-01 1.935749e-02 -2.951891e-01
<VARIANCE> 39
 9.208961e+00 4.264352e+01 2.580262e+01 3.774853e+01 3.890466e+01 4.405921e+01 2.850851e+01 3.311604e+01 2.902899e+01 2.700548e+01 2.905304e+01 1.965533e+01 1.024111e+01 1.193397e+00 7.330119e+00 2.531073e+00 3.008110e+00 3.212444e+00 4.206131e+00 2.262087e+00 3.440270e+00 2.336323e+00 2.914229e+00 1.803848e+00 2.270291e+00 1.149468e+00 1.702158e-01 8.674496e-01 4.669546e-01 7.539119e-01 6.065828e-01 8.171045e-01 5.565537e-01 9.616869e-01 4.560056e-01 6.498209e-01 5.186379e-01 6.121746e-01 2.193018e-01
<GCONST> 1.183235e+02
<TRANSP> 5
 0.000000e+00 1.000000e+00 0.000000e+00 0.000000e+00 0.000000e+00
 0.000000e+00 5.697773e-01 4.302227e-01 0.000000e+00 0.000000e+00
 0.000000e+00 0.000000e+00 3.856049e-01 6.143951e-01 0.000000e+00
 0.000000e+00 0.000000e+00 0.000000e+00 5.698480e-01 4.301520e-01
 0.000000e+00 0.000000e+00 0.000000e+00 0.000000e+00 0.000000e+00
<ENDHMM>
~h "h"
<BEGINHMM>
<NUMSTATES> 5
<STATE> 2
<MEAN> 39
 8.848248e+00 -1.957904e+01 -4.108233e+00 1.068834e+01 -2.190884e+01 1.952956e+01 5.700138e-01 -1.253924e+00 8.898837e+00 -7.464968e+00 -2.385609e+00 5.533112e+00 7.350868e+01 2.316771e-02 -5.906651e-01 -5.041090e-01 -5.044249e-01 -6.731550e-01 -5.790231e-01 6.315917e-01 1.168563e+00 8.198674e-01 2.769360e-01 -2.302247e-02 3.094855e-02 2.076255e-01 1.595509e-01 1.435624e-01 9.745286e-02 9.856816e-02 2.387790e-02 -1.539876e-01 -2.293482e-01 -2.158231e-01 -3.148982e-02 -2.073738e-01 -6.719242e-02 -2.222996e-01 1.893131e-01
<VARIANCE> 39
 1.817044e+01 1.829050e+01 2.893096e+01 3.104685e+01 5.051136e+01 5.304599e+01 2.979140e+01 3.048330e+01 2.629068e+01 2.781828e+01 2.117875e+01 1.906450e+01 3.621014e+01 4.308755e-01 1.388772e+00 1.630192e+00 1.795225e+00 1.545333e+00 1.768458e+00 2.354751e+00 2.496594e+00 2.700308e+00 1.931726e+00 1.198530e+00 1.863504e+00 7.349786e-01 5.551045e-02 2.424079e-01 3.117986e-01 2.919339e-01 2.327175e-01 5.223327e-01 4.259098e-01 3.498982e-01 4.477838e-01 3.374721e-01 2.682490e-01 3.747735e-01 1.183830e-01
<GCONST> 1.036213e+02
<STATE> 3
<MEAN> 39
 1.208311e+01 -2.046414e+01 -3.376764e+00 9.980516e+00 -2.317574e+01 1.731086e+01 5.130025e-01 1.233957e+00 1.268831e+01 -9.546944e+00 -1.290077e+00 4.305754e+00 7.853632e+01 5.946189e-01 4.253406e-01 2.583835e-01 2.266985e-02 1.756170e-01 -7.119067e-01 -5.782779e-01 -1.735328e-01 6.870078e-01 -3.920950e-01 1.460739e-01 -2.244692e-01 9.623427e-01 8.119939e-02 1.580953e-01 -1.206913e-01 1.030825e-02 2.063498e-01 -1.834794e-01 -3.428521e-01 -5.268018e-01 -3.130710e-01 -1.761105e-01 -5.429622e-02 1.262960e-02 1.265690e-01
<VARIANCE> 39
 8.146338e+00 1.527341e+01 3.251783e+01 2.740611e+01 4.068145e+01 4.547232e+01 3.534681e+01 3.928988e+01 1.683225e+01 3.359608e+01 1.793790e+01 1.871769e+01 1.237134e+01 8.461164e-01 1.801895e+00 1.444175e+00 1.557699e+00 2.257459e+00 3.120731e+00 2.121828e+00 2.014204e+00 1.483585e+00 1.771471e+00 5.717152e-01 7.567740e-01 1.063704e+00 9.604959e-02 3.124021e-01 3.141468e-01 3.883696e-01 3.864892e-01 4.501545e-01 3.741067e-01 2.763135e-01 1.989705e-01 3.545040e-01 2.150783e-01 2.661236e-01 1.414995e-01
<GCONST> 1.004536e+02
<STATE> 4
<MEAN> 39
 1.438746e+01 -1.862728e+01 -5.482068e+00 7.799832e+00 -2.303691e+01 1.290549e+01 -2.453136e+00 6.361062e-01 1.416904e+01 -1.259852e+01 -2.542114e+00 3.709405e+00 8.175013e+01 7.555183e-02 3.963789e-02 -4.451073e-02 -1.546782e-02 -2.914718e-02 -1.471746e-01 -3.018335e-01 -5.526968e-01 -2.199099e-01 -6.144006e-03 8.383628e-03 -1.924701e-01 1.615561e-01 -2.153327e-02 2.997257e-04 -6.067779e-03 1.221224e-01 7.675298e-02 8.032282e-02 -7.404259e-02 -1.128531e-01 -1.283640e-01 -4.573278e-02 1.298178e-03 1.995678e-02 -9.110459e-02
<VARIANCE> 39
 4.868005e+00 8.544784e+00 1.795222e+01 1.990329e+01 3.318895e+01 4.323666e+01 1.541079e+01 4.508321e+01 2.082066e+01 2.570437e+01 1.804311e+01 1.534809e+01 7.693106e+00 2.930843e-01 7.532996e-01 9.179196e-01 1.299855e+00 2.049271e+00 2.528768e+00 1.361148e+00 1.281843e+00 1.195776e+00 1.301390e+00 1.154203e+00 9.194902e-01 7.680541e-01 5.183788e-02 1.129810e-01 1.012266e-01 2.172748e-01 3.277372e-01 3.385928e-01 2.480859e-01 1.520246e-01 1.877638e-01 2.332176e-01 1.588550e-01 1.689366e-01 9.642331e-02
<GCONST> 8.662994e+01
<TRANSP> 5
 0.000000e+00 1.000000e+00 0.000000e+00 0.000000e+00 0.000000e+00
 0.000000e+00 6.142178e-01 3.857823e-01 0.000000e+00 0.000000e+00
 0.000000e+00 0.000000e+00 4.462506e-01 5.537494e-01 0.000000e+00
 0.000000e+00 0.000000e+00 0.000000e+00 7.860250e-01 2.139750e-01
 0.000000e+00 0.000000e+00 0.000000e+00 0.000000e+00 0.000000e+00
<ENDHMM>
~h "i"
<BEGINHMM>
<NUMSTATES> 5
<STATE> 2
<MEAN> 39
 9.351666e+00 -1.965630e+01 5.292782e+00 2.233682e+01 -1.145191e+01 2.136470e+01 -8.811951e+00 -1.089747e+01 6.230586e+00 -1.070825e+01 -3.518570e+00 -1.762206e-01 7.664640e+01 1.306489e+00 3.221799e-01 -6.145263e-01 1.113183e+00 1.465573e+00 -1.714647e-01 -1.660486e+00 -1.045175e+00 6.551114e-01 -9.627731e-01 -1.178514e-01 -1.096001e+00 1.132437e+00 -1.806271e-01 1.021121e-01 -5.646364e-02 -1.830926e-01 -7.896906e-02 -1.836237e-01 -6.418750e-02 8.736191e-02 8.451270e-02 2.382265e-01 9.950378e-02 7.483247e-02 -1.442394e-01
<VARIANCE> 39
 1.675911e+01 2.958731e+01 3.973009e+01 3.238557e+01 4.022869e+01 3.707125e+01 2.611230e+01 2.456014e+01 2.715662e+01 2.819624e+01 1.419992e+01 2.440970e+01 1.363277e+01 2.703557e+00 8.207822e+00 3.484286e+00 3.161550e+00 3.721563e+00 3.507137e+00 2.878495e+00 2.630080e+00 2.124956e+00 2.664397e+00 1.666926e+00 2.444656e+00 1.860712e+00 3.482950e-01 9.453756e-01 5.446150e-01 5.720847e-01 7.608297e-01 6.720102e-01 4.482044e-01 3.774268e-01 3.843957e-01 5.347931e-01 2.987436e-01 3.335864e-01 2.346524e-01
<GCONST> 1.177052e+02
<STATE> 3
<MEAN> 39
 1.154008e+01 -1.924732e+01 3.472911e+00 2.428301e+01 -8.494164e+00 1.981414e+01 -1.341716e+01 -1.269291e+01 8.701828e+00 -1.221739e+01 -3.599432e+00 -2.613286e+00 7.891686e+01 1.570249e-01 3.376388e-01 -9.445742e-02 1.722640e-01 3.355986e-01 -2.130326e-01 -4.999673e-01 -1.972632e-01 3.155637e-01 3.296319e-01 1.876231e-01 -2.657956e-01 5.580083e-02 -4.428524e-01 1.410023e-01 2.689846e-01 -3.539735e-01 -4.910746e-01 1.846376e-01 7.986577e-01 3.894596e-01 -3.066380e-01 5.476960e-01 1.210328e-01 4.170566e-01 -5.368123e-01
<VARIANCE> 39
 8.300617e+00 1.510794e+01 2.930819e+01 2.162878e+01 3.007494e+01 3.099323e+01 2.329689e+01 2.373086e+01 2.503004e+01 2.493114e+01 1.536574e+01 2.516280e+01 9.568850e+00 1.164444e+00 3.052472e+00 2.904871e+00 1.916528e+00 2.649204e+00 2.888769e+00 2.989481e+00 1.900798e+00 2.396552e+00 2.122508e+00 1.359986e+00 1.719368e+00 1.203715e+00 2.128079e-01 7.828636e-01 4.361432e-01 3.591079e-01 5.631980e-01 5.228187e-01 4.397892e-01 3.739930e-01 3.763004e-01 4.209155e-01 2.564847e-01 3.410788e-01 2.355836e-01
<GCONST> 1.077860e+02
<STATE> 4
<MEAN> 39
 8.533910e+00 -1.742245e+01 5.401537e+00 2.394753e+01 -1.075353e+01 2.074575e+01 -1.099637e+01 -1.144639e+01 8.200580e+00 -7.754397e+00 -4.220114e+00 -1.743932e+00 7.423215e+01 -4.272671e-01 2.829216e-01 1.070029e-02 -2.016229e-01 -3.626164e-01 1.518873e-01 7.106069e-01 4.641013e-01 -2.221872e-01 4.765618e-01 1.573804e-01 5.011827e-01 -6.952298e-01 -7.544316e-02 -3.876525e-02 -3.425637e-02 -1.456260e-01 -8.579039e-02 7.455791e-03 1.358504e-01 3.507185e-02 -1.143980e-01 -4.726390e-02 -4.374687e-02 7.188237e-02 -3.708327e-02
<VARIANCE> 39
 1.554176e+01 3.429831e+01 3.971999e+01 2.643209e+01 2.925811e+01 2.702689e+01 2.826179e+01 2.458224e+01 3.162411e+01 2.935935e+01 1.939450e+01 3.102799e+01 2.932546e+01 6.909272e-01 2.934826e+00 1.904728e+00 1.428710e+00 1.783752e+00 2.161504e+00 2.109985e+00 1.446477e+00 1.732307e+00 2.064161e+00 1.397513e+00 1.369502e+00 1.079661e+00 1.282638e-01 4.254650e-01 3.033133e-01 2.532456e-01 3.521336e-01 4.163379e-01 3.803121e-01 2.785580e-01 3.327437e-01 3.563778e-01 2.679988e-01 2.604237e-01 1.535520e-01
<GCONST> 1.046064e+02
<TRANSP> 5
 0.000000e+00 1.000000e+00 0.000000e+00 0.000000e+00 0.000000e+00
 0.000000e+00 3.480567e-01 6.519433e-01 0.000000e+00 0.000000e+00
 0.000000e+00 0.000000e+00 4.721594e-01 5.278406e-01 0.000000e+00
 0.000000e+00 0.000000e+00 0.000000e+00 6.481403e-01 3.518597e-01
 0.000000e+00 0.000000e+00 0.000000e+00 0.000000e+00 0.000000e+00
<ENDHMM>
~h "j"
<BEGINHMM>
<NUMSTATES> 5
<STATE> 2
<MEAN> 39
 1.560447e+01 -1.645662e+01 -6.237102e+00 1.516198e+01 -1.124356e+01 1.908406e+01 -1.052275e+01 -7.959812e+00 7.342036e+00 -2.121863e+01 -7.274834e-01 7.051844e+00 8.076157e+01 -3.840238e-01 -6.509629e-01 1.323639e+00 1.922504e+00 -5.292833e-02 1.596843e+00 2.972777e-01 -4.725243e-01 1.187280e-01 3.569821e-01 1.578081e-01 -2.132952e-01 -4.460140e-01 -5.587083e-01 -3.543272e-01 1.056681e+00 -6.030019e-02 -1.522872e-01 -1.361244e-01 4.673295e-01 -1.084788e-02 -2.104004e-01 7.645367e-01 -1.136147e-01 -8.762112e-02 2.320125e-02
<VARIANCE> 39
 2.817183e+00 8.324011e+00 1.294194e+01 1.688459e+01 1.155420e+01 1.907999e+01 1.934262e+01 1.241572e+01 2.646801e+01 1.965824e+01 3.910399e+01 2.111418e+01 7.332348e+00 5.188969e-01 1.300810e+00 1.498476e+00 1.404932e+00 5.278506e+00 2.950902e+00 2.027036e+00 1.959739e+00 1.502587e+00 2.802179e+00 3.157454e+00 3.008027e+00 5.437437e-01 8.546725e-02 2.921519e-01 3.488343e-01 2.078388e-01 9.495394e-01 8.492920e-01 1.839607e-01 2.915707e-01 2.824237e-01 2.641398e-01 3.059224e-01 2.438487e-01 1.124558e-01
<GCONST> 9.678333e+01
<STATE> 3
<MEAN> 39
 1.110650e+01 -1.981647e+01 4.116570e+00 1.887583e+01 -1.110791e+01 2.100712e+01 -6.837251e+00 -7.953278e+00 6.507340e+00 -1.607725e+01 -1.149235e+00 5.334755e+00 8.054671e+01 -2.411953e+00 -2.283703e+00 5.077140e+00 9.566622e-01 -1.122772e+00 -2.453360e-01 7.017120e-01 2.374655e-01 -4.986099e-01 1.641799e+00 4.953334e-01 7.695561e-01 1.601507e-01 -3.133184e-01 -4.386707e-01 3.172730e-01 -9.471288e-02 -3.446026e-01 -3.341740e-01 7.461395e-03 3.210253e-01 1.090241e-02 -1.741043e-01 -3.174629e-01 2.418377e-01 4.890785e-02
<VARIANCE> 39
 1.204836e+01 9.710289e+00 5.506738e+01 1.654443e+01 2.792207e+01 2.194840e+01 1.194301e+01 8.465373e+00 1.788127e+01 2.381534e+01 1.601512e+01 7.006665e+00 6.255013e+00 6.573697e-01 1.538681e+00 1.395598e+00 7.731040e-01 2.580571e+00 2.155515e+00 1.761641e+00 1.161644e+00 6.132329e-01 1.656406e+00 1.445709e+00 1.006353e+00 5.573906e-01 1.386698e-01 2.483714e-01 8.196509e-01 3.145154e-01 6.839322e-01 3.879972e-01 3.539322e-01 2.726420e-01 1.538234e-01 2.826159e-01 3.245959e-01 2.639074e-01 1.202917e-01
<GCONST> 9.312186e+01
<STATE> 4
<MEAN> 39
 1.608502e+00 -3.090419e+01 1.785869e+01 2.144269e+01 -1.716306e+01 1.940552e+01 -5.239101e+00 -6.204784e+00 5.988669e+00 -1.079207e+01 -1.708814e+00 8.766444e+00 8.007251e+01 6.836863e-02 -2.085735e-01 -2.987124e-01 5.402576e-02 -1.141022e-01 6.783456e-03 -3.043942e-01 -2.870578e-01 8.482906e-02 4.046574e-01 4.990394e-02 -3.119376e-01 -5.510883e-02 5.922428e-01 6.383502e-01 -8.848150e-01 -1.548976e-01 2.595870e-01 -5.437039e-03 -1.751257e-01 -1.767854e-01 4.815503e-02 -2.319472e-01 1.256303e-01 -2.358648e-01 4.458208e-02
<VARIANCE> 39
 9.885375e+00 1.703817e+01 2.141827e+01 1.428424e+01 1.454064e+01 3.019248e+01 2.496398e+01 1.480456e+01 1.543945e+01 2.254194e+01 2.510224e+01 1.341666e+01 7.174324e+00 3.725767e+00 5.363851e+00 6.836195e+00 1.928522e+00 2.001628e+00 2.303657e+00 1.634476e+00 1.424016e+00 1.423556e+00 2.086107e+00 2.010107e+00 2.010242e+00 5.081114e-01 2.336987e-01 4.319536e-01 8.310058e-01 3.195530e-01 3.077097e-01 4.389693e-01 3.043526e-01 2.293909e-01 2.618827e-01 3.573133e-01 3.221877e-01 3.227451e-01 8.979023e-02
<GCONST> 1.025956e+02
<TRANSP> 5
 0.000000e+00 1.000000e+00 0.000000e+00 0.000000e+00 0.000000e+00
 0.000000e+00 6.256317e-01 3.743683e-01 0.000000e+00 0.000000e+00
 0.000000e+00 0.000000e+00 7.008655e-01 2.991345e-01 0.000000e+00
 0.000000e+00 0.000000e+00 0.000000e+00 8.791240e-01 1.208760e-01
 0.000000e+00 0.000000e+00 0.000000e+00 0.000000e+00 0.000000e+00
<ENDHMM>
~h "k"
<BEGINHMM>
<NUMSTATES> 5
<STATE> 2
<MEAN> 39
 6.548685e+00 -1.446812e+01 2.056581e+00 2.007935e+01 -1.560819e+01 2.030876e+01 -7.585678e+00 -8.890936e+00 5.390996e+00 -5.264834e+00 -3.871154e+00 2.550540e+00 6.818748e+01 -8.728541e-01 -1.410668e+00 1.623097e-02 -1.297940e+00 -1.144976e+00 -1.031067e-01 2.739364e-01 5.319510e-01 -4.044976e-01 -4.985153e-01 -4.312675e-01 6.102154e-02 -5.239655e-02 1.232453e-01 -1.022921e+00 7.938159e-02 -6.630732e-01 -3.510874e-01 8.495262e-02 -1.724775e-02 8.552329e-02 7.541966e-02 -6.270880e-01 1.907855e-01 -1.622588e-01 9.262190e-01
<VARIANCE> 39
 1.003039e+01 1.840970e+01 2.554596e+01 3.572764e+01 4.121851e+01 2.323119e+01 2.798538e+01 3.509272e+01 2.598214e+01 1.929926e+01 2.356144e+01 2.158446e+01 7.127415e+00 5.750959e-01 5.395546e+00 1.696232e+00 3.579748e+00 2.878480e+00 3.059925e+00 2.743969e+00 2.436361e+00 2.010342e+00 2.739645e+00 2.196505e+00 1.641852e+00 2.892648e+00 9.682816e-02 5.713494e-01 3.252660e-01 5.561916e-01 5.160308e-01 5.313306e-01 5.476210e-01 5.358870e-01 4.548133e-01 4.290680e-01 4.342437e-01 3.058744e-01 2.429347e-01
<GCONST> 1.107498e+02
<STATE> 3
<MEAN> 39
 4.313222e+00 -2.395835e+01 2.673831e+00 1.124088e+01 -2.163426e+01 1.987613e+01 -5.966893e+00 -4.688118e+00 5.204367e+00 -9.579942e+00 -3.698752e+00 2.143973e+00 7.271391e+01 -3.334145e-01 -3.676548e+00 4.558648e-01 -2.362734e+00 -1.920208e+00 4.772510e-01 2.659688e-01 4.804266e-01 -1.151933e-01 -1.544209e+00 5.397696e-01 -2.901882e-03 2.191013e+00 2.978906e-01 6.736075e-01 -3.919043e-03 7.407116e-01 6.528431e-01 3.282659e-03 -8.948690e-02 -4.242464e-01 1.033084e-01 3.420435e-01 1.201222e-02 4.921687e-02 -7.588793e-02
<VARIANCE> 39
 1.293782e+01 6.263254e+01 3.164399e+01 5.275740e+01 7.700517e+01 5.863107e+01 4.101410e+01 3.481924e+01 3.651436e+01 2.663786e+01 2.597823e+01 2.245249e+01 2.154219e+01 1.391398e+00 4.415733e+00 3.682541e+00 5.396579e+00 5.184543e+00 4.099236e+00 4.431447e+00 4.081981e+00 3.921681e+00 3.544890e+00 3.540258e+00 2.205639e+00 2.057038e+00 2.071061e-01 1.048508e+00 5.042671e-01 6.525941e-01 8.187667e-01 8.283417e-01 5.719352e-01 4.824838e-01 4.638445e-01 4.822149e-01 5.070838e-01 3.347377e-01 4.375317e-01
<GCONST> 1.255459e+02
<STATE> 4
<MEAN> 39
 4.508167e+00 -2.795148e+01 3.387137e+00 1.067999e+01 -2.310432e+01 2.087864e+01 -6.033905e+00 -5.999873e+00 5.383225e+00 -1.076255e+01 -3.261410e+00 2.988829e+00 7.541317e+01 7.256141e-01 7.185723e-01 4.434960e-02 9.235781e-01 1.236672e+00 -7.907598e-02 -1.312894e-01 -5.522205e-01 4.057968e-01 1.421694e-01 -2.128336e-01 -3.616517e-01 5.501699e-01 4.443170e-01 1.292022e+00 -1.584192e-01 8.353328e-01 8.113130e-01 -1.954593e-01 -2.085811e-01 -2.063349e-01 3.076195e-01 2.348169e-01 -1.736149e-01 -2.470871e-01 -2.571500e-01
<VARIANCE> 39
 1.544995e+01 4.595737e+01 4.350651e+01 5.553418e+01 6.962685e+01 4.718409e+01 4.176684e+01 3.868668e+01 4.755814e+01 3.689368e+01 3.293085e+01 2.036392e+01 1.745425e+01 2.268483e+00 6.264724e+00 2.637289e+00 4.002278e+00 4.690616e+00 3.881335e+00 2.262140e+00 2.512538e+00 2.753542e+00 2.648720e+00 2.545081e+00 2.669279e+00 1.986339e+00 2.862562e-01 9.208738e-01 6.660599e-01 9.246631e-01 9.501206e-01 8.729302e-01 6.448646e-01 6.457494e-01 7.524137e-01 7.780283e-01 7.287278e-01 4.771699e-01 4.649853e-01
<GCONST> 1.273556e+02
<TRANSP> 5
 0.000000e+00 1.000000e+00 0.000000e+00 0.000000e+00 0.000000e+00
 0.000000e+00 6.794667e-01 3.205334e-01 0.000000e+00 0.000000e+00
 0.000000e+00 0.000000e+00 3.626474e-01 6.373526e-01 0.000000e+00
 0.000000e+00 0.000000e+00 0.000000e+00 5.979802e-01 4.020198e-01
 0.000000e+00 0.000000e+00 0.000000e+00 0.000000e+00 0.000000e+00
<ENDHMM>
~h "l"
<BEGINHMM>
<NUMSTATES> 5
<STATE> 2
<MEAN> 39
 1.144395e+01 -1.472274e+01 3.624232e+00 1.935037e+01 -1.506792e+01 1.884720e+01 -7.152014e+00 -7.863996e+00 7.731701e+00 -1.154888e+01 -6.008947e+00 -1.811043e+00 7.609107e+01 3.231534e-01 6.394848e-01 -1.184424e-01 2.780555e-01 -3.220244e-01 -2.726085e-02 8.217124e-01 2.736085e-01 -3.823411e-01 -3.283971e-01 -4.181297e-01 -2.205811e-01 -1.770187e-01 -2.421773e-02 -1.575064e-01 -1.161287e-01 -2.005417e-01 -1.239748e-01 -2.299801e-01 -6.634608e-03 7.837745e-02 4.035076e-02 -1.484801e-01 -4.033021e-02 1.070264e-01 1.366484e-01
<VARIANCE> 39
 1.002840e+01 3.569102e+01 3.112673e+01 3.919221e+01 8.515777e+01 4.639392e+01 3.095564e+01 4.566155e+01 3.966411e+01 2.893530e+01 3.227124e+01 4.036095e+01 1.343890e+01 1.746972e+00 2.824064e+00 2.745989e+00 2.493846e+00 3.751355e+00 3.136288e+00 2.421432e+00 2.775394e+00 2.918955e+00 3.078933e+00 2.130673e+00 2.298863e+00 1.475213e+00 1.582312e-01 4.256825e-01 4.096892e-01 4.374522e-01 6.253645e-01 4.856281e-01 4.672300e-01 5.186235e-01 4.188467e-01 5.339175e-01 4.879686e-01 4.226228e-01 2.636803e-01
<GCONST> 1.176434e+02
<STATE> 3
<MEAN> 39
 1.168495e+01 -1.405020e+01 3.565299e+00 1.937997e+01 -1.658591e+01 1.873068e+01 -5.737964e+00 -6.646722e+00 7.498232e+00 -1.259105e+01 -6.722308e+00 -1.496413e+00 7.561682e+01 2.598555e-01 3.179699e-01 -2.359210e-01 -4.959341e-03 -4.389059e-01 -4.191123e-01 6.842599e-01 3.276632e-01 -2.187840e-01 -4.689530e-01 -5.120350e-01 -1.131074e-01 5.605097e-02 1.493770e-02 -2.986609e-01 -2.704683e-01 -3.086525e-01 7.596076e-02 -2.508453e-01 -2.516073e-01 -1.177696e-01 8.325867e-02 -2.601953e-02 1.123167e-01 9.913081e-02 2.832038e-01
<VARIANCE> 39
 9.461114e+00 3.402665e+01 2.782258e+01 3.679871e+01 6.891886e+01 4.581960e+01 2.743136e+01 3.896833e+01 3.950779e+01 3.235384e+01 3.370131e+01 4.779428e+01 1.371219e+01 1.276144e+00 2.478990e+00 2.503714e+00 1.732397e+00 3.054729e+00 2.514442e+00 2.386473e+00 2.131337e+00 2.250404e+00 3.019951e+00 1.817448e+00 1.817672e+00 1.303399e+00 2.208547e-01 4.144981e-01 4.783058e-01 4.728358e-01 5.691890e-01 6.061167e-01 3.965017e-01 5.180511e-01 4.710355e-01 5.619183e-01 5.593346e-01 6.016541e-01 2.521023e-01
<GCONST> 1.159109e+02
<STATE> 4
<MEAN> 39
 1.214249e+01 -1.362877e+01 3.108877e+00 1.885421e+01 -1.758013e+01 1.808076e+01 -3.727978e+00 -5.873937e+00 7.053083e+00 -1.342467e+01 -8.638331e+00 -2.842166e+00 7.591663e+01 2.447624e-01 -1.070755e-01 -5.641091e-01 -4.390485e-01 -3.131654e-01 -6.728239e-01 1.478208e-01 9.060303e-02 7.171287e-02 -1.785457e-01 -3.045308e-01 -8.474451e-02 3.717551e-01 -4.749414e-03 -2.475909e-01 -2.157274e-01 -2.274674e-01 2.070351e-01 -6.121206e-02 -4.051690e-01 -2.169573e-01 1.037546e-01 1.069105e-01 3.282415e-01 2.126759e-01 2.045581e-01
<VARIANCE> 39
 7.912150e+00 2.875346e+01 2.131921e+01 3.722992e+01 5.873415e+01 3.916521e+01 3.068488e+01 3.331837e+01 3.576977e+01 2.685815e+01 3.566107e+01 5.237996e+01 1.363500e+01 7.549089e-01 2.423562e+00 2.636219e+00 2.019772e+00 2.772178e+00 3.147905e+00 2.166354e+00 2.266463e+00 2.550032e+00 2.736923e+00 2.592178e+00 2.601059e+00 1.373944e+00 1.741179e-01 3.417724e-01 4.070393e-01 3.923402e-01 4.806306e-01 5.679985e-01 4.115381e-01 3.852989e-01 4.184869e-01 5.212443e-01 3.895201e-01 4.715680e-01 2.095654e-01
<GCONST> 1.130919e+02
<TRANSP> 5
 0.000000e+00 1.000000e+00 0.000000e+00 0.000000e+00 0.000000e+00
 0.000000e+00 1.189341e-01 8.810659e-01 0.000000e+00 0.000000e+00
 0.000000e+00 0.000000e+00 8.915187e-02 9.108481e-01 0.000000e+00
 0.000000e+00 0.000000e+00 0.000000e+00 3.356627e-01 6.643373e-01
 0.000000e+00 0.000000e+00 0.000000e+00 0.000000e+00 0.000000e+00
<ENDHMM>
~h "m"
<BEGINHMM>
<NUMSTATES> 5
<STATE> 2
<MEAN> 39
 1.344493e+01 -9.355328e+00 -3.416789e-01 1.826786e+01 -1.510518e+01 2.152982e+01 -3.547161e+00 -8.397081e+00 8.046550e+00 -8.265042e+00 -4.115337e+00 -1.761747e+00 7.385526e+01 6.497326e-02 1.664262e+00 3.689134e-01 3.564709e-01 2.990995e-01 1.223146e+00 5.543918e-01 -9.176673e-01 -1.706187e-01 1.372208e+00 6.821018e-02 -1.139127e+00 -8.669655e-01 -8.111756e-02 -4.165110e-01 1.342687e-02 -1.724545e-01 -3.625742e-02 -2.201618e-01 -1.604385e-01 -2.559435e-02 -6.044628e-02 -1.925047e-01 8.289601e-02 2.224990e-01 2.806509e-01
<VARIANCE> 39
 6.269764e+00 1.171123e+01 2.342320e+01 1.740474e+01 2.411864e+01 2.194522e+01 1.051777e+01 1.709858e+01 1.660276e+01 1.449685e+01 1.462803e+01 1.909832e+01 7.495573e+00 6.520357e-01 1.180935e+00 1.140915e+00 1.504369e+00 1.537293e+00 1.939841e+00 1.059113e+00 1.443083e+00 1.191779e+00 1.846926e+00 9.804047e-01 1.382202e+00 7.404878e-01 7.013322e-02 1.304135e-01 1.865477e-01 2.164806e-01 2.606669e-01 3.398866e-01 1.697999e-01 2.673666e-01 2.042904e-01 2.606599e-01 1.669785e-01 2.054247e-01 7.112580e-02
<GCONST> 8.679775e+01
<STATE> 3
<MEAN> 39
 1.278551e+01 -6.560473e+00 1.538574e+00 1.908953e+01 -1.466635e+01 2.346644e+01 -2.555927e+00 -1.071630e+01 7.297836e+00 -5.104085e+00 -3.856698e+00 -4.306561e+00 7.232418e+01 1.307949e-05 4.752405e-01 -5.062876e-03 -1.498704e-01 2.077283e-01 1.333653e-01 1.071809e-01 -1.727230e-01 -1.926427e-01 1.809995e-01 3.537488e-02 -6.031815e-02 -1.551248e-01 7.820614e-04 -5.209909e-01 -1.560578e-01 -6.755327e-02 -2.033892e-02 -3.832328e-01 -2.179911e-01 3.981658e-01 1.033703e-01 -5.676384e-01 -9.331877e-02 3.819007e-01 2.615246e-01
<VARIANCE> 39
 4.448834e+00 1.070642e+01 1.377349e+01 1.104222e+01 1.819524e+01 1.413804e+01 8.052642e+00 1.654735e+01 1.467762e+01 1.386826e+01 1.308247e+01 1.328902e+01 7.197921e+00 3.328558e-01 6.543525e-01 8.103240e-01 8.528730e-01 1.151509e+00 1.125743e+00 6.744637e-01 1.103282e+00 7.667735e-01 1.164725e+00 6.716857e-01 8.132358e-01 2.749215e-01 6.014963e-02 2.157917e-01 1.500499e-01 2.620500e-01 2.920576e-01 4.120081e-01 2.307822e-01 2.797852e-01 2.079220e-01 2.543804e-01 1.764942e-01 2.156597e-01 8.553031e-02
<GCONST> 7.841186e+01
<STATE> 4
<MEAN> 39
 1.261549e+01 -7.590506e+00 5.195321e-01 1.705572e+01 -1.499170e+01 2.338652e+01 -1.992726e+00 -9.474749e+00 6.786892e+00 -7.069049e+00 -4.579087e+00 -2.689413e+00 7.269184e+01 2.923508e-02 -1.408153e+00 -5.469667e-01 -2.331457e-01 1.267582e-01 -1.172822e+00 -8.721479e-01 1.047382e+00 4.149385e-01 -1.622621e+00 -2.417910e-01 1.181991e+00 7.728214e-01 -1.401449e-01 -7.326229e-01 8.660539e-02 8.217258e-02 -2.907684e-02 -3.762708e-01 -4.453778e-01 2.079266e-01 2.284426e-01 -3.060789e-01 9.849076e-02 3.553541e-01 2.913950e-01
<VARIANCE> 39
 8.598575e+00 1.308649e+01 1.283496e+01 1.747644e+01 2.559874e+01 1.908379e+01 1.243255e+01 1.898857e+01 1.755849e+01 1.914519e+01 1.641372e+01 1.633827e+01 1.177318e+01 8.514512e-01 2.082155e+00 2.595744e+00 2.957283e+00 2.636407e+00 3.984403e+00 2.381758e+00 2.332894e+00 1.949799e+00 2.527627e+00 1.375920e+00 1.672248e+00 1.093616e+00 1.234591e-01 3.814489e-01 2.879684e-01 3.894765e-01 3.373061e-01 5.828688e-01 3.866894e-01 4.316061e-01 2.891012e-01 4.687010e-01 2.723904e-01 3.942814e-01 1.057602e-01
<GCONST> 1.014023e+02
<TRANSP> 5
 0.000000e+00 1.000000e+00 0.000000e+00 0.000000e+00 0.000000e+00
 0.000000e+00 5.017544e-01 4.982456e-01 0.000000e+00 0.000000e+00
 0.000000e+00 0.000000e+00 6.779006e-01 3.220995e-01 0.000000e+00
 0.000000e+00 0.000000e+00 0.000000e+00 4.964357e-01 5.035643e-01
 0.000000e+00 0.000000e+00 0.000000e+00 0.000000e+00 0.000000e+00
<ENDHMM>
~h "n"
<BEGINHMM>
<NUMSTATES> 5
<STATE> 2
<MEAN> 39
 1.363082e+01 -1.238390e+01 -6.405060e-01 1.792827e+01 -1.425210e+01 1.942144e+01 -5.522918e+00 -7.939271e+00 8.342718e+00 -1.009034e+01 -3.915422e+00 -2.193590e-01 7.614522e+01 -2.462437e-02 1.779517e+00 3.946188e-01 4.368264e-01 1.618287e-01 1.168676e+00 6.756819e-01 -8.523845e-01 -3.934382e-01 1.463216e+00 -2.237341e-01 -1.319667e+00 -1.177086e+00 -6.130516e-02 -1.108068e-01 4.466480e-02 -6.900781e-02 -1.460616e-01 -7.189991e-02 4.081572e-02 -2.873570e-02 -7.829392e-02 -6.884834e-02 1.198583e-02 3.933750e-02 6.166023e-02
<VARIANCE> 39
 3.662550e+00 1.470897e+01 2.067671e+01 2.437087e+01 3.685339e+01 3.329964e+01 3.036941e+01 2.834738e+01 2.670166e+01 2.520753e+01 1.919794e+01 2.444768e+01 7.861824e+00 3.073003e-01 1.036539e+00 1.272390e+00 1.806982e+00 2.430197e+00 2.502575e+00 2.381371e+00 2.015881e+00 2.057982e+00 1.717140e+00 1.094626e+00 1.537206e+00 5.503769e-01 4.878058e-02 2.615475e-01 1.716447e-01 2.491420e-01 3.498839e-01 4.772894e-01 2.716351e-01 2.882376e-01 3.411427e-01 3.236775e-01 1.845581e-01 2.293125e-01 1.013793e-01
<GCONST> 9.522457e+01
<STATE> 3
<MEAN> 39
 1.356879e+01 -8.335529e+00 5.263793e-01 1.877702e+01 -1.429752e+01 2.266663e+01 -4.387164e+00 -1.124393e+01 7.427342e+00 -6.657884e+00 -4.571922e+00 -3.801549e+00 7.372468e+01 -1.287457e-01 9.649650e-01 3.060124e-01 1.346388e-01 -1.179528e-01 3.217517e-01 4.522220e-01 -3.708072e-01 -3.351970e-01 6.966749e-01 -1.648725e-01 -5.710620e-01 -6.156889e-01 -6.022261e-02 -5.434335e-01 -8.307911e-03 -1.204643e-02 -1.099728e-01 -3.914254e-01 -1.164957e-01 3.639610e-01 5.279664e-02 -4.315098e-01 7.559908e-02 4.062274e-01 2.724832e-01
<VARIANCE> 39
 1.987071e+00 8.649914e+00 9.837083e+00 1.079224e+01 1.723106e+01 1.795717e+01 1.429782e+01 1.860656e+01 1.594961e+01 1.361775e+01 1.399642e+01 1.587365e+01 3.805620e+00 1.807357e-01 8.846679e-01 7.140345e-01 9.355117e-01 1.477529e+00 1.402442e+00 1.311590e+00 1.173715e+00 1.260993e+00 1.209546e+00 7.112017e-01 9.557657e-01 3.240485e-01 3.831085e-02 2.526149e-01 1.699206e-01 2.086186e-01 2.720320e-01 3.028487e-01 2.836720e-01 2.756408e-01 2.507972e-01 2.725933e-01 1.706989e-01 2.204253e-01 1.083859e-01
<GCONST> 7.925046e+01
<STATE> 4
<MEAN> 39
 1.230639e+01 -8.133179e+00 2.002763e+00 1.939572e+01 -1.564260e+01 2.135431e+01 -3.163090e+00 -9.439343e+00 6.336736e+00 -6.925309e+00 -4.741521e+00 -2.556780e+00 7.239944e+01 -3.931153e-01 -8.693533e-01 2.756070e-01 4.113902e-01 -2.602289e-01 -5.598241e-01 6.926411e-02 8.146644e-01 -5.143755e-02 -4.888928e-01 1.781407e-01 7.659542e-01 1.702200e-02 -7.029909e-02 -5.582314e-01 -5.153958e-02 -1.060629e-01 3.082635e-02 -1.732610e-01 -2.989339e-01 2.027801e-01 2.150483e-01 -3.044096e-01 6.931343e-02 3.482916e-01 2.590936e-01
<VARIANCE> 39
 4.244201e+00 1.933363e+01 1.348132e+01 1.579507e+01 1.865231e+01 1.874612e+01 1.806797e+01 2.459148e+01 1.855795e+01 2.035254e+01 1.727616e+01 2.053169e+01 8.626979e+00 4.751735e-01 2.477032e+00 1.617976e+00 1.372114e+00 1.470295e+00 1.807342e+00 1.784243e+00 1.635511e+00 1.713906e+00 2.206921e+00 1.286085e+00 1.458768e+00 1.155213e+00 7.368513e-02 4.594854e-01 2.555006e-01 2.714964e-01 3.016745e-01 3.478996e-01 3.947965e-01 3.519343e-01 2.909473e-01 3.676008e-01 2.330689e-01 3.070829e-01 1.525144e-01
<GCONST> 9.543723e+01
<TRANSP> 5
 0.000000e+00 1.000000e+00 0.000000e+00 0.000000e+00 0.000000e+00
 0.000000e+00 3.892220e-01 6.107780e-01 0.000000e+00 0.000000e+00
 0.000000e+00 0.000000e+00 6.121883e-01 3.878117e-01 0.000000e+00
 0.000000e+00 0.000000e+00 0.000000e+00 5.597617e-01 4.402383e-01
 0.000000e+00 0.000000e+00 0.000000e+00 0.000000e+00 0.000000e+00
<ENDHMM>
~h "o"
<BEGINHMM>
<NUMSTATES> 5
<STATE> 2
<MEAN> 39
 9.080548e+00 -1.840787e+01 1.225635e+00 1.309543e+01 -2.012693e+01 1.693929e+01 -5.541284e+00 -3.268529e+00 9.986200e+00 -1.237207e+01 -8.887509e+00 2.462832e+00 7.500526e+01 1.869454e+00 1.739453e+00 -5.088915e-01 -1.605189e-01 -1.498247e+00 -1.686817e+00 -2.762143e-01 1.011019e+00 1.682853e+00 -1.046673e+00 -1.172918e+00 -1.744803e+00 8.768495e-01 1.201224e-01 2.693247e-01 2.019887e-01 1.334187e-01 -2.147966e-01 -5.070768e-01 -3.844687e-01 3.572788e-02 4.446489e-01 1.632677e-01 1.984968e-01 -2.907601e-01 1.916647e-01
<VARIANCE> 39
 2.455398e+01 6.431699e+01 2.577548e+01 3.705965e+01 5.274643e+01 4.120981e+01 3.135886e+01 3.840670e+01 2.936506e+01 4.697104e+01 2.434776e+01 2.917262e+01 2.818702e+01 2.686102e+00 8.106041e+00 3.306168e+00 4.362975e+00 3.922390e+00 3.573537e+00 3.149779e+00 2.862751e+00 4.103459e+00 3.862392e+00 2.830193e+00 4.452761e+00 1.625924e+00 2.895999e-01 7.425718e-01 5.125360e-01 5.368366e-01 6.202220e-01 7.296802e-01 6.097692e-01 5.105515e-01 7.565514e-01 6.474286e-01 4.150029e-01 6.050917e-01 2.739166e-01
<GCONST> 1.260101e+02
<STATE> 3
<MEAN> 39
 1.498581e+01 -1.423770e+01 -4.278875e-01 1.250149e+01 -2.412564e+01 1.174869e+01 -7.448803e+00 -1.037228e+00 1.517665e+01 -1.645136e+01 -1.108873e+01 -4.277780e+00 7.960202e+01 1.071271e+00 1.435264e+00 -2.303048e-01 6.909883e-02 -1.414771e+00 -2.616011e+00 -8.832683e-01 9.706156e-01 1.971542e+00 3.457842e-01 -8.239266e-02 -1.437374e+00 5.979607e-01 -6.204014e-01 -4.299039e-01 2.232893e-01 8.234471e-02 4.419895e-01 1.545055e-01 5.844745e-02 -2.402247e-01 -4.778475e-01 6.666501e-01 5.092491e-01 6.916927e-01 -3.456677e-01
<VARIANCE> 39
 3.117274e+00 1.539547e+01 2.183366e+01 1.469309e+01 4.570277e+01 4.085027e+01 2.308422e+01 2.383924e+01 3.441305e+01 3.981202e+01 1.889497e+01 1.928609e+01 8.167387e+00 1.393549e+00 2.705168e+00 1.725121e+00 2.439520e+00 3.768582e+00 3.126502e+00 2.190956e+00 1.786169e+00 2.637145e+00 3.522354e+00 2.057806e+00 2.900987e+00 8.873711e-01 2.298714e-01 6.277489e-01 3.612325e-01 4.352787e-01 5.189713e-01 6.460425e-01 4.791188e-01 2.286686e-01 5.616905e-01 6.866205e-01 4.016505e-01 4.039507e-01 1.577754e-01
<GCONST> 1.091659e+02
<STATE> 4
<MEAN> 39
 1.449613e+01 -1.096928e+01 4.103377e-01 1.394729e+01 -2.619806e+01 4.079414e+00 -8.952740e+00 1.240935e+00 1.677852e+01 -1.126094e+01 -8.863214e+00 -3.131736e+00 7.739388e+01 -2.394870e-01 3.360654e-01 2.147208e-01 4.852114e-01 3.530962e-01 3.198198e-01 2.593462e-01 8.234873e-03 -1.952737e-01 5.218087e-01 1.534972e-01 2.341246e-01 -5.771210e-01 -1.336679e-01 -1.241861e-01 4.893321e-02 5.082989e-02 2.146070e-01 5.407698e-01 1.258020e-01 -2.698523e-01 -3.125947e-01 -2.749026e-02 3.685284e-03 1.201114e-01 -1.364870e-01
<VARIANCE> 39
 3.115580e+00 1.553965e+01 1.774716e+01 2.178248e+01 3.691848e+01 5.358718e+01 2.162793e+01 1.984304e+01 2.089718e+01 3.253788e+01 2.229906e+01 2.323682e+01 1.131689e+01 3.409790e-01 1.276031e+00 1.276750e+00 1.478944e+00 2.559380e+00 4.906032e+00 2.271643e+00 1.940074e+00 2.225132e+00 2.525034e+00 1.760065e+00 1.710703e+00 8.521702e-01 7.740749e-02 2.547948e-01 2.084499e-01 3.144929e-01 3.896680e-01 5.688798e-01 3.965428e-01 3.132846e-01 4.129120e-01 4.496615e-01 3.138333e-01 3.547752e-01 1.397217e-01
<GCONST> 1.007601e+02
<TRANSP> 5
 0.000000e+00 1.000000e+00 0.000000e+00 0.000000e+00 0.000000e+00
 0.000000e+00 4.873985e-01 5.126015e-01 0.000000e+00 0.000000e+00
 0.000000e+00 0.000000e+00 5.140325e-01 4.859675e-01 0.000000e+00
 0.000000e+00 0.000000e+00 0.000000e+00 8.099278e-01 1.900722e-01
 0.000000e+00 0.000000e+00 0.000000e+00 0.000000e+00 0.000000e+00
<ENDHMM>
~h "p"
<BEGINHMM>
<NUMSTATES> 5
<STATE> 2
<MEAN> 39
 7.506811e+00 -1.121951e+01 1.727110e+00 1.829882e+01 -1.978069e+01 1.664894e+01 -5.965303e+00 -5.135386e+00 8.427624e+00 -3.764958e+00 -3.490939e+00 4.231752e+00 6.739650e+01 -8.258724e-01 -6.127065e-01 -2.845597e-01 -4.408913e-01 -2.218691e-01 3.791355e-02 2.948063e-02 -1.190269e-01 -6.785625e-01 3.421578e-02 -4.990146e-01 -6.559402e-02 -6.738521e-01 1.982530e-01 -6.295828e-01 -9.944358e-02 -2.849216e-01 -3.298549e-02 1.939087e-01 -6.047121e-02 9.838329e-02 1.529903e-01 -6.072069e-01 -2.175861e-01 -3.187900e-01 6.165996e-01
<VARIANCE> 39
 1.022395e+01 1.758342e+01 6.277822e+00 9.955325e+00 2.707163e+01 2.000453e+01 1.371189e+01 2.811036e+01 2.862877e+01 1.223015e+01 1.760210e+01 1.017176e+01 6.684114e+00 2.610043e-01 2.681377e+00 4.002446e-01 8.332037e-01 1.027058e+00 1.946114e+00 1.181313e+00 1.701552e+00 1.493998e+00 3.878484e+00 1.769856e+00 1.695563e+00 1.462404e+00 3.108183e-02 2.660055e-01 1.107404e-01 1.058052e-01 2.086638e-01 2.295403e-01 1.596199e-01 2.917726e-01 2.342058e-01 3.174681e-01 3.734116e-01 3.298691e-01 1.011553e-01
<GCONST> 8.703839e+01
<STATE> 3
<MEAN> 39
 5.891349e+00 -1.843253e+01 -1.259234e+00 1.507528e+01 -2.048816e+01 1.833615e+01 -5.751604e+00 -4.571410e+00 5.814083e+00 -8.682854e+00 -5.136150e+00 2.717392e+00 6.889780e+01 2.254626e-02 -2.310897e+00 -3.852710e-01 -9.593611e-01 -9.692287e-01 3.250504e-01 2.921086e-01 8.938781e-01 5.029723e-01 -1.088709e+00 -5.494617e-01 -1.327673e-01 1.097374e+00 2.187595e-01 2.965691e-01 5.562408e-01 2.171225e-01 3.040135e-02 -1.260586e-01 2.048769e-01 -1.990734e-02 1.918243e-01 1.584947e-01 -8.271565e-02 -1.606266e-01 3.071501e-01
<VARIANCE> 39
 1.538350e+01 4.763002e+01 1.086357e+01 1.899024e+01 4.240793e+01 2.013496e+01 1.233259e+01 2.443970e+01 1.916606e+01 6.475834e+01 1.565158e+01 6.701734e+00 2.451646e+01 4.454530e-01 5.042385e+00 9.215313e-01 6.494156e-01 3.258388e+00 1.148904e+00 1.542591e+00 1.726383e+00 2.983126e+00 2.007087e+00 9.923436e-01 1.036835e+00 2.025876e+00 2.656422e-01 1.662427e+00 1.914095e-01 5.550168e-01 4.877003e-01 6.757428e-01 5.216795e-01 5.997531e-01 2.086292e-01 1.128885e+00 3.766045e-01 4.083291e-01 6.055591e-01
<GCONST> 1.070060e+02
<STATE> 4
<MEAN> 39
 5.061871e+00 -2.071830e+01 -2.925354e-01 1.450595e+01 -2.156935e+01 1.829115e+01 -6.174804e+00 -4.628769e+00 7.426346e+00 -7.636406e+00 -6.616128e+00 3.568529e+00 6.954766e+01 4.141183e-01 -8.536615e-01 1.460132e+00 -3.437329e-01 -5.613626e-01 4.449325e-01 4.854600e-01 3.667851e-01 2.737237e-01 -9.762511e-01 -7.334503e-01 -7.235846e-01 1.391523e+00 3.085308e-01 6.321419e-01 3.696458e-01 1.616985e-01 1.361007e-01 -5.173680e-01 6.404591e-02 1.255104e-01 9.363070e-02 -5.467300e-02 1.130963e-01 -2.544063e-01 3.245858e-01
<VARIANCE> 39
 1.294970e+01 4.394972e+01 1.501240e+01 2.425691e+01 5.241230e+01 2.095298e+01 3.034525e+01 1.799823e+01 1.391403e+01 1.915528e+01 2.291860e+01 1.625368e+01 2.080210e+01 2.360907e+00 7.031773e+00 2.020960e+00 4.193482e+00 3.128616e+00 2.491000e+00 3.148879e+00 2.191869e+00 2.297844e+00 4.812140e+00 1.597987e+00 1.898494e+00 3.156199e+00 2.538154e-01 2.045194e+00 4.859569e-01 4.227140e-01 4.289064e-01 6.598439e-01 4.199028e-01 4.043352e-01 5.604321e-01 7.608227e-01 4.046569e-01 3.234839e-01 4.346930e-01
<GCONST> 1.163653e+02
<TRANSP> 5
 0.000000e+00 1.000000e+00 0.000000e+00 0.000000e+00 0.000000e+00
 0.000000e+00 7.309317e-01 2.690683e-01 0.000000e+00 0.000000e+00
 0.000000e+00 0.000000e+00 3.569462e-01 6.430538e-01 0.000000e+00
 0.000000e+00 0.000000e+00 0.000000e+00 3.783107e-01 6.216893e-01
 0.000000e+00 0.000000e+00 0.000000e+00 0.000000e+00 0.000000e+00
<ENDHMM>
~h "r"
<BEGINHMM>
<NUMSTATES> 5
<STATE> 2
<MEAN> 39
 1.078823e+01 -2.111259e+01 -4.270157e+00 1.589021e+01 -1.283803e+01 1.734664e+01 -6.197233e+00 -8.232288e+00 3.192797e+00 -1.369302e+01 -1.735995e+00 5.850162e+00 7.818508e+01 -1.589394e-01 3.357796e-02 -3.525755e-01 1.058275e-01 1.573274e-01 -5.022082e-02 2.535176e-01 -5.365731e-02 -7.872488e-01 -4.481031e-02 6.023436e-02 1.970214e-01 -4.529472e-01 1.249646e-02 2.862684e-01 1.074878e-01 3.665488e-02 -7.705675e-02 4.050148e-02 -9.565101e-02 1.174083e-02 1.845342e-01 1.058582e-01 -1.326562e-01 -1.244086e-01 -1.832045e-01
<VARIANCE> 39
 3.756890e+01 6.994957e+01 4.667629e+01 5.551453e+01 4.886256e+01 5.790708e+01 3.552396e+01 3.254283e+01 3.130523e+01 3.879841e+01 4.705817e+01 4.164784e+01 1.899799e+01 5.984162e-01 2.362276e+00 2.498250e+00 2.157123e+00 3.307780e+00 3.105123e+00 2.168802e+00 1.749673e+00 1.958893e+00 2.130734e+00 1.860594e+00 1.313807e+00 8.992327e-01 1.502881e-01 4.944490e-01 4.944053e-01 3.370875e-01 5.961527e-01 6.807915e-01 4.488673e-01 3.652212e-01 3.711185e-01 4.301947e-01 3.558394e-01 2.815460e-01 1.486269e-01
<GCONST> 1.148055e+02
<STATE> 3
<MEAN> 39
 1.222721e+01 -1.721721e+01 -4.217431e+00 1.787485e+01 -1.121406e+01 1.782362e+01 -6.299896e+00 -8.912245e+00 1.958125e+00 -1.387946e+01 -2.619244e+00 4.450242e+00 7.664424e+01 -3.081205e-01 6.696857e-01 5.578120e-01 4.217324e-01 -2.460625e-01 5.088302e-01 2.970810e-01 5.494598e-02 -6.112988e-02 5.293285e-01 -3.450823e-01 -1.004317e-01 -1.004823e+00 -3.630790e-02 7.514121e-02 1.191105e-01 -3.478515e-02 -1.387663e-01 -4.745461e-02 -1.345714e-01 5.783457e-02 3.236299e-01 1.140959e-01 -5.503323e-02 -1.043413e-01 -1.204102e-02
<VARIANCE> 39
 1.941476e+01 4.116179e+01 4.463892e+01 4.810577e+01 4.370403e+01 4.206429e+01 3.095601e+01 3.011475e+01 2.882031e+01 3.503632e+01 3.699785e+01 3.240519e+01 1.330417e+01 4.302523e-01 1.590639e+00 2.533959e+00 1.687295e+00 3.335583e+00 2.783245e+00 1.780922e+00 1.594530e+00 1.789362e+00 1.737564e+00 1.718173e+00 1.389239e+00 7.375255e-01 9.627631e-02 3.208070e-01 4.413293e-01 2.627770e-01 6.460041e-01 5.928153e-01 4.270175e-01 3.473647e-01 3.668859e-01 3.513170e-01 3.038706e-01 2.917269e-01 1.440915e-01
<GCONST> 1.081181e+02
<STATE> 4
<MEAN> 39
 5.746146e+00 -2.004651e+01 -5.057367e+00 1.546904e+01 -1.594111e+01 1.940012e+01 -4.809427e+00 -7.766136e+00 2.682510e+00 -9.379607e+00 -4.075939e+00 5.906612e+00 6.985793e+01 -3.093024e-01 7.219540e-01 1.264370e-01 -3.762111e-02 -3.617583e-01 -2.873145e-01 -5.935655e-02 2.244418e-01 3.618827e-01 5.532837e-01 -2.466249e-01 -3.455098e-01 -7.205203e-01 5.086605e-03 -8.866673e-02 5.530992e-02 -3.992713e-03 1.731188e-02 -5.000173e-02 -1.303920e-01 1.078682e-02 1.346890e-01 -5.644040e-02 5.005223e-02 -4.675813e-02 1.337404e-01
<VARIANCE> 39
 3.645150e+01 6.033227e+01 3.502652e+01 3.173340e+01 3.632362e+01 2.515143e+01 2.423781e+01 2.153483e+01 2.413992e+01 3.566768e+01 2.664614e+01 3.407664e+01 3.294484e+01 4.411596e-01 1.842791e+00 1.947700e+00 1.312500e+00 1.931462e+00 1.918069e+00 1.526103e+00 1.319377e+00 1.663587e+00 1.853100e+00 1.427753e+00 1.451313e+00 6.619699e-01 8.063342e-02 2.299212e-01 3.355036e-01 2.057741e-01 3.948602e-01 3.794570e-01 3.310690e-01 2.628985e-01 3.324300e-01 3.296615e-01 2.569857e-01 2.692297e-01 9.817895e-02
<GCONST> 1.025050e+02
<TRANSP> 5
 0.000000e+00 1.000000e+00 0.000000e+00 0.000000e+00 0.000000e+00
 0.000000e+00 4.612657e-01 5.387343e-01 0.000000e+00 0.000000e+00
 0.000000e+00 0.000000e+00 3.854512e-01 6.145489e-01 0.000000e+00
 0.000000e+00 0.000000e+00 0.000000e+00 5.729122e-01 4.270879e-01
 0.000000e+00 0.000000e+00 0.000000e+00 0.000000e+00 0.000000e+00
<ENDHMM>
~h "s"
<BEGINHMM>
<NUMSTATES> 5
<STATE> 2
<MEAN> 39
 3.677503e+00 -2.227178e+01 1.128669e+01 1.210011e+01 -1.809313e+01 2.297506e+01 -1.973607e+00 -4.681780e+00 6.840303e+00 -9.390161e+00 -2.118213e+00 4.532493e+00 7.668169e+01 -3.178829e+00 -2.849895e+00 4.984177e+00 -1.656049e+00 -7.739707e-01 9.082605e-01 5.082358e-01 5.129632e-01 -2.846949e-01 9.012423e-02 6.662512e-01 1.205331e+00 8.412712e-01 -2.537717e-01 -1.967903e-01 6.619148e-03 -3.256716e-01 -1.603114e-01 -3.510559e-01 -4.338159e-01 -8.853460e-02 1.274948e-01 -4.481643e-01 -1.600256e-01 -6.688162e-02 1.604240e-01
<VARIANCE> 39
 4.667589e+01 5.371343e+01 8.265393e+01 3.365249e+01 4.910285e+01 4.802960e+01 3.419341e+01 5.790189e+01 3.416983e+01 3.936455e+01 2.539383e+01 2.735485e+01 2.919328e+01 2.959392e+00 2.706414e+00 4.225861e+00 2.577785e+00 2.974105e+00 3.872715e+00 3.390638e+00 2.766007e+00 2.385364e+00 4.027509e+00 2.259984e+00 2.618061e+00 8.032675e-01 4.589356e-01 7.993131e-01 1.264231e+00 3.858336e-01 4.723220e-01 6.532202e-01 5.277811e-01 4.046866e-01 3.980738e-01 5.764696e-01 3.831458e-01 4.710515e-01 2.104812e-01
<GCONST> 1.237024e+02
<STATE> 3
<MEAN> 39
 -8.021182e+00 -3.244279e+01 2.419070e+01 3.609092e+00 -2.096797e+01 2.410159e+01 -4.588057e+00 -5.622238e+00 7.553840e+00 -1.177831e+01 -1.661960e+00 6.928679e+00 8.015383e+01 -7.866798e-01 -9.829935e-01 -2.375087e-01 -7.558582e-01 -3.072498e-01 -2.963278e-01 -4.807047e-01 -1.627696e-01 1.373567e-01 -1.655325e-02 -1.393419e-01 1.415285e-01 4.612312e-03 7.110202e-01 3.767003e-01 -1.025021e+00 4.392211e-01 2.055547e-01 -8.983740e-02 2.530444e-02 -7.198664e-02 -6.051597e-02 1.887750e-01 -9.441318e-02 -1.222047e-01 -1.950066e-01
<VARIANCE> 39
 1.369604e+01 2.062918e+01 1.917739e+01 3.106218e+01 2.816961e+01 3.699083e+01 2.908275e+01 4.937416e+01 2.756897e+01 3.090686e+01 1.789883e+01 1.663740e+01 5.018173e+00 2.228585e+00 9.415615e-01 5.152157e+00 1.841588e+00 1.515572e+00 1.505665e+00 2.227551e+00 1.621280e+00 1.681774e+00 1.900739e+00 1.451878e+00 1.103411e+00 3.651613e-01 1.815538e-01 2.813395e-01 5.061575e-01 2.532389e-01 2.665830e-01 3.318332e-01 3.946531e-01 3.402494e-01 3.062223e-01 3.145315e-01 2.985828e-01 2.719649e-01 4.696254e-02
<GCONST> 1.003416e+02
<STATE> 4
<MEAN> 39
 -3.220975e+00 -3.208373e+01 1.320184e+01 5.657965e+00 -2.007895e+01 2.323336e+01 -5.443270e+00 -6.422877e+00 7.226460e+00 -9.301558e+00 -3.104268e+00 7.007928e+00 7.745101e+01 2.977412e+00 2.622329e+00 -2.606904e+00 1.600745e+00 5.262666e-01 1.467450e-01 -2.893919e-01 -1.990921e-01 1.012010e-01 -3.990447e-01 -5.948997e-01 -9.647073e-01 -5.660236e-01 4.969514e-01 7.824890e-01 1.877909e-01 2.375790e-01 -4.485383e-02 6.582363e-03 -1.596180e-01 4.203069e-03 2.365294e-01 -4.993926e-01 -1.235653e-02 -4.121397e-01 2.532986e-01
<VARIANCE> 39
 2.635355e+01 4.172330e+01 3.631236e+01 2.726906e+01 3.388275e+01 3.550291e+01 4.397291e+01 4.914666e+01 2.211092e+01 3.489883e+01 1.943204e+01 2.080968e+01 1.235660e+01 2.938275e+00 4.841004e+00 3.339669e+00 2.034644e+00 2.601553e+00 3.013524e+00 2.812032e+00 2.939492e+00 2.340568e+00 2.862742e+00 1.607248e+00 2.496377e+00 1.343462e+00 4.410480e-01 8.570532e-01 4.859847e-01 3.555051e-01 4.241881e-01 5.319802e-01 5.910861e-01 4.616506e-01 4.296520e-01 4.277099e-01 3.173608e-01 3.917812e-01 2.380388e-01
<GCONST> 1.171127e+02
<TRANSP> 5
 0.000000e+00 1.000000e+00 0.000000e+00 0.000000e+00 0.000000e+00
 0.000000e+00 6.816890e-01 3.183110e-01 0.000000e+00 0.000000e+00
 0.000000e+00 0.000000e+00 8.438447e-01 1.561553e-01 0.000000e+00
 0.000000e+00 0.000000e+00 0.000000e+00 7.205299e-01 2.794701e-01
 0.000000e+00 0.000000e+00 0.000000e+00 0.000000e+00 0.000000e+00
<ENDHMM>
~h "t"
<BEGINHMM>
<NUMSTATES> 5
<STATE> 2
<MEAN> 39
 2.828689e+00 -1.711750e+01 3.352244e+00 1.780913e+01 -1.777587e+01 1.885855e+01 -6.859373e+00 -7.027447e+00 5.909565e+00 -5.104355e+00 -4.861649e+00 2.835727e+00 6.713296e+01 -3.993746e-01 -1.969243e+00 7.227415e-02 -1.824394e+00 -8.619056e-01 -1.027156e-01 -5.082337e-01 1.333917e-01 -3.467902e-01 -6.977041e-01 -1.697267e-01 1.485781e-01 9.052227e-01 1.828422e-01 -1.093476e+00 3.196182e-01 -6.133519e-01 -1.878289e-01 2.142954e-01 -2.368244e-01 -1.671873e-01 6.385107e-02 -5.248731e-01 6.792268e-02 2.326686e-02 1.069690e+00
<VARIANCE> 39
 2.656608e+01 5.208272e+01 2.964529e+01 2.770075e+01 4.086753e+01 2.995802e+01 2.836292e+01 3.662453e+01 2.649917e+01 1.637822e+01 1.850075e+01 1.642538e+01 1.216036e+01 1.499606e+00 6.782226e+00 3.655734e+00 3.963214e+00 3.541662e+00 2.775477e+00 2.903860e+00 2.454167e+00 2.260051e+00 2.696168e+00 1.859637e+00 1.805712e+00 3.779408e+00 1.906884e-01 6.434085e-01 5.897987e-01 5.128524e-01 4.533876e-01 4.504707e-01 4.390896e-01 3.978135e-01 3.938247e-01 4.182062e-01 3.711095e-01 3.262063e-01 2.686594e-01
<GCONST> 1.156979e+02
<STATE> 3
<MEAN> 39
 1.495404e+00 -3.115727e+01 7.776194e+00 8.672204e+00 -2.248939e+01 2.012963e+01 -9.830055e+00 -5.995965e+00 6.601804e+00 -9.604834e+00 -3.983388e+00 3.815716e+00 7.621765e+01 2.797675e-01 -2.793129e+00 6.169598e-01 -1.509485e+00 -7.558962e-01 3.643677e-01 -6.062444e-01 -6.488745e-01 -1.459978e-01 -8.158458e-01 3.456181e-01 4.145457e-01 2.273138e+00 5.638896e-01 1.403640e+00 -5.776653e-01 1.092125e+00 7.912624e-01 -6.716917e-02 4.459835e-01 -1.384636e-01 3.676322e-02 2.019100e-01 4.840054e-02 -5.860049e-02 -4.106959e-01
<VARIANCE> 39
 2.434220e+01 3.614944e+01 5.695644e+01 3.855293e+01 4.652336e+01 3.475843e+01 3.539568e+01 2.951969e+01 2.995943e+01 2.476431e+01 1.557062e+01 1.806873e+01 1.865934e+01 2.766669e+00 6.509135e+00 4.437318e+00 4.148492e+00 3.612427e+00 2.756968e+00 3.705702e+00 2.933643e+00 4.169045e+00 3.381267e+00 1.956403e+00 1.857898e+00 2.778309e+00 2.749059e-01 1.088572e+00 8.761361e-01 9.176434e-01 1.029361e+00 6.207443e-01 7.483454e-01 6.828375e-01 7.359703e-01 5.319991e-01 3.933429e-01 4.543238e-01 4.822148e-01
<GCONST> 1.251802e+02
<STATE> 4
<MEAN> 39
 3.585964e+00 -2.873429e+01 5.604497e+00 1.133595e+01 -1.922171e+01 2.050525e+01 -7.630705e+00 -8.673912e+00 5.120490e+00 -8.849474e+00 -3.678197e+00 4.631626e+00 7.657477e+01 2.234188e+00 2.687650e+00 -1.620486e+00 1.690356e+00 1.689701e+00 2.082678e-01 8.948207e-01 -1.047277e-01 1.901049e-01 -8.422964e-01 -2.236342e-02 -4.549147e-01 3.985650e-01 3.165708e-01 1.034749e+00 -2.775750e-01 5.257941e-01 3.301787e-01 -1.632533e-01 -1.457594e-03 2.150978e-01 2.789291e-01 -1.720717e-01 -7.642277e-02 -3.289786e-01 -2.719394e-01
<VARIANCE> 39
 2.137640e+01 4.440685e+01 3.198013e+01 3.489409e+01 4.087092e+01 2.775228e+01 4.527802e+01 3.706778e+01 3.053584e+01 3.539362e+01 2.429050e+01 2.059184e+01 1.559925e+01 2.828256e+00 4.519637e+00 3.619818e+00 3.752527e+00 4.672677e+00 4.035648e+00 3.930724e+00 3.944880e+00 2.685384e+00 3.432767e+00 2.401366e+00 2.991650e+00 2.305396e+00 5.195069e-01 1.470410e+00 6.243322e-01 7.871905e-01 6.489426e-01 6.729188e-01 8.861981e-01 4.814194e-01 5.024854e-01 7.679424e-01 4.365282e-01 5.643865e-01 4.042689e-01
<GCONST> 1.259017e+02
<TRANSP> 5
 0.000000e+00 1.000000e+00 0.000000e+00 0.000000e+00 0.000000e+00
 0.000000e+00 6.311092e-01 3.688908e-01 0.000000e+00 0.000000e+00
 0.000000e+00 0.000000e+00 5.305661e-01 4.694339e-01 0.000000e+00
 0.000000e+00 0.000000e+00 0.000000e+00 5.659581e-01 4.340419e-01
 0.000000e+00 0.000000e+00 0.000000e+00 0.000000e+00 0.000000e+00
<ENDHMM>
~h "u"
<BEGINHMM>
<NUMSTATES> 5
<STATE> 2
<MEAN> 39
 1.282488e+01 -1.218333e+01 1.604885e+00 1.818708e+01 -2.046366e+01 1.171604e+01 -6.657494e+00 -1.197028e+00 1.430758e+01 -1.136558e+01 -1.172584e+01 -5.254536e+00 7.545263e+01 5.186272e-01 7.952899e-01 -1.206706e-01 5.642142e-01 -1.436079e-01 -1.816005e+00 -3.293419e-01 8.178345e-01 8.850142e-01 -2.460369e-01 -9.942713e-01 -9.797381e-01 2.626387e-01 -2.416866e-01 2.039801e-02 6.852441e-02 -6.153936e-02 1.944137e-01 3.291861e-01 1.027050e-01 -1.628674e-01 -1.477243e-01 4.182375e-01 2.582374e-01 1.833678e-01 -2.364824e-01
<VARIANCE> 39
 9.526107e+00 3.088247e+01 1.787365e+01 2.343702e+01 4.399866e+01 7.636140e+01 3.481536e+01 2.731393e+01 3.701932e+01 3.835258e+01 2.664949e+01 3.185166e+01 1.104549e+01 7.129582e-01 2.826255e+00 1.686902e+00 2.441925e+00 3.514488e+00 5.200097e+00 2.765626e+00 1.832811e+00 2.027251e+00 3.227277e+00 2.789646e+00 2.438509e+00 8.301077e-01 1.599019e-01 6.590596e-01 3.171530e-01 4.367001e-01 4.754930e-01 8.582228e-01 4.151518e-01 2.989805e-01 4.207653e-01 4.975957e-01 4.213261e-01 4.387274e-01 1.279997e-01
<GCONST> 1.125173e+02
<STATE> 3
<MEAN> 39
 1.278314e+01 -9.892715e+00 1.450605e+00 1.966533e+01 -1.963081e+01 1.016140e+01 -6.397173e+00 2.436192e-01 1.563395e+01 -9.539421e+00 -1.238796e+01 -5.436777e+00 7.401558e+01 -3.594554e-01 -1.489111e-01 5.343558e-02 1.521545e-02 4.652677e-01 1.193279e+00 6.675311e-01 -3.433015e-01 -4.208480e-01 6.591680e-01 3.024102e-01 2.645705e-01 -3.798625e-01 -2.170406e-01 -2.887390e-01 1.493817e-01 -1.242120e-01 6.845435e-02 5.155721e-01 1.078030e-01 -3.623036e-01 -3.421658e-01 1.488309e-01 2.989740e-01 2.055681e-01 -4.238396e-02
<VARIANCE> 39
 9.177572e+00 2.825385e+01 1.555838e+01 1.998647e+01 3.293843e+01 5.889980e+01 2.820607e+01 2.662882e+01 3.454352e+01 3.283292e+01 2.432995e+01 2.255228e+01 1.567095e+01 4.369126e-01 1.945548e+00 1.176579e+00 9.890087e-01 1.964448e+00 3.809682e+00 2.576861e+00 2.753845e+00 1.927077e+00 2.530520e+00 1.991212e+00 1.867203e+00 6.789242e-01 1.054489e-01 4.652373e-01 2.860424e-01 2.296272e-01 3.451558e-01 6.169835e-01 3.779488e-01 4.717201e-01 4.425891e-01 4.649378e-01 4.246300e-01 3.724501e-01 1.197659e-01
<GCONST> 1.051756e+02
<STATE> 4
<MEAN> 39
 6.546475e+00 -1.552905e+01 -1.137316e+00 1.669561e+01 -1.917581e+01 1.694497e+01 -4.480111e+00 -4.099035e+00 9.693284e+00 -7.186880e+00 -8.419999e+00 3.060157e-01 6.944367e+01 -4.605196e-01 -2.832322e-01 3.396339e-01 -5.871522e-02 2.347357e-01 8.492857e-01 2.762208e-01 -5.588228e-01 -4.733872e-01 5.406904e-01 4.291552e-01 2.501175e-01 -2.350601e-01 -6.639864e-02 -1.838330e-01 1.855263e-01 -5.976669e-02 -1.133258e-01 -2.202231e-02 -6.451532e-02 -4.379680e-02 -6.661689e-02 -1.209989e-01 2.130680e-02 -2.215075e-02 1.069718e-01
<VARIANCE> 39
 4.322953e+01 4.529239e+01 2.626961e+01 2.523546e+01 3.084312e+01 3.452781e+01 2.942480e+01 2.698464e+01 4.632810e+01 3.302913e+01 3.001392e+01 3.678470e+01 3.917235e+01 6.578564e-01 3.414435e+00 1.282428e+00 1.498031e+00 2.004334e+00 3.129095e+00 2.421485e+00 2.636296e+00 2.451131e+00 2.071641e+00 1.730537e+00 1.737878e+00 7.593343e-01 1.333989e-01 3.359230e-01 2.836329e-01 2.455875e-01 3.544857e-01 4.464882e-01 3.245808e-01 3.339870e-01 2.744467e-01 3.712899e-01 4.031605e-01 2.664883e-01 9.553018e-02
<GCONST> 1.083141e+02
<TRANSP> 5
 0.000000e+00 1.000000e+00 0.000000e+00 0.000000e+00 0.000000e+00
 0.000000e+00 5.743472e-01 4.256528e-01 0.000000e+00 0.000000e+00
 0.000000e+00 0.000000e+00 6.139792e-01 3.860207e-01 0.000000e+00
 0.000000e+00 0.000000e+00 0.000000e+00 4.370393e-01 5.629607e-01
 0.000000e+00 0.000000e+00 0.000000e+00 0.000000e+00 0.000000e+00
<ENDHMM>
~h "v"
<BEGINHMM>
<NUMSTATES> 5
<STATE> 2
<MEAN> 39
 1.246256e+01 -1.626888e+01 1.020434e+00 1.811594e+01 -1.432040e+01 1.993411e+01 -9.109042e+00 -1.121041e+01 6.163516e+00 -1.219392e+01 -4.154602e+00 -1.360497e+00 7.738981e+01 -1.881849e-01 9.044545e-01 -6.848425e-02 -1.117411e-02 5.909891e-02 1.919735e-01 7.978912e-01 2.410872e-01 -2.881708e-01 7.158664e-01 -3.849804e-01 -1.023068e-01 -8.079679e-01 -1.040670e-01 1.025767e-01 3.958043e-02 -6.811200e-02 -6.449310e-02 8.032189e-02 1.672326e-02 1.041292e-01 3.339519e-02 7.311669e-02 -5.642045e-03 1.555809e-01 -1.863337e-01
<VARIANCE> 39
 1.087450e+01 2.527711e+01 2.208769e+01 1.911649e+01 4.249347e+01 3.112441e+01 2.544151e+01 3.104028e+01 2.545212e+01 3.205257e+01 1.735304e+01 3.908318e+01 1.271589e+01 3.089241e-01 1.447391e+00 1.079488e+00 8.303542e-01 1.427995e+00 2.068179e+00 1.761546e+00 1.839706e+00 1.784430e+00 1.584291e+00 1.415231e+00 1.260572e+00 8.218945e-01 9.739076e-02 2.375287e-01 1.979203e-01 1.480966e-01 2.566203e-01 4.161787e-01 2.649335e-01 2.534630e-01 2.751471e-01 3.206925e-01 2.283576e-01 2.247156e-01 1.400398e-01
<GCONST> 9.613378e+01
<STATE> 3
<MEAN> 39
 1.151884e+01 -1.072782e+01 3.234965e-01 1.697828e+01 -1.525841e+01 2.062993e+01 -5.415977e+00 -8.563863e+00 5.911004e+00 -8.305457e+00 -5.805514e+00 -1.007143e+00 7.246243e+01 -6.183383e-01 7.449711e-01 3.848253e-01 1.412999e-01 -2.501701e-01 3.061071e-01 2.875000e-01 5.342554e-01 2.564929e-01 7.004558e-01 -9.122535e-02 5.432546e-01 -1.225768e+00 9.988301e-03 -4.535829e-01 -1.491015e-02 6.311737e-03 -5.236285e-02 2.931763e-02 -1.415385e-01 -5.512863e-02 3.936894e-02 -4.099149e-01 8.480480e-02 1.092559e-01 2.995157e-01
<VARIANCE> 39
 1.152063e+01 2.780431e+01 2.461540e+01 1.958807e+01 3.245859e+01 3.082573e+01 1.622112e+01 3.185567e+01 2.833087e+01 2.017790e+01 1.661962e+01 2.922257e+01 9.004939e+00 3.017764e-01 1.298998e+00 1.118791e+00 9.085894e-01 1.975221e+00 1.393117e+00 1.267665e+00 1.565077e+00 1.592960e+00 1.434246e+00 1.020078e+00 1.328841e+00 4.965816e-01 9.280439e-02 2.473084e-01 2.669956e-01 2.351923e-01 3.416964e-01 3.545684e-01 2.744010e-01 3.897724e-01 3.230864e-01 4.172559e-01 1.709184e-01 2.398497e-01 1.452363e-01
<GCONST> 9.470428e+01
<STATE> 4
<MEAN> 39
 7.330030e+00 -1.021978e+01 2.700406e+00 1.908325e+01 -1.592441e+01 2.271013e+01 -2.285318e+00 -5.315596e+00 7.425222e+00 -6.140227e+00 -4.908486e+00 1.934345e+00 6.786575e+01 -1.566233e-01 -6.124166e-01 -1.252277e-01 -1.363278e-01 1.314718e-01 1.808157e-01 5.510338e-02 3.226254e-01 -7.643261e-02 -7.112731e-01 -9.805220e-02 3.634864e-01 1.541950e-01 2.962660e-01 -2.888032e-01 -2.397830e-01 -1.096962e-01 1.452676e-01 -1.334232e-01 -3.039982e-01 -2.689203e-01 -1.936932e-01 -4.678412e-01 2.315829e-02 -9.705114e-02 4.946464e-01
<VARIANCE> 39
 1.601079e+01 2.480988e+01 1.368735e+01 1.662087e+01 1.936942e+01 1.622334e+01 2.651813e+01 2.796498e+01 2.258395e+01 1.876059e+01 1.269317e+01 2.189170e+01 1.405779e+01 7.880039e-01 1.515137e+00 1.204472e+00 1.467924e+00 1.303913e+00 1.643378e+00 1.421528e+00 1.280590e+00 1.524194e+00 2.754694e+00 1.345144e+00 1.016235e+00 1.081686e+00 1.503942e-01 2.028567e-01 1.937777e-01 2.426905e-01 2.209509e-01 3.053271e-01 2.624294e-01 2.983230e-01 3.460988e-01 4.825869e-01 2.452917e-01 2.128178e-01 2.019453e-01
<GCONST> 9.556904e+01
<TRANSP> 5
 0.000000e+00 1.000000e+00 0.000000e+00 0.000000e+00 0.000000e+00
 0.000000e+00 6.330665e-01 3.669335e-01 0.000000e+00 0.000000e+00
 0.000000e+00 0.000000e+00 4.968869e-01 5.031130e-01 0.000000e+00
 0.000000e+00 0.000000e+00 0.000000e+00 7.281842e-01 2.718158e-01
 0.000000e+00 0.000000e+00 0.000000e+00 0.000000e+00 0.000000e+00
<ENDHMM>
~h "y"
<BEGINHMM>
<NUMSTATES> 5
<STATE> 2
<MEAN> 39
 6.046606e+00 -1.799743e+01 2.896039e-01 1.894096e+01 -1.437983e+01 1.803388e+01 -9.657412e+00 -9.302108e+00 6.730727e+00 -7.264006e+00 -3.530833e+00 1.916645e+00 7.113344e+01 -2.725741e-01 -1.786130e-01 1.182379e-01 1.729238e-01 1.784561e-01 -2.340206e-01 -4.500234e-01 1.883259e-02 2.141675e-01 2.468226e-02 -1.762240e-01 -1.721999e-01 -1.565967e-01 9.391017e-02 3.653049e-02 -1.137091e-01 -1.281838e-01 -2.081064e-02 1.105689e-01 9.244259e-02 -5.008313e-02 -7.341643e-02 -8.025587e-02 1.559531e-02 7.953256e-03 7.346420e-02
<VARIANCE> 39
 3.529264e+01 2.824784e+01 6.596400e+01 4.339046e+01 4.014748e+01 2.702783e+01 3.293256e+01 2.658707e+01 2.636398e+01 3.218470e+01 2.166798e+01 3.140347e+01 6.571002e+01 3.710160e-01 1.009433e+00 1.704854e+00 1.518269e+00 1.589628e+00 1.505983e+00 1.513167e+00 1.537182e+00 1.633522e+00 1.558545e+00 1.209248e+00 1.496197e+00 4.008170e-01 6.180724e-02 1.460282e-01 2.491888e-01 2.254399e-01 3.194068e-01 2.945137e-01 2.514492e-01 3.480478e-01 3.009463e-01 2.769433e-01 2.561446e-01 2.723302e-01 4.732389e-02
<GCONST> 9.947141e+01
<STATE> 3
<MEAN> 39
 9.680006e+00 -1.891605e+01 3.970393e+00 2.236336e+01 -9.707903e+00 1.811223e+01 -1.441709e+01 -1.177851e+01 9.245329e+00 -1.019622e+01 -3.119605e+00 -1.080334e+00 7.726340e+01 3.876106e-01 -1.089734e-01 -7.748768e-01 -6.083826e-01 4.505290e-01 7.378996e-01 -4.536268e-02 -7.818146e-01 -5.788034e-01 -2.795756e-01 2.338009e-01 7.871448e-02 4.192438e-01 1.734591e-01 1.834602e-01 -1.814871e-01 -3.220159e-01 -2.921575e-01 2.907464e-01 5.230762e-01 1.702208e-01 -2.303487e-01 -2.088292e-01 7.035571e-02 1.216579e-01 3.013643e-02
<VARIANCE> 39
 2.275543e+01 1.876027e+01 3.700887e+01 3.428125e+01 3.717410e+01 3.219061e+01 2.137740e+01 2.807365e+01 2.299479e+01 2.841430e+01 1.895458e+01 4.158174e+01 3.412358e+01 5.531209e-01 1.202537e+00 3.120241e+00 2.683538e+00 3.243490e+00 2.516707e+00 2.066459e+00 2.046514e+00 2.325648e+00 1.917460e+00 1.743582e+00 2.078216e+00 6.656283e-01 1.197972e-01 2.356697e-01 4.052616e-01 4.156979e-01 6.078250e-01 4.538474e-01 3.798529e-01 4.273550e-01 3.841253e-01 4.314907e-01 3.356581e-01 3.393841e-01 1.510761e-01
<GCONST> 1.083663e+02
<STATE> 4
<MEAN> 39
 8.921146e+00 -1.810289e+01 2.815822e+00 2.010881e+01 -1.119007e+01 1.950613e+01 -1.190500e+01 -9.768878e+00 8.247993e+00 -1.120961e+01 -2.524995e+00 1.335315e+00 7.568041e+01 1.051719e+00 1.757382e-01 -3.985269e-01 -2.981726e-01 3.033215e-01 8.227935e-01 3.760848e-01 -1.101709e-01 -3.259052e-01 -1.178001e+00 1.835086e-01 1.515588e-01 9.922134e-01 8.897280e-02 1.738792e-01 -1.141023e-01 -1.486085e-01 -2.818377e-01 -1.279867e-01 2.461934e-01 2.139770e-01 1.837712e-02 -7.637443e-02 -1.348894e-01 -6.344011e-02 -3.202216e-02
<VARIANCE> 39
 3.661491e+01 2.371038e+01 3.957555e+01 3.783314e+01 6.615983e+01 3.379853e+01 3.670341e+01 4.459172e+01 3.183498e+01 3.834689e+01 1.830140e+01 3.338737e+01 4.880374e+01 1.696419e+00 2.591033e+00 6.176643e+00 6.143274e+00 5.729933e+00 3.080742e+00 3.809721e+00 2.990738e+00 3.489392e+00 3.090795e+00 1.675980e+00 2.094500e+00 2.208203e+00 2.853833e-01 3.652984e-01 6.748774e-01 6.998957e-01 1.022632e+00 5.581957e-01 7.187220e-01 6.861932e-01 5.655321e-01 6.950020e-01 3.063297e-01 4.478653e-01 2.925045e-01
<GCONST> 1.246968e+02
<TRANSP> 5
 0.000000e+00 1.000000e+00 0.000000e+00 0.000000e+00 0.000000e+00
 0.000000e+00 7.387927e-01 2.612074e-01 0.000000e+00 0.000000e+00
 0.000000e+00 0.000000e+00 4.530139e-01 5.469862e-01 0.000000e+00
 0.000000e+00 0.000000e+00 0.000000e+00 3.633150e-01 6.366850e-01
 0.000000e+00 0.000000e+00 0.000000e+00 0.000000e+00 0.000000e+00
<ENDHMM>
~h "z"
<BEGINHMM>
<NUMSTATES> 5
<STATE> 2
<MEAN> 39
 1.262264e+01 -1.609412e+01 4.693866e+00 1.603210e+01 -1.695524e+01 2.190267e+01 -3.463051e+00 -6.390900e+00 7.442797e+00 -1.808922e+01 -1.012093e+01 -4.256266e+00 7.976397e+01 -6.397814e-01 -1.802605e-01 1.868745e+00 -2.752957e-01 -7.809226e-01 4.376129e-01 7.585756e-01 1.982253e-01 8.301079e-03 1.112893e-01 -5.728693e-02 -8.689722e-02 1.312882e-01 -7.235379e-01 -4.531682e-01 1.245294e+00 -4.110130e-01 -4.147177e-01 5.026681e-01 1.004415e-01 1.070115e-01 3.513054e-02 5.260143e-01 5.783398e-01 5.357109e-01 -1.328432e-01
<VARIANCE> 39
 5.141670e+00 1.506255e+01 2.199813e+01 2.912046e+01 5.029964e+01 4.586628e+01 3.209944e+01 4.534098e+01 3.067478e+01 2.002279e+01 4.679336e+01 3.040408e+01 4.809811e+00 1.341734e+00 2.352009e+00 5.326036e+00 1.619685e+00 3.166620e+00 4.346626e+00 2.328736e+00 1.999831e+00 1.885915e+00 2.781738e+00 3.337381e+00 2.270456e+00 4.036825e-01 1.171482e-01 2.746131e-01 4.048439e-01 3.568965e-01 4.528521e-01 5.792869e-01 2.795417e-01 3.802996e-01 4.002631e-01 3.558553e-01 4.131128e-01 3.875287e-01 1.049480e-01
<GCONST> 1.080213e+02
<STATE> 3
<MEAN> 39
 7.201488e+00 -1.990786e+01 1.664676e+01 1.342528e+01 -2.041774e+01 2.608090e+01 -1.923029e+00 -5.399647e+00 7.099151e+00 -1.565245e+01 -5.856894e+00 -1.027901e+00 8.006561e+01 -2.326313e+00 -1.281772e+00 4.352043e+00 -1.330658e+00 -1.154894e+00 9.409463e-01 8.330488e-01 3.775026e-01 -2.074285e-01 9.363202e-01 1.029334e+00 1.131352e+00 1.201641e-01 -1.595357e-01 -1.329104e-01 -1.918723e-01 -3.244796e-02 3.372865e-01 -1.183699e-01 -2.001067e-01 -1.176690e-01 7.352799e-03 1.113700e-01 -2.071604e-02 1.265544e-01 -7.866234e-03
<VARIANCE> 39
 1.599879e+01 1.930352e+01 4.672013e+01 3.519209e+01 4.600340e+01 3.247274e+01 3.513801e+01 3.901180e+01 2.811242e+01 2.596902e+01 6.843751e+01 3.800919e+01 2.658775e+00 1.042626e+00 9.574035e-01 3.147668e+00 1.402628e+00 2.586545e+00 2.810790e+00 2.532833e+00 2.052838e+00 1.750038e+00 2.416907e+00 2.201581e+00 1.924662e+00 2.128574e-01 2.795370e-01 2.453081e-01 1.071124e+00 2.664205e-01 3.884985e-01 5.370001e-01 5.159052e-01 3.573015e-01 2.786866e-01 4.662098e-01 5.962417e-01 3.796815e-01 4.133414e-02
<GCONST> 1.073320e+02
<STATE> 4
<MEAN> 39
 1.850758e-01 -2.447611e+01 2.368995e+01 9.476825e+00 -2.028161e+01 2.738860e+01 -1.934562e+00 -5.711034e+00 6.691732e+00 -1.244235e+01 -4.515273e+00 2.248476e+00 7.966615e+01 4.299286e-01 5.125869e-02 -1.357949e+00 4.028898e-01 3.786615e-01 -2.937593e-01 -4.694616e-01 -1.293630e-01 3.333058e-02 -7.089460e-02 -2.731118e-01 -5.536662e-02 -2.619640e-01 6.383824e-01 3.991876e-01 -9.906114e-01 2.926961e-01 7.845170e-02 -2.542824e-01 -1.654048e-01 -4.169648e-02 1.144261e-01 -2.533846e-01 -1.656094e-01 -1.979427e-01 -2.097032e-02
<VARIANCE> 39
 2.222611e+01 2.631115e+01 4.044089e+01 4.472555e+01 3.036635e+01 3.110906e+01 3.899391e+01 3.970524e+01 3.147775e+01 2.451696e+01 2.744498e+01 2.024994e+01 6.957530e+00 4.062850e+00 2.914492e+00 7.777336e+00 2.229780e+00 2.769098e+00 2.927327e+00 3.201075e+00 2.683070e+00 1.586824e+00 2.495795e+00 2.467113e+00 1.829218e+00 5.904024e-01 3.320267e-01 3.672956e-01 8.538263e-01 3.183666e-01 5.199303e-01 5.335764e-01 6.189645e-01 4.587540e-01 3.355208e-01 4.558128e-01 4.385614e-01 3.498989e-01 9.460238e-02
<GCONST> 1.145194e+02
<TRANSP> 5
 0.000000e+00 1.000000e+00 0.000000e+00 0.000000e+00 0.000000e+00
 0.000000e+00 4.915743e-01 5.084257e-01 0.000000e+00 0.000000e+00
 0.000000e+00 0.000000e+00 6.911691e-01 3.088309e-01 0.000000e+00
 0.000000e+00 0.000000e+00 0.000000e+00 8.478823e-01 1.521177e-01
 0.000000e+00 0.000000e+00 0.000000e+00 0.000000e+00 0.000000e+00
<ENDHMM>
~h "ch"
<BEGINHMM>
<NUMSTATES> 5
<STATE> 2
<MEAN> 39
 5.199810e+00 -1.993220e+01 6.151751e+00 1.888440e+01 -1.591989e+01 1.961698e+01 -4.676308e+00 -5.582760e+00 5.549008e+00 -7.929585e+00 -3.081946e+00 4.077850e+00 7.249566e+01 -2.102229e+00 -2.973079e+00 2.431520e+00 -5.630237e-01 -6.392124e-01 -1.253492e+00 6.944330e-01 9.870941e-01 -8.964701e-02 1.460909e-01 -6.621689e-01 6.621817e-01 9.328823e-01 -2.890823e-01 -1.053170e+00 3.055005e-01 -2.577865e-01 -1.502812e-02 -1.111004e-01 -4.179754e-01 -3.348381e-01 2.145086e-01 -2.386822e-01 -1.009705e-01 4.042972e-02 7.914836e-01
<VARIANCE> 39
 2.226505e+01 3.762859e+01 4.701870e+01 3.884585e+01 3.910281e+01 3.179276e+01 4.063889e+01 3.029148e+01 2.872423e+01 2.875652e+01 2.891862e+01 2.233145e+01 2.388277e+01 1.804031e+00 6.789170e+00 5.048267e+00 3.213223e+00 2.554480e+00 3.119097e+00 3.412719e+00 2.748315e+00 2.542457e+00 3.219615e+00 2.434853e+00 2.292663e+00 4.060594e+00 1.971552e-01 8.701636e-01 8.630492e-01 6.305698e-01 5.267048e-01 5.698628e-01 6.274045e-01 5.699467e-01 5.126996e-01 4.794899e-01 5.042709e-01 3.477804e-01 4.222566e-01
<GCONST> 1.227391e+02
<STATE> 3
<MEAN> 39
 -4.291803e+00 -3.747885e+01 1.658319e+01 1.741308e+01 -1.743529e+01 1.556133e+01 -7.184247e+00 -5.935001e+00 7.578627e+00 -8.604835e+00 -4.726260e+00 7.240079e+00 8.080769e+01 -1.263387e+00 -3.491172e+00 2.386387e-01 -4.929425e-01 -3.322767e-02 8.688803e-02 -8.570172e-01 -1.156103e+00 4.128698e-01 5.800128e-01 7.638075e-02 4.855729e-01 1.634657e+00 8.528706e-01 1.165128e+00 -1.222578e+00 -2.965747e-02 2.570691e-01 5.329072e-01 1.174334e-01 -2.845028e-01 -3.126132e-01 1.449437e-01 2.668680e-01 -2.259382e-01 -5.796049e-01
<VARIANCE> 39
 1.422482e+01 2.232947e+01 2.531005e+01 2.395406e+01 3.875401e+01 2.756563e+01 2.992040e+01 3.356991e+01 2.280690e+01 2.405113e+01 2.294590e+01 2.161252e+01 9.190672e+00 2.013659e+00 4.167044e+00 4.914372e+00 1.988199e+00 2.385195e+00 2.015864e+00 2.788851e+00 2.453004e+00 1.950365e+00 1.670642e+00 1.542154e+00 1.378321e+00 1.753465e+00 2.374613e-01 7.766404e-01 5.243510e-01 3.758824e-01 4.691658e-01 3.429836e-01 5.483593e-01 5.339028e-01 3.859027e-01 3.569535e-01 3.362171e-01 3.041327e-01 3.300721e-01
<GCONST> 1.111191e+02
<STATE> 4
<MEAN> 39
 -2.097102e+00 -3.898244e+01 8.915984e+00 1.429861e+01 -1.575187e+01 1.860977e+01 -6.694331e+00 -1.054196e+01 5.339155e+00 -6.120495e+00 -4.020494e+00 6.666319e+00 8.095399e+01 2.008114e+00 2.488087e+00 -1.835484e+00 6.908326e-02 5.160452e-01 8.621719e-01 4.956822e-01 -4.450524e-01 -7.173691e-01 -6.660146e-01 3.527466e-01 -6.698350e-01 -7.206331e-01 6.381239e-01 1.187772e+00 8.669093e-02 4.089514e-01 -5.260501e-02 2.298003e-02 8.162797e-03 3.284435e-01 2.759113e-01 -4.876429e-01 -4.966391e-02 -4.073739e-01 -1.513519e-01
<VARIANCE> 39
 1.280509e+01 2.656507e+01 2.228904e+01 1.594707e+01 2.350411e+01 2.238754e+01 2.638630e+01 2.006918e+01 2.219790e+01 1.862067e+01 2.061464e+01 1.799471e+01 8.751559e+00 2.908345e+00 5.884010e+00 1.733470e+00 2.961381e+00 3.227939e+00 2.219148e+00 2.036341e+00 2.097715e+00 1.887494e+00 2.755736e+00 1.509398e+00 2.097179e+00 9.306037e-01 3.367869e-01 8.368515e-01 3.549678e-01 3.490413e-01 4.672048e-01 4.205745e-01 4.068115e-01 3.877455e-01 4.856017e-01 4.369809e-01 3.080169e-01 3.846709e-01 4.062031e-01
<GCONST> 1.092404e+02
<TRANSP> 5
 0.000000e+00 1.000000e+00 0.000000e+00 0.000000e+00 0.000000e+00
 0.000000e+00 7.424463e-01 2.575536e-01 0.000000e+00 0.000000e+00
 0.000000e+00 0.000000e+00 6.966761e-01 3.033239e-01 0.000000e+00
 0.000000e+00 0.000000e+00 0.000000e+00 7.569730e-01 2.430270e-01
 0.000000e+00 0.000000e+00 0.000000e+00 0.000000e+00 0.000000e+00
<ENDHMM>
~h "gh"
<BEGINHMM>
<NUMSTATES> 5
<STATE> 2
<MEAN> 39
 1.415369e+01 -1.526263e+01 1.112827e-01 1.579316e+01 -1.765869e+01 1.275363e+01 -8.945173e+00 -6.061564e+00 1.263675e+01 -1.401794e+01 -8.781961e+00 -3.405077e+00 8.070882e+01 1.432792e-01 6.872011e-01 -1.720228e-01 -8.507007e-02 -1.333904e-01 -7.556000e-01 -2.574074e-02 3.323228e-01 2.927970e-01 6.767731e-01 4.315840e-01 -1.431414e-01 -2.348061e-01 -1.399153e-01 -9.424524e-02 1.461751e-01 5.102392e-02 5.357677e-02 2.300436e-01 1.937218e-01 -3.193397e-02 -3.264607e-01 -5.050920e-02 1.044304e-01 1.773900e-01 -1.520741e-01
<VARIANCE> 39
 4.109446e+00 2.082927e+01 1.590554e+01 4.724594e+01 8.694955e+01 8.287595e+01 3.642882e+01 6.471648e+01 6.338994e+01 2.556660e+01 3.622867e+01 4.043834e+01 6.292569e+00 2.168957e-01 7.104193e-01 7.259134e-01 1.242829e+00 2.119642e+00 2.921329e+00 8.653061e-01 1.363644e+00 1.366298e+00 2.450421e+00 1.017253e+00 8.464161e-01 1.497221e-01 5.752948e-02 1.017893e-01 6.743548e-02 3.171408e-01 3.323000e-01 3.766340e-01 2.537925e-01 2.931121e-01 3.324616e-01 2.507972e-01 1.673129e-01 2.438899e-01 4.306030e-02
<GCONST> 9.260152e+01
<STATE> 3
<MEAN> 39
 1.442754e+01 -1.154530e+01 9.543985e-01 1.587788e+01 -2.025593e+01 9.460372e+00 -7.247610e+00 -3.676456e+00 1.407492e+01 -1.128392e+01 -8.854951e+00 -4.656890e+00 7.891716e+01 -5.901996e-03 4.161633e-01 1.082112e-01 8.027868e-02 2.256374e-02 -1.855996e-02 4.827934e-02 1.731360e-02 -2.731829e-01 3.260466e-02 2.382362e-01 8.908567e-02 -2.968790e-01 -1.614032e-03 -1.058473e-01 -2.135005e-02 -2.792737e-02 -1.531467e-05 2.719469e-01 5.881260e-02 -5.759273e-02 -1.049598e-01 -1.831075e-01 -9.227768e-02 6.665327e-03 3.698676e-03
<VARIANCE> 39
 2.799328e+00 2.217434e+01 1.723001e+01 3.546548e+01 6.932537e+01 1.086511e+02 4.291608e+01 6.578978e+01 6.459213e+01 2.671015e+01 2.945054e+01 3.203303e+01 5.720284e+00 1.333307e-01 3.948295e-01 3.772096e-01 1.048469e+00 1.265227e+00 1.342661e+00 7.187433e-01 1.016190e+00 8.462949e-01 9.809963e-01 9.022201e-01 9.382464e-01 1.280266e-01 2.915583e-02 7.053225e-02 7.939133e-02 1.649305e-01 2.563978e-01 2.534194e-01 1.485508e-01 1.543652e-01 1.681364e-01 1.949668e-01 1.360667e-01 1.265514e-01 2.019295e-02
<GCONST> 8.066223e+01
<STATE> 4
<MEAN> 39
 1.486367e+01 -1.155229e+01 -3.462974e-01 1.508790e+01 -2.084539e+01 1.059738e+01 -5.048338e+00 -2.231799e+00 1.097729e+01 -1.503528e+01 -1.019010e+01 -4.617090e+00 7.834667e+01 -1.804532e-02 -1.890696e-01 -1.546793e-01 1.053359e-01 2.731061e-01 1.031258e+00 3.893068e-01 -5.485965e-01 -7.006443e-01 -2.433053e-01 -1.138450e-01 1.749996e-01 -1.598187e-01 -5.235397e-02 -1.349927e-02 2.610511e-02 1.341584e-02 5.185617e-02 3.188276e-02 8.747153e-03 -3.006685e-02 -7.214882e-03 9.191878e-02 2.527292e-02 1.068732e-01 -3.628808e-02
<VARIANCE> 39
 2.523298e+00 1.537922e+01 1.777439e+01 2.182498e+01 5.275840e+01 7.914044e+01 2.633905e+01 5.983570e+01 5.103477e+01 2.795465e+01 2.942538e+01 3.828993e+01 7.510237e+00 2.181475e-01 6.843609e-01 1.060418e+00 1.240512e+00 2.942237e+00 4.002505e+00 1.873198e+00 1.938960e+00 1.945223e+00 1.384154e+00 1.294748e+00 1.737536e+00 3.216008e-01 3.709856e-02 1.217924e-01 1.398659e-01 1.860653e-01 4.590541e-01 6.390953e-01 2.933123e-01 3.923933e-01 4.146870e-01 2.834630e-01 2.269003e-01 2.488193e-01 6.167801e-02
<GCONST> 9.585998e+01
<TRANSP> 5
 0.000000e+00 1.000000e+00 0.000000e+00 0.000000e+00 0.000000e+00
 0.000000e+00 1.670660e-01 8.329340e-01 0.000000e+00 0.000000e+00
 0.000000e+00 0.000000e+00 7.838702e-01 2.161298e-01 0.000000e+00
 0.000000e+00 0.000000e+00 0.000000e+00 7.198119e-01 2.801882e-01
 0.000000e+00 0.000000e+00 0.000000e+00 0.000000e+00 0.000000e+00
<ENDHMM>
~h "oe"
<BEGINHMM>
<NUMSTATES> 5
<STATE> 2
<MEAN> 39
 1.184052e+01 -1.937074e+01 7.498162e-01 1.727427e+01 -9.347720e+00 2.177004e+01 -1.191490e+01 -1.042562e+01 5.571872e+00 -1.868959e+01 -4.258361e+00 1.501023e+00 8.000464e+01 1.184661e+00 2.828746e-01 -1.384080e+00 -9.125867e-01 -1.157277e-01 -3.825888e-01 -2.777086e-01 -4.773721e-01 -2.307454e-01 -2.244531e+00 -1.046935e+00 -4.319282e-01 1.367854e+00 -1.872676e-01 6.502169e-02 9.583495e-02 -1.775835e-01 -5.597256e-01 -5.260827e-02 3.017651e-01 3.568447e-01 1.859000e-01 4.248817e-01 8.326630e-02 1.440344e-01 -3.458236e-01
<VARIANCE> 39
 5.362050e+00 1.452407e+01 1.574247e+01 2.889451e+01 4.569477e+01 2.674026e+01 1.886116e+01 2.756905e+01 3.489721e+01 2.445905e+01 2.373195e+01 1.437158e+01 1.341101e+01 7.144727e-01 2.744804e+00 1.587250e+00 2.119288e+00 2.948945e+00 2.743715e+00 1.940532e+00 2.084789e+00 2.798315e+00 3.280195e+00 2.038532e+00 1.572703e+00 9.010091e-01 1.861325e-01 7.231696e-01 3.105152e-01 3.589532e-01 5.986605e-01 4.733095e-01 2.704042e-01 4.841041e-01 6.253974e-01 6.293511e-01 3.152722e-01 2.778566e-01 1.778355e-01
<GCONST> 1.067564e+02
<STATE> 3
<MEAN> 39
 1.359589e+01 -1.894435e+01 -1.163142e+00 1.396513e+01 -1.275054e+01 2.101037e+01 -1.110294e+01 -9.479888e+00 6.452515e+00 -2.196461e+01 -6.174342e+00 1.284105e+00 8.165287e+01 3.197257e-01 4.578072e-01 -2.661875e-01 -5.336459e-01 -1.083771e+00 -1.929677e-01 4.557313e-01 7.020546e-01 4.335570e-01 -2.704977e-01 -2.104863e-01 7.815693e-02 -2.145268e-01 -2.320641e-01 1.329067e-01 2.194203e-01 3.374194e-01 1.587314e-01 4.181657e-02 1.699089e-01 1.331690e-01 -5.512558e-02 6.166632e-01 2.438791e-01 9.209160e-02 -4.359194e-01
<VARIANCE> 39
 2.845290e+00 9.720664e+00 1.180758e+01 1.628911e+01 4.463932e+01 2.330043e+01 1.236238e+01 2.541102e+01 1.887978e+01 1.741710e+01 2.112036e+01 1.571733e+01 7.642310e+00 2.912795e-01 9.933428e-01 1.083543e+00 1.947229e+00 2.279168e+00 1.449199e+00 1.174489e+00 1.063268e+00 1.442030e+00 1.893995e+00 1.603554e+00 9.872898e-01 7.691378e-01 9.628643e-02 2.445284e-01 2.378681e-01 2.223461e-01 4.637585e-01 3.152582e-01 2.385621e-01 2.395996e-01 3.389386e-01 4.080822e-01 2.557656e-01 2.012816e-01 1.326414e-01
<GCONST> 9.027476e+01
<STATE> 4
<MEAN> 39
 1.402122e+01 -1.552186e+01 -2.304554e+00 1.342723e+01 -1.434557e+01 2.022305e+01 -8.870795e+00 -6.378251e+00 6.962201e+00 -2.090762e+01 -5.719411e+00 3.020147e+00 7.863140e+01 -1.041564e-01 5.601619e-01 -3.883997e-01 5.755236e-01 7.663062e-01 3.160684e-02 3.994533e-01 4.466967e-02 -3.333912e-01 8.527148e-01 3.327157e-01 3.104109e-01 -6.180974e-01 -1.093800e-01 -5.162338e-02 8.001372e-02 1.188369e-01 9.024446e-02 6.638355e-02 1.572123e-02 -2.354361e-01 -1.648631e-01 2.113234e-01 1.075637e-03 -8.700269e-02 -5.770458e-02
<VARIANCE> 39
 4.424065e+00 8.922256e+00 1.723698e+01 1.912396e+01 4.428961e+01 2.527206e+01 1.402451e+01 2.392643e+01 1.690351e+01 3.535184e+01 2.093939e+01 2.157477e+01 9.169413e+00 4.016837e-01 8.534524e-01 1.084492e+00 1.453423e+00 2.427682e+00 1.684641e+00 1.225385e+00 1.447711e+00 1.355556e+00 2.643606e+00 1.359794e+00 1.068798e+00 1.204356e+00 7.982065e-02 1.776982e-01 3.039715e-01 2.700748e-01 4.429003e-01 3.269505e-01 2.690705e-01 2.199762e-01 2.996854e-01 4.415748e-01 2.455267e-01 2.095537e-01 1.047038e-01
<GCONST> 9.315027e+01
<TRANSP> 5
 0.000000e+00 1.000000e+00 0.000000e+00 0.000000e+00 0.000000e+00
 0.000000e+00 5.295431e-01 4.704569e-01 0.000000e+00 0.000000e+00
 0.000000e+00 0.000000e+00 6.757658e-01 3.242342e-01 0.000000e+00
 0.000000e+00 0.000000e+00 0.000000e+00 7.760828e-01 2.239172e-01
 0.000000e+00 0.000000e+00 0.000000e+00 0.000000e+00 0.000000e+00
<ENDHMM>
~h "sh"
<BEGINHMM>
<NUMSTATES> 5
<STATE> 2
<MEAN> 39
 1.244798e+00 -3.243681e+01 1.245828e+01 1.985517e+01 -1.050063e+01 2.351882e+01 -4.265027e+00 -6.794872e+00 7.419765e+00 -7.791448e+00 -2.602449e+00 6.591140e+00 8.017558e+01 -2.525085e+00 -4.004381e+00 1.560894e+00 -4.509868e-01 -4.459546e-01 -4.810930e-01 4.069906e-01 -1.950963e-01 -3.544767e-01 1.471846e-01 -9.162067e-01 1.022843e+00 1.153278e+00 2.728050e-01 4.596425e-01 -6.637550e-01 -9.521962e-02 -2.421342e-01 -4.116121e-01 -4.458655e-01 -2.470543e-01 1.256513e-01 -2.668082e-01 -2.788437e-01 -2.787149e-01 -9.331312e-02
<VARIANCE> 39
 1.402050e+01 4.073855e+01 2.256089e+01 1.700697e+01 2.540906e+01 2.460124e+01 3.306139e+01 2.356075e+01 2.399650e+01 2.020795e+01 2.217469e+01 2.115535e+01 8.367555e+00 7.328638e-01 2.587720e+00 2.585367e+00 1.312758e+00 1.790791e+00 2.542630e+00 2.716325e+00 2.401274e+00 2.088262e+00 1.649664e+00 1.634747e+00 1.584094e+00 3.680690e-01 1.691890e-01 8.043441e-01 3.519643e-01 2.701087e-01 2.922799e-01 5.066625e-01 3.875299e-01 3.458964e-01 3.753638e-01 3.429349e-01 3.983543e-01 3.086064e-01 1.699441e-01
<GCONST> 1.037862e+02
<STATE> 3
<MEAN> 39
 -4.721256e+00 -4.083231e+01 1.186379e+01 1.712115e+01 -1.384936e+01 1.972921e+01 -5.629673e+00 -9.304974e+00 6.758308e+00 -7.585577e+00 -5.966692e+00 7.832056e+00 8.154063e+01 -7.146148e-02 2.656651e-01 -6.315159e-01 -4.815834e-01 -4.398860e-01 -3.964255e-01 -1.059851e-01 -9.266051e-02 -3.282307e-01 1.548512e-01 1.436864e-01 -1.320246e-01 -6.098791e-01 5.544161e-01 8.656639e-01 -2.155884e-01 1.245998e-01 7.742600e-02 2.103274e-01 7.257554e-02 1.238942e-01 -1.342961e-02 7.354528e-03 2.069620e-01 -2.213112e-01 -3.121039e-01
<VARIANCE> 39
 7.057858e+00 6.733844e+00 2.244859e+01 1.356766e+01 2.008048e+01 2.261514e+01 2.501730e+01 2.593700e+01 2.374449e+01 1.649363e+01 2.035139e+01 1.753986e+01 7.036319e+00 1.515947e+00 2.807028e+00 1.848422e+00 1.144640e+00 1.570418e+00 1.723005e+00 1.474095e+00 1.470179e+00 1.251530e+00 1.235273e+00 1.439480e+00 1.337262e+00 5.843615e-01 1.611439e-01 2.838534e-01 2.808369e-01 2.522485e-01 2.289172e-01 2.764412e-01 2.650765e-01 2.515246e-01 2.522671e-01 2.868821e-01 2.752551e-01 2.778763e-01 6.565791e-02
<GCONST> 9.304973e+01
<STATE> 4
<MEAN> 39
 -6.899958e-01 -3.221563e+01 7.416653e+00 1.601078e+01 -1.582091e+01 1.956557e+01 -4.782905e+00 -7.755191e+00 5.265069e+00 -6.330179e+00 -3.901094e+00 5.618671e+00 7.543174e+01 2.451659e+00 3.806213e+00 -1.325306e+00 8.454053e-01 -5.123255e-01 2.941667e-01 6.326686e-02 9.540229e-02 3.802428e-01 -1.588882e-01 9.835525e-02 -1.384906e+00 -1.119446e+00 2.825136e-01 1.115282e-01 3.233904e-02 7.154670e-02 -8.343980e-02 3.975439e-02 -1.224032e-01 -1.452026e-01 2.141019e-01 -3.714991e-01 -1.046195e-01 -1.563125e-01 4.813663e-01
<VARIANCE> 39
 2.644033e+01 2.533444e+01 4.511883e+01 2.294224e+01 3.467158e+01 2.935583e+01 2.616119e+01 2.411393e+01 2.250235e+01 2.229666e+01 1.824844e+01 1.645731e+01 1.447268e+01 2.849120e+00 3.322595e+00 2.002786e+00 2.222557e+00 2.364232e+00 1.955637e+00 2.176007e+00 1.936807e+00 1.708916e+00 2.853038e+00 1.339931e+00 1.626894e+00 1.467508e+00 3.204137e-01 6.363002e-01 3.961523e-01 4.734538e-01 4.988231e-01 3.828499e-01 3.520841e-01 3.409708e-01 3.198273e-01 4.327798e-01 2.761595e-01 3.195406e-01 1.849973e-01
<GCONST> 1.094200e+02
<TRANSP> 5
 0.000000e+00 1.000000e+00 0.000000e+00 0.000000e+00 0.000000e+00
 0.000000e+00 7.391218e-01 2.608782e-01 0.000000e+00 0.000000e+00
 0.000000e+00 0.000000e+00 8.330061e-01 1.669939e-01 0.000000e+00
 0.000000e+00 0.000000e+00 0.000000e+00 5.940213e-01 4.059787e-01
 0.000000e+00 0.000000e+00 0.000000e+00 0.000000e+00 0.000000e+00
<ENDHMM>
~h "sp"
<BEGINHMM>
<NUMSTATES> 3
<STATE> 2
~s "silst"
<TRANSP> 3
