~o
<STREAMINFO> 1 39
<VECSIZE> 39<NULLD><MFCC_D_A_0><DIAGC>
~h "a"
<BEGINHMM>
<NUMSTATES> 5
<STATE> 2
<MEAN> 39
 1.322632e+01 -1.778566e+01 -2.644377e+00 9.908970e+00 -2.303197e+01 1.295950e+01 -4.712642e+00 -2.819848e+00 9.210243e+00 -1.552485e+01 -5.690260e+00 2.671141e+00 7.974670e+01 9.680622e-01 7.705449e-02 -1.497968e+00 -7.896128e-01 -1.282466e-01 -1.902665e+00 -1.400520e-01 9.720528e-01 6.718493e-01 -1.151422e+00 1.368791e-01 3.634238e-01 1.260801e+00 -2.573423e-01 -2.095870e-02 1.621063e-01 1.772858e-01 2.113047e-01 1.879782e-01 1.002383e-02 -1.109871e-01 -7.111340e-02 3.315148e-01 1.243576e-01 4.522756e-02 -2.360031e-01
<VARIANCE> 39
 1.226199e+01 2.439994e+01 2.593589e+01 2.806890e+01 5.723909e+01 6.938297e+01 2.396799e+01 4.199517e+01 4.012314e+01 3.879646e+01 3.122247e+01 2.820847e+01 2.283635e+01 1.553991e+00 3.076667e+00 2.494163e+00 3.134160e+00 3.985598e+00 5.499877e+00 2.033472e+00 2.857609e+00 3.178083e+00 4.275343e+00 2.121825e+00 2.924022e+00 2.036284e+00 2.997458e-01 5.397422e-01 4.867140e-01 5.125068e-01 6.450860e-01 1.004942e+00 3.624285e-01 4.507451e-01 5.299214e-01 7.514374e-01 3.542494e-01 3.632999e-01 3.101622e-01
<GCONST> 1.204458e+02
<STATE> 3
<MEAN> 39
 1.490574e+01 -1.743713e+01 -6.398652e+00 8.863757e+00 -2.202544e+01 8.626905e+00 -4.210236e+00 -3.702348e-01 1.041001e+01 -1.667265e+01 -4.359547e+00 3.993817e+00 8.198096e+01 8.904015e-02 1.709926e-01 -2.626212e-01 2.361594e-01 2.217804e-01 1.563260e-01 1.093127e-02 -5.077361e-02 4.803480e-03 8.888598e-02 2.790730e-01 4.047375e-01 -2.047898e-01 -2.215751e-01 1.321042e-01 4.867263e-01 2.989612e-01 1.063649e-01 5.930622e-01 1.412649e-04 -3.047256e-01 -1.705256e-01 3.917104e-01 -2.394173e-02 -1.209803e-01 -4.123335e-01
<VARIANCE> 39
 4.511461e+00 1.359173e+01 1.825869e+01 2.208826e+01 5.079835e+01 7.116011e+01 1.938204e+01 5.036308e+01 3.538419e+01 2.915403e+01 2.729611e+01 2.317599e+01 1.078163e+01 3.975984e-01 1.333055e+00 1.629773e+00 1.753782e+00 3.355238e+00 4.026278e+00 1.491871e+00 2.243889e+00 1.876015e+00 2.338892e+00 1.722952e+00 1.619722e+00 9.751573e-01 1.286226e-01 2.545935e-01 2.672538e-01 3.293392e-01 5.194387e-01 6.389768e-01 2.693681e-01 3.821691e-01 3.699167e-01 5.313472e-01 3.022025e-01 3.176607e-01 1.656323e-01
<GCONST> 1.043490e+02
<STATE> 4
<MEAN> 39
 1.361380e+01 -1.524000e+01 -4.135095e+00 1.148683e+01 -2.074938e+01 1.463296e+01 -4.386086e+00 -3.106143e+00 9.030479e+00 -1.371938e+01 -3.686363e+00 5.414574e+00 7.742265e+01 -5.476532e-01 4.492727e-01 8.460184e-01 7.491695e-01 4.201680e-01 1.037966e+00 -3.417648e-03 -5.461776e-01 -4.120289e-01 1.045544e+00 9.316219e-02 -3.465109e-02 -1.061117e+00 -1.462642e-01 -7.618608e-02 1.734367e-01 1.960368e-02 -3.671163e-02 -2.965248e-02 -6.395043e-03 5.986914e-04 -2.899222e-02 1.093983e-01 -5.578856e-02 -1.196387e-01 -4.915411e-02
<VARIANCE> 39
 9.713168e+00 1.734500e+01 2.117371e+01 2.121316e+01 4.168509e+01 4.737494e+01 2.158690e+01 3.850960e+01 3.115311e+01 3.344567e+01 3.150360e+01 2.325940e+01 2.465398e+01 5.316592e-01 1.793463e+00 1.663233e+00 1.631689e+00 2.578895e+00 3.381198e+00 1.723226e+00 2.115902e+00 1.604687e+00 2.168901e+00 1.919593e+00 1.685185e+00 9.485357e-01 9.882162e-02 3.483203e-01 3.201950e-01 3.105760e-01 4.627576e-01 6.069248e-01 3.032294e-01 3.724246e-01 3.041600e-01 4.034308e-01 3.626614e-01 3.070911e-01 2.012100e-01
<GCONST> 1.057272e+02
<TRANSP> 5
 0.000000e+00 1.000000e+00 0.000000e+00 0.000000e+00 0.000000e+00
 0.000000e+00 5.588363e-01 4.411637e-01 0.000000e+00 0.000000e+00
 0.000000e+00 0.000000e+00 6.269447e-01 3.730552e-01 0.000000e+00
 0.000000e+00 0.000000e+00 0.000000e+00 7.096765e-01 2.903235e-01
 0.000000e+00 0.000000e+00 0.000000e+00 0.000000e+00 0.000000e+00
<ENDHMM>
~h "b"
<BEGINHMM>
<NUMSTATES> 5
<STATE> 2
<MEAN> 39
 7.335868e+00 -8.407599e+00 -1.304944e-01 1.810287e+01 -1.541933e+01 1.821437e+01 -4.820507e+00 -5.838554e+00 6.557618e+00 -6.225936e+00 -3.865223e+00 1.689831e+00 6.727676e+01 -6.613346e-01 7.981398e-01 6.292139e-01 5.368400e-01 -2.193338e-02 1.785382e-01 2.079520e-01 4.052485e-01 2.436827e-01 8.260128e-01 2.534796e-01 5.238218e-01 -1.138601e+00 1.011309e-01 -5.511756e-01 -1.682073e-02 -1.192587e-01 7.144847e-02 2.320918e-01 1.950042e-02 -1.880925e-01 -1.468099e-01 -3.918714e-01 -8.266429e-02 -3.536152e-02 4.367876e-01
<VARIANCE> 39
 9.832913e+01 3.374545e+01 2.010670e+01 3.048910e+01 2.594897e+01 3.360848e+01 1.917040e+01 2.906809e+01 2.736262e+01 2.195165e+01 1.137471e+01 1.582333e+01 7.984652e+01 2.195631e-01 1.274499e+00 6.365140e-01 8.218524e-01 9.122742e-01 1.224593e+00 9.537781e-01 1.263193e+00 9.917119e-01 1.717941e+00 1.065361e+00 9.586806e-01 8.278921e-01 1.404562e-01 3.237579e-01 1.508847e-01 2.146639e-01 2.088436e-01 2.981343e-01 2.110647e-01 2.814105e-01 2.595920e-01 3.561687e-01 1.982401e-01 2.287539e-01 2.618122e-01
<GCONST> 9.507341e+01
<STATE> 3
<MEAN> 39
 6.476881e+00 -6.157984e+00 1.356587e+00 1.950120e+01 -1.364688e+01 1.784095e+01 -5.082992e+00 -4.971459e+00 7.426044e+00 -5.169450e+00 -3.441514e+00 1.902129e+00 6.591478e+01 -2.895133e-01 -7.781229e-01 4.814479e-01 -1.312715e-02 1.146793e-01 9.446785e-01 4.422260e-01 1.897111e-01 -7.951252e-02 -2.229002e-01 -2.726291e-02 4.517150e-01 5.944514e-02 5.367550e-01 -1.048395e+00 -3.538883e-01 -2.925044e-01 1.035180e-01 1.654639e-01 -2.995629e-01 -4.054787e-01 -1.246085e-01 -9.548756e-01 -2.241973e-01 -2.860122e-01 1.112069e+00
<VARIANCE> 39
 1.229692e+02 1.976359e+01 2.858903e+01 4.751179e+01 2.590351e+01 3.942216e+01 1.922957e+01 2.887433e+01 3.110715e+01 1.600067e+01 1.477223e+01 1.141721e+01 1.026356e+02 1.456789e+00 2.759679e+00 8.099025e-01 1.517134e+00 1.541633e+00 2.321049e+00 1.229748e+00 1.709859e+00 1.443704e+00 2.342590e+00 1.031468e+00 1.115123e+00 2.140438e+00 2.549707e-01 3.726929e-01 2.458761e-01 4.436803e-01 5.110411e-01 6.282451e-01 3.754393e-01 4.469086e-01 3.496650e-01 4.819835e-01 2.445496e-01 2.989305e-01 3.002599e-01
<GCONST> 1.085491e+02
<STATE> 4
<MEAN> 39
 2.768850e+00 -1.121562e+01 -1.836944e-01 1.678562e+01 -1.363657e+01 1.974354e+01 -3.119756e+00 -4.570034e+00 5.186527e+00 -5.952056e+00 -3.693670e+00 2.427352e+00 6.489436e+01 1.805914e+00 -2.674635e+00 -3.121212e-02 3.434546e-01 -2.216913e-02 1.223564e+00 -4.435707e-01 -1.072413e+00 -2.511768e-02 -2.064090e+00 -3.761613e-01 -1.762775e-01 2.875091e+00 1.809099e-01 -5.883504e-02 -2.442378e-01 1.042762e-01 1.547102e-01 -5.775813e-01 -6.450499e-01 -2.538341e-01 1.102954e-01 -2.936231e-01 -4.919425e-02 -3.348791e-01 3.455588e-01
<VARIANCE> 39
 1.191140e+02 6.872239e+01 4.667284e+01 5.429177e+01 4.287456e+01 6.312575e+01 1.938023e+01 2.621786e+01 3.778252e+01 3.460695e+01 1.414486e+01 1.197106e+01 1.022018e+02 4.976269e+00 6.406415e+00 2.442127e+00 4.720096e+00 6.469202e+00 5.645377e+00 3.852419e+00 3.798100e+00 2.602340e+00 3.814151e+00 1.549273e+00 1.955535e+00 5.959127e+00 7.477728e-01 1.351526e+00 3.241013e-01 6.189172e-01 8.200539e-01 9.953049e-01 4.813454e-01 6.055254e-01 3.781734e-01 6.411539e-01 2.925704e-01 3.761954e-01 1.377552e+00
<GCONST> 1.306349e+02
<TRANSP> 5
 0.000000e+00 1.000000e+00 0.000000e+00 0.000000e+00 0.000000e+00
 0.000000e+00 5.494917e-01 4.505083e-01 0.000000e+00 0.000000e+00
 0.000000e+00 0.000000e+00 2.838076e-01 7.161924e-01 0.000000e+00
 0.000000e+00 0.000000e+00 0.000000e+00 5.554364e-01 4.445636e-01
 0.000000e+00 0.000000e+00 0.000000e+00 0.000000e+00 0.000000e+00
<ENDHMM>
~h "c"
<BEGINHMM>
<NUMSTATES> 5
<STATE> 2
<MEAN> 39
 3.570469e+00 -2.535614e+01 1.364280e+01 2.247804e+01 -1.363600e+01 2.029069e+01 -5.247294e+00 -6.535594e+00 8.155814e+00 -7.313903e+00 -3.171491e+00 3.950194e+00 7.764750e+01 -1.611112e+00 -3.524283e+00 1.908528e+00 -2.457909e-01 -4.252712e-01 -2.191990e-01 -2.191129e-02 2.540863e-01 -6.549519e-02 -4.369423e-01 -6.939359e-01 8.390185e-01 1.207661e+00 6.585599e-01 6.532165e-01 -9.422643e-01 -1.454026e-01 2.739550e-01 1.990448e-01 -2.232246e-01 -6.164674e-01 -1.917707e-01 -2.022919e-01 2.643338e-02 -3.547414e-01 6.975682e-02
<VARIANCE> 39
 2.809348e+01 1.097224e+02 4.936238e+01 2.302506e+01 3.508386e+01 3.451936e+01 3.072201e+01 3.711582e+01 3.255542e+01 2.625638e+01 2.839066e+01 1.997458e+01 1.683654e+01 3.603391e+00 1.093572e+01 8.651535e+00 2.117342e+00 4.016646e+00 3.258353e+00 3.622644e+00 5.366557e+00 2.890743e+00 2.568299e+00 2.649641e+00 2.825843e+00 1.444433e+00 9.177428e-01 3.509574e+00 1.589322e+00 3.660684e-01 7.569045e-01 6.397024e-01 5.563641e-01 6.986641e-01 5.808920e-01 4.262330e-01 5.224128e-01 4.854091e-01 4.400218e-01
<GCONST> 1.286751e+02
<STATE> 3
<MEAN> 39
 5.541261e+00 -2.784311e+01 9.482168e+00 2.094211e+01 -1.132248e+01 2.203939e+01 -6.357678e+00 -1.242765e+01 5.753268e+00 -9.389793e+00 -5.289394e+00 3.331450e+00 8.059773e+01 2.696117e+00 2.660416e+00 -2.969391e+00 1.653934e-01 9.134150e-01 2.597820e-01 -8.196527e-01 -1.430986e+00 -5.256365e-01 -1.433523e+00 2.032385e-01 -8.470443e-01 2.111268e-01 1.658565e-01 4.296187e-01 -9.497734e-02 -7.126532e-03 -1.684770e-01 -1.446916e-01 -1.557097e-01 3.316869e-01 2.715012e-01 -1.907313e-01 1.772348e-01 5.518709e-02 -1.150199e-01
<VARIANCE> 39
 2.567261e+01 3.170380e+01 4.249500e+01 1.835162e+01 2.167487e+01 4.557471e+01 1.805736e+01 2.070413e+01 2.681016e+01 3.476329e+01 1.622218e+01 1.544765e+01 6.125601e+00 2.360492e+00 3.960985e+00 5.305655e+00 1.639921e+00 1.981513e+00 1.923149e+00 2.460743e+00 1.749053e+00 2.261871e+00 2.966066e+00 1.240144e+00 1.919668e+00 3.608888e-01 7.083731e-01 1.373349e+00 1.024764e+00 3.076636e-01 4.872062e-01 4.106594e-01 4.111806e-01 3.579534e-01 4.069973e-01 4.273010e-01 2.651455e-01 3.360548e-01 8.039226e-02
<GCONST> 1.095840e+02
<STATE> 4
<MEAN> 39
 1.022816e+01 -2.150020e+01 6.752680e+00 2.367264e+01 -1.028374e+01 2.110462e+01 -1.288016e+01 -1.324714e+01 8.834867e+00 -1.298593e+01 -5.072667e+00 -5.331129e-01 7.959482e+01 4.553034e-01 7.893390e-01 -5.516689e-01 -1.634505e-01 1.226517e-01 -3.959143e-01 -6.741315e-01 1.193727e-01 2.151523e-01 -5.755176e-01 1.295757e-01 -1.766678e-01 -4.751343e-02 -4.050736e-01 -2.956220e-01 3.595189e-01 -1.465016e-01 -9.980515e-02 -1.202584e-03 2.517686e-01 2.762336e-01 4.983832e-02 2.968735e-01 3.797726e-02 2.323887e-01 -1.114814e-01
<VARIANCE> 39
 5.868928e+00 1.015973e+01 3.307123e+01 1.422408e+01 2.023174e+01 2.234905e+01 3.025735e+01 1.147579e+01 2.510308e+01 2.251393e+01 1.199719e+01 1.618257e+01 5.527311e+00 1.341982e+00 1.907258e+00 3.073174e+00 1.036881e+00 1.389729e+00 1.470015e+00 2.559898e+00 1.119378e+00 1.199782e+00 2.490356e+00 1.082066e+00 9.371187e-01 3.817118e-01 2.609297e-01 5.019121e-01 4.642901e-01 1.939932e-01 2.576804e-01 1.904660e-01 2.984721e-01 2.133677e-01 2.744146e-01 3.590529e-01 1.400625e-01 2.088864e-01 7.887965e-02
<GCONST> 9.261261e+01
<TRANSP> 5
 0.000000e+00 1.000000e+00 0.000000e+00 0.000000e+00 0.000000e+00
 0.000000e+00 8.012583e-01 1.987417e-01 0.000000e+00 0.000000e+00
 0.000000e+00 0.000000e+00 6.004383e-01 3.995617e-01 0.000000e+00
 0.000000e+00 0.000000e+00 0.000000e+00 6.620950e-01 3.379050e-01
 0.000000e+00 0.000000e+00 0.000000e+00 0.000000e+00 0.000000e+00
<ENDHMM>
~h "d"
<BEGINHMM>
<NUMSTATES> 5
<STATE> 2
<MEAN> 39
 4.119191e+00 -1.349054e+01 -1.483138e+00 1.497302e+01 -1.884602e+01 1.828544e+01 -4.827227e+00 -7.429059e+00 4.550898e+00 -7.170040e+00 -6.423748e+00 1.242164e+00 6.630360e+01 -2.746217e-01 3.004584e-01 3.145958e-01 2.745780e-01 -1.270818e-01 3.187009e-02 8.308157e-02 2.107551e-01 2.517964e-01 5.695580e-01 3.134362e-02 1.589073e-01 -5.197784e-01 -3.318188e-02 -2.014477e-01 2.154067e-03 -1.212066e-02 2.625777e-02 8.880944e-03 -5.977524e-02 -2.377154e-03 1.299688e-02 -5.907895e-02 7.760048e-02 8.228236e-02 9.145471e-02
<VARIANCE> 39
 5.985355e+01 3.423848e+01 3.615358e+01 2.499100e+01 2.881967e+01 2.376773e+01 1.696925e+01 2.012934e+01 2.831553e+01 2.985209e+01 2.372666e+01 3.582504e+01 4.895950e+01 1.044060e+00 1.655108e+00 8.499341e-01 1.025094e+00 1.189894e+00 1.274696e+00 1.375988e+00 1.457243e+00 1.325669e+00 1.787925e+00 1.240351e+00 1.202798e+00 1.762737e+00 1.032975e-01 2.982948e-01 1.477397e-01 1.922273e-01 2.502686e-01 2.712046e-01 2.731008e-01 2.653262e-01 2.342231e-01 2.965894e-01 2.843839e-01 2.328202e-01 1.922265e-01
<GCONST> 9.981209e+01
<STATE> 3
<MEAN> 39
 1.007621e+01 -9.170130e+00 3.084027e+00 1.813179e+01 -1.785404e+01 2.074534e+01 -3.756758e+00 -6.970033e+00 8.376398e+00 -7.307203e+00 -6.897932e+00 -1.972406e+00 7.076456e+01 -6.400579e-01 1.344600e-01 5.107327e-01 3.763823e-01 -6.822212e-02 2.184833e-01 4.708125e-02 3.990989e-01 2.152681e-01 7.368346e-01 5.233544e-01 8.220007e-01 -8.451091e-01 4.857101e-02 -6.524854e-01 -7.057498e-02 -2.144369e-01 3.421038e-02 2.856249e-02 -1.360372e-01 -7.331594e-02 -1.117088e-01 -4.607041e-01 5.439706e-02 1.518973e-01 4.686669e-01
<VARIANCE> 39
 1.952066e+01 2.374048e+01 1.922222e+01 1.825747e+01 2.803219e+01 2.124396e+01 1.698344e+01 2.022396e+01 2.348895e+01 1.969931e+01 3.411366e+01 5.535586e+01 1.816537e+01 3.285253e-01 1.951557e+00 1.026317e+00 1.197763e+00 1.373650e+00 1.690696e+00 1.259424e+00 1.353238e+00 1.540623e+00 1.895710e+00 1.711685e+00 1.661703e+00 9.805570e-01 7.687610e-02 4.719150e-01 2.613084e-01 2.831457e-01 3.188434e-01 4.107706e-01 2.879224e-01 3.015287e-01 3.518479e-01 3.809671e-01 3.499030e-01 3.773849e-01 2.709237e-01
<GCONST> 9.998310e+01
<STATE> 4
<MEAN> 39
 8.641431e+00 -1.000595e+01 4.120280e+00 1.901699e+01 -1.715737e+01 2.102373e+01 -3.766789e+00 -6.074137e+00 8.013778e+00 -6.433037e+00 -4.958848e+00 6.942728e-01 6.968286e+01 -2.950390e-01 -1.931498e+00 2.387390e-01 -5.215582e-01 -2.017353e-01 3.460341e-01 -1.724345e-01 1.853318e-01 -7.446142e-02 -7.959139e-01 1.435570e-01 7.762101e-01 7.970924e-01 3.252100e-01 -6.696639e-01 -2.128434e-01 -3.958201e-01 3.079405e-03 -5.753879e-02 -2.544008e-01 -2.103102e-01 -6.483093e-02 -8.155999e-01 -2.345169e-01 -1.282788e-01 8.292122e-01
<VARIANCE> 39
 1.486597e+01 3.497100e+01 1.983115e+01 2.133681e+01 3.211703e+01 2.470521e+01 1.903920e+01 1.989137e+01 2.484772e+01 1.996943e+01 2.257255e+01 2.973933e+01 1.454607e+01 9.044975e-01 4.800480e+00 1.863042e+00 2.520567e+00 2.764982e+00 3.047872e+00 1.981161e+00 2.170173e+00 2.551107e+00 3.478954e+00 2.113729e+00 2.270701e+00 2.527531e+00 1.465407e-01 7.717416e-01 3.685153e-01 4.692110e-01 4.330389e-01 6.309863e-01 3.920613e-01 3.952492e-01 3.844533e-01 5.122409e-01 3.551381e-01 4.441972e-01 2.972826e-01
<GCONST> 1.114880e+02
<TRANSP> 5
 0.000000e+00 1.000000e+00 0.000000e+00 0.000000e+00 0.000000e+00
 0.000000e+00 6.078533e-01 3.921467e-01 0.000000e+00 0.000000e+00
 0.000000e+00 0.000000e+00 3.651756e-01 6.348245e-01 0.000000e+00
 0.000000e+00 0.000000e+00 0.000000e+00 5.257967e-01 4.742034e-01
 0.000000e+00 0.000000e+00 0.000000e+00 0.000000e+00 0.000000e+00
<ENDHMM>
~h "e"
<BEGINHMM>
<NUMSTATES> 5
<STATE> 2
<MEAN> 39
 1.207495e+01 -1.920346e+01 -5.663296e-01 1.699355e+01 -1.242397e+01 1.943961e+01 -1.017392e+01 -1.152292e+01 4.792888e+00 -1.415082e+01 -1.931195e+00 3.898766e+00 7.923598e+01 1.016968e+00 -6.765689e-01 -1.315948e+00 -5.011988e-01 5.217112e-01 -5.056453e-01 -1.552495e+00 -8.726602e-01 2.599093e-01 -1.136908e+00 7.454973e-01 5.256362e-01 1.590202e+00 -2.011513e-01 1.701509e-01 2.064257e-01 8.268452e-02 -6.390243e-02 1.160577e-02 9.477321e-02 1.005081e-01 1.733333e-01 4.334509e-01 7.757808e-02 -4.595334e-02 -2.655359e-01
<VARIANCE> 39
 1.336594e+01 1.957406e+01 3.130791e+01 3.796737e+01 3.423296e+01 3.992096e+01 3.119304e+01 2.348298e+01 2.580048e+01 2.939380e+01 1.804598e+01 2.762032e+01 2.117805e+01 1.504367e+00 3.766984e+00 2.885706e+00 3.271001e+00 3.008235e+00 3.453050e+00 2.414952e+00 2.135149e+00 2.532209e+00 3.339759e+00 1.903519e+00 3.132872e+00 1.722050e+00 3.473075e-01 5.647657e-01 5.678701e-01 5.135439e-01 5.480994e-01 6.635064e-01 5.124891e-01 4.136971e-01 4.517450e-01 6.012559e-01 3.134191e-01 4.413435e-01 3.121796e-01
<GCONST> 1.165919e+02
<STATE> 3
<MEAN> 39
 1.354584e+01 -2.016621e+01 -2.548232e+00 1.641682e+01 -1.138992e+01 1.798418e+01 -1.303846e+01 -1.284842e+01 6.263297e+00 -1.443058e+01 4.105707e-01 4.810833e+00 8.192613e+01 6.390553e-03 1.575509e-01 -4.607115e-03 3.520283e-02 1.100251e-01 -7.138022e-02 -2.332169e-01 -8.640947e-02 3.785195e-01 5.685669e-01 3.773504e-01 4.318813e-02 -7.361536e-02 -3.228490e-01 3.259619e-01 4.566980e-01 1.841487e-01 -1.367049e-01 1.620956e-01 5.564961e-01 2.691011e-01 -1.394705e-01 4.804462e-01 -2.380569e-01 -1.909871e-01 -5.922962e-01
<VARIANCE> 39
 4.411281e+00 9.760357e+00 2.260787e+01 3.201839e+01 3.262450e+01 3.051891e+01 2.389897e+01 2.218859e+01 2.264824e+01 2.245684e+01 2.025455e+01 3.224387e+01 8.790798e+00 5.641469e-01 1.297069e+00 2.284940e+00 2.520621e+00 2.253280e+00 2.578932e+00 1.969045e+00 1.319870e+00 1.907866e+00 2.079592e+00 1.420078e+00 1.599086e+00 1.341760e+00 1.389641e-01 2.930037e-01 3.389287e-01 3.488236e-01 4.481788e-01 4.663476e-01 3.366320e-01 2.728153e-01 3.635478e-01 4.551098e-01 2.705061e-01 3.806390e-01 1.424799e-01
<GCONST> 1.014235e+02
<STATE> 4
<MEAN> 39
 1.208698e+01 -1.808701e+01 -1.138259e-01 1.875917e+01 -1.118861e+01 1.872677e+01 -1.231566e+01 -1.308595e+01 6.250967e+00 -1.043093e+01 -7.529920e-02 3.329231e+00 7.837749e+01 -4.940315e-01 7.000809e-01 5.931869e-01 4.756120e-01 -1.708881e-01 1.507102e-01 7.416192e-01 3.939751e-01 -1.704367e-01 8.995452e-01 -3.277011e-01 -2.138769e-01 -1.111181e+00 -1.115516e-01 -6.175889e-02 8.814451e-02 -3.603126e-02 -1.038867e-01 2.557917e-02 1.470197e-01 1.026178e-01 -1.136504e-01 -8.651091e-02 -1.683801e-01 -4.104466e-02 -6.482532e-02
<VARIANCE> 39
 7.876318e+00 1.573123e+01 3.082357e+01 3.858443e+01 3.367237e+01 2.865918e+01 2.745645e+01 2.305720e+01 3.405410e+01 2.960257e+01 2.058455e+01 2.934167e+01 2.046719e+01 6.958037e-01 1.947113e+00 2.301977e+00 1.915587e+00 2.324929e+00 2.105010e+00 2.083778e+00 1.319792e+00 2.122993e+00 2.224799e+00 1.545825e+00 1.722844e+00 1.305219e+00 9.961808e-02 4.660580e-01 3.697642e-01 3.855193e-01 4.664170e-01 3.942965e-01 3.690412e-01 2.601561e-01 3.901413e-01 4.543282e-01 2.793997e-01 3.149230e-01 2.817016e-01
<GCONST> 1.059421e+02
<TRANSP> 5
 0.000000e+00 1.000000e+00 0.000000e+00 0.000000e+00 0.000000e+00
 0.000000e+00 5.298924e-01 4.701076e-01 0.000000e+00 0.000000e+00
 0.000000e+00 0.000000e+00 5.603234e-01 4.396766e-01 0.000000e+00
 0.000000e+00 0.000000e+00 0.000000e+00 6.789106e-01 3.210895e-01
 0.000000e+00 0.000000e+00 0.000000e+00 0.000000e+00 0.000000e+00
<ENDHMM>
~h "f"
<BEGINHMM>
<NUMSTATES> 5
<STATE> 2
<MEAN> 39
 3.575137e-01 -2.732475e+01 3.690104e+00 7.727950e+00 -2.084627e+01 2.326128e+01 -9.454970e+00 -3.329859e+00 5.459668e+00 -1.271467e+01 -2.654900e+00 5.187522e+00 7.096529e+01 -5.138804e-01 -1.058672e+00 -3.384910e-01 -7.946767e-01 -3.918616e-01 -1.711544e-01 -1.683433e-01 8.123404e-02 2.509597e-02 -9.578147e-02 -8.107816e-02 7.377155e-02 1.468754e-01 5.467561e-01 6.026772e-01 -2.512322e-01 2.122869e-01 4.189659e-02 -2.235619e-01 2.320779e-01 -3.298954e-02 1.506488e-01 5.239587e-02 -1.319977e-01 -1.409683e-01 1.742056e-01
<VARIANCE> 39
 4.999045e+01 6.150303e+01 3.317093e+01 3.584118e+01 2.603403e+01 4.438545e+01 1.621284e+01 2.082687e+01 2.576514e+01 2.424998e+01 1.393237e+01 1.223912e+01 6.087991e+01 7.127333e-01 2.595462e+00 1.005059e+00 1.369383e+00 1.014115e+00 2.068135e+00 2.310228e+00 1.168856e+00 1.444564e+00 1.506308e+00 1.021524e+00 9.468639e-01 4.715493e-01 2.444628e-01 7.673838e-01 3.249898e-01 3.104746e-01 2.583344e-01 4.416891e-01 3.806260e-01 2.591816e-01 2.784536e-01 3.924010e-01 2.294157e-01 1.896456e-01 3.234684e-01
<GCONST> 1.030781e+02
<STATE> 3
<MEAN> 39
 -1.207753e+00 -2.594129e+01 1.902674e+00 6.838645e+00 -1.998109e+01 2.287778e+01 -8.051388e+00 -2.172522e+00 5.782754e+00 -1.108680e+01 -2.644169e+00 5.242085e+00 6.929398e+01 1.904061e+00 1.534226e+00 -5.997339e-01 6.341512e-01 1.850510e-01 -8.237769e-01 4.699888e-01 -4.819384e-02 3.457008e-01 -5.659202e-02 -6.017294e-01 -8.592235e-01 8.895811e-01 1.011084e+00 8.000969e-01 -1.884682e-01 6.238438e-01 2.028295e-02 -5.621590e-01 8.017997e-02 -7.243174e-02 3.298415e-01 -2.554972e-01 -1.386256e-01 -2.949122e-01 5.117098e-01
<VARIANCE> 39
 8.563200e+01 9.619701e+01 5.410706e+01 2.870678e+01 3.373568e+01 6.777177e+01 1.875220e+01 3.597227e+01 3.406009e+01 2.990650e+01 1.843846e+01 9.390353e+00 1.260434e+02 3.369601e+00 1.110355e+01 2.725532e+00 2.742190e+00 2.056424e+00 3.386196e+00 1.928196e+00 1.868006e+00 2.068413e+00 2.768944e+00 1.705037e+00 1.498854e+00 3.556578e+00 2.857321e-01 1.167436e+00 5.964776e-01 4.885293e-01 4.344005e-01 8.442178e-01 2.829649e-01 2.857311e-01 2.802540e-01 4.340838e-01 3.256050e-01 1.964620e-01 8.173227e-01
<GCONST> 1.211085e+02
<STATE> 4
<MEAN> 39
 6.875606e-01 -2.052967e+01 -4.061681e+00 8.683777e+00 -2.141211e+01 1.546238e+01 -5.919563e+00 -4.213811e+00 6.083706e+00 -8.011230e+00 -5.496787e+00 2.911435e+00 6.736916e+01 2.438397e+00 5.153955e-01 -4.032880e-01 6.461518e-01 -5.148394e-01 -4.447106e-01 2.236168e-02 -1.703341e-01 1.056475e+00 -7.621995e-01 -2.811266e-01 -4.150037e-01 1.865936e+00 -2.166024e-01 4.260565e-02 3.129435e-02 1.286260e-01 7.529185e-02 3.217310e-04 -1.252642e-01 8.103703e-02 5.439734e-02 -9.980932e-03 1.475585e-01 2.534933e-02 -2.090464e-01
<VARIANCE> 39
 9.649812e+01 4.662616e+01 4.752113e+01 2.518071e+01 3.133072e+01 6.147795e+01 1.504395e+01 2.988483e+01 2.621095e+01 5.727149e+01 2.156433e+01 1.621723e+01 9.512765e+01 7.524791e+00 9.518480e+00 4.374469e+00 3.507121e+00 4.025789e+00 4.181242e+00 1.476890e+00 2.161079e+00 2.696128e+00 3.112943e+00 2.849665e+00 1.907620e+00 8.122084e+00 7.645246e-01 8.499160e-01 4.459326e-01 4.085365e-01 4.190802e-01 5.745254e-01 2.899510e-01 4.124267e-01 4.414422e-01 5.831580e-01 4.474417e-01 3.063311e-01 9.047424e-01
<GCONST> 1.263491e+02
<TRANSP> 5
 0.000000e+00 1.000000e+00 0.000000e+00 0.000000e+00 0.000000e+00
 0.000000e+00 6.979848e-01 3.020152e-01 0.000000e+00 0.000000e+00
 0.000000e+00 0.000000e+00 3.220432e-01 6.779568e-01 0.000000e+00
 0.000000e+00 0.000000e+00 0.000000e+00 6.684454e-01 3.315546e-01
 0.000000e+00 0.000000e+00 0.000000e+00 0.000000e+00 0.000000e+00
<ENDHMM>
~h "g"
<BEGINHMM>
<NUMSTATES> 5
<STATE> 2
<MEAN> 39
 9.025122e+00 -1.208904e+01 4.309393e+00 2.202572e+01 -1.282761e+01 2.021518e+01 -8.974906e+00 -9.765679e+00 7.054702e+00 -5.826327e+00 -6.844440e-01 1.207636e+00 7.148418e+01 -6.148701e-01 -4.279689e-01 6.823050e-01 2.949249e-01 6.692261e-03 3.448950e-01 -1.107043e-01 8.954591e-01 4.116730e-01 1.538822e-01 4.708530e-01 5.951383e-01 -5.180670e-01 7.824689e-03 -1.008180e+00 5.670309e-03 -3.504387e-01 1.352446e-02 1.958407e-01 -6.682315e-02 1.535630e-01 6.042560e-02 -6.715620e-01 -1.366540e-01 -1.543188e-02 6.759862e-01
<VARIANCE> 39
 1.894574e+01 4.601825e+01 3.144703e+01 2.212310e+01 2.379623e+01 2.351204e+01 2.698839e+01 3.351274e+01 2.376247e+01 2.825571e+01 1.969533e+01 2.168987e+01 2.088968e+01 9.082773e-01 8.301213e+00 2.228592e+00 2.310376e+00 2.314915e+00 2.516010e+00 2.933620e+00 3.253603e+00 1.960686e+00 4.153696e+00 1.671769e+00 2.044104e+00 2.522130e+00 1.194105e-01 1.428824e+00 3.101259e-01 3.523710e-01 3.907397e-01 4.919377e-01 5.408968e-01 6.706342e-01 2.819357e-01 6.419362e-01 3.726993e-01 5.095583e-01 4.032740e-01
<GCONST> 1.147372e+02
<STATE> 3
<MEAN> 39
 6.524589e+00 -1.557622e+01 6.327252e+00 2.123688e+01 -1.302699e+01 2.112031e+01 -8.473778e+00 -5.960912e+00 8.064371e+00 -6.956076e+00 -5.632393e-01 2.374849e+00 7.117062e+01 -4.281918e-01 -3.808213e+00 6.595505e-01 -6.439474e-01 2.150314e-01 9.476966e-01 -3.907772e-01 9.847152e-01 3.173383e-01 -1.727983e+00 1.349135e-01 -2.218881e-02 1.869831e+00 4.477364e-01 -1.739247e-01 -2.960947e-01 -2.237191e-02 3.224809e-01 -1.586498e-01 -3.920616e-01 -6.508766e-01 -1.504730e-01 -5.310414e-01 -2.722055e-01 -3.996986e-01 6.857103e-01
<VARIANCE> 39
 1.685686e+01 6.860082e+01 2.746092e+01 2.740076e+01 2.889901e+01 2.735732e+01 2.803619e+01 2.978257e+01 2.087051e+01 2.218383e+01 1.806975e+01 1.616882e+01 1.490863e+01 1.554187e+00 7.722601e+00 2.971305e+00 3.571272e+00 3.170199e+00 3.851741e+00 3.050780e+00 5.170799e+00 2.305378e+00 3.309112e+00 2.642141e+00 3.011268e+00 1.797508e+00 1.492839e-01 1.641222e+00 4.080495e-01 4.811454e-01 4.390983e-01 6.256324e-01 4.310960e-01 6.464547e-01 3.177713e-01 5.083851e-01 3.015283e-01 3.556174e-01 3.214634e-01
<GCONST> 1.172761e+02
<STATE> 4
<MEAN> 39
 7.379359e+00 -2.404403e+01 7.042493e+00 1.986852e+01 -1.203716e+01 2.303195e+01 -1.076123e+01 -7.060929e+00 8.314346e+00 -1.205934e+01 -1.298207e+00 8.060795e-01 7.750011e+01 1.110248e+00 -5.555791e-01 -5.741481e-01 5.244439e-01 1.573042e+00 -6.440893e-01 -1.518519e+00 -1.532390e+00 -4.678407e-01 -1.963609e+00 -4.945281e-01 -8.769948e-01 1.926758e+00 3.926189e-01 1.255848e+00 -6.120826e-01 2.137131e-01 2.413792e-01 -5.333383e-01 -6.208574e-02 -4.591283e-01 -1.576547e-01 1.994228e-01 -1.167830e-01 -1.972746e-02 -2.844239e-01
<VARIANCE> 39
 9.556669e+00 3.966852e+01 2.672190e+01 3.613662e+01 4.078403e+01 4.708064e+01 3.199296e+01 3.454348e+01 2.604968e+01 2.831993e+01 2.712246e+01 2.149091e+01 1.191631e+01 1.237913e+00 8.100508e+00 2.582851e+00 3.653861e+00 3.194221e+00 4.687986e+00 2.371599e+00 3.692564e+00 2.371066e+00 3.276767e+00 1.926713e+00 2.433561e+00 1.399399e+00 2.231574e-01 1.122488e+00 4.338282e-01 7.789822e-01 7.024692e-01 8.817633e-01 5.688062e-01 9.603541e-01 4.529661e-01 6.993161e-01 4.775821e-01 6.241547e-01 2.797414e-01
<GCONST> 1.206761e+02
<TRANSP> 5
 0.000000e+00 1.000000e+00 0.000000e+00 0.000000e+00 0.000000e+00
 0.000000e+00 4.975097e-01 5.024903e-01 0.000000e+00 0.000000e+00
 0.000000e+00 0.000000e+00 3.462666e-01 6.537334e-01 0.000000e+00
 0.000000e+00 0.000000e+00 0.000000e+00 6.068638e-01 3.931362e-01
 0.000000e+00 0.000000e+00 0.000000e+00 0.000000e+00 0.000000e+00
<ENDHMM>
~h "h"
<BEGINHMM>
<NUMSTATES> 5
<STATE> 2
<MEAN> 39
 1.057104e+01 -2.032053e+01 -4.453773e+00 9.571541e+00 -2.237017e+01 1.863932e+01 9.311557e-02 -1.179911e+00 1.013422e+01 -8.417896e+00 -2.156085e+00 5.619617e+00 7.615369e+01 1.363354e-01 -5.439220e-01 -4.957398e-01 -4.299896e-01 -6.739741e-01 -6.772845e-01 6.310257e-01 1.248525e+00 9.504880e-01 1.750519e-01 3.421791e-02 2.914815e-02 3.268415e-01 1.259023e-01 2.162195e-01 1.829588e-01 1.517164e-01 5.414968e-02 -8.862744e-02 -1.867405e-01 -2.465658e-01 -8.273854e-02 -1.614128e-01 -6.729450e-02 -2.480473e-01 1.207548e-01
<VARIANCE> 39
 1.100018e+01 1.907165e+01 3.033488e+01 3.141290e+01 6.098352e+01 6.105793e+01 3.761121e+01 3.408199e+01 2.157950e+01 4.199303e+01 2.205642e+01 2.023602e+01 2.498484e+01 6.045045e-01 1.567265e+00 1.849567e+00 2.405647e+00 2.007488e+00 2.312241e+00 2.010466e+00 2.504504e+00 2.715879e+00 2.001212e+00 1.181045e+00 1.701621e+00 1.057482e+00 7.418799e-02 2.326717e-01 2.995701e-01 3.287823e-01 2.871779e-01 6.173984e-01 3.974269e-01 2.970760e-01 4.176500e-01 3.748827e-01 2.220645e-01 3.194419e-01 1.778492e-01
<GCONST> 1.059565e+02
<STATE> 3
<MEAN> 39
 1.275975e+01 -2.032172e+01 -4.390062e+00 9.834436e+00 -2.322316e+01 1.604870e+01 -3.256340e-01 9.986894e-01 1.282591e+01 -1.071908e+01 -1.505359e+00 4.271435e+00 7.927565e+01 4.073184e-01 2.629278e-01 5.929904e-02 -3.652009e-02 4.831518e-02 -7.468500e-01 -7.173140e-02 3.422208e-01 6.743794e-01 -2.287412e-01 5.039959e-02 -2.505072e-01 7.139598e-01 7.839061e-03 1.872996e-01 2.730770e-02 3.216943e-02 1.918431e-01 -6.452270e-02 -2.928793e-01 -4.380987e-01 -3.034354e-01 -1.072051e-01 -8.808311e-02 -6.546125e-03 8.605021e-03
<VARIANCE> 39
 9.480454e+00 1.441148e+01 2.985961e+01 2.650054e+01 3.924635e+01 5.051628e+01 3.527244e+01 3.904240e+01 1.733841e+01 3.889465e+01 1.931748e+01 1.619535e+01 1.407580e+01 7.855940e-01 1.801208e+00 1.697136e+00 1.462127e+00 2.061213e+00 2.657635e+00 2.559654e+00 2.190975e+00 1.259268e+00 1.964744e+00 7.820981e-01 8.160743e-01 1.250592e+00 1.101215e-01 2.818488e-01 2.833024e-01 4.215720e-01 3.568548e-01 4.775659e-01 4.172575e-01 2.936231e-01 2.076533e-01 3.564267e-01 1.897647e-01 2.445749e-01 1.576016e-01
<GCONST> 1.013655e+02
<STATE> 4
<MEAN> 39
 1.440742e+01 -1.851795e+01 -6.008994e+00 7.682674e+00 -2.257427e+01 1.272322e+01 -2.534941e+00 2.485976e-01 1.370161e+01 -1.242143e+01 -2.386053e+00 3.878750e+00 8.173840e+01 3.886715e-02 1.285385e-01 1.088238e-01 1.352422e-01 8.374298e-02 5.800299e-02 -3.225124e-01 -5.755876e-01 -2.640462e-01 4.954508e-02 4.386034e-02 -1.078089e-01 2.150670e-03 -1.426017e-02 2.153346e-03 2.606031e-02 1.237987e-01 7.308540e-02 1.146639e-01 -8.078506e-02 -1.324805e-01 -1.162259e-01 -4.389982e-02 -2.017580e-02 3.485572e-03 -8.163997e-02
<VARIANCE> 39
 4.596013e+00 8.682299e+00 2.271341e+01 1.986091e+01 3.746169e+01 5.655997e+01 1.858269e+01 4.900031e+01 2.328864e+01 2.704615e+01 1.917171e+01 1.556029e+01 7.717079e+00 2.949777e-01 6.784291e-01 9.126383e-01 1.500206e+00 2.173896e+00 2.830914e+00 1.589131e+00 1.561334e+00 1.397670e+00 1.443063e+00 1.122454e+00 9.728908e-01 7.680449e-01 5.767929e-02 1.221176e-01 1.428659e-01 2.409280e-01 3.529892e-01 4.149753e-01 2.821082e-01 1.873271e-01 2.287202e-01 2.842363e-01 1.720832e-01 1.689077e-01 1.177296e-01
<GCONST> 9.049537e+01
<TRANSP> 5
 0.000000e+00 1.000000e+00 0.000000e+00 0.000000e+00 0.000000e+00
 0.000000e+00 5.333858e-01 4.666142e-01 0.000000e+00 0.000000e+00
 0.000000e+00 0.000000e+00 4.958366e-01 5.041634e-01 0.000000e+00
 0.000000e+00 0.000000e+00 0.000000e+00 8.528761e-01 1.471239e-01
 0.000000e+00 0.000000e+00 0.000000e+00 0.000000e+00 0.000000e+00
<ENDHMM>
~h "i"
<BEGINHMM>
<NUMSTATES> 5
<STATE> 2
<MEAN> 39
 9.092932e+00 -1.934830e+01 5.109879e+00 2.245835e+01 -1.151129e+01 2.125345e+01 -9.124572e+00 -1.094520e+01 6.614582e+00 -1.017929e+01 -3.442131e+00 -2.647425e-01 7.614703e+01 9.906057e-01 1.822620e-01 -4.438804e-01 9.082454e-01 9.849583e-01 5.998909e-03 -1.252439e+00 -9.171375e-01 4.846985e-01 -6.373240e-01 2.900298e-02 -8.761275e-01 8.268506e-01 -1.923245e-01 9.348708e-02 -1.029880e-02 -1.883554e-01 -9.348913e-02 -1.347239e-01 3.848191e-02 1.469278e-01 4.023855e-02 2.161691e-01 8.993793e-02 8.939844e-02 -1.588751e-01
<VARIANCE> 39
 2.098538e+01 4.172941e+01 4.224316e+01 3.229510e+01 3.953911e+01 3.460113e+01 2.780643e+01 2.713026e+01 2.579530e+01 3.006054e+01 1.475655e+01 2.841359e+01 1.947757e+01 2.569579e+00 7.905635e+00 2.997641e+00 2.589525e+00 3.549395e+00 3.309192e+00 3.250624e+00 2.432923e+00 1.980327e+00 2.864419e+00 1.560171e+00 2.509572e+00 2.100854e+00 3.683301e-01 1.005372e+00 5.134918e-01 5.372654e-01 6.778985e-01 6.270241e-01 5.339459e-01 4.468372e-01 3.674384e-01 5.709314e-01 2.830454e-01 3.752564e-01 2.807724e-01
<GCONST> 1.189699e+02
<STATE> 3
<MEAN> 39
 1.031589e+01 -1.910584e+01 4.091398e+00 2.392155e+01 -9.449383e+00 2.057215e+01 -1.187790e+01 -1.217200e+01 7.851564e+00 -1.101706e+01 -3.276782e+00 -1.682247e+00 7.735306e+01 9.943214e-02 1.176535e-01 -1.337468e-01 2.479977e-01 2.935510e-01 -1.265020e-01 -3.635712e-01 -1.257662e-01 2.661194e-01 2.094750e-01 2.007616e-01 -1.693359e-01 5.802891e-02 -3.445876e-01 7.039886e-02 1.353029e-01 -3.309541e-01 -3.330119e-01 6.598879e-02 5.433519e-01 3.335612e-01 -1.915592e-01 3.650505e-01 5.708732e-02 3.305196e-01 -3.658597e-01
<VARIANCE> 39
 1.640640e+01 3.005386e+01 3.231956e+01 2.596951e+01 3.151888e+01 2.980704e+01 3.083050e+01 2.444115e+01 2.723989e+01 2.748311e+01 1.577078e+01 3.119557e+01 1.795305e+01 1.484200e+00 4.354784e+00 2.943680e+00 1.985287e+00 2.748030e+00 3.001109e+00 3.352453e+00 2.177494e+00 2.138351e+00 2.351479e+00 1.360090e+00 1.993543e+00 1.565166e+00 2.508020e-01 8.973672e-01 4.435305e-01 3.780787e-01 5.594769e-01 5.154777e-01 6.094685e-01 3.938729e-01 3.818338e-01 5.185601e-01 2.697991e-01 3.729561e-01 3.120605e-01
<GCONST> 1.135471e+02
<STATE> 4
<MEAN> 39
 7.914484e+00 -1.795707e+01 4.841214e+00 2.362398e+01 -1.089244e+01 2.092546e+01 -1.047086e+01 -1.142046e+01 7.556085e+00 -7.877705e+00 -3.893224e+00 -1.272599e+00 7.381080e+01 -3.336868e-01 2.353799e-01 -1.481967e-01 -3.037442e-01 -3.257962e-01 5.566008e-02 5.703748e-01 4.123890e-01 -1.896666e-01 3.459421e-01 1.106601e-01 4.297386e-01 -5.621803e-01 -6.881523e-02 -1.692927e-02 -1.380845e-02 -1.782577e-01 -1.072084e-01 -1.235192e-02 1.578293e-01 7.872146e-02 -1.131771e-01 -6.995229e-03 -3.072769e-02 8.256885e-02 -3.716069e-02
<VARIANCE> 39
 2.233392e+01 5.040181e+01 4.033627e+01 2.855721e+01 2.970514e+01 2.613999e+01 2.928417e+01 2.452924e+01 3.004639e+01 2.894934e+01 1.772441e+01 3.359889e+01 3.488890e+01 7.104547e-01 2.897145e+00 1.965985e+00 1.512986e+00 1.739305e+00 2.008574e+00 2.227605e+00 1.502066e+00 1.706458e+00 1.894892e+00 1.384197e+00 1.338223e+00 1.162881e+00 1.379132e-01 5.184784e-01 3.044796e-01 2.643653e-01 3.547920e-01 4.080952e-01 4.413268e-01 3.052561e-01 3.136633e-01 3.876841e-01 2.672457e-01 2.909330e-01 2.266152e-01
<GCONST> 1.066653e+02
<TRANSP> 5
 0.000000e+00 1.000000e+00 0.000000e+00 0.000000e+00 0.000000e+00
 0.000000e+00 3.076835e-01 6.923165e-01 0.000000e+00 0.000000e+00
 0.000000e+00 0.000000e+00 3.705327e-01 6.294674e-01 0.000000e+00
 0.000000e+00 0.000000e+00 0.000000e+00 6.185596e-01 3.814404e-01
 0.000000e+00 0.000000e+00 0.000000e+00 0.000000e+00 0.000000e+00
<ENDHMM>
~h "j"
<BEGINHMM>
<NUMSTATES> 5
<STATE> 2
<MEAN> 39
 1.293375e+01 -1.645128e+01 1.767015e-01 1.991232e+01 -9.885312e+00 1.994236e+01 -1.280151e+01 -9.060787e+00 1.024799e+01 -1.510567e+01 -5.611119e-01 4.263393e+00 7.857629e+01 -3.201360e-01 1.951199e-01 7.374316e-01 1.247708e+00 2.742225e-01 5.304253e-01 5.621424e-01 -1.193899e-01 -3.281350e-01 7.750933e-01 4.974809e-02 -4.084656e-01 -6.170002e-01 -3.712648e-01 -3.215699e-01 4.552473e-01 -1.273462e-02 -2.824858e-01 -1.801186e-01 4.522611e-01 1.350362e-01 -2.259790e-01 4.032950e-01 -9.894216e-02 5.280503e-03 -6.199456e-02
<VARIANCE> 39
 6.809509e+00 1.605144e+01 3.319397e+01 4.231308e+01 1.948656e+01 2.260727e+01 2.477495e+01 1.267541e+01 3.910662e+01 6.064921e+01 3.095974e+01 3.587489e+01 1.775088e+01 5.331552e-01 2.139939e+00 1.783417e+00 1.868391e+00 3.680952e+00 4.061292e+00 2.331949e+00 1.668895e+00 1.787862e+00 2.843564e+00 2.780722e+00 2.094891e+00 1.561883e+00 1.115808e-01 4.875690e-01 6.156564e-01 3.288612e-01 8.103083e-01 9.996063e-01 3.995249e-01 2.846675e-01 3.211899e-01 4.671578e-01 3.907540e-01 2.858702e-01 2.682672e-01
<GCONST> 1.100524e+02
<STATE> 3
<MEAN> 39
 1.050736e+01 -1.923737e+01 4.497807e+00 2.005914e+01 -1.208195e+01 2.098776e+01 -5.952292e+00 -7.470748e+00 6.217971e+00 -1.441861e+01 -1.380369e+00 4.145707e+00 7.884055e+01 -1.900997e+00 -2.314248e+00 4.004445e+00 4.686759e-01 -1.378086e+00 1.333729e-01 1.067216e+00 4.391282e-01 -5.245082e-01 1.003201e+00 5.870931e-01 7.320215e-01 4.246425e-01 -2.259787e-01 -3.918723e-01 2.599951e-01 -2.174307e-01 -2.306355e-01 -2.915912e-01 -4.682564e-02 2.529179e-01 4.055140e-02 -1.867222e-01 -2.096729e-01 2.742779e-01 1.584163e-01
<VARIANCE> 39
 1.404169e+01 1.658226e+01 5.521393e+01 2.284128e+01 3.310330e+01 2.461633e+01 1.768601e+01 1.000032e+01 1.647885e+01 4.470642e+01 2.087017e+01 1.062860e+01 1.807547e+01 1.637359e+00 2.487797e+00 4.972493e+00 2.992933e+00 3.482760e+00 3.383768e+00 2.560600e+00 1.118627e+00 8.582292e-01 2.627689e+00 1.867600e+00 1.170152e+00 1.143944e+00 1.901919e-01 4.043806e-01 8.680652e-01 3.768994e-01 7.866676e-01 4.962812e-01 4.451830e-01 3.325992e-01 1.713747e-01 3.422987e-01 5.121069e-01 2.648813e-01 2.045821e-01
<GCONST> 1.074442e+02
<STATE> 4
<MEAN> 39
 4.281983e+00 -2.796944e+01 1.368296e+01 1.990365e+01 -1.612581e+01 2.038573e+01 -5.294930e+00 -6.599823e+00 6.650372e+00 -1.221726e+01 -2.916480e+00 7.299715e+00 8.018822e+01 6.312928e-02 -1.097555e-01 -2.599767e-01 -7.147819e-03 1.018444e-01 -8.428621e-02 -3.018279e-01 -2.319042e-01 1.186272e-01 2.451012e-01 -8.377729e-02 -1.759006e-01 2.460103e-02 3.915250e-01 4.437300e-01 -6.289874e-01 -6.991465e-02 2.161451e-01 -3.534374e-02 -1.572456e-01 -1.449528e-01 5.721252e-02 -9.905286e-02 6.797776e-02 -1.554651e-01 3.013421e-03
<VARIANCE> 39
 3.221173e+01 4.348327e+01 8.961290e+01 2.925146e+01 2.244364e+01 3.294710e+01 2.581535e+01 1.234684e+01 1.708363e+01 3.201533e+01 3.056372e+01 1.933569e+01 6.529984e+00 3.285048e+00 5.014526e+00 8.033811e+00 2.026339e+00 2.465586e+00 2.246277e+00 1.381139e+00 1.302453e+00 1.445741e+00 2.975605e+00 2.320947e+00 1.930090e+00 5.613720e-01 3.255073e-01 5.677363e-01 1.028891e+00 3.599769e-01 4.689334e-01 4.526840e-01 2.637106e-01 2.307712e-01 2.694001e-01 5.226444e-01 4.136631e-01 3.342395e-01 9.089503e-02
<GCONST> 1.106300e+02
<TRANSP> 5
 0.000000e+00 1.000000e+00 0.000000e+00 0.000000e+00 0.000000e+00
 0.000000e+00 7.330850e-01 2.669150e-01 0.000000e+00 0.000000e+00
 0.000000e+00 0.000000e+00 7.112641e-01 2.887359e-01 0.000000e+00
 0.000000e+00 0.000000e+00 0.000000e+00 9.081882e-01 9.181172e-02
 0.000000e+00 0.000000e+00 0.000000e+00 0.000000e+00 0.000000e+00
<ENDHMM>
~h "k"
<BEGINHMM>
<NUMSTATES> 5
<STATE> 2
<MEAN> 39
 6.340800e+00 -1.543102e+01 2.345705e+00 1.959684e+01 -1.576193e+01 2.043161e+01 -7.514636e+00 -8.768057e+00 5.221555e+00 -5.752300e+00 -3.653590e+00 2.740994e+00 6.873825e+01 -8.234254e-01 -1.754229e+00 1.474394e-01 -1.352760e+00 -1.125662e+00 3.387623e-02 2.882263e-01 6.689485e-01 -3.189950e-01 -5.978844e-01 -2.350471e-01 6.384384e-02 2.308182e-01 1.622136e-01 -9.042584e-01 3.091109e-02 -6.389213e-01 -3.036293e-01 1.010999e-01 1.801574e-02 4.939400e-02 7.959995e-02 -5.599524e-01 1.462209e-01 -1.517404e-01 8.896008e-01
<VARIANCE> 39
 1.156299e+01 3.095312e+01 2.590959e+01 3.929855e+01 4.283869e+01 2.394311e+01 2.653039e+01 3.517704e+01 2.695877e+01 2.019130e+01 2.191486e+01 2.091637e+01 1.015598e+01 7.257493e-01 6.278634e+00 2.059467e+00 4.014774e+00 3.451074e+00 3.450464e+00 3.191100e+00 2.974470e+00 2.266917e+00 3.013419e+00 2.515041e+00 1.784890e+00 3.280483e+00 1.227683e-01 9.648366e-01 3.538112e-01 6.991079e-01 6.360709e-01 5.872896e-01 6.367577e-01 6.056807e-01 4.927491e-01 4.843460e-01 4.643978e-01 3.610446e-01 3.877327e-01
<GCONST> 1.163346e+02
<STATE> 3
<MEAN> 39
 4.172001e+00 -2.452926e+01 3.157843e+00 1.228441e+01 -2.083648e+01 2.072378e+01 -6.453454e+00 -5.485413e+00 5.133815e+00 -9.485544e+00 -3.601922e+00 2.378337e+00 7.285270e+01 -1.110555e-01 -2.888838e+00 2.549430e-01 -2.107606e+00 -1.467110e+00 5.082561e-01 3.370362e-01 2.907689e-01 -8.243947e-02 -1.304253e+00 3.390030e-01 -1.088351e-01 1.940560e+00 4.023722e-01 7.682920e-01 -1.083623e-01 6.187591e-01 6.078199e-01 -7.642968e-02 -7.634806e-02 -3.823214e-01 1.338685e-01 2.449114e-01 -3.495783e-03 -5.194505e-02 -4.078314e-03
<VARIANCE> 39
 1.311758e+01 6.701120e+01 3.171857e+01 5.285266e+01 6.714099e+01 5.445894e+01 4.284347e+01 3.547247e+01 3.703250e+01 2.646756e+01 2.645986e+01 2.040648e+01 2.179317e+01 1.600648e+00 7.183699e+00 3.518809e+00 6.468844e+00 6.599902e+00 4.226235e+00 4.383482e+00 4.094910e+00 3.764109e+00 3.796836e+00 3.588580e+00 2.338689e+00 2.646134e+00 2.442205e-01 1.311694e+00 5.265936e-01 8.319395e-01 9.255396e-01 8.255960e-01 6.005333e-01 5.447332e-01 5.175474e-01 6.083919e-01 5.188938e-01 3.945642e-01 5.706906e-01
<GCONST> 1.285626e+02
<STATE> 4
<MEAN> 39
 5.343125e+00 -2.686191e+01 3.017619e+00 1.120618e+01 -2.159529e+01 2.128995e+01 -5.907875e+00 -6.348442e+00 5.448207e+00 -1.090859e+01 -3.212219e+00 2.494173e+00 7.581207e+01 9.076589e-01 7.327000e-01 -1.235136e-01 7.975742e-01 1.172322e+00 -2.142031e-01 -1.412309e-01 -5.602503e-01 3.656598e-01 -1.023151e-01 -1.368038e-01 -4.302118e-01 7.800574e-01 3.205835e-01 1.047872e+00 -8.340117e-02 7.671155e-01 6.610154e-01 -2.086581e-01 -2.386131e-01 -1.761434e-01 2.718117e-01 2.177955e-01 -1.180516e-01 -1.421187e-01 -2.475254e-01
<VARIANCE> 39
 1.751889e+01 5.149695e+01 4.269537e+01 6.422134e+01 7.897344e+01 4.893102e+01 4.323313e+01 4.041363e+01 4.497849e+01 3.532688e+01 3.328068e+01 2.114042e+01 1.685930e+01 2.524513e+00 7.272416e+00 3.151139e+00 5.242953e+00 5.898821e+00 4.350885e+00 2.663280e+00 3.117041e+00 3.045342e+00 3.009286e+00 2.683234e+00 2.660853e+00 2.306384e+00 3.521548e-01 1.213997e+00 7.262608e-01 1.070952e+00 1.139076e+00 8.709111e-01 6.510171e-01 6.786894e-01 7.199789e-01 7.549464e-01 6.923817e-01 4.686418e-01 4.581805e-01
<GCONST> 1.305271e+02
<TRANSP> 5
 0.000000e+00 1.000000e+00 0.000000e+00 0.000000e+00 0.000000e+00
 0.000000e+00 6.071293e-01 3.928707e-01 0.000000e+00 0.000000e+00
 0.000000e+00 0.000000e+00 3.590198e-01 6.409802e-01 0.000000e+00
 0.000000e+00 0.000000e+00 0.000000e+00 5.942236e-01 4.057764e-01
 0.000000e+00 0.000000e+00 0.000000e+00 0.000000e+00 0.000000e+00
<ENDHMM>
~h "l"
<BEGINHMM>
<NUMSTATES> 5
<STATE> 2
<MEAN> 39
 1.165612e+01 -1.524368e+01 2.440190e+00 1.942351e+01 -1.495586e+01 1.827248e+01 -7.411030e+00 -8.038862e+00 7.615972e+00 -1.207498e+01 -5.775697e+00 -1.104834e+00 7.639197e+01 1.908539e-01 4.853702e-01 -1.892314e-01 2.246722e-01 2.318712e-02 3.276840e-02 4.339735e-01 3.441004e-02 -4.616196e-01 -1.359168e-01 -8.088078e-02 -3.684290e-02 -1.825296e-01 -9.501879e-02 -1.080021e-01 2.176493e-03 -1.825034e-01 -1.400067e-01 -1.142938e-01 3.658352e-02 1.094536e-01 1.798880e-02 -3.143725e-02 -1.486905e-02 1.018679e-01 7.319167e-03
<VARIANCE> 39
 1.139932e+01 3.411182e+01 3.355355e+01 4.478907e+01 7.842324e+01 4.488102e+01 3.299522e+01 4.498225e+01 3.766010e+01 3.425277e+01 3.157160e+01 3.898199e+01 1.962525e+01 1.219114e+00 2.302988e+00 2.822978e+00 2.404628e+00 3.448723e+00 3.015195e+00 2.392810e+00 2.539749e+00 2.468437e+00 2.967019e+00 2.093459e+00 2.029519e+00 1.383104e+00 1.873770e-01 4.146658e-01 4.291384e-01 4.209945e-01 6.435876e-01 5.603649e-01 4.350997e-01 5.016173e-01 4.176046e-01 5.600143e-01 4.505603e-01 4.219054e-01 2.727958e-01
<GCONST> 1.173144e+02
<STATE> 3
<MEAN> 39
 1.171744e+01 -1.449224e+01 2.442481e+00 1.950535e+01 -1.559530e+01 1.836853e+01 -6.504388e+00 -7.563001e+00 6.909167e+00 -1.249636e+01 -6.141223e+00 -8.449254e-01 7.580145e+01 4.862102e-02 2.647233e-01 -4.187357e-02 1.788972e-02 -2.990194e-01 -1.838855e-01 4.625784e-01 2.338611e-01 -2.410330e-01 -2.057940e-01 -2.300933e-01 4.700326e-02 -1.433039e-01 -1.903898e-02 -1.823141e-01 -1.003149e-01 -2.155005e-01 -4.560389e-02 -1.763889e-01 -1.068250e-01 1.178106e-02 1.242311e-01 5.893428e-03 2.073763e-02 3.682383e-02 1.451734e-01
<VARIANCE> 39
 1.091840e+01 3.137616e+01 3.262610e+01 4.019876e+01 6.598808e+01 4.355289e+01 2.991587e+01 4.077099e+01 3.610546e+01 3.436643e+01 3.081127e+01 4.353799e+01 1.958063e+01 8.503564e-01 1.930401e+00 1.986812e+00 1.995833e+00 3.133815e+00 2.638697e+00 2.277859e+00 2.038158e+00 2.057708e+00 2.827767e+00 2.024380e+00 1.864765e+00 1.139679e+00 1.617123e-01 3.982352e-01 4.697750e-01 4.186477e-01 5.259333e-01 6.128008e-01 4.105247e-01 4.979024e-01 4.385442e-01 5.246503e-01 4.693230e-01 4.846807e-01 2.602961e-01
<GCONST> 1.144185e+02
<STATE> 4
<MEAN> 39
 1.167372e+01 -1.408959e+01 3.012572e+00 1.963850e+01 -1.590413e+01 1.855932e+01 -5.447603e+00 -7.312571e+00 7.038532e+00 -1.253037e+01 -7.466098e+00 -2.214298e+00 7.568993e+01 4.257898e-02 3.115411e-02 -1.995723e-01 -3.060805e-01 -3.540956e-01 -4.084619e-01 2.142460e-01 1.991988e-01 5.060788e-02 -4.858237e-02 -2.307448e-01 -2.098117e-02 6.378530e-02 1.409656e-02 -1.556665e-01 -1.521845e-01 -1.767665e-01 8.830447e-02 -7.775166e-02 -2.229789e-01 -1.096889e-01 9.604679e-02 8.441842e-02 1.702826e-01 8.659460e-02 1.505761e-01
<VARIANCE> 39
 9.727923e+00 2.983296e+01 2.843551e+01 4.000297e+01 5.608281e+01 3.871257e+01 3.379081e+01 3.798555e+01 3.486539e+01 3.044907e+01 3.162478e+01 5.017074e+01 1.853966e+01 6.361763e-01 1.997905e+00 1.998249e+00 2.036103e+00 2.550028e+00 3.097505e+00 2.177635e+00 2.235247e+00 2.245649e+00 2.552873e+00 2.406676e+00 2.402729e+00 1.226024e+00 1.192582e-01 3.563811e-01 3.744547e-01 3.932694e-01 4.550375e-01 6.008542e-01 4.278285e-01 4.242134e-01 4.165159e-01 5.197044e-01 4.092198e-01 4.827181e-01 2.191458e-01
<GCONST> 1.127317e+02
<TRANSP> 5
 0.000000e+00 1.000000e+00 0.000000e+00 0.000000e+00 0.000000e+00
 0.000000e+00 1.584735e-01 8.415265e-01 0.000000e+00 0.000000e+00
 0.000000e+00 0.000000e+00 1.690829e-01 8.309171e-01 0.000000e+00
 0.000000e+00 0.000000e+00 0.000000e+00 4.274547e-01 5.725453e-01
 0.000000e+00 0.000000e+00 0.000000e+00 0.000000e+00 0.000000e+00
<ENDHMM>
~h "m"
<BEGINHMM>
<NUMSTATES> 5
<STATE> 2
<MEAN> 39
 1.290090e+01 -9.759566e+00 3.040648e-02 1.828422e+01 -1.520214e+01 2.215665e+01 -3.305048e+00 -8.821771e+00 7.841736e+00 -7.796789e+00 -3.847626e+00 -1.917334e+00 7.359745e+01 1.115382e-01 1.512192e+00 1.998317e-01 2.995273e-01 2.781694e-01 9.984593e-01 4.539376e-01 -7.503260e-01 -1.324735e-01 1.175132e+00 3.763989e-02 -9.766855e-01 -7.741070e-01 -6.909262e-02 -3.340400e-01 4.901408e-02 -1.205434e-01 -1.730633e-02 -2.126135e-01 -1.355335e-01 4.426993e-02 -3.748137e-02 -2.163544e-01 3.194862e-02 1.953561e-01 2.441835e-01
<VARIANCE> 39
 1.176804e+01 2.091608e+01 2.240812e+01 1.687502e+01 2.305634e+01 2.186191e+01 9.667799e+00 1.957458e+01 1.662414e+01 1.712468e+01 1.436455e+01 2.153123e+01 1.098078e+01 5.970693e-01 1.343201e+00 1.161744e+00 1.498843e+00 1.459878e+00 1.852674e+00 1.126915e+00 1.477609e+00 1.231218e+00 1.851068e+00 9.093598e-01 1.353921e+00 7.152111e-01 7.944977e-02 1.981525e-01 2.018749e-01 2.381030e-01 2.790361e-01 3.084377e-01 1.950702e-01 2.847521e-01 2.212888e-01 3.078188e-01 1.780928e-01 2.086630e-01 8.557585e-02
<GCONST> 8.993423e+01
<STATE> 3
<MEAN> 39
 1.269162e+01 -7.179067e+00 1.069803e+00 1.872279e+01 -1.466437e+01 2.353794e+01 -2.650583e+00 -1.035262e+01 7.334275e+00 -5.722750e+00 -3.684775e+00 -3.521175e+00 7.241460e+01 4.925372e-02 5.293119e-01 2.711931e-02 -7.195816e-02 2.016830e-01 1.214725e-01 1.003321e-01 -1.192115e-01 -1.360079e-01 1.608569e-01 -4.041776e-03 -1.154184e-01 -1.383149e-01 -8.405581e-03 -5.552586e-01 -1.422926e-01 -9.189529e-02 -3.670930e-03 -4.268777e-01 -2.574062e-01 3.692375e-01 1.117490e-01 -5.498288e-01 -6.943346e-02 4.088160e-01 3.059296e-01
<VARIANCE> 39
 8.267077e+00 1.508934e+01 1.543466e+01 1.218684e+01 1.867349e+01 1.576007e+01 8.229522e+00 1.790972e+01 1.550033e+01 1.373988e+01 1.287854e+01 1.435426e+01 8.700258e+00 4.803560e-01 1.203185e+00 9.331524e-01 1.074592e+00 1.258553e+00 1.384949e+00 8.112746e-01 1.229567e+00 8.418363e-01 1.417880e+00 7.396041e-01 1.060902e+00 4.101295e-01 8.013014e-02 2.427567e-01 1.818426e-01 3.132619e-01 3.181573e-01 4.506530e-01 2.578004e-01 3.295648e-01 2.346086e-01 2.954817e-01 1.753424e-01 2.356479e-01 1.014481e-01
<GCONST> 8.485650e+01
<STATE> 4
<MEAN> 39
 1.241851e+01 -8.050053e+00 6.902266e-01 1.753767e+01 -1.507747e+01 2.310700e+01 -2.257971e+00 -9.417527e+00 6.790575e+00 -7.063220e+00 -4.456656e+00 -2.493681e+00 7.265453e+01 3.455639e-02 -1.206321e+00 -4.128557e-01 -1.508789e-01 2.220393e-01 -1.031044e+00 -8.612428e-01 8.638794e-01 3.967484e-01 -1.430617e+00 -2.010326e-01 1.041908e+00 7.279934e-01 -1.188018e-01 -7.068450e-01 3.757513e-02 3.263690e-03 -2.331551e-02 -3.727551e-01 -4.304574e-01 1.878976e-01 2.221988e-01 -3.161232e-01 7.779875e-02 3.499927e-01 3.127810e-01
<VARIANCE> 39
 1.052103e+01 1.801998e+01 1.388096e+01 1.843709e+01 2.685238e+01 1.870218e+01 1.191347e+01 1.873693e+01 1.700124e+01 2.073683e+01 1.519285e+01 1.543532e+01 1.244986e+01 9.540007e-01 2.827199e+00 2.403489e+00 2.776942e+00 2.473062e+00 3.547488e+00 2.372199e+00 2.245484e+00 1.810299e+00 2.675284e+00 1.302317e+00 1.969127e+00 1.091472e+00 1.233862e-01 4.469196e-01 2.871004e-01 4.299216e-01 3.536141e-01 6.156023e-01 3.488870e-01 4.678075e-01 2.737608e-01 4.783202e-01 2.631837e-01 3.818501e-01 1.088832e-01
<GCONST> 1.024048e+02
<TRANSP> 5
 0.000000e+00 1.000000e+00 0.000000e+00 0.000000e+00 0.000000e+00
 0.000000e+00 5.632526e-01 4.367474e-01 0.000000e+00 0.000000e+00
 0.000000e+00 0.000000e+00 5.988944e-01 4.011056e-01 0.000000e+00
 0.000000e+00 0.000000e+00 0.000000e+00 5.242862e-01 4.757138e-01
 0.000000e+00 0.000000e+00 0.000000e+00 0.000000e+00 0.000000e+00
<ENDHMM>
~h "n"
<BEGINHMM>
<NUMSTATES> 5
<STATE> 2
<MEAN> 39
 1.349959e+01 -1.222174e+01 -3.512850e-01 1.818875e+01 -1.449133e+01 1.993742e+01 -5.804559e+00 -8.357929e+00 8.736106e+00 -9.752897e+00 -3.892337e+00 -6.983137e-01 7.587932e+01 1.251350e-02 1.462165e+00 2.844248e-01 4.303397e-01 1.371268e-01 9.371830e-01 5.369266e-01 -7.137498e-01 -3.148988e-01 1.178603e+00 -1.927782e-01 -1.139249e+00 -9.690919e-01 -6.062115e-02 -1.759639e-01 2.245621e-02 -7.791766e-02 -1.141313e-01 -1.187312e-01 5.342457e-02 2.175271e-02 -1.096155e-01 -1.034575e-01 2.634797e-02 1.086987e-01 9.298380e-02
<VARIANCE> 39
 5.376311e+00 1.880561e+01 2.144910e+01 2.453849e+01 3.230914e+01 3.304238e+01 3.085381e+01 2.774976e+01 2.724352e+01 2.430769e+01 1.943826e+01 2.719012e+01 1.079618e+01 3.059306e-01 1.430282e+00 1.243901e+00 1.720158e+00 2.282036e+00 2.543275e+00 2.293509e+00 1.904055e+00 1.899275e+00 1.920805e+00 1.087271e+00 1.673761e+00 7.086411e-01 5.455977e-02 3.470897e-01 1.919137e-01 2.541462e-01 3.513654e-01 4.873478e-01 3.272334e-01 3.212442e-01 3.593515e-01 3.954821e-01 1.935499e-01 2.638612e-01 1.300601e-01
<GCONST> 9.817518e+01
<STATE> 3
<MEAN> 39
 1.347482e+01 -9.497848e+00 3.446756e-01 1.886936e+01 -1.444057e+01 2.195078e+01 -4.692694e+00 -1.058770e+01 7.558689e+00 -7.459148e+00 -4.419892e+00 -3.126577e+00 7.417566e+01 -1.071545e-01 8.175822e-01 2.458231e-01 1.744172e-01 -1.232422e-01 3.246056e-01 5.274893e-01 -3.372476e-01 -4.365616e-01 6.214723e-01 -1.270472e-01 -5.201369e-01 -5.692472e-01 -5.628014e-02 -4.805822e-01 -2.214016e-02 -6.671631e-02 -8.938490e-02 -3.514361e-01 -1.165645e-01 3.012362e-01 4.703237e-02 -3.834617e-01 7.720055e-02 4.013661e-01 2.617141e-01
<VARIANCE> 39
 3.885822e+00 1.410321e+01 1.326263e+01 1.448878e+01 2.021627e+01 2.098446e+01 2.010221e+01 2.128093e+01 1.918289e+01 1.690552e+01 1.505462e+01 1.772392e+01 6.763232e+00 2.354639e-01 1.802186e+00 9.709702e-01 1.129973e+00 1.636253e+00 2.012762e+00 1.701875e+00 1.548984e+00 1.590031e+00 1.769946e+00 8.775380e-01 1.384816e+00 6.058972e-01 4.614586e-02 3.530665e-01 1.883718e-01 2.314088e-01 3.195343e-01 3.949576e-01 3.459599e-01 3.446470e-01 3.087482e-01 3.464720e-01 1.883697e-01 2.691327e-01 1.417707e-01
<GCONST> 8.983619e+01
<STATE> 4
<MEAN> 39
 1.239606e+01 -9.026999e+00 1.872149e+00 1.944771e+01 -1.521651e+01 2.169475e+01 -3.575623e+00 -9.856135e+00 6.461943e+00 -7.045867e+00 -4.431445e+00 -2.742707e+00 7.299580e+01 -3.652201e-01 -4.594420e-01 2.826087e-01 2.332090e-01 -1.314293e-01 -3.634916e-01 8.274091e-03 5.154595e-01 -5.456063e-02 -1.858437e-01 1.099344e-01 5.185776e-01 -1.080827e-01 -6.280142e-02 -4.103204e-01 -2.163382e-02 -8.080672e-02 1.633955e-02 -1.424052e-01 -2.334686e-01 1.626436e-01 1.599329e-01 -2.415220e-01 5.287404e-02 2.779180e-01 1.918509e-01
<VARIANCE> 39
 5.297889e+00 2.344269e+01 1.484622e+01 1.562779e+01 1.930014e+01 1.913561e+01 2.134332e+01 2.389567e+01 1.917918e+01 2.370829e+01 1.646201e+01 2.174164e+01 1.026890e+01 3.937376e-01 2.783947e+00 1.356426e+00 1.345225e+00 1.481210e+00 1.757261e+00 1.939802e+00 1.766897e+00 1.790936e+00 2.169401e+00 1.217384e+00 1.604232e+00 1.083147e+00 6.448571e-02 4.987139e-01 2.444058e-01 2.654842e-01 2.994779e-01 3.532419e-01 3.985413e-01 3.656044e-01 3.221517e-01 3.855887e-01 2.256367e-01 3.040763e-01 1.493430e-01
<GCONST> 9.639792e+01
<TRANSP> 5
 0.000000e+00 1.000000e+00 0.000000e+00 0.000000e+00 0.000000e+00
 0.000000e+00 3.922059e-01 6.077941e-01 0.000000e+00 0.000000e+00
 0.000000e+00 0.000000e+00 4.572882e-01 5.427117e-01 0.000000e+00
 0.000000e+00 0.000000e+00 0.000000e+00 6.758725e-01 3.241275e-01
 0.000000e+00 0.000000e+00 0.000000e+00 0.000000e+00 0.000000e+00
<ENDHMM>
~h "o"
<BEGINHMM>
<NUMSTATES> 5
<STATE> 2
<MEAN> 39
 8.994206e+00 -1.895401e+01 8.655273e-01 1.309518e+01 -1.952625e+01 1.734287e+01 -5.876461e+00 -3.353589e+00 9.930432e+00 -1.249586e+01 -8.353164e+00 2.518412e+00 7.517048e+01 1.835312e+00 1.561379e+00 -6.096810e-01 -1.329507e-01 -1.394516e+00 -1.663873e+00 -2.297524e-01 1.054665e+00 1.621553e+00 -1.233896e+00 -1.267179e+00 -1.529770e+00 9.202881e-01 1.158071e-01 2.877192e-01 2.367804e-01 1.030856e-01 -2.504082e-01 -4.970599e-01 -3.256650e-01 8.467197e-03 3.719133e-01 1.338163e-01 1.296857e-01 -3.533361e-01 1.811388e-01
<VARIANCE> 39
 2.698518e+01 6.872426e+01 2.496071e+01 4.709023e+01 5.869129e+01 4.075706e+01 3.018542e+01 3.729287e+01 2.765133e+01 4.416079e+01 2.651957e+01 3.042299e+01 2.556437e+01 2.620419e+00 8.856701e+00 3.042985e+00 4.512824e+00 3.820299e+00 3.671498e+00 3.083239e+00 3.093250e+00 4.042875e+00 3.820122e+00 2.691423e+00 4.537632e+00 1.595605e+00 3.345200e-01 8.458776e-01 4.966432e-01 6.207521e-01 6.663497e-01 7.689474e-01 6.200346e-01 5.411262e-01 7.476403e-01 7.005763e-01 4.600333e-01 6.400049e-01 3.077102e-01
<GCONST> 1.272393e+02
<STATE> 3
<MEAN> 39
 1.456377e+01 -1.459851e+01 -7.884812e-02 1.277627e+01 -2.409599e+01 1.212631e+01 -7.743367e+00 -1.299384e+00 1.501910e+01 -1.603028e+01 -1.058806e+01 -3.461230e+00 7.916289e+01 1.159896e+00 1.489814e+00 -1.493726e-01 4.096683e-03 -1.450225e+00 -2.518848e+00 -8.548912e-01 9.655480e-01 1.944833e+00 8.350055e-02 -2.586067e-01 -1.518488e+00 6.738828e-01 -5.837056e-01 -3.851557e-01 2.232552e-01 5.447585e-02 3.956535e-01 1.355651e-01 4.998782e-02 -2.256392e-01 -4.378150e-01 6.442167e-01 4.661233e-01 5.436241e-01 -3.123244e-01
<VARIANCE> 39
 5.204281e+00 1.859834e+01 2.270873e+01 1.580913e+01 4.538311e+01 4.087830e+01 2.437247e+01 2.608516e+01 3.392322e+01 4.345945e+01 2.023673e+01 2.264865e+01 1.121746e+01 1.573296e+00 3.132137e+00 1.850907e+00 2.939289e+00 3.788045e+00 3.334793e+00 2.449347e+00 1.869714e+00 2.833159e+00 3.535003e+00 2.431725e+00 3.101191e+00 1.089200e+00 2.502978e-01 7.108649e-01 3.867228e-01 4.201911e-01 5.360163e-01 6.858579e-01 5.129775e-01 2.758101e-01 6.272914e-01 7.146822e-01 3.926187e-01 5.111579e-01 1.791993e-01
<GCONST> 1.130840e+02
<STATE> 4
<MEAN> 39
 1.423070e+01 -1.140688e+01 4.692132e-01 1.388623e+01 -2.610543e+01 5.243491e+00 -8.230748e+00 8.646690e-01 1.602133e+01 -1.172649e+01 -9.329315e+00 -2.740189e+00 7.720090e+01 -1.817261e-01 1.301174e-01 7.306582e-02 3.424029e-01 3.521293e-01 2.815977e-01 1.870598e-01 -8.103613e-02 -2.922819e-01 2.763937e-01 1.493929e-01 2.777729e-01 -3.724537e-01 -1.259908e-01 -1.233136e-01 4.475234e-02 5.040093e-02 1.985897e-01 4.008195e-01 8.057078e-02 -2.232305e-01 -2.679788e-01 8.965589e-03 6.407243e-02 1.273082e-01 -1.017604e-01
<VARIANCE> 39
 4.400616e+00 1.880751e+01 1.874276e+01 2.223821e+01 3.820344e+01 6.224318e+01 2.290639e+01 2.292838e+01 2.451221e+01 4.099386e+01 2.454672e+01 2.432607e+01 1.393521e+01 4.681333e-01 1.844552e+00 1.635295e+00 1.618148e+00 2.843145e+00 5.213192e+00 2.180198e+00 2.159942e+00 2.487406e+00 3.045753e+00 1.998590e+00 2.148612e+00 1.136859e+00 9.829406e-02 3.380437e-01 2.598961e-01 3.223894e-01 3.974031e-01 7.306280e-01 3.870921e-01 3.462932e-01 4.178606e-01 6.177945e-01 3.823631e-01 4.117275e-01 2.035566e-01
<GCONST> 1.068604e+02
<TRANSP> 5
 0.000000e+00 1.000000e+00 0.000000e+00 0.000000e+00 0.000000e+00
 0.000000e+00 5.114527e-01 4.885474e-01 0.000000e+00 0.000000e+00
 0.000000e+00 0.000000e+00 4.524112e-01 5.475888e-01 0.000000e+00
 0.000000e+00 0.000000e+00 0.000000e+00 8.438221e-01 1.561779e-01
 0.000000e+00 0.000000e+00 0.000000e+00 0.000000e+00 0.000000e+00
<ENDHMM>
~h "p"
<BEGINHMM>
<NUMSTATES> 5
<STATE> 2
<MEAN> 39
 7.406689e+00 -1.168415e+01 1.805271e+00 1.819733e+01 -1.975842e+01 1.680320e+01 -6.130664e+00 -5.573397e+00 7.125430e+00 -5.266139e+00 -3.892968e+00 4.017857e+00 6.754581e+01 -7.027836e-01 -9.552466e-01 -4.811839e-01 -6.516737e-01 -2.832979e-01 6.969897e-02 8.124596e-02 -1.826382e-02 -6.495118e-01 -3.594897e-01 -5.757943e-01 -1.978744e-01 -3.400282e-01 2.012776e-01 -5.914049e-01 -1.319285e-01 -2.402485e-01 -1.464016e-02 1.837921e-01 2.399840e-02 1.312729e-01 2.502250e-01 -4.400421e-01 -1.718252e-01 -2.195668e-01 5.702671e-01
<VARIANCE> 39
 1.037629e+01 3.003569e+01 6.623970e+00 1.077544e+01 2.824868e+01 2.066327e+01 1.353871e+01 2.667065e+01 2.557808e+01 2.338472e+01 1.227008e+01 7.893774e+00 8.688507e+00 3.378316e-01 3.154989e+00 4.444991e-01 8.878538e-01 1.206629e+00 2.360518e+00 1.389308e+00 2.151446e+00 1.592004e+00 4.443941e+00 1.923324e+00 1.710318e+00 1.779561e+00 4.433994e-02 4.892095e-01 1.318082e-01 1.372483e-01 2.290366e-01 3.172669e-01 1.480513e-01 2.927189e-01 2.308275e-01 5.085685e-01 3.587521e-01 3.062336e-01 1.628746e-01
<GCONST> 9.230460e+01
<STATE> 3
<MEAN> 39
 6.798043e+00 -1.709507e+01 -9.844434e-01 1.564182e+01 -1.975790e+01 1.850583e+01 -5.498515e+00 -4.380865e+00 6.491423e+00 -8.236235e+00 -5.345098e+00 2.960483e+00 6.925245e+01 -1.273923e-01 -1.870896e+00 -3.964594e-01 -8.594960e-01 -5.721512e-01 -3.152718e-02 2.526416e-01 7.344905e-01 4.197555e-01 -4.591958e-01 -4.445030e-01 -5.801938e-02 8.012462e-01 1.601897e-01 1.439861e-01 4.711560e-01 2.163410e-01 1.079421e-02 -9.695058e-02 1.095496e-01 -1.676820e-02 1.735795e-01 8.704114e-02 2.074291e-02 -1.234910e-01 2.838415e-01
<VARIANCE> 39
 1.388687e+01 4.607010e+01 1.114483e+01 2.004280e+01 4.164486e+01 1.849602e+01 1.455068e+01 2.381393e+01 2.059318e+01 6.480966e+01 1.595432e+01 9.866899e+00 2.100525e+01 5.601082e-01 5.615081e+00 9.312227e-01 8.894648e-01 3.517561e+00 1.967853e+00 1.521354e+00 1.980467e+00 2.737948e+00 2.609561e+00 1.417178e+00 1.288674e+00 2.222334e+00 2.134132e-01 1.497038e+00 2.474737e-01 4.332130e-01 4.027697e-01 6.193320e-01 5.037062e-01 5.488870e-01 2.223693e-01 1.006734e+00 3.586427e-01 4.350936e-01 4.672286e-01
<GCONST> 1.085408e+02
<STATE> 4
<MEAN> 39
 6.546479e+00 -1.910622e+01 -4.401073e-01 1.548913e+01 -2.055289e+01 1.821926e+01 -5.055516e+00 -4.218588e+00 7.752624e+00 -7.020081e+00 -6.501266e+00 3.153259e+00 7.009918e+01 -4.970720e-02 -6.826673e-01 1.021181e+00 -1.357348e-02 -2.526169e-01 1.057671e-01 6.911855e-01 4.256261e-01 1.860830e-01 -4.785242e-01 -5.045330e-01 -6.522034e-01 7.685385e-01 2.277026e-01 4.915504e-01 4.519061e-01 1.063765e-01 2.860491e-02 -3.366706e-01 -3.863436e-02 2.647850e-02 -1.769822e-02 -2.749777e-01 4.664968e-02 -2.918145e-01 3.017288e-01
<VARIANCE> 39
 1.255534e+01 4.919520e+01 1.580365e+01 1.465113e+01 5.149055e+01 2.004341e+01 2.586895e+01 1.866286e+01 1.438632e+01 2.734396e+01 2.096532e+01 1.629591e+01 1.939695e+01 1.777628e+00 7.613659e+00 2.013002e+00 2.872720e+00 2.979317e+00 2.690168e+00 2.685745e+00 2.310337e+00 2.313939e+00 3.428767e+00 1.586357e+00 2.049594e+00 2.088843e+00 2.833093e-01 2.103188e+00 4.169821e-01 3.813454e-01 5.166833e-01 7.742270e-01 4.250059e-01 4.540413e-01 3.927876e-01 7.169357e-01 3.402453e-01 3.561087e-01 4.497434e-01
<GCONST> 1.145992e+02
<TRANSP> 5
 0.000000e+00 1.000000e+00 0.000000e+00 0.000000e+00 0.000000e+00
 0.000000e+00 6.319740e-01 3.680260e-01 0.000000e+00 0.000000e+00
 0.000000e+00 0.000000e+00 3.586959e-01 6.413041e-01 0.000000e+00
 0.000000e+00 0.000000e+00 0.000000e+00 4.332918e-01 5.667082e-01
 0.000000e+00 0.000000e+00 0.000000e+00 0.000000e+00 0.000000e+00
<ENDHMM>
~h "r"
<BEGINHMM>
<NUMSTATES> 5
<STATE> 2
<MEAN> 39
 1.147172e+01 -2.004838e+01 -5.301517e+00 1.595841e+01 -1.205656e+01 1.674654e+01 -7.130277e+00 -8.834223e+00 3.067449e+00 -1.388218e+01 -1.800756e+00 5.706355e+00 7.820860e+01 -7.763755e-02 2.826939e-01 -3.638253e-01 6.938319e-02 7.428868e-02 -1.069714e-01 2.892908e-01 1.195357e-02 -5.685094e-01 2.432430e-01 9.444268e-02 7.674195e-02 -4.926899e-01 -5.586462e-02 1.729342e-01 2.268470e-01 5.272911e-02 -1.520232e-01 1.026956e-01 -1.688248e-02 6.379557e-02 1.654627e-01 8.990003e-02 -1.018185e-01 -9.876302e-02 -1.851727e-01
<VARIANCE> 39
 2.924500e+01 5.053085e+01 3.936664e+01 5.628512e+01 5.291949e+01 4.954502e+01 2.998256e+01 3.184815e+01 3.198965e+01 3.660710e+01 4.223232e+01 4.167335e+01 2.420528e+01 4.500112e-01 1.743644e+00 2.217674e+00 1.789772e+00 3.167133e+00 2.868477e+00 2.129794e+00 1.754896e+00 2.019683e+00 1.830482e+00 1.664885e+00 1.331885e+00 8.565243e-01 1.193887e-01 3.505591e-01 4.409433e-01 3.114615e-01 5.952733e-01 5.827941e-01 4.083679e-01 3.321871e-01 3.740142e-01 3.918240e-01 3.052648e-01 2.852112e-01 1.418484e-01
<GCONST> 1.112177e+02
<STATE> 3
<MEAN> 39
 1.176271e+01 -1.815980e+01 -5.216518e+00 1.681041e+01 -1.192390e+01 1.737262e+01 -6.692179e+00 -9.092968e+00 2.395693e+00 -1.321500e+01 -2.235421e+00 4.939165e+00 7.668540e+01 -2.350680e-01 6.539047e-01 3.680815e-01 2.115080e-01 -3.040645e-01 3.137785e-01 1.970833e-01 1.332673e-01 5.295798e-03 5.083431e-01 -1.735038e-01 -1.126845e-01 -8.772922e-01 -7.153432e-02 9.259248e-02 2.190879e-01 1.761013e-02 -1.372845e-01 3.264061e-02 -7.721049e-02 7.585813e-02 2.535946e-01 9.378799e-02 -7.552498e-02 -8.400655e-02 -8.322399e-02
<VARIANCE> 39
 2.494318e+01 4.349797e+01 4.086108e+01 5.020840e+01 4.711382e+01 4.034507e+01 3.080028e+01 2.820788e+01 2.722208e+01 3.400134e+01 3.823960e+01 3.609829e+01 2.311762e+01 3.784649e-01 1.565261e+00 2.099778e+00 1.459335e+00 2.823125e+00 2.580950e+00 1.771737e+00 1.543116e+00 1.897940e+00 1.809102e+00 1.469193e+00 1.319669e+00 7.616072e-01 7.814229e-02 2.675144e-01 3.716157e-01 2.431667e-01 5.944526e-01 4.960083e-01 4.051223e-01 3.039760e-01 3.509534e-01 3.390614e-01 2.974024e-01 2.695611e-01 1.218059e-01
<GCONST> 1.066776e+02
<STATE> 4
<MEAN> 39
 5.146337e+00 -1.867514e+01 -5.192042e+00 1.450081e+01 -1.711697e+01 1.812800e+01 -5.331162e+00 -7.268242e+00 3.557626e+00 -8.113669e+00 -3.692071e+00 5.477494e+00 6.879671e+01 -3.472885e-01 4.670196e-01 3.466079e-01 5.895894e-02 -3.460248e-01 -5.885614e-02 -7.534048e-02 1.648569e-01 3.368414e-01 4.303980e-01 -1.954269e-01 -2.328590e-01 -6.151905e-01 -6.980882e-03 -7.902740e-02 6.840137e-02 1.505259e-02 1.222335e-02 2.848126e-03 -7.755352e-02 -2.799147e-03 7.969160e-02 -6.093457e-02 2.707751e-03 -4.040245e-02 8.711275e-02
<VARIANCE> 39
 4.229631e+01 4.446143e+01 3.248207e+01 3.237195e+01 4.178918e+01 2.420415e+01 2.417469e+01 2.057624e+01 2.574950e+01 3.824305e+01 2.239519e+01 2.822371e+01 4.522144e+01 3.632171e-01 1.585463e+00 1.567669e+00 1.121948e+00 1.655835e+00 1.893261e+00 1.445710e+00 1.303792e+00 1.651847e+00 1.859596e+00 1.385350e+00 1.323859e+00 6.426237e-01 6.654892e-02 2.297907e-01 2.642149e-01 1.866374e-01 3.464457e-01 3.450531e-01 3.023075e-01 2.647787e-01 3.189803e-01 3.099000e-01 2.657322e-01 2.421757e-01 8.713791e-02
<GCONST> 1.001949e+02
<TRANSP> 5
 0.000000e+00 1.000000e+00 0.000000e+00 0.000000e+00 0.000000e+00
 0.000000e+00 4.782443e-01 5.217558e-01 0.000000e+00 0.000000e+00
 0.000000e+00 0.000000e+00 4.208960e-01 5.791040e-01 0.000000e+00
 0.000000e+00 0.000000e+00 0.000000e+00 6.384696e-01 3.615304e-01
 0.000000e+00 0.000000e+00 0.000000e+00 0.000000e+00 0.000000e+00
<ENDHMM>
~h "s"
<BEGINHMM>
<NUMSTATES> 5
<STATE> 2
<MEAN> 39
 2.425714e+00 -2.238076e+01 1.023853e+01 1.125014e+01 -1.895379e+01 2.201512e+01 -2.594878e+00 -5.245403e+00 6.711686e+00 -8.353169e+00 -2.348506e+00 4.101119e+00 7.534443e+01 -2.577189e+00 -2.523057e+00 4.428818e+00 -1.511502e+00 -6.603112e-01 8.449033e-01 4.180489e-01 3.890107e-01 -1.435784e-01 -1.226693e-01 5.132573e-01 9.820917e-01 1.049651e+00 -1.917306e-01 -1.107502e-01 -6.614515e-02 -2.265392e-01 -1.217560e-01 -2.969447e-01 -4.020744e-01 -7.194335e-02 1.372239e-01 -3.777211e-01 -1.477234e-01 -6.481823e-02 8.051205e-02
<VARIANCE> 39
 5.593837e+01 5.415128e+01 1.068314e+02 3.354566e+01 5.382094e+01 6.102322e+01 3.952999e+01 5.720921e+01 3.293754e+01 4.441050e+01 2.578124e+01 2.559015e+01 6.182084e+01 5.926271e+00 4.136173e+00 6.036858e+00 3.084813e+00 3.156402e+00 3.557304e+00 3.394034e+00 2.865887e+00 2.316967e+00 3.477289e+00 2.358377e+00 2.741665e+00 1.559951e+00 5.287094e-01 7.772550e-01 1.194147e+00 4.783550e-01 4.553574e-01 6.860669e-01 5.980707e-01 4.071327e-01 4.138409e-01 5.941595e-01 4.093725e-01 4.245187e-01 2.661152e-01
<GCONST> 1.283148e+02
<STATE> 3
<MEAN> 39
 -7.939785e+00 -3.222889e+01 2.403401e+01 3.523513e+00 -2.102634e+01 2.408796e+01 -4.482098e+00 -5.587689e+00 7.582791e+00 -1.163887e+01 -1.649327e+00 6.963369e+00 8.003714e+01 -8.270789e-01 -1.019556e+00 -1.310931e-01 -7.736754e-01 -3.314702e-01 -2.906640e-01 -4.925936e-01 -1.542397e-01 1.364732e-01 -6.255344e-02 -1.208719e-01 1.708117e-01 3.838404e-02 7.037932e-01 3.678645e-01 -1.024692e+00 4.391416e-01 2.089148e-01 -9.680157e-02 6.027527e-03 -7.629776e-02 -5.563546e-02 1.755215e-01 -9.962359e-02 -1.322460e-01 -1.900932e-01
<VARIANCE> 39
 1.494498e+01 2.166332e+01 2.317707e+01 3.086102e+01 2.834520e+01 3.759735e+01 2.835828e+01 4.983015e+01 2.643717e+01 3.099858e+01 1.804474e+01 1.681358e+01 7.612737e+00 2.427197e+00 1.073580e+00 5.387281e+00 1.884941e+00 1.517460e+00 1.566228e+00 2.208734e+00 1.637005e+00 1.668251e+00 1.896320e+00 1.418940e+00 1.118031e+00 4.921013e-01 1.850392e-01 2.861355e-01 5.105160e-01 2.574625e-01 2.698614e-01 3.421333e-01 3.887086e-01 3.345575e-01 3.112243e-01 3.282856e-01 2.989422e-01 2.746614e-01 4.921688e-02
<GCONST> 1.018568e+02
<STATE> 4
<MEAN> 39
 -2.814789e+00 -3.176535e+01 1.320937e+01 5.821301e+00 -1.983423e+01 2.308136e+01 -6.118409e+00 -6.341458e+00 7.495536e+00 -9.957688e+00 -3.125944e+00 6.823833e+00 7.772879e+01 2.956676e+00 2.363831e+00 -2.652493e+00 1.551791e+00 5.744147e-01 1.261201e-01 -3.777629e-01 -2.807111e-01 1.096712e-01 -5.128924e-01 -5.847727e-01 -9.375502e-01 -3.654508e-01 4.203103e-01 7.023705e-01 1.467853e-01 2.121072e-01 -3.813333e-02 -2.575576e-03 -9.199238e-02 1.017910e-02 2.025214e-01 -3.952258e-01 4.175669e-04 -3.392470e-01 2.009409e-01
<VARIANCE> 39
 3.651151e+01 4.734613e+01 4.247404e+01 2.893155e+01 3.367550e+01 3.653458e+01 4.010369e+01 5.206605e+01 2.012648e+01 3.905601e+01 1.931937e+01 2.209236e+01 1.292037e+01 3.166652e+00 5.399601e+00 3.090590e+00 2.231368e+00 2.539899e+00 2.991783e+00 2.868164e+00 2.900058e+00 2.293025e+00 3.270185e+00 1.750414e+00 2.518415e+00 1.562338e+00 5.631067e-01 9.455941e-01 5.041292e-01 3.509691e-01 4.307435e-01 5.150630e-01 5.880708e-01 4.467755e-01 4.152230e-01 5.190709e-01 3.175645e-01 4.197974e-01 2.344862e-01
<GCONST> 1.189435e+02
<TRANSP> 5
 0.000000e+00 1.000000e+00 0.000000e+00 0.000000e+00 0.000000e+00
 0.000000e+00 7.018785e-01 2.981215e-01 0.000000e+00 0.000000e+00
 0.000000e+00 0.000000e+00 8.369123e-01 1.630877e-01 0.000000e+00
 0.000000e+00 0.000000e+00 0.000000e+00 7.476436e-01 2.523564e-01
 0.000000e+00 0.000000e+00 0.000000e+00 0.000000e+00 0.000000e+00
<ENDHMM>
~h "t"
<BEGINHMM>
<NUMSTATES> 5
<STATE> 2
<MEAN> 39
 6.971443e-01 -1.830849e+01 2.824475e+00 1.612155e+01 -1.864865e+01 1.787748e+01 -6.580287e+00 -6.604435e+00 5.318297e+00 -4.917323e+00 -4.641245e+00 3.019352e+00 6.620505e+01 -8.393839e-02 -1.915953e+00 1.623974e-01 -1.650979e+00 -9.923978e-01 5.701539e-02 -4.334196e-01 8.126460e-03 -2.676204e-01 -6.201076e-01 -1.562298e-01 6.513746e-02 1.097596e+00 1.968010e-01 -9.230316e-01 2.818882e-01 -5.057977e-01 -1.389400e-01 1.939669e-01 -2.138135e-01 -1.858206e-01 4.572460e-02 -4.597136e-01 6.226576e-02 2.216147e-02 9.578180e-01
<VARIANCE> 39
 4.984304e+01 7.010120e+01 4.788761e+01 3.668906e+01 3.846274e+01 3.542664e+01 2.788604e+01 3.486558e+01 2.664128e+01 1.841018e+01 1.841908e+01 1.523719e+01 4.149115e+01 2.704259e+00 6.577545e+00 3.860629e+00 4.331383e+00 3.435754e+00 2.586110e+00 2.755183e+00 2.733777e+00 2.306626e+00 2.534969e+00 1.818655e+00 1.700969e+00 4.092748e+00 3.001579e-01 9.570587e-01 6.075161e-01 6.736289e-01 5.293868e-01 4.699847e-01 4.348134e-01 4.408834e-01 3.805636e-01 4.467360e-01 3.453653e-01 3.112580e-01 4.873204e-01
<GCONST> 1.212607e+02
<STATE> 3
<MEAN> 39
 1.500832e+00 -2.985659e+01 7.350258e+00 9.091776e+00 -2.241809e+01 1.982555e+01 -9.203629e+00 -6.326382e+00 5.902496e+00 -8.859953e+00 -3.988614e+00 3.636629e+00 7.528601e+01 3.806244e-01 -2.729453e+00 4.920672e-01 -1.568050e+00 -6.319950e-01 3.989350e-01 -6.875708e-01 -7.111859e-01 -1.766488e-01 -9.205956e-01 3.158796e-01 3.319705e-01 2.327574e+00 5.285395e-01 1.186947e+00 -5.168535e-01 9.639214e-01 7.777185e-01 -2.909411e-02 3.218480e-01 -1.325229e-01 8.627997e-02 9.979947e-02 7.766698e-02 -2.931953e-02 -2.753218e-01
<VARIANCE> 39
 2.240018e+01 5.141553e+01 5.765558e+01 3.743993e+01 4.418896e+01 3.539091e+01 3.254278e+01 2.810422e+01 2.604880e+01 2.592011e+01 1.611119e+01 1.869264e+01 2.576052e+01 3.206141e+00 8.480551e+00 4.771418e+00 5.154433e+00 4.579188e+00 2.876285e+00 3.781410e+00 2.924935e+00 4.168237e+00 3.619364e+00 2.036210e+00 2.011670e+00 2.984710e+00 3.158558e-01 1.418400e+00 9.390708e-01 9.708019e-01 9.837037e-01 6.318228e-01 7.382834e-01 6.610000e-01 7.131022e-01 5.568962e-01 3.874038e-01 4.596649e-01 6.187066e-01
<GCONST> 1.275348e+02
<STATE> 4
<MEAN> 39
 4.294007e+00 -2.794650e+01 5.208933e+00 1.223369e+01 -1.888729e+01 2.077683e+01 -8.025114e+00 -8.528439e+00 5.534950e+00 -9.586141e+00 -4.060366e+00 4.114594e+00 7.652945e+01 1.881208e+00 1.942275e+00 -1.272095e+00 1.402775e+00 1.477395e+00 1.964943e-01 6.343099e-01 -1.128488e-01 2.102196e-01 -8.862435e-01 3.266787e-03 -2.408539e-01 5.868007e-01 1.729731e-01 8.149605e-01 -2.407698e-01 4.431181e-01 2.534177e-01 -1.727737e-01 1.001220e-01 2.150804e-01 2.205402e-01 -2.911905e-02 -4.511049e-02 -2.148812e-01 -3.017083e-01
<VARIANCE> 39
 2.469924e+01 5.030077e+01 3.529264e+01 4.549560e+01 4.811168e+01 3.087611e+01 4.379993e+01 3.566348e+01 3.591296e+01 3.652109e+01 2.562181e+01 2.257428e+01 1.700854e+01 3.380882e+00 8.082541e+00 4.012963e+00 4.343657e+00 5.075822e+00 4.188011e+00 4.349761e+00 3.678964e+00 2.983750e+00 3.457645e+00 2.227055e+00 3.010418e+00 2.460002e+00 6.611828e-01 1.958795e+00 7.177659e-01 9.579102e-01 7.672471e-01 7.111581e-01 9.077266e-01 5.000607e-01 5.902567e-01 8.075397e-01 4.230833e-01 5.737572e-01 4.610648e-01
<GCONST> 1.299032e+02
<TRANSP> 5
 0.000000e+00 1.000000e+00 0.000000e+00 0.000000e+00 0.000000e+00
 0.000000e+00 6.025560e-01 3.974440e-01 0.000000e+00 0.000000e+00
 0.000000e+00 0.000000e+00 4.874677e-01 5.125323e-01 0.000000e+00
 0.000000e+00 0.000000e+00 0.000000e+00 6.533421e-01 3.466579e-01
 0.000000e+00 0.000000e+00 0.000000e+00 0.000000e+00 0.000000e+00
<ENDHMM>
~h "u"
<BEGINHMM>
<NUMSTATES> 5
<STATE> 2
<MEAN> 39
 1.223082e+01 -1.173474e+01 1.556877e+00 1.861660e+01 -2.066675e+01 1.105006e+01 -5.960411e+00 -1.375252e+00 1.344429e+01 -1.002398e+01 -1.163432e+01 -5.465878e+00 7.453359e+01 2.460497e-01 6.638166e-01 -6.251840e-02 3.513978e-01 -2.004645e-01 -1.242114e+00 -2.771331e-01 6.129799e-01 7.807027e-01 1.125905e-01 -7.359375e-01 -6.800557e-01 -4.680659e-02 -1.855501e-01 -2.533106e-02 3.746852e-02 -1.091448e-01 1.679414e-01 3.693268e-01 7.326649e-02 -1.729916e-01 -1.450555e-01 2.926545e-01 2.765858e-01 2.012815e-01 -1.634979e-01
<VARIANCE> 39
 1.722641e+01 4.248674e+01 1.734054e+01 2.394840e+01 3.801974e+01 9.195338e+01 4.925366e+01 2.986116e+01 4.939101e+01 3.488496e+01 2.279970e+01 3.327766e+01 1.664647e+01 6.503668e-01 2.454955e+00 1.487167e+00 2.146411e+00 2.860833e+00 5.493605e+00 2.810020e+00 1.698331e+00 2.131161e+00 2.920122e+00 2.126432e+00 2.224446e+00 8.545167e-01 1.310414e-01 4.663224e-01 2.441744e-01 3.923245e-01 4.278058e-01 8.001488e-01 4.032742e-01 3.318128e-01 4.006597e-01 4.467620e-01 3.061283e-01 3.604041e-01 1.327979e-01
<GCONST> 1.116539e+02
<STATE> 3
<MEAN> 39
 1.218715e+01 -1.021465e+01 1.373662e+00 1.913614e+01 -1.980843e+01 1.122207e+01 -5.889121e+00 -3.355926e-01 1.517808e+01 -8.766576e+00 -1.221219e+01 -5.074778e+00 7.343876e+01 -3.005950e-01 -1.297778e-01 -1.487616e-03 -4.709398e-02 3.249353e-01 9.964716e-01 5.292059e-01 -2.398144e-01 -3.902215e-01 3.866100e-01 3.115022e-01 3.477643e-01 -3.393220e-01 -1.365736e-01 -2.104398e-01 9.618564e-02 -8.690713e-02 7.833121e-02 3.443572e-01 3.946873e-02 -2.723711e-01 -2.601944e-01 4.233601e-02 2.225067e-01 1.351254e-01 6.895456e-03
<VARIANCE> 39
 1.441402e+01 3.218451e+01 1.687401e+01 2.120398e+01 3.406815e+01 5.112400e+01 2.946457e+01 2.680049e+01 3.731263e+01 3.236620e+01 2.190016e+01 2.333191e+01 1.831622e+01 4.437861e-01 2.104423e+00 1.210869e+00 9.584752e-01 2.014717e+00 3.786745e+00 2.240957e+00 2.674895e+00 1.736495e+00 2.602339e+00 1.682923e+00 1.613913e+00 7.944785e-01 9.127157e-02 4.005405e-01 2.409388e-01 2.067247e-01 3.438298e-01 6.209199e-01 3.374063e-01 4.577740e-01 4.329456e-01 4.423133e-01 3.768921e-01 3.274203e-01 1.359030e-01
<GCONST> 1.047909e+02
<STATE> 4
<MEAN> 39
 2.095162e+00 -1.613225e+01 -3.005121e+00 1.466682e+01 -2.029226e+01 1.674411e+01 -4.793410e+00 -5.223164e+00 7.097137e+00 -5.623618e+00 -7.178708e+00 1.597757e+00 6.511253e+01 -2.684248e-01 -1.518205e-01 1.725258e-01 -4.739495e-02 1.050304e-01 4.070796e-01 7.001094e-02 -2.929272e-01 -1.986984e-01 2.559260e-01 2.196048e-01 8.589052e-02 -1.398833e-01 -7.961351e-03 -1.115393e-01 1.032280e-01 -1.099536e-02 -5.064694e-02 5.937457e-03 -1.940761e-02 -1.770062e-02 -3.000411e-02 -7.137123e-02 1.985658e-02 -7.555333e-03 9.069327e-02
<VARIANCE> 39
 5.603083e+01 3.307120e+01 2.388186e+01 2.401575e+01 2.095969e+01 2.321092e+01 1.820139e+01 1.983132e+01 3.600594e+01 2.195113e+01 2.248837e+01 2.946827e+01 4.444639e+01 3.787826e-01 1.732124e+00 7.848830e-01 9.833461e-01 1.603442e+00 2.433752e+00 1.587274e+00 1.946101e+00 1.925047e+00 1.484322e+00 1.490087e+00 1.299526e+00 4.172022e-01 8.251314e-02 2.387377e-01 1.823782e-01 1.650202e-01 2.604907e-01 2.871070e-01 2.796050e-01 2.758252e-01 2.544616e-01 2.905371e-01 2.553337e-01 1.946198e-01 7.452830e-02
<GCONST> 9.644914e+01
<TRANSP> 5
 0.000000e+00 1.000000e+00 0.000000e+00 0.000000e+00 0.000000e+00
 0.000000e+00 5.897781e-01 4.102220e-01 0.000000e+00 0.000000e+00
 0.000000e+00 0.000000e+00 6.245942e-01 3.754058e-01 0.000000e+00
 0.000000e+00 0.000000e+00 0.000000e+00 6.710371e-01 3.289630e-01
 0.000000e+00 0.000000e+00 0.000000e+00 0.000000e+00 0.000000e+00
<ENDHMM>
~h "v"
<BEGINHMM>
<NUMSTATES> 5
<STATE> 2
<MEAN> 39
 1.258666e+01 -1.607890e+01 1.117389e+00 1.829391e+01 -1.388073e+01 1.983561e+01 -9.391994e+00 -1.148302e+01 6.042161e+00 -1.222692e+01 -4.264545e+00 -1.049199e+00 7.749495e+01 -1.813800e-01 9.106659e-01 4.961852e-02 9.620004e-02 8.004232e-02 2.960267e-01 8.373598e-01 1.321894e-01 -3.126945e-01 8.018073e-01 -3.253097e-01 -2.865241e-01 -7.628596e-01 -9.097540e-02 6.302369e-02 5.655287e-03 -9.347828e-02 -7.210051e-02 1.506307e-01 2.746067e-02 8.066209e-02 6.526248e-02 8.743365e-02 1.916089e-02 1.091883e-01 -1.624700e-01
<VARIANCE> 39
 8.445596e+00 2.614045e+01 2.097245e+01 1.772034e+01 3.757624e+01 2.800189e+01 3.215962e+01 2.715258e+01 2.531400e+01 3.089764e+01 1.646152e+01 3.456181e+01 1.166490e+01 3.286250e-01 1.461236e+00 1.246998e+00 8.547060e-01 1.560947e+00 2.087276e+00 1.708449e+00 1.763925e+00 1.803494e+00 1.657906e+00 1.381099e+00 1.043050e+00 7.749743e-01 1.061728e-01 2.438945e-01 2.193973e-01 1.727794e-01 2.847630e-01 4.227751e-01 3.192575e-01 2.764290e-01 2.953289e-01 3.589011e-01 2.084761e-01 2.091114e-01 1.582762e-01
<GCONST> 9.631384e+01
<STATE> 3
<MEAN> 39
 1.191318e+01 -1.152436e+01 9.642837e-01 1.761786e+01 -1.506725e+01 2.147900e+01 -5.422987e+00 -9.837802e+00 5.953469e+00 -8.352388e+00 -5.502580e+00 -1.661322e+00 7.366253e+01 -4.093522e-01 8.473191e-01 2.173963e-01 3.779543e-02 -1.322652e-01 5.017729e-01 3.282950e-01 2.686895e-01 2.249884e-01 8.574996e-01 -1.984761e-01 1.557041e-01 -1.063355e+00 1.878775e-02 -3.006270e-01 -6.296388e-02 -7.055133e-02 -4.917586e-02 -1.036077e-01 -2.053579e-01 1.179530e-02 5.112734e-02 -3.428546e-01 6.200165e-02 1.650171e-01 2.057895e-01
<VARIANCE> 39
 1.050274e+01 2.707200e+01 2.500873e+01 1.758074e+01 2.993169e+01 2.537814e+01 1.970405e+01 2.807337e+01 2.861758e+01 2.848541e+01 1.365050e+01 3.123040e+01 9.607535e+00 3.580794e-01 1.303886e+00 1.450959e+00 8.383083e-01 1.688228e+00 1.421535e+00 1.491849e+00 1.800324e+00 1.622365e+00 1.858334e+00 8.815466e-01 1.133736e+00 5.555869e-01 8.326310e-02 2.629277e-01 2.390701e-01 2.306469e-01 3.511476e-01 3.818203e-01 2.622243e-01 3.828408e-01 3.482413e-01 4.289074e-01 1.885837e-01 2.231069e-01 1.546806e-01
<GCONST> 9.523223e+01
<STATE> 4
<MEAN> 39
 7.241791e+00 -1.055637e+01 2.179936e+00 1.911452e+01 -1.584886e+01 2.195257e+01 -3.366027e+00 -6.214085e+00 7.834649e+00 -5.143017e+00 -4.819362e+00 1.436909e+00 6.790777e+01 -2.305819e-01 -3.836839e-01 -1.065816e-01 -1.202361e-01 -2.114436e-02 6.444987e-03 -9.224720e-03 2.461620e-01 -2.603814e-02 -3.702480e-01 -1.590176e-02 3.723251e-01 -6.270088e-02 1.529428e-01 -2.321280e-01 -1.331247e-01 -5.288430e-02 7.814540e-02 -7.988232e-02 -1.686156e-01 -1.235002e-01 -1.136393e-01 -3.255401e-01 1.988388e-02 -3.142957e-03 3.050636e-01
<VARIANCE> 39
 2.622038e+01 2.113964e+01 1.191196e+01 1.371211e+01 1.697031e+01 1.697898e+01 3.233950e+01 2.928742e+01 2.275443e+01 2.403267e+01 1.290129e+01 3.088929e+01 1.980791e+01 6.257873e-01 1.426378e+00 9.938232e-01 1.174565e+00 1.139036e+00 1.243266e+00 1.627139e+00 1.344270e+00 1.577033e+00 2.563514e+00 1.086095e+00 1.120665e+00 1.070039e+00 1.102963e-01 1.778437e-01 1.682951e-01 1.982582e-01 1.980428e-01 2.638231e-01 3.042265e-01 3.069577e-01 3.042658e-01 3.891164e-01 2.131403e-01 2.164073e-01 1.720062e-01
<GCONST> 9.409364e+01
<TRANSP> 5
 0.000000e+00 1.000000e+00 0.000000e+00 0.000000e+00 0.000000e+00
 0.000000e+00 6.459870e-01 3.540130e-01 0.000000e+00 0.000000e+00
 0.000000e+00 0.000000e+00 4.280089e-01 5.719911e-01 0.000000e+00
 0.000000e+00 0.000000e+00 0.000000e+00 8.482571e-01 1.517429e-01
 0.000000e+00 0.000000e+00 0.000000e+00 0.000000e+00 0.000000e+00
<ENDHMM>
~h "y"
<BEGINHMM>
<NUMSTATES> 5
<STATE> 2
<MEAN> 39
 5.347589e+00 -1.804666e+01 -1.567124e+00 1.739678e+01 -1.460522e+01 1.758631e+01 -9.565764e+00 -9.272255e+00 6.136294e+00 -7.229272e+00 -3.332109e+00 2.350428e+00 7.039869e+01 -1.708189e-01 -1.111115e-01 -9.680724e-02 2.235983e-03 1.863035e-01 -1.563403e-01 -4.111308e-01 -1.316674e-01 2.805503e-02 2.906898e-02 -4.778515e-02 -4.541314e-02 -1.257706e-01 6.625034e-02 2.229450e-02 -5.599217e-02 -1.104590e-01 -1.066452e-01 1.169801e-01 1.608760e-01 3.692541e-03 -4.799919e-02 -6.453427e-02 -1.822892e-02 -5.684799e-03 3.687626e-02
<VARIANCE> 39
 5.213149e+01 2.816426e+01 5.682744e+01 4.509267e+01 4.392470e+01 2.811009e+01 3.569256e+01 2.710297e+01 2.455164e+01 3.569641e+01 2.086560e+01 3.257751e+01 8.673210e+01 4.180237e-01 8.230721e-01 1.707914e+00 1.729248e+00 1.606195e+00 1.532326e+00 1.622671e+00 1.487431e+00 1.698586e+00 1.556052e+00 1.243595e+00 1.583702e+00 4.071053e-01 8.059757e-02 1.397681e-01 2.308370e-01 2.302670e-01 2.936028e-01 3.198402e-01 2.827621e-01 3.109922e-01 3.162925e-01 2.667807e-01 2.756956e-01 2.854902e-01 7.649379e-02
<GCONST> 1.013180e+02
<STATE> 3
<MEAN> 39
 8.884501e+00 -1.812541e+01 1.442067e+00 1.960203e+01 -1.071763e+01 1.753715e+01 -1.356340e+01 -1.115892e+01 7.535142e+00 -1.018287e+01 -1.963394e+00 8.522796e-01 7.575220e+01 3.066608e-01 -2.850216e-02 -4.370166e-01 -4.153740e-01 3.411181e-02 5.751645e-01 2.583653e-01 -3.531126e-01 -3.839209e-01 -2.804949e-01 3.052384e-02 9.953202e-02 2.263215e-01 1.465840e-01 5.141980e-02 1.727856e-02 -1.184006e-01 -2.902087e-01 2.772536e-01 4.979568e-01 2.095701e-01 -3.428381e-02 -1.599712e-01 -8.897856e-02 -1.289388e-02 7.340892e-02
<VARIANCE> 39
 6.454468e+01 2.921944e+01 4.457773e+01 4.602109e+01 4.137228e+01 3.490538e+01 2.533837e+01 2.901744e+01 2.758859e+01 3.687269e+01 2.351418e+01 4.001748e+01 8.598995e+01 8.180071e-01 1.245826e+00 2.850121e+00 2.838416e+00 2.822667e+00 2.239684e+00 2.155520e+00 1.917201e+00 2.310984e+00 1.886927e+00 1.808284e+00 1.991019e+00 9.497893e-01 2.126852e-01 3.004435e-01 3.586704e-01 4.379489e-01 5.377536e-01 4.142548e-01 3.973748e-01 3.927392e-01 3.733729e-01 4.027883e-01 3.505833e-01 3.115055e-01 2.790812e-01
<GCONST> 1.136760e+02
<STATE> 4
<MEAN> 39
 6.847264e+00 -1.754225e+01 4.346949e-01 1.781121e+01 -1.292273e+01 1.793788e+01 -1.097952e+01 -9.507122e+00 6.490494e+00 -1.004009e+01 -2.626651e+00 1.855012e+00 7.293385e+01 1.156805e+00 -2.343916e-01 -1.677611e-01 -7.820243e-02 -2.235583e-01 8.312891e-01 5.927995e-01 -1.044604e-01 -1.001110e-01 -9.278669e-01 -1.598444e-01 4.118412e-02 1.094012e+00 1.859446e-02 1.896852e-01 1.445442e-02 -5.289845e-02 -1.574287e-01 -6.661485e-02 1.859348e-01 2.320624e-01 8.892281e-02 -1.676678e-02 -9.949575e-02 -9.414282e-02 -7.189228e-02
<VARIANCE> 39
 8.636982e+01 2.940808e+01 4.853129e+01 4.962126e+01 6.534363e+01 4.360007e+01 3.934518e+01 3.822606e+01 4.030260e+01 4.686657e+01 2.213248e+01 3.135948e+01 1.091591e+02 3.476321e+00 3.872475e+00 5.008914e+00 5.348501e+00 5.248643e+00 3.108103e+00 3.485972e+00 3.012102e+00 2.761727e+00 2.856877e+00 1.861457e+00 2.067065e+00 4.182981e+00 4.340509e-01 4.398234e-01 6.543955e-01 7.011207e-01 9.143192e-01 5.206031e-01 6.451821e-01 5.154848e-01 4.975218e-01 6.267858e-01 3.135494e-01 3.811895e-01 4.655949e-01
<GCONST> 1.288966e+02
<TRANSP> 5
 0.000000e+00 1.000000e+00 0.000000e+00 0.000000e+00 0.000000e+00
 0.000000e+00 7.640523e-01 2.359477e-01 0.000000e+00 0.000000e+00
 0.000000e+00 0.000000e+00 2.825208e-01 7.174792e-01 0.000000e+00
 0.000000e+00 0.000000e+00 0.000000e+00 4.228763e-01 5.771237e-01
 0.000000e+00 0.000000e+00 0.000000e+00 0.000000e+00 0.000000e+00
<ENDHMM>
~h "z"
<BEGINHMM>
<NUMSTATES> 5
<STATE> 2
<MEAN> 39
 1.152950e+01 -1.713374e+01 5.878098e+00 1.796137e+01 -1.424481e+01 2.242715e+01 -6.443181e+00 -7.590398e+00 8.064257e+00 -1.596406e+01 -7.321023e+00 -3.498666e+00 7.936062e+01 -1.223190e-01 -2.759057e-01 1.222916e+00 -4.943560e-01 -5.512688e-01 4.268791e-01 6.550461e-01 -1.502721e-02 -3.520670e-01 -5.201722e-01 -1.588235e-01 -4.267724e-01 6.476902e-01 -5.191187e-01 -1.341809e-01 7.234244e-01 -2.562679e-01 -3.938775e-01 1.522360e-01 2.156368e-01 1.283553e-01 -3.129672e-02 4.283899e-01 2.364626e-01 2.443405e-01 -2.502166e-01
<VARIANCE> 39
 7.479675e+00 2.024892e+01 2.628431e+01 3.838640e+01 7.968792e+01 4.924519e+01 4.161924e+01 5.153780e+01 3.067078e+01 2.716234e+01 4.526646e+01 2.840899e+01 7.008171e+00 2.070442e+00 2.451910e+00 6.343315e+00 2.377964e+00 5.418506e+00 4.233148e+00 3.065563e+00 2.841671e+00 2.308542e+00 3.385644e+00 3.697932e+00 2.627189e+00 1.347850e+00 2.048712e-01 5.555613e-01 9.275274e-01 6.031340e-01 8.918173e-01 7.872984e-01 3.938854e-01 4.539747e-01 4.338551e-01 4.302048e-01 6.464825e-01 4.000378e-01 1.469285e-01
<GCONST> 1.198777e+02
<STATE> 3
<MEAN> 39
 8.170513e+00 -1.907010e+01 1.435529e+01 1.478342e+01 -1.961747e+01 2.476099e+01 -2.213203e+00 -5.454982e+00 7.037680e+00 -1.529898e+01 -6.297530e+00 -2.497951e+00 7.974589e+01 -1.788820e+00 -8.222989e-01 3.462764e+00 -1.100857e+00 -1.233494e+00 7.025090e-01 8.481890e-01 4.688502e-01 1.581252e-03 8.562509e-01 5.750338e-01 6.552531e-01 -2.619389e-02 -1.600098e-01 -1.075082e-01 -8.888295e-02 -3.061743e-02 2.759635e-01 -1.880080e-02 -1.991755e-01 -1.198605e-01 4.758219e-02 1.449833e-01 6.235086e-02 2.089041e-01 -4.326766e-02
<VARIANCE> 39
 2.279493e+01 2.775833e+01 6.662772e+01 2.826849e+01 4.330530e+01 3.299861e+01 3.757202e+01 4.059708e+01 2.984570e+01 2.773472e+01 7.333527e+01 5.525164e+01 2.928372e+00 1.579434e+00 1.567329e+00 5.372763e+00 1.405418e+00 2.436899e+00 3.425728e+00 2.701625e+00 2.062823e+00 2.196613e+00 2.274647e+00 3.318173e+00 2.178576e+00 3.166379e-01 3.122480e-01 2.617781e-01 1.205305e+00 2.975487e-01 4.314846e-01 6.108115e-01 5.319908e-01 3.629466e-01 3.132642e-01 4.696719e-01 6.824947e-01 4.347783e-01 5.014661e-02
<GCONST> 1.129360e+02
<STATE> 4
<MEAN> 39
 2.654883e+00 -2.250546e+01 2.051412e+01 9.859176e+00 -2.051946e+01 2.730366e+01 -1.972033e+00 -5.910313e+00 7.352929e+00 -1.315238e+01 -5.735794e+00 7.438244e-01 7.949141e+01 3.733551e-01 3.104874e-02 -1.092664e+00 1.752525e-01 3.363596e-01 -3.078989e-01 -3.816769e-01 -1.414322e-01 2.159481e-02 -1.810350e-01 -1.396366e-01 1.370497e-01 -5.196128e-02 4.100653e-01 2.459970e-01 -6.969725e-01 1.956404e-01 1.105416e-01 -2.297634e-01 -1.333053e-01 -3.277595e-02 6.359735e-02 -1.495537e-01 -6.146945e-02 -9.124927e-02 9.329208e-03
<VARIANCE> 39
 3.506081e+01 3.624416e+01 7.089732e+01 3.868716e+01 2.949006e+01 3.174323e+01 3.292751e+01 3.721328e+01 3.333131e+01 2.749306e+01 3.126217e+01 2.724105e+01 8.400115e+00 4.339258e+00 3.168543e+00 9.669530e+00 2.363345e+00 2.747340e+00 3.470104e+00 3.017366e+00 2.510592e+00 1.843641e+00 2.926823e+00 2.707073e+00 2.537430e+00 8.394600e-01 4.739912e-01 4.821214e-01 1.077532e+00 3.640685e-01 5.046643e-01 5.568895e-01 5.426415e-01 4.221002e-01 3.590978e-01 5.302042e-01 5.158326e-01 4.511080e-01 1.248799e-01
<GCONST> 1.195053e+02
<TRANSP> 5
 0.000000e+00 1.000000e+00 0.000000e+00 0.000000e+00 0.000000e+00
 0.000000e+00 6.162863e-01 3.837138e-01 0.000000e+00 0.000000e+00
 0.000000e+00 0.000000e+00 6.992344e-01 3.007656e-01 0.000000e+00
 0.000000e+00 0.000000e+00 0.000000e+00 8.838214e-01 1.161786e-01
 0.000000e+00 0.000000e+00 0.000000e+00 0.000000e+00 0.000000e+00
<ENDHMM>
~h "ch"
<BEGINHMM>
<NUMSTATES> 5
<STATE> 2
<MEAN> 39
 4.886289e+00 -2.036858e+01 6.718523e+00 1.906246e+01 -1.574112e+01 1.934774e+01 -4.562518e+00 -5.234613e+00 5.557535e+00 -8.063010e+00 -3.108384e+00 4.142386e+00 7.272054e+01 -2.199282e+00 -3.290748e+00 2.583701e+00 -6.745619e-01 -6.098934e-01 -1.213189e+00 5.991755e-01 8.909076e-01 -1.750988e-02 6.869709e-02 -6.514610e-01 7.726735e-01 1.171317e+00 -2.549390e-01 -1.008752e+00 2.451728e-01 -2.526298e-01 -3.668763e-02 -3.061500e-02 -4.296959e-01 -3.809245e-01 2.526198e-01 -2.047109e-01 -9.530006e-02 1.868270e-02 7.657672e-01
<VARIANCE> 39
 2.420294e+01 4.278938e+01 5.343365e+01 3.897684e+01 4.126168e+01 3.103110e+01 4.171244e+01 3.090769e+01 3.004713e+01 3.013009e+01 3.011565e+01 2.362106e+01 2.528296e+01 1.903702e+00 6.180408e+00 4.914323e+00 3.153201e+00 2.665458e+00 3.305870e+00 3.599415e+00 2.885134e+00 2.498931e+00 3.112902e+00 2.410890e+00 2.455492e+00 3.669413e+00 2.390376e-01 9.546456e-01 1.005899e+00 6.191807e-01 5.362282e-01 5.536692e-01 6.585164e-01 5.870968e-01 5.267711e-01 5.056254e-01 5.330414e-01 3.783710e-01 4.710283e-01
<GCONST> 1.242431e+02
<STATE> 3
<MEAN> 39
 -4.242865e+00 -3.680406e+01 1.661519e+01 1.696351e+01 -1.784364e+01 1.552511e+01 -6.489212e+00 -5.824308e+00 7.376542e+00 -8.429239e+00 -4.569089e+00 7.222717e+00 8.072205e+01 -1.347686e+00 -3.492232e+00 3.897099e-01 -4.241911e-01 -1.070300e-01 -7.993081e-02 -8.001952e-01 -1.041820e+00 3.920887e-01 5.374479e-01 5.658247e-02 4.718183e-01 1.629816e+00 8.161435e-01 1.070076e+00 -1.180188e+00 1.227858e-02 2.767465e-01 5.182500e-01 5.550009e-02 -3.064979e-01 -2.888196e-01 1.168975e-01 2.429827e-01 -2.253779e-01 -5.345560e-01
<VARIANCE> 39
 1.643220e+01 2.592600e+01 3.033395e+01 2.497853e+01 3.648420e+01 2.989112e+01 3.121175e+01 3.423827e+01 2.370702e+01 2.323387e+01 2.244702e+01 2.165471e+01 9.798743e+00 2.072268e+00 4.493650e+00 5.095391e+00 2.035643e+00 2.321868e+00 1.989307e+00 2.782416e+00 2.550033e+00 2.008755e+00 1.689388e+00 1.611953e+00 1.433728e+00 2.015330e+00 2.624229e-01 8.517112e-01 5.744298e-01 3.705253e-01 4.531049e-01 3.533696e-01 5.494477e-01 5.198732e-01 3.836173e-01 3.668059e-01 3.395917e-01 3.372244e-01 3.490343e-01
<GCONST> 1.126200e+02
<STATE> 4
<MEAN> 39
 -1.906682e+00 -3.832574e+01 9.293426e+00 1.453912e+01 -1.574489e+01 1.859016e+01 -6.574990e+00 -1.043476e+01 5.237476e+00 -6.544910e+00 -4.137413e+00 6.427862e+00 8.095239e+01 1.960312e+00 2.254023e+00 -1.786100e+00 7.047712e-02 4.610122e-01 8.412282e-01 3.558476e-01 -4.524207e-01 -5.552693e-01 -6.339623e-01 3.118710e-01 -7.009154e-01 -5.345595e-01 5.995721e-01 1.095803e+00 1.466922e-02 3.394439e-01 -6.415218e-02 1.521059e-02 1.552812e-02 3.007531e-01 2.467854e-01 -3.993066e-01 -1.902096e-02 -3.703648e-01 -1.575116e-01
<VARIANCE> 39
 1.850631e+01 3.494692e+01 2.861842e+01 1.770891e+01 2.575560e+01 2.244871e+01 2.795322e+01 2.060532e+01 2.178399e+01 1.957740e+01 2.060547e+01 1.899013e+01 8.871549e+00 3.214016e+00 7.106787e+00 1.843495e+00 2.949065e+00 3.189491e+00 2.270128e+00 2.155175e+00 2.404498e+00 2.033656e+00 2.938957e+00 1.550241e+00 2.160203e+00 1.230736e+00 3.927304e-01 1.002641e+00 4.432304e-01 4.031480e-01 4.860410e-01 4.299157e-01 4.194043e-01 3.966236e-01 5.083163e-01 4.684976e-01 3.035791e-01 3.901013e-01 4.203727e-01
<GCONST> 1.125035e+02
<TRANSP> 5
 0.000000e+00 1.000000e+00 0.000000e+00 0.000000e+00 0.000000e+00
 0.000000e+00 7.168109e-01 2.831891e-01 0.000000e+00 0.000000e+00
 0.000000e+00 0.000000e+00 6.801681e-01 3.198320e-01 0.000000e+00
 0.000000e+00 0.000000e+00 0.000000e+00 7.868924e-01 2.131076e-01
 0.000000e+00 0.000000e+00 0.000000e+00 0.000000e+00 0.000000e+00
<ENDHMM>
~h "gh"
<BEGINHMM>
<NUMSTATES> 5
<STATE> 2
<MEAN> 39
 1.406495e+01 -1.499007e+01 3.025667e-01 1.552277e+01 -1.854168e+01 1.252022e+01 -8.660047e+00 -4.691772e+00 1.376773e+01 -1.427415e+01 -1.012137e+01 -3.994546e+00 8.022023e+01 2.744734e-01 8.294744e-01 -2.037390e-01 -3.359442e-02 -3.663770e-01 -1.103012e+00 -1.182150e-01 3.669211e-01 6.210054e-01 8.465044e-01 1.332092e-01 -6.030383e-01 -1.482912e-01 -1.695762e-01 -6.903410e-02 9.806903e-02 6.138548e-02 1.086911e-01 1.409270e-01 1.986027e-01 -4.701966e-02 -4.119969e-01 1.275734e-01 2.854566e-01 2.922615e-01 -1.908680e-01
<VARIANCE> 39
 5.053998e+00 1.787254e+01 1.598932e+01 4.585129e+01 8.815604e+01 8.088539e+01 3.216946e+01 5.792141e+01 5.150380e+01 2.270373e+01 4.236654e+01 4.241482e+01 6.992549e+00 3.322146e-01 9.060807e-01 6.782172e-01 1.189345e+00 2.440845e+00 3.852814e+00 1.170314e+00 1.383704e+00 1.817847e+00 3.027063e+00 1.766025e+00 1.126671e+00 3.121117e-01 8.372858e-02 2.618908e-01 7.779197e-02 3.424672e-01 5.934668e-01 4.640779e-01 2.718379e-01 3.144000e-01 3.247230e-01 2.969934e-01 3.941355e-01 4.162890e-01 4.719089e-02
<GCONST> 9.982543e+01
<STATE> 3
<MEAN> 39
 1.445598e+01 -1.155191e+01 1.200773e+00 1.573712e+01 -2.113921e+01 8.188992e+00 -8.366643e+00 -2.786928e+00 1.585930e+01 -1.149457e+01 -9.691460e+00 -5.093039e+00 7.906445e+01 -3.305003e-03 5.352067e-01 1.082889e-01 9.307936e-02 6.420477e-02 -2.388035e-01 1.798626e-02 4.862992e-02 -2.029091e-01 2.501153e-01 2.395111e-01 -7.467754e-03 -3.093879e-01 -2.823427e-02 -1.286492e-01 6.206981e-03 -9.344157e-03 5.042882e-02 3.145755e-01 5.839896e-02 -9.920884e-02 -1.796749e-01 -1.941472e-01 -4.732560e-02 7.666275e-02 -9.965874e-03
<VARIANCE> 39
 3.029169e+00 2.329019e+01 1.724202e+01 3.711297e+01 6.761349e+01 1.034928e+02 3.584346e+01 6.061972e+01 5.895105e+01 2.805200e+01 2.911165e+01 3.422687e+01 5.597144e+00 1.593179e-01 5.823390e-01 4.735356e-01 1.153566e+00 1.321474e+00 1.901028e+00 8.240251e-01 1.215814e+00 1.112900e+00 1.303784e+00 1.044163e+00 1.037303e+00 1.603136e-01 3.725727e-02 9.574487e-02 7.958943e-02 1.934886e-01 2.583954e-01 2.899876e-01 1.686502e-01 1.887112e-01 2.408768e-01 2.286009e-01 1.802329e-01 1.722659e-01 2.608467e-02
<GCONST> 8.566544e+01
<STATE> 4
<MEAN> 39
 1.478545e+01 -1.112023e+01 -1.937724e-01 1.474296e+01 -2.141278e+01 9.387595e+00 -4.771083e+00 -1.097854e+00 1.184349e+01 -1.469245e+01 -1.035510e+01 -4.404884e+00 7.830228e+01 -4.266088e-02 -1.627484e-01 -1.125862e-01 1.005213e-01 3.187529e-01 8.253117e-01 3.771904e-01 -4.155750e-01 -7.221912e-01 -1.754455e-01 3.853280e-02 1.974165e-01 -1.275596e-01 -3.831048e-02 -3.175139e-02 1.036086e-02 1.585233e-02 9.701800e-03 6.625770e-02 2.660527e-02 -4.675971e-02 -1.704300e-02 8.533167e-02 2.807252e-02 7.793982e-02 -3.307476e-02
<VARIANCE> 39
 2.380884e+00 1.572970e+01 1.826581e+01 2.557339e+01 5.338385e+01 8.723183e+01 2.747558e+01 5.473550e+01 5.068809e+01 2.982955e+01 3.184175e+01 4.119727e+01 7.369025e+00 2.126514e-01 8.374197e-01 1.002496e+00 1.300855e+00 2.634233e+00 4.097466e+00 1.765551e+00 1.971155e+00 1.937989e+00 1.488292e+00 1.390298e+00 1.621415e+00 4.303501e-01 3.997933e-02 1.515767e-01 1.549508e-01 1.949671e-01 4.847726e-01 7.137820e-01 2.922066e-01 3.972956e-01 4.024250e-01 3.084262e-01 2.405610e-01 2.485702e-01 7.886862e-02
<GCONST> 9.763775e+01
<TRANSP> 5
 0.000000e+00 1.000000e+00 0.000000e+00 0.000000e+00 0.000000e+00
 0.000000e+00 2.377219e-01 7.622781e-01 0.000000e+00 0.000000e+00
 0.000000e+00 0.000000e+00 7.430974e-01 2.569026e-01 0.000000e+00
 0.000000e+00 0.000000e+00 0.000000e+00 7.994193e-01 2.005807e-01
 0.000000e+00 0.000000e+00 0.000000e+00 0.000000e+00 0.000000e+00
<ENDHMM>
~h "oe"
<BEGINHMM>
<NUMSTATES> 5
<STATE> 2
<MEAN> 39
 1.192947e+01 -1.938867e+01 7.858686e-01 1.727011e+01 -1.004786e+01 2.179069e+01 -1.173677e+01 -1.022144e+01 5.618671e+00 -1.893900e+01 -4.399146e+00 1.529464e+00 7.992179e+01 1.071125e+00 2.736003e-01 -1.202082e+00 -9.372349e-01 -2.593772e-01 -3.292353e-01 -2.603857e-01 -3.405702e-01 -1.212435e-01 -2.073542e+00 -9.740912e-01 -4.137491e-01 1.202080e+00 -1.876104e-01 1.144141e-01 1.069183e-01 -1.388108e-01 -4.444369e-01 -6.312492e-02 2.885711e-01 3.118821e-01 1.712742e-01 4.692295e-01 9.100010e-02 1.347693e-01 -3.527608e-01
<VARIANCE> 39
 5.304105e+00 1.496080e+01 1.551989e+01 2.659229e+01 4.559027e+01 2.523903e+01 1.786330e+01 2.623948e+01 3.270680e+01 2.437773e+01 2.323816e+01 1.348728e+01 1.453343e+01 7.314270e-01 2.398126e+00 1.588426e+00 2.059490e+00 2.730906e+00 2.513093e+00 1.878531e+00 2.181980e+00 2.728436e+00 3.296188e+00 2.098101e+00 1.629973e+00 1.031039e+00 1.970911e-01 6.669188e-01 3.526782e-01 3.470273e-01 5.694413e-01 4.486991e-01 2.792493e-01 4.577998e-01 5.770455e-01 6.256278e-01 3.032103e-01 2.742812e-01 2.022556e-01
<GCONST> 1.062627e+02
<STATE> 3
<MEAN> 39
 1.346095e+01 -1.855428e+01 -9.071229e-01 1.406882e+01 -1.276947e+01 2.090665e+01 -1.119215e+01 -9.465367e+00 6.315629e+00 -2.162379e+01 -6.286540e+00 1.192570e+00 8.120720e+01 3.291966e-01 5.148370e-01 -3.628518e-01 -6.023512e-01 -8.402264e-01 -3.522459e-01 4.401671e-01 6.934187e-01 3.683646e-01 -3.093428e-01 -2.557981e-01 1.029665e-01 -1.166444e-01 -2.355291e-01 1.033801e-01 1.950059e-01 3.008537e-01 1.187339e-01 3.351102e-02 1.913616e-01 1.473927e-01 -3.749743e-02 6.082449e-01 2.239023e-01 9.393357e-02 -4.195524e-01
<VARIANCE> 39
 3.440662e+00 1.091020e+01 1.300884e+01 1.767373e+01 4.231416e+01 2.423860e+01 1.219929e+01 2.365918e+01 1.949634e+01 1.934615e+01 2.189010e+01 1.603913e+01 9.365992e+00 3.501748e-01 1.088734e+00 1.131748e+00 1.988204e+00 2.613310e+00 1.596059e+00 1.180112e+00 1.224194e+00 1.540522e+00 2.129225e+00 1.612218e+00 1.087249e+00 1.010375e+00 1.064049e-01 2.658155e-01 2.593042e-01 2.410659e-01 4.660725e-01 3.420304e-01 2.317096e-01 2.576234e-01 3.430693e-01 4.429505e-01 2.679357e-01 2.170328e-01 1.486128e-01
<GCONST> 9.314361e+01
<STATE> 4
<MEAN> 39
 1.388771e+01 -1.564103e+01 -2.875389e+00 1.408877e+01 -1.304125e+01 2.021977e+01 -9.020826e+00 -7.132112e+00 6.425767e+00 -2.015696e+01 -5.745035e+00 3.108900e+00 7.853989e+01 -1.236504e-01 4.192309e-01 -2.737451e-01 4.911506e-01 4.531224e-01 1.469448e-02 3.974408e-01 -1.118416e-02 -3.160857e-01 8.249297e-01 2.519497e-01 1.939936e-01 -5.784196e-01 -1.014291e-01 -6.311138e-02 1.367985e-01 9.309742e-02 2.648032e-02 8.897133e-02 1.612425e-02 -1.718935e-01 -1.082492e-01 1.607463e-01 4.559675e-02 -7.849206e-02 -3.874207e-02
<VARIANCE> 39
 5.123771e+00 9.539397e+00 1.843814e+01 2.118345e+01 4.740997e+01 2.783314e+01 1.308143e+01 2.576163e+01 1.887797e+01 3.727591e+01 1.914922e+01 2.015228e+01 1.346989e+01 4.286475e-01 9.678853e-01 1.314367e+00 1.494665e+00 2.664407e+00 1.770619e+00 1.415516e+00 1.269816e+00 1.446371e+00 2.565115e+00 1.413180e+00 1.217656e+00 1.116676e+00 8.017604e-02 2.101366e-01 3.246426e-01 3.066744e-01 4.580249e-01 3.461234e-01 2.612002e-01 2.282521e-01 3.029608e-01 4.704479e-01 2.750284e-01 2.274231e-01 1.474706e-01
<GCONST> 9.586279e+01
<TRANSP> 5
 0.000000e+00 1.000000e+00 0.000000e+00 0.000000e+00 0.000000e+00
 0.000000e+00 5.665175e-01 4.334826e-01 0.000000e+00 0.000000e+00
 0.000000e+00 0.000000e+00 6.093647e-01 3.906353e-01 0.000000e+00
 0.000000e+00 0.000000e+00 0.000000e+00 8.375071e-01 1.624929e-01
 0.000000e+00 0.000000e+00 0.000000e+00 0.000000e+00 0.000000e+00
<ENDHMM>
~h "sh"
<BEGINHMM>
<NUMSTATES> 5
<STATE> 2
<MEAN> 39
 1.573627e-01 -3.417654e+01 1.271886e+01 1.964968e+01 -1.084356e+01 2.313798e+01 -4.503264e+00 -6.943669e+00 7.646862e+00 -7.903203e+00 -3.361961e+00 6.967608e+00 8.062984e+01 -2.250973e+00 -3.476566e+00 1.192853e+00 -5.143818e-01 -5.378428e-01 -5.957652e-01 2.300812e-01 -3.062366e-01 -3.221836e-01 1.175101e-01 -8.671166e-01 8.308414e-01 9.806561e-01 3.171434e-01 5.849881e-01 -6.073091e-01 -8.675212e-02 -1.866383e-01 -3.220137e-01 -3.678019e-01 -1.935637e-01 9.259315e-02 -1.875573e-01 -1.385275e-01 -2.704687e-01 -1.680996e-01
<VARIANCE> 39
 1.521679e+01 3.943765e+01 2.081282e+01 1.554000e+01 2.414270e+01 2.449887e+01 3.170372e+01 2.367165e+01 2.270422e+01 1.766935e+01 2.306092e+01 2.012654e+01 8.736564e+00 9.738519e-01 3.641026e+00 2.800990e+00 1.297961e+00 1.729879e+00 2.500465e+00 2.275476e+00 2.195659e+00 1.887944e+00 1.483345e+00 1.611243e+00 1.584722e+00 5.117831e-01 1.549448e-01 6.116325e-01 3.593288e-01 2.504456e-01 2.774116e-01 5.035738e-01 3.813334e-01 3.468238e-01 3.416606e-01 3.218336e-01 4.280376e-01 2.910141e-01 1.366974e-01
<GCONST> 1.030496e+02
<STATE> 3
<MEAN> 39
 -4.756226e+00 -4.067951e+01 1.157978e+01 1.688879e+01 -1.410463e+01 1.951956e+01 -5.517062e+00 -9.379992e+00 6.348253e+00 -7.568199e+00 -5.761697e+00 7.786242e+00 8.127420e+01 2.055174e-01 6.213734e-01 -7.400507e-01 -4.302751e-01 -3.751332e-01 -2.459609e-01 -9.266521e-02 -5.560195e-02 -3.406712e-01 1.417913e-01 2.304070e-01 -2.405431e-01 -7.476586e-01 5.761871e-01 8.575114e-01 -2.076668e-01 1.634486e-01 6.959505e-02 2.068037e-01 6.743348e-02 1.238821e-01 2.125549e-02 -1.442587e-02 1.567767e-01 -2.328638e-01 -2.781238e-01
<VARIANCE> 39
 7.962139e+00 8.245032e+00 2.443029e+01 1.415312e+01 1.974841e+01 2.344374e+01 2.643855e+01 2.602757e+01 2.361716e+01 1.721169e+01 2.074576e+01 1.757309e+01 7.644270e+00 1.883569e+00 3.385632e+00 1.933520e+00 1.283264e+00 1.650821e+00 1.678193e+00 1.559470e+00 1.486948e+00 1.288910e+00 1.282506e+00 1.389442e+00 1.466679e+00 6.228873e-01 1.747162e-01 3.131973e-01 2.985832e-01 2.672578e-01 2.501469e-01 2.987575e-01 2.989844e-01 2.586496e-01 2.678364e-01 3.147441e-01 2.848973e-01 2.953304e-01 8.574732e-02
<GCONST> 9.568958e+01
<STATE> 4
<MEAN> 39
 6.473803e-01 -2.750683e+01 4.869945e+00 1.649667e+01 -1.619685e+01 1.952602e+01 -5.538433e+00 -8.668674e+00 4.353376e+00 -6.969182e+00 -4.729494e+00 4.484380e+00 7.278865e+01 1.554004e+00 2.636967e+00 -9.721763e-01 4.999143e-01 -3.790717e-01 8.665681e-02 2.928273e-02 1.757970e-01 2.892575e-01 -6.498043e-02 9.176926e-02 -8.810883e-01 -8.895978e-01 1.574996e-01 4.202417e-02 3.396279e-02 4.336835e-02 -3.175984e-02 4.685817e-02 -5.444064e-02 -8.027855e-02 1.446828e-01 -2.273992e-01 -5.552118e-02 -7.861526e-02 3.239989e-01
<VARIANCE> 39
 3.131116e+01 7.642471e+01 5.896028e+01 2.694453e+01 2.855255e+01 2.341121e+01 2.278635e+01 2.397650e+01 1.995490e+01 2.618879e+01 1.866525e+01 2.084386e+01 3.787391e+01 3.745202e+00 5.533095e+00 1.817245e+00 1.942959e+00 1.977033e+00 1.636124e+00 1.723092e+00 1.605994e+00 1.587050e+00 2.705079e+00 1.276359e+00 1.923471e+00 1.201206e+00 2.738968e-01 5.116563e-01 2.900245e-01 3.362530e-01 4.113995e-01 3.011296e-01 2.816397e-01 2.928604e-01 3.295439e-01 4.511034e-01 2.456495e-01 2.820960e-01 1.880529e-01
<GCONST> 1.093932e+02
<TRANSP> 5
 0.000000e+00 1.000000e+00 0.000000e+00 0.000000e+00 0.000000e+00
 0.000000e+00 7.763504e-01 2.236497e-01 0.000000e+00 0.000000e+00
 0.000000e+00 0.000000e+00 8.150939e-01 1.849061e-01 0.000000e+00
 0.000000e+00 0.000000e+00 0.000000e+00 6.650864e-01 3.349135e-01
 0.000000e+00 0.000000e+00 0.000000e+00 0.000000e+00 0.000000e+00
<ENDHMM>
~h "ue"
<BEGINHMM>
<NUMSTATES> 5
<STATE> 2
<MEAN> 39
 8.519234e+00 -2.095917e+01 3.378977e+00 1.970463e+01 -9.262809e+00 2.215589e+01 -1.173136e+01 -8.631524e+00 8.856411e+00 -1.217635e+01 -4.114074e+00 2.621302e+00 7.638281e+01 1.406990e+00 7.718368e-01 -5.419071e-01 1.111831e+00 1.348782e+00 3.711499e-03 -1.107335e+00 -4.440281e-01 5.739380e-01 -1.226126e+00 -3.144373e-02 -3.716097e-01 9.181787e-01 -1.008469e-01 1.165192e-01 1.135494e-01 -9.467363e-02 -2.297531e-01 2.844638e-02 1.829933e-01 -6.963671e-02 -4.246614e-02 2.022922e-01 1.157170e-01 2.503199e-02 -7.653342e-02
<VARIANCE> 39
 1.867607e+01 4.183908e+01 3.138011e+01 2.616634e+01 3.723886e+01 3.945998e+01 3.374426e+01 3.315301e+01 2.499958e+01 3.362008e+01 2.376377e+01 1.381547e+01 1.491492e+01 2.372625e+00 9.498880e+00 2.879481e+00 2.856056e+00 3.256105e+00 3.165179e+00 2.789916e+00 2.746359e+00 2.366527e+00 3.376749e+00 1.967673e+00 2.573174e+00 2.093511e+00 2.666185e-01 7.999650e-01 3.695921e-01 4.721692e-01 5.131116e-01 5.032865e-01 4.743630e-01 5.383596e-01 3.259132e-01 5.406131e-01 2.783402e-01 2.898759e-01 2.690767e-01
<GCONST> 1.170463e+02
<STATE> 3
<MEAN> 39
