~o
<STREAMINFO> 1 39
<VECSIZE> 39<NULLD><MFCC_D_A_0><DIAGC>
~s "silst"
<MEAN> 39
 -2.192255e+01 -4.812896e+00 -9.574780e+00 6.049745e+00 -1.214860e+01 7.529573e+00 -6.860217e+00 4.181895e-01 -1.262343e+00 -3.257189e-01 -2.213988e+00 1.107417e+00 4.121076e+01 -7.358451e-02 -5.564809e-02 -1.554462e-02 9.475093e-03 -2.559162e-02 -5.977270e-02 -3.630825e-02 1.781740e-02 2.316211e-02 1.884533e-02 -1.112995e-02 -4.048437e-02 -3.653599e-02 1.260446e-02 5.549009e-03 -9.971485e-03 -2.765983e-02 -2.315530e-02 1.006509e-02 -3.188642e-03 -1.795451e-02 -1.216434e-02 -1.037376e-02 2.030929e-02 2.484295e-02 7.242576e-03
<VARIANCE> 39
 1.921439e+02 7.033111e+01 1.778170e+01 2.991882e+01 3.669064e+01 4.780758e+01 1.008795e+01 2.949587e+01 2.700035e+01 1.195856e+01 1.185587e+01 1.130903e+01 1.856384e+02 7.986168e-02 1.597618e-01 2.986501e-01 3.793597e-01 3.989540e-01 6.077246e-01 7.743512e-01 6.941827e-01 7.311515e-01 5.861982e-01 6.462591e-01 6.190013e-01 2.768313e-02 1.199658e-02 2.368006e-02 4.426178e-02 7.324253e-02 7.694198e-02 1.202665e-01 1.440338e-01 1.330556e-01 1.490841e-01 1.160365e-01 1.256142e-01 1.189363e-01 4.436991e-03
<GCONST> 6.638895e+01
~h "a"
<BEGINHMM>
<NUMSTATES> 5
<STATE> 2
<MEAN> 39
 1.369653e+01 -1.766864e+01 -2.635250e+00 9.895550e+00 -2.302241e+01 1.279899e+01 -5.055216e+00 -2.755635e+00 9.750556e+00 -1.634072e+01 -6.331062e+00 2.435922e+00 8.024352e+01 1.159471e+00 8.810684e-02 -1.835349e+00 -7.263240e-01 1.078106e-01 -2.095017e+00 -3.045264e-01 8.504112e-01 6.576104e-01 -1.255127e+00 3.684171e-01 5.459207e-01 1.499699e+00 -3.607082e-01 -7.534444e-02 2.235272e-01 1.572845e-01 2.285288e-01 2.147426e-01 7.844921e-02 -8.060819e-02 -1.180908e-01 4.617845e-01 1.993994e-01 8.216180e-02 -2.823163e-01
<VARIANCE> 39
 9.534144e+00 2.319081e+01 2.434348e+01 2.530043e+01 5.476678e+01 6.803033e+01 2.471066e+01 4.602927e+01 4.268832e+01 3.968162e+01 3.275052e+01 2.669103e+01 1.620077e+01 1.553982e+00 3.200432e+00 2.394906e+00 3.193852e+00 3.903256e+00 5.355047e+00 2.088316e+00 3.217580e+00 3.541095e+00 4.055194e+00 2.152382e+00 3.228044e+00 1.351856e+00 2.885935e-01 5.100365e-01 4.444053e-01 5.066354e-01 6.097087e-01 9.584687e-01 3.418194e-01 4.875725e-01 5.699751e-01 7.365065e-01 3.351794e-01 3.510484e-01 2.745781e-01
<GCONST> 1.192031e+02
<STATE> 3
<MEAN> 39
 1.511200e+01 -1.767755e+01 -6.993549e+00 8.439938e+00 -2.166111e+01 8.341647e+00 -4.150731e+00 -8.664404e-01 1.004908e+01 -1.667318e+01 -3.886564e+00 4.630747e+00 8.258698e+01 6.824552e-02 1.558384e-01 -1.864475e-01 2.444022e-01 1.951004e-01 3.547473e-01 2.353850e-02 -2.064722e-01 -9.336793e-02 1.972636e-01 3.283291e-01 3.812606e-01 -2.578900e-01 -1.887466e-01 1.742699e-01 5.099315e-01 3.370171e-01 6.981100e-02 5.942389e-01 -1.552399e-02 -2.251520e-01 -9.350734e-02 3.231193e-01 -1.059978e-01 -1.933122e-01 -4.340474e-01
<VARIANCE> 39
 2.749058e+00 1.183924e+01 1.617659e+01 1.928960e+01 4.995963e+01 6.204168e+01 2.042449e+01 5.200500e+01 3.530951e+01 2.654951e+01 2.779845e+01 2.183812e+01 5.786735e+00 2.669649e-01 1.073547e+00 1.310845e+00 1.817140e+00 3.229485e+00 3.751901e+00 1.470770e+00 2.363919e+00 1.934034e+00 1.995517e+00 1.736992e+00 1.416179e+00 6.492721e-01 9.776952e-02 1.976524e-01 2.049162e-01 2.882081e-01 4.938199e-01 5.434155e-01 2.522903e-01 3.869294e-01 3.360480e-01 4.529150e-01 2.712302e-01 2.986534e-01 1.135463e-01
<GCONST> 9.910606e+01
<STATE> 4
<MEAN> 39
 1.395787e+01 -1.548905e+01 -3.852741e+00 1.243818e+01 -1.943032e+01 1.608332e+01 -5.566292e+00 -5.019064e+00 8.375218e+00 -1.365575e+01 -2.936824e+00 5.375718e+00 7.774208e+01 -6.466259e-01 7.194312e-01 1.087931e+00 9.640262e-01 4.947802e-01 1.030643e+00 4.683067e-02 -3.295219e-01 -2.930106e-01 1.313486e+00 9.877527e-03 -1.565368e-01 -1.368197e+00 -1.855009e-01 -5.240483e-02 1.588342e-01 -5.722002e-03 -7.031612e-02 -1.923822e-01 6.778286e-02 1.259243e-01 1.536296e-03 1.258609e-01 -1.425289e-01 -1.066898e-01 -7.793142e-02
<VARIANCE> 39
 5.727215e+00 1.595758e+01 1.915945e+01 2.038444e+01 4.493904e+01 4.556522e+01 2.407356e+01 4.656245e+01 3.366074e+01 3.198389e+01 3.568433e+01 2.545911e+01 1.722284e+01 3.837351e-01 1.304650e+00 1.246875e+00 1.459470e+00 2.458865e+00 3.065961e+00 1.964348e+00 2.228808e+00 1.672523e+00 1.838017e+00 1.810695e+00 1.768252e+00 7.400466e-01 8.951464e-02 2.996801e-01 2.987406e-01 2.661669e-01 4.686135e-01 5.457534e-01 3.261608e-01 3.992492e-01 3.400463e-01 3.848016e-01 3.698961e-01 3.221797e-01 1.474205e-01
<GCONST> 1.032075e+02
<TRANSP> 5
 0.000000e+00 1.000000e+00 0.000000e+00 0.000000e+00 0.000000e+00
 0.000000e+00 5.384713e-01 4.615287e-01 0.000000e+00 0.000000e+00
 0.000000e+00 0.000000e+00 7.277987e-01 2.722013e-01 0.000000e+00
 0.000000e+00 0.000000e+00 0.000000e+00 6.269233e-01 3.730767e-01
 0.000000e+00 0.000000e+00 0.000000e+00 0.000000e+00 0.000000e+00
<ENDHMM>
~h "b"
<BEGINHMM>
<NUMSTATES> 5
<STATE> 2
<MEAN> 39
 9.945521e+00 -7.588091e+00 6.696990e-01 1.924428e+01 -1.560987e+01 1.891390e+01 -4.196243e+00 -5.452034e+00 7.952601e+00 -6.527386e+00 -4.440763e+00 1.517483e+00 6.896822e+01 -7.304462e-01 7.214752e-01 8.903964e-01 7.014145e-01 -6.664346e-02 4.534875e-01 2.581162e-01 3.293151e-01 2.755100e-01 9.274612e-01 3.641519e-01 6.877013e-01 -1.189331e+00 6.908304e-02 -6.217287e-01 -4.332702e-02 -1.893867e-01 6.772836e-02 1.859316e-01 -6.614296e-02 -1.807854e-01 -1.566681e-01 -5.049174e-01 -1.137917e-01 -1.133465e-01 4.933653e-01
<VARIANCE> 39
 2.129265e+01 1.776425e+01 1.338180e+01 1.897797e+01 2.297309e+01 2.113198e+01 1.629643e+01 2.462558e+01 2.395787e+01 1.679789e+01 1.465283e+01 1.595670e+01 1.284965e+01 3.211906e-01 1.239149e+00 6.989236e-01 9.520295e-01 1.119735e+00 1.303689e+00 8.626674e-01 1.367271e+00 1.178177e+00 1.790232e+00 1.041818e+00 1.049836e+00 8.773586e-01 6.861574e-02 2.726150e-01 1.426339e-01 2.250953e-01 2.474567e-01 3.169816e-01 1.856940e-01 2.867917e-01 2.722805e-01 3.401527e-01 1.959011e-01 2.167277e-01 1.381147e-01
<GCONST> 8.884103e+01
<STATE> 3
<MEAN> 39
 8.082632e+00 -6.935847e+00 3.323553e+00 2.192405e+01 -1.370739e+01 2.013717e+01 -4.378124e+00 -5.600701e+00 8.333490e+00 -4.651007e+00 -3.310179e+00 2.050885e+00 6.730046e+01 -4.616314e-02 -1.562656e+00 3.747455e-01 -4.109606e-01 7.415013e-02 1.234234e+00 2.124136e-01 -8.460820e-03 -2.122751e-01 -1.215229e+00 -1.572403e-01 1.860797e-01 8.285918e-01 5.085754e-01 -9.002229e-01 -4.763352e-01 -3.562849e-01 1.519205e-01 -1.149449e-01 -5.081216e-01 -3.612926e-01 -8.099217e-02 -9.904169e-01 -2.269191e-01 -3.661566e-01 1.059717e+00
<VARIANCE> 39
 1.590941e+01 1.926528e+01 1.365915e+01 2.258552e+01 2.634636e+01 1.422695e+01 1.713233e+01 2.381686e+01 1.658667e+01 1.460477e+01 1.156221e+01 9.629636e+00 8.155761e+00 1.019125e+00 3.635164e+00 1.548276e+00 2.009612e+00 2.659519e+00 2.930233e+00 1.572423e+00 2.251008e+00 1.906829e+00 2.746411e+00 1.193348e+00 1.357275e+00 1.196520e+00 1.276026e-01 3.712779e-01 2.133159e-01 4.409584e-01 6.476769e-01 6.407732e-01 3.164530e-01 5.112524e-01 3.841843e-01 4.446099e-01 2.409896e-01 2.909105e-01 1.705009e-01
<GCONST> 1.011443e+02
<STATE> 4
<MEAN> 39
 7.757767e+00 -1.522659e+01 2.824080e+00 1.749664e+01 -1.572457e+01 2.502803e+01 -3.047048e+00 -5.203316e+00 7.018560e+00 -1.034824e+01 -4.333725e+00 3.470115e+00 7.096651e+01 1.584297e+00 -2.308216e+00 -5.033659e-01 -3.862551e-01 6.199535e-01 1.441538e-01 -1.431302e+00 -8.582211e-01 1.364769e-01 -2.767002e+00 -4.622353e-01 -9.881505e-01 3.095719e+00 3.563321e-01 3.331411e-01 -2.426558e-01 4.158387e-01 3.746372e-01 -1.173966e+00 -7.508769e-01 -2.697732e-01 2.783437e-01 7.442173e-02 -7.232857e-02 -5.737038e-01 4.114200e-01
<VARIANCE> 39
 1.536018e+01 5.116371e+01 1.585512e+01 2.591587e+01 4.636518e+01 3.733925e+01 1.673979e+01 2.934235e+01 2.255809e+01 2.868991e+01 1.213790e+01 1.244950e+01 1.904918e+01 1.700853e+00 4.041465e+00 2.683303e+00 4.400708e+00 6.873404e+00 6.361032e+00 2.888154e+00 4.290517e+00 2.933168e+00 3.027592e+00 1.324845e+00 1.901658e+00 1.633061e+00 1.998347e-01 8.691560e-01 4.271561e-01 6.283260e-01 6.650636e-01 6.689430e-01 3.751979e-01 4.283140e-01 3.829719e-01 5.417398e-01 3.527638e-01 4.103311e-01 3.922746e-01
<GCONST> 1.165979e+02
<TRANSP> 5
 0.000000e+00 1.000000e+00 0.000000e+00 0.000000e+00 0.000000e+00
 0.000000e+00 6.381142e-01 3.618858e-01 0.000000e+00 0.000000e+00
 0.000000e+00 0.000000e+00 4.718311e-01 5.281689e-01 0.000000e+00
 0.000000e+00 0.000000e+00 0.000000e+00 3.681128e-01 6.318871e-01
 0.000000e+00 0.000000e+00 0.000000e+00 0.000000e+00 0.000000e+00
<ENDHMM>
~h "c"
<BEGINHMM>
<NUMSTATES> 5
<STATE> 2
<MEAN> 39
 3.881786e+00 -2.484438e+01 1.381806e+01 2.301665e+01 -1.363788e+01 2.090663e+01 -5.272320e+00 -6.534264e+00 8.493760e+00 -7.103775e+00 -3.075413e+00 3.898838e+00 7.715237e+01 -2.167230e+00 -4.432046e+00 2.573146e+00 -2.543085e-01 -6.511272e-01 -2.814268e-01 8.827689e-02 5.558798e-01 -1.746487e-02 -3.617190e-01 -7.795237e-01 1.122211e+00 1.402132e+00 5.881720e-01 5.551128e-01 -9.669707e-01 -2.220697e-01 3.065571e-01 1.950670e-01 -2.303336e-01 -6.836587e-01 -2.793658e-01 -2.091337e-01 1.231883e-03 -3.329024e-01 1.220120e-01
<VARIANCE> 39
 2.315181e+01 1.011007e+02 4.548200e+01 2.314632e+01 3.876104e+01 3.647919e+01 3.357288e+01 3.967818e+01 3.469368e+01 2.518422e+01 3.054180e+01 2.037872e+01 1.524146e+01 1.523691e+00 6.312788e+00 4.991717e+00 2.128100e+00 3.695553e+00 2.971929e+00 3.824313e+00 4.665195e+00 2.763876e+00 2.934603e+00 2.961445e+00 2.234218e+00 1.379422e+00 8.210502e-01 3.485189e+00 1.489934e+00 3.712811e-01 7.847862e-01 6.793734e-01 6.233366e-01 7.442595e-01 6.066152e-01 3.927485e-01 5.312328e-01 4.967508e-01 4.788919e-01
<GCONST> 1.265420e+02
<STATE> 3
<MEAN> 39
 1.886135e+00 -3.121986e+01 1.320223e+01 2.021144e+01 -1.234638e+01 2.069812e+01 -5.098229e+00 -1.045920e+01 5.899665e+00 -7.570062e+00 -5.080430e+00 4.351908e+00 8.073859e+01 2.681626e+00 2.842099e+00 -3.203003e+00 -4.804366e-02 1.284760e+00 2.154901e-01 -5.340005e-01 -1.705868e+00 -1.026710e+00 -1.300209e+00 1.438421e-02 -1.058658e+00 1.086622e-01 8.466247e-01 1.226614e+00 -7.444613e-01 1.368101e-01 5.023986e-02 -3.724147e-02 -3.032566e-01 8.079287e-02 2.809378e-01 -4.263903e-01 2.043646e-01 -2.207111e-01 -1.912935e-01
<VARIANCE> 39
 1.791931e+01 2.823079e+01 2.730182e+01 1.965391e+01 2.126336e+01 4.713865e+01 1.551901e+01 2.897991e+01 2.499916e+01 2.965245e+01 1.557208e+01 1.371454e+01 5.591148e+00 1.903886e+00 2.678139e+00 3.832862e+00 2.144131e+00 2.087417e+00 2.390402e+00 2.622490e+00 2.095788e+00 2.395158e+00 2.145171e+00 1.111556e+00 1.454536e+00 3.455600e-01 5.113878e-01 1.234907e+00 9.350438e-01 2.657498e-01 4.869155e-01 4.250864e-01 3.727883e-01 3.974921e-01 4.247021e-01 3.747198e-01 3.400103e-01 4.049051e-01 1.088072e-01
<GCONST> 1.076269e+02
<STATE> 4
<MEAN> 39
 1.043236e+01 -2.208653e+01 6.432165e+00 2.258109e+01 -1.102208e+01 2.240402e+01 -1.014244e+01 -1.317263e+01 7.749288e+00 -1.284089e+01 -4.623640e+00 6.511631e-01 8.036859e+01 1.639887e+00 1.613199e+00 -1.965294e+00 -1.873223e-01 3.223690e-01 -1.664388e-01 -1.464008e+00 -4.118497e-01 5.291615e-01 -1.423116e+00 2.269732e-01 -4.649517e-01 2.520393e-01 -6.492088e-01 -6.697160e-01 5.400634e-01 -1.673623e-01 -1.999694e-01 -1.215506e-01 1.417406e-01 4.767739e-01 1.611027e-01 2.780344e-01 7.914415e-02 3.971390e-01 -4.598197e-02
<VARIANCE> 39
 6.137897e+00 9.659910e+00 3.633452e+01 1.066419e+01 1.698242e+01 2.976774e+01 2.410934e+01 1.269248e+01 2.741843e+01 2.453500e+01 1.006526e+01 1.387649e+01 5.894578e+00 2.015222e+00 2.704453e+00 4.372196e+00 8.973822e-01 1.179899e+00 1.396885e+00 2.511611e+00 1.466712e+00 1.158530e+00 2.652163e+00 1.020745e+00 1.628940e+00 2.456618e-01 2.226332e-01 3.826092e-01 4.300517e-01 2.584136e-01 3.747265e-01 2.257172e-01 3.739369e-01 2.254097e-01 3.179388e-01 4.034029e-01 1.693645e-01 1.879992e-01 4.214263e-02
<GCONST> 9.371562e+01
<TRANSP> 5
 0.000000e+00 1.000000e+00 0.000000e+00 0.000000e+00 0.000000e+00
 0.000000e+00 7.669915e-01 2.330085e-01 0.000000e+00 0.000000e+00
 0.000000e+00 0.000000e+00 5.752908e-01 4.247092e-01 0.000000e+00
 0.000000e+00 0.000000e+00 0.000000e+00 5.529834e-01 4.470165e-01
 0.000000e+00 0.000000e+00 0.000000e+00 0.000000e+00 0.000000e+00
<ENDHMM>
~h "d"
<BEGINHMM>
<NUMSTATES> 5
<STATE> 2
<MEAN> 39
 8.916696e+00 -1.164585e+01 1.326228e+00 1.741597e+01 -1.734804e+01 1.993039e+01 -3.787341e+00 -7.617435e+00 5.656745e+00 -8.380664e+00 -6.668469e+00 -9.707094e-01 7.068299e+01 -5.047130e-01 7.208348e-01 4.522342e-01 5.053760e-01 -5.525763e-02 1.984175e-01 1.284096e-01 3.633576e-01 3.483418e-01 1.024690e+00 3.868142e-01 4.655904e-01 -1.066565e+00 -4.622033e-02 -4.385187e-01 -3.962494e-02 -1.095203e-01 1.354569e-02 6.952291e-02 -1.053785e-01 -1.064367e-02 -1.405050e-02 -2.126305e-01 1.290450e-01 2.145709e-01 2.060103e-01
<VARIANCE> 39
 3.190185e+01 4.415569e+01 3.317567e+01 2.671053e+01 3.104115e+01 2.632335e+01 2.171344e+01 2.121584e+01 2.941504e+01 2.669847e+01 3.368394e+01 5.095771e+01 2.750553e+01 3.969113e-01 1.665689e+00 1.488366e+00 1.511015e+00 1.281694e+00 1.537388e+00 1.794764e+00 1.369002e+00 1.668310e+00 2.059608e+00 1.408526e+00 1.124406e+00 1.058238e+00 5.354069e-02 3.729422e-01 2.725359e-01 2.870365e-01 3.062728e-01 4.321287e-01 3.096436e-01 2.893418e-01 2.948892e-01 3.312128e-01 3.562865e-01 2.867907e-01 1.390710e-01
<GCONST> 1.022295e+02
<STATE> 3
<MEAN> 39
 1.066552e+01 -7.888235e+00 5.146377e+00 1.797071e+01 -1.940855e+01 2.145309e+01 -3.330383e+00 -5.664202e+00 1.055642e+01 -7.303350e+00 -6.923857e+00 -2.979069e+00 7.112106e+01 -7.749549e-01 -4.477111e-02 5.875625e-01 3.457944e-01 1.245479e-01 4.921361e-01 -3.531263e-02 2.301779e-01 -1.231943e-01 4.588822e-01 7.659203e-01 1.279642e+00 -8.574654e-01 6.519403e-02 -7.616431e-01 -1.452718e-01 -3.000965e-01 5.412187e-02 3.886658e-02 -7.446803e-03 -8.663804e-02 -2.288568e-01 -5.195524e-01 -1.488690e-01 -6.204974e-03 5.534639e-01
<VARIANCE> 39
 7.208934e+00 1.516943e+01 1.868722e+01 1.764894e+01 2.585027e+01 2.436288e+01 1.512638e+01 1.798603e+01 2.615561e+01 1.490806e+01 2.679422e+01 4.443215e+01 9.956929e+00 2.237045e-01 1.450250e+00 1.184802e+00 1.179306e+00 1.714572e+00 2.042369e+00 1.305476e+00 1.395684e+00 1.717807e+00 1.572381e+00 1.720765e+00 1.710935e+00 5.920320e-01 5.124187e-02 5.714827e-01 2.432906e-01 3.303141e-01 3.474198e-01 4.057668e-01 2.884354e-01 2.991576e-01 3.901650e-01 3.869818e-01 3.138248e-01 3.808961e-01 2.828057e-01
<GCONST> 9.644051e+01
<STATE> 4
<MEAN> 39
 7.912758e+00 -1.157046e+01 5.224745e+00 1.886762e+01 -1.647626e+01 2.251455e+01 -3.679011e+00 -6.126666e+00 7.452159e+00 -6.653365e+00 -4.059031e+00 2.153539e+00 7.001199e+01 -9.811066e-03 -3.405744e+00 8.013385e-02 -1.423370e+00 -5.291845e-01 7.069299e-01 -2.518258e-01 4.132028e-02 -1.639076e-01 -1.780009e+00 -3.445071e-01 5.164351e-01 1.968037e+00 5.367525e-01 -3.407230e-01 -3.473063e-01 -3.936373e-01 -2.308422e-02 -2.598719e-01 -3.443010e-01 -2.827229e-01 -2.615547e-02 -9.401866e-01 -3.309522e-01 -3.238688e-01 8.943360e-01
<VARIANCE> 39
 1.055298e+01 3.927763e+01 2.526634e+01 2.975466e+01 3.729564e+01 2.696752e+01 1.817367e+01 1.914877e+01 2.133538e+01 1.831220e+01 1.844423e+01 1.903454e+01 1.262769e+01 8.631960e-01 2.658028e+00 2.243211e+00 2.281059e+00 3.211813e+00 3.384184e+00 2.395152e+00 2.984034e+00 3.226220e+00 2.988653e+00 1.907445e+00 2.138771e+00 1.353854e+00 9.544629e-02 8.806730e-01 4.212135e-01 5.507838e-01 6.046119e-01 6.084797e-01 4.014712e-01 4.357630e-01 3.644096e-01 4.303733e-01 3.831674e-01 4.563316e-01 2.238494e-01
<GCONST> 1.104744e+02
<TRANSP> 5
 0.000000e+00 1.000000e+00 0.000000e+00 0.000000e+00 0.000000e+00
 0.000000e+00 4.110976e-01 5.889024e-01 0.000000e+00 0.000000e+00
 0.000000e+00 0.000000e+00 5.762788e-01 4.237212e-01 0.000000e+00
 0.000000e+00 0.000000e+00 0.000000e+00 5.229890e-01 4.770110e-01
 0.000000e+00 0.000000e+00 0.000000e+00 0.000000e+00 0.000000e+00
<ENDHMM>
~h "e"
<BEGINHMM>
<NUMSTATES> 5
<STATE> 2
<MEAN> 39
 1.228533e+01 -1.924035e+01 -6.709027e-01 1.629617e+01 -1.242285e+01 1.943536e+01 -1.000682e+01 -1.213343e+01 4.308434e+00 -1.411432e+01 -2.392599e+00 3.333976e+00 7.970544e+01 1.236275e+00 -4.632642e-01 -1.732028e+00 -5.205176e-01 7.543682e-01 -7.937093e-01 -1.624829e+00 -8.824843e-01 1.996034e-01 -1.341497e+00 7.982869e-01 6.302208e-01 1.759902e+00 -2.905450e-01 6.948556e-02 2.794981e-01 1.050160e-01 -1.205044e-01 1.221658e-02 4.635870e-02 1.969489e-01 2.944344e-01 4.476862e-01 1.452139e-01 8.627456e-02 -2.987629e-01
<VARIANCE> 39
 1.072065e+01 1.800916e+01 2.807577e+01 3.601360e+01 3.608029e+01 4.141392e+01 3.452013e+01 2.562597e+01 2.654729e+01 2.984708e+01 1.631890e+01 2.707453e+01 1.657589e+01 1.566218e+00 4.002004e+00 2.778909e+00 3.236172e+00 2.969960e+00 3.759835e+00 2.338149e+00 2.379705e+00 2.443470e+00 3.271585e+00 2.039193e+00 3.455694e+00 1.277489e+00 3.038241e-01 5.784762e-01 4.544852e-01 5.095062e-01 5.595410e-01 6.577482e-01 4.655079e-01 4.031224e-01 4.384483e-01 5.597748e-01 2.825934e-01 3.909864e-01 2.549737e-01
<GCONST> 1.151163e+02
<STATE> 3
<MEAN> 39
 1.410665e+01 -2.005009e+01 -4.887375e+00 1.395181e+01 -1.267258e+01 1.626125e+01 -1.152942e+01 -1.185986e+01 5.809748e+00 -1.422558e+01 1.478374e+00 6.620306e+00 8.271594e+01 3.586220e-02 1.434326e-01 -5.201852e-02 3.292686e-02 2.104656e-02 -2.526747e-02 -2.025933e-01 1.332882e-02 3.272136e-01 3.627727e-01 2.710204e-01 -6.558076e-03 -1.400746e-01 -2.420478e-01 3.547101e-01 4.797086e-01 2.877535e-01 -5.574974e-02 2.746972e-01 4.318154e-01 1.825751e-01 -1.124718e-01 3.593134e-01 -2.860649e-01 -3.141845e-01 -5.718614e-01
<VARIANCE> 39
 3.106837e+00 8.409073e+00 2.162110e+01 3.604445e+01 3.546972e+01 3.011876e+01 2.486845e+01 2.403584e+01 2.054255e+01 2.386948e+01 2.087350e+01 2.822754e+01 5.936216e+00 3.093551e-01 1.009384e+00 1.489602e+00 2.239419e+00 2.269591e+00 2.293067e+00 1.797296e+00 1.169557e+00 1.721015e+00 1.600170e+00 1.451658e+00 1.333884e+00 7.717183e-01 1.175564e-01 2.166820e-01 2.541610e-01 2.955873e-01 4.444677e-01 3.756113e-01 3.478466e-01 2.489392e-01 2.869704e-01 4.733070e-01 2.481792e-01 3.010088e-01 1.093347e-01
<GCONST> 9.586905e+01
<STATE> 4
<MEAN> 39
 1.257343e+01 -1.795342e+01 1.503571e-02 1.861434e+01 -1.111893e+01 1.925435e+01 -1.263961e+01 -1.277410e+01 6.724639e+00 -1.151962e+01 -4.480465e-01 2.362401e+00 7.875353e+01 -6.194857e-01 1.208767e+00 9.790246e-01 8.086926e-01 -5.757061e-02 3.510918e-01 9.416242e-01 5.358896e-01 -1.351073e-01 1.375125e+00 -2.447465e-01 -2.834009e-01 -1.604247e+00 -1.808151e-01 -1.914819e-02 7.609030e-02 -1.964080e-02 -1.750625e-01 -4.551716e-02 2.691864e-01 1.127895e-01 -2.100347e-01 7.516406e-02 -1.075044e-01 1.455470e-01 -1.663031e-01
<VARIANCE> 39
 6.172251e+00 1.301124e+01 2.990933e+01 3.380247e+01 3.577795e+01 3.195342e+01 2.842484e+01 2.905707e+01 3.437232e+01 3.008951e+01 2.052154e+01 2.718551e+01 1.133638e+01 4.725742e-01 1.482304e+00 1.653323e+00 1.516365e+00 2.196543e+00 2.102154e+00 1.690513e+00 1.258330e+00 1.982731e+00 2.233001e+00 1.703007e+00 1.799289e+00 9.680675e-01 9.473494e-02 3.649050e-01 3.391612e-01 3.114620e-01 4.257559e-01 4.323783e-01 3.543276e-01 2.948507e-01 3.714901e-01 4.404524e-01 2.744681e-01 2.879415e-01 1.810363e-01
<GCONST> 1.022356e+02
<TRANSP> 5
 0.000000e+00 1.000000e+00 0.000000e+00 0.000000e+00 0.000000e+00
 0.000000e+00 5.155558e-01 4.844442e-01 0.000000e+00 0.000000e+00
 0.000000e+00 0.000000e+00 7.081169e-01 2.918831e-01 0.000000e+00
 0.000000e+00 0.000000e+00 0.000000e+00 5.578100e-01 4.421901e-01
 0.000000e+00 0.000000e+00 0.000000e+00 0.000000e+00 0.000000e+00
<ENDHMM>
~h "f"
<BEGINHMM>
<NUMSTATES> 5
<STATE> 2
<MEAN> 39
 3.757692e+00 -2.443971e+01 4.092405e+00 1.118068e+01 -2.057181e+01 2.377297e+01 -7.475996e+00 -4.339111e+00 5.336824e+00 -1.138235e+01 -2.368538e+00 5.483337e+00 7.185403e+01 -9.408183e-01 -1.915940e+00 2.946067e-01 -8.675348e-01 -3.307565e-01 2.588789e-01 -5.824938e-01 2.607620e-01 -1.887673e-01 -5.210001e-01 2.778239e-02 1.440639e-01 2.038286e-01 2.147309e-01 2.657124e-01 -3.113238e-01 1.986622e-02 7.398562e-02 -2.598683e-01 4.590870e-02 1.582683e-02 8.694442e-02 1.818765e-03 -5.200917e-02 -1.267799e-01 6.912565e-02
<VARIANCE> 39
 1.801401e+01 4.399403e+01 1.847620e+01 3.665236e+01 2.851347e+01 2.381680e+01 2.042849e+01 1.966612e+01 2.613673e+01 2.756675e+01 1.533661e+01 1.276294e+01 1.091024e+01 8.454532e-01 1.882503e+00 1.126900e+00 1.381218e+00 1.260406e+00 1.671514e+00 1.917679e+00 1.316446e+00 1.911474e+00 1.332763e+00 9.998294e-01 8.253293e-01 5.538207e-01 1.446943e-01 5.221807e-01 1.698819e-01 1.907804e-01 1.822532e-01 3.449975e-01 4.427823e-01 2.543799e-01 2.826203e-01 4.151548e-01 1.907737e-01 1.886529e-01 1.893813e-01
<GCONST> 9.627027e+01
<STATE> 3
<MEAN> 39
 6.538528e-01 -3.041015e+01 2.545897e+00 6.009168e+00 -2.163474e+01 2.233034e+01 -9.558827e+00 -3.798079e+00 6.281276e+00 -1.182602e+01 -2.619538e+00 5.705960e+00 7.315028e+01 1.053494e+00 1.432937e+00 -8.614702e-01 8.912454e-01 1.457271e-02 -1.187769e+00 2.385696e-01 1.758623e-02 1.763975e-01 3.489895e-01 -4.607490e-01 -4.541469e-01 -8.272859e-02 7.929261e-01 1.330634e+00 2.392203e-02 6.625160e-01 2.561377e-01 -2.962326e-01 1.187342e-01 -3.819132e-03 3.558325e-01 -1.066420e-01 -2.586895e-01 -4.393085e-01 1.087964e-01
<VARIANCE> 39
 1.397818e+01 3.664722e+01 3.947665e+01 3.943755e+01 3.666730e+01 4.761941e+01 2.086636e+01 3.258365e+01 2.871000e+01 1.196672e+01 1.839179e+01 1.114690e+01 8.870882e+00 1.886698e+00 5.414672e+00 2.041383e+00 3.363960e+00 1.958673e+00 2.539136e+00 2.003984e+00 1.996133e+00 2.314471e+00 2.549769e+00 1.204702e+00 1.264386e+00 8.094944e-01 3.811909e-01 4.239002e-01 6.302834e-01 5.423787e-01 5.667633e-01 8.611359e-01 2.275115e-01 3.203857e-01 3.181128e-01 3.839973e-01 3.802945e-01 1.771251e-01 4.065310e-01
<GCONST> 1.098921e+02
<STATE> 4
<MEAN> 39
 4.769987e+00 -2.161659e+01 1.485801e+00 9.392592e+00 -2.090384e+01 2.081033e+01 -8.427177e+00 -2.539848e+00 8.908237e+00 -1.175852e+01 -7.328156e+00 4.211538e+00 7.131174e+01 2.361618e+00 3.028033e+00 -5.037738e-01 9.716167e-01 1.264719e-01 -1.070981e+00 2.137464e-01 4.661439e-02 1.055305e+00 -8.237066e-01 -6.803354e-01 -1.094566e+00 8.407053e-01 2.357596e-01 -4.089854e-02 -5.830194e-02 8.468670e-02 2.908968e-02 -1.628318e-01 -1.009860e-01 -6.544770e-02 1.205982e-01 -3.064057e-01 2.624181e-01 3.632672e-03 3.915425e-01
<VARIANCE> 39
 1.497430e+01 4.660428e+01 1.117641e+01 1.773327e+01 1.507927e+01 3.502434e+01 2.619642e+01 1.808483e+01 2.057191e+01 2.474497e+01 2.757944e+01 2.071282e+01 1.031481e+01 3.920487e+00 4.907565e+00 3.588994e+00 3.957359e+00 3.423647e+00 5.163370e+00 1.315008e+00 1.348590e+00 1.883316e+00 2.074782e+00 4.717382e+00 2.262529e+00 2.379865e+00 4.670472e-01 6.644643e-01 4.864623e-01 4.011984e-01 1.367297e-01 7.396418e-01 3.082970e-01 2.079822e-01 4.991823e-01 5.277475e-01 6.866791e-01 3.968615e-01 2.562946e-01
<GCONST> 1.126741e+02
<TRANSP> 5
 0.000000e+00 1.000000e+00 0.000000e+00 0.000000e+00 0.000000e+00
 0.000000e+00 8.298134e-01 1.701866e-01 0.000000e+00 0.000000e+00
 0.000000e+00 0.000000e+00 5.768130e-01 4.231870e-01 0.000000e+00
 0.000000e+00 0.000000e+00 0.000000e+00 4.387290e-01 5.612710e-01
 0.000000e+00 0.000000e+00 0.000000e+00 0.000000e+00 0.000000e+00
<ENDHMM>
~h "g"
<BEGINHMM>
<NUMSTATES> 5
<STATE> 2
<MEAN> 39
 9.161624e+00 -1.006881e+01 4.140760e+00 2.247188e+01 -1.315863e+01 2.000018e+01 -8.809792e+00 -9.358561e+00 7.413265e+00 -5.527400e+00 -9.307047e-01 2.318356e+00 7.002369e+01 -7.511324e-01 -3.720833e-01 5.360166e-01 6.701325e-02 -2.232803e-01 1.248994e-01 1.718764e-01 8.712683e-01 2.636443e-01 2.675966e-01 3.319830e-01 8.292199e-01 -6.272165e-01 -5.062500e-02 -1.294876e+00 5.753006e-02 -3.942997e-01 9.076078e-02 2.565307e-01 -9.159216e-02 1.660350e-01 -5.175485e-04 -7.530560e-01 -1.192964e-01 -1.369650e-01 8.193310e-01
<VARIANCE> 39
 1.303625e+01 2.363993e+01 2.233451e+01 1.738221e+01 2.153950e+01 1.949982e+01 2.177410e+01 2.425319e+01 1.912091e+01 2.058159e+01 2.232830e+01 1.936907e+01 9.439115e+00 5.102707e-01 6.231878e+00 1.758449e+00 1.914627e+00 1.987306e+00 2.060938e+00 2.700066e+00 2.993547e+00 1.822460e+00 3.116190e+00 1.615573e+00 1.309347e+00 1.711587e+00 6.474391e-02 7.271980e-01 1.825392e-01 3.094155e-01 2.656344e-01 4.030089e-01 3.622786e-01 4.822820e-01 2.037051e-01 4.938661e-01 3.273365e-01 3.314724e-01 2.095044e-01
<GCONST> 1.028732e+02
<STATE> 3
<MEAN> 39
 5.804074e+00 -1.499799e+01 5.427759e+00 1.955700e+01 -1.296970e+01 2.057032e+01 -7.237688e+00 -5.410776e+00 7.409083e+00 -6.396876e+00 -6.599644e-01 3.227926e+00 7.046120e+01 -4.717073e-01 -4.471416e+00 5.572505e-01 -1.009188e+00 1.699765e-01 1.225810e+00 -4.258096e-01 8.211561e-01 8.459752e-02 -1.757367e+00 4.389420e-01 -1.878032e-01 2.187613e+00 5.279798e-01 -1.125451e-01 -1.872923e-01 1.701263e-01 3.222262e-01 -1.699681e-01 -5.047620e-01 -7.112989e-01 -1.518669e-01 -5.828412e-01 -3.092145e-01 -5.351319e-01 7.059617e-01
<VARIANCE> 39
 1.899611e+01 4.560667e+01 2.881803e+01 3.533191e+01 3.678213e+01 2.505760e+01 3.485683e+01 2.233124e+01 1.837436e+01 1.762567e+01 1.609089e+01 1.585785e+01 1.531637e+01 1.186975e+00 4.538287e+00 2.915531e+00 3.342224e+00 2.581658e+00 4.189331e+00 3.106547e+00 5.220850e+00 2.676836e+00 3.535635e+00 3.198555e+00 3.122625e+00 1.336362e+00 8.837983e-02 8.746069e-01 3.747245e-01 4.783074e-01 3.699840e-01 6.291910e-01 4.275227e-01 4.504585e-01 3.156150e-01 3.655406e-01 3.092914e-01 2.685003e-01 2.222001e-01
<GCONST> 1.133323e+02
<STATE> 4
<MEAN> 39
 6.581617e+00 -2.627222e+01 7.252596e+00 1.895240e+01 -1.407574e+01 2.385253e+01 -1.072259e+01 -6.079606e+00 8.700810e+00 -1.202566e+01 -1.221618e+00 7.930691e-01 7.717315e+01 1.022817e+00 -8.064174e-01 -1.853040e-01 6.984847e-01 1.533929e+00 -5.960239e-01 -1.564474e+00 -1.394729e+00 -3.486207e-01 -1.944510e+00 -5.663685e-01 -9.859239e-01 1.985077e+00 5.412851e-01 1.636226e+00 -6.702638e-01 3.744571e-01 4.812370e-01 -6.380989e-01 -9.482223e-02 -6.423607e-01 -1.901704e-01 1.436203e-01 -1.836175e-01 -2.180158e-02 -2.685491e-01
<VARIANCE> 39
 8.654076e+00 4.293095e+01 2.522685e+01 3.465283e+01 3.632178e+01 4.152427e+01 2.493697e+01 3.221327e+01 2.950084e+01 2.643824e+01 2.965710e+01 1.969492e+01 1.067085e+01 1.289638e+00 7.407065e+00 2.570650e+00 2.834205e+00 3.166721e+00 3.894860e+00 2.313578e+00 3.630034e+00 2.229639e+00 2.693923e+00 1.749854e+00 2.162852e+00 1.156489e+00 1.388054e-01 7.688462e-01 4.999336e-01 7.179102e-01 5.459583e-01 7.306747e-01 5.560508e-01 9.527621e-01 4.672246e-01 6.738758e-01 5.328352e-01 6.268673e-01 2.287721e-01
<GCONST> 1.173809e+02
<TRANSP> 5
 0.000000e+00 1.000000e+00 0.000000e+00 0.000000e+00 0.000000e+00
 0.000000e+00 5.923934e-01 4.076066e-01 0.000000e+00 0.000000e+00
 0.000000e+00 0.000000e+00 3.539956e-01 6.460045e-01 0.000000e+00
 0.000000e+00 0.000000e+00 0.000000e+00 5.292282e-01 4.707718e-01
 0.000000e+00 0.000000e+00 0.000000e+00 0.000000e+00 0.000000e+00
<ENDHMM>
~h "h"
<BEGINHMM>
<NUMSTATES> 5
<STATE> 2
<MEAN> 39
 8.236823e+00 -1.777108e+01 -2.938332e+00 1.314020e+01 -1.922417e+01 2.051051e+01 -3.583899e-01 -2.705622e+00 8.655681e+00 -6.029810e+00 -2.687614e+00 4.860126e+00 7.199556e+01 -2.405767e-01 -7.122416e-01 -5.344048e-01 -5.527357e-01 -5.108683e-01 -5.627412e-01 6.685482e-01 1.098456e+00 4.986787e-01 3.649862e-01 -5.184310e-04 2.364661e-02 2.825419e-02 1.363954e-01 6.553434e-03 2.707656e-02 2.188130e-02 -6.793559e-02 -1.405544e-01 -2.675806e-01 -2.096983e-01 3.333320e-02 -1.954787e-01 -9.289676e-02 -1.732973e-01 1.916569e-01
<VARIANCE> 39
 1.906215e+01 1.645586e+01 2.255175e+01 3.220161e+01 3.508768e+01 4.053804e+01 2.801906e+01 3.247128e+01 2.782737e+01 2.767666e+01 2.747693e+01 2.012408e+01 3.902943e+01 2.670222e-01 9.689928e-01 1.287658e+00 1.483576e+00 1.096666e+00 1.796375e+00 2.225209e+00 2.317659e+00 2.241081e+00 1.510085e+00 1.313387e+00 1.890388e+00 5.597138e-01 4.103898e-02 1.611384e-01 2.007263e-01 2.413852e-01 1.536172e-01 4.141278e-01 5.055609e-01 3.723744e-01 4.323734e-01 3.292297e-01 2.828309e-01 3.290620e-01 7.342024e-02
<GCONST> 9.846877e+01
<STATE> 3
<MEAN> 39
 1.113494e+01 -2.125609e+01 -3.697382e+00 9.716812e+00 -2.431235e+01 1.758160e+01 8.449386e-01 1.117278e+00 1.215061e+01 -8.338044e+00 -1.404557e+00 4.273298e+00 7.724443e+01 7.131311e-01 2.384062e-01 3.791286e-01 2.814408e-01 5.916964e-02 -5.075956e-01 -8.323206e-01 -2.923588e-01 8.887655e-01 -5.105505e-01 1.616713e-01 -3.500896e-01 1.058226e+00 1.663443e-01 2.847784e-01 -2.074561e-02 6.393559e-02 2.581364e-01 -1.729183e-01 -3.496749e-01 -4.849411e-01 -2.142395e-01 -2.893967e-01 -4.786114e-02 -3.466482e-02 2.253021e-01
<VARIANCE> 39
 8.862083e+00 1.978911e+01 3.728285e+01 3.243274e+01 4.861518e+01 5.171836e+01 3.104884e+01 3.793747e+01 1.509694e+01 2.932484e+01 1.883359e+01 1.840402e+01 1.681323e+01 7.734009e-01 1.912089e+00 1.458869e+00 1.694109e+00 2.576683e+00 2.924855e+00 1.952550e+00 1.974450e+00 1.844135e+00 1.659181e+00 5.849379e-01 7.711890e-01 8.117877e-01 8.852571e-02 3.321835e-01 3.934336e-01 4.068627e-01 3.634430e-01 5.272986e-01 2.958837e-01 2.333137e-01 2.560185e-01 3.387603e-01 2.575702e-01 2.746261e-01 1.389397e-01
<GCONST> 1.016339e+02
<STATE> 4
<MEAN> 39
 1.424390e+01 -1.860177e+01 -4.754954e+00 8.035407e+00 -2.401959e+01 1.328329e+01 -2.329807e+00 1.031292e+00 1.463200e+01 -1.272413e+01 -2.618506e+00 3.105102e+00 8.131133e+01 1.690053e-01 6.936359e-02 -1.399783e-01 -9.676114e-02 -1.215045e-01 -4.315467e-01 -4.185489e-01 -4.681756e-01 -6.929864e-02 -2.025506e-01 -1.623548e-01 -2.749211e-01 3.096319e-01 -2.507161e-02 1.128531e-02 -3.630999e-02 9.012125e-02 9.256899e-02 3.796910e-02 -5.379993e-02 -9.459276e-02 -1.618708e-01 -3.672643e-02 5.949578e-03 4.998156e-02 -8.516072e-02
<VARIANCE> 39
 6.848248e+00 1.051882e+01 1.621691e+01 2.346677e+01 3.107308e+01 3.772389e+01 1.677277e+01 4.184430e+01 1.698361e+01 2.829106e+01 1.590123e+01 1.600696e+01 9.692945e+00 3.039711e-01 9.875241e-01 9.487057e-01 1.437757e+00 1.973329e+00 2.261940e+00 1.346661e+00 1.252724e+00 1.098837e+00 1.346390e+00 1.057240e+00 9.186137e-01 8.084569e-01 5.639631e-02 1.445728e-01 1.176515e-01 2.125589e-01 3.451255e-01 3.215641e-01 2.057811e-01 1.308460e-01 1.677651e-01 2.371683e-01 1.627056e-01 2.039622e-01 9.457710e-02
<GCONST> 8.747861e+01
<TRANSP> 5
 0.000000e+00 1.000000e+00 0.000000e+00 0.000000e+00 0.000000e+00
 0.000000e+00 6.804901e-01 3.195100e-01 0.000000e+00 0.000000e+00
 0.000000e+00 0.000000e+00 4.784867e-01 5.215133e-01 0.000000e+00
 0.000000e+00 0.000000e+00 0.000000e+00 7.368316e-01 2.631684e-01
 0.000000e+00 0.000000e+00 0.000000e+00 0.000000e+00 0.000000e+00
<ENDHMM>
~h "i"
<BEGINHMM>
<NUMSTATES> 5
<STATE> 2
<MEAN> 39
 9.233847e+00 -1.965703e+01 5.615638e+00 2.206103e+01 -1.171443e+01 2.120834e+01 -8.831044e+00 -1.081464e+01 6.388308e+00 -1.041789e+01 -3.615067e+00 -6.411431e-01 7.670874e+01 1.569862e+00 7.414857e-01 -7.614036e-01 1.182274e+00 1.605668e+00 -1.342061e-01 -1.651474e+00 -1.109933e+00 6.167222e-01 -1.046817e+00 -8.742692e-02 -1.160003e+00 1.131799e+00 -1.989931e-01 6.933911e-02 -5.235239e-02 -1.862369e-01 -8.548520e-02 -1.870887e-01 -3.361034e-02 1.053182e-01 8.997379e-02 2.204954e-01 1.034402e-01 1.237082e-01 -1.380855e-01
<VARIANCE> 39
 1.818831e+01 3.049098e+01 4.293790e+01 3.171379e+01 4.022585e+01 3.595263e+01 2.672177e+01 2.330262e+01 2.587342e+01 2.658249e+01 1.441430e+01 2.175852e+01 1.315807e+01 2.646586e+00 8.270610e+00 3.423556e+00 3.270404e+00 3.662501e+00 3.626470e+00 2.804671e+00 2.588416e+00 2.197634e+00 2.637101e+00 1.715798e+00 2.434206e+00 1.629354e+00 3.515084e-01 9.582662e-01 5.051745e-01 5.218281e-01 7.022160e-01 6.360447e-01 3.965310e-01 3.448623e-01 3.538855e-01 4.683741e-01 2.840164e-01 3.035440e-01 2.279395e-01
<GCONST> 1.165825e+02
<STATE> 3
<MEAN> 39
 1.197782e+01 -1.912030e+01 2.854177e+00 2.428531e+01 -8.156021e+00 1.941567e+01 -1.357958e+01 -1.272353e+01 8.465091e+00 -1.271520e+01 -3.593648e+00 -2.663427e+00 7.926299e+01 1.901389e-01 4.383679e-01 -1.532855e-01 1.109936e-01 3.830909e-01 -2.389322e-01 -4.241570e-01 -1.951955e-01 2.269817e-01 3.199002e-01 1.739968e-01 -2.330909e-01 4.088219e-02 -4.512260e-01 1.713613e-01 3.192028e-01 -3.153209e-01 -5.099475e-01 2.142117e-01 8.138937e-01 3.744052e-01 -2.860981e-01 5.974287e-01 1.324592e-01 4.079732e-01 -5.694824e-01
<VARIANCE> 39
 6.278838e+00 1.227565e+01 3.089038e+01 2.053718e+01 2.868994e+01 3.001286e+01 2.097553e+01 2.341036e+01 2.637116e+01 2.422477e+01 1.417834e+01 2.218922e+01 7.741934e+00 1.006086e+00 2.585597e+00 2.625235e+00 1.860264e+00 2.517330e+00 2.795615e+00 2.874669e+00 1.716516e+00 2.382633e+00 1.994881e+00 1.372445e+00 1.636792e+00 1.146821e+00 1.979504e-01 6.893213e-01 4.172232e-01 3.418823e-01 5.162801e-01 5.145071e-01 3.829567e-01 3.688880e-01 3.719924e-01 3.745880e-01 2.507301e-01 3.194653e-01 1.905344e-01
<GCONST> 1.049064e+02
<STATE> 4
<MEAN> 39
 8.928526e+00 -1.651793e+01 5.210604e+00 2.365244e+01 -1.062767e+01 2.028473e+01 -1.105302e+01 -1.162753e+01 7.802669e+00 -7.813205e+00 -4.160741e+00 -1.974674e+00 7.428456e+01 -4.765603e-01 4.910250e-01 1.584978e-01 -1.163901e-01 -4.046638e-01 2.621693e-01 8.183403e-01 5.050407e-01 -1.745194e-01 6.658044e-01 2.274843e-01 5.821169e-01 -8.808839e-01 -1.112713e-01 -1.358201e-01 7.708181e-03 -8.436035e-02 -1.223302e-01 2.283648e-02 1.339061e-01 6.433550e-02 -6.628236e-02 -6.040026e-02 -6.207959e-02 7.264709e-02 -3.227155e-02
<VARIANCE> 39
 1.379029e+01 2.483908e+01 3.906482e+01 2.793144e+01 3.143883e+01 2.755811e+01 2.829992e+01 2.317474e+01 3.209521e+01 2.789613e+01 1.873208e+01 2.945299e+01 2.833577e+01 6.115196e-01 2.554107e+00 1.902029e+00 1.340522e+00 1.781194e+00 2.090393e+00 2.037836e+00 1.353279e+00 1.613329e+00 1.963775e+00 1.347483e+00 1.272653e+00 9.685898e-01 1.201538e-01 3.607800e-01 2.721055e-01 2.420222e-01 3.237986e-01 4.131593e-01 3.380136e-01 2.601798e-01 3.165310e-01 3.292255e-01 2.532798e-01 2.399855e-01 1.231474e-01
<GCONST> 1.021272e+02
<TRANSP> 5
 0.000000e+00 1.000000e+00 0.000000e+00 0.000000e+00 0.000000e+00
 0.000000e+00 3.137646e-01 6.862354e-01 0.000000e+00 0.000000e+00
 0.000000e+00 0.000000e+00 5.331536e-01 4.668465e-01 0.000000e+00
 0.000000e+00 0.000000e+00 0.000000e+00 6.214114e-01 3.785886e-01
 0.000000e+00 0.000000e+00 0.000000e+00 0.000000e+00 0.000000e+00
<ENDHMM>
~h "j"
<BEGINHMM>
<NUMSTATES> 5
<STATE> 2
<MEAN> 39
 1.593405e+01 -1.710917e+01 -6.826412e+00 1.560623e+01 -1.117193e+01 1.970472e+01 -9.871345e+00 -6.840304e+00 8.486244e+00 -2.237825e+01 -1.817432e+00 5.894054e+00 8.120760e+01 -4.637025e-01 -1.108849e+00 1.765324e+00 1.730355e+00 -3.517845e-01 1.859112e+00 -2.322391e-01 -8.608832e-01 4.518286e-01 3.065304e-01 6.005518e-01 2.956523e-01 -1.082156e-01 -6.095573e-01 -2.566471e-01 1.163160e+00 -1.431986e-01 -7.578716e-02 -1.686287e-01 4.024229e-01 9.046514e-03 -2.862732e-01 7.577736e-01 -1.752297e-01 -5.365422e-02 -3.949302e-02
<VARIANCE> 39
 2.169724e+00 5.203108e+00 1.026039e+01 1.577987e+01 1.169640e+01 1.880455e+01 2.069870e+01 8.152358e+00 1.787675e+01 1.557310e+01 4.017430e+01 1.609341e+01 5.641834e+00 6.794845e-01 7.368507e-01 1.942379e+00 1.228534e+00 4.251922e+00 2.203785e+00 1.483721e+00 1.116046e+00 8.368355e-01 2.868163e+00 3.170485e+00 2.378387e+00 3.668051e-01 7.785309e-02 2.478246e-01 3.462370e-01 1.581740e-01 6.357547e-01 8.545589e-01 1.426298e-01 2.686113e-01 1.890433e-01 2.500178e-01 2.720570e-01 2.132592e-01 1.245906e-01
<GCONST> 8.964701e+01
<STATE> 3
<MEAN> 39
 1.033790e+01 -2.060418e+01 6.023513e+00 1.887253e+01 -1.134263e+01 2.126408e+01 -7.193200e+00 -8.397191e+00 6.203096e+00 -1.537393e+01 -7.636660e-01 5.770084e+00 8.068329e+01 -2.583086e+00 -2.385535e+00 5.314227e+00 1.018647e+00 -1.276049e+00 -5.165553e-01 8.192638e-01 4.088255e-01 -5.314279e-01 1.686754e+00 2.745712e-01 7.991345e-01 1.138206e-01 -2.320271e-01 -4.297617e-01 7.055137e-02 -4.540268e-02 -3.261363e-01 -3.389735e-01 -2.021959e-02 3.104017e-01 6.577221e-02 -2.720407e-01 -3.568318e-01 2.458574e-01 5.607079e-02
<VARIANCE> 39
 1.020202e+01 1.408487e+01 4.883109e+01 1.672128e+01 2.964446e+01 2.575653e+01 1.362998e+01 7.477351e+00 1.744173e+01 1.628413e+01 1.534801e+01 6.480832e+00 5.529556e+00 5.435330e-01 1.646026e+00 1.208969e+00 6.682967e-01 2.606142e+00 1.729695e+00 1.440351e+00 9.440917e-01 6.176869e-01 1.624918e+00 1.329708e+00 1.021564e+00 5.273083e-01 1.317660e-01 2.088468e-01 7.878480e-01 3.129981e-01 6.973660e-01 3.632074e-01 3.535501e-01 2.687885e-01 1.507338e-01 2.075270e-01 3.307226e-01 2.753415e-01 9.607933e-02
<GCONST> 9.080647e+01
<STATE> 4
<MEAN> 39
 1.128617e+00 -3.135343e+01 1.845381e+01 2.173752e+01 -1.748554e+01 1.921528e+01 -5.091672e+00 -5.839336e+00 6.029294e+00 -1.064038e+01 -1.697127e+00 8.984454e+00 7.993197e+01 -1.035619e-02 -2.912898e-01 -2.950929e-01 4.010901e-02 -6.606849e-02 4.136764e-02 -3.081158e-01 -2.878936e-01 1.012447e-01 4.864732e-01 -1.202609e-02 -3.548227e-01 -8.221637e-02 6.368849e-01 7.047420e-01 -9.105014e-01 -1.735248e-01 3.004162e-01 2.527505e-02 -1.834470e-01 -2.094956e-01 1.928981e-02 -2.551289e-01 1.630649e-01 -2.795583e-01 4.264262e-02
<VARIANCE> 39
 7.024506e+00 1.470016e+01 1.527706e+01 1.195188e+01 1.285125e+01 2.975700e+01 2.499392e+01 1.360881e+01 1.454002e+01 2.288513e+01 2.552226e+01 1.311014e+01 7.241249e+00 3.127648e+00 4.807508e+00 5.426834e+00 1.931579e+00 1.887945e+00 2.360350e+00 1.746251e+00 1.488944e+00 1.491939e+00 1.913864e+00 1.902096e+00 1.957014e+00 5.038003e-01 2.206135e-01 3.939266e-01 8.391488e-01 3.322089e-01 2.814865e-01 4.465779e-01 3.197653e-01 2.263563e-01 2.521783e-01 3.600352e-01 3.121331e-01 2.997780e-01 9.238219e-02
<GCONST> 1.005157e+02
<TRANSP> 5
 0.000000e+00 1.000000e+00 0.000000e+00 0.000000e+00 0.000000e+00
 0.000000e+00 6.596667e-01 3.403334e-01 0.000000e+00 0.000000e+00
 0.000000e+00 0.000000e+00 6.821693e-01 3.178307e-01 0.000000e+00
 0.000000e+00 0.000000e+00 0.000000e+00 8.694384e-01 1.305616e-01
 0.000000e+00 0.000000e+00 0.000000e+00 0.000000e+00 0.000000e+00
<ENDHMM>
~h "k"
<BEGINHMM>
<NUMSTATES> 5
<STATE> 2
<MEAN> 39
 6.917830e+00 -1.395816e+01 1.751386e+00 2.003057e+01 -1.558786e+01 2.019909e+01 -7.553245e+00 -8.677177e+00 5.631642e+00 -5.195625e+00 -3.790982e+00 2.679494e+00 6.819604e+01 -8.962657e-01 -1.041907e+00 -6.703143e-02 -1.071258e+00 -1.019337e+00 -1.551914e-01 2.125244e-01 4.104800e-01 -4.562490e-01 -3.154957e-01 -5.430816e-01 1.414278e-01 -3.749492e-01 1.119664e-01 -1.030480e+00 7.216816e-02 -6.790326e-01 -3.717407e-01 7.082522e-02 -1.785997e-02 6.544629e-02 4.432762e-02 -6.484485e-01 1.731671e-01 -1.900146e-01 9.214584e-01
<VARIANCE> 39
 9.309478e+00 1.434305e+01 2.477643e+01 3.620785e+01 4.175173e+01 2.214255e+01 2.791964e+01 3.403753e+01 2.546780e+01 2.090372e+01 2.393026e+01 2.154798e+01 6.506588e+00 4.967337e-01 4.468389e+00 1.485980e+00 3.176742e+00 2.518600e+00 2.578808e+00 2.348283e+00 2.174718e+00 1.701167e+00 2.489038e+00 1.959401e+00 1.543869e+00 2.518576e+00 8.867855e-02 4.317207e-01 3.130564e-01 4.803711e-01 4.572028e-01 5.245170e-01 5.089136e-01 4.997684e-01 4.329318e-01 3.948425e-01 4.219484e-01 2.858913e-01 1.903717e-01
<GCONST> 1.072825e+02
<STATE> 3
<MEAN> 39
 4.678681e+00 -2.260445e+01 2.337616e+00 1.146339e+01 -2.151801e+01 1.981166e+01 -5.605020e+00 -5.023362e+00 5.041416e+00 -9.091633e+00 -3.777663e+00 2.112864e+00 7.218620e+01 -3.118556e-01 -3.731616e+00 3.613758e-01 -2.550895e+00 -2.117370e+00 4.225967e-01 3.242517e-01 5.792426e-01 -1.088139e-01 -1.636633e+00 5.214471e-01 -8.749177e-02 2.239281e+00 2.226922e-01 4.635640e-01 7.664457e-02 6.686621e-01 5.963707e-01 -1.274801e-02 -1.087180e-01 -3.319056e-01 1.378624e-01 2.898676e-01 2.573879e-02 5.861518e-02 3.988486e-03
<VARIANCE> 39
 1.329353e+01 6.107901e+01 3.088741e+01 5.802758e+01 8.441512e+01 5.861560e+01 3.769147e+01 3.786934e+01 3.663926e+01 2.789169e+01 2.407805e+01 2.276229e+01 2.115818e+01 1.481672e+00 4.969808e+00 3.778906e+00 5.204453e+00 5.056764e+00 4.600743e+00 4.772061e+00 4.375029e+00 4.128136e+00 3.504757e+00 3.765887e+00 2.166922e+00 2.202730e+00 1.773775e-01 1.031066e+00 4.211904e-01 7.767128e-01 8.186428e-01 8.151777e-01 5.304413e-01 4.977480e-01 4.362693e-01 4.826916e-01 4.623660e-01 2.953332e-01 4.556914e-01
<GCONST> 1.257609e+02
<STATE> 4
<MEAN> 39
 4.345483e+00 -2.838027e+01 3.420112e+00 1.067734e+01 -2.330894e+01 2.077927e+01 -6.390007e+00 -6.039713e+00 5.114601e+00 -1.100799e+01 -3.082633e+00 3.021416e+00 7.544549e+01 4.401924e-01 3.864695e-01 1.913628e-01 8.843127e-01 1.103151e+00 -5.602853e-02 -1.604182e-01 -4.074458e-01 4.554933e-01 2.609369e-01 -1.865863e-01 -2.137136e-01 4.146237e-01 4.517589e-01 1.424709e+00 -1.438424e-01 8.806074e-01 8.825914e-01 -1.725515e-01 -1.745813e-01 -2.218571e-01 3.184898e-01 3.082305e-01 -1.757585e-01 -2.442301e-01 -3.204456e-01
<VARIANCE> 39
 1.470587e+01 4.561607e+01 4.461449e+01 5.546898e+01 6.836639e+01 4.982925e+01 4.498872e+01 4.159940e+01 4.629382e+01 3.689835e+01 3.378658e+01 2.050896e+01 1.824534e+01 1.831526e+00 6.049393e+00 2.335015e+00 3.666366e+00 4.223053e+00 3.853374e+00 2.066214e+00 2.136024e+00 2.673064e+00 2.463642e+00 2.335418e+00 2.220670e+00 1.764669e+00 2.586433e-01 8.161981e-01 6.694143e-01 8.688239e-01 8.628021e-01 9.198493e-01 6.796214e-01 6.583871e-01 7.723367e-01 7.513595e-01 7.649702e-01 4.480644e-01 4.698152e-01
<GCONST> 1.259779e+02
<TRANSP> 5
 0.000000e+00 1.000000e+00 0.000000e+00 0.000000e+00 0.000000e+00
 0.000000e+00 6.990596e-01 3.009404e-01 0.000000e+00 0.000000e+00
 0.000000e+00 0.000000e+00 4.127189e-01 5.872812e-01 0.000000e+00
 0.000000e+00 0.000000e+00 0.000000e+00 5.782945e-01 4.217056e-01
 0.000000e+00 0.000000e+00 0.000000e+00 0.000000e+00 0.000000e+00
<ENDHMM>
~h "l"
<BEGINHMM>
<NUMSTATES> 5
<STATE> 2
<MEAN> 39
 1.067720e+01 -1.500191e+01 4.187274e+00 1.894608e+01 -1.701229e+01 1.877402e+01 -5.740953e+00 -6.139071e+00 7.941200e+00 -1.164466e+01 -6.716294e+00 -9.890694e-01 7.508069e+01 2.048027e-01 6.952896e-01 2.306637e-01 4.912455e-01 -5.214381e-01 -2.481018e-01 9.300066e-01 5.477070e-01 5.767234e-03 -4.149120e-02 -6.998432e-01 -4.538281e-01 -3.166531e-01 1.255507e-01 -1.919248e-01 -2.638342e-01 -2.174706e-01 6.662773e-02 -2.468861e-01 -2.199137e-01 -1.627497e-01 7.860675e-03 -1.540443e-01 6.243673e-02 -2.349807e-02 3.393380e-01
<VARIANCE> 39
 1.658787e+01 5.161557e+01 3.300567e+01 3.781118e+01 6.302421e+01 4.730780e+01 2.645411e+01 3.417614e+01 4.029849e+01 2.935293e+01 3.017463e+01 4.653534e+01 1.207241e+01 1.914526e+00 3.146810e+00 2.333907e+00 1.919752e+00 3.779803e+00 3.095067e+00 2.192734e+00 2.584257e+00 2.643211e+00 2.814488e+00 2.236004e+00 2.701566e+00 1.170080e+00 1.464201e-01 4.358310e-01 3.843578e-01 4.270926e-01 4.589008e-01 4.361962e-01 3.827511e-01 3.951744e-01 4.187341e-01 5.871812e-01 4.131970e-01 4.036950e-01 1.944053e-01
<GCONST> 1.157442e+02
<STATE> 3
<MEAN> 39
 1.113048e+01 -1.393127e+01 4.525955e+00 1.909412e+01 -1.780858e+01 1.812085e+01 -4.526915e+00 -5.425268e+00 7.971508e+00 -1.190780e+01 -7.789129e+00 -1.852947e+00 7.510477e+01 4.570968e-01 3.056847e-01 -3.749097e-01 -2.621286e-02 -3.960273e-01 -5.666912e-01 5.524712e-01 1.483287e-01 -1.055473e-01 -2.929918e-01 -5.590790e-01 -4.636343e-01 2.795776e-01 1.111442e-01 -3.128196e-01 -4.261994e-01 -3.484021e-01 2.046770e-01 -1.757669e-01 -4.610730e-01 -2.851349e-01 2.149683e-02 -1.418581e-01 2.828185e-01 1.821748e-01 3.816440e-01
<VARIANCE> 39
 1.168372e+01 4.307514e+01 2.747960e+01 3.898064e+01 6.011474e+01 4.532765e+01 2.598180e+01 3.227709e+01 4.089182e+01 3.005518e+01 3.559966e+01 5.409994e+01 1.094565e+01 1.824463e+00 3.612296e+00 2.358951e+00 1.793193e+00 3.045302e+00 2.513244e+00 1.847572e+00 2.229198e+00 2.687807e+00 3.378150e+00 1.507171e+00 1.901619e+00 1.477604e+00 1.988178e-01 3.763092e-01 4.711881e-01 4.639381e-01 5.134392e-01 6.258986e-01 3.625688e-01 4.847889e-01 4.192838e-01 4.807601e-01 5.231585e-01 5.777985e-01 1.989103e-01
<GCONST> 1.156149e+02
<STATE> 4
<MEAN> 39
 1.195239e+01 -1.363652e+01 3.673877e+00 1.835049e+01 -1.904125e+01 1.703642e+01 -3.234185e+00 -4.646105e+00 7.881499e+00 -1.295681e+01 -9.016785e+00 -3.009728e+00 7.583037e+01 5.546806e-01 -2.248472e-01 -1.047343e+00 -5.425824e-01 -4.651621e-04 -6.875297e-01 -2.671535e-01 -3.565372e-01 -1.267334e-01 -4.988690e-01 5.137856e-02 8.479043e-02 7.534658e-01 -1.094585e-02 -3.050969e-01 -2.971859e-01 -2.910885e-01 2.679942e-01 4.465614e-03 -4.588804e-01 -2.678923e-01 3.662380e-02 -1.654580e-02 4.219219e-01 3.858193e-01 2.363523e-01
<VARIANCE> 39
 7.923708e+00 3.426400e+01 2.059288e+01 3.838845e+01 6.138161e+01 4.246135e+01 3.015353e+01 3.544845e+01 3.584295e+01 3.210707e+01 3.816457e+01 5.169553e+01 1.174081e+01 1.251578e+00 2.935788e+00 3.320570e+00 2.279852e+00 2.452255e+00 3.070333e+00 1.659129e+00 2.427933e+00 2.750742e+00 3.172231e+00 1.863160e+00 2.370444e+00 1.674402e+00 1.985639e-01 3.986277e-01 3.630714e-01 3.935070e-01 5.530780e-01 5.762673e-01 3.911211e-01 3.812687e-01 3.968211e-01 4.613518e-01 4.158250e-01 5.355118e-01 1.654205e-01
<GCONST> 1.142696e+02
<TRANSP> 5
 0.000000e+00 1.000000e+00 0.000000e+00 0.000000e+00 0.000000e+00
 0.000000e+00 1.020745e-01 8.979255e-01 0.000000e+00 0.000000e+00
 0.000000e+00 0.000000e+00 3.981359e-02 9.601864e-01 0.000000e+00
 0.000000e+00 0.000000e+00 0.000000e+00 1.912336e-01 8.087664e-01
 0.000000e+00 0.000000e+00 0.000000e+00 0.000000e+00 0.000000e+00
<ENDHMM>
~h "m"
<BEGINHMM>
<NUMSTATES> 5
<STATE> 2
<MEAN> 39
 1.361911e+01 -9.402211e+00 -6.273783e-01 1.784177e+01 -1.515252e+01 2.136014e+01 -3.574698e+00 -8.234920e+00 8.249289e+00 -8.160356e+00 -4.071469e+00 -1.703990e+00 7.405389e+01 5.297817e-02 1.714338e+00 4.313273e-01 4.449080e-01 3.204026e-01 1.299467e+00 5.478733e-01 -9.402778e-01 -1.301861e-01 1.402747e+00 4.413729e-02 -1.208337e+00 -9.158868e-01 -8.696349e-02 -4.688184e-01 -5.709776e-03 -1.758531e-01 -5.517456e-02 -2.313562e-01 -1.682556e-01 -1.737039e-02 -6.522905e-02 -2.419327e-01 1.083645e-01 2.660281e-01 3.053375e-01
<VARIANCE> 39
 5.714797e+00 1.060519e+01 2.363151e+01 1.680121e+01 2.429917e+01 2.209921e+01 1.075430e+01 1.777212e+01 1.673039e+01 1.372057e+01 1.444522e+01 1.834309e+01 6.220715e+00 7.543718e-01 1.123861e+00 1.280759e+00 1.502741e+00 1.614431e+00 1.987141e+00 1.049695e+00 1.465928e+00 1.219617e+00 1.858330e+00 1.082366e+00 1.410606e+00 7.456369e-01 7.201808e-02 1.215598e-01 1.936175e-01 2.362984e-01 2.760844e-01 3.987778e-01 1.687739e-01 3.088448e-01 2.052093e-01 2.586746e-01 1.629207e-01 2.101595e-01 6.995581e-02
<GCONST> 8.722897e+01
<STATE> 3
<MEAN> 39
 1.261196e+01 -6.420648e+00 1.944959e+00 1.924713e+01 -1.479662e+01 2.334324e+01 -2.537599e+00 -1.061135e+01 7.326894e+00 -5.075414e+00 -4.009881e+00 -4.519939e+00 7.218106e+01 -2.317305e-03 5.001008e-01 -1.292003e-02 -1.457821e-01 2.209017e-01 1.729311e-01 1.325482e-01 -2.192247e-01 -2.097963e-01 2.272065e-01 7.548730e-02 -5.281176e-02 -1.746934e-01 1.634742e-03 -4.834741e-01 -1.484128e-01 -5.997270e-02 -1.558456e-02 -3.472871e-01 -1.972982e-01 3.775544e-01 9.560440e-02 -5.285182e-01 -1.040765e-01 3.475412e-01 2.360122e-01
<VARIANCE> 39
 4.394884e+00 1.104984e+01 1.326165e+01 1.121023e+01 1.885123e+01 1.451184e+01 8.179109e+00 1.713520e+01 1.524504e+01 1.436496e+01 1.346141e+01 1.320325e+01 7.498787e+00 3.136120e-01 5.908230e-01 7.633559e-01 8.437956e-01 1.107904e+00 1.052317e+00 6.785346e-01 1.126465e+00 7.926759e-01 1.140071e+00 6.683087e-01 7.487996e-01 2.499235e-01 5.592003e-02 2.046127e-01 1.455168e-01 2.428679e-01 2.830427e-01 3.781769e-01 2.070309e-01 2.670853e-01 1.920399e-01 2.708970e-01 1.671620e-01 2.105018e-01 7.715792e-02
<GCONST> 7.747113e+01
<STATE> 4
<MEAN> 39
 1.266586e+01 -7.439538e+00 3.281844e-01 1.693806e+01 -1.507755e+01 2.343658e+01 -1.889786e+00 -9.568972e+00 6.751428e+00 -6.802407e+00 -4.411620e+00 -2.696865e+00 7.259403e+01 2.593227e-02 -1.300965e+00 -5.439046e-01 -2.446458e-01 1.204680e-01 -1.128720e+00 -7.974923e-01 1.013751e+00 3.378678e-01 -1.565777e+00 -2.262070e-01 1.136463e+00 7.149535e-01 -1.340184e-01 -7.546481e-01 8.280040e-02 8.998379e-02 -4.492038e-02 -4.080406e-01 -4.575603e-01 2.500548e-01 2.504500e-01 -3.637819e-01 5.343458e-02 3.594329e-01 3.040331e-01
<VARIANCE> 39
 8.857257e+00 1.234116e+01 1.325490e+01 1.670289e+01 2.508783e+01 1.850469e+01 1.204865e+01 1.876202e+01 1.848524e+01 1.683207e+01 1.578536e+01 1.615746e+01 1.156615e+01 8.099182e-01 1.957306e+00 2.429369e+00 3.038820e+00 2.644021e+00 3.979262e+00 2.217308e+00 2.391467e+00 1.890090e+00 2.524265e+00 1.359988e+00 1.639467e+00 1.093132e+00 1.207473e-01 3.625619e-01 2.830547e-01 3.868078e-01 3.385625e-01 5.759480e-01 3.865630e-01 4.213258e-01 2.894110e-01 4.333706e-01 2.737505e-01 3.884111e-01 1.040940e-01
<GCONST> 1.006273e+02
<TRANSP> 5
 0.000000e+00 1.000000e+00 0.000000e+00 0.000000e+00 0.000000e+00
 0.000000e+00 4.745183e-01 5.254817e-01 0.000000e+00 0.000000e+00
 0.000000e+00 0.000000e+00 6.882250e-01 3.117750e-01 0.000000e+00
 0.000000e+00 0.000000e+00 0.000000e+00 5.021177e-01 4.978823e-01
 0.000000e+00 0.000000e+00 0.000000e+00 0.000000e+00 0.000000e+00
<ENDHMM>
~h "n"
<BEGINHMM>
<NUMSTATES> 5
<STATE> 2
<MEAN> 39
 1.373675e+01 -1.193993e+01 -9.275736e-01 1.777677e+01 -1.420535e+01 1.942126e+01 -4.987234e+00 -7.679951e+00 8.060001e+00 -1.001974e+01 -4.111172e+00 -2.496007e-01 7.589730e+01 -7.622457e-02 1.935091e+00 4.957868e-01 4.785288e-01 1.282767e-01 1.374054e+00 7.401154e-01 -9.374423e-01 -4.310955e-01 1.586765e+00 -2.139253e-01 -1.393777e+00 -1.324631e+00 -5.795994e-02 -1.448006e-01 5.110890e-02 -5.667756e-02 -1.335060e-01 -1.020638e-01 -4.366886e-02 -5.861046e-02 -3.876052e-02 -8.033721e-02 3.096935e-02 3.930681e-02 9.939829e-02
<VARIANCE> 39
 3.133987e+00 1.212267e+01 1.734221e+01 2.272104e+01 3.729288e+01 3.193299e+01 2.754438e+01 2.992089e+01 2.474105e+01 2.492574e+01 1.933578e+01 2.287591e+01 5.894020e+00 2.789136e-01 7.584293e-01 1.253376e+00 1.658769e+00 2.548078e+00 2.208426e+00 2.296351e+00 1.947725e+00 2.056034e+00 1.654412e+00 1.073101e+00 1.525097e+00 3.678579e-01 4.421613e-02 2.192728e-01 1.489316e-01 2.174242e-01 3.329952e-01 3.936326e-01 2.406957e-01 2.446075e-01 3.206331e-01 2.939253e-01 1.650734e-01 2.295625e-01 8.073050e-02
<GCONST> 9.141707e+01
<STATE> 3
<MEAN> 39
 1.346162e+01 -7.911810e+00 8.637905e-01 1.879018e+01 -1.461972e+01 2.279671e+01 -4.215007e+00 -1.134923e+01 7.384213e+00 -6.405406e+00 -4.610590e+00 -3.889237e+00 7.344241e+01 -1.732933e-01 9.557060e-01 3.534528e-01 1.491764e-01 -7.871098e-02 2.607621e-01 3.350262e-01 -2.793989e-01 -2.272041e-01 6.847593e-01 -1.265735e-01 -4.690005e-01 -6.319306e-01 -7.261448e-02 -5.041252e-01 1.037409e-02 1.239307e-02 -9.698872e-02 -3.606277e-01 -8.886166e-02 3.803521e-01 5.347124e-02 -3.998391e-01 6.565712e-02 3.823625e-01 2.278004e-01
<VARIANCE> 39
 1.838478e+00 8.599610e+00 9.500779e+00 1.021304e+01 1.672527e+01 1.798878e+01 1.435709e+01 1.862948e+01 1.574873e+01 1.334837e+01 1.371299e+01 1.590927e+01 3.851016e+00 1.637556e-01 6.130028e-01 6.314527e-01 8.522866e-01 1.333092e+00 1.285852e+00 1.215677e+00 1.198065e+00 1.196705e+00 1.013125e+00 7.163066e-01 9.305042e-01 2.288933e-01 3.845732e-02 2.417342e-01 1.590772e-01 1.945094e-01 2.456230e-01 2.711080e-01 2.674724e-01 2.483641e-01 2.410800e-01 2.493728e-01 1.656693e-01 1.922972e-01 9.902054e-02
<GCONST> 7.655442e+01
<STATE> 4
<MEAN> 39
 1.245233e+01 -8.177452e+00 1.746251e+00 1.944168e+01 -1.516580e+01 2.118483e+01 -3.270857e+00 -9.383726e+00 6.483228e+00 -6.827872e+00 -4.795320e+00 -2.746541e+00 7.262946e+01 -3.568694e-01 -1.126879e+00 2.403907e-01 4.214577e-01 -3.783305e-01 -6.026482e-01 1.749087e-01 9.135342e-01 -1.313929e-01 -6.965202e-01 1.906534e-01 8.334976e-01 1.657677e-01 -6.158959e-02 -6.920276e-01 -7.882759e-02 -1.559402e-01 3.449067e-03 -2.301307e-01 -3.301818e-01 2.384406e-01 2.270928e-01 -4.106714e-01 8.740253e-02 4.367066e-01 3.516393e-01
<VARIANCE> 39
 3.788191e+00 1.720529e+01 1.355374e+01 1.660450e+01 1.962193e+01 1.894335e+01 1.715731e+01 2.195541e+01 1.857893e+01 1.812443e+01 1.816526e+01 1.979389e+01 7.833275e+00 5.418068e-01 2.300111e+00 1.979168e+00 1.477477e+00 1.598474e+00 1.998886e+00 1.860676e+00 1.843370e+00 1.831993e+00 2.322773e+00 1.408257e+00 1.588043e+00 1.152571e+00 8.059678e-02 4.582697e-01 2.864563e-01 2.895405e-01 3.360642e-01 4.040678e-01 4.167015e-01 3.831026e-01 3.131416e-01 4.003367e-01 2.522480e-01 3.305173e-01 1.600289e-01
<GCONST> 9.695198e+01
<TRANSP> 5
 0.000000e+00 1.000000e+00 0.000000e+00 0.000000e+00 0.000000e+00
 0.000000e+00 3.666379e-01 6.333622e-01 0.000000e+00 0.000000e+00
 0.000000e+00 0.000000e+00 6.321668e-01 3.678332e-01 0.000000e+00
 0.000000e+00 0.000000e+00 0.000000e+00 4.837225e-01 5.162776e-01
 0.000000e+00 0.000000e+00 0.000000e+00 0.000000e+00 0.000000e+00
<ENDHMM>
~h "o"
<BEGINHMM>
<NUMSTATES> 5
<STATE> 2
<MEAN> 39
 8.733058e+00 -1.760147e+01 8.812966e-01 1.214729e+01 -2.173911e+01 1.638636e+01 -5.470145e+00 -2.843857e+00 1.031667e+01 -1.182186e+01 -8.891449e+00 2.353054e+00 7.406090e+01 1.711810e+00 1.745720e+00 -5.232641e-01 1.132814e-02 -1.292534e+00 -1.577781e+00 -3.194181e-01 8.599505e-01 1.588784e+00 -8.433568e-01 -9.389009e-01 -1.781723e+00 7.260643e-01 5.560086e-02 1.611955e-01 1.972587e-01 1.482233e-01 -1.093170e-01 -4.117111e-01 -3.307995e-01 4.573483e-02 3.687225e-01 1.706962e-01 2.230875e-01 -1.587677e-01 1.646349e-01
<VARIANCE> 39
 2.745631e+01 6.671819e+01 2.604756e+01 2.606882e+01 4.456569e+01 3.867559e+01 3.086865e+01 3.586698e+01 2.921417e+01 4.900055e+01 2.351763e+01 3.185696e+01 3.664384e+01 3.165704e+00 6.857967e+00 3.038294e+00 3.435171e+00 4.138648e+00 3.562533e+00 2.897069e+00 2.779095e+00 4.216359e+00 3.662281e+00 2.701510e+00 4.484092e+00 1.546274e+00 2.936365e-01 7.034584e-01 4.449897e-01 4.168901e-01 5.289558e-01 6.575230e-01 6.175691e-01 4.179685e-01 7.591731e-01 6.370112e-01 4.483896e-01 6.210644e-01 2.253629e-01
<GCONST> 1.243593e+02
<STATE> 3
<MEAN> 39
 1.523977e+01 -1.418562e+01 -5.656117e-01 1.263879e+01 -2.458230e+01 1.093349e+01 -7.686595e+00 -7.715647e-01 1.583457e+01 -1.635173e+01 -1.122829e+01 -4.959809e+00 7.989963e+01 8.504022e-01 1.301121e+00 -3.062295e-01 -1.090574e-02 -1.071657e+00 -2.588949e+00 -8.256082e-01 8.991985e-01 1.734758e+00 6.433899e-01 1.279818e-01 -1.094096e+00 4.646705e-01 -6.211402e-01 -4.263820e-01 2.131690e-01 9.497667e-02 5.136772e-01 2.530227e-01 1.072633e-01 -2.432954e-01 -5.583166e-01 6.345885e-01 4.914165e-01 7.805690e-01 -3.872217e-01
<VARIANCE> 39
 2.552716e+00 1.391423e+01 2.063803e+01 1.426655e+01 4.346375e+01 3.792857e+01 2.096879e+01 2.313413e+01 3.350869e+01 4.100494e+01 1.815389e+01 1.890694e+01 6.926362e+00 1.252695e+00 2.358282e+00 1.717150e+00 1.872260e+00 4.126970e+00 2.995074e+00 2.069439e+00 1.678711e+00 2.803767e+00 3.661755e+00 1.772042e+00 2.803369e+00 8.850162e-01 2.012020e-01 5.542570e-01 3.158948e-01 4.167512e-01 4.722335e-01 6.005468e-01 4.169533e-01 2.568698e-01 4.841253e-01 6.336702e-01 3.798664e-01 3.710332e-01 1.366525e-01
<GCONST> 1.064974e+02
<STATE> 4
<MEAN> 39
 1.451092e+01 -1.084173e+01 3.969083e-01 1.395645e+01 -2.602151e+01 3.688745e+00 -9.125383e+00 1.271389e+00 1.679295e+01 -1.125779e+01 -8.818719e+00 -3.021710e+00 7.744904e+01 -2.331143e-01 4.024752e-01 2.462780e-01 5.266272e-01 3.670652e-01 3.222906e-01 2.814435e-01 -1.295945e-02 -2.504351e-01 5.016612e-01 1.593387e-01 2.639390e-01 -6.045128e-01 -1.120936e-01 -1.045662e-01 6.096822e-02 6.208334e-02 1.791817e-01 5.803620e-01 1.283357e-01 -2.682135e-01 -2.811137e-01 -5.818779e-02 -2.490475e-02 7.940865e-02 -1.353738e-01
<VARIANCE> 39
 2.837978e+00 1.523631e+01 1.859297e+01 2.194534e+01 3.970288e+01 5.111758e+01 2.154188e+01 1.956724e+01 2.272121e+01 3.017653e+01 2.203183e+01 2.315406e+01 1.081800e+01 2.801094e-01 1.109881e+00 1.143354e+00 1.488095e+00 2.431471e+00 4.861613e+00 2.172923e+00 1.974085e+00 2.057478e+00 2.393406e+00 1.786273e+00 1.694670e+00 7.934563e-01 6.534620e-02 2.262278e-01 2.021506e-01 3.043629e-01 3.957423e-01 5.304329e-01 3.899478e-01 3.086119e-01 4.250157e-01 4.228220e-01 2.876769e-01 3.124988e-01 1.157747e-01
<GCONST> 9.905797e+01
<TRANSP> 5
 0.000000e+00 1.000000e+00 0.000000e+00 0.000000e+00 0.000000e+00
 0.000000e+00 5.423822e-01 4.576178e-01 0.000000e+00 0.000000e+00
 0.000000e+00 0.000000e+00 5.520267e-01 4.479733e-01 0.000000e+00
 0.000000e+00 0.000000e+00 0.000000e+00 8.009279e-01 1.990721e-01
 0.000000e+00 0.000000e+00 0.000000e+00 0.000000e+00 0.000000e+00
<ENDHMM>
~h "p"
<BEGINHMM>
<NUMSTATES> 5
<STATE> 2
<MEAN> 39
 8.027438e+00 -1.127229e+01 1.174918e+00 1.802005e+01 -1.978801e+01 1.665517e+01 -5.884556e+00 -4.820920e+00 9.278584e+00 -2.948174e+00 -2.532838e+00 4.862006e+00 6.786790e+01 -9.276839e-01 -1.514748e-01 -8.229050e-02 -1.823283e-01 -2.393682e-01 -1.042500e-01 -5.402363e-02 -2.617732e-01 -6.753181e-01 4.467842e-01 -4.563698e-01 -2.500820e-02 -1.037378e+00 1.721569e-01 -6.298448e-01 -7.884704e-02 -2.738695e-01 1.263569e-02 2.410300e-01 -9.550031e-02 1.406571e-02 9.052581e-02 -7.049885e-01 -2.984700e-01 -4.362523e-01 6.072219e-01
<VARIANCE> 39
 1.044188e+01 1.695285e+01 1.016439e+01 1.167090e+01 2.985358e+01 2.112978e+01 1.328521e+01 3.058854e+01 2.656450e+01 1.293695e+01 1.950714e+01 1.215434e+01 6.741944e+00 1.329747e-01 1.348741e+00 3.301094e-01 7.549444e-01 1.055446e+00 1.471228e+00 1.085023e+00 1.398098e+00 1.525825e+00 2.317212e+00 1.704144e+00 1.552242e+00 7.810564e-01 2.482687e-02 2.294246e-01 1.228289e-01 1.025549e-01 2.027690e-01 2.609152e-01 1.943232e-01 3.213663e-01 2.601833e-01 2.601165e-01 3.358064e-01 2.782134e-01 8.698554e-02
<GCONST> 8.427711e+01
<STATE> 3
<MEAN> 39
 5.432396e+00 -1.702379e+01 -6.691278e-01 1.551175e+01 -2.056739e+01 1.764592e+01 -6.046452e+00 -5.263822e+00 5.230089e+00 -8.260057e+00 -5.575733e+00 2.716548e+00 6.790552e+01 5.739893e-02 -2.696453e+00 -4.190307e-01 -1.161403e+00 -1.029150e+00 7.544811e-01 1.879500e-01 7.384400e-01 3.313855e-01 -1.704282e+00 -6.958182e-01 -3.538212e-01 1.303677e+00 2.828923e-01 1.289394e-01 3.856188e-01 7.955651e-02 -3.479340e-02 -8.661484e-02 2.618495e-01 1.424251e-01 2.691000e-01 1.016079e-01 -5.662736e-02 -7.019788e-02 3.956637e-01
<VARIANCE> 39
 1.649350e+01 4.870808e+01 9.867920e+00 1.956510e+01 3.541799e+01 1.812526e+01 1.179788e+01 2.618769e+01 1.774847e+01 5.286599e+01 1.155451e+01 5.795908e+00 2.443076e+01 3.914183e-01 4.632465e+00 1.207869e+00 7.389454e-01 2.906967e+00 1.928184e+00 1.499172e+00 2.177016e+00 2.604555e+00 2.929666e+00 1.160505e+00 1.014965e+00 1.660105e+00 1.857840e-01 1.482306e+00 2.214147e-01 5.115748e-01 4.399194e-01 4.443655e-01 3.484241e-01 5.361240e-01 2.016714e-01 9.150331e-01 3.449003e-01 3.732789e-01 5.282980e-01
<GCONST> 1.050062e+02
<STATE> 4
<MEAN> 39
 4.688808e+00 -2.190045e+01 9.399720e-01 1.337391e+01 -2.277007e+01 1.869697e+01 -7.192326e+00 -4.549448e+00 8.365714e+00 -8.516981e+00 -7.327266e+00 2.952376e+00 7.023124e+01 5.524474e-01 -9.510413e-01 1.358744e+00 -5.002679e-01 -4.602982e-01 3.817056e-01 6.103945e-01 6.772387e-01 5.194939e-01 -7.667475e-01 -6.048975e-01 -5.805738e-01 1.601666e+00 3.322979e-01 8.204109e-01 1.869634e-01 3.417898e-01 2.151040e-01 -6.333394e-01 2.597493e-01 9.512520e-02 -1.384107e-02 1.592479e-01 2.419983e-01 -1.882169e-01 1.834770e-01
<VARIANCE> 39
 1.141496e+01 3.885857e+01 2.503365e+01 2.427208e+01 4.645412e+01 2.317675e+01 2.838675e+01 1.730373e+01 1.745508e+01 2.077978e+01 2.856118e+01 2.079830e+01 2.374355e+01 1.925086e+00 6.029763e+00 2.372242e+00 3.972032e+00 2.764550e+00 2.054313e+00 3.103668e+00 2.444659e+00 2.119637e+00 4.291064e+00 1.912322e+00 2.126981e+00 3.047896e+00 2.353798e-01 1.822191e+00 6.685409e-01 3.785992e-01 4.099695e-01 6.236708e-01 4.266058e-01 4.006154e-01 6.368958e-01 5.309200e-01 4.680758e-01 3.290721e-01 4.579255e-01
<GCONST> 1.169044e+02
<TRANSP> 5
 0.000000e+00 1.000000e+00 0.000000e+00 0.000000e+00 0.000000e+00
 0.000000e+00 7.258900e-01 2.741100e-01 0.000000e+00 0.000000e+00
 0.000000e+00 0.000000e+00 4.895047e-01 5.104954e-01 0.000000e+00
 0.000000e+00 0.000000e+00 0.000000e+00 3.506814e-01 6.493186e-01
 0.000000e+00 0.000000e+00 0.000000e+00 0.000000e+00 0.000000e+00
<ENDHMM>
~h "r"
<BEGINHMM>
<NUMSTATES> 5
<STATE> 2
<MEAN> 39
 8.506237e+00 -2.202798e+01 -3.192523e-01 1.851628e+01 -1.274063e+01 1.980638e+01 -5.508628e+00 -7.568747e+00 4.005363e+00 -1.225633e+01 -3.092366e+00 5.855306e+00 7.579823e+01 -6.298277e-01 -9.048145e-01 1.790242e-01 2.626736e-01 -1.585961e-01 2.450076e-01 5.199090e-01 -5.481159e-02 -7.493728e-01 5.300128e-02 -1.317887e-01 3.974628e-01 -3.722290e-01 1.307042e-01 2.791743e-01 -2.065671e-01 -1.527471e-01 -7.721989e-02 -1.039657e-01 -2.496930e-01 -1.332720e-01 1.017372e-01 -2.868754e-02 -8.885489e-02 -1.748464e-01 -2.475184e-02
<VARIANCE> 39
 3.681324e+01 8.131270e+01 5.019912e+01 4.683189e+01 4.769115e+01 5.452331e+01 3.744839e+01 3.480287e+01 3.219246e+01 3.928130e+01 3.824318e+01 3.629077e+01 1.351005e+01 9.653771e-01 4.431331e+00 3.754671e+00 2.860604e+00 3.705241e+00 4.176264e+00 2.448666e+00 2.159834e+00 2.201406e+00 2.483750e+00 2.030127e+00 1.769387e+00 1.092436e+00 1.698159e-01 8.092821e-01 5.691685e-01 4.502358e-01 6.573730e-01 8.254542e-01 4.738826e-01 3.782354e-01 4.600403e-01 4.859999e-01 4.273779e-01 3.403266e-01 2.115385e-01
<GCONST> 1.201038e+02
<STATE> 3
<MEAN> 39
 1.145287e+01 -1.780768e+01 -2.191807e+00 1.920223e+01 -1.179436e+01 1.869838e+01 -5.655031e+00 -8.596166e+00 1.682761e+00 -1.406808e+01 -3.384321e+00 4.283023e+00 7.602268e+01 -1.785345e-01 5.195225e-01 1.549025e-01 4.342778e-01 -1.513805e-01 3.168746e-01 6.761269e-02 -1.869801e-01 -1.648535e-01 3.535330e-01 -3.241033e-01 -1.723663e-01 -7.967633e-01 9.219745e-02 1.627397e-01 -1.649849e-01 -1.667307e-01 2.464268e-02 -1.841826e-01 -2.877868e-01 2.527969e-02 3.804532e-01 5.873428e-02 -8.182039e-03 -1.735398e-01 1.019051e-01
<VARIANCE> 39
 2.025996e+01 5.017352e+01 4.638968e+01 4.117850e+01 4.629093e+01 4.154053e+01 2.936958e+01 3.433261e+01 2.871898e+01 3.525711e+01 3.431853e+01 2.933588e+01 9.749388e+00 4.658091e-01 1.648715e+00 2.749588e+00 1.813830e+00 3.418288e+00 2.843685e+00 1.776915e+00 1.579201e+00 1.925891e+00 1.769989e+00 1.581624e+00 1.405182e+00 7.205091e-01 1.296499e-01 4.111807e-01 5.406162e-01 2.924110e-01 7.264321e-01 6.196361e-01 4.745210e-01 4.202515e-01 3.726029e-01 4.161561e-01 3.174005e-01 3.566108e-01 1.966276e-01
<GCONST> 1.102361e+02
<STATE> 4
<MEAN> 39
 5.955303e+00 -2.135836e+01 -4.756365e+00 1.596127e+01 -1.538982e+01 2.012594e+01 -4.991378e+00 -8.338288e+00 2.266516e+00 -1.046534e+01 -4.450515e+00 6.004823e+00 7.075826e+01 -1.018038e-01 8.756062e-01 -3.196105e-01 -1.839300e-01 -2.240586e-01 -4.545151e-01 -1.805541e-01 2.026085e-01 3.308340e-01 4.511402e-01 -2.240256e-01 -4.060832e-01 -6.379197e-01 1.782077e-02 -2.301623e-02 6.487647e-02 -3.189200e-02 1.619581e-02 -1.103252e-01 -1.327257e-01 6.821743e-02 2.182511e-01 -7.435132e-03 5.721458e-02 -6.821936e-02 1.377963e-01
<VARIANCE> 39
 3.792362e+01 6.894651e+01 3.868806e+01 3.364725e+01 3.592322e+01 2.684667e+01 2.603342e+01 2.522425e+01 2.525261e+01 3.387362e+01 2.872872e+01 3.715302e+01 2.840077e+01 5.041356e-01 1.955645e+00 2.048476e+00 1.360238e+00 2.211232e+00 1.997621e+00 1.605078e+00 1.472180e+00 1.809721e+00 1.966133e+00 1.409268e+00 1.567600e+00 8.100312e-01 9.229708e-02 2.518425e-01 3.699791e-01 2.241734e-01 4.234277e-01 3.562803e-01 3.405486e-01 2.777166e-01 3.546479e-01 3.307831e-01 2.649911e-01 2.907377e-01 9.717944e-02
<GCONST> 1.048158e+02
<TRANSP> 5
 0.000000e+00 1.000000e+00 0.000000e+00 0.000000e+00 0.000000e+00
 0.000000e+00 4.388810e-01 5.611190e-01 0.000000e+00 0.000000e+00
 0.000000e+00 0.000000e+00 2.895091e-01 7.104909e-01 0.000000e+00
 0.000000e+00 0.000000e+00 0.000000e+00 5.413681e-01 4.586320e-01
 0.000000e+00 0.000000e+00 0.000000e+00 0.000000e+00 0.000000e+00
<ENDHMM>
~h "s"
<BEGINHMM>
<NUMSTATES> 5
<STATE> 2
<MEAN> 39
 3.916802e+00 -2.266361e+01 1.247009e+01 1.209878e+01 -1.755497e+01 2.397499e+01 -2.132886e+00 -5.078795e+00 6.855903e+00 -9.633461e+00 -1.583783e+00 5.043891e+00 7.757574e+01 -3.505728e+00 -2.932913e+00 5.216846e+00 -1.838178e+00 -8.093930e-01 8.871164e-01 5.497414e-01 4.658674e-01 -3.562752e-01 2.660266e-01 6.980420e-01 1.273535e+00 7.461109e-01 -2.372639e-01 -1.851091e-01 -4.430635e-02 -3.421544e-01 -1.885205e-01 -4.039691e-01 -4.367319e-01 -1.062332e-01 1.287536e-01 -4.743877e-01 -2.027930e-01 -1.009094e-01 1.732019e-01
<VARIANCE> 39
 4.352610e+01 5.400220e+01 7.623849e+01 3.684085e+01 4.686480e+01 4.196655e+01 3.768238e+01 6.109180e+01 3.273080e+01 3.898230e+01 2.270628e+01 2.366147e+01 1.564926e+01 1.294189e+00 2.031860e+00 3.180825e+00 2.246222e+00 2.826852e+00 3.409571e+00 3.459524e+00 2.830833e+00 2.346100e+00 4.170924e+00 2.184456e+00 2.258813e+00 6.420484e-01 4.451151e-01 7.328683e-01 1.342204e+00 3.820081e-01 4.398327e-01 4.968634e-01 5.243727e-01 3.941633e-01 4.151838e-01 5.912395e-01 3.362044e-01 3.993003e-01 1.696798e-01
<GCONST> 1.197368e+02
<STATE> 3
<MEAN> 39
 -8.081795e+00 -3.249331e+01 2.421688e+01 3.545408e+00 -2.099088e+01 2.408459e+01 -4.640604e+00 -5.606730e+00 7.583386e+00 -1.184891e+01 -1.706250e+00 6.924731e+00 8.017920e+01 -7.373959e-01 -9.723890e-01 -3.342015e-01 -7.388359e-01 -2.880462e-01 -3.065850e-01 -4.928350e-01 -1.709801e-01 1.424533e-01 -4.245055e-03 -1.443250e-01 1.443848e-01 -1.863033e-03 7.131537e-01 3.766391e-01 -1.019657e+00 4.415032e-01 2.098696e-01 -8.651480e-02 3.870827e-02 -7.105616e-02 -6.461301e-02 2.023338e-01 -8.880688e-02 -1.162934e-01 -1.939916e-01
<VARIANCE> 39
 1.327824e+01 2.060221e+01 1.908340e+01 3.094095e+01 2.781571e+01 3.703111e+01 2.964390e+01 4.933557e+01 2.719079e+01 3.104762e+01 1.784673e+01 1.665475e+01 4.824374e+00 2.187906e+00 9.057282e-01 5.019582e+00 1.851438e+00 1.503806e+00 1.529120e+00 2.223637e+00 1.613824e+00 1.708584e+00 1.902184e+00 1.470472e+00 1.103591e+00 3.407422e-01 1.839449e-01 2.835587e-01 5.028104e-01 2.500556e-01 2.663498e-01 3.311453e-01 3.997108e-01 3.335032e-01 3.019992e-01 3.051326e-01 3.008170e-01 2.700499e-01 4.647955e-02
<GCONST> 1.000775e+02
<STATE> 4
<MEAN> 39
 -3.570804e+00 -3.250809e+01 1.301797e+01 5.250929e+00 -2.011527e+01 2.310362e+01 -5.254392e+00 -6.557752e+00 7.106915e+00 -9.128386e+00 -3.070435e+00 7.121557e+00 7.752420e+01 2.937772e+00 2.629350e+00 -2.613800e+00 1.569330e+00 4.534053e-01 1.470752e-01 -1.867487e-01 -1.147977e-01 7.652187e-02 -3.455645e-01 -6.344346e-01 -9.311015e-01 -6.608657e-01 5.495816e-01 8.596706e-01 2.275552e-01 2.831663e-01 -5.888368e-02 2.916221e-02 -1.735583e-01 2.050951e-02 2.454206e-01 -5.384367e-01 -2.145765e-02 -4.381735e-01 2.444763e-01
<VARIANCE> 39
 2.410657e+01 3.772267e+01 3.662214e+01 2.499722e+01 3.428812e+01 3.457325e+01 4.473654e+01 4.380376e+01 2.354374e+01 3.461530e+01 1.926761e+01 1.886612e+01 1.238937e+01 2.784242e+00 4.467929e+00 3.396046e+00 1.931412e+00 2.527390e+00 3.023417e+00 2.596198e+00 2.884216e+00 2.410573e+00 2.781986e+00 1.563663e+00 2.319950e+00 1.272825e+00 3.989274e-01 7.850374e-01 4.749331e-01 3.444571e-01 4.321436e-01 5.377202e-01 5.994256e-01 4.673293e-01 4.624762e-01 4.221699e-01 3.251566e-01 3.857905e-01 2.436987e-01
<GCONST> 1.161405e+02
<TRANSP> 5
 0.000000e+00 1.000000e+00 0.000000e+00 0.000000e+00 0.000000e+00
 0.000000e+00 6.684555e-01 3.315445e-01 0.000000e+00 0.000000e+00
 0.000000e+00 0.000000e+00 8.414997e-01 1.585004e-01 0.000000e+00
 0.000000e+00 0.000000e+00 0.000000e+00 7.024186e-01 2.975814e-01
 0.000000e+00 0.000000e+00 0.000000e+00 0.000000e+00 0.000000e+00
<ENDHMM>
~h "t"
<BEGINHMM>
<NUMSTATES> 5
<STATE> 2
<MEAN> 39
 3.347624e+00 -1.645422e+01 2.994913e+00 1.835498e+01 -1.733622e+01 1.907628e+01 -7.026749e+00 -7.147522e+00 5.954340e+00 -5.083205e+00 -4.805639e+00 2.803521e+00 6.699089e+01 -4.723205e-01 -1.720847e+00 2.517492e-02 -1.628861e+00 -7.292941e-01 -1.245511e-01 -4.599558e-01 1.864628e-01 -3.026981e-01 -6.055524e-01 -1.601539e-01 1.546614e-01 6.558794e-01 1.416144e-01 -1.138956e+00 3.534340e-01 -6.498993e-01 -2.126667e-01 2.107238e-01 -2.367234e-01 -1.623481e-01 6.487606e-02 -5.329410e-01 7.196259e-02 3.626984e-02 1.075831e+00
<VARIANCE> 39
 2.387848e+01 4.535332e+01 2.588342e+01 2.802023e+01 4.250650e+01 2.958896e+01 2.872625e+01 3.680151e+01 2.579169e+01 1.738501e+01 1.925670e+01 1.739637e+01 9.349027e+00 1.260256e+00 6.798870e+00 3.045366e+00 3.966254e+00 3.330261e+00 2.718574e+00 2.966022e+00 2.325306e+00 2.331460e+00 2.640788e+00 1.844230e+00 1.750380e+00 3.913842e+00 1.584282e-01 5.084987e-01 4.688415e-01 4.997238e-01 4.195422e-01 4.139006e-01 4.470391e-01 4.179298e-01 4.371566e-01 4.329534e-01 3.776520e-01 3.337923e-01 2.274373e-01
<GCONST> 1.140197e+02
<STATE> 3
<MEAN> 39
 1.355631e+00 -3.133179e+01 7.907814e+00 8.449622e+00 -2.220720e+01 2.049604e+01 -1.015438e+01 -6.337666e+00 6.816703e+00 -9.789207e+00 -4.180997e+00 3.744949e+00 7.636093e+01 2.124895e-01 -2.889230e+00 7.636619e-01 -1.411041e+00 -8.688855e-01 4.313300e-01 -5.256181e-01 -4.403822e-01 3.941978e-02 -8.156646e-01 3.414387e-01 5.152761e-01 2.225777e+00 5.544579e-01 1.464419e+00 -5.715116e-01 1.134246e+00 7.061207e-01 -1.268862e-01 5.453514e-01 -7.359196e-02 3.542392e-03 2.693597e-01 2.487346e-02 -9.265910e-02 -4.803880e-01
<VARIANCE> 39
 2.697348e+01 3.246539e+01 6.225446e+01 3.761985e+01 4.970728e+01 3.488767e+01 4.276838e+01 3.246839e+01 2.980119e+01 2.682764e+01 1.831099e+01 1.660065e+01 1.768097e+01 2.565425e+00 5.504872e+00 3.952282e+00 4.737239e+00 3.401357e+00 2.748348e+00 3.828696e+00 2.997431e+00 3.886648e+00 3.419655e+00 1.927129e+00 1.870825e+00 2.597554e+00 2.800561e-01 1.018047e+00 8.117133e-01 8.221691e-01 1.058613e+00 6.689150e-01 7.952668e-01 6.555607e-01 7.100576e-01 5.552610e-01 4.063335e-01 4.604262e-01 4.446801e-01
<GCONST> 1.251827e+02
<STATE> 4
<MEAN> 39
 2.575591e+00 -2.966899e+01 6.093347e+00 1.123614e+01 -2.006342e+01 1.978342e+01 -7.185017e+00 -8.123171e+00 5.198187e+00 -7.450632e+00 -3.103695e+00 4.919862e+00 7.608850e+01 2.195158e+00 2.817747e+00 -1.656192e+00 1.663960e+00 1.747318e+00 1.366246e-01 9.758981e-01 -4.405400e-02 1.417481e-01 -6.687158e-01 3.048494e-02 -4.437858e-01 2.680244e-01 4.625241e-01 1.159663e+00 -3.137672e-01 5.501938e-01 4.457929e-01 -4.992544e-02 -7.283005e-02 1.283406e-01 2.656587e-01 -3.117429e-01 -7.894552e-02 -3.677030e-01 -1.935563e-01
<VARIANCE> 39
 1.763828e+01 4.145088e+01 3.296494e+01 3.490731e+01 3.736112e+01 2.591140e+01 4.065578e+01 3.716749e+01 2.993851e+01 2.794667e+01 2.136068e+01 1.762729e+01 1.452592e+01 2.482955e+00 3.410411e+00 3.315264e+00 3.657989e+00 4.275577e+00 3.576994e+00 3.596665e+00 3.674823e+00 2.305115e+00 3.150291e+00 2.294882e+00 2.467124e+00 2.478869e+00 3.652769e-01 1.072384e+00 6.273221e-01 7.463078e-01 5.877822e-01 5.679234e-01 6.901153e-01 5.101877e-01 4.876185e-01 6.497858e-01 4.334583e-01 5.147764e-01 3.724554e-01
<GCONST> 1.219429e+02
<TRANSP> 5
 0.000000e+00 1.000000e+00 0.000000e+00 0.000000e+00 0.000000e+00
 0.000000e+00 6.679527e-01 3.320473e-01 0.000000e+00 0.000000e+00
 0.000000e+00 0.000000e+00 5.400484e-01 4.599516e-01 0.000000e+00
 0.000000e+00 0.000000e+00 0.000000e+00 5.080609e-01 4.919391e-01
 0.000000e+00 0.000000e+00 0.000000e+00 0.000000e+00 0.000000e+00
<ENDHMM>
~h "u"
<BEGINHMM>
<NUMSTATES> 5
<STATE> 2
<MEAN> 39
 1.296437e+01 -1.267613e+01 1.692617e+00 1.743503e+01 -2.048118e+01 1.300317e+01 -6.222341e+00 -1.999537e+00 1.367064e+01 -1.154950e+01 -1.162118e+01 -5.381595e+00 7.591862e+01 6.861669e-01 7.972937e-01 -2.830123e-01 6.693440e-01 5.872301e-02 -1.883977e+00 -3.465860e-01 9.305479e-01 8.488536e-01 -7.195183e-01 -1.158736e+00 -9.695348e-01 4.389891e-01 -2.439321e-01 6.709572e-03 8.820431e-02 1.564303e-02 1.595360e-01 2.212121e-01 5.101959e-02 -5.559829e-02 -5.758566e-02 3.706779e-01 2.048595e-01 1.728866e-01 -2.375875e-01
<VARIANCE> 39
 6.175402e+00 2.853980e+01 1.937369e+01 2.339671e+01 5.155734e+01 5.621146e+01 2.668858e+01 2.498210e+01 2.792189e+01 4.216921e+01 2.639269e+01 2.989985e+01 7.863731e+00 7.723659e-01 3.479057e+00 1.835113e+00 2.822002e+00 4.046481e+00 5.157482e+00 2.774274e+00 1.937122e+00 1.963128e+00 3.057647e+00 2.910654e+00 2.712785e+00 8.071031e-01 1.749261e-01 7.734599e-01 3.940480e-01 4.453097e-01 5.831968e-01 7.416624e-01 4.002135e-01 2.807456e-01 3.774524e-01 5.398363e-01 4.509761e-01 3.993234e-01 1.294336e-01
<GCONST> 1.121268e+02
<STATE> 3
<MEAN> 39
 1.344536e+01 -9.870981e+00 1.193307e+00 1.996692e+01 -1.965237e+01 8.353493e+00 -7.324620e+00 1.295647e+00 1.675662e+01 -1.058308e+01 -1.301619e+01 -6.045114e+00 7.488024e+01 -2.417923e-01 4.407445e-02 1.430751e-02 1.176725e-01 5.699882e-01 8.494838e-01 4.624992e-01 -3.658435e-02 -9.238592e-02 5.325436e-01 4.294847e-02 1.296022e-01 -3.281314e-01 -2.885232e-01 -2.460953e-01 2.682781e-01 -1.798560e-01 4.357553e-02 7.593570e-01 2.205781e-01 -4.589893e-01 -4.293050e-01 3.128583e-01 4.424389e-01 2.880110e-01 -1.366319e-01
<VARIANCE> 39
 5.951494e+00 2.435202e+01 1.425435e+01 1.999694e+01 3.436665e+01 6.058788e+01 2.848673e+01 2.475550e+01 2.991899e+01 3.389476e+01 2.416467e+01 2.115499e+01 1.230582e+01 3.172329e-01 1.514927e+00 1.251037e+00 9.331262e-01 1.839259e+00 4.000540e+00 1.973408e+00 2.357756e+00 1.648177e+00 2.401442e+00 1.913884e+00 1.812819e+00 6.115577e-01 1.245753e-01 4.764868e-01 3.296116e-01 2.306457e-01 3.970830e-01 6.347917e-01 3.926920e-01 4.123253e-01 3.894776e-01 4.722536e-01 4.403162e-01 4.046775e-01 1.255424e-01
<GCONST> 1.031648e+02
<STATE> 4
<MEAN> 39
 1.151877e+01 -1.282791e+01 1.183953e+00 1.933541e+01 -1.670018e+01 1.648440e+01 -4.088647e+00 -1.501214e+00 1.305397e+01 -9.792738e+00 -1.115609e+01 -3.318590e+00 7.396347e+01 -9.644572e-01 -1.054181e+00 8.059415e-01 -1.661636e-01 4.021405e-01 1.989753e+00 1.028913e+00 -1.095582e+00 -1.232159e+00 1.097845e+00 1.075373e+00 6.860632e-01 -2.661409e-01 -2.397381e-01 -4.080579e-01 2.788646e-01 -1.886336e-01 -1.962050e-01 3.336013e-02 -2.413793e-02 -2.288662e-01 -2.402953e-01 -5.072593e-02 1.189116e-01 6.876735e-02 1.199486e-01
<VARIANCE> 39
 1.264529e+01 3.269572e+01 1.395821e+01 2.352694e+01 4.131649e+01 5.330074e+01 4.323186e+01 3.237462e+01 4.231470e+01 3.883782e+01 2.986302e+01 2.181610e+01 1.705666e+01 9.681119e-01 5.906193e+00 2.327755e+00 1.627044e+00 2.742461e+00 3.861540e+00 3.904119e+00 3.207695e+00 3.272603e+00 2.845644e+00 2.112645e+00 2.749060e+00 1.308733e+00 1.857809e-01 4.437916e-01 4.663812e-01 2.995759e-01 4.525094e-01 6.376376e-01 4.652718e-01 5.053481e-01 4.975677e-01 4.255830e-01 5.492018e-01 3.199793e-01 1.372031e-01
<GCONST> 1.149482e+02
<TRANSP> 5
 0.000000e+00 1.000000e+00 0.000000e+00 0.000000e+00 0.000000e+00
 0.000000e+00 5.604606e-01 4.395394e-01 0.000000e+00 0.000000e+00
 0.000000e+00 0.000000e+00 5.762951e-01 4.237049e-01 0.000000e+00
 0.000000e+00 0.000000e+00 0.000000e+00 2.555889e-01 7.444111e-01
 0.000000e+00 0.000000e+00 0.000000e+00 0.000000e+00 0.000000e+00
<ENDHMM>
~h "v"
<BEGINHMM>
<NUMSTATES> 5
<STATE> 2
<MEAN> 39
 1.224862e+01 -1.580676e+01 7.176721e-01 1.741587e+01 -1.431433e+01 2.055715e+01 -8.734823e+00 -1.119208e+01 6.197116e+00 -1.159264e+01 -4.277366e+00 -8.772250e-01 7.686694e+01 -1.940634e-01 7.803470e-01 -2.098877e-01 -1.181287e-01 4.799831e-02 1.537732e-01 8.593791e-01 4.128927e-01 -2.447045e-01 7.045714e-01 -3.243671e-01 -4.089648e-02 -7.527927e-01 -9.990942e-02 6.114972e-02 5.943605e-02 -5.833555e-02 -8.312697e-02 1.605193e-02 -2.385493e-02 1.127263e-01 3.273918e-02 1.654506e-02 3.806056e-02 2.099798e-01 -1.496247e-01
<VARIANCE> 39
 1.248920e+01 2.649272e+01 2.107845e+01 1.772520e+01 4.730426e+01 3.160828e+01 2.488880e+01 3.373617e+01 2.843058e+01 2.775599e+01 1.760826e+01 4.056130e+01 1.629510e+01 3.189141e-01 1.583651e+00 9.966398e-01 8.126457e-01 1.375552e+00 1.823077e+00 1.523001e+00 1.909431e+00 1.787556e+00 1.528007e+00 9.960579e-01 1.184969e+00 8.687277e-01 6.252497e-02 2.101307e-01 1.771950e-01 1.326157e-01 2.788929e-01 3.949745e-01 2.109223e-01 2.686101e-01 2.857600e-01 2.626297e-01 1.994383e-01 2.345375e-01 1.290738e-01
<GCONST> 9.474193e+01
<STATE> 3
<MEAN> 39
 1.061777e+01 -1.043561e+01 3.833055e-01 1.726389e+01 -1.599975e+01 2.076430e+01 -4.820900e+00 -6.844150e+00 6.723541e+00 -8.490472e+00 -5.886191e+00 6.546308e-01 7.107241e+01 -7.472141e-01 4.378637e-01 5.391914e-01 2.707445e-01 -2.884702e-01 2.081363e-01 3.324735e-01 7.686374e-01 4.798812e-01 5.910113e-01 -9.055819e-02 7.602770e-01 -1.118934e+00 4.652235e-02 -4.417014e-01 1.848114e-02 2.126269e-02 9.984707e-03 6.086946e-02 -1.048146e-01 -1.454038e-01 -3.842700e-02 -3.354644e-01 1.137775e-01 2.039447e-03 3.442432e-01
<VARIANCE> 39
 1.412678e+01 2.905675e+01 2.004942e+01 1.972328e+01 2.733605e+01 3.021415e+01 1.554047e+01 2.756249e+01 2.869878e+01 1.670810e+01 1.829015e+01 2.606786e+01 1.206735e+01 2.782514e-01 1.361964e+00 8.324147e-01 9.505924e-01 1.899804e+00 1.592263e+00 1.184072e+00 1.254705e+00 1.564190e+00 1.166709e+00 8.744577e-01 1.121163e+00 5.009757e-01 8.327016e-02 2.797042e-01 2.115175e-01 2.015455e-01 2.783212e-01 3.200473e-01 3.037349e-01 3.075331e-01 3.234644e-01 3.954172e-01 1.944270e-01 2.563012e-01 1.230800e-01
<GCONST> 9.261580e+01
<STATE> 4
<MEAN> 39
 6.799934e+00 -1.154124e+01 2.464828e+00 1.832313e+01 -1.652884e+01 2.224473e+01 -2.275303e+00 -4.518190e+00 7.694185e+00 -6.569511e+00 -4.827764e+00 2.611258e+00 6.803629e+01 2.533976e-01 -8.300965e-01 -3.045866e-01 -2.834997e-01 1.944551e-01 2.870351e-01 -1.337312e-01 -7.873781e-02 -3.803273e-01 -1.140205e+00 -2.686646e-02 2.597527e-01 6.523414e-01 4.425094e-01 -2.511160e-01 -3.262979e-01 -1.451303e-01 1.874020e-01 -1.398513e-01 -3.917744e-01 -3.906016e-01 -2.576566e-01 -6.125733e-01 4.641248e-02 -1.424724e-01 6.366539e-01
<VARIANCE> 39
 1.894323e+01 3.841478e+01 1.620550e+01 1.886256e+01 2.530883e+01 1.858679e+01 2.581425e+01 2.221771e+01 2.315681e+01 1.920931e+01 1.423557e+01 2.149691e+01 1.544865e+01 1.548156e+00 2.028047e+00 1.490846e+00 1.459726e+00 1.572763e+00 1.899160e+00 1.729469e+00 1.456148e+00 1.567292e+00 3.281324e+00 1.666079e+00 1.068374e+00 1.444415e+00 1.981088e-01 3.322643e-01 2.014917e-01 2.702591e-01 2.749463e-01 3.915573e-01 2.521486e-01 2.963111e-01 3.374926e-01 4.633477e-01 3.350447e-01 2.314882e-01 2.330476e-01
<GCONST> 1.012527e+02
<TRANSP> 5
 0.000000e+00 1.000000e+00 0.000000e+00 0.000000e+00 0.000000e+00
 0.000000e+00 6.169668e-01 3.830333e-01 0.000000e+00 0.000000e+00
 0.000000e+00 0.000000e+00 5.369679e-01 4.630322e-01 0.000000e+00
 0.000000e+00 0.000000e+00 0.000000e+00 6.640367e-01 3.359633e-01
 0.000000e+00 0.000000e+00 0.000000e+00 0.000000e+00 0.000000e+00
<ENDHMM>
~h "y"
<BEGINHMM>
<NUMSTATES> 5
<STATE> 2
<MEAN> 39
 5.418873e+00 -1.737786e+01 3.020239e-01 1.867492e+01 -1.505175e+01 1.854819e+01 -8.617609e+00 -8.602953e+00 6.805772e+00 -6.436120e+00 -3.508533e+00 2.197803e+00 6.988417e+01 -3.427463e-01 -2.167075e-01 2.692298e-01 2.610308e-01 9.771529e-02 -2.044321e-01 -3.614434e-01 2.273858e-01 3.423049e-01 -5.452746e-02 -2.289572e-01 -1.261775e-01 -1.960174e-01 8.900239e-02 3.636473e-02 -7.065018e-02 -6.480636e-02 9.122637e-03 8.769666e-02 2.968744e-02 -6.126802e-02 -4.887404e-02 -8.432575e-02 1.526333e-02 -1.470513e-02 7.165563e-02
<VARIANCE> 39
 3.322178e+01 3.159368e+01 7.188354e+01 4.093280e+01 3.468521e+01 2.503736e+01 3.023824e+01 2.797574e+01 2.699235e+01 3.234013e+01 2.115868e+01 2.860869e+01 5.884110e+01 3.858537e-01 1.267307e+00 1.865734e+00 1.336993e+00 1.478281e+00 1.456334e+00 1.521328e+00 1.512313e+00 1.663290e+00 1.583366e+00 1.347430e+00 1.408266e+00 3.878557e-01 6.347131e-02 1.600886e-01 2.372391e-01 2.295179e-01 3.403453e-01 2.973223e-01 2.549770e-01 3.521689e-01 2.720375e-01 2.956155e-01 2.346905e-01 2.731906e-01 5.030320e-02
<GCONST> 9.938254e+01
<STATE> 3
<MEAN> 39
 9.791702e+00 -1.879017e+01 5.508302e+00 2.426948e+01 -9.282500e+00 1.803377e+01 -1.497392e+01 -1.120531e+01 1.080569e+01 -1.009836e+01 -3.920732e+00 -2.262275e+00 7.731783e+01 3.267594e-01 -1.228447e-01 -5.685629e-01 -3.308232e-01 5.577394e-01 5.649089e-01 -3.215109e-01 -8.376479e-01 -4.204653e-01 -1.801057e-01 1.284226e-01 -1.906089e-01 3.733547e-01 1.994405e-01 1.852661e-01 -3.397676e-01 -4.226722e-01 -1.596791e-01 2.461519e-01 3.953797e-01 -7.758083e-02 -3.871505e-01 -1.494347e-01 1.409122e-01 1.665384e-01 7.807260e-02
<VARIANCE> 39
 1.574716e+01 1.451266e+01 3.255794e+01 2.650304e+01 3.146522e+01 3.254675e+01 1.979974e+01 2.692210e+01 2.269600e+01 2.358224e+01 1.647958e+01 3.508413e+01 2.270073e+01 4.849620e-01 1.300768e+00 2.719759e+00 2.401344e+00 2.713893e+00 2.488161e+00 1.796768e+00 2.014968e+00 2.221277e+00 1.950727e+00 1.453716e+00 1.888798e+00 7.519241e-01 1.005377e-01 1.861462e-01 3.295652e-01 3.441229e-01 5.311993e-01 4.221324e-01 3.441260e-01 4.242618e-01 3.403108e-01 3.763368e-01 2.781087e-01 3.414314e-01 1.106817e-01
<GCONST> 1.034629e+02
<STATE> 4
<MEAN> 39
 9.295794e+00 -1.740163e+01 4.380312e+00 2.219990e+01 -9.215471e+00 2.092521e+01 -1.269875e+01 -1.084920e+01 8.486772e+00 -1.111872e+01 -2.281708e+00 -2.552887e-01 7.599254e+01 1.282134e+00 2.774455e-01 -6.649488e-01 -4.848490e-01 5.677539e-01 6.966288e-01 4.246423e-02 -6.688838e-01 -6.267221e-01 -1.154667e+00 3.802207e-01 -6.801937e-02 1.266151e+00 -2.889027e-02 1.063857e-01 -2.152280e-01 -3.645205e-01 -4.876172e-01 -1.870366e-01 4.056507e-01 2.894077e-01 -8.725297e-02 -6.889217e-02 -1.639347e-01 4.472449e-02 -1.181155e-01
<VARIANCE> 39
 2.702326e+01 2.538476e+01 3.623926e+01 2.991519e+01 4.445413e+01 3.036263e+01 3.272674e+01 3.874522e+01 2.291677e+01 3.527045e+01 1.604808e+01 3.306630e+01 4.017648e+01 1.551347e+00 2.257997e+00 5.691601e+00 6.193583e+00 5.333436e+00 3.109954e+00 4.378934e+00 2.554740e+00 3.050939e+00 2.887800e+00 1.683945e+00 2.820508e+00 2.298705e+00 2.470905e-01 4.528648e-01 7.310500e-01 6.522711e-01 8.407909e-01 5.697187e-01 7.600344e-01 6.595145e-01 5.067329e-01 6.475466e-01 3.299475e-01 4.255295e-01 2.743465e-01
<GCONST> 1.220892e+02
<TRANSP> 5
 0.000000e+00 1.000000e+00 0.000000e+00 0.000000e+00 0.000000e+00
 0.000000e+00 7.163073e-01 2.836927e-01 0.000000e+00 0.000000e+00
 0.000000e+00 0.000000e+00 6.310682e-01 3.689319e-01 0.000000e+00
 0.000000e+00 0.000000e+00 0.000000e+00 5.186588e-01 4.813412e-01
 0.000000e+00 0.000000e+00 0.000000e+00 0.000000e+00 0.000000e+00
<ENDHMM>
~h "z"
<BEGINHMM>
<NUMSTATES> 5
<STATE> 2
<MEAN> 39
 1.245815e+01 -1.600636e+01 5.754580e+00 1.496532e+01 -1.830077e+01 2.321931e+01 -2.173753e+00 -6.724502e+00 7.680857e+00 -1.780327e+01 -1.079747e+01 -4.890251e+00 7.993600e+01 -1.125678e+00 -5.604616e-01 2.798762e+00 -6.503478e-01 -1.075016e+00 9.426175e-01 6.134796e-01 2.706928e-01 2.168716e-01 5.174938e-01 3.539166e-01 4.283438e-01 3.163679e-02 -7.597318e-01 -5.753525e-01 1.258276e+00 -4.830656e-01 -2.995242e-01 4.155682e-01 1.789244e-02 1.075639e-01 -4.860242e-02 3.846031e-01 5.934869e-01 6.057176e-01 -1.810836e-02
<VARIANCE> 39
 4.542264e+00 1.226153e+01 2.256193e+01 2.701374e+01 5.004405e+01 3.850161e+01 3.192943e+01 3.393393e+01 2.388759e+01 1.707950e+01 4.534419e+01 3.087220e+01 3.721286e+00 1.219532e+00 1.425611e+00 4.636127e+00 1.586590e+00 2.486805e+00 3.210227e+00 2.325299e+00 1.779938e+00 1.869532e+00 2.541311e+00 2.511525e+00 1.798915e+00 3.249503e-01 9.784958e-02 1.813665e-01 3.222525e-01 2.831874e-01 4.196551e-01 5.637737e-01 2.675951e-01 2.939547e-01 3.001586e-01 3.415317e-01 3.313583e-01 3.740166e-01 6.442031e-02
<GCONST> 1.017016e+02
<STATE> 3
<MEAN> 39
 5.685420e+00 -2.092256e+01 1.950444e+01 1.230385e+01 -2.074749e+01 2.683325e+01 -2.252718e+00 -5.351347e+00 7.225326e+00 -1.510181e+01 -4.656245e+00 3.450835e-01 8.026077e+01 -2.633986e+00 -1.425047e+00 4.596971e+00 -1.407640e+00 -9.709334e-01 8.373827e-01 8.249402e-01 3.114545e-01 -4.155346e-01 1.009725e+00 1.280656e+00 1.359624e+00 1.593603e-01 2.888687e-02 8.093860e-03 -6.146725e-01 1.532493e-01 4.417459e-01 -2.756410e-01 -2.121162e-01 -1.193836e-01 3.468522e-02 6.523563e-02 -1.759384e-01 -7.141157e-02 -3.832753e-02
<VARIANCE> 39
 1.039135e+01 1.116861e+01 2.915704e+01 4.608952e+01 4.941675e+01 3.351411e+01 3.535144e+01 4.089148e+01 2.940107e+01 2.734618e+01 5.425420e+01 2.765351e+01 2.979680e+00 8.968762e-01 9.257495e-01 2.773246e+00 1.441769e+00 3.196784e+00 2.915901e+00 2.623312e+00 2.049581e+00 1.435082e+00 2.311563e+00 1.968392e+00 1.951698e+00 2.110548e-01 2.100946e-01 1.912346e-01 6.915097e-01 2.499724e-01 3.607022e-01 5.002987e-01 5.820206e-01 3.958770e-01 2.714353e-01 5.097649e-01 5.320961e-01 2.875256e-01 4.472342e-02
<GCONST> 1.044093e+02
<STATE> 4
<MEAN> 39
 -2.908946e-01 -2.497998e+01 2.398428e+01 9.924685e+00 -2.012073e+01 2.721478e+01 -2.253267e+00 -5.629483e+00 6.456757e+00 -1.228785e+01 -3.889519e+00 2.749243e+00 7.948586e+01 4.285281e-01 2.716783e-02 -1.393718e+00 4.343522e-01 3.507670e-01 -2.873151e-01 -4.248380e-01 -1.170056e-01 3.120151e-02 1.096915e-02 -3.328331e-01 -1.369699e-01 -3.108137e-01 6.828105e-01 4.326458e-01 -1.035404e+00 2.876583e-01 6.895088e-02 -2.359770e-01 -1.564703e-01 -5.811286e-02 1.213148e-01 -2.693451e-01 -2.171149e-01 -2.216298e-01 -2.924093e-02
<VARIANCE> 39
 2.057668e+01 2.563124e+01 4.067999e+01 4.751381e+01 3.193885e+01 3.206261e+01 4.201274e+01 4.049299e+01 3.086074e+01 2.519565e+01 2.814128e+01 2.097492e+01 8.114292e+00 3.490031e+00 2.791309e+00 6.420253e+00 2.032934e+00 2.700324e+00 2.830218e+00 3.268666e+00 2.841181e+00 1.652370e+00 2.354299e+00 2.365264e+00 1.581126e+00 5.937575e-01 3.213761e-01 3.622556e-01 8.258144e-01 3.104760e-01 5.326237e-01 5.382089e-01 6.389338e-01 4.745421e-01 3.403327e-01 4.517639e-01 4.177862e-01 3.536693e-01 9.580996e-02
<GCONST> 1.141924e+02
<TRANSP> 5
 0.000000e+00 1.000000e+00 0.000000e+00 0.000000e+00 0.000000e+00
 0.000000e+00 5.523675e-01 4.476324e-01 0.000000e+00 0.000000e+00
 0.000000e+00 0.000000e+00 6.325671e-01 3.674329e-01 0.000000e+00
 0.000000e+00 0.000000e+00 0.000000e+00 8.359066e-01 1.640933e-01
 0.000000e+00 0.000000e+00 0.000000e+00 0.000000e+00 0.000000e+00
<ENDHMM>
~h "ch"
<BEGINHMM>
<NUMSTATES> 5
<STATE> 2
<MEAN> 39
 5.232446e+00 -2.007499e+01 6.357982e+00 1.883889e+01 -1.591946e+01 1.947621e+01 -5.250124e+00 -5.779498e+00 5.701178e+00 -7.710239e+00 -3.043651e+00 4.242835e+00 7.257765e+01 -2.296508e+00 -3.071178e+00 2.432185e+00 -6.020311e-01 -6.226473e-01 -1.518569e+00 6.271274e-01 9.298747e-01 -1.354176e-01 3.191922e-01 -7.236677e-01 6.047555e-01 8.642913e-01 -2.877319e-01 -1.135891e+00 2.933546e-01 -2.943890e-01 -1.254007e-02 -1.107529e-01 -4.019760e-01 -3.730846e-01 2.012513e-01 -2.467254e-01 -7.516704e-02 5.696294e-02 8.751236e-01
<VARIANCE> 39
 1.997332e+01 3.472874e+01 4.663345e+01 3.634331e+01 3.563832e+01 3.120817e+01 3.916810e+01 2.930345e+01 2.781524e+01 2.772662e+01 2.909512e+01 2.139883e+01 1.840734e+01 1.124692e+00 6.573607e+00 5.241905e+00 2.742035e+00 2.229255e+00 2.477220e+00 3.438027e+00 2.628105e+00 2.459740e+00 2.986949e+00 2.253047e+00 1.966964e+00 4.147251e+00 1.865103e-01 6.665886e-01 8.445233e-01 5.073069e-01 4.361578e-01 5.707453e-01 6.327747e-01 5.225767e-01 5.005312e-01 4.637305e-01 5.071471e-01 3.304552e-01 2.925466e-01
<GCONST> 1.192847e+02
<STATE> 3
<MEAN> 39
 -4.332081e+00 -3.785718e+01 1.636841e+01 1.733979e+01 -1.734766e+01 1.572974e+01 -7.359754e+00 -6.266121e+00 7.697763e+00 -8.421679e+00 -4.810292e+00 7.195273e+00 8.097099e+01 -1.142692e+00 -3.358251e+00 6.595849e-02 -5.569063e-01 -5.666956e-02 1.677602e-01 -7.628359e-01 -1.150259e+00 3.468851e-01 6.121202e-01 1.337576e-01 4.745967e-01 1.571836e+00 8.579979e-01 1.219176e+00 -1.188827e+00 -2.603080e-02 2.551868e-01 5.045801e-01 1.410985e-01 -2.405780e-01 -3.227080e-01 1.101662e-01 2.532294e-01 -2.344742e-01 -5.999469e-01
<VARIANCE> 39
 1.350825e+01 2.184845e+01 2.505363e+01 2.330637e+01 3.841187e+01 2.805898e+01 2.979969e+01 3.452269e+01 2.315272e+01 2.437502e+01 2.374162e+01 2.209843e+01 8.868977e+00 2.108899e+00 4.331234e+00 5.072382e+00 2.072375e+00 2.473367e+00 1.998984e+00 2.873219e+00 2.400566e+00 1.963723e+00 1.733336e+00 1.524225e+00 1.386117e+00 1.764605e+00 2.350152e-01 7.456273e-01 5.365993e-01 3.741542e-01 4.634002e-01 3.648235e-01 5.502875e-01 5.502501e-01 3.804074e-01 3.758887e-01 3.308090e-01 3.055862e-01 3.127707e-01
<GCONST> 1.113504e+02
<STATE> 4
<MEAN> 39
 -2.141651e+00 -3.920879e+01 8.756931e+00 1.412693e+01 -1.583299e+01 1.855811e+01 -6.586148e+00 -1.057296e+01 5.197567e+00 -6.011422e+00 -3.918380e+00 6.802558e+00 8.102578e+01 2.056722e+00 2.637695e+00 -1.814428e+00 1.065134e-01 5.640218e-01 8.408585e-01 5.087909e-01 -4.337392e-01 -7.809961e-01 -7.402928e-01 3.143187e-01 -7.205808e-01 -8.025281e-01 6.547467e-01 1.225258e+00 1.246807e-01 4.493680e-01 -4.990532e-02 2.564008e-02 -4.424481e-05 3.415473e-01 3.130789e-01 -5.096819e-01 -7.100989e-02 -4.378909e-01 -1.447268e-01
<VARIANCE> 39
 1.184902e+01 2.334035e+01 2.122779e+01 1.509189e+01 2.268874e+01 2.205789e+01 2.601050e+01 1.964596e+01 2.129613e+01 1.750430e+01 2.032060e+01 1.755976e+01 8.324183e+00 2.868583e+00 5.406676e+00 1.727095e+00 2.855905e+00 3.149942e+00 2.161467e+00 2.016891e+00 2.129957e+00 1.900799e+00 2.599142e+00 1.510165e+00 2.121149e+00 7.651606e-01 3.193726e-01 7.581457e-01 3.165850e-01 3.235139e-01 4.554152e-01 4.197402e-01 3.924628e-01 3.755054e-01 4.666086e-01 4.210420e-01 3.152733e-01 3.797162e-01 3.894362e-01
<GCONST> 1.076861e+02
<TRANSP> 5
 0.000000e+00 1.000000e+00 0.000000e+00 0.000000e+00 0.000000e+00
 0.000000e+00 7.253137e-01 2.746863e-01 0.000000e+00 0.000000e+00
 0.000000e+00 0.000000e+00 7.118131e-01 2.881869e-01 0.000000e+00
 0.000000e+00 0.000000e+00 0.000000e+00 7.322627e-01 2.677373e-01
 0.000000e+00 0.000000e+00 0.000000e+00 0.000000e+00 0.000000e+00
<ENDHMM>
~h "gh"
<BEGINHMM>
<NUMSTATES> 5
<STATE> 2
<MEAN> 39
 1.410975e+01 -1.570045e+01 -3.126883e-01 1.635731e+01 -1.609772e+01 1.417448e+01 -8.346238e+00 -7.835398e+00 1.079921e+01 -1.362977e+01 -7.885277e+00 -3.044950e+00 8.090089e+01 1.610592e-01 5.465578e-01 -1.219079e-01 -1.138486e-02 -2.455281e-01 -2.048310e-01 7.111435e-02 2.671872e-01 1.396209e-01 2.908468e-01 4.651014e-01 -2.680609e-02 -2.958504e-01 -6.282873e-02 -4.004122e-02 1.371066e-01 -1.601901e-02 -9.630803e-02 2.887852e-01 1.220081e-01 -2.305451e-02 -1.371836e-01 -1.645535e-01 -1.940818e-02 5.123848e-02 -1.108190e-01
<VARIANCE> 39
 3.011725e+00 2.132119e+01 1.541446e+01 4.325616e+01 8.344975e+01 1.030786e+02 3.579341e+01 8.119478e+01 6.105056e+01 2.509083e+01 3.401267e+01 3.101239e+01 6.272341e+00 1.601468e-01 5.624490e-01 4.812791e-01 1.451216e+00 1.762146e+00 1.474553e+00 8.627162e-01 1.315306e+00 1.060465e+00 1.426933e+00 8.552415e-01 8.609822e-01 1.348270e-01 4.009573e-02 7.365881e-02 7.621679e-02 2.563802e-01 2.373369e-01 2.615547e-01 2.523998e-01 1.744644e-01 2.650674e-01 2.556339e-01 1.260812e-01 1.041152e-01 2.917897e-02
<GCONST> 8.570599e+01
<STATE> 3
<MEAN> 39
 1.442487e+01 -1.097874e+01 1.075341e+00 1.586888e+01 -2.072847e+01 8.839746e+00 -7.106559e+00 -3.448683e+00 1.363290e+01 -1.141013e+01 -8.442761e+00 -3.975316e+00 7.851653e+01 -1.042118e-02 3.277081e-01 1.200240e-01 8.947958e-02 -2.159976e-02 1.215818e-01 3.267669e-02 1.584730e-02 -3.114734e-01 -1.007413e-01 1.999360e-01 9.392564e-02 -2.835153e-01 1.103776e-02 -1.177063e-01 -7.045346e-02 -4.598184e-02 2.911345e-02 2.506137e-01 3.651357e-02 -2.813380e-02 -4.153978e-02 -1.461295e-01 -8.999804e-02 -2.601877e-02 2.901344e-02
<VARIANCE> 39
 2.920240e+00 2.265744e+01 1.914054e+01 3.680735e+01 6.525515e+01 1.016844e+02 4.460320e+01 5.928056e+01 6.465757e+01 3.044798e+01 2.843008e+01 3.389550e+01 5.939443e+00 1.247599e-01 3.504919e-01 3.208415e-01 9.942135e-01 1.207344e+00 1.170553e+00 7.696755e-01 9.006627e-01 7.507162e-01 7.800620e-01 8.137282e-01 8.119153e-01 1.206753e-01 2.697782e-02 6.972474e-02 6.350975e-02 1.593039e-01 2.709563e-01 2.287338e-01 1.412596e-01 1.529545e-01 1.398840e-01 1.630788e-01 1.367212e-01 1.226452e-01 1.808186e-02
<GCONST> 7.862065e+01
<STATE> 4
<MEAN> 39
 1.484560e+01 -1.148761e+01 4.228918e-01 1.535392e+01 -2.172407e+01 9.106781e+00 -5.664058e+00 -1.074127e+00 1.287384e+01 -1.427680e+01 -1.041812e+01 -5.532667e+00 7.860216e+01 1.001107e-02 -2.368531e-01 -2.069239e-01 -4.429410e-02 2.487085e-01 1.227394e+00 5.381829e-01 -5.763389e-01 -7.000797e-01 -2.724089e-01 -1.406923e-01 1.449080e-01 -9.845110e-02 -4.764316e-02 -1.342523e-02 7.668916e-03 -2.153541e-02 4.247522e-02 1.486260e-01 6.130281e-02 -1.853968e-01 -1.320498e-01 1.016960e-01 3.505990e-02 1.379797e-01 -4.236093e-02
<VARIANCE> 39
 2.707160e+00 1.505758e+01 1.648793e+01 2.416029e+01 5.235792e+01 7.130094e+01 2.508756e+01 5.105405e+01 4.908043e+01 2.596234e+01 3.105561e+01 4.301314e+01 5.857191e+00 2.348965e-01 7.114384e-01 9.355386e-01 1.162551e+00 2.434193e+00 3.802939e+00 1.621694e+00 1.875015e+00 1.887223e+00 1.359228e+00 1.346944e+00 1.744876e+00 2.440068e-01 3.681303e-02 1.018062e-01 1.284704e-01 1.787838e-01 3.550017e-01 4.633370e-01 2.064698e-01 3.329731e-01 3.311908e-01 2.548010e-01 2.060577e-01 2.506205e-01 4.573328e-02
<GCONST> 9.252291e+01
<TRANSP> 5
 0.000000e+00 1.000000e+00 0.000000e+00 0.000000e+00 0.000000e+00
 0.000000e+00 3.516190e-01 6.483811e-01 0.000000e+00 0.000000e+00
 0.000000e+00 0.000000e+00 7.396302e-01 2.603699e-01 0.000000e+00
 0.000000e+00 0.000000e+00 0.000000e+00 6.505353e-01 3.494647e-01
 0.000000e+00 0.000000e+00 0.000000e+00 0.000000e+00 0.000000e+00
<ENDHMM>
~h "oe"
<BEGINHMM>
<NUMSTATES> 5
<STATE> 2
<MEAN> 39
 1.191773e+01 -1.909838e+01 4.712368e-01 1.724773e+01 -9.378628e+00 2.171104e+01 -1.164637e+01 -1.048719e+01 5.370315e+00 -1.848071e+01 -4.266168e+00 1.217615e+00 7.982874e+01 1.243475e+00 3.301536e-01 -1.374933e+00 -7.411777e-01 7.371850e-03 -4.300627e-01 -3.652000e-01 -5.536046e-01 -2.720694e-01 -2.336039e+00 -9.556224e-01 -4.268740e-01 1.427548e+00 -2.061878e-01 4.591360e-02 1.159681e-01 -2.032328e-01 -5.966194e-01 -6.075810e-02 3.044430e-01 3.485691e-01 1.864443e-01 4.196398e-01 6.388393e-02 1.902508e-01 -3.441519e-01
<VARIANCE> 39
 6.222657e+00 1.482053e+01 2.170535e+01 2.706330e+01 4.391527e+01 2.671527e+01 1.893359e+01 2.642848e+01 3.327875e+01 2.440227e+01 2.403917e+01 1.558779e+01 1.388577e+01 6.953405e-01 2.989029e+00 1.564051e+00 2.348926e+00 3.693706e+00 2.765888e+00 1.823103e+00 2.222162e+00 3.051433e+00 3.371259e+00 2.145787e+00 1.654896e+00 7.882702e-01 1.821420e-01 7.386805e-01 3.623620e-01 3.762500e-01 5.619399e-01 4.839553e-01 2.732338e-01 4.785366e-01 6.060410e-01 5.987611e-01 3.406547e-01 2.924583e-01 1.727078e-01
<GCONST> 1.078215e+02
<STATE> 3
<MEAN> 39
 1.363520e+01 -1.924105e+01 -1.514584e+00 1.420158e+01 -1.218342e+01 2.103001e+01 -1.109379e+01 -9.712382e+00 6.339947e+00 -2.186929e+01 -6.024765e+00 1.430582e+00 8.193384e+01 2.725288e-01 4.053099e-01 -1.401925e-01 -5.837436e-01 -1.179100e+00 -6.426269e-02 4.373427e-01 6.136162e-01 4.630167e-01 -2.399100e-01 -2.785207e-01 8.116549e-02 -2.349361e-01 -2.346750e-01 1.575252e-01 2.658182e-01 3.225984e-01 1.192592e-01 6.642898e-02 1.512647e-01 1.111112e-01 -4.717873e-02 6.218879e-01 2.320422e-01 6.630583e-02 -4.540591e-01
<VARIANCE> 39
 2.671381e+00 8.229194e+00 1.069057e+01 1.651706e+01 4.279105e+01 2.267315e+01 1.244516e+01 2.695032e+01 1.939609e+01 1.640649e+01 2.186836e+01 1.505727e+01 6.741930e+00 3.317649e-01 8.911842e-01 1.342836e+00 2.003782e+00 2.158364e+00 1.510969e+00 1.182741e+00 1.063266e+00 1.342722e+00 1.744997e+00 1.541108e+00 9.800476e-01 7.144924e-01 9.946591e-02 2.345694e-01 2.330270e-01 2.432683e-01 4.557555e-01 3.259661e-01 2.440835e-01 2.417301e-01 3.473303e-01 3.982136e-01 2.447522e-01 2.089337e-01 1.221668e-01
<GCONST> 8.979333e+01
<STATE> 4
<MEAN> 39
 1.413032e+01 -1.553597e+01 -2.127234e+00 1.308454e+01 -1.481329e+01 2.002009e+01 -9.011023e+00 -6.349642e+00 7.059553e+00 -2.138661e+01 -6.111813e+00 2.715793e+00 7.882755e+01 -7.932495e-02 5.939724e-01 -3.963296e-01 5.362107e-01 8.417208e-01 -3.479730e-02 4.504719e-01 1.515189e-01 -3.510402e-01 8.032995e-01 3.880356e-01 3.275849e-01 -5.594983e-01 -1.145879e-01 -4.592970e-02 4.772183e-02 1.470695e-01 1.442079e-01 5.547919e-02 4.051787e-02 -2.199936e-01 -1.759219e-01 2.498548e-01 6.968627e-03 -6.172296e-02 -7.120899e-02
<VARIANCE> 39
 3.934748e+00 9.065091e+00 1.820241e+01 1.866079e+01 4.418798e+01 2.514320e+01 1.370701e+01 2.471070e+01 1.744023e+01 3.178492e+01 2.088071e+01 2.239040e+01 7.015429e+00 4.140753e-01 9.223136e-01 1.050506e+00 1.507067e+00 2.425699e+00 1.653029e+00 1.235801e+00 1.495216e+00 1.348996e+00 2.864014e+00 1.333196e+00 9.939448e-01 1.247979e+00 8.302504e-02 1.881706e-01 3.137264e-01 2.679059e-01 4.447267e-01 3.237534e-01 2.588269e-01 2.321215e-01 3.117955e-01 4.389006e-01 2.533744e-01 2.123929e-01 1.015038e-01
<GCONST> 9.310093e+01
<TRANSP> 5
 0.000000e+00 1.000000e+00 0.000000e+00 0.000000e+00 0.000000e+00
 0.000000e+00 5.351012e-01 4.648987e-01 0.000000e+00 0.000000e+00
 0.000000e+00 0.000000e+00 6.770624e-01 3.229376e-01 0.000000e+00
 0.000000e+00 0.000000e+00 0.000000e+00 7.666878e-01 2.333122e-01
 0.000000e+00 0.000000e+00 0.000000e+00 0.000000e+00 0.000000e+00
<ENDHMM>
~h "sh"
<BEGINHMM>
<NUMSTATES> 5
<STATE> 2
<MEAN> 39
 2.517358e+00 -3.024670e+01 1.170684e+01 2.001472e+01 -1.012847e+01 2.371019e+01 -4.422428e+00 -6.946148e+00 7.461137e+00 -7.612709e+00 -1.985560e+00 6.141085e+00 7.956671e+01 -2.723347e+00 -4.401821e+00 1.999784e+00 -3.414599e-01 -3.647307e-01 -2.854840e-01 6.600364e-01 1.894902e-02 -4.245171e-01 3.054408e-01 -7.939327e-01 1.201745e+00 1.213174e+00 1.671979e-01 2.152406e-01 -6.078998e-01 -1.256293e-01 -3.014872e-01 -4.423616e-01 -4.508785e-01 -2.369712e-01 1.255201e-01 -3.611050e-01 -4.061914e-01 -2.345393e-01 1.629599e-02
<VARIANCE> 39
 1.393521e+01 4.564724e+01 2.403175e+01 1.882319e+01 2.652076e+01 2.617304e+01 3.613892e+01 2.409940e+01 2.545528e+01 2.030944e+01 2.148267e+01 2.281343e+01 8.583735e+00 6.059228e-01 1.780361e+00 2.430764e+00 1.296284e+00 1.799886e+00 2.329320e+00 3.154811e+00 2.520934e+00 2.301426e+00 1.968864e+00 1.817427e+00 1.470671e+00 3.696020e-01 1.991680e-01 9.903195e-01 3.943152e-01 2.833860e-01 3.065529e-01 5.264183e-01 4.162432e-01 3.614728e-01 3.975728e-01 3.183367e-01 3.323452e-01 3.388508e-01 1.923756e-01
<GCONST> 1.049488e+02
<STATE> 3
<MEAN> 39
 -4.645525e+00 -4.069930e+01 1.250851e+01 1.755289e+01 -1.358602e+01 1.985104e+01 -5.701594e+00 -9.047786e+00 7.087597e+00 -7.729185e+00 -6.006389e+00 7.731766e+00 8.181523e+01 -4.283372e-01 -2.422962e-01 -4.929757e-01 -5.641117e-01 -5.291487e-01 -5.779600e-01 -1.862536e-01 -1.959273e-01 -2.879607e-01 1.464176e-01 -4.226461e-03 -2.273907e-02 -4.001009e-01 5.306014e-01 8.602025e-01 -2.756412e-01 6.920597e-02 9.152719e-02 1.881166e-01 5.775060e-02 1.095062e-01 -4.068268e-02 4.001208e-02 2.547379e-01 -1.975838e-01 -3.513410e-01
<VARIANCE> 39
 6.567120e+00 7.154220e+00 2.081549e+01 1.312311e+01 2.071026e+01 2.185706e+01 2.279133e+01 2.606203e+01 2.279136e+01 1.622664e+01 1.978373e+01 1.720836e+01 6.431644e+00 1.184662e+00 2.142431e+00 1.772261e+00 1.050399e+00 1.440015e+00 1.785278e+00 1.336727e+00 1.445444e+00 1.257856e+00 1.230453e+00 1.541457e+00 1.192700e+00 5.460883e-01 1.400354e-01 2.467343e-01 2.960682e-01 2.243053e-01 1.944942e-01 2.730913e-01 2.341288e-01 2.620596e-01 2.389352e-01 2.735306e-01 2.664790e-01 2.497391e-01 4.512823e-02
<GCONST> 9.050054e+01
<STATE> 4
<MEAN> 39
 -1.455813e+00 -3.418205e+01 7.531302e+00 1.590830e+01 -1.520761e+01 1.988691e+01 -4.786828e+00 -7.991673e+00 5.141411e+00 -6.450587e+00 -4.029568e+00 6.341194e+00 7.626071e+01 2.282047e+00 3.608578e+00 -1.338497e+00 7.371097e-01 -4.184457e-01 2.803656e-01 1.887277e-01 1.894813e-01 1.981993e-01 -5.458276e-02 9.771626e-02 -1.282646e+00 -1.266191e+00 4.068109e-01 3.705298e-01 1.625148e-02 1.796612e-01 -1.146279e-01 3.927679e-02 -1.053868e-01 -1.340183e-01 2.409502e-01 -3.315513e-01 -1.279060e-01 -2.587469e-01 3.680947e-01
<VARIANCE> 39
 2.234004e+01 2.804922e+01 4.015020e+01 2.167563e+01 3.258224e+01 2.995715e+01 3.084090e+01 2.426177e+01 2.312554e+01 2.093885e+01 1.884199e+01 1.816585e+01 1.462654e+01 2.493537e+00 3.238031e+00 1.841615e+00 2.204167e+00 2.528276e+00 1.864472e+00 2.226758e+00 1.833525e+00 1.664606e+00 2.300391e+00 1.327100e+00 1.649538e+00 1.183924e+00 3.219400e-01 7.284536e-01 3.989281e-01 4.657933e-01 4.930943e-01 4.018139e-01 4.135218e-01 3.202471e-01 3.157269e-01 4.282924e-01 2.724524e-01 3.525074e-01 2.097566e-01
<GCONST> 1.091512e+02
<TRANSP> 5
 0.000000e+00 1.000000e+00 0.000000e+00 0.000000e+00 0.000000e+00
 0.000000e+00 7.085502e-01 2.914498e-01 0.000000e+00 0.000000e+00
 0.000000e+00 0.000000e+00 8.336266e-01 1.663734e-01 0.000000e+00
 0.000000e+00 0.000000e+00 0.000000e+00 6.604770e-01 3.395230e-01
 0.000000e+00 0.000000e+00 0.000000e+00 0.000000e+00 0.000000e+00
<ENDHMM>
~h "sp"
<BEGINHMM>
<NUMSTATES> 3
<STATE> 2
~s "silst"
<TRANSP> 3
