~o
<STREAMINFO> 1 39
<VECSIZE> 39<NULLD><MFCC_D_A_0><DIAGC>
~s "silst"
<MEAN> 39
 -2.456358e+01 -3.195425e+00 -1.026647e+01 4.862470e+00 -1.123531e+01 6.403297e+00 -6.971081e+00 1.189455e+00 -2.252981e+00 -5.218688e-02 -1.819901e+00 7.693495e-01 3.859077e+01 -6.069503e-02 -4.360285e-02 -3.429742e-03 2.547804e-02 -6.274430e-03 -4.953588e-02 -4.368032e-02 1.761318e-02 3.296651e-02 2.682115e-02 -1.568883e-02 -5.035238e-02 -2.888408e-02 1.119696e-02 6.280518e-03 -1.061973e-02 -3.264563e-02 -2.873139e-02 1.003830e-02 -2.574829e-03 -2.177685e-02 -1.521744e-02 -9.654215e-03 1.838485e-02 2.621327e-02 5.337573e-03
<VARIANCE> 39
 1.571200e+02 5.598398e+01 1.315166e+01 1.993130e+01 3.342167e+01 4.100871e+01 8.664867e+00 2.619726e+01 2.011332e+01 1.158828e+01 1.090322e+01 1.025830e+01 1.512290e+02 7.339489e-02 1.531314e-01 2.687231e-01 3.597989e-01 3.881137e-01 5.863917e-01 7.808791e-01 7.004540e-01 7.242865e-01 5.725209e-01 6.416605e-01 5.917113e-01 2.352222e-02 1.171509e-02 2.342588e-02 4.120822e-02 7.288095e-02 7.657640e-02 1.141794e-01 1.445888e-01 1.325817e-01 1.467151e-01 1.122211e-01 1.216809e-01 1.123864e-01 3.942400e-03
<GCONST> 6.301923e+01
~h "a"
<BEGINHMM>
<NUMSTATES> 5
<STATE> 2
<MEAN> 39
 1.376668e+01 -1.767930e+01 -2.761746e+00 9.861685e+00 -2.299832e+01 1.259948e+01 -5.025165e+00 -2.671686e+00 9.762217e+00 -1.640598e+01 -6.285565e+00 2.443491e+00 8.036584e+01 1.135996e+00 7.475749e-02 -1.831546e+00 -7.122589e-01 1.162596e-01 -2.068784e+00 -2.983972e-01 8.399701e-01 6.515290e-01 -1.218860e+00 3.956604e-01 5.641162e-01 1.477116e+00 -3.695254e-01 -7.483827e-02 2.456659e-01 1.617259e-01 2.190274e-01 2.461859e-01 7.886284e-02 -9.033893e-02 -1.182859e-01 4.748006e-01 1.970201e-01 8.182025e-02 -2.990834e-01
<VARIANCE> 39
 9.103192e+00 2.274450e+01 2.413434e+01 2.524645e+01 5.501630e+01 6.868233e+01 2.469688e+01 4.676954e+01 4.280381e+01 3.972000e+01 3.234026e+01 2.635117e+01 1.580736e+01 1.545668e+00 3.168612e+00 2.322600e+00 3.184102e+00 3.883322e+00 5.334469e+00 2.081709e+00 3.227748e+00 3.507247e+00 4.056170e+00 2.140323e+00 3.222542e+00 1.298135e+00 2.820508e-01 4.999390e-01 4.367885e-01 5.036975e-01 6.111079e-01 9.637902e-01 3.369534e-01 4.948376e-01 5.730002e-01 7.406997e-01 3.331631e-01 3.536062e-01 2.708572e-01
<GCONST> 1.189352e+02
<STATE> 3
<MEAN> 39
 1.511208e+01 -1.769994e+01 -7.038425e+00 8.464756e+00 -2.148568e+01 8.455904e+00 -4.210903e+00 -1.037130e+00 9.912700e+00 -1.667238e+01 -3.826845e+00 4.671766e+00 8.259893e+01 6.547494e-02 1.676008e-01 -1.719116e-01 2.588315e-01 2.002695e-01 3.785055e-01 1.160995e-02 -2.088751e-01 -9.112892e-02 1.998347e-01 3.125051e-01 3.683391e-01 -2.800772e-01 -1.830539e-01 1.777390e-01 5.046900e-01 3.369792e-01 6.526963e-02 5.820720e-01 -1.428528e-02 -2.097399e-01 -8.373955e-02 3.103573e-01 -1.123913e-01 -1.991371e-01 -4.303014e-01
<VARIANCE> 39
 2.718325e+00 1.177320e+01 1.646135e+01 1.919588e+01 5.113208e+01 6.188955e+01 2.072733e+01 5.282827e+01 3.577597e+01 2.628120e+01 2.781161e+01 2.168036e+01 5.646144e+00 2.610962e-01 1.045282e+00 1.272155e+00 1.802631e+00 3.235258e+00 3.719032e+00 1.486656e+00 2.364234e+00 1.938022e+00 1.976111e+00 1.723401e+00 1.378885e+00 6.207702e-01 9.491559e-02 1.935305e-01 2.027847e-01 2.822936e-01 4.869070e-01 5.417359e-01 2.534052e-01 3.872079e-01 3.321379e-01 4.407332e-01 2.708661e-01 2.950360e-01 1.117295e-01
<GCONST> 9.879182e+01
<STATE> 4
<MEAN> 39
 1.411997e+01 -1.556074e+01 -3.948096e+00 1.245556e+01 -1.920786e+01 1.598152e+01 -5.778182e+00 -5.152408e+00 8.294321e+00 -1.397307e+01 -3.024781e+00 5.218654e+00 7.801148e+01 -6.342188e-01 7.744889e-01 1.119581e+00 9.925001e-01 5.216193e-01 1.068865e+00 9.446383e-02 -2.931433e-01 -2.706907e-01 1.341712e+00 -6.696688e-03 -1.871080e-01 -1.393754e+00 -1.894552e-01 -3.884714e-02 1.670259e-01 -1.463550e-03 -7.997065e-02 -1.879255e-01 8.855525e-02 1.308258e-01 -8.965412e-05 1.453021e-01 -1.377502e-01 -1.045933e-01 -8.975419e-02
<VARIANCE> 39
 5.055953e+00 1.596360e+01 1.940924e+01 2.082545e+01 4.717186e+01 4.659533e+01 2.452113e+01 4.721856e+01 3.409315e+01 3.102635e+01 3.705370e+01 2.639142e+01 1.504153e+01 3.701815e-01 1.258652e+00 1.193520e+00 1.451467e+00 2.442204e+00 2.978093e+00 1.956730e+00 2.232590e+00 1.681830e+00 1.811067e+00 1.809313e+00 1.792019e+00 7.421637e-01 8.993186e-02 2.927964e-01 2.985231e-01 2.708521e-01 4.793552e-01 5.497410e-01 3.224306e-01 3.988290e-01 3.428048e-01 3.839474e-01 3.730308e-01 3.218350e-01 1.405748e-01
<GCONST> 1.029696e+02
<TRANSP> 5
 0.000000e+00 1.000000e+00 0.000000e+00 0.000000e+00 0.000000e+00
 0.000000e+00 5.437804e-01 4.562196e-01 0.000000e+00 0.000000e+00
 0.000000e+00 0.000000e+00 7.280568e-01 2.719432e-01 0.000000e+00
 0.000000e+00 0.000000e+00 0.000000e+00 6.203175e-01 3.796825e-01
 0.000000e+00 0.000000e+00 0.000000e+00 0.000000e+00 0.000000e+00
<ENDHMM>
~h "b"
<BEGINHMM>
<NUMSTATES> 5
<STATE> 2
<MEAN> 39
 9.939539e+00 -7.490904e+00 7.899906e-01 1.940310e+01 -1.547492e+01 1.901768e+01 -4.201384e+00 -5.466393e+00 7.935304e+00 -6.490057e+00 -4.349173e+00 1.608205e+00 6.892641e+01 -7.326337e-01 6.941473e-01 9.053260e-01 6.934677e-01 -5.664242e-02 4.508240e-01 2.620447e-01 3.283740e-01 2.572348e-01 9.074073e-01 3.517258e-01 6.791998e-01 -1.164551e+00 7.796712e-02 -6.436842e-01 -5.662585e-02 -2.047573e-01 6.543029e-02 1.881303e-01 -7.123826e-02 -1.867103e-01 -1.567569e-01 -5.206195e-01 -1.233759e-01 -1.248592e-01 5.121190e-01
<VARIANCE> 39
 2.030606e+01 1.720981e+01 1.370923e+01 1.918456e+01 2.308061e+01 2.073936e+01 1.639244e+01 2.470354e+01 2.405692e+01 1.659922e+01 1.428796e+01 1.556685e+01 1.215587e+01 3.477140e-01 1.268488e+00 7.019362e-01 9.869651e-01 1.152779e+00 1.310364e+00 8.619679e-01 1.374510e+00 1.190028e+00 1.718268e+00 1.026273e+00 1.065002e+00 8.845143e-01 7.513322e-02 2.648804e-01 1.411142e-01 2.188343e-01 2.504001e-01 3.228799e-01 1.896277e-01 2.885755e-01 2.813704e-01 3.547958e-01 1.955382e-01 2.093523e-01 1.439864e-01
<GCONST> 8.899735e+01
<STATE> 3
<MEAN> 39
 8.033663e+00 -7.046518e+00 3.448686e+00 2.194050e+01 -1.372843e+01 2.031239e+01 -4.296076e+00 -5.575391e+00 8.357366e+00 -4.712327e+00 -3.336291e+00 2.086406e+00 6.731672e+01 3.769462e-02 -1.745232e+00 2.935332e-01 -4.949899e-01 8.903371e-02 1.299921e+00 1.771427e-01 -6.513994e-02 -2.570919e-01 -1.399372e+00 -2.112885e-01 1.478395e-01 9.969075e-01 5.230910e-01 -8.795910e-01 -4.894813e-01 -3.512521e-01 1.554586e-01 -1.754205e-01 -5.392785e-01 -3.647933e-01 -5.892541e-02 -9.694414e-01 -2.252679e-01 -3.963857e-01 1.074915e+00
<VARIANCE> 39
 1.519031e+01 1.965474e+01 1.358915e+01 2.226236e+01 2.551994e+01 1.412051e+01 1.688996e+01 2.371268e+01 1.623746e+01 1.468376e+01 1.173809e+01 9.865699e+00 7.760223e+00 1.094949e+00 3.508257e+00 1.602808e+00 1.901130e+00 2.820994e+00 3.090953e+00 1.631272e+00 2.280974e+00 1.963863e+00 2.799967e+00 1.204932e+00 1.422072e+00 1.310619e+00 1.291150e-01 4.032666e-01 2.263660e-01 5.174738e-01 6.955917e-01 6.494557e-01 3.133327e-01 5.167949e-01 3.634470e-01 4.374807e-01 2.509840e-01 3.080063e-01 1.677253e-01
<GCONST> 1.017972e+02
<STATE> 4
<MEAN> 39
 8.111269e+00 -1.581207e+01 2.782452e+00 1.729419e+01 -1.575444e+01 2.549280e+01 -3.197035e+00 -5.448370e+00 6.898849e+00 -1.107876e+01 -4.389566e+00 3.383441e+00 7.159001e+01 1.589517e+00 -2.277545e+00 -5.417544e-01 -3.268423e-01 6.354471e-01 -3.708585e-02 -1.582081e+00 -9.060190e-01 2.116423e-01 -2.744134e+00 -4.292817e-01 -1.047754e+00 3.121993e+00 3.255952e-01 4.306509e-01 -2.161340e-01 4.746186e-01 3.898661e-01 -1.228499e+00 -7.525513e-01 -2.464487e-01 2.993633e-01 1.663647e-01 -4.711203e-02 -5.435311e-01 3.296156e-01
<VARIANCE> 39
 1.392449e+01 5.057552e+01 1.508021e+01 2.436192e+01 4.703099e+01 3.948902e+01 1.716285e+01 3.117547e+01 2.281606e+01 2.925686e+01 1.190064e+01 1.266224e+01 1.822718e+01 1.657368e+00 4.004863e+00 2.615153e+00 4.566039e+00 6.977897e+00 6.304140e+00 2.795750e+00 4.397137e+00 2.878521e+00 3.075979e+00 1.385072e+00 1.883939e+00 1.657215e+00 1.817312e-01 8.013399e-01 4.150898e-01 5.053917e-01 5.978057e-01 6.177173e-01 3.697454e-01 4.212349e-01 3.867905e-01 5.555621e-01 3.502463e-01 4.200416e-01 3.600545e-01
<GCONST> 1.158628e+02
<TRANSP> 5
 0.000000e+00 1.000000e+00 0.000000e+00 0.000000e+00 0.000000e+00
 0.000000e+00 6.470248e-01 3.529752e-01 0.000000e+00 0.000000e+00
 0.000000e+00 0.000000e+00 4.714213e-01 5.285788e-01 0.000000e+00
 0.000000e+00 0.000000e+00 0.000000e+00 3.545560e-01 6.454439e-01
 0.000000e+00 0.000000e+00 0.000000e+00 0.000000e+00 0.000000e+00
<ENDHMM>
~h "c"
<BEGINHMM>
<NUMSTATES> 5
<STATE> 2
<MEAN> 39
 4.088118e+00 -2.434462e+01 1.361386e+01 2.312695e+01 -1.352277e+01 2.078709e+01 -5.373215e+00 -6.540386e+00 8.545987e+00 -7.103672e+00 -2.930117e+00 3.781268e+00 7.700365e+01 -2.239710e+00 -4.526542e+00 2.725032e+00 -2.401252e-01 -7.218229e-01 -2.780646e-01 1.354831e-01 6.170765e-01 -7.304030e-03 -3.786415e-01 -7.878236e-01 1.170819e+00 1.411993e+00 5.415050e-01 4.613128e-01 -9.226278e-01 -2.368089e-01 2.851654e-01 2.052635e-01 -2.194243e-01 -6.773159e-01 -2.810117e-01 -2.100158e-01 -1.941648e-02 -3.204982e-01 1.510945e-01
<VARIANCE> 39
 2.295082e+01 9.889664e+01 4.559038e+01 2.358733e+01 4.050277e+01 3.679940e+01 3.455083e+01 4.027479e+01 3.403887e+01 2.491685e+01 3.088455e+01 2.034172e+01 1.533127e+01 1.402947e+00 6.128046e+00 4.514292e+00 2.132098e+00 3.595324e+00 3.067196e+00 4.017400e+00 4.573847e+00 2.754518e+00 2.909468e+00 3.103348e+00 2.165282e+00 1.428150e+00 8.075885e-01 3.464052e+00 1.513931e+00 3.612882e-01 7.924659e-01 6.824249e-01 6.330320e-01 7.429068e-01 5.931389e-01 4.005504e-01 5.336168e-01 4.926783e-01 4.780418e-01
<GCONST> 1.264607e+02
<STATE> 3
<MEAN> 39
 1.121405e+00 -3.231232e+01 1.418109e+01 2.038153e+01 -1.294280e+01 2.091003e+01 -4.963897e+00 -1.000796e+01 6.441167e+00 -7.031561e+00 -5.075943e+00 4.633814e+00 8.068423e+01 2.390369e+00 2.562278e+00 -2.943592e+00 -1.284080e-01 1.216202e+00 1.385233e-01 -4.356423e-01 -1.660300e+00 -1.066768e+00 -1.164403e+00 -8.451230e-02 -1.054827e+00 1.137079e-01 1.009924e+00 1.484421e+00 -9.182843e-01 1.347124e-01 1.502232e-01 -2.007285e-02 -2.862452e-01 -3.335287e-02 1.857899e-01 -4.635785e-01 2.069161e-01 -3.030882e-01 -2.260636e-01
<VARIANCE> 39
 1.411254e+01 2.348430e+01 2.201141e+01 2.039956e+01 1.882054e+01 4.706730e+01 1.644753e+01 2.886076e+01 2.529091e+01 2.695867e+01 1.654663e+01 1.460461e+01 5.337567e+00 2.210911e+00 3.504904e+00 3.635825e+00 2.143244e+00 1.958865e+00 2.441801e+00 2.633262e+00 2.088820e+00 2.371666e+00 2.508113e+00 1.094231e+00 1.447860e+00 3.670289e-01 3.950097e-01 9.885023e-01 8.764946e-01 2.724506e-01 4.691381e-01 4.331378e-01 3.520053e-01 4.194672e-01 4.329726e-01 3.313444e-01 3.472872e-01 3.895003e-01 1.234146e-01
<GCONST> 1.069221e+02
<STATE> 4
<MEAN> 39
 1.017369e+01 -2.242733e+01 6.372515e+00 2.203355e+01 -1.104021e+01 2.251872e+01 -8.784112e+00 -1.313269e+01 6.362114e+00 -1.284376e+01 -4.681622e+00 1.186751e+00 8.056678e+01 2.151072e+00 2.026290e+00 -2.615185e+00 -1.882921e-01 5.388470e-01 -3.690532e-02 -1.471315e+00 -6.231539e-01 4.762899e-01 -1.586356e+00 3.331004e-01 -5.187430e-01 3.350003e-01 -6.428699e-01 -6.932603e-01 5.159090e-01 -1.770675e-01 -2.638280e-01 -1.342429e-01 2.183223e-02 5.412894e-01 3.236750e-01 2.161092e-01 1.062398e-01 4.255564e-01 -4.444700e-02
<VARIANCE> 39
 6.699708e+00 9.347720e+00 3.875870e+01 1.195574e+01 1.712664e+01 3.176518e+01 2.210049e+01 1.388010e+01 2.788341e+01 2.901936e+01 1.072042e+01 1.207345e+01 6.446764e+00 1.896688e+00 2.526373e+00 4.478281e+00 1.014094e+00 1.541940e+00 1.397343e+00 2.557039e+00 1.832310e+00 1.293107e+00 2.570743e+00 1.038582e+00 1.813792e+00 2.075512e-01 2.201204e-01 3.881535e-01 4.250560e-01 2.965229e-01 4.252144e-01 2.348960e-01 4.325529e-01 2.279130e-01 3.346143e-01 4.500744e-01 2.021555e-01 1.980370e-01 4.565134e-02
<GCONST> 9.570549e+01
<TRANSP> 5
 0.000000e+00 1.000000e+00 0.000000e+00 0.000000e+00 0.000000e+00
 0.000000e+00 7.603859e-01 2.396140e-01 0.000000e+00 0.000000e+00
 0.000000e+00 0.000000e+00 5.671327e-01 4.328674e-01 0.000000e+00
 0.000000e+00 0.000000e+00 0.000000e+00 5.176468e-01 4.823532e-01
 0.000000e+00 0.000000e+00 0.000000e+00 0.000000e+00 0.000000e+00
<ENDHMM>
~h "d"
<BEGINHMM>
<NUMSTATES> 5
<STATE> 2
<MEAN> 39
 8.908355e+00 -1.150965e+01 1.404306e+00 1.754827e+01 -1.732678e+01 1.993932e+01 -3.850491e+00 -7.551930e+00 5.762018e+00 -8.236770e+00 -6.533880e+00 -8.490567e-01 7.056762e+01 -5.187050e-01 6.870539e-01 4.415371e-01 4.946097e-01 -4.354690e-02 2.296126e-01 1.250231e-01 3.613059e-01 3.318251e-01 1.009093e+00 4.184501e-01 5.049183e-01 -1.061519e+00 -3.940442e-02 -4.563561e-01 -4.024220e-02 -1.212052e-01 1.731669e-03 6.222386e-02 -9.491176e-02 -1.504607e-02 -2.420728e-02 -2.374003e-01 1.055273e-01 1.982369e-01 2.267622e-01
<VARIANCE> 39
 3.111895e+01 4.393460e+01 3.288389e+01 2.640014e+01 3.102386e+01 2.567382e+01 2.128364e+01 2.116817e+01 3.009164e+01 2.558982e+01 3.335976e+01 5.134416e+01 2.585925e+01 3.998118e-01 1.663175e+00 1.467010e+00 1.510156e+00 1.270839e+00 1.554232e+00 1.826031e+00 1.339024e+00 1.605060e+00 2.056971e+00 1.499299e+00 1.165437e+00 1.048478e+00 5.293847e-02 3.869247e-01 2.706793e-01 2.875485e-01 2.990891e-01 4.143699e-01 3.034893e-01 2.933156e-01 3.055729e-01 3.405100e-01 3.356187e-01 2.805284e-01 1.474202e-01
<GCONST> 1.020733e+02
<STATE> 3
<MEAN> 39
 1.051481e+01 -7.836744e+00 5.220110e+00 1.811193e+01 -1.936551e+01 2.150201e+01 -3.431022e+00 -5.652616e+00 1.054737e+01 -7.195501e+00 -6.716913e+00 -2.627154e+00 7.088900e+01 -7.774335e-01 -1.466013e-01 5.669904e-01 3.282666e-01 1.584940e-01 4.855169e-01 -1.758359e-02 2.142505e-01 -1.844686e-01 3.934143e-01 7.327131e-01 1.269172e+00 -7.938288e-01 8.107727e-02 -7.934782e-01 -1.499241e-01 -3.220226e-01 4.530717e-02 3.033782e-02 -7.069334e-03 -8.540241e-02 -2.186185e-01 -5.407491e-01 -1.780527e-01 -3.801965e-02 5.940985e-01
<VARIANCE> 39
 7.164371e+00 1.546759e+01 1.911452e+01 1.806968e+01 2.595457e+01 2.453665e+01 1.546061e+01 1.808202e+01 2.595533e+01 1.499194e+01 2.559658e+01 4.185934e+01 9.450800e+00 2.306706e-01 1.579603e+00 1.195928e+00 1.217570e+00 1.779162e+00 2.045659e+00 1.293254e+00 1.451804e+00 1.744401e+00 1.556907e+00 1.703605e+00 1.724744e+00 6.355443e-01 5.275207e-02 5.884736e-01 2.507193e-01 3.417649e-01 3.563550e-01 4.098355e-01 2.953679e-01 3.012831e-01 3.882499e-01 3.982055e-01 3.008944e-01 3.752147e-01 2.934415e-01
<GCONST> 9.687124e+01
<STATE> 4
<MEAN> 39
 7.823997e+00 -1.218712e+01 5.301985e+00 1.857657e+01 -1.655546e+01 2.268761e+01 -3.649991e+00 -6.098833e+00 7.470596e+00 -6.801376e+00 -4.078097e+00 2.264447e+00 7.030738e+01 5.896752e-02 -3.461563e+00 7.129285e-02 -1.488428e+00 -5.743608e-01 6.920950e-01 -2.846320e-01 -1.290192e-02 -1.748743e-01 -1.906508e+00 -3.896605e-01 4.768458e-01 2.090581e+00 5.495932e-01 -2.305313e-01 -3.643572e-01 -3.452363e-01 -2.564937e-03 -2.944897e-01 -3.416108e-01 -2.888176e-01 -3.323396e-02 -9.139358e-01 -3.318161e-01 -3.443691e-01 8.429404e-01
<VARIANCE> 39
 1.072579e+01 4.318521e+01 2.499987e+01 3.223736e+01 3.839827e+01 2.779099e+01 1.871141e+01 1.890226e+01 2.157355e+01 1.873497e+01 1.827329e+01 1.908834e+01 1.408158e+01 8.868182e-01 2.588108e+00 2.320611e+00 2.249597e+00 3.141950e+00 3.486491e+00 2.441052e+00 3.005099e+00 3.174751e+00 2.999597e+00 1.985862e+00 2.204636e+00 1.299230e+00 9.554669e-02 9.310554e-01 4.252552e-01 5.815803e-01 6.482782e-01 6.128954e-01 4.047562e-01 4.390496e-01 3.718849e-01 4.434401e-01 3.879045e-01 4.731987e-01 2.457872e-01
<GCONST> 1.113435e+02
<TRANSP> 5
 0.000000e+00 1.000000e+00 0.000000e+00 0.000000e+00 0.000000e+00
 0.000000e+00 4.229469e-01 5.770531e-01 0.000000e+00 0.000000e+00
 0.000000e+00 0.000000e+00 5.671991e-01 4.328009e-01 0.000000e+00
 0.000000e+00 0.000000e+00 0.000000e+00 5.231611e-01 4.768389e-01
 0.000000e+00 0.000000e+00 0.000000e+00 0.000000e+00 0.000000e+00
<ENDHMM>
~h "e"
<BEGINHMM>
<NUMSTATES> 5
<STATE> 2
<MEAN> 39
 1.238923e+01 -1.924150e+01 -7.118082e-01 1.635749e+01 -1.233055e+01 1.947416e+01 -1.027830e+01 -1.230242e+01 4.384882e+00 -1.421573e+01 -2.333272e+00 3.246148e+00 7.981913e+01 1.228029e+00 -4.254054e-01 -1.719268e+00 -5.084607e-01 7.868852e-01 -8.210067e-01 -1.624653e+00 -8.655131e-01 2.145419e-01 -1.314559e+00 7.980328e-01 6.345257e-01 1.747203e+00 -3.199179e-01 5.405071e-02 3.051866e-01 1.023589e-01 -1.367000e-01 6.348054e-03 8.130294e-02 2.232241e-01 2.890649e-01 4.705981e-01 1.348886e-01 9.588676e-02 -3.185746e-01
<VARIANCE> 39
 1.039007e+01 1.718596e+01 2.776443e+01 3.564275e+01 3.562577e+01 4.045076e+01 3.391598e+01 2.569392e+01 2.626432e+01 3.006924e+01 1.643625e+01 2.692235e+01 1.597873e+01 1.559065e+00 3.966532e+00 2.760451e+00 3.226647e+00 2.962026e+00 3.769430e+00 2.348265e+00 2.369666e+00 2.365025e+00 3.202378e+00 2.017846e+00 3.409627e+00 1.277571e+00 3.027424e-01 5.815220e-01 4.501958e-01 5.029044e-01 5.417960e-01 6.594965e-01 4.655051e-01 4.014145e-01 4.408324e-01 5.578917e-01 2.851135e-01 3.881244e-01 2.521926e-01
<GCONST> 1.147640e+02
<STATE> 3
<MEAN> 39
 1.415154e+01 -1.994930e+01 -5.124936e+00 1.366643e+01 -1.281075e+01 1.597445e+01 -1.134311e+01 -1.168825e+01 5.699508e+00 -1.415260e+01 1.664929e+00 6.855428e+00 8.271737e+01 4.101980e-02 1.447512e-01 -5.614504e-02 5.301465e-02 1.990025e-02 3.212169e-03 -1.831034e-01 1.670775e-02 3.039560e-01 3.411046e-01 2.559150e-01 -1.802734e-02 -1.566713e-01 -2.318556e-01 3.474409e-01 4.754706e-01 2.959272e-01 -4.990649e-02 2.906417e-01 4.071506e-01 1.686583e-01 -1.009515e-01 3.348747e-01 -2.949188e-01 -3.243350e-01 -5.599277e-01
<VARIANCE> 39
 3.026792e+00 8.445597e+00 2.172260e+01 3.552933e+01 3.576994e+01 3.051913e+01 2.471147e+01 2.478075e+01 2.075640e+01 2.422418e+01 2.087234e+01 2.770677e+01 5.747909e+00 2.952309e-01 1.033082e+00 1.400807e+00 2.226142e+00 2.341512e+00 2.301259e+00 1.771708e+00 1.162853e+00 1.761152e+00 1.571981e+00 1.477425e+00 1.319641e+00 7.606317e-01 1.174722e-01 2.149691e-01 2.497849e-01 2.942781e-01 4.572266e-01 3.810497e-01 3.516606e-01 2.535093e-01 2.876117e-01 4.732725e-01 2.440308e-01 2.924387e-01 1.110161e-01
<GCONST> 9.579200e+01
<STATE> 4
<MEAN> 39
 1.264571e+01 -1.803432e+01 -3.026417e-02 1.869776e+01 -1.089981e+01 1.929967e+01 -1.260486e+01 -1.276319e+01 6.619677e+00 -1.180968e+01 -5.866107e-01 2.203239e+00 7.892215e+01 -6.224922e-01 1.233757e+00 1.034681e+00 8.446733e-01 -5.587122e-02 3.751025e-01 9.388112e-01 5.236003e-01 -1.222285e-01 1.385871e+00 -2.521059e-01 -2.959438e-01 -1.622924e+00 -1.910892e-01 -3.817074e-03 9.498636e-02 -1.570436e-02 -2.025146e-01 -4.123728e-02 2.848964e-01 1.162801e-01 -2.041048e-01 1.114191e-01 -9.528492e-02 1.575851e-01 -1.905824e-01
<VARIANCE> 39
 5.773939e+00 1.337053e+01 2.948259e+01 3.261849e+01 3.524931e+01 3.144241e+01 2.861215e+01 2.914779e+01 3.558326e+01 2.966109e+01 2.039914e+01 2.646999e+01 1.036544e+01 4.520852e-01 1.430944e+00 1.626035e+00 1.511903e+00 2.252029e+00 2.244848e+00 1.705233e+00 1.288053e+00 2.031570e+00 2.213590e+00 1.723637e+00 1.810210e+00 9.276056e-01 9.603176e-02 3.603936e-01 3.494671e-01 3.119972e-01 4.407482e-01 4.418431e-01 3.632499e-01 2.938829e-01 3.840148e-01 4.402761e-01 2.758511e-01 2.863975e-01 1.792078e-01
<GCONST> 1.021702e+02
<TRANSP> 5
 0.000000e+00 1.000000e+00 0.000000e+00 0.000000e+00 0.000000e+00
 0.000000e+00 5.203410e-01 4.796591e-01 0.000000e+00 0.000000e+00
 0.000000e+00 0.000000e+00 7.083057e-01 2.916943e-01 0.000000e+00
 0.000000e+00 0.000000e+00 0.000000e+00 5.634071e-01 4.365929e-01
 0.000000e+00 0.000000e+00 0.000000e+00 0.000000e+00 0.000000e+00
<ENDHMM>
~h "f"
<BEGINHMM>
<NUMSTATES> 5
<STATE> 2
<MEAN> 39
 3.927598e+00 -2.399752e+01 3.974355e+00 1.133840e+01 -2.061350e+01 2.374988e+01 -7.241621e+00 -4.325992e+00 5.492229e+00 -1.112510e+01 -2.371241e+00 5.520576e+00 7.172861e+01 -9.717879e-01 -1.946725e+00 3.461837e-01 -8.660933e-01 -3.450813e-01 2.819046e-01 -6.097592e-01 2.320512e-01 -2.104318e-01 -5.404885e-01 1.986893e-02 1.670124e-01 1.921804e-01 1.923280e-01 2.138254e-01 -3.015203e-01 -5.799821e-03 7.354942e-02 -2.653047e-01 1.396868e-02 3.126147e-03 7.373173e-02 -2.249330e-02 -4.336207e-02 -1.267102e-01 8.639172e-02
<VARIANCE> 39
 1.851741e+01 4.433140e+01 1.803383e+01 3.815321e+01 2.825664e+01 2.373491e+01 2.126302e+01 1.943280e+01 2.628145e+01 2.841152e+01 1.548505e+01 1.287463e+01 1.100964e+01 8.486884e-01 1.832459e+00 1.141280e+00 1.378711e+00 1.322355e+00 1.783539e+00 1.888952e+00 1.316270e+00 1.920882e+00 1.294158e+00 1.018956e+00 8.428903e-01 5.666126e-01 1.354082e-01 4.758811e-01 1.690165e-01 1.919671e-01 1.789381e-01 3.442239e-01 4.450319e-01 2.551481e-01 2.712404e-01 4.080344e-01 1.912107e-01 1.948817e-01 1.815664e-01
<GCONST> 9.628745e+01
<STATE> 3
<MEAN> 39
 6.469177e-01 -3.057701e+01 2.726977e+00 6.136210e+00 -2.159786e+01 2.233159e+01 -9.527192e+00 -4.094139e+00 5.954639e+00 -1.191401e+01 -2.610648e+00 5.602613e+00 7.327779e+01 9.403656e-01 1.286279e+00 -7.985610e-01 8.555241e-01 1.148026e-02 -1.100186e+00 2.796250e-01 5.008010e-02 1.285430e-01 3.772260e-01 -4.180342e-01 -4.027677e-01 -9.276904e-02 7.893122e-01 1.372373e+00 2.184093e-02 6.803635e-01 2.507884e-01 -2.845278e-01 1.314098e-01 2.104328e-02 3.716732e-01 -5.411866e-02 -2.403950e-01 -4.324128e-01 6.589019e-02
<VARIANCE> 39
 1.377123e+01 3.644767e+01 4.105189e+01 3.961278e+01 3.802079e+01 4.639897e+01 2.057526e+01 3.326747e+01 3.058357e+01 1.233088e+01 1.794943e+01 1.104389e+01 9.349157e+00 1.818380e+00 5.553361e+00 1.918151e+00 3.353966e+00 1.935750e+00 2.551794e+00 2.014083e+00 1.935687e+00 2.224223e+00 2.433062e+00 1.031832e+00 1.230904e+00 7.577837e-01 3.691267e-01 4.109511e-01 6.004413e-01 5.102680e-01 5.645231e-01 8.258773e-01 2.331433e-01 3.396249e-01 3.326588e-01 3.975506e-01 3.250992e-01 1.711481e-01 3.953051e-01
<GCONST> 1.093251e+02
<STATE> 4
<MEAN> 39
 4.557777e+00 -2.197153e+01 1.582883e+00 9.493183e+00 -2.083272e+01 2.098847e+01 -8.483001e+00 -2.452702e+00 8.856911e+00 -1.180712e+01 -7.149849e+00 4.389361e+00 7.126428e+01 2.346016e+00 3.010057e+00 -5.632954e-01 9.314702e-01 1.272474e-01 -1.058834e+00 2.217526e-01 4.465106e-02 1.051514e+00 -7.989102e-01 -7.052687e-01 -1.109119e+00 8.082251e-01 2.735775e-01 -6.634269e-03 -7.692618e-02 6.700982e-02 2.143259e-02 -1.884946e-01 -9.006996e-02 -6.585033e-02 1.272330e-01 -3.179162e-01 2.283222e-01 -2.319188e-02 4.129995e-01
<VARIANCE> 39
 1.428292e+01 4.647468e+01 1.053112e+01 1.717600e+01 1.395955e+01 3.294222e+01 2.663552e+01 1.828217e+01 2.033335e+01 2.395520e+01 2.770417e+01 2.058417e+01 9.655453e+00 3.966832e+00 4.798596e+00 3.681734e+00 3.900602e+00 3.284561e+00 5.052180e+00 1.271875e+00 1.394072e+00 1.877757e+00 2.087965e+00 4.807147e+00 2.196015e+00 2.358639e+00 4.665024e-01 6.505221e-01 5.035719e-01 3.906299e-01 1.262389e-01 7.235197e-01 3.208879e-01 2.001997e-01 4.903512e-01 5.188106e-01 7.594371e-01 4.038138e-01 2.558499e-01
<GCONST> 1.121971e+02
<TRANSP> 5
 0.000000e+00 1.000000e+00 0.000000e+00 0.000000e+00 0.000000e+00
 0.000000e+00 8.328710e-01 1.671290e-01 0.000000e+00 0.000000e+00
 0.000000e+00 0.000000e+00 5.890703e-01 4.109298e-01 0.000000e+00
 0.000000e+00 0.000000e+00 0.000000e+00 4.525202e-01 5.474798e-01
 0.000000e+00 0.000000e+00 0.000000e+00 0.000000e+00 0.000000e+00
<ENDHMM>
~h "g"
<BEGINHMM>
<NUMSTATES> 5
<STATE> 2
<MEAN> 39
 8.877244e+00 -1.011373e+01 3.822780e+00 2.214607e+01 -1.358858e+01 1.986046e+01 -8.373950e+00 -9.155078e+00 7.230155e+00 -5.476375e+00 -1.233545e+00 2.726541e+00 6.963326e+01 -7.597896e-01 -4.302965e-01 5.076906e-01 5.215484e-02 -2.553357e-01 1.059612e-01 1.748317e-01 8.172164e-01 2.436267e-01 2.465565e-01 3.015307e-01 7.827307e-01 -5.963160e-01 -3.834386e-02 -1.239823e+00 4.403675e-02 -3.750238e-01 9.441452e-02 2.493681e-01 -1.064433e-01 1.467707e-01 2.394023e-03 -7.122750e-01 -9.065416e-02 -1.442821e-01 7.885898e-01
<VARIANCE> 39
 1.363998e+01 2.173804e+01 2.237915e+01 1.833167e+01 2.290172e+01 1.851140e+01 2.224906e+01 2.293033e+01 1.821874e+01 1.889672e+01 2.305740e+01 1.952026e+01 9.858745e+00 4.823407e-01 5.913931e+00 1.664885e+00 1.827242e+00 1.897372e+00 1.965873e+00 2.555020e+00 2.940506e+00 1.727341e+00 2.939186e+00 1.633757e+00 1.300702e+00 1.582014e+00 6.347945e-02 7.231070e-01 1.748645e-01 2.984020e-01 2.586913e-01 3.800180e-01 3.430026e-01 4.675546e-01 1.947532e-01 4.936555e-01 3.604719e-01 3.125974e-01 2.167380e-01
<GCONST> 1.020023e+02
<STATE> 3
<MEAN> 39
 5.700312e+00 -1.507406e+01 5.371311e+00 1.943825e+01 -1.300748e+01 2.046817e+01 -7.296242e+00 -5.348789e+00 7.382239e+00 -6.453572e+00 -7.019362e-01 3.300069e+00 7.040370e+01 -4.593388e-01 -4.476461e+00 5.681604e-01 -1.015111e+00 1.752772e-01 1.249461e+00 -4.756204e-01 8.043750e-01 1.059692e-01 -1.751717e+00 4.727629e-01 -1.960103e-01 2.197332e+00 5.297366e-01 -1.133593e-01 -1.851662e-01 1.686581e-01 3.169804e-01 -1.584262e-01 -4.933665e-01 -7.089555e-01 -1.566010e-01 -5.745121e-01 -3.013462e-01 -5.368940e-01 7.054073e-01
<VARIANCE> 39
 1.941250e+01 4.477705e+01 2.909570e+01 3.541735e+01 3.783587e+01 2.528318e+01 3.539118e+01 2.217620e+01 1.850218e+01 1.751710e+01 1.579624e+01 1.607887e+01 1.550842e+01 1.186244e+00 4.547162e+00 2.910085e+00 3.341407e+00 2.556909e+00 4.112697e+00 3.056360e+00 5.207244e+00 2.708587e+00 3.542297e+00 3.268348e+00 3.123403e+00 1.336850e+00 8.767240e-02 8.447827e-01 3.763264e-01 4.715644e-01 3.639749e-01 6.359130e-01 4.383656e-01 4.491636e-01 3.097876e-01 3.713942e-01 3.076325e-01 2.701216e-01 2.197600e-01
<GCONST> 1.133404e+02
<STATE> 4
<MEAN> 39
 6.519847e+00 -2.637350e+01 7.252463e+00 1.887068e+01 -1.425079e+01 2.396200e+01 -1.064986e+01 -5.936996e+00 8.778149e+00 -1.198218e+01 -1.156235e+00 8.766211e-01 7.709586e+01 1.003981e+00 -8.661625e-01 -1.533772e-01 6.851317e-01 1.516646e+00 -5.666273e-01 -1.540492e+00 -1.359664e+00 -3.366312e-01 -1.943168e+00 -5.644394e-01 -1.000217e+00 1.996785e+00 5.517523e-01 1.651423e+00 -6.678080e-01 3.933914e-01 5.023120e-01 -6.476628e-01 -1.034575e-01 -6.631880e-01 -1.976478e-01 1.354036e-01 -1.905954e-01 -3.325343e-02 -2.603447e-01
<VARIANCE> 39
 8.585120e+00 4.295581e+01 2.575471e+01 3.464514e+01 3.547903e+01 4.079808e+01 2.499194e+01 3.184848e+01 2.951115e+01 2.673555e+01 2.974386e+01 1.947717e+01 1.063866e+01 1.305237e+00 7.410882e+00 2.552714e+00 2.852187e+00 3.184084e+00 3.870942e+00 2.360473e+00 3.672306e+00 2.235458e+00 2.696461e+00 1.732180e+00 2.146248e+00 1.165572e+00 1.347212e-01 7.583350e-01 5.148214e-01 7.176990e-01 5.340539e-01 7.208575e-01 5.554584e-01 9.446796e-01 4.716491e-01 6.838099e-01 5.354867e-01 6.291007e-01 2.326550e-01
<GCONST> 1.173700e+02
<TRANSP> 5
 0.000000e+00 1.000000e+00 0.000000e+00 0.000000e+00 0.000000e+00
 0.000000e+00 6.190749e-01 3.809251e-01 0.000000e+00 0.000000e+00
 0.000000e+00 0.000000e+00 3.420854e-01 6.579146e-01 0.000000e+00
 0.000000e+00 0.000000e+00 0.000000e+00 5.220972e-01 4.779028e-01
 0.000000e+00 0.000000e+00 0.000000e+00 0.000000e+00 0.000000e+00
<ENDHMM>
~h "h"
<BEGINHMM>
<NUMSTATES> 5
<STATE> 2
<MEAN> 39
 8.196129e+00 -1.718389e+01 -2.041589e+00 1.435046e+01 -1.844414e+01 2.127957e+01 -8.587741e-01 -3.498297e+00 8.505049e+00 -6.082865e+00 -2.771641e+00 4.715814e+00 7.168267e+01 -3.026010e-01 -6.484520e-01 -4.540600e-01 -4.980117e-01 -4.262088e-01 -4.733828e-01 6.602841e-01 1.119279e+00 4.412906e-01 3.193246e-01 6.345595e-03 5.426495e-02 -6.243598e-02 1.169896e-01 -3.040646e-02 -2.397166e-02 -3.017632e-02 -9.096647e-02 -1.867734e-01 -2.496779e-01 -1.938445e-01 -2.396218e-03 -2.077236e-01 -1.129142e-01 -1.522122e-01 1.842712e-01
<VARIANCE> 39
 1.854847e+01 1.541300e+01 2.606989e+01 3.496473e+01 3.166236e+01 3.796342e+01 2.686506e+01 3.572699e+01 2.763700e+01 2.647977e+01 2.765606e+01 1.979477e+01 3.713503e+01 2.346606e-01 9.345993e-01 1.264783e+00 1.489854e+00 1.054006e+00 1.806167e+00 2.194486e+00 2.179646e+00 2.329624e+00 1.568115e+00 1.262605e+00 1.847751e+00 5.215129e-01 3.775835e-02 1.340965e-01 1.687543e-01 2.250655e-01 1.526015e-01 3.735050e-01 5.001050e-01 3.672227e-01 4.272604e-01 3.309394e-01 2.659295e-01 3.124182e-01 7.335890e-02
<GCONST> 9.726631e+01
<STATE> 3
<MEAN> 39
 1.074821e+01 -2.142542e+01 -3.923766e+00 9.420938e+00 -2.450308e+01 1.720352e+01 1.368899e+00 1.083688e+00 1.159541e+01 -7.758231e+00 -1.784794e+00 3.965679e+00 7.684554e+01 6.981541e-01 1.163335e-01 3.211942e-01 2.517924e-01 -2.051717e-02 -3.969722e-01 -8.062056e-01 -2.589570e-01 9.261888e-01 -4.881037e-01 1.481667e-01 -4.035162e-01 1.024379e+00 2.108298e-01 3.252166e-01 4.474322e-02 9.710148e-02 2.204303e-01 -1.081176e-01 -4.064486e-01 -4.845847e-01 -1.406160e-01 -3.438960e-01 -3.684696e-02 -7.205733e-02 2.500870e-01
<VARIANCE> 39
 8.637660e+00 2.123306e+01 3.897216e+01 3.433502e+01 5.253307e+01 5.461771e+01 2.916095e+01 3.738944e+01 1.686362e+01 2.419148e+01 1.872060e+01 1.737991e+01 1.715404e+01 7.842285e-01 2.058956e+00 1.655245e+00 1.826956e+00 2.708683e+00 2.577259e+00 1.859786e+00 1.938422e+00 1.814030e+00 1.628104e+00 6.251628e-01 7.339515e-01 7.670506e-01 8.022314e-02 3.223872e-01 4.573626e-01 4.313714e-01 3.434636e-01 5.775195e-01 2.744367e-01 2.400938e-01 2.781963e-01 2.607842e-01 2.573071e-01 2.731029e-01 1.354268e-01
<GCONST> 1.016386e+02
<STATE> 4
<MEAN> 39
 1.424335e+01 -1.863738e+01 -4.699732e+00 8.188503e+00 -2.411619e+01 1.369491e+01 -2.280361e+00 9.817005e-01 1.468186e+01 -1.272625e+01 -2.642939e+00 3.136942e+00 8.115935e+01 2.030956e-01 8.546703e-02 -1.623089e-01 -1.316189e-01 -1.440786e-01 -4.958092e-01 -4.497026e-01 -4.614239e-01 -3.560608e-02 -2.419726e-01 -1.653107e-01 -2.547525e-01 3.581079e-01 -3.071679e-02 2.048678e-02 -4.362145e-02 7.385641e-02 1.160235e-01 -9.104587e-03 -4.017356e-02 -9.428792e-02 -1.743250e-01 -6.344607e-03 9.626703e-03 6.102320e-02 -7.430422e-02
<VARIANCE> 39
 6.780689e+00 1.081393e+01 1.634447e+01 2.325454e+01 3.118341e+01 3.730342e+01 1.741894e+01 4.131859e+01 1.694158e+01 2.937360e+01 1.498804e+01 1.639752e+01 9.643356e+00 3.123802e-01 1.027818e+00 9.390470e-01 1.470515e+00 1.967628e+00 2.329947e+00 1.345585e+00 1.272703e+00 1.091602e+00 1.441763e+00 1.056806e+00 9.386843e-01 8.320591e-01 5.630413e-02 1.547664e-01 1.210604e-01 2.110172e-01 3.555688e-01 3.020370e-01 2.035524e-01 1.360085e-01 1.715417e-01 2.601506e-01 1.682781e-01 2.171992e-01 9.485020e-02
<GCONST> 8.803761e+01
<TRANSP> 5
 0.000000e+00 1.000000e+00 0.000000e+00 0.000000e+00 0.000000e+00
 0.000000e+00 6.980681e-01 3.019319e-01 0.000000e+00 0.000000e+00
 0.000000e+00 0.000000e+00 4.722451e-01 5.277550e-01 0.000000e+00
 0.000000e+00 0.000000e+00 0.000000e+00 7.386411e-01 2.613588e-01
 0.000000e+00 0.000000e+00 0.000000e+00 0.000000e+00 0.000000e+00
<ENDHMM>
~h "i"
<BEGINHMM>
<NUMSTATES> 5
<STATE> 2
<MEAN> 39
 9.336555e+00 -1.966967e+01 5.742576e+00 2.215693e+01 -1.144506e+01 2.113771e+01 -8.924951e+00 -1.091447e+01 6.446810e+00 -1.036647e+01 -3.652214e+00 -8.992128e-01 7.694586e+01 1.616311e+00 8.693088e-01 -8.083805e-01 1.204157e+00 1.611704e+00 -1.191635e-01 -1.642868e+00 -1.136222e+00 6.299639e-01 -1.027800e+00 -5.590710e-02 -1.170478e+00 1.094394e+00 -2.209775e-01 6.189310e-02 -4.164363e-02 -2.108965e-01 -1.310216e-01 -1.737098e-01 -7.091478e-03 1.239535e-01 8.001623e-02 2.275575e-01 1.141989e-01 1.471082e-01 -1.603472e-01
<VARIANCE> 39
 1.759853e+01 3.052605e+01 4.290046e+01 3.001585e+01 3.903312e+01 3.472535e+01 2.675949e+01 2.361441e+01 2.540472e+01 2.585259e+01 1.460179e+01 2.120031e+01 1.139418e+01 2.643906e+00 8.286255e+00 3.526826e+00 3.251532e+00 3.689645e+00 3.756714e+00 2.872583e+00 2.553489e+00 2.162597e+00 2.650810e+00 1.755756e+00 2.508391e+00 1.536368e+00 3.185862e-01 9.341505e-01 5.030638e-01 4.932301e-01 6.884159e-01 6.211558e-01 3.844789e-01 3.423112e-01 3.457849e-01 4.504796e-01 2.838620e-01 3.010468e-01 2.243555e-01
<GCONST> 1.159498e+02
<STATE> 3
<MEAN> 39
 1.203511e+01 -1.904681e+01 2.735991e+00 2.419845e+01 -8.161354e+00 1.945587e+01 -1.353395e+01 -1.273508e+01 8.402048e+00 -1.273192e+01 -3.555542e+00 -2.631659e+00 7.925765e+01 1.809103e-01 4.559452e-01 -1.549203e-01 8.073077e-02 3.670927e-01 -2.261163e-01 -3.917023e-01 -1.753177e-01 2.044888e-01 3.225822e-01 1.720696e-01 -2.111974e-01 1.787619e-02 -4.527148e-01 1.682217e-01 3.242837e-01 -3.007654e-01 -5.062717e-01 2.088651e-01 8.198718e-01 3.799381e-01 -2.801141e-01 6.029767e-01 1.295908e-01 3.998039e-01 -5.706409e-01
<VARIANCE> 39
 6.101044e+00 1.221408e+01 3.079617e+01 2.051380e+01 2.894256e+01 3.055136e+01 2.111784e+01 2.339698e+01 2.711059e+01 2.428153e+01 1.418346e+01 2.218393e+01 7.746230e+00 9.397116e-01 2.490745e+00 2.581808e+00 1.849319e+00 2.492238e+00 2.809243e+00 2.879973e+00 1.676184e+00 2.399748e+00 2.005069e+00 1.363840e+00 1.590877e+00 1.118533e+00 1.958975e-01 6.864667e-01 4.159833e-01 3.454019e-01 5.129688e-01 5.228662e-01 3.824791e-01 3.624769e-01 3.805055e-01 3.696144e-01 2.492393e-01 3.208832e-01 1.841830e-01
<GCONST> 1.046864e+02
<STATE> 4
<MEAN> 39
 8.953567e+00 -1.646712e+01 5.152258e+00 2.346173e+01 -1.076429e+01 2.024191e+01 -1.095163e+01 -1.156122e+01 7.772617e+00 -7.860711e+00 -4.047512e+00 -1.894550e+00 7.432463e+01 -4.533333e-01 5.598328e-01 1.699658e-01 -9.791443e-02 -4.171482e-01 2.539732e-01 8.302923e-01 5.017184e-01 -1.787972e-01 6.825345e-01 2.472401e-01 5.613266e-01 -8.969310e-01 -1.167053e-01 -1.318286e-01 2.048818e-02 -6.847779e-02 -1.261490e-01 2.403652e-02 1.404704e-01 7.296292e-02 -5.591097e-02 -4.548919e-02 -6.106922e-02 7.300173e-02 -4.172455e-02
<VARIANCE> 39
 1.448548e+01 2.427700e+01 3.979728e+01 2.843699e+01 3.263085e+01 2.797125e+01 2.942727e+01 2.294485e+01 3.213649e+01 2.825134e+01 1.815234e+01 2.967140e+01 2.904756e+01 5.573525e-01 2.297817e+00 1.829426e+00 1.297600e+00 1.729706e+00 2.049470e+00 2.051558e+00 1.338174e+00 1.600692e+00 1.945622e+00 1.353697e+00 1.247281e+00 9.704654e-01 1.223165e-01 3.463903e-01 2.679390e-01 2.421080e-01 3.146571e-01 4.109564e-01 3.321575e-01 2.458540e-01 3.113043e-01 3.306781e-01 2.546661e-01 2.402330e-01 1.177543e-01
<GCONST> 1.017350e+02
<TRANSP> 5
 0.000000e+00 1.000000e+00 0.000000e+00 0.000000e+00 0.000000e+00
 0.000000e+00 2.937193e-01 7.062806e-01 0.000000e+00 0.000000e+00
 0.000000e+00 0.000000e+00 5.294734e-01 4.705267e-01 0.000000e+00
 0.000000e+00 0.000000e+00 0.000000e+00 6.159352e-01 3.840648e-01
 0.000000e+00 0.000000e+00 0.000000e+00 0.000000e+00 0.000000e+00
<ENDHMM>
~h "j"
<BEGINHMM>
<NUMSTATES> 5
<STATE> 2
<MEAN> 39
 1.584507e+01 -1.742528e+01 -6.501657e+00 1.607944e+01 -1.107430e+01 2.029937e+01 -9.278548e+00 -6.688101e+00 8.752352e+00 -2.241190e+01 -2.681453e+00 5.346143e+00 8.133862e+01 -6.201125e-01 -1.214123e+00 2.075637e+00 1.575463e+00 -4.133300e-01 1.751402e+00 -2.518839e-01 -9.284819e-01 4.265304e-01 5.535414e-01 7.060214e-01 4.126473e-01 -2.603478e-02 -6.456192e-01 -2.372576e-01 1.216248e+00 -1.979745e-01 -4.208756e-02 -2.402988e-01 3.633510e-01 5.226604e-02 -3.078030e-01 7.405717e-01 -1.595524e-01 -1.128189e-03 -4.486367e-02
<VARIANCE> 39
 2.312685e+00 4.890953e+00 1.247836e+01 1.302379e+01 1.157428e+01 1.461008e+01 1.942187e+01 7.229342e+00 1.724179e+01 1.401137e+01 3.312503e+01 1.290437e+01 5.644494e+00 7.649177e-01 7.975564e-01 2.435712e+00 1.261867e+00 4.553674e+00 2.344174e+00 1.113644e+00 1.126181e+00 9.351692e-01 2.956787e+00 3.210656e+00 1.975309e+00 3.466671e-01 5.760749e-02 2.267900e-01 2.514067e-01 1.593980e-01 5.154468e-01 8.488953e-01 1.739305e-01 2.704085e-01 1.661845e-01 2.702480e-01 2.260800e-01 2.475680e-01 1.322259e-01
<GCONST> 8.812484e+01
<STATE> 3
<MEAN> 39
 9.970927e+00 -2.088137e+01 6.896482e+00 1.895146e+01 -1.118531e+01 2.129399e+01 -7.446142e+00 -8.396038e+00 6.265899e+00 -1.530865e+01 -6.292682e-01 5.867344e+00 8.076389e+01 -2.689811e+00 -2.452511e+00 5.419680e+00 1.011304e+00 -1.254517e+00 -6.547153e-01 8.543093e-01 5.511385e-01 -5.516321e-01 1.607201e+00 1.693285e-01 9.311628e-01 1.059534e-01 -1.965055e-01 -4.321241e-01 -4.691488e-02 -1.878918e-02 -3.575044e-01 -3.190614e-01 1.202855e-02 3.214015e-01 6.219509e-02 -2.949141e-01 -3.937140e-01 2.257087e-01 3.812378e-02
<VARIANCE> 39
 9.894786e+00 1.447991e+01 4.568595e+01 1.637166e+01 2.978936e+01 2.767631e+01 1.351854e+01 7.908307e+00 1.557796e+01 1.745597e+01 1.267550e+01 6.657228e+00 4.406500e+00 4.674410e-01 1.698468e+00 1.217726e+00 5.503198e-01 2.226314e+00 1.649115e+00 1.406400e+00 7.689549e-01 5.944521e-01 1.613698e+00 1.291749e+00 7.815306e-01 5.672792e-01 1.309883e-01 2.023144e-01 7.180200e-01 3.019257e-01 7.366303e-01 3.645394e-01 3.539222e-01 2.840265e-01 1.505097e-01 2.166955e-01 3.488307e-01 2.366133e-01 6.772565e-02
<GCONST> 8.893755e+01
<STATE> 4
<MEAN> 39
 1.125948e+00 -3.135156e+01 1.845097e+01 2.172952e+01 -1.748780e+01 1.921978e+01 -5.082754e+00 -5.837183e+00 6.027824e+00 -1.063690e+01 -1.696994e+00 8.980103e+00 7.992847e+01 -1.078918e-02 -2.925989e-01 -2.976618e-01 3.885064e-02 -6.663947e-02 3.967620e-02 -3.077114e-01 -2.870712e-01 1.018805e-01 4.869094e-01 -1.174322e-02 -3.537090e-01 -8.269849e-02 6.368269e-01 7.039507e-01 -9.089862e-01 -1.723837e-01 3.005238e-01 2.433228e-02 -1.846163e-01 -2.096184e-01 1.913886e-02 -2.550908e-01 1.628527e-01 -2.792073e-01 4.335190e-02
<VARIANCE> 39
 7.012824e+00 1.471851e+01 1.530648e+01 1.197892e+01 1.286622e+01 2.978708e+01 2.509801e+01 1.361104e+01 1.453410e+01 2.288701e+01 2.551491e+01 1.313807e+01 7.267519e+00 3.121078e+00 4.799859e+00 5.425786e+00 1.928603e+00 1.881145e+00 2.363307e+00 1.748133e+00 1.487700e+00 1.492060e+00 1.911893e+00 1.901462e+00 1.955609e+00 5.040570e-01 2.207145e-01 3.955407e-01 8.422261e-01 3.332392e-01 2.818589e-01 4.463407e-01 3.215101e-01 2.263183e-01 2.520364e-01 3.598646e-01 3.122374e-01 3.001168e-01 9.273311e-02
<GCONST> 1.005437e+02
<TRANSP> 5
 0.000000e+00 1.000000e+00 0.000000e+00 0.000000e+00 0.000000e+00
 0.000000e+00 6.624990e-01 3.375010e-01 0.000000e+00 0.000000e+00
 0.000000e+00 0.000000e+00 6.481344e-01 3.518656e-01 0.000000e+00
 0.000000e+00 0.000000e+00 0.000000e+00 8.694565e-01 1.305436e-01
 0.000000e+00 0.000000e+00 0.000000e+00 0.000000e+00 0.000000e+00
<ENDHMM>
~h "k"
<BEGINHMM>
<NUMSTATES> 5
<STATE> 2
<MEAN> 39
 7.090939e+00 -1.385454e+01 1.623275e+00 1.990554e+01 -1.569477e+01 2.014993e+01 -7.451216e+00 -8.497069e+00 5.725686e+00 -5.271251e+00 -3.706146e+00 2.760787e+00 6.828550e+01 -9.084533e-01 -8.903378e-01 -7.171705e-02 -9.721229e-01 -9.717628e-01 -1.699276e-01 1.927251e-01 3.617340e-01 -4.729937e-01 -2.244168e-01 -5.800238e-01 1.678151e-01 -5.051798e-01 1.061844e-01 -1.013019e+00 6.128327e-02 -6.685375e-01 -3.656904e-01 5.554312e-02 -2.818741e-02 5.730942e-02 3.739312e-02 -6.504667e-01 1.498738e-01 -1.951039e-01 9.017701e-01
<VARIANCE> 39
 9.205559e+00 1.438169e+01 2.445401e+01 3.649582e+01 4.220947e+01 2.201870e+01 2.797590e+01 3.464318e+01 2.573060e+01 2.129704e+01 2.460999e+01 2.167018e+01 6.592736e+00 4.508975e-01 4.145374e+00 1.396119e+00 2.939355e+00 2.382665e+00 2.481781e+00 2.267117e+00 2.074036e+00 1.629949e+00 2.439180e+00 1.848847e+00 1.516287e+00 2.313639e+00 8.537485e-02 4.341078e-01 3.065156e-01 4.672852e-01 4.532269e-01 5.164848e-01 5.050070e-01 4.931707e-01 4.320654e-01 3.870746e-01 4.210752e-01 2.782490e-01 1.952225e-01
<GCONST> 1.065049e+02
<STATE> 3
<MEAN> 39
 4.694461e+00 -2.193438e+01 2.323771e+00 1.187034e+01 -2.119408e+01 1.977222e+01 -5.536395e+00 -5.159951e+00 4.989446e+00 -8.785390e+00 -3.846158e+00 2.094574e+00 7.178343e+01 -3.234622e-01 -3.748659e+00 3.285183e-01 -2.643867e+00 -2.167375e+00 4.176465e-01 3.570114e-01 6.115825e-01 -1.225072e-01 -1.660419e+00 5.116029e-01 -1.090149e-01 2.254594e+00 2.160954e-01 3.608929e-01 9.105769e-02 5.978917e-01 5.388217e-01 -1.076424e-02 -1.111941e-01 -3.135361e-01 1.462535e-01 2.474039e-01 3.614923e-02 5.754906e-02 7.023135e-02
<VARIANCE> 39
 1.322274e+01 5.922256e+01 3.071060e+01 5.924792e+01 8.411350e+01 5.742411e+01 3.699888e+01 3.794302e+01 3.562057e+01 2.723167e+01 2.364406e+01 2.283796e+01 2.056601e+01 1.521487e+00 5.047390e+00 3.808254e+00 5.189720e+00 5.060316e+00 4.601284e+00 4.789014e+00 4.469497e+00 4.183568e+00 3.562214e+00 3.844175e+00 2.166617e+00 2.232553e+00 1.736457e-01 1.008327e+00 4.103805e-01 8.021275e-01 8.221254e-01 7.939759e-01 5.202610e-01 4.881051e-01 4.282144e-01 4.680307e-01 4.449528e-01 2.900971e-01 4.513448e-01
<GCONST> 1.255261e+02
<STATE> 4
<MEAN> 39
 4.356924e+00 -2.852362e+01 3.388042e+00 1.061330e+01 -2.341360e+01 2.074700e+01 -6.483966e+00 -6.011429e+00 5.131434e+00 -1.115247e+01 -3.122952e+00 2.995021e+00 7.552118e+01 3.877061e-01 2.426356e-01 2.184108e-01 8.326359e-01 1.030005e+00 -4.577853e-02 -1.783866e-01 -3.960612e-01 4.498129e-01 2.335673e-01 -1.831737e-01 -1.674217e-01 4.382023e-01 4.456356e-01 1.443219e+00 -1.329375e-01 8.984255e-01 8.988534e-01 -1.693770e-01 -1.626426e-01 -2.283095e-01 3.112815e-01 3.355533e-01 -1.635606e-01 -2.291533e-01 -3.365334e-01
<VARIANCE> 39
 1.464738e+01 4.511239e+01 4.480873e+01 5.557785e+01 6.857767e+01 5.010673e+01 4.512643e+01 4.150834e+01 4.641177e+01 3.626846e+01 3.422027e+01 2.065403e+01 1.808183e+01 1.774891e+00 6.292113e+00 2.322172e+00 3.703076e+00 4.183292e+00 3.857803e+00 2.073532e+00 2.122317e+00 2.658184e+00 2.506951e+00 2.279818e+00 2.097164e+00 1.803997e+00 2.601742e-01 7.958386e-01 6.771835e-01 8.649219e-01 8.532392e-01 9.218602e-01 6.883028e-01 6.634645e-01 7.739094e-01 7.411314e-01 7.740876e-01 4.525374e-01 4.694957e-01
<GCONST> 1.259370e+02
<TRANSP> 5
 0.000000e+00 1.000000e+00 0.000000e+00 0.000000e+00 0.000000e+00
 0.000000e+00 7.058252e-01 2.941748e-01 0.000000e+00 0.000000e+00
 0.000000e+00 0.000000e+00 4.213163e-01 5.786837e-01 0.000000e+00
 0.000000e+00 0.000000e+00 0.000000e+00 5.844394e-01 4.155606e-01
 0.000000e+00 0.000000e+00 0.000000e+00 0.000000e+00 0.000000e+00
<ENDHMM>
~h "l"
<BEGINHMM>
<NUMSTATES> 5
<STATE> 2
<MEAN> 39
 1.043113e+01 -1.516944e+01 4.439652e+00 1.912820e+01 -1.698019e+01 1.875482e+01 -5.773504e+00 -5.973693e+00 8.022861e+00 -1.152564e+01 -6.672520e+00 -8.779017e-01 7.495084e+01 1.663575e-01 6.215059e-01 2.740558e-01 4.977435e-01 -5.464024e-01 -2.400721e-01 9.020830e-01 5.655447e-01 5.358945e-02 7.463712e-03 -6.386383e-01 -4.310979e-01 -3.132369e-01 1.594157e-01 -1.789152e-01 -2.909949e-01 -2.357508e-01 8.064160e-02 -2.313160e-01 -2.296500e-01 -2.005516e-01 -1.963146e-02 -1.748564e-01 7.172419e-02 -3.873686e-02 3.650928e-01
<VARIANCE> 39
 1.779854e+01 5.334158e+01 3.331392e+01 3.850277e+01 6.081491e+01 4.724464e+01 2.726136e+01 3.343275e+01 3.944717e+01 2.878845e+01 2.991011e+01 4.628184e+01 1.208841e+01 1.766792e+00 3.188692e+00 2.248227e+00 1.880981e+00 3.717830e+00 3.004058e+00 2.085764e+00 2.371681e+00 2.630833e+00 2.727351e+00 2.122982e+00 2.547856e+00 1.083078e+00 1.567370e-01 4.592532e-01 3.866741e-01 4.208209e-01 4.461078e-01 4.592347e-01 3.773203e-01 4.077109e-01 4.216161e-01 5.693181e-01 4.195384e-01 4.110194e-01 1.918245e-01
<GCONST> 1.154090e+02
<STATE> 3
<MEAN> 39
 1.102958e+01 -1.399217e+01 4.605593e+00 1.906482e+01 -1.807401e+01 1.802588e+01 -4.331355e+00 -5.153064e+00 8.127932e+00 -1.174201e+01 -7.839172e+00 -1.877972e+00 7.500317e+01 4.878528e-01 3.243748e-01 -4.082041e-01 -7.552497e-02 -3.301553e-01 -5.623540e-01 5.154492e-01 8.236501e-02 -1.316219e-01 -2.438576e-01 -5.105283e-01 -4.721621e-01 3.210986e-01 1.337480e-01 -2.945883e-01 -4.458855e-01 -3.526378e-01 2.262862e-01 -1.612836e-01 -4.799392e-01 -3.050987e-01 1.079460e-02 -1.759998e-01 2.913797e-01 1.883830e-01 3.946587e-01
<VARIANCE> 39
 1.214592e+01 4.504358e+01 2.757867e+01 3.912127e+01 6.071964e+01 4.476060e+01 2.628427e+01 3.061823e+01 4.120523e+01 3.031293e+01 3.621902e+01 5.528010e+01 1.053858e+01 1.844009e+00 3.771810e+00 2.325475e+00 1.806315e+00 2.990304e+00 2.621603e+00 1.825761e+00 2.140983e+00 2.761711e+00 3.298856e+00 1.497384e+00 2.018608e+00 1.476552e+00 1.843900e-01 3.663314e-01 4.649108e-01 4.653845e-01 5.055411e-01 6.481691e-01 3.613562e-01 4.831850e-01 4.164476e-01 4.741780e-01 5.287456e-01 5.638452e-01 1.934541e-01
<GCONST> 1.155915e+02
<STATE> 4
<MEAN> 39
 1.191630e+01 -1.365781e+01 3.797724e+00 1.820996e+01 -1.919491e+01 1.694316e+01 -3.292246e+00 -4.616481e+00 8.024184e+00 -1.278909e+01 -9.106241e+00 -3.120888e+00 7.585909e+01 6.302890e-01 -2.219835e-01 -1.125926e+00 -5.585430e-01 4.113916e-02 -6.551365e-01 -3.428361e-01 -4.282879e-01 -1.373495e-01 -6.005650e-01 8.723164e-02 9.634484e-02 8.186253e-01 -1.572527e-02 -3.023852e-01 -3.023748e-01 -2.768657e-01 2.741216e-01 1.463199e-02 -4.528807e-01 -2.644058e-01 2.978204e-02 -3.628606e-02 4.280286e-01 4.180707e-01 2.251979e-01
<VARIANCE> 39
 7.570206e+00 3.437329e+01 2.020057e+01 3.941275e+01 6.139972e+01 4.359668e+01 2.940630e+01 3.495154e+01 3.540582e+01 3.341567e+01 3.874053e+01 5.237660e+01 1.119663e+01 1.389459e+00 3.063587e+00 3.424766e+00 2.359617e+00 2.438988e+00 3.127027e+00 1.690778e+00 2.542969e+00 2.807294e+00 3.188323e+00 1.808856e+00 2.340888e+00 1.688150e+00 1.829888e-01 4.021461e-01 3.396932e-01 3.914992e-01 5.746644e-01 5.851739e-01 3.784125e-01 3.620748e-01 3.897539e-01 4.484566e-01 4.209692e-01 5.284659e-01 1.502261e-01
<GCONST> 1.141927e+02
<TRANSP> 5
 0.000000e+00 1.000000e+00 0.000000e+00 0.000000e+00 0.000000e+00
 0.000000e+00 1.385169e-01 8.614831e-01 0.000000e+00 0.000000e+00
 0.000000e+00 0.000000e+00 2.965200e-02 9.703480e-01 0.000000e+00
 0.000000e+00 0.000000e+00 0.000000e+00 1.786993e-01 8.213007e-01
 0.000000e+00 0.000000e+00 0.000000e+00 0.000000e+00 0.000000e+00
<ENDHMM>
~h "m"
<BEGINHMM>
<NUMSTATES> 5
<STATE> 2
<MEAN> 39
 1.363834e+01 -9.397458e+00 -6.367851e-01 1.777678e+01 -1.517924e+01 2.133048e+01 -3.536916e+00 -8.235257e+00 8.238529e+00 -8.104889e+00 -4.037750e+00 -1.729634e+00 7.409163e+01 4.315274e-02 1.718252e+00 4.423231e-01 4.677098e-01 3.377297e-01 1.311337e+00 5.393061e-01 -9.515467e-01 -1.381948e-01 1.410330e+00 3.667185e-02 -1.210707e+00 -9.332461e-01 -8.865032e-02 -4.770708e-01 -6.226629e-03 -1.739471e-01 -5.576275e-02 -2.304550e-01 -1.708024e-01 -1.787963e-02 -7.235203e-02 -2.606266e-01 1.082286e-01 2.719094e-01 3.085692e-01
<VARIANCE> 39
 5.733116e+00 1.053586e+01 2.386727e+01 1.704282e+01 2.412620e+01 2.267906e+01 1.069180e+01 1.820533e+01 1.673586e+01 1.389584e+01 1.449001e+01 1.848820e+01 6.130614e+00 7.581115e-01 1.106406e+00 1.304919e+00 1.491185e+00 1.615626e+00 2.001104e+00 1.060618e+00 1.477117e+00 1.256214e+00 1.861058e+00 1.107284e+00 1.421912e+00 7.302506e-01 7.308485e-02 1.190030e-01 1.933146e-01 2.389985e-01 2.820984e-01 4.044057e-01 1.668182e-01 3.157427e-01 2.025672e-01 2.523245e-01 1.627616e-01 2.101519e-01 7.034326e-02
<GCONST> 8.737907e+01
<STATE> 3
<MEAN> 39
 1.255961e+01 -6.399642e+00 2.022939e+00 1.927948e+01 -1.483799e+01 2.331029e+01 -2.511181e+00 -1.053568e+01 7.325058e+00 -5.084564e+00 -4.055572e+00 -4.520994e+00 7.212982e+01 -6.527039e-03 5.080234e-01 -8.649694e-03 -1.440465e-01 2.179208e-01 1.889094e-01 1.417848e-01 -2.182164e-01 -2.087298e-01 2.344589e-01 7.906745e-02 -5.445930e-02 -1.848757e-01 2.632143e-03 -4.769656e-01 -1.487253e-01 -6.322572e-02 -1.877355e-02 -3.400355e-01 -1.917960e-01 3.709840e-01 9.651788e-02 -5.151110e-01 -1.025852e-01 3.402815e-01 2.322738e-01
<VARIANCE> 39
 4.511472e+00 1.117122e+01 1.346196e+01 1.128156e+01 1.927929e+01 1.479002e+01 8.358513e+00 1.752897e+01 1.534247e+01 1.456178e+01 1.350467e+01 1.332836e+01 7.710843e+00 3.162081e-01 5.878762e-01 7.624688e-01 8.455247e-01 1.108779e+00 1.063782e+00 6.763970e-01 1.160080e+00 7.838650e-01 1.128035e+00 6.641493e-01 7.449766e-01 2.466645e-01 5.451915e-02 2.022097e-01 1.434383e-01 2.369142e-01 2.786809e-01 3.667518e-01 2.034606e-01 2.657744e-01 1.879637e-01 2.751278e-01 1.647827e-01 2.107531e-01 7.490237e-02
<GCONST> 7.747800e+01
<STATE> 4
<MEAN> 39
 1.266604e+01 -7.446064e+00 2.669071e-01 1.689454e+01 -1.509919e+01 2.346320e+01 -1.890335e+00 -9.607866e+00 6.746251e+00 -6.766147e+00 -4.375878e+00 -2.671161e+00 7.257217e+01 3.082858e-02 -1.280397e+00 -5.528838e-01 -2.574498e-01 1.167928e-01 -1.110561e+00 -7.884302e-01 9.975280e-01 3.294604e-01 -1.550527e+00 -2.163633e-01 1.131174e+00 7.075668e-01 -1.324929e-01 -7.555592e-01 7.985483e-02 9.760007e-02 -4.350476e-02 -4.195872e-01 -4.565610e-01 2.592478e-01 2.527479e-01 -3.718263e-01 4.821226e-02 3.602767e-01 3.063119e-01
<VARIANCE> 39
 9.047531e+00 1.242629e+01 1.337275e+01 1.672664e+01 2.491053e+01 1.833748e+01 1.190098e+01 1.866268e+01 1.852756e+01 1.655186e+01 1.563861e+01 1.652671e+01 1.170934e+01 7.877932e-01 1.897417e+00 2.371738e+00 2.998230e+00 2.641077e+00 3.985607e+00 2.197300e+00 2.387645e+00 1.882180e+00 2.493937e+00 1.347264e+00 1.619166e+00 1.075147e+00 1.187743e-01 3.601365e-01 2.809314e-01 3.888035e-01 3.374607e-01 5.769445e-01 3.857787e-01 4.190488e-01 2.887252e-01 4.305114e-01 2.718845e-01 3.879063e-01 1.038305e-01
<GCONST> 1.004276e+02
<TRANSP> 5
 0.000000e+00 1.000000e+00 0.000000e+00 0.000000e+00 0.000000e+00
 0.000000e+00 4.635045e-01 5.364956e-01 0.000000e+00 0.000000e+00
 0.000000e+00 0.000000e+00 6.887553e-01 3.112448e-01 0.000000e+00
 0.000000e+00 0.000000e+00 0.000000e+00 5.079566e-01 4.920433e-01
 0.000000e+00 0.000000e+00 0.000000e+00 0.000000e+00 0.000000e+00
<ENDHMM>
~h "n"
<BEGINHMM>
<NUMSTATES> 5
<STATE> 2
<MEAN> 39
 1.374325e+01 -1.164061e+01 -8.510795e-01 1.777586e+01 -1.434564e+01 1.956554e+01 -4.814498e+00 -7.703928e+00 8.048743e+00 -9.840782e+00 -4.139683e+00 -3.807117e-01 7.571364e+01 -8.307685e-02 1.945039e+00 5.025995e-01 4.831012e-01 1.386769e-01 1.369395e+00 7.295006e-01 -9.603740e-01 -4.385544e-01 1.598487e+00 -2.116001e-01 -1.401536e+00 -1.326053e+00 -5.842029e-02 -1.853207e-01 4.167063e-02 -6.111540e-02 -1.237014e-01 -1.338520e-01 -7.012593e-02 -4.887474e-02 -2.845982e-02 -1.025180e-01 3.190700e-02 5.597108e-02 1.266310e-01
<VARIANCE> 39
 3.067723e+00 1.131630e+01 1.684104e+01 2.203683e+01 3.637257e+01 3.142967e+01 2.639650e+01 3.044069e+01 2.384774e+01 2.394331e+01 1.918968e+01 2.235675e+01 5.608402e+00 2.816947e-01 7.376596e-01 1.237671e+00 1.619444e+00 2.538296e+00 2.199402e+00 2.279479e+00 1.938016e+00 1.978139e+00 1.650764e+00 1.071110e+00 1.503608e+00 3.561209e-01 4.337883e-02 2.066003e-01 1.437474e-01 2.027875e-01 3.225523e-01 3.692363e-01 2.331080e-01 2.399663e-01 3.065892e-01 2.787826e-01 1.592194e-01 2.296542e-01 7.437434e-02
<GCONST> 9.033331e+01
<STATE> 3
<MEAN> 39
 1.342363e+01 -7.828622e+00 9.501446e-01 1.877189e+01 -1.470234e+01 2.283035e+01 -4.180230e+00 -1.131024e+01 7.430675e+00 -6.376535e+00 -4.649520e+00 -3.893969e+00 7.337580e+01 -1.795635e-01 9.259118e-01 3.556521e-01 1.558923e-01 -7.294901e-02 2.305032e-01 3.027677e-01 -2.586333e-01 -2.078739e-01 6.617272e-01 -1.171233e-01 -4.348779e-01 -6.189504e-01 -7.475697e-02 -4.979622e-01 1.201321e-02 1.358825e-02 -9.513769e-02 -3.519164e-01 -7.689638e-02 3.844012e-01 4.936576e-02 -3.960352e-01 6.696367e-02 3.833239e-01 2.197471e-01
<VARIANCE> 39
 1.873132e+00 8.621556e+00 9.635739e+00 1.020917e+01 1.659883e+01 1.833749e+01 1.422108e+01 1.919319e+01 1.562409e+01 1.329126e+01 1.368749e+01 1.608056e+01 3.997899e+00 1.664609e-01 5.782212e-01 6.250371e-01 8.353807e-01 1.293385e+00 1.259229e+00 1.180736e+00 1.222057e+00 1.188546e+00 9.905217e-01 7.180529e-01 9.233676e-01 2.139250e-01 3.862415e-02 2.411778e-01 1.568975e-01 1.929132e-01 2.421383e-01 2.709202e-01 2.696193e-01 2.451171e-01 2.382745e-01 2.473588e-01 1.650618e-01 1.900262e-01 9.821945e-02
<GCONST> 7.633662e+01
<STATE> 4
<MEAN> 39
 1.251215e+01 -8.180789e+00 1.677274e+00 1.944553e+01 -1.501789e+01 2.116185e+01 -3.332919e+00 -9.506495e+00 6.453833e+00 -6.775457e+00 -4.780042e+00 -2.895956e+00 7.271728e+01 -3.457062e-01 -1.177988e+00 2.249711e-01 4.105603e-01 -3.891038e-01 -6.082842e-01 1.962276e-01 9.161636e-01 -1.591336e-01 -7.247815e-01 1.991491e-01 8.380603e-01 2.030078e-01 -6.142957e-02 -7.243787e-01 -7.882623e-02 -1.644507e-01 -2.100843e-03 -2.407029e-01 -3.463006e-01 2.502245e-01 2.371003e-01 -4.392942e-01 8.687192e-02 4.598202e-01 3.723036e-01
<VARIANCE> 39
 3.632116e+00 1.682696e+01 1.338408e+01 1.654151e+01 1.975197e+01 1.883445e+01 1.730302e+01 2.086262e+01 1.855969e+01 1.787137e+01 1.838776e+01 1.897498e+01 7.487768e+00 5.564137e-01 2.274397e+00 2.064821e+00 1.489759e+00 1.630680e+00 2.035725e+00 1.885863e+00 1.878136e+00 1.850021e+00 2.320007e+00 1.434453e+00 1.635919e+00 1.149461e+00 8.464934e-02 4.592614e-01 2.994779e-01 2.930660e-01 3.410458e-01 4.151280e-01 4.159197e-01 3.918290e-01 3.214226e-01 3.999920e-01 2.576247e-01 3.242646e-01 1.607456e-01
<GCONST> 9.713143e+01
<TRANSP> 5
 0.000000e+00 1.000000e+00 0.000000e+00 0.000000e+00 0.000000e+00
 0.000000e+00 3.625507e-01 6.374493e-01 0.000000e+00 0.000000e+00
 0.000000e+00 0.000000e+00 6.299537e-01 3.700463e-01 0.000000e+00
 0.000000e+00 0.000000e+00 0.000000e+00 4.692296e-01 5.307704e-01
 0.000000e+00 0.000000e+00 0.000000e+00 0.000000e+00 0.000000e+00
<ENDHMM>
~h "o"
<BEGINHMM>
<NUMSTATES> 5
<STATE> 2
<MEAN> 39
 8.669478e+00 -1.754883e+01 9.846146e-01 1.194727e+01 -2.195172e+01 1.627695e+01 -5.484386e+00 -2.652890e+00 1.040931e+01 -1.185831e+01 -8.809886e+00 2.417411e+00 7.403501e+01 1.702108e+00 1.760546e+00 -5.593300e-01 5.689414e-02 -1.225161e+00 -1.571073e+00 -3.438705e-01 7.925966e-01 1.543861e+00 -8.075477e-01 -9.190718e-01 -1.779284e+00 6.924142e-01 4.819211e-02 1.524286e-01 1.834474e-01 1.565109e-01 -7.312799e-02 -3.924855e-01 -3.165137e-01 4.649751e-02 3.483535e-01 1.697507e-01 2.260336e-01 -1.267516e-01 1.546664e-01
<VARIANCE> 39
 2.855005e+01 6.951147e+01 2.634474e+01 2.418830e+01 4.298190e+01 3.851492e+01 3.048505e+01 3.536533e+01 2.869667e+01 5.025694e+01 2.367896e+01 3.182068e+01 3.688333e+01 3.242661e+00 6.767510e+00 3.093272e+00 3.410477e+00 4.247245e+00 3.498430e+00 2.803636e+00 2.869446e+00 4.301621e+00 3.647612e+00 2.726872e+00 4.450542e+00 1.489017e+00 3.008688e-01 7.179929e-01 4.397192e-01 4.044981e-01 5.258413e-01 6.453829e-01 6.199803e-01 4.004118e-01 7.606103e-01 6.512673e-01 4.435823e-01 6.080282e-01 2.258577e-01
<GCONST> 1.242704e+02
<STATE> 3
<MEAN> 39
 1.526130e+01 -1.413279e+01 -5.178292e-01 1.270943e+01 -2.476294e+01 1.056851e+01 -7.756464e+00 -5.358582e-01 1.608448e+01 -1.617605e+01 -1.112039e+01 -5.086485e+00 7.993257e+01 7.755809e-01 1.276011e+00 -2.946698e-01 -2.176940e-02 -9.506756e-01 -2.568585e+00 -7.802802e-01 8.727307e-01 1.633825e+00 7.554759e-01 1.924269e-01 -9.834521e-01 4.152571e-01 -6.161694e-01 -4.211825e-01 2.078682e-01 9.018559e-02 5.279384e-01 3.062958e-01 1.209058e-01 -2.591830e-01 -5.858425e-01 5.997808e-01 4.642878e-01 7.889514e-01 -3.999997e-01
<VARIANCE> 39
 2.454122e+00 1.389377e+01 1.977603e+01 1.432048e+01 4.286112e+01 3.827489e+01 2.072990e+01 2.352793e+01 3.262134e+01 4.101987e+01 1.791800e+01 1.843482e+01 6.803473e+00 1.241106e+00 2.317192e+00 1.705758e+00 1.800607e+00 4.259942e+00 2.884426e+00 2.068041e+00 1.618695e+00 2.852321e+00 3.564876e+00 1.675390e+00 2.798907e+00 9.080744e-01 1.929609e-01 5.394847e-01 3.051409e-01 4.233215e-01 4.671635e-01 6.123875e-01 4.089659e-01 2.616086e-01 4.645935e-01 6.317136e-01 3.777424e-01 3.592894e-01 1.350967e-01
<GCONST> 1.060046e+02
<STATE> 4
<MEAN> 39
 1.450775e+01 -1.078382e+01 3.635468e-01 1.397192e+01 -2.591779e+01 3.669150e+00 -9.144319e+00 1.246563e+00 1.677032e+01 -1.123658e+01 -8.817146e+00 -2.947697e+00 7.741106e+01 -2.348755e-01 4.018103e-01 2.570611e-01 5.417200e-01 3.727732e-01 3.950998e-01 3.039975e-01 -4.255619e-02 -2.777960e-01 4.685124e-01 1.402324e-01 2.664551e-01 -6.171787e-01 -1.005889e-01 -1.009094e-01 6.300530e-02 6.608024e-02 1.562375e-01 5.721575e-01 1.226760e-01 -2.626323e-01 -2.661759e-01 -6.908356e-02 -2.875853e-02 5.824260e-02 -1.259431e-01
<VARIANCE> 39
 2.821581e+00 1.503391e+01 1.884046e+01 2.193862e+01 4.060008e+01 5.211683e+01 2.158965e+01 1.950174e+01 2.319530e+01 3.013574e+01 2.207046e+01 2.317799e+01 1.071823e+01 2.782841e-01 1.089261e+00 1.132077e+00 1.491642e+00 2.400894e+00 4.786687e+00 2.149044e+00 1.994477e+00 2.040142e+00 2.321372e+00 1.788572e+00 1.710230e+00 7.863678e-01 5.957682e-02 2.237880e-01 2.041341e-01 2.971886e-01 3.909388e-01 5.302961e-01 3.884900e-01 3.082849e-01 4.171146e-01 4.214881e-01 2.857748e-01 2.976379e-01 1.109292e-01
<GCONST> 9.875111e+01
<TRANSP> 5
 0.000000e+00 1.000000e+00 0.000000e+00 0.000000e+00 0.000000e+00
 0.000000e+00 5.528297e-01 4.471703e-01 0.000000e+00 0.000000e+00
 0.000000e+00 0.000000e+00 5.736759e-01 4.263241e-01 0.000000e+00
 0.000000e+00 0.000000e+00 0.000000e+00 7.968967e-01 2.031032e-01
 0.000000e+00 0.000000e+00 0.000000e+00 0.000000e+00 0.000000e+00
<ENDHMM>
~h "p"
<BEGINHMM>
<NUMSTATES> 5
<STATE> 2
<MEAN> 39
 8.162596e+00 -1.139470e+01 1.043450e+00 1.795390e+01 -1.983421e+01 1.667828e+01 -5.838215e+00 -4.742067e+00 9.443153e+00 -2.860120e+00 -2.386043e+00 4.933023e+00 6.803572e+01 -9.566473e-01 -4.509357e-02 -3.371578e-02 -1.211550e-01 -2.593908e-01 -1.361930e-01 -7.539660e-02 -2.786051e-01 -6.236465e-01 5.973671e-01 -4.255646e-01 1.050412e-02 -1.133224e+00 1.554933e-01 -6.023012e-01 -6.367426e-02 -2.684978e-01 2.911375e-02 2.335521e-01 -1.057788e-01 -1.602557e-02 7.442422e-02 -7.005385e-01 -3.190055e-01 -4.583514e-01 5.908697e-01
<VARIANCE> 39
 1.077811e+01 1.859802e+01 1.108342e+01 1.210160e+01 3.005639e+01 2.176388e+01 1.392970e+01 3.135172e+01 2.793087e+01 1.369244e+01 1.957129e+01 1.206303e+01 6.580429e+00 1.161817e-01 1.107750e+00 3.308262e-01 7.316427e-01 1.050937e+00 1.359449e+00 1.086318e+00 1.317888e+00 1.591095e+00 1.833592e+00 1.689594e+00 1.579025e+00 6.491418e-01 2.111431e-02 2.165420e-01 1.163652e-01 1.014612e-01 2.043293e-01 2.547359e-01 2.004084e-01 3.096853e-01 2.730577e-01 2.587859e-01 3.259540e-01 2.523253e-01 7.687870e-02
<GCONST> 8.332526e+01
<STATE> 3
<MEAN> 39
 5.109951e+00 -1.533702e+01 -3.567659e-01 1.624346e+01 -1.949827e+01 1.729342e+01 -5.971379e+00 -5.170908e+00 5.587236e+00 -7.035042e+00 -5.508944e+00 2.789159e+00 6.690237e+01 -1.394773e-02 -2.853794e+00 -4.045427e-01 -1.215533e+00 -8.469846e-01 9.291431e-01 -3.741018e-02 5.754546e-01 1.175201e-01 -2.015520e+00 -7.508969e-01 -4.739786e-01 1.324394e+00 3.270801e-01 -1.970698e-01 3.256906e-01 -5.873773e-02 -1.593447e-01 -4.542910e-03 2.347023e-01 1.829113e-01 2.912678e-01 -7.766693e-02 -3.877668e-02 -7.936940e-03 5.768551e-01
<VARIANCE> 39
 1.613258e+01 3.930429e+01 1.033361e+01 1.824065e+01 2.591955e+01 1.784867e+01 1.093269e+01 2.644486e+01 1.790066e+01 4.525536e+01 1.174772e+01 7.005015e+00 1.901344e+01 3.221643e-01 4.246832e+00 1.374404e+00 7.182554e-01 2.348818e+00 2.107878e+00 1.342424e+00 2.048102e+00 2.355803e+00 2.699401e+00 1.318699e+00 1.190269e+00 1.591587e+00 1.510640e-01 1.054444e+00 2.724009e-01 4.658200e-01 3.140145e-01 4.299668e-01 3.063856e-01 5.608043e-01 2.062143e-01 8.878644e-01 3.588325e-01 3.857015e-01 3.911575e-01
<GCONST> 1.026227e+02
<STATE> 4
<MEAN> 39
 4.979879e+00 -2.328536e+01 1.219225e+00 1.317841e+01 -2.322755e+01 1.932386e+01 -7.654058e+00 -4.581196e+00 8.652022e+00 -9.573026e+00 -7.460292e+00 2.264356e+00 7.117999e+01 6.751292e-01 -1.154329e+00 1.219251e+00 -6.142125e-01 -7.673743e-01 1.911782e-01 7.494411e-01 8.603584e-01 6.229526e-01 -8.312212e-01 -5.328843e-01 -3.978457e-01 1.788377e+00 3.623344e-01 1.021477e+00 6.320643e-02 3.627701e-01 2.076139e-01 -7.280530e-01 3.262327e-01 1.003177e-01 -4.487817e-02 2.561691e-01 2.416912e-01 -1.480398e-01 8.230672e-02
<VARIANCE> 39
 1.203160e+01 3.837356e+01 2.803266e+01 2.313132e+01 4.606981e+01 2.420119e+01 2.568950e+01 1.928527e+01 1.923885e+01 2.691687e+01 3.057567e+01 2.924849e+01 2.581396e+01 1.571392e+00 4.853596e+00 2.452074e+00 3.600233e+00 3.181995e+00 1.852002e+00 2.921262e+00 2.735514e+00 2.518904e+00 3.506296e+00 1.974678e+00 1.761113e+00 2.258928e+00 2.526412e-01 1.847199e+00 7.397205e-01 3.397399e-01 3.869820e-01 7.029681e-01 4.181941e-01 4.114936e-01 6.287253e-01 5.524067e-01 4.767174e-01 3.748678e-01 4.605974e-01
<GCONST> 1.173471e+02
<TRANSP> 5
 0.000000e+00 1.000000e+00 0.000000e+00 0.000000e+00 0.000000e+00
 0.000000e+00 7.181286e-01 2.818713e-01 0.000000e+00 0.000000e+00
 0.000000e+00 0.000000e+00 4.807207e-01 5.192792e-01 0.000000e+00
 0.000000e+00 0.000000e+00 0.000000e+00 3.821551e-01 6.178449e-01
 0.000000e+00 0.000000e+00 0.000000e+00 0.000000e+00 0.000000e+00
<ENDHMM>
~h "r"
<BEGINHMM>
<NUMSTATES> 5
<STATE> 2
<MEAN> 39
 8.374508e+00 -2.147429e+01 4.120999e-01 1.908437e+01 -1.262365e+01 2.021148e+01 -5.277432e+00 -7.456226e+00 4.119832e+00 -1.179466e+01 -3.285295e+00 5.783706e+00 7.526406e+01 -7.897456e-01 -1.197791e+00 4.503574e-01 3.655385e-01 -2.922354e-01 3.560163e-01 5.636740e-01 -2.953395e-02 -6.100542e-01 1.213452e-01 -1.622267e-01 4.496789e-01 -3.448475e-01 1.408914e-01 1.882516e-01 -2.718276e-01 -2.142927e-01 -8.014298e-02 -1.387409e-01 -2.983267e-01 -1.677555e-01 7.687020e-02 -8.887374e-02 -5.539314e-02 -1.763484e-01 5.664026e-02
<VARIANCE> 39
 3.231210e+01 7.718620e+01 4.705001e+01 4.575418e+01 4.741120e+01 4.949271e+01 3.677394e+01 3.415081e+01 3.183893e+01 3.629848e+01 3.586156e+01 3.510933e+01 1.196784e+01 9.616072e-01 4.414408e+00 3.908674e+00 2.913669e+00 3.854725e+00 4.190589e+00 2.495568e+00 2.189521e+00 2.304234e+00 2.502217e+00 1.969404e+00 1.807569e+00 1.051604e+00 1.634072e-01 8.509151e-01 5.172008e-01 4.465490e-01 6.586090e-01 8.215857e-01 4.683007e-01 3.698131e-01 4.752881e-01 4.826192e-01 4.484463e-01 3.578170e-01 2.218719e-01
<GCONST> 1.195593e+02
<STATE> 3
<MEAN> 39
 1.094212e+01 -1.852366e+01 -9.025600e-01 1.976374e+01 -1.266771e+01 1.921928e+01 -5.420660e+00 -8.658378e+00 1.997548e+00 -1.371766e+01 -3.332160e+00 4.321590e+00 7.589497e+01 -1.010400e-01 4.325781e-01 -8.020148e-02 3.016419e-01 -9.149213e-02 1.483569e-01 -1.091342e-01 -2.645554e-01 -2.291339e-01 2.265469e-01 -2.547347e-01 -1.856954e-01 -6.341731e-01 1.436352e-01 2.468767e-01 -3.074818e-01 -2.191384e-01 1.636027e-01 -2.666476e-01 -3.226597e-01 3.302243e-02 3.489300e-01 4.484413e-02 -6.948913e-03 -1.994514e-01 1.239238e-01
<VARIANCE> 39
 2.143163e+01 5.441331e+01 4.401659e+01 4.004585e+01 4.603244e+01 4.088378e+01 2.967713e+01 3.609724e+01 2.831407e+01 3.617794e+01 3.349624e+01 2.969918e+01 8.790174e+00 4.882614e-01 1.595092e+00 2.701387e+00 1.903624e+00 3.242891e+00 2.638694e+00 1.678740e+00 1.536365e+00 1.963558e+00 1.839815e+00 1.654595e+00 1.468524e+00 7.175747e-01 1.417821e-01 4.555264e-01 5.575384e-01 3.007779e-01 6.967806e-01 5.861885e-01 4.778448e-01 4.360996e-01 3.776991e-01 4.551309e-01 3.329207e-01 3.870651e-01 2.216064e-01
<GCONST> 1.107543e+02
<STATE> 4
<MEAN> 39
 5.600327e+00 -2.170896e+01 -4.847894e+00 1.582045e+01 -1.553262e+01 2.019157e+01 -5.080075e+00 -8.339632e+00 2.315376e+00 -1.040612e+01 -4.500073e+00 6.049382e+00 7.055585e+01 -6.963652e-02 9.082350e-01 -4.016230e-01 -2.274242e-01 -1.801080e-01 -5.095340e-01 -2.079686e-01 1.813160e-01 3.068005e-01 4.424869e-01 -1.763090e-01 -4.096721e-01 -6.032876e-01 1.490310e-02 -5.020749e-03 7.374732e-02 -1.917696e-02 2.274653e-02 -1.026851e-01 -1.064111e-01 7.928553e-02 2.123480e-01 7.661002e-03 4.377861e-02 -5.788112e-02 1.190461e-01
<VARIANCE> 39
 3.888943e+01 6.946672e+01 3.850305e+01 3.358735e+01 3.636793e+01 2.786020e+01 2.748050e+01 2.495937e+01 2.501804e+01 3.471107e+01 2.830393e+01 3.646786e+01 2.946827e+01 5.465061e-01 1.908964e+00 2.122236e+00 1.324437e+00 2.245990e+00 1.927071e+00 1.641343e+00 1.495956e+00 1.820928e+00 2.010160e+00 1.453213e+00 1.584638e+00 8.730131e-01 8.993329e-02 2.572936e-01 3.424681e-01 2.280676e-01 4.012842e-01 3.400103e-01 3.391147e-01 2.756477e-01 3.527147e-01 3.253313e-01 2.577532e-01 2.829210e-01 9.083907e-02
<GCONST> 1.048600e+02
<TRANSP> 5
 0.000000e+00 1.000000e+00 0.000000e+00 0.000000e+00 0.000000e+00
 0.000000e+00 4.448734e-01 5.551267e-01 0.000000e+00 0.000000e+00
 0.000000e+00 0.000000e+00 2.289685e-01 7.710314e-01 0.000000e+00
 0.000000e+00 0.000000e+00 0.000000e+00 5.686580e-01 4.313420e-01
 0.000000e+00 0.000000e+00 0.000000e+00 0.000000e+00 0.000000e+00
<ENDHMM>
~h "s"
<BEGINHMM>
<NUMSTATES> 5
<STATE> 2
<MEAN> 39
 3.877497e+00 -2.274017e+01 1.261623e+01 1.204114e+01 -1.752592e+01 2.405743e+01 -2.159950e+00 -5.095345e+00 6.927425e+00 -9.627018e+00 -1.567400e+00 5.115079e+00 7.765088e+01 -3.526172e+00 -2.930017e+00 5.225968e+00 -1.860431e+00 -8.039396e-01 8.851694e-01 5.414172e-01 4.470834e-01 -3.532646e-01 2.732225e-01 6.751212e-01 1.254838e+00 7.441114e-01 -2.282058e-01 -1.725036e-01 -6.222895e-02 -3.357913e-01 -1.890460e-01 -4.101672e-01 -4.365089e-01 -1.102890e-01 1.233729e-01 -4.761799e-01 -2.084840e-01 -1.112327e-01 1.679430e-01
<VARIANCE> 39
 4.290285e+01 5.328638e+01 7.640400e+01 3.696959e+01 4.699748e+01 4.167379e+01 3.804245e+01 6.104804e+01 3.252537e+01 3.872493e+01 2.273621e+01 2.320775e+01 1.507994e+01 1.250392e+00 2.036655e+00 3.179288e+00 2.228082e+00 2.834386e+00 3.406400e+00 3.472513e+00 2.815360e+00 2.362054e+00 4.132798e+00 2.156446e+00 2.255198e+00 6.406498e-01 4.478293e-01 7.320466e-01 1.350561e+00 3.861049e-01 4.388032e-01 4.952087e-01 5.298741e-01 3.866124e-01 4.160244e-01 5.924199e-01 3.362041e-01 3.910793e-01 1.715601e-01
<GCONST> 1.195930e+02
<STATE> 3
<MEAN> 39
 -8.097102e+00 -3.250602e+01 2.421217e+01 3.538705e+00 -2.100509e+01 2.406907e+01 -4.644862e+00 -5.602266e+00 7.579027e+00 -1.185554e+01 -1.707976e+00 6.926472e+00 8.017680e+01 -7.311873e-01 -9.708353e-01 -3.440600e-01 -7.349141e-01 -2.863895e-01 -3.096164e-01 -4.953502e-01 -1.711621e-01 1.440214e-01 -3.931742e-03 -1.447513e-01 1.450811e-01 -1.988929e-03 7.129126e-01 3.758887e-01 -1.017848e+00 4.413165e-01 2.116815e-01 -8.480989e-02 3.988778e-02 -7.102333e-02 -6.492461e-02 2.040610e-01 -8.768351e-02 -1.151777e-01 -1.936989e-01
<VARIANCE> 39
 1.322016e+01 2.056964e+01 1.909979e+01 3.093406e+01 2.777934e+01 3.700330e+01 2.968947e+01 4.939603e+01 2.717215e+01 3.106468e+01 1.785162e+01 1.669818e+01 4.864208e+00 2.168774e+00 9.017809e-01 4.972597e+00 1.846401e+00 1.505660e+00 1.529811e+00 2.218304e+00 1.612946e+00 1.707400e+00 1.900621e+00 1.469240e+00 1.101840e+00 3.398724e-01 1.841904e-01 2.830817e-01 5.013977e-01 2.498534e-01 2.659076e-01 3.302515e-01 4.000006e-01 3.329756e-01 3.020286e-01 3.041635e-01 3.004129e-01 2.705612e-01 4.639504e-02
<GCONST> 1.000373e+02
<STATE> 4
<MEAN> 39
 -3.629409e+00 -3.262848e+01 1.296794e+01 5.211653e+00 -2.005935e+01 2.310219e+01 -5.283627e+00 -6.693766e+00 7.077118e+00 -9.113377e+00 -3.107953e+00 7.102880e+00 7.757849e+01 2.959914e+00 2.640142e+00 -2.646384e+00 1.557246e+00 4.367650e-01 1.305006e-01 -1.771675e-01 -1.219989e-01 7.031927e-02 -3.300448e-01 -6.549290e-01 -9.505355e-01 -6.648604e-01 5.633177e-01 8.791118e-01 2.319572e-01 2.956596e-01 -6.833234e-02 3.295413e-02 -1.749586e-01 2.981856e-02 2.516607e-01 -5.478289e-01 -2.696079e-02 -4.468974e-01 2.400346e-01
<VARIANCE> 39
 2.408402e+01 3.655981e+01 3.633108e+01 2.502259e+01 3.375688e+01 3.459706e+01 4.458267e+01 4.143220e+01 2.373887e+01 3.475186e+01 1.893846e+01 1.824992e+01 1.232684e+01 2.726254e+00 4.334270e+00 3.429818e+00 1.945863e+00 2.509570e+00 3.072467e+00 2.561531e+00 2.861810e+00 2.435312e+00 2.778683e+00 1.579542e+00 2.211600e+00 1.275957e+00 3.938176e-01 7.696297e-01 4.768159e-01 3.371306e-01 4.357949e-01 5.396552e-01 6.030288e-01 4.629109e-01 4.789807e-01 4.139808e-01 3.346483e-01 3.859906e-01 2.438819e-01
<GCONST> 1.159152e+02
<TRANSP> 5
 0.000000e+00 1.000000e+00 0.000000e+00 0.000000e+00 0.000000e+00
 0.000000e+00 6.674109e-01 3.325892e-01 0.000000e+00 0.000000e+00
 0.000000e+00 0.000000e+00 8.410112e-01 1.589888e-01 0.000000e+00
 0.000000e+00 0.000000e+00 0.000000e+00 6.993700e-01 3.006300e-01
 0.000000e+00 0.000000e+00 0.000000e+00 0.000000e+00 0.000000e+00
<ENDHMM>
~h "t"
<BEGINHMM>
<NUMSTATES> 5
<STATE> 2
<MEAN> 39
 3.425221e+00 -1.642035e+01 2.968510e+00 1.838340e+01 -1.733495e+01 1.911359e+01 -7.005490e+00 -7.161440e+00 5.988583e+00 -5.085343e+00 -4.788596e+00 2.818470e+00 6.702396e+01 -4.758920e-01 -1.639170e+00 2.639057e-03 -1.575425e+00 -7.214583e-01 -1.496592e-01 -4.490661e-01 1.934872e-01 -3.105524e-01 -5.794221e-01 -1.764684e-01 1.521078e-01 5.850533e-01 1.352677e-01 -1.127954e+00 3.535782e-01 -6.446092e-01 -2.073067e-01 2.047556e-01 -2.383990e-01 -1.566597e-01 6.433053e-02 -5.325109e-01 7.073263e-02 3.554453e-02 1.063952e+00
<VARIANCE> 39
 2.379447e+01 4.513937e+01 2.565686e+01 2.805099e+01 4.350348e+01 2.958483e+01 2.882530e+01 3.657032e+01 2.566928e+01 1.747441e+01 1.931265e+01 1.693763e+01 9.210249e+00 1.235850e+00 6.762464e+00 3.003825e+00 3.984237e+00 3.228455e+00 2.691824e+00 2.910666e+00 2.323794e+00 2.290547e+00 2.639913e+00 1.841234e+00 1.732482e+00 3.932514e+00 1.562073e-01 5.105686e-01 4.650095e-01 4.917139e-01 4.166147e-01 4.136470e-01 4.472615e-01 4.143725e-01 4.326339e-01 4.362651e-01 3.806255e-01 3.287751e-01 2.296837e-01
<GCONST> 1.138154e+02
<STATE> 3
<MEAN> 39
 1.437466e+00 -3.123214e+01 7.843253e+00 8.389898e+00 -2.225823e+01 2.054972e+01 -1.012024e+01 -6.467012e+00 6.705581e+00 -9.801969e+00 -4.204951e+00 3.718329e+00 7.635887e+01 2.106137e-01 -2.907350e+00 7.975485e-01 -1.401592e+00 -8.623394e-01 4.479160e-01 -5.351020e-01 -4.293829e-01 4.114176e-02 -8.310716e-01 3.554542e-01 5.255702e-01 2.240175e+00 5.415645e-01 1.460373e+00 -5.610838e-01 1.139839e+00 7.098682e-01 -1.360599e-01 5.427266e-01 -5.945200e-02 2.590491e-02 2.801194e-01 2.163761e-02 -9.325714e-02 -4.834413e-01
<VARIANCE> 39
 2.678430e+01 3.278565e+01 6.280832e+01 3.724772e+01 5.020364e+01 3.525449e+01 4.366955e+01 3.174035e+01 2.883064e+01 2.710540e+01 1.814035e+01 1.585098e+01 1.783565e+01 2.581992e+00 5.550773e+00 3.880971e+00 4.866262e+00 3.444292e+00 2.760480e+00 3.850868e+00 2.986631e+00 3.903254e+00 3.457303e+00 1.921940e+00 1.860764e+00 2.600355e+00 2.786357e-01 1.041646e+00 8.148665e-01 8.273293e-01 1.048493e+00 6.799795e-01 8.125753e-01 6.451063e-01 6.780180e-01 5.583559e-01 4.026144e-01 4.633995e-01 4.436782e-01
<GCONST> 1.251786e+02
<STATE> 4
<MEAN> 39
 2.517543e+00 -2.965594e+01 6.075318e+00 1.125168e+01 -2.010704e+01 1.978330e+01 -7.079180e+00 -7.977736e+00 5.304493e+00 -7.296407e+00 -3.041064e+00 4.964149e+00 7.599754e+01 2.113310e+00 2.768927e+00 -1.630288e+00 1.628478e+00 1.717177e+00 1.133527e-01 9.490511e-01 -3.104916e-02 1.561581e-01 -5.899200e-01 5.063147e-02 -4.092695e-01 2.176704e-01 4.700459e-01 1.162355e+00 -3.133246e-01 5.571691e-01 4.518565e-01 -5.360620e-02 -8.073338e-02 1.149937e-01 2.563336e-01 -3.171566e-01 -8.568163e-02 -3.671674e-01 -1.902427e-01
<VARIANCE> 39
 1.769929e+01 4.119684e+01 3.432537e+01 3.440765e+01 3.699879e+01 2.568357e+01 4.140785e+01 3.928499e+01 3.132137e+01 2.638782e+01 2.143517e+01 1.782639e+01 1.463354e+01 2.549363e+00 3.421939e+00 3.288518e+00 3.663124e+00 4.322652e+00 3.583634e+00 3.685309e+00 3.661287e+00 2.228928e+00 3.109835e+00 2.174508e+00 2.407763e+00 2.494442e+00 3.519280e-01 1.032796e+00 6.406568e-01 7.260889e-01 5.616561e-01 5.615463e-01 6.788434e-01 5.048193e-01 5.092533e-01 6.459308e-01 4.305772e-01 5.069899e-01 3.724135e-01
<GCONST> 1.218196e+02
<TRANSP> 5
 0.000000e+00 1.000000e+00 0.000000e+00 0.000000e+00 0.000000e+00
 0.000000e+00 6.766810e-01 3.233191e-01 0.000000e+00 0.000000e+00
 0.000000e+00 0.000000e+00 5.383154e-01 4.616846e-01 0.000000e+00
 0.000000e+00 0.000000e+00 0.000000e+00 5.052106e-01 4.947894e-01
 0.000000e+00 0.000000e+00 0.000000e+00 0.000000e+00 0.000000e+00
<ENDHMM>
~h "u"
<BEGINHMM>
<NUMSTATES> 5
<STATE> 2
<MEAN> 39
 1.289861e+01 -1.275440e+01 1.703039e+00 1.729263e+01 -2.047615e+01 1.349492e+01 -6.027550e+00 -2.288120e+00 1.346406e+01 -1.142562e+01 -1.151576e+01 -5.291097e+00 7.584327e+01 7.381070e-01 8.556448e-01 -2.622665e-01 6.801085e-01 6.038684e-02 -1.867235e+00 -3.539089e-01 9.151773e-01 8.583701e-01 -7.845413e-01 -1.192009e+00 -1.013776e+00 4.781356e-01 -2.410787e-01 -2.710357e-03 8.158194e-02 2.311176e-02 1.634666e-01 1.640201e-01 4.255451e-02 -2.161052e-02 -4.676714e-02 3.496840e-01 1.805826e-01 1.553462e-01 -2.189525e-01
<VARIANCE> 39
 6.280122e+00 2.842099e+01 1.964491e+01 2.367114e+01 5.127404e+01 5.051408e+01 2.460840e+01 2.366595e+01 2.623378e+01 4.264909e+01 2.617953e+01 3.000757e+01 8.122058e+00 8.166850e-01 3.684109e+00 1.844643e+00 2.901884e+00 4.067656e+00 5.177145e+00 2.875539e+00 2.073775e+00 1.921055e+00 3.014271e+00 2.954182e+00 2.785822e+00 8.100994e-01 1.815838e-01 7.940744e-01 4.087770e-01 4.441853e-01 5.821885e-01 6.811811e-01 3.990168e-01 2.631216e-01 3.700018e-01 5.516381e-01 4.552410e-01 3.793892e-01 1.346231e-01
<GCONST> 1.121049e+02
<STATE> 3
<MEAN> 39
 1.363975e+01 -9.892617e+00 1.102184e+00 2.006449e+01 -1.972108e+01 7.911509e+00 -7.487388e+00 1.336835e+00 1.682794e+01 -1.078436e+01 -1.307206e+01 -6.207552e+00 7.514382e+01 -1.810790e-01 9.306887e-02 -1.655070e-02 1.730542e-01 5.718555e-01 5.796230e-01 3.490762e-01 9.436089e-02 3.341234e-02 4.387518e-01 -1.049511e-01 5.054083e-02 -2.777834e-01 -3.022482e-01 -2.162913e-01 2.858385e-01 -2.024427e-01 4.037957e-02 8.197184e-01 2.299460e-01 -4.504390e-01 -4.104001e-01 3.368460e-01 4.585311e-01 3.148707e-01 -1.715118e-01
<VARIANCE> 39
 5.424641e+00 2.361032e+01 1.356888e+01 1.904414e+01 3.438091e+01 6.209473e+01 2.906842e+01 2.492324e+01 2.955038e+01 3.485069e+01 2.384335e+01 2.081796e+01 1.172727e+01 2.989240e-01 1.466491e+00 1.235173e+00 1.000142e+00 1.891617e+00 4.086743e+00 1.840591e+00 2.168993e+00 1.647556e+00 2.372247e+00 1.747564e+00 1.767573e+00 5.964830e-01 1.291051e-01 4.498443e-01 3.384703e-01 2.454625e-01 4.072977e-01 6.376379e-01 3.690956e-01 3.990934e-01 3.603632e-01 4.753163e-01 4.381122e-01 4.088676e-01 1.228761e-01
<GCONST> 1.025548e+02
<STATE> 4
<MEAN> 39
 1.179313e+01 -1.235532e+01 1.129131e+00 1.942471e+01 -1.668978e+01 1.598133e+01 -4.578148e+00 -1.098575e+00 1.368490e+01 -1.013631e+01 -1.165808e+01 -3.626810e+00 7.398611e+01 -1.003528e+00 -1.048979e+00 8.419678e-01 -2.248957e-01 3.996890e-01 2.116410e+00 1.094235e+00 -1.014654e+00 -1.222307e+00 1.153556e+00 1.224550e+00 7.824427e-01 -3.054690e-01 -2.824350e-01 -4.646926e-01 2.940209e-01 -1.918498e-01 -1.938910e-01 8.905578e-02 2.934449e-02 -2.851394e-01 -3.232552e-01 1.859657e-02 1.901214e-01 1.020800e-01 1.057001e-01
<VARIANCE> 39
 1.144614e+01 2.884967e+01 1.435265e+01 2.312026e+01 3.937255e+01 5.159288e+01 3.873058e+01 3.232718e+01 4.182694e+01 3.718364e+01 2.941483e+01 2.027512e+01 1.665113e+01 9.285299e-01 5.328446e+00 2.462557e+00 1.485843e+00 2.794800e+00 4.058904e+00 3.637135e+00 3.116596e+00 3.052778e+00 2.917502e+00 2.102590e+00 2.648775e+00 1.285509e+00 1.699946e-01 4.739083e-01 4.667261e-01 2.860540e-01 4.687116e-01 6.355643e-01 4.960899e-01 5.431141e-01 5.411476e-01 4.176996e-01 5.377681e-01 3.401120e-01 1.412316e-01
<GCONST> 1.142933e+02
<TRANSP> 5
 0.000000e+00 1.000000e+00 0.000000e+00 0.000000e+00 0.000000e+00
 0.000000e+00 5.395650e-01 4.604350e-01 0.000000e+00 0.000000e+00
 0.000000e+00 0.000000e+00 5.690321e-01 4.309679e-01 0.000000e+00
 0.000000e+00 0.000000e+00 0.000000e+00 2.965556e-01 7.034444e-01
 0.000000e+00 0.000000e+00 0.000000e+00 0.000000e+00 0.000000e+00
<ENDHMM>
~h "v"
<BEGINHMM>
<NUMSTATES> 5
<STATE> 2
<MEAN> 39
 1.224916e+01 -1.569197e+01 6.584496e-01 1.709936e+01 -1.464201e+01 2.069501e+01 -8.667829e+00 -1.123295e+01 6.417490e+00 -1.116277e+01 -4.162161e+00 -4.630080e-01 7.674294e+01 -2.075346e-01 8.212592e-01 -2.072240e-01 -1.085432e-01 6.844907e-02 1.842397e-01 8.635088e-01 4.886349e-01 -1.716334e-01 7.101891e-01 -2.679170e-01 1.982631e-02 -7.944260e-01 -1.147140e-01 4.079412e-02 6.095610e-02 -5.221124e-02 -5.721518e-02 9.260961e-03 -3.309113e-02 8.733778e-02 2.091642e-02 3.581361e-03 3.126263e-02 2.289482e-01 -1.433917e-01
<VARIANCE> 39
 1.275655e+01 2.709576e+01 2.105762e+01 1.664364e+01 4.556049e+01 3.195661e+01 2.666669e+01 3.578436e+01 2.922270e+01 2.619161e+01 1.836455e+01 4.067707e+01 1.705891e+01 3.358307e-01 1.619662e+00 1.064485e+00 7.952593e-01 1.345607e+00 1.821391e+00 1.526733e+00 1.840311e+00 1.807730e+00 1.512226e+00 8.714770e-01 1.064453e+00 9.161840e-01 6.146361e-02 2.283952e-01 1.860721e-01 1.381457e-01 2.742393e-01 3.841577e-01 2.202924e-01 2.758021e-01 2.873022e-01 2.556762e-01 1.958106e-01 2.112482e-01 1.349080e-01
<GCONST> 9.483848e+01
<STATE> 3
<MEAN> 39
 1.021801e+01 -1.027582e+01 6.914473e-01 1.761636e+01 -1.607466e+01 2.102872e+01 -4.538930e+00 -6.540157e+00 7.031384e+00 -8.209482e+00 -5.831887e+00 9.603016e-01 7.053363e+01 -7.489027e-01 3.294353e-01 5.667174e-01 3.111474e-01 -2.561631e-01 2.455395e-01 4.017726e-01 7.498851e-01 4.583282e-01 5.538468e-01 -3.026865e-02 7.400063e-01 -1.028481e+00 6.115428e-02 -4.391130e-01 -4.133957e-03 -8.995876e-03 3.368965e-02 5.959749e-02 -1.039347e-01 -1.653769e-01 -8.363973e-02 -3.378992e-01 1.066718e-01 -5.227323e-04 3.571959e-01
<VARIANCE> 39
 1.449825e+01 2.800322e+01 1.843743e+01 1.983795e+01 2.480564e+01 2.827826e+01 1.668363e+01 2.782810e+01 2.742500e+01 1.635663e+01 1.822414e+01 2.470116e+01 1.234460e+01 2.701032e-01 1.287533e+00 7.888011e-01 1.000755e+00 1.825841e+00 1.572609e+00 1.214203e+00 1.177399e+00 1.524816e+00 1.105868e+00 8.790556e-01 1.083147e+00 4.982541e-01 7.862414e-02 2.778790e-01 2.026051e-01 2.035637e-01 2.684900e-01 3.071367e-01 2.778405e-01 2.964807e-01 3.237355e-01 3.832606e-01 1.962730e-01 2.650391e-01 1.179259e-01
<GCONST> 9.171986e+01
<STATE> 4
<MEAN> 39
 4.939056e+00 -1.289318e+01 1.577138e+00 1.772033e+01 -1.701601e+01 2.154292e+01 -2.282426e+00 -3.958448e+00 7.863649e+00 -5.608689e+00 -4.542741e+00 3.360055e+00 6.674652e+01 3.468029e-01 -6.783319e-01 -3.162478e-01 -2.560385e-01 1.981642e-01 1.666547e-01 -3.787494e-01 -2.896394e-01 -4.074330e-01 -1.096759e+00 -5.586644e-02 9.436853e-02 6.711745e-01 4.156405e-01 -1.728688e-01 -2.648686e-01 -9.372059e-02 1.820836e-01 -1.010421e-01 -3.430166e-01 -3.184801e-01 -1.685857e-01 -5.230546e-01 4.443548e-02 -1.397626e-01 5.621012e-01
<VARIANCE> 39
 2.948093e+01 3.741689e+01 1.720635e+01 1.753170e+01 2.574662e+01 2.227682e+01 2.461190e+01 2.254483e+01 2.293634e+01 2.378369e+01 1.319579e+01 2.004091e+01 2.194895e+01 1.940388e+00 1.898129e+00 1.385969e+00 1.308113e+00 1.603376e+00 2.017623e+00 1.535674e+00 1.503627e+00 1.717178e+00 3.372743e+00 1.531721e+00 1.077740e+00 1.623533e+00 2.165722e-01 3.287154e-01 2.066477e-01 2.405647e-01 2.712731e-01 3.837323e-01 2.581229e-01 3.096091e-01 3.614722e-01 4.514596e-01 3.129136e-01 2.088380e-01 2.503314e-01
<GCONST> 1.023240e+02
<TRANSP> 5
 0.000000e+00 1.000000e+00 0.000000e+00 0.000000e+00 0.000000e+00
 0.000000e+00 6.091976e-01 3.908024e-01 0.000000e+00 0.000000e+00
 0.000000e+00 0.000000e+00 5.656736e-01 4.343264e-01 0.000000e+00
 0.000000e+00 0.000000e+00 0.000000e+00 7.204950e-01 2.795050e-01
 0.000000e+00 0.000000e+00 0.000000e+00 0.000000e+00 0.000000e+00
<ENDHMM>
~h "y"
<BEGINHMM>
<NUMSTATES> 5
<STATE> 2
<MEAN> 39
 4.553087e+00 -1.720266e+01 -5.543367e-01 1.812399e+01 -1.545870e+01 1.817863e+01 -8.491492e+00 -8.511142e+00 6.536112e+00 -5.883321e+00 -4.013933e+00 2.282371e+00 6.864504e+01 -3.240997e-01 -2.004931e-01 1.949037e-01 2.206120e-01 7.140826e-02 -1.640497e-01 -2.662069e-01 2.004957e-01 2.789824e-01 -2.141627e-02 -1.889512e-01 -8.138277e-02 -2.028945e-01 7.835226e-02 3.836734e-02 -3.434854e-02 -3.637065e-02 1.220036e-02 6.879725e-02 1.740942e-02 -3.608857e-02 -2.490166e-02 -8.082623e-02 7.409259e-03 -2.406064e-02 6.529897e-02
<VARIANCE> 39
 3.364038e+01 3.137658e+01 6.593930e+01 4.093499e+01 3.470095e+01 2.376406e+01 2.878791e+01 2.727635e+01 2.415185e+01 3.049788e+01 2.101119e+01 2.658545e+01 5.749844e+01 4.091583e-01 1.282093e+00 1.862083e+00 1.302261e+00 1.456774e+00 1.439703e+00 1.497186e+00 1.453368e+00 1.580866e+00 1.533608e+00 1.317168e+00 1.405540e+00 3.895845e-01 6.162872e-02 1.539789e-01 2.233977e-01 2.231937e-01 3.294192e-01 2.942998e-01 2.499093e-01 3.285576e-01 2.588610e-01 2.847661e-01 2.267583e-01 2.631488e-01 5.023561e-02
<GCONST> 9.831055e+01
<STATE> 3
<MEAN> 39
 9.771851e+00 -1.859180e+01 5.808305e+00 2.442592e+01 -9.493044e+00 1.810542e+01 -1.488886e+01 -1.101156e+01 1.098035e+01 -1.000413e+01 -3.920357e+00 -2.390818e+00 7.716055e+01 2.646353e-01 -1.023566e-01 -3.560690e-01 -1.713646e-01 5.082536e-01 4.794069e-01 -3.925834e-01 -6.790206e-01 -2.596521e-01 -1.954844e-01 6.386544e-02 -2.648518e-01 3.112033e-01 2.000740e-01 1.505354e-01 -3.548766e-01 -4.101368e-01 -1.148237e-01 2.548774e-01 3.463016e-01 -1.484372e-01 -3.972469e-01 -1.290033e-01 1.539206e-01 1.588457e-01 9.788167e-02
<VARIANCE> 39
 1.535677e+01 1.336542e+01 3.340525e+01 2.468935e+01 3.064103e+01 3.185447e+01 1.999594e+01 2.574966e+01 2.300175e+01 2.400119e+01 1.611255e+01 3.357199e+01 2.181316e+01 5.277634e-01 1.289840e+00 2.739367e+00 2.289181e+00 2.514813e+00 2.446575e+00 1.680055e+00 2.144313e+00 2.153602e+00 1.925438e+00 1.385991e+00 1.752234e+00 7.413617e-01 9.873868e-02 1.775569e-01 3.131547e-01 3.316803e-01 5.047163e-01 4.072946e-01 3.279656e-01 3.891390e-01 3.249454e-01 3.590785e-01 2.660876e-01 3.375617e-01 1.064068e-01
<GCONST> 1.023459e+02
<STATE> 4
<MEAN> 39
 9.484337e+00 -1.731472e+01 4.503729e+00 2.245550e+01 -8.980670e+00 2.098962e+01 -1.289718e+01 -1.104912e+01 8.582545e+00 -1.115084e+01 -2.266758e+00 -5.503091e-01 7.617670e+01 1.276468e+00 2.692097e-01 -7.668502e-01 -5.981709e-01 6.117604e-01 7.228843e-01 4.594114e-02 -7.485041e-01 -7.305495e-01 -1.166998e+00 3.733466e-01 -4.709939e-02 1.271210e+00 -4.123136e-02 9.982875e-02 -2.222563e-01 -4.008678e-01 -5.145804e-01 -1.839425e-01 4.462938e-01 3.110956e-01 -1.012063e-01 -6.376041e-02 -1.648662e-01 7.087795e-02 -1.250180e-01
<VARIANCE> 39
 2.464206e+01 2.471205e+01 3.548318e+01 2.877907e+01 4.202717e+01 3.040137e+01 3.120092e+01 3.936133e+01 2.251595e+01 3.469584e+01 1.578059e+01 3.316978e+01 3.818238e+01 1.537800e+00 2.226957e+00 5.430674e+00 5.997018e+00 5.227389e+00 3.224612e+00 4.316091e+00 2.531353e+00 3.051450e+00 2.919419e+00 1.712535e+00 2.820096e+00 2.260237e+00 2.393731e-01 4.498700e-01 7.066960e-01 6.048922e-01 8.064535e-01 5.804926e-01 7.378647e-01 6.586310e-01 4.835162e-01 6.367860e-01 3.373749e-01 4.204078e-01 2.588756e-01
<GCONST> 1.213133e+02
<TRANSP> 5
 0.000000e+00 1.000000e+00 0.000000e+00 0.000000e+00 0.000000e+00
 0.000000e+00 7.334861e-01 2.665139e-01 0.000000e+00 0.000000e+00
 0.000000e+00 0.000000e+00 6.520602e-01 3.479397e-01 0.000000e+00
 0.000000e+00 0.000000e+00 0.000000e+00 5.413191e-01 4.586809e-01
 0.000000e+00 0.000000e+00 0.000000e+00 0.000000e+00 0.000000e+00
<ENDHMM>
~h "z"
<BEGINHMM>
<NUMSTATES> 5
<STATE> 2
<MEAN> 39
 1.227214e+01 -1.614917e+01 6.259652e+00 1.477547e+01 -1.852517e+01 2.356602e+01 -2.062085e+00 -6.822552e+00 7.724546e+00 -1.762497e+01 -1.075350e+01 -4.864538e+00 7.996274e+01 -1.287231e+00 -6.764910e-01 3.076214e+00 -7.622861e-01 -1.127396e+00 1.009028e+00 6.225771e-01 2.806610e-01 1.890768e-01 5.904909e-01 4.699633e-01 5.911530e-01 4.253882e-02 -7.563776e-01 -5.619205e-01 1.223516e+00 -4.821676e-01 -2.639118e-01 3.736850e-01 1.604064e-02 1.060349e-01 -7.536090e-02 3.487944e-01 5.799598e-01 5.921541e-01 -3.526233e-03
<VARIANCE> 39
 4.726317e+00 1.202799e+01 2.357561e+01 2.710138e+01 4.901432e+01 3.776090e+01 3.172839e+01 3.319701e+01 2.270982e+01 1.787424e+01 4.539026e+01 3.039610e+01 3.577060e+00 1.290430e+00 1.356363e+00 4.529081e+00 1.610059e+00 2.392942e+00 3.049201e+00 2.313612e+00 1.762444e+00 1.878955e+00 2.486491e+00 2.372455e+00 1.892779e+00 3.241187e-01 9.731614e-02 1.830966e-01 3.233352e-01 2.754361e-01 4.119419e-01 5.735800e-01 2.624623e-01 2.798494e-01 2.830092e-01 3.446862e-01 3.236225e-01 3.648470e-01 5.943394e-02
<GCONST> 1.012405e+02
<STATE> 3
<MEAN> 39
 5.241830e+00 -2.113582e+01 2.025070e+01 1.208773e+01 -2.083284e+01 2.690323e+01 -2.159558e+00 -5.306403e+00 7.210387e+00 -1.485606e+01 -4.399442e+00 6.766429e-01 8.028459e+01 -2.594189e+00 -1.397668e+00 4.460090e+00 -1.359147e+00 -8.984070e-01 8.044188e-01 7.777774e-01 2.975810e-01 -4.136768e-01 9.988949e-01 1.251407e+00 1.299179e+00 1.479785e-01 9.568286e-02 3.463208e-02 -7.267616e-01 1.935578e-01 4.543312e-01 -2.812791e-01 -2.390671e-01 -1.235939e-01 5.453556e-02 4.098890e-02 -2.129758e-01 -1.157514e-01 -4.959449e-02
<VARIANCE> 39
 1.037485e+01 1.077802e+01 2.802316e+01 4.664028e+01 4.867931e+01 3.381850e+01 3.515142e+01 4.106306e+01 2.960827e+01 2.702711e+01 5.250998e+01 2.620074e+01 2.984584e+00 9.059301e-01 9.510086e-01 2.928469e+00 1.432296e+00 3.275325e+00 3.063654e+00 2.766915e+00 2.059509e+00 1.433973e+00 2.312150e+00 2.026373e+00 1.886066e+00 2.097019e-01 2.013871e-01 1.870383e-01 6.413231e-01 2.490128e-01 3.616229e-01 4.949953e-01 5.969013e-01 4.172326e-01 2.698101e-01 5.161892e-01 5.207662e-01 2.815479e-01 4.592218e-02
<GCONST> 1.043681e+02
<STATE> 4
<MEAN> 39
 -3.900484e-01 -2.511255e+01 2.393665e+01 9.956260e+00 -2.007436e+01 2.716357e+01 -2.314522e+00 -5.640194e+00 6.412195e+00 -1.223327e+01 -3.850804e+00 2.794377e+00 7.944891e+01 4.912756e-01 4.823375e-02 -1.503278e+00 4.712820e-01 3.593241e-01 -3.045571e-01 -4.241126e-01 -1.206947e-01 3.739455e-02 3.223903e-04 -3.592024e-01 -1.632799e-01 -3.181052e-01 6.886515e-01 4.458481e-01 -1.022181e+00 2.831289e-01 5.946968e-02 -2.348611e-01 -1.481176e-01 -5.500366e-02 1.233591e-01 -2.743668e-01 -2.162879e-01 -2.178714e-01 -2.704215e-02
<VARIANCE> 39
 2.070016e+01 2.627589e+01 4.164171e+01 4.777119e+01 3.170982e+01 3.226395e+01 4.214476e+01 4.070207e+01 3.087763e+01 2.581299e+01 2.790931e+01 2.096052e+01 8.390551e+00 3.385406e+00 2.794412e+00 6.065148e+00 2.007554e+00 2.687956e+00 2.746085e+00 3.267219e+00 2.863818e+00 1.668412e+00 2.364290e+00 2.331996e+00 1.549332e+00 6.082196e-01 3.256508e-01 3.693359e-01 8.381349e-01 3.146366e-01 5.375617e-01 5.407555e-01 6.376544e-01 4.736598e-01 3.467588e-01 4.605443e-01 4.184795e-01 3.561080e-01 9.615996e-02
<GCONST> 1.143069e+02
<TRANSP> 5
 0.000000e+00 1.000000e+00 0.000000e+00 0.000000e+00 0.000000e+00
 0.000000e+00 5.512051e-01 4.487949e-01 0.000000e+00 0.000000e+00
 0.000000e+00 0.000000e+00 6.362975e-01 3.637025e-01 0.000000e+00
 0.000000e+00 0.000000e+00 0.000000e+00 8.314256e-01 1.685744e-01
 0.000000e+00 0.000000e+00 0.000000e+00 0.000000e+00 0.000000e+00
<ENDHMM>
~h "ch"
<BEGINHMM>
<NUMSTATES> 5
<STATE> 2
<MEAN> 39
 5.161155e+00 -1.998667e+01 6.221074e+00 1.882627e+01 -1.584351e+01 1.923949e+01 -5.312998e+00 -5.847127e+00 5.670456e+00 -7.654272e+00 -3.246230e+00 4.049336e+00 7.245708e+01 -2.275401e+00 -3.074717e+00 2.328020e+00 -6.090224e-01 -5.561082e-01 -1.596008e+00 6.423777e-01 9.261361e-01 -1.604680e-01 3.323504e-01 -7.204484e-01 6.201721e-01 8.883239e-01 -2.885993e-01 -1.169795e+00 3.120088e-01 -2.910157e-01 -3.793070e-02 -7.918017e-02 -4.006488e-01 -3.850160e-01 2.143189e-01 -2.471526e-01 -7.070132e-02 6.625637e-02 8.940204e-01
<VARIANCE> 39
 2.014513e+01 3.424935e+01 4.528643e+01 3.613515e+01 3.510695e+01 2.979048e+01 3.895364e+01 3.024760e+01 2.810744e+01 2.777571e+01 2.839686e+01 2.000411e+01 1.940051e+01 1.175988e+00 6.730234e+00 5.130978e+00 2.787503e+00 1.989295e+00 2.072106e+00 3.476310e+00 2.645232e+00 2.455488e+00 3.060271e+00 2.175941e+00 1.913951e+00 4.219812e+00 1.850264e-01 6.226355e-01 8.129816e-01 5.020793e-01 4.078478e-01 5.417757e-01 6.532331e-01 5.158201e-01 4.978297e-01 4.677718e-01 4.879948e-01 3.224946e-01 2.807277e-01
<GCONST> 1.186223e+02
<STATE> 3
<MEAN> 39
 -4.334661e+00 -3.801796e+01 1.622535e+01 1.725949e+01 -1.737811e+01 1.574676e+01 -7.364259e+00 -6.363682e+00 7.753756e+00 -8.278495e+00 -4.844481e+00 7.157943e+00 8.105787e+01 -1.096455e+00 -3.298890e+00 5.678874e-03 -5.757651e-01 -5.979658e-02 2.015921e-01 -7.168705e-01 -1.143382e+00 3.071405e-01 6.183739e-01 1.682574e-01 4.791447e-01 1.544607e+00 8.599584e-01 1.245611e+00 -1.171616e+00 -2.085622e-02 2.592793e-01 4.943217e-01 1.427824e-01 -2.266487e-01 -3.305883e-01 8.659372e-02 2.467285e-01 -2.372578e-01 -6.125261e-01
<VARIANCE> 39
 1.332735e+01 2.151125e+01 2.545348e+01 2.315348e+01 3.778227e+01 2.797476e+01 2.963464e+01 3.492443e+01 2.324570e+01 2.436559e+01 2.394524e+01 2.232888e+01 8.735865e+00 2.138302e+00 4.426064e+00 5.103678e+00 2.105969e+00 2.513190e+00 1.970453e+00 2.922070e+00 2.392316e+00 2.006459e+00 1.741073e+00 1.523359e+00 1.405911e+00 1.779687e+00 2.342549e-01 7.283425e-01 5.444728e-01 3.734083e-01 4.612802e-01 3.692520e-01 5.459319e-01 5.533328e-01 3.738898e-01 3.854841e-01 3.292086e-01 3.063924e-01 3.025065e-01
<GCONST> 1.114087e+02
<STATE> 4
<MEAN> 39
 -2.104119e+00 -3.916606e+01 8.692352e+00 1.409902e+01 -1.582237e+01 1.859257e+01 -6.555534e+00 -1.058202e+01 5.119699e+00 -6.038758e+00 -3.856654e+00 6.845921e+00 8.098044e+01 2.102161e+00 2.726768e+00 -1.812006e+00 1.385656e-01 5.841186e-01 8.435340e-01 5.053625e-01 -4.213838e-01 -7.753836e-01 -7.830789e-01 2.978815e-01 -7.551014e-01 -8.264719e-01 6.542037e-01 1.216631e+00 1.384773e-01 4.590399e-01 -5.641728e-02 2.320928e-02 -6.732954e-03 3.445137e-01 3.334880e-01 -5.090598e-01 -7.592747e-02 -4.470582e-01 -1.283018e-01
<VARIANCE> 39
 1.192398e+01 2.335654e+01 2.094880e+01 1.502368e+01 2.231218e+01 2.219093e+01 2.612962e+01 1.930517e+01 2.066381e+01 1.731158e+01 2.012729e+01 1.734370e+01 8.329137e+00 2.840094e+00 5.198745e+00 1.727059e+00 2.809367e+00 3.124266e+00 2.155720e+00 1.994245e+00 2.142511e+00 1.920366e+00 2.549227e+00 1.501020e+00 2.083646e+00 7.288077e-01 3.190601e-01 7.514526e-01 3.077981e-01 3.198527e-01 4.474145e-01 4.223449e-01 3.903371e-01 3.741440e-01 4.576536e-01 4.204972e-01 3.172968e-01 3.779195e-01 3.846528e-01
<GCONST> 1.073241e+02
<TRANSP> 5
 0.000000e+00 1.000000e+00 0.000000e+00 0.000000e+00 0.000000e+00
 0.000000e+00 7.192458e-01 2.807542e-01 0.000000e+00 0.000000e+00
 0.000000e+00 0.000000e+00 7.173363e-01 2.826637e-01 0.000000e+00
 0.000000e+00 0.000000e+00 0.000000e+00 7.247292e-01 2.752708e-01
 0.000000e+00 0.000000e+00 0.000000e+00 0.000000e+00 0.000000e+00
<ENDHMM>
~h "gh"
<BEGINHMM>
<NUMSTATES> 5
<STATE> 2
<MEAN> 39
 1.415407e+01 -1.567175e+01 -6.468607e-01 1.653486e+01 -1.532998e+01 1.521839e+01 -7.659868e+00 -8.632962e+00 9.513650e+00 -1.348421e+01 -7.492433e+00 -3.072640e+00 8.070497e+01 1.655233e-01 5.064890e-01 -1.305723e-01 -2.844535e-02 -2.985524e-01 -7.661872e-02 1.302907e-01 2.396661e-01 1.152746e-01 1.940296e-01 4.600576e-01 4.318407e-02 -3.037595e-01 -4.649236e-02 -2.400610e-02 1.309141e-01 -3.235763e-02 -1.407984e-01 2.528977e-01 1.095205e-01 -2.648103e-02 -1.087658e-01 -1.589298e-01 -3.458427e-02 2.835755e-02 -8.248802e-02
<VARIANCE> 39
 2.779908e+00 1.882925e+01 1.501686e+01 3.874605e+01 7.841023e+01 1.014758e+02 3.614042e+01 8.044684e+01 5.797255e+01 2.308863e+01 3.253286e+01 2.548856e+01 5.695644e+00 1.523102e-01 4.813057e-01 4.065875e-01 1.368190e+00 1.849430e+00 1.285051e+00 8.894919e-01 1.240723e+00 9.983895e-01 1.217502e+00 7.562154e-01 8.614239e-01 1.368569e-01 3.660851e-02 6.610445e-02 7.124288e-02 2.393112e-01 2.531755e-01 2.571480e-01 2.335079e-01 1.677898e-01 2.294496e-01 2.394174e-01 1.202156e-01 8.355322e-02 2.950142e-02
<GCONST> 8.306731e+01
<STATE> 3
<MEAN> 39
 1.443314e+01 -1.040568e+01 1.401700e+00 1.580498e+01 -2.158761e+01 7.958779e+00 -7.355664e+00 -2.862153e+00 1.432168e+01 -1.132027e+01 -8.653431e+00 -3.968170e+00 7.824671e+01 -2.688436e-02 2.967914e-01 1.419507e-01 1.111807e-01 2.061590e-02 1.327976e-01 1.140993e-02 1.516731e-02 -3.606460e-01 -1.400156e-01 1.804459e-01 7.174212e-02 -2.677836e-01 8.767184e-03 -1.331214e-01 -8.928886e-02 -5.704369e-02 7.109609e-02 2.367812e-01 3.177482e-02 -6.837148e-03 -3.326457e-02 -1.342696e-01 -8.375690e-02 -3.298780e-02 4.073433e-02
<VARIANCE> 39
 3.133540e+00 2.274108e+01 1.993096e+01 3.823808e+01 5.835182e+01 9.281615e+01 4.582722e+01 5.173854e+01 5.820179e+01 3.287393e+01 2.777648e+01 3.627608e+01 6.653168e+00 1.191360e-01 3.478845e-01 3.210891e-01 1.003157e+00 1.092659e+00 1.198156e+00 7.643976e-01 8.884260e-01 7.192089e-01 7.390974e-01 8.724746e-01 7.974360e-01 1.206483e-01 2.779705e-02 6.955589e-02 6.019099e-02 1.548117e-01 2.638753e-01 2.370649e-01 1.445606e-01 1.632584e-01 1.388061e-01 1.548057e-01 1.435609e-01 1.278716e-01 1.817314e-02
<GCONST> 7.848325e+01
<STATE> 4
<MEAN> 39
 1.481944e+01 -1.148178e+01 5.286269e-01 1.532799e+01 -2.185215e+01 8.890030e+00 -5.631485e+00 -7.956803e-01 1.312745e+01 -1.422509e+01 -1.054084e+01 -5.699023e+00 7.863200e+01 1.204315e-02 -2.421361e-01 -2.073305e-01 -6.964366e-02 2.399238e-01 1.233184e+00 5.527901e-01 -5.737953e-01 -7.011132e-01 -2.665188e-01 -1.268053e-01 1.485380e-01 -8.550657e-02 -4.177387e-02 -8.942143e-03 -3.015576e-04 -2.029170e-02 4.286660e-02 1.658556e-01 5.763311e-02 -2.086359e-01 -1.367473e-01 9.902634e-02 3.211959e-02 1.414287e-01 -4.507755e-02
<VARIANCE> 39
 2.763390e+00 1.478385e+01 1.596077e+01 2.426919e+01 5.132336e+01 7.091285e+01 2.508669e+01 4.810626e+01 4.906371e+01 2.634846e+01 3.148338e+01 4.298660e+01 5.692814e+00 2.360815e-01 7.112429e-01 9.402969e-01 1.166616e+00 2.356803e+00 3.830374e+00 1.642479e+00 1.911597e+00 1.908338e+00 1.358875e+00 1.329999e+00 1.755086e+00 2.419285e-01 3.809341e-02 9.708471e-02 1.267505e-01 1.790192e-01 3.418531e-01 4.627243e-01 2.059289e-01 3.274209e-01 3.350794e-01 2.553825e-01 2.112808e-01 2.505990e-01 4.198828e-02
<GCONST> 9.229646e+01
<TRANSP> 5
 0.000000e+00 1.000000e+00 0.000000e+00 0.000000e+00 0.000000e+00
 0.000000e+00 4.653578e-01 5.346423e-01 0.000000e+00 0.000000e+00
 0.000000e+00 0.000000e+00 7.118075e-01 2.881925e-01 0.000000e+00
 0.000000e+00 0.000000e+00 0.000000e+00 6.451348e-01 3.548652e-01
 0.000000e+00 0.000000e+00 0.000000e+00 0.000000e+00 0.000000e+00
<ENDHMM>
~h "oe"
<BEGINHMM>
<NUMSTATES> 5
<STATE> 2
<MEAN> 39
 1.192267e+01 -1.904382e+01 4.904829e-01 1.728771e+01 -9.410102e+00 2.169710e+01 -1.163019e+01 -1.051954e+01 5.374301e+00 -1.844049e+01 -4.288493e+00 1.171650e+00 7.978455e+01 1.245152e+00 3.303035e-01 -1.367791e+00 -7.248927e-01 1.934259e-02 -4.435371e-01 -3.823985e-01 -5.716548e-01 -2.819628e-01 -2.338030e+00 -9.446236e-01 -4.211214e-01 1.433710e+00 -2.048207e-01 4.828409e-02 1.095461e-01 -2.046154e-01 -5.941008e-01 -6.820106e-02 3.025121e-01 3.485364e-01 1.871837e-01 4.228550e-01 6.036780e-02 1.969514e-01 -3.428909e-01
<VARIANCE> 39
 6.355110e+00 1.475982e+01 2.232204e+01 2.666393e+01 4.368829e+01 2.670254e+01 1.880441e+01 2.631145e+01 3.300636e+01 2.484907e+01 2.419709e+01 1.581137e+01 1.392698e+01 6.912588e-01 2.998395e+00 1.534721e+00 2.351299e+00 3.702536e+00 2.732545e+00 1.807972e+00 2.258574e+00 3.075001e+00 3.354506e+00 2.140864e+00 1.680132e+00 7.827111e-01 1.806158e-01 7.357226e-01 3.695374e-01 3.703458e-01 5.639472e-01 4.875310e-01 2.734755e-01 4.703413e-01 6.028487e-01 5.953901e-01 3.475744e-01 2.890361e-01 1.725113e-01
<GCONST> 1.078365e+02
<STATE> 3
<MEAN> 39
 1.362866e+01 -1.929431e+01 -1.573517e+00 1.430164e+01 -1.192850e+01 2.103197e+01 -1.111731e+01 -9.734175e+00 6.287273e+00 -2.183962e+01 -5.867176e+00 1.504642e+00 8.199910e+01 2.694776e-01 3.919330e-01 -1.450618e-01 -5.914117e-01 -1.180217e+00 -4.454526e-02 4.585739e-01 5.981411e-01 4.615170e-01 -2.344399e-01 -3.110321e-01 7.969419e-02 -2.302646e-01 -2.356975e-01 1.604291e-01 2.787144e-01 3.210223e-01 1.022368e-01 7.474088e-02 1.503369e-01 1.063064e-01 -3.937604e-02 6.264436e-01 2.243980e-01 5.460972e-02 -4.595561e-01
<VARIANCE> 39
 2.631265e+00 8.038443e+00 1.025795e+01 1.647049e+01 4.218324e+01 2.238245e+01 1.251482e+01 2.679814e+01 1.949514e+01 1.632888e+01 2.174795e+01 1.466364e+01 6.562245e+00 3.355194e-01 8.537242e-01 1.353828e+00 2.014904e+00 2.160461e+00 1.518391e+00 1.165445e+00 1.056256e+00 1.345319e+00 1.719145e+00 1.528923e+00 9.800352e-01 7.108583e-01 9.962069e-02 2.320591e-01 2.245149e-01 2.476902e-01 4.577258e-01 3.273733e-01 2.453340e-01 2.435989e-01 3.450249e-01 3.955145e-01 2.436115e-01 2.066557e-01 1.189756e-01
<GCONST> 8.950260e+01
<STATE> 4
<MEAN> 39
 1.421708e+01 -1.548408e+01 -2.256723e+00 1.306740e+01 -1.481662e+01 1.983368e+01 -9.100035e+00 -6.349742e+00 7.075185e+00 -2.148162e+01 -6.280513e+00 2.565203e+00 7.888536e+01 -7.848608e-02 6.138020e-01 -3.631865e-01 5.494476e-01 8.283088e-01 -2.411640e-02 4.961203e-01 1.609423e-01 -3.709632e-01 8.029807e-01 3.822384e-01 3.140093e-01 -5.702251e-01 -1.259448e-01 -5.152970e-02 6.811322e-02 1.534286e-01 1.344222e-01 7.136244e-02 5.176258e-02 -2.090126e-01 -1.704083e-01 2.569354e-01 8.154823e-03 -5.248979e-02 -8.323313e-02
<VARIANCE> 39
 3.744435e+00 9.284950e+00 1.892103e+01 1.864996e+01 4.598204e+01 2.432486e+01 1.368539e+01 2.488490e+01 1.774444e+01 3.102943e+01 2.022493e+01 2.273237e+01 6.752650e+00 4.119712e-01 9.474400e-01 1.040738e+00 1.509057e+00 2.466165e+00 1.699599e+00 1.270973e+00 1.503327e+00 1.441587e+00 2.971965e+00 1.323695e+00 1.006794e+00 1.252007e+00 8.102580e-02 2.024779e-01 3.203498e-01 2.645818e-01 4.686623e-01 3.038633e-01 2.578777e-01 2.441371e-01 3.192732e-01 4.478621e-01 2.472445e-01 2.153676e-01 9.526435e-02
<GCONST> 9.333077e+01
<TRANSP> 5
 0.000000e+00 1.000000e+00 0.000000e+00 0.000000e+00 0.000000e+00
 0.000000e+00 5.332575e-01 4.667425e-01 0.000000e+00 0.000000e+00
 0.000000e+00 0.000000e+00 6.749092e-01 3.250909e-01 0.000000e+00
 0.000000e+00 0.000000e+00 0.000000e+00 7.643526e-01 2.356474e-01
 0.000000e+00 0.000000e+00 0.000000e+00 0.000000e+00 0.000000e+00
<ENDHMM>
~h "sh"
<BEGINHMM>
<NUMSTATES> 5
<STATE> 2
<MEAN> 39
 2.928605e+00 -2.961157e+01 1.136374e+01 2.004472e+01 -1.007139e+01 2.378391e+01 -4.521473e+00 -6.967738e+00 7.550121e+00 -7.605358e+00 -1.823290e+00 5.996720e+00 7.938098e+01 -2.753318e+00 -4.434934e+00 2.094831e+00 -3.164897e-01 -3.072406e-01 -2.239174e-01 7.541767e-01 5.852338e-02 -4.604172e-01 3.699404e-01 -7.228802e-01 1.244850e+00 1.209080e+00 1.289508e-01 1.278146e-01 -5.697394e-01 -1.372850e-01 -3.233877e-01 -4.451000e-01 -4.401492e-01 -2.273473e-01 1.158690e-01 -3.823165e-01 -4.299135e-01 -2.118525e-01 5.318049e-02
<VARIANCE> 39
 1.440255e+01 4.706025e+01 2.478879e+01 1.971386e+01 2.705761e+01 2.641968e+01 3.807446e+01 2.369511e+01 2.569432e+01 1.986663e+01 2.176220e+01 2.284245e+01 8.569702e+00 5.859197e-01 1.754399e+00 2.333299e+00 1.284632e+00 1.818605e+00 2.321179e+00 3.177245e+00 2.558017e+00 2.319415e+00 2.049380e+00 1.887658e+00 1.490066e+00 3.943637e-01 2.091246e-01 1.035135e+00 4.089745e-01 2.937601e-01 3.116766e-01 5.379767e-01 4.424440e-01 3.657178e-01 4.044485e-01 3.058497e-01 3.199780e-01 3.444569e-01 1.958974e-01
<GCONST> 1.054984e+02
<STATE> 3
<MEAN> 39
 -4.581021e+00 -4.062150e+01 1.266139e+01 1.769540e+01 -1.348768e+01 1.993023e+01 -5.678291e+00 -8.963370e+00 7.160186e+00 -7.757679e+00 -5.978239e+00 7.730646e+00 8.185986e+01 -5.239056e-01 -3.860036e-01 -4.361172e-01 -5.686716e-01 -5.693136e-01 -6.265903e-01 -2.123473e-01 -2.213877e-01 -2.701455e-01 1.297165e-01 -6.029966e-02 9.510530e-03 -3.399086e-01 5.202252e-01 8.570185e-01 -2.919109e-01 5.408982e-02 9.175024e-02 1.753440e-01 4.713564e-02 1.013389e-01 -4.402741e-02 4.412360e-02 2.580013e-01 -1.976122e-01 -3.577846e-01
<VARIANCE> 39
 6.646684e+00 7.449181e+00 2.054277e+01 1.289180e+01 2.086384e+01 2.188770e+01 2.207752e+01 2.570970e+01 2.246719e+01 1.618968e+01 1.983012e+01 1.729883e+01 6.250854e+00 1.112913e+00 2.083847e+00 1.713871e+00 1.034958e+00 1.416958e+00 1.761502e+00 1.308502e+00 1.437014e+00 1.261546e+00 1.221060e+00 1.589078e+00 1.174565e+00 5.364215e-01 1.326118e-01 2.366162e-01 3.004622e-01 2.164057e-01 1.909585e-01 2.822003e-01 2.307604e-01 2.598030e-01 2.355593e-01 2.741649e-01 2.666493e-01 2.501645e-01 4.185320e-02
<GCONST> 9.003400e+01
<STATE> 4
<MEAN> 39
 -1.661816e+00 -3.463456e+01 7.681212e+00 1.583064e+01 -1.510215e+01 1.986417e+01 -4.885580e+00 -8.189482e+00 5.081018e+00 -6.583389e+00 -4.075252e+00 6.487008e+00 7.659178e+01 2.236080e+00 3.532602e+00 -1.372297e+00 6.592366e-01 -3.662832e-01 2.973861e-01 2.054782e-01 2.009706e-01 1.489214e-01 -2.306094e-02 1.317490e-01 -1.245649e+00 -1.282097e+00 4.384421e-01 4.309260e-01 -6.317154e-03 2.014187e-01 -1.171426e-01 5.120153e-02 -8.711553e-02 -1.135695e-01 2.447013e-01 -3.065400e-01 -1.236718e-01 -2.774922e-01 3.241637e-01
<VARIANCE> 39
 2.230700e+01 2.874603e+01 3.974932e+01 2.124953e+01 3.185027e+01 2.986459e+01 3.154808e+01 2.544542e+01 2.358926e+01 2.106837e+01 1.869329e+01 1.782460e+01 1.505448e+01 2.431502e+00 3.208965e+00 1.805111e+00 2.250002e+00 2.534129e+00 1.815314e+00 2.223425e+00 1.819005e+00 1.674284e+00 2.216936e+00 1.331560e+00 1.651119e+00 1.136647e+00 3.279374e-01 7.378383e-01 4.039626e-01 4.600065e-01 4.761016e-01 3.927152e-01 4.158530e-01 3.265948e-01 3.168899e-01 4.168167e-01 2.718244e-01 3.394544e-01 2.213097e-01
<GCONST> 1.090705e+02
<TRANSP> 5
 0.000000e+00 1.000000e+00 0.000000e+00 0.000000e+00 0.000000e+00
 0.000000e+00 7.030528e-01 2.969473e-01 0.000000e+00 0.000000e+00
 0.000000e+00 0.000000e+00 8.327528e-01 1.672472e-01 0.000000e+00
 0.000000e+00 0.000000e+00 0.000000e+00 6.756976e-01 3.243024e-01
 0.000000e+00 0.000000e+00 0.000000e+00 0.000000e+00 0.000000e+00
<ENDHMM>
~h "sp"
<BEGINHMM>
<NUMSTATES> 3
<STATE> 2
~s "silst"
<TRANSP> 3
