~o
<STREAMINFO> 1 39
<VECSIZE> 39<NULLD><MFCC_D_A_0><DIAGC>
~s "silst"
<MEAN> 39
 -1.357168e+01 -1.086125e+01 -7.812870e+00 8.954457e+00 -1.650363e+01 1.113975e+01 -6.313883e+00 -2.570819e+00 1.456818e+00 -1.733519e+00 -3.906244e+00 2.062027e+00 4.982555e+01 -4.394026e-02 -3.448716e-02 1.369214e-03 -7.559572e-03 -4.482077e-02 -4.457056e-02 -3.427350e-02 -9.100791e-04 4.346694e-03 -1.000539e-02 -3.061077e-02 -4.749510e-02 -2.032180e-02 9.197202e-03 2.910884e-03 -3.479953e-03 -1.293766e-02 -1.357475e-02 4.627187e-03 1.556667e-03 -5.977130e-03 -3.940307e-03 -7.479022e-03 1.152497e-02 1.778734e-02 5.643239e-03
<VARIANCE> 39
 1.727237e+02 7.631521e+01 1.416794e+01 2.744171e+01 4.211570e+01 4.220275e+01 9.242427e+00 2.749475e+01 2.522873e+01 1.144449e+01 1.250926e+01 9.845874e+00 1.736505e+02 6.920947e-02 1.387057e-01 2.423874e-01 3.474194e-01 4.025432e-01 5.673304e-01 6.697624e-01 6.541541e-01 7.008044e-01 5.827395e-01 6.701973e-01 6.372126e-01 2.308048e-02 1.089839e-02 2.212333e-02 3.964322e-02 6.651574e-02 7.789448e-02 1.106727e-01 1.258795e-01 1.295123e-01 1.411953e-01 1.158735e-01 1.307179e-01 1.257956e-01 3.543186e-03
<GCONST> 6.384413e+01
~h "a"
<BEGINHMM>
<NUMSTATES> 5
<STATE> 2
<MEAN> 39
 1.365646e+01 -1.763178e+01 -2.453059e+00 9.925682e+00 -2.299959e+01 1.302508e+01 -5.015170e+00 -2.808117e+00 9.665147e+00 -1.627366e+01 -6.336519e+00 2.364921e+00 8.016091e+01 1.166347e+00 9.826866e-02 -1.848751e+00 -7.570566e-01 9.219768e-02 -2.149073e+00 -3.114900e-01 8.524122e-01 6.423285e-01 -1.284592e+00 3.242880e-01 5.234290e-01 1.506137e+00 -3.465073e-01 -7.313580e-02 1.982595e-01 1.544997e-01 2.366983e-01 1.822159e-01 6.629880e-02 -7.700373e-02 -1.143392e-01 4.395232e-01 2.009683e-01 8.396872e-02 -2.619256e-01
<VARIANCE> 39
 8.968031e+00 2.384954e+01 2.455478e+01 2.536439e+01 5.419548e+01 6.831484e+01 2.496025e+01 4.485360e+01 4.171150e+01 3.852004e+01 3.323895e+01 2.695433e+01 1.571961e+01 1.561484e+00 3.259295e+00 2.466935e+00 3.186033e+00 3.896869e+00 5.335185e+00 2.084047e+00 3.192445e+00 3.492210e+00 4.120809e+00 2.167107e+00 3.290211e+00 1.427527e+00 2.848404e-01 5.258418e-01 4.494214e-01 5.086638e-01 6.056489e-01 9.537050e-01 3.528584e-01 4.744328e-01 5.397999e-01 7.179459e-01 3.429642e-01 3.580067e-01 2.781211e-01
<GCONST> 1.192189e+02
<STATE> 3
<MEAN> 39
 1.510017e+01 -1.763516e+01 -6.931236e+00 8.459566e+00 -2.181018e+01 8.215686e+00 -4.122091e+00 -6.833977e-01 1.009753e+01 -1.676752e+01 -3.993787e+00 4.548532e+00 8.251913e+01 7.295948e-02 1.406772e-01 -2.121633e-01 2.289307e-01 1.910634e-01 3.077086e-01 3.480530e-02 -1.906028e-01 -8.758061e-02 1.891500e-01 3.386742e-01 4.029490e-01 -2.313026e-01 -1.968895e-01 1.717822e-01 5.161973e-01 3.356740e-01 7.419929e-02 6.105149e-01 -1.014255e-02 -2.474900e-01 -1.079979e-01 3.460263e-01 -9.395044e-02 -1.869503e-01 -4.371184e-01
<VARIANCE> 39
 2.849555e+00 1.210479e+01 1.628510e+01 1.958163e+01 5.054416e+01 6.278518e+01 2.000568e+01 5.097128e+01 3.450076e+01 2.742767e+01 2.779799e+01 2.200065e+01 6.228125e+00 2.773153e-01 1.112259e+00 1.366688e+00 1.818667e+00 3.259386e+00 3.793263e+00 1.457732e+00 2.331532e+00 1.919355e+00 2.012368e+00 1.732226e+00 1.474186e+00 6.850762e-01 1.039166e-01 2.041000e-01 2.089387e-01 2.977735e-01 5.063658e-01 5.465319e-01 2.504783e-01 3.816153e-01 3.406675e-01 4.696787e-01 2.739322e-01 3.068281e-01 1.180533e-01
<GCONST> 9.974503e+01
<STATE> 4
<MEAN> 39
 1.380524e+01 -1.540081e+01 -3.760564e+00 1.232493e+01 -1.973823e+01 1.603998e+01 -5.325558e+00 -4.795191e+00 8.453434e+00 -1.344717e+01 -3.006252e+00 5.479045e+00 7.750439e+01 -6.559757e-01 6.614011e-01 1.055326e+00 9.296961e-01 4.763689e-01 1.028090e+00 1.429897e-02 -3.946421e-01 -3.300574e-01 1.293547e+00 2.630560e-02 -1.376595e-01 -1.330048e+00 -1.810443e-01 -6.739457e-02 1.529421e-01 -6.968565e-03 -6.162373e-02 -1.775506e-01 4.591361e-02 1.155287e-01 7.717484e-04 1.079788e-01 -1.379029e-01 -1.142754e-01 -6.822754e-02
<VARIANCE> 39
 6.465508e+00 1.585699e+01 1.922380e+01 1.978860e+01 4.317537e+01 4.463334e+01 2.331541e+01 4.579340e+01 3.285791e+01 3.235093e+01 3.402595e+01 2.436064e+01 1.909057e+01 4.213171e-01 1.428645e+00 1.380846e+00 1.451205e+00 2.500651e+00 3.178854e+00 1.923063e+00 2.237702e+00 1.678870e+00 1.878317e+00 1.839449e+00 1.765836e+00 7.496641e-01 8.966049e-02 3.082789e-01 3.044998e-01 2.636001e-01 4.656320e-01 5.504023e-01 3.233086e-01 4.025548e-01 3.372021e-01 3.889362e-01 3.658416e-01 3.195906e-01 1.580223e-01
<GCONST> 1.036479e+02
<TRANSP> 5
 0.000000e+00 1.000000e+00 0.000000e+00 0.000000e+00 0.000000e+00
 0.000000e+00 5.268285e-01 4.731716e-01 0.000000e+00 0.000000e+00
 0.000000e+00 0.000000e+00 7.234066e-01 2.765935e-01 0.000000e+00
 0.000000e+00 0.000000e+00 0.000000e+00 6.317416e-01 3.682584e-01
 0.000000e+00 0.000000e+00 0.000000e+00 0.000000e+00 0.000000e+00
<ENDHMM>
~h "b"
<BEGINHMM>
<NUMSTATES> 5
<STATE> 2
<MEAN> 39
 9.472494e+00 -8.224205e+00 2.985544e-01 1.891584e+01 -1.590588e+01 1.871484e+01 -4.339664e+00 -5.543243e+00 7.795163e+00 -6.492321e+00 -4.520145e+00 1.491264e+00 6.878111e+01 -7.286182e-01 7.681426e-01 8.452422e-01 6.951300e-01 -3.237683e-02 4.408503e-01 2.642380e-01 3.224611e-01 2.724232e-01 9.200137e-01 3.351377e-01 6.583880e-01 -1.207870e+00 6.443597e-02 -5.883351e-01 -2.019636e-02 -1.644362e-01 6.597871e-02 1.910036e-01 -6.099213e-02 -1.788204e-01 -1.620261e-01 -4.910425e-01 -1.020456e-01 -9.756166e-02 4.655401e-01
<VARIANCE> 39
 2.781386e+01 2.381686e+01 1.351706e+01 1.897830e+01 2.387075e+01 2.152247e+01 1.656204e+01 2.441248e+01 2.406143e+01 1.688884e+01 1.479648e+01 1.598219e+01 1.552508e+01 2.801647e-01 1.236602e+00 7.395141e-01 9.809456e-01 1.127702e+00 1.256954e+00 8.662919e-01 1.331605e+00 1.122019e+00 1.843511e+00 1.083392e+00 1.029788e+00 8.525550e-01 5.449248e-02 2.893423e-01 1.464237e-01 2.311591e-01 2.416151e-01 3.115897e-01 1.948071e-01 2.863167e-01 2.645922e-01 3.187057e-01 2.081042e-01 2.208140e-01 1.307664e-01
<GCONST> 8.937120e+01
<STATE> 3
<MEAN> 39
 7.886385e+00 -6.963430e+00 3.162033e+00 2.187524e+01 -1.372139e+01 1.987232e+01 -4.399167e+00 -5.523291e+00 8.234164e+00 -4.655646e+00 -3.382315e+00 2.119528e+00 6.711317e+01 -7.399360e-02 -1.311027e+00 4.854853e-01 -2.866420e-01 6.150943e-02 1.157199e+00 2.499383e-01 4.494927e-02 -1.483672e-01 -1.008828e+00 -1.024688e-01 1.663928e-01 6.861633e-01 4.722577e-01 -8.975994e-01 -4.671375e-01 -3.833397e-01 1.275496e-01 -7.870338e-02 -4.681624e-01 -3.442302e-01 -8.386398e-02 -9.690145e-01 -2.276845e-01 -3.352918e-01 1.017669e+00
<VARIANCE> 39
 1.850816e+01 2.002479e+01 1.521579e+01 2.411421e+01 2.679063e+01 1.503951e+01 1.784124e+01 2.403657e+01 1.691270e+01 1.485073e+01 1.158198e+01 9.672049e+00 9.978910e+00 9.990175e-01 3.783411e+00 1.454783e+00 2.146442e+00 2.476048e+00 2.715183e+00 1.535291e+00 2.125389e+00 1.758652e+00 2.490429e+00 1.184100e+00 1.311499e+00 1.029998e+00 1.512897e-01 3.594451e-01 2.137708e-01 4.082542e-01 6.100099e-01 6.473676e-01 3.424658e-01 5.135506e-01 3.835607e-01 4.905834e-01 2.359713e-01 2.899124e-01 2.054647e-01
<GCONST> 1.016531e+02
<STATE> 4
<MEAN> 39
 7.236440e+00 -1.424379e+01 2.767625e+00 1.769129e+01 -1.576463e+01 2.426605e+01 -2.797129e+00 -4.915146e+00 7.164206e+00 -9.150602e+00 -4.187379e+00 3.498890e+00 7.001991e+01 1.569960e+00 -2.334782e+00 -3.696113e-01 -4.318767e-01 5.539187e-01 5.384901e-01 -1.162058e+00 -7.867961e-01 1.453743e-02 -2.875984e+00 -4.510911e-01 -8.134601e-01 3.026875e+00 3.980886e-01 1.908144e-01 -2.471251e-01 3.457869e-01 3.670317e-01 -1.081887e+00 -7.633596e-01 -2.952243e-01 2.441674e-01 -8.090256e-02 -1.015229e-01 -5.894201e-01 5.274556e-01
<VARIANCE> 39
 1.871336e+01 5.396965e+01 1.700292e+01 2.863839e+01 4.631047e+01 3.609331e+01 1.580537e+01 2.612226e+01 2.203615e+01 2.869919e+01 1.212007e+01 1.210815e+01 2.086339e+01 1.826360e+00 4.298193e+00 2.883619e+00 4.443244e+00 6.688037e+00 6.116247e+00 3.078939e+00 4.197067e+00 2.970711e+00 3.026508e+00 1.288170e+00 2.032381e+00 1.591283e+00 2.348189e-01 9.334316e-01 4.451278e-01 6.894123e-01 7.232895e-01 7.504763e-01 3.694831e-01 4.296346e-01 3.716483e-01 5.482145e-01 3.372784e-01 3.699162e-01 4.377488e-01
<GCONST> 1.175593e+02
<TRANSP> 5
 0.000000e+00 1.000000e+00 0.000000e+00 0.000000e+00 0.000000e+00
 0.000000e+00 6.472340e-01 3.527660e-01 0.000000e+00 0.000000e+00
 0.000000e+00 0.000000e+00 4.643141e-01 5.356858e-01 0.000000e+00
 0.000000e+00 0.000000e+00 0.000000e+00 3.572994e-01 6.427007e-01
 0.000000e+00 0.000000e+00 0.000000e+00 0.000000e+00 0.000000e+00
<ENDHMM>
~h "c"
<BEGINHMM>
<NUMSTATES> 5
<STATE> 2
<MEAN> 39
 3.793850e+00 -2.507808e+01 1.392023e+01 2.294899e+01 -1.376226e+01 2.091229e+01 -5.139832e+00 -6.503471e+00 8.366995e+00 -7.143172e+00 -3.174946e+00 3.938267e+00 7.722745e+01 -2.130315e+00 -4.378275e+00 2.499184e+00 -2.795383e-01 -6.248054e-01 -3.121948e-01 5.801089e-02 5.545865e-01 -1.223497e-02 -3.558916e-01 -7.548224e-01 1.097501e+00 1.402958e+00 6.119049e-01 5.973817e-01 -9.883618e-01 -2.138143e-01 3.236468e-01 1.846849e-01 -2.510405e-01 -6.842076e-01 -2.679039e-01 -2.062412e-01 1.728709e-02 -3.333951e-01 1.116934e-01
<VARIANCE> 39
 2.321658e+01 1.021336e+02 4.591102e+01 2.286878e+01 3.678271e+01 3.612425e+01 3.245034e+01 3.892093e+01 3.526850e+01 2.509870e+01 3.023389e+01 2.005560e+01 1.536152e+01 1.598490e+00 6.473730e+00 5.222660e+00 2.128699e+00 3.714192e+00 2.887277e+00 3.640078e+00 4.760513e+00 2.736265e+00 2.886894e+00 2.724086e+00 2.296179e+00 1.338015e+00 8.267850e-01 3.474350e+00 1.494433e+00 3.743204e-01 7.749152e-01 6.834866e-01 6.194212e-01 7.555382e-01 6.351680e-01 3.813245e-01 5.272122e-01 4.919160e-01 4.757038e-01
<GCONST> 1.263936e+02
<STATE> 3
<MEAN> 39
 2.801981e+00 -3.026224e+01 1.210898e+01 2.017603e+01 -1.206055e+01 2.086240e+01 -5.296390e+00 -1.089537e+01 5.555916e+00 -8.229239e+00 -5.088178e+00 4.217225e+00 8.079135e+01 2.847220e+00 2.985509e+00 -3.348595e+00 1.692727e-03 1.303434e+00 2.595963e-01 -6.641634e-01 -1.752422e+00 -9.467359e-01 -1.379788e+00 8.445164e-02 -1.031022e+00 1.277877e-01 6.740013e-01 1.014912e+00 -5.744292e-01 1.095569e-01 -7.320568e-03 -6.876807e-02 -2.798621e-01 1.601310e-01 3.261179e-01 -3.662496e-01 1.874457e-01 -1.607202e-01 -1.667644e-01
<VARIANCE> 39
 2.401767e+01 3.222727e+01 3.412721e+01 1.834079e+01 2.214769e+01 4.643351e+01 1.450921e+01 2.880106e+01 2.352551e+01 3.070449e+01 1.569599e+01 1.332349e+01 5.700752e+00 1.687105e+00 2.291018e+00 3.947633e+00 1.992990e+00 2.020507e+00 2.311363e+00 2.639896e+00 1.876379e+00 2.414277e+00 2.114075e+00 1.087144e+00 1.531147e+00 3.410255e-01 6.753194e-01 1.432621e+00 1.015028e+00 2.729022e-01 4.728728e-01 4.270589e-01 3.676209e-01 3.901356e-01 3.878028e-01 4.013477e-01 3.409428e-01 4.208697e-01 1.041069e-01
<GCONST> 1.081023e+02
<STATE> 4
<MEAN> 39
 1.041158e+01 -2.169481e+01 6.470476e+00 2.325013e+01 -1.021083e+01 2.211900e+01 -1.199640e+01 -1.340005e+01 8.952519e+00 -1.299260e+01 -4.884134e+00 6.538862e-02 8.000160e+01 1.000676e+00 1.116406e+00 -1.136533e+00 -1.432820e-01 2.112303e-01 -3.517338e-01 -1.283643e+00 -8.320749e-02 4.500310e-01 -1.103658e+00 1.731711e-01 -3.888198e-01 1.306512e-01 -5.381793e-01 -5.463650e-01 4.866620e-01 -1.335729e-01 -1.737082e-01 -8.660144e-02 2.116438e-01 3.843896e-01 6.687970e-02 3.091670e-01 1.020610e-01 3.326875e-01 -5.575491e-02
<VARIANCE> 39
 5.439700e+00 1.057456e+01 3.422380e+01 1.227159e+01 1.930727e+01 2.729247e+01 2.369505e+01 1.194909e+01 2.550167e+01 2.158492e+01 9.235500e+00 1.563305e+01 5.576131e+00 2.006830e+00 2.491635e+00 4.351716e+00 9.338886e-01 1.118215e+00 1.335294e+00 2.414138e+00 1.313514e+00 1.103285e+00 2.681707e+00 1.056571e+00 1.340682e+00 2.532099e-01 2.447816e-01 4.013950e-01 4.389885e-01 2.472182e-01 3.210648e-01 1.961027e-01 3.270782e-01 1.998894e-01 2.743127e-01 3.567412e-01 1.265932e-01 1.943240e-01 4.793182e-02
<GCONST> 9.220935e+01
<TRANSP> 5
 0.000000e+00 1.000000e+00 0.000000e+00 0.000000e+00 0.000000e+00
 0.000000e+00 7.701935e-01 2.298065e-01 0.000000e+00 0.000000e+00
 0.000000e+00 0.000000e+00 6.000333e-01 3.999667e-01 0.000000e+00
 0.000000e+00 0.000000e+00 0.000000e+00 6.160634e-01 3.839366e-01
 0.000000e+00 0.000000e+00 0.000000e+00 0.000000e+00 0.000000e+00
<ENDHMM>
~h "d"
<BEGINHMM>
<NUMSTATES> 5
<STATE> 2
<MEAN> 39
 8.843451e+00 -1.177610e+01 1.225217e+00 1.719995e+01 -1.743655e+01 1.988864e+01 -3.808947e+00 -7.620995e+00 5.612386e+00 -8.513022e+00 -6.806464e+00 -1.041512e+00 7.069823e+01 -4.850128e-01 7.461511e-01 4.495582e-01 5.174517e-01 -3.881975e-02 1.536056e-01 1.351245e-01 3.757544e-01 3.456677e-01 1.019163e+00 3.427433e-01 4.032933e-01 -1.049875e+00 -5.009441e-02 -4.155983e-01 -3.307670e-02 -8.433443e-02 2.309327e-02 6.673488e-02 -1.067937e-01 -1.075604e-02 -1.042271e-02 -1.788068e-01 1.488531e-01 2.248259e-01 1.849758e-01
<VARIANCE> 39
 3.292064e+01 4.410254e+01 3.347232e+01 2.646065e+01 3.057773e+01 2.703023e+01 2.183976e+01 2.132347e+01 2.875897e+01 2.822746e+01 3.418417e+01 4.977849e+01 2.921836e+01 3.909838e-01 1.655434e+00 1.462824e+00 1.494300e+00 1.275395e+00 1.528928e+00 1.778343e+00 1.348043e+00 1.657462e+00 2.046653e+00 1.357302e+00 1.086167e+00 1.077321e+00 5.561445e-02 3.652208e-01 2.753103e-01 2.796815e-01 3.081042e-01 4.284336e-01 3.109696e-01 2.946964e-01 2.852431e-01 3.252225e-01 3.687239e-01 2.854192e-01 1.316399e-01
<GCONST> 1.021595e+02
<STATE> 3
<MEAN> 39
 1.084586e+01 -7.900304e+00 4.960887e+00 1.791181e+01 -1.935922e+01 2.133528e+01 -3.242526e+00 -5.708448e+00 1.049839e+01 -7.408822e+00 -7.126145e+00 -3.290219e+00 7.133347e+01 -7.649706e-01 6.598128e-02 5.914822e-01 3.809180e-01 9.434615e-02 4.736223e-01 -4.975543e-02 2.509551e-01 -5.620139e-02 5.424758e-01 7.929868e-01 1.280932e+00 -9.268219e-01 4.510597e-02 -7.334504e-01 -1.311362e-01 -2.807522e-01 6.041896e-02 4.825615e-02 -1.421381e-02 -8.800372e-02 -2.341871e-01 -5.000120e-01 -1.117492e-01 3.618893e-02 5.134104e-01
<VARIANCE> 39
 7.301051e+00 1.484628e+01 1.818968e+01 1.727212e+01 2.632174e+01 2.357551e+01 1.498346e+01 1.805577e+01 2.662239e+01 1.524508e+01 2.801701e+01 4.739640e+01 1.032146e+01 2.248490e-01 1.386730e+00 1.090351e+00 1.147387e+00 1.641155e+00 1.981611e+00 1.270229e+00 1.357027e+00 1.729482e+00 1.640959e+00 1.691064e+00 1.693518e+00 5.792857e-01 5.009203e-02 5.447532e-01 2.368859e-01 3.102446e-01 3.340193e-01 3.955468e-01 2.824311e-01 2.958777e-01 3.943292e-01 3.747641e-01 3.252677e-01 3.936924e-01 2.708628e-01
<GCONST> 9.601572e+01
<STATE> 4
<MEAN> 39
 8.045876e+00 -1.101325e+01 5.141452e+00 1.918154e+01 -1.638977e+01 2.233139e+01 -3.739929e+00 -6.135154e+00 7.492386e+00 -6.513271e+00 -3.996958e+00 1.997312e+00 6.978986e+01 -9.001303e-02 -3.301768e+00 9.703174e-02 -1.337799e+00 -4.847225e-01 7.048200e-01 -2.164280e-01 7.755592e-02 -1.475394e-01 -1.618522e+00 -2.911617e-01 5.669733e-01 1.812465e+00 5.127005e-01 -4.537809e-01 -3.267788e-01 -4.457722e-01 -4.619407e-02 -2.107758e-01 -3.351563e-01 -2.787198e-01 -2.301468e-02 -9.516881e-01 -3.351617e-01 -3.026480e-01 9.335649e-01
<VARIANCE> 39
 1.020828e+01 3.591738e+01 2.496747e+01 2.762718e+01 3.638898e+01 2.634830e+01 1.765349e+01 1.908202e+01 2.111947e+01 1.770489e+01 1.845299e+01 1.916441e+01 1.152614e+01 8.360545e-01 2.838143e+00 2.208733e+00 2.311292e+00 3.234855e+00 3.331557e+00 2.339026e+00 2.940535e+00 3.207707e+00 3.043187e+00 1.853272e+00 2.067412e+00 1.484738e+00 9.731114e-02 8.327357e-01 4.166104e-01 5.197558e-01 5.639778e-01 6.153056e-01 4.015972e-01 4.290082e-01 3.674001e-01 4.311470e-01 3.772120e-01 4.386446e-01 2.133579e-01
<GCONST> 1.098111e+02
<TRANSP> 5
 0.000000e+00 1.000000e+00 0.000000e+00 0.000000e+00 0.000000e+00
 0.000000e+00 3.942075e-01 6.057925e-01 0.000000e+00 0.000000e+00
 0.000000e+00 0.000000e+00 5.781279e-01 4.218722e-01 0.000000e+00
 0.000000e+00 0.000000e+00 0.000000e+00 5.272364e-01 4.727636e-01
 0.000000e+00 0.000000e+00 0.000000e+00 0.000000e+00 0.000000e+00
<ENDHMM>
~h "e"
<BEGINHMM>
<NUMSTATES> 5
<STATE> 2
<MEAN> 39
 1.218936e+01 -1.910246e+01 -6.183365e-01 1.634785e+01 -1.240184e+01 1.939205e+01 -9.740794e+00 -1.189177e+01 4.218543e+00 -1.402668e+01 -2.470108e+00 3.418979e+00 7.949512e+01 1.242727e+00 -5.618975e-01 -1.716287e+00 -5.342653e-01 6.800257e-01 -7.498934e-01 -1.647316e+00 -9.012642e-01 2.096873e-01 -1.362928e+00 8.060828e-01 6.301486e-01 1.787360e+00 -2.562030e-01 8.651227e-02 2.490657e-01 1.067944e-01 -1.122680e-01 1.026193e-02 1.442926e-02 1.623681e-01 2.953162e-01 4.267712e-01 1.580065e-01 7.468458e-02 -2.733270e-01
<VARIANCE> 39
 1.121372e+01 1.825339e+01 2.841648e+01 3.567712e+01 3.594262e+01 4.212621e+01 3.411852e+01 2.523760e+01 2.669529e+01 2.924402e+01 1.643676e+01 2.682500e+01 1.750913e+01 1.537223e+00 3.989070e+00 2.792140e+00 3.277856e+00 2.951997e+00 3.709134e+00 2.322772e+00 2.384844e+00 2.483160e+00 3.278852e+00 2.051107e+00 3.531950e+00 1.330746e+00 3.108231e-01 5.778689e-01 4.651756e-01 5.171296e-01 5.627765e-01 6.594649e-01 4.652052e-01 4.013199e-01 4.352271e-01 5.649801e-01 2.902232e-01 3.979628e-01 2.633864e-01
<GCONST> 1.154017e+02
<STATE> 3
<MEAN> 39
 1.404494e+01 -2.019261e+01 -4.358332e+00 1.469216e+01 -1.224905e+01 1.669865e+01 -1.206751e+01 -1.217651e+01 6.008165e+00 -1.441067e+01 1.142215e+00 6.157091e+00 8.267310e+01 2.046934e-02 1.307397e-01 -3.533603e-02 3.815282e-03 5.400345e-03 -3.224793e-02 -2.089274e-01 -1.434282e-03 3.816584e-01 4.249558e-01 2.943481e-01 6.158743e-03 -1.205259e-01 -2.672602e-01 3.685417e-01 4.989130e-01 2.711207e-01 -7.626621e-02 2.633623e-01 4.784756e-01 2.052366e-01 -1.266785e-01 4.075416e-01 -2.760263e-01 -3.040239e-01 -5.983016e-01
<VARIANCE> 39
 3.119185e+00 8.088030e+00 2.100485e+01 3.376283e+01 3.422160e+01 2.952793e+01 2.322243e+01 2.339235e+01 2.067199e+01 2.273615e+01 2.089110e+01 2.945848e+01 5.933803e+00 3.330370e-01 1.011531e+00 1.659683e+00 2.270060e+00 2.247154e+00 2.360898e+00 1.785100e+00 1.174548e+00 1.670998e+00 1.590822e+00 1.405492e+00 1.373492e+00 8.131233e-01 1.189333e-01 2.224912e-01 2.561492e-01 3.005666e-01 4.302318e-01 3.813346e-01 3.252537e-01 2.499203e-01 2.951831e-01 4.576380e-01 2.482566e-01 3.175775e-01 1.037255e-01
<GCONST> 9.579514e+01
<STATE> 4
<MEAN> 39
 1.243986e+01 -1.790252e+01 8.808918e-02 1.843623e+01 -1.130104e+01 1.919611e+01 -1.255784e+01 -1.279867e+01 6.747706e+00 -1.110532e+01 -2.602048e-01 2.648001e+00 7.859951e+01 -6.027628e-01 1.153124e+00 8.897923e-01 7.652805e-01 -8.230541e-02 3.097945e-01 9.325219e-01 5.319605e-01 -1.631906e-01 1.323933e+00 -2.285187e-01 -2.575400e-01 -1.554657e+00 -1.629236e-01 -4.060714e-02 5.189411e-02 -2.167930e-02 -1.520501e-01 -5.061792e-02 2.286592e-01 1.019524e-01 -2.063417e-01 1.654676e-02 -1.278890e-01 1.221488e-01 -1.344588e-01
<VARIANCE> 39
 6.411200e+00 1.249673e+01 3.023993e+01 3.616893e+01 3.582740e+01 3.184723e+01 2.897002e+01 2.882513e+01 3.359498e+01 3.043800e+01 1.987458e+01 2.775703e+01 1.260417e+01 5.084732e-01 1.573636e+00 1.680695e+00 1.547051e+00 2.053387e+00 2.047385e+00 1.737366e+00 1.245870e+00 1.985766e+00 2.251396e+00 1.668723e+00 1.793647e+00 1.042900e+00 9.390507e-02 3.789649e-01 3.307457e-01 3.175800e-01 4.136100e-01 4.101790e-01 3.470461e-01 2.897035e-01 3.635948e-01 4.457366e-01 2.741558e-01 2.944396e-01 1.904484e-01
<GCONST> 1.025238e+02
<TRANSP> 5
 0.000000e+00 1.000000e+00 0.000000e+00 0.000000e+00 0.000000e+00
 0.000000e+00 5.074347e-01 4.925654e-01 0.000000e+00 0.000000e+00
 0.000000e+00 0.000000e+00 6.953089e-01 3.046911e-01 0.000000e+00
 0.000000e+00 0.000000e+00 0.000000e+00 5.537182e-01 4.462817e-01
 0.000000e+00 0.000000e+00 0.000000e+00 0.000000e+00 0.000000e+00
<ENDHMM>
~h "f"
<BEGINHMM>
<NUMSTATES> 5
<STATE> 2
<MEAN> 39
 3.396761e+00 -2.513230e+01 4.204900e+00 1.089150e+01 -2.039472e+01 2.381356e+01 -7.786243e+00 -4.273621e+00 5.217398e+00 -1.177430e+01 -2.408290e+00 5.427197e+00 7.198946e+01 -8.758062e-01 -1.834809e+00 1.373327e-01 -8.822896e-01 -2.888843e-01 1.611400e-01 -5.091596e-01 2.858349e-01 -1.372338e-01 -4.646127e-01 1.860115e-02 9.801507e-02 2.248953e-01 2.588027e-01 3.696387e-01 -3.122827e-01 4.966438e-02 6.799458e-02 -2.562538e-01 8.767230e-02 1.969263e-02 1.128859e-01 4.700540e-02 -6.562938e-02 -1.392887e-01 4.649813e-02
<VARIANCE> 39
 1.725208e+01 4.389836e+01 1.980715e+01 3.740831e+01 2.744577e+01 2.416553e+01 1.894377e+01 1.963945e+01 2.636838e+01 2.616093e+01 1.561886e+01 1.277687e+01 1.088422e+01 8.312764e-01 1.974418e+00 1.088674e+00 1.393425e+00 1.172902e+00 1.607350e+00 1.875602e+00 1.333666e+00 1.889633e+00 1.406057e+00 1.010210e+00 7.888287e-01 5.457209e-01 1.663761e-01 5.644224e-01 1.810175e-01 2.060228e-01 1.904053e-01 3.183746e-01 4.084710e-01 2.455304e-01 2.838461e-01 4.136396e-01 2.093016e-01 1.908608e-01 1.908074e-01
<GCONST> 9.638265e+01
<STATE> 3
<MEAN> 39
 6.505389e-01 -3.018406e+01 2.671536e+00 6.386303e+00 -2.138457e+01 2.277819e+01 -9.289004e+00 -3.439487e+00 6.499212e+00 -1.180148e+01 -2.771627e+00 5.555337e+00 7.297604e+01 1.325520e+00 1.673521e+00 -9.770905e-01 9.080868e-01 5.443072e-02 -1.250534e+00 2.328348e-01 -1.552522e-02 2.473997e-01 2.563106e-01 -5.759129e-01 -5.866630e-01 2.110428e-02 7.971194e-01 1.229816e+00 -3.544566e-02 6.252600e-01 2.560620e-01 -3.573507e-01 7.275657e-02 -2.223073e-02 3.259296e-01 -1.819390e-01 -2.428286e-01 -4.019206e-01 1.726620e-01
<VARIANCE> 39
 1.424101e+01 3.718948e+01 3.690615e+01 3.829796e+01 3.476927e+01 4.724611e+01 2.324700e+01 3.463105e+01 2.742361e+01 1.289251e+01 1.669881e+01 1.067752e+01 8.804707e+00 2.134327e+00 5.647133e+00 2.215273e+00 2.898713e+00 1.987212e+00 2.635999e+00 2.134975e+00 2.173880e+00 2.457508e+00 2.831095e+00 1.489002e+00 1.418214e+00 9.598174e-01 4.006134e-01 5.115148e-01 6.934913e-01 5.721316e-01 5.540197e-01 9.104866e-01 2.676204e-01 3.267444e-01 3.181086e-01 3.596750e-01 3.812148e-01 1.871113e-01 4.713413e-01
<GCONST> 1.115200e+02
<STATE> 4
<MEAN> 39
 5.476458e+00 -2.108978e+01 7.202798e-01 8.737110e+00 -2.103786e+01 1.995380e+01 -8.631488e+00 -2.667346e+00 9.048639e+00 -1.227243e+01 -7.632855e+00 3.818177e+00 7.191868e+01 2.328883e+00 2.856058e+00 -5.206515e-01 1.014052e+00 2.299248e-01 -1.085833e+00 1.266044e-01 1.607944e-02 9.873624e-01 -9.645556e-01 -6.227496e-01 -9.356691e-01 9.224491e-01 1.176833e-01 -6.854038e-02 5.699451e-02 1.712916e-01 4.840805e-02 -4.524137e-02 -8.551746e-02 -4.533348e-02 8.303594e-02 -2.365362e-01 3.281885e-01 6.054290e-02 2.741546e-01
<VARIANCE> 39
 2.075801e+01 4.917423e+01 1.759409e+01 2.184076e+01 1.881997e+01 4.035765e+01 2.510538e+01 1.671842e+01 2.013284e+01 3.046607e+01 3.093955e+01 2.085751e+01 1.589625e+01 3.823930e+00 4.498218e+00 3.784065e+00 3.786022e+00 3.407932e+00 5.163766e+00 1.325412e+00 1.133612e+00 1.802065e+00 2.068645e+00 4.643206e+00 2.255000e+00 2.627905e+00 5.375463e-01 8.188032e-01 4.587013e-01 4.274978e-01 1.691347e-01 7.968503e-01 2.784247e-01 2.337948e-01 4.979361e-01 5.765884e-01 6.473396e-01 4.022948e-01 2.789671e-01
<GCONST> 1.152406e+02
<TRANSP> 5
 0.000000e+00 1.000000e+00 0.000000e+00 0.000000e+00 0.000000e+00
 0.000000e+00 8.233296e-01 1.766704e-01 0.000000e+00 0.000000e+00
 0.000000e+00 0.000000e+00 5.469723e-01 4.530276e-01 0.000000e+00
 0.000000e+00 0.000000e+00 0.000000e+00 4.281721e-01 5.718279e-01
 0.000000e+00 0.000000e+00 0.000000e+00 0.000000e+00 0.000000e+00
<ENDHMM>
~h "g"
<BEGINHMM>
<NUMSTATES> 5
<STATE> 2
<MEAN> 39
 9.343353e+00 -1.025558e+01 4.121585e+00 2.252693e+01 -1.292545e+01 2.016200e+01 -9.001421e+00 -9.549129e+00 7.449556e+00 -5.611425e+00 -8.019913e-01 2.000620e+00 7.034698e+01 -7.435157e-01 -2.730191e-01 5.651409e-01 9.231512e-02 -1.956195e-01 1.174568e-01 1.340299e-01 8.900226e-01 2.964350e-01 3.179225e-01 3.638488e-01 8.442353e-01 -6.806345e-01 -5.783926e-02 -1.269234e+00 6.347398e-02 -4.068023e-01 7.308743e-02 2.449363e-01 -6.308067e-02 1.905656e-01 6.591090e-03 -7.512886e-01 -1.361282e-01 -9.992109e-02 8.019168e-01
<VARIANCE> 39
 1.296394e+01 2.563058e+01 2.274363e+01 1.743830e+01 2.124990e+01 2.013745e+01 2.179828e+01 2.527640e+01 1.980143e+01 2.291429e+01 2.126392e+01 2.037424e+01 1.035777e+01 5.160404e-01 6.246480e+00 1.804950e+00 1.976758e+00 1.965754e+00 2.120746e+00 2.723114e+00 2.958252e+00 1.850668e+00 3.210128e+00 1.653303e+00 1.313412e+00 1.781009e+00 6.498852e-02 8.099862e-01 1.888287e-01 3.140591e-01 2.784491e-01 4.248310e-01 3.852275e-01 4.979064e-01 2.130666e-01 5.230994e-01 3.016303e-01 3.677930e-01 2.318423e-01
<GCONST> 1.040443e+02
<STATE> 3
<MEAN> 39
 5.901061e+00 -1.494047e+01 5.542205e+00 1.974805e+01 -1.300015e+01 2.062335e+01 -7.229774e+00 -5.413108e+00 7.460221e+00 -6.405131e+00 -5.921095e-01 3.169890e+00 7.051036e+01 -4.812673e-01 -4.454039e+00 5.684677e-01 -9.757801e-01 1.668445e-01 1.189346e+00 -3.735110e-01 8.788006e-01 8.466987e-02 -1.777373e+00 3.903347e-01 -1.738020e-01 2.169107e+00 5.248299e-01 -1.151655e-01 -1.935865e-01 1.635421e-01 3.274675e-01 -1.752949e-01 -5.139645e-01 -7.145862e-01 -1.470003e-01 -5.876770e-01 -3.166381e-01 -5.310659e-01 7.058674e-01
<VARIANCE> 39
 1.878073e+01 4.789334e+01 2.803279e+01 3.457269e+01 3.607545e+01 2.509425e+01 3.423269e+01 2.215181e+01 1.852717e+01 1.765427e+01 1.653902e+01 1.580073e+01 1.504406e+01 1.185151e+00 4.531655e+00 2.931298e+00 3.292515e+00 2.621244e+00 4.276873e+00 3.078583e+00 5.082416e+00 2.640057e+00 3.446967e+00 3.009751e+00 3.113678e+00 1.323090e+00 9.049176e-02 9.291527e-01 3.779009e-01 4.798134e-01 3.745956e-01 6.173161e-01 4.147970e-01 4.475641e-01 3.217317e-01 3.646237e-01 3.114769e-01 2.692411e-01 2.242592e-01
<GCONST> 1.132548e+02
<STATE> 4
<MEAN> 39
 6.709668e+00 -2.605216e+01 7.201117e+00 1.905063e+01 -1.378073e+01 2.370442e+01 -1.082922e+01 -6.336279e+00 8.552758e+00 -1.210338e+01 -1.289220e+00 6.563095e-01 7.729224e+01 1.054357e+00 -6.967366e-01 -2.460694e-01 7.225678e-01 1.584151e+00 -6.510123e-01 -1.586564e+00 -1.424583e+00 -3.751166e-01 -1.962218e+00 -5.718278e-01 -9.541423e-01 1.967027e+00 5.177658e-01 1.597818e+00 -6.664935e-01 3.452698e-01 4.392891e-01 -6.252984e-01 -7.416493e-02 -6.004894e-01 -1.758166e-01 1.573065e-01 -1.737729e-01 1.447983e-04 -2.800260e-01
<VARIANCE> 39
 8.976292e+00 4.293465e+01 2.490862e+01 3.464931e+01 3.753567e+01 4.248243e+01 2.521225e+01 3.288202e+01 2.952380e+01 2.653366e+01 2.952416e+01 1.997187e+01 1.069964e+01 1.259932e+00 7.425823e+00 2.573223e+00 2.846657e+00 3.170792e+00 3.973914e+00 2.280473e+00 3.575314e+00 2.252532e+00 2.772144e+00 1.762555e+00 2.202166e+00 1.145248e+00 1.507740e-01 8.073152e-01 4.829754e-01 7.326362e-01 5.757743e-01 7.501017e-01 5.577316e-01 9.732342e-01 4.617024e-01 6.593545e-01 5.295485e-01 6.243780e-01 2.229425e-01
<GCONST> 1.176906e+02
<TRANSP> 5
 0.000000e+00 1.000000e+00 0.000000e+00 0.000000e+00 0.000000e+00
 0.000000e+00 5.881762e-01 4.118238e-01 0.000000e+00 0.000000e+00
 0.000000e+00 0.000000e+00 3.709808e-01 6.290193e-01 0.000000e+00
 0.000000e+00 0.000000e+00 0.000000e+00 5.441905e-01 4.558095e-01
 0.000000e+00 0.000000e+00 0.000000e+00 0.000000e+00 0.000000e+00
<ENDHMM>
~h "h"
<BEGINHMM>
<NUMSTATES> 5
<STATE> 2
<MEAN> 39
 8.158695e+00 -1.817772e+01 -3.343660e+00 1.225803e+01 -2.020258e+01 1.988433e+01 -1.660050e-01 -2.044267e+00 8.841896e+00 -6.322988e+00 -3.066350e+00 4.921959e+00 7.210237e+01 -1.449667e-01 -6.764526e-01 -5.770822e-01 -5.312267e-01 -5.822442e-01 -6.001812e-01 6.799103e-01 1.136811e+00 5.856984e-01 3.493297e-01 -4.362984e-03 2.601894e-02 7.902338e-02 1.440749e-01 4.804940e-02 5.665158e-02 6.208032e-02 -1.886931e-02 -1.348853e-01 -2.623352e-01 -2.329015e-01 2.320595e-04 -1.886948e-01 -5.384912e-02 -1.873857e-01 1.910761e-01
<VARIANCE> 39
 1.906582e+01 1.879743e+01 2.369877e+01 3.255521e+01 4.141833e+01 4.541742e+01 2.864365e+01 3.173168e+01 2.773987e+01 2.772569e+01 2.704626e+01 2.063110e+01 4.068900e+01 3.275340e-01 1.029023e+00 1.302652e+00 1.474670e+00 1.175344e+00 1.815395e+00 2.273429e+00 2.288095e+00 2.398041e+00 1.551724e+00 1.297943e+00 1.882160e+00 5.921898e-01 4.417005e-02 1.899897e-01 2.301238e-01 2.368551e-01 1.698937e-01 4.614578e-01 4.681431e-01 3.538658e-01 4.236704e-01 3.049153e-01 2.882783e-01 3.480672e-01 8.631656e-02
<GCONST> 1.000609e+02
<STATE> 3
<MEAN> 39
 1.157443e+01 -2.091046e+01 -3.705857e+00 9.830658e+00 -2.391739e+01 1.737374e+01 6.828764e-01 1.242436e+00 1.258511e+01 -8.879785e+00 -1.425143e+00 4.249305e+00 7.781944e+01 6.779944e-01 3.217924e-01 3.365676e-01 1.627081e-01 1.654845e-01 -5.644137e-01 -7.571391e-01 -3.391457e-01 7.429907e-01 -4.846279e-01 1.792094e-01 -2.873380e-01 1.065180e+00 1.262855e-01 2.267918e-01 -7.439363e-02 4.719830e-02 2.558751e-01 -1.999957e-01 -3.270198e-01 -4.907630e-01 -2.797473e-01 -2.270525e-01 -4.284415e-02 3.030543e-03 1.823892e-01
<VARIANCE> 39
 8.878775e+00 1.801002e+01 3.466836e+01 3.130419e+01 4.146954e+01 5.027359e+01 3.287281e+01 3.559039e+01 1.498823e+01 3.255883e+01 1.936637e+01 1.813814e+01 1.682594e+01 8.051779e-01 1.861248e+00 1.351289e+00 1.501526e+00 2.379760e+00 3.090804e+00 1.941377e+00 1.817210e+00 1.677812e+00 1.694860e+00 5.299525e-01 7.409577e-01 8.572073e-01 9.442392e-02 3.448277e-01 3.554570e-01 4.053762e-01 3.681212e-01 4.821019e-01 2.968893e-01 2.430177e-01 2.235916e-01 3.397771e-01 2.197833e-01 2.523588e-01 1.337200e-01
<GCONST> 1.004465e+02
<STATE> 4
<MEAN> 39
 1.433908e+01 -1.862732e+01 -5.105885e+00 7.906334e+00 -2.367641e+01 1.301175e+01 -2.534808e+00 9.943190e-01 1.471709e+01 -1.279103e+01 -2.775925e+00 3.384269e+00 8.156251e+01 1.038104e-01 3.153712e-02 -7.668117e-02 -4.917620e-02 -5.923844e-02 -2.114481e-01 -3.126153e-01 -4.912274e-01 -1.592423e-01 -6.914428e-02 -1.598313e-02 -2.436367e-01 2.122439e-01 -2.784755e-02 7.046790e-03 -5.996007e-03 1.127523e-01 9.293091e-02 6.639509e-02 -6.674930e-02 -1.093017e-01 -1.430673e-01 -3.595541e-02 1.688828e-02 3.652808e-02 -8.742888e-02
<VARIANCE> 39
 6.458630e+00 9.322906e+00 1.541906e+01 2.066919e+01 2.908991e+01 4.112740e+01 1.574927e+01 3.895119e+01 1.661514e+01 2.631037e+01 1.666316e+01 1.509802e+01 9.495901e+00 3.125476e-01 8.674586e-01 9.225338e-01 1.331654e+00 1.966410e+00 2.570892e+00 1.337411e+00 1.208793e+00 1.132069e+00 1.300475e+00 1.134687e+00 8.875260e-01 7.982674e-01 5.344376e-02 1.234533e-01 1.077441e-01 2.089891e-01 3.175627e-01 3.373766e-01 2.328702e-01 1.294414e-01 1.699219e-01 2.198510e-01 1.462023e-01 1.824297e-01 9.401572e-02
<GCONST> 8.624873e+01
<TRANSP> 5
 0.000000e+00 1.000000e+00 0.000000e+00 0.000000e+00 0.000000e+00
 0.000000e+00 6.760507e-01 3.239493e-01 0.000000e+00 0.000000e+00
 0.000000e+00 0.000000e+00 4.662404e-01 5.337597e-01 0.000000e+00
 0.000000e+00 0.000000e+00 0.000000e+00 7.625893e-01 2.374108e-01
 0.000000e+00 0.000000e+00 0.000000e+00 0.000000e+00 0.000000e+00
<ENDHMM>
~h "i"
<BEGINHMM>
<NUMSTATES> 5
<STATE> 2
<MEAN> 39
 9.239620e+00 -1.972748e+01 5.395732e+00 2.206964e+01 -1.173979e+01 2.136622e+01 -8.715163e+00 -1.076345e+01 6.229444e+00 -1.062020e+01 -3.511780e+00 -2.337704e-01 7.659750e+01 1.435744e+00 5.191308e-01 -6.705582e-01 1.144826e+00 1.581991e+00 -1.427114e-01 -1.654394e+00 -1.076638e+00 6.122253e-01 -1.033234e+00 -1.318748e-01 -1.132301e+00 1.148081e+00 -1.818281e-01 8.471922e-02 -5.808361e-02 -1.745608e-01 -6.072449e-02 -1.880963e-01 -6.551256e-02 8.229992e-02 9.724603e-02 2.233512e-01 9.275364e-02 8.567335e-02 -1.285725e-01
<VARIANCE> 39
 1.766591e+01 2.927341e+01 4.111997e+01 3.316789e+01 4.074982e+01 3.659389e+01 2.673546e+01 2.364009e+01 2.715215e+01 2.787805e+01 1.444369e+01 2.358521e+01 1.351153e+01 2.731697e+00 8.292167e+00 3.535382e+00 3.318237e+00 3.681989e+00 3.601796e+00 2.806420e+00 2.617811e+00 2.173632e+00 2.668082e+00 1.689121e+00 2.394305e+00 1.729937e+00 3.610694e-01 9.729812e-01 5.191950e-01 5.568683e-01 7.458632e-01 6.653429e-01 4.163932e-01 3.563165e-01 3.706283e-01 5.085493e-01 2.953984e-01 3.255754e-01 2.243244e-01
<GCONST> 1.174276e+02
<STATE> 3
<MEAN> 39
 1.184626e+01 -1.920733e+01 3.070012e+00 2.430663e+01 -8.186996e+00 1.950374e+01 -1.360584e+01 -1.276535e+01 8.562792e+00 -1.256485e+01 -3.616454e+00 -2.716409e+00 7.922520e+01 1.896580e-01 4.040481e-01 -1.420434e-01 1.213745e-01 3.724004e-01 -2.370009e-01 -4.577767e-01 -2.108938e-01 2.625115e-01 3.264056e-01 1.817426e-01 -2.527051e-01 6.084094e-02 -4.523442e-01 1.654177e-01 3.055766e-01 -3.296914e-01 -5.152231e-01 2.065676e-01 8.217513e-01 3.866928e-01 -2.937958e-01 5.870390e-01 1.347281e-01 4.215341e-01 -5.668858e-01
<VARIANCE> 39
 6.778615e+00 1.289483e+01 3.039514e+01 2.085059e+01 2.890635e+01 3.082152e+01 2.108561e+01 2.360796e+01 2.587733e+01 2.401618e+01 1.448438e+01 2.244484e+01 8.056935e+00 1.071193e+00 2.756048e+00 2.717740e+00 1.892318e+00 2.548141e+00 2.819160e+00 2.884485e+00 1.795238e+00 2.383159e+00 2.035335e+00 1.368671e+00 1.694056e+00 1.168239e+00 2.014545e-01 7.153401e-01 4.276574e-01 3.450253e-01 5.273297e-01 5.178725e-01 3.884151e-01 3.687695e-01 3.681993e-01 3.843774e-01 2.509754e-01 3.213145e-01 1.997503e-01
<GCONST> 1.056410e+02
<STATE> 4
<MEAN> 39
 8.794874e+00 -1.685572e+01 5.326423e+00 2.382742e+01 -1.061798e+01 2.046522e+01 -1.100032e+01 -1.155204e+01 7.921427e+00 -7.760277e+00 -4.138816e+00 -1.891871e+00 7.427318e+01 -4.859447e-01 3.690032e-01 1.182748e-01 -1.410647e-01 -4.240087e-01 2.201539e-01 8.056072e-01 5.077341e-01 -1.803135e-01 6.178015e-01 2.112608e-01 5.897031e-01 -8.212508e-01 -9.451032e-02 -1.010443e-01 -1.474349e-02 -1.105654e-01 -1.093297e-01 9.113366e-03 1.267101e-01 4.725017e-02 -9.246386e-02 -7.177565e-02 -6.309918e-02 7.519122e-02 -2.818097e-02
<VARIANCE> 39
 1.421922e+01 2.839900e+01 3.917009e+01 2.729641e+01 3.021566e+01 2.744561e+01 2.823538e+01 2.347836e+01 3.162086e+01 2.770953e+01 1.928475e+01 3.008871e+01 2.804398e+01 6.719031e-01 2.931123e+00 1.943900e+00 1.402766e+00 1.786109e+00 2.131610e+00 2.068405e+00 1.366496e+00 1.650831e+00 1.992492e+00 1.383712e+00 1.311865e+00 1.012782e+00 1.243478e-01 3.923598e-01 2.840390e-01 2.462191e-01 3.357745e-01 4.174090e-01 3.485890e-01 2.709631e-01 3.334375e-01 3.359290e-01 2.626317e-01 2.473238e-01 1.330618e-01
<GCONST> 1.032541e+02
<TRANSP> 5
 0.000000e+00 1.000000e+00 0.000000e+00 0.000000e+00 0.000000e+00
 0.000000e+00 3.463975e-01 6.536025e-01 0.000000e+00 0.000000e+00
 0.000000e+00 0.000000e+00 5.196291e-01 4.803709e-01 0.000000e+00
 0.000000e+00 0.000000e+00 0.000000e+00 6.291753e-01 3.708247e-01
 0.000000e+00 0.000000e+00 0.000000e+00 0.000000e+00 0.000000e+00
<ENDHMM>
~h "j"
<BEGINHMM>
<NUMSTATES> 5
<STATE> 2
<MEAN> 39
 1.595587e+01 -1.678473e+01 -6.913471e+00 1.544359e+01 -1.124521e+01 1.937976e+01 -1.013707e+01 -6.954405e+00 8.055994e+00 -2.233188e+01 -1.286876e+00 6.240502e+00 8.099081e+01 -3.962850e-01 -1.058693e+00 1.602327e+00 1.868021e+00 -3.587555e-01 1.862798e+00 -9.849647e-02 -7.482647e-01 4.503392e-01 2.339702e-01 5.090678e-01 1.645171e-01 -1.824555e-01 -5.949412e-01 -3.170561e-01 1.158459e+00 -1.106345e-01 -1.399544e-01 -1.325350e-01 4.101886e-01 -2.445579e-02 -2.434750e-01 7.641163e-01 -1.570675e-01 -6.218749e-02 -7.224072e-03
<VARIANCE> 39
 2.076200e+00 6.097527e+00 9.539118e+00 1.668546e+01 1.202821e+01 2.029246e+01 2.037227e+01 8.471685e+00 2.099204e+01 1.578213e+01 4.165568e+01 1.719464e+01 6.001541e+00 6.174958e-01 7.486413e-01 1.653805e+00 1.239987e+00 4.205286e+00 2.172823e+00 1.787682e+00 1.300335e+00 8.261554e-01 2.770460e+00 3.087027e+00 2.731435e+00 4.240169e-01 8.614228e-02 2.629072e-01 3.610571e-01 1.758730e-01 7.891213e-01 8.739046e-01 1.378781e-01 2.755868e-01 2.330564e-01 2.446605e-01 2.913300e-01 2.098496e-01 1.203775e-01
<GCONST> 9.124524e+01
<STATE> 3
<MEAN> 39
 1.054961e+01 -2.039104e+01 5.476586e+00 1.870299e+01 -1.117436e+01 2.123439e+01 -7.035135e+00 -8.333867e+00 6.313428e+00 -1.542538e+01 -9.617327e-01 5.641512e+00 8.073252e+01 -2.534561e+00 -2.312011e+00 5.254099e+00 9.821621e-01 -1.202299e+00 -4.339879e-01 7.656767e-01 3.387206e-01 -5.354730e-01 1.713239e+00 3.404919e-01 7.745966e-01 1.177265e-01 -2.496048e-01 -4.168758e-01 1.350521e-01 -4.346481e-02 -3.244601e-01 -3.387029e-01 -1.261944e-02 3.190687e-01 5.061553e-02 -2.554509e-01 -3.466854e-01 2.370906e-01 4.536822e-02
<VARIANCE> 39
 1.011276e+01 1.273492e+01 4.903489e+01 1.650513e+01 2.918551e+01 2.421069e+01 1.324294e+01 7.474001e+00 1.735576e+01 1.613848e+01 1.659103e+01 6.503084e+00 5.792801e+00 5.717096e-01 1.608767e+00 1.200439e+00 6.875993e-01 2.519811e+00 1.882740e+00 1.576284e+00 1.065259e+00 6.168638e-01 1.621103e+00 1.380682e+00 1.027503e+00 5.152017e-01 1.260323e-01 2.272451e-01 7.612614e-01 3.075581e-01 6.845388e-01 3.487596e-01 3.460624e-01 2.542779e-01 1.484320e-01 2.114891e-01 3.252873e-01 2.835514e-01 1.076980e-01
<GCONST> 9.100527e+01
<STATE> 4
<MEAN> 39
 1.193471e+00 -3.130923e+01 1.838028e+01 2.174578e+01 -1.749475e+01 1.923737e+01 -5.123026e+00 -5.841748e+00 6.044582e+00 -1.066102e+01 -1.676996e+00 8.959109e+00 7.992121e+01 -1.922008e-02 -3.061972e-01 -2.514025e-01 6.242229e-02 -8.442856e-02 3.357058e-02 -3.178055e-01 -2.891519e-01 9.949200e-02 4.808190e-01 -1.045420e-02 -3.473873e-01 -7.603971e-02 6.318804e-01 7.001406e-01 -9.096902e-01 -1.731791e-01 3.003260e-01 2.633826e-02 -1.853352e-01 -2.098725e-01 2.310928e-02 -2.551878e-01 1.576290e-01 -2.762585e-01 4.113067e-02
<VARIANCE> 39
 7.251624e+00 1.469571e+01 1.556230e+01 1.198349e+01 1.287142e+01 2.989927e+01 2.521815e+01 1.367224e+01 1.466063e+01 2.288639e+01 2.535113e+01 1.304756e+01 7.312061e+00 3.194050e+00 4.899981e+00 5.723103e+00 1.957556e+00 2.020662e+00 2.343673e+00 1.768372e+00 1.477116e+00 1.476870e+00 1.908217e+00 1.894847e+00 1.968694e+00 5.035805e-01 2.196834e-01 3.945009e-01 8.359035e-01 3.306246e-01 2.801841e-01 4.496002e-01 3.197869e-01 2.250305e-01 2.521321e-01 3.564160e-01 3.107809e-01 2.991253e-01 9.231122e-02
<GCONST> 1.007228e+02
<TRANSP> 5
 0.000000e+00 1.000000e+00 0.000000e+00 0.000000e+00 0.000000e+00
 0.000000e+00 6.606517e-01 3.393483e-01 0.000000e+00 0.000000e+00
 0.000000e+00 0.000000e+00 6.894556e-01 3.105444e-01 0.000000e+00
 0.000000e+00 0.000000e+00 0.000000e+00 8.712985e-01 1.287016e-01
 0.000000e+00 0.000000e+00 0.000000e+00 0.000000e+00 0.000000e+00
<ENDHMM>
~h "k"
<BEGINHMM>
<NUMSTATES> 5
<STATE> 2
<MEAN> 39
 6.751868e+00 -1.411418e+01 1.845099e+00 2.012341e+01 -1.551953e+01 2.018640e+01 -7.633222e+00 -8.817848e+00 5.546039e+00 -5.166701e+00 -3.889314e+00 2.554758e+00 6.813552e+01 -8.815193e-01 -1.198777e+00 -5.442011e-02 -1.174139e+00 -1.068448e+00 -1.298640e-01 2.536606e-01 4.667738e-01 -4.458205e-01 -4.052852e-01 -5.050445e-01 1.074923e-01 -2.359843e-01 1.167204e-01 -1.036110e+00 8.496527e-02 -6.746147e-01 -3.684784e-01 8.838211e-02 -1.309220e-02 7.334714e-02 5.257941e-02 -6.429281e-01 1.898574e-01 -1.819228e-01 9.291983e-01
<VARIANCE> 39
 9.601079e+00 1.604557e+01 2.498933e+01 3.590177e+01 4.152468e+01 2.224598e+01 2.823662e+01 3.419859e+01 2.570542e+01 2.052081e+01 2.360708e+01 2.166075e+01 6.561251e+00 5.401753e-01 4.805799e+00 1.566212e+00 3.408487e+00 2.714591e+00 2.744095e+00 2.449946e+00 2.227768e+00 1.819328e+00 2.576540e+00 2.057710e+00 1.576146e+00 2.689125e+00 9.380579e-02 4.498728e-01 3.214859e-01 4.994545e-01 4.725880e-01 5.257776e-01 5.241232e-01 5.058923e-01 4.441924e-01 4.077196e-01 4.257329e-01 2.901290e-01 1.967202e-01
<GCONST> 1.085059e+02
<STATE> 3
<MEAN> 39
 4.612059e+00 -2.321351e+01 2.447905e+00 1.116142e+01 -2.168428e+01 1.982771e+01 -5.724939e+00 -4.859260e+00 5.117829e+00 -9.324962e+00 -3.765211e+00 2.055596e+00 7.254565e+01 -3.227478e-01 -3.747839e+00 4.113012e-01 -2.445174e+00 -2.040169e+00 4.148233e-01 2.930323e-01 5.667744e-01 -1.082473e-01 -1.609953e+00 5.515632e-01 -6.345562e-02 2.236293e+00 2.407238e-01 5.558952e-01 4.778914e-02 7.256804e-01 6.290024e-01 -1.100630e-02 -1.038098e-01 -3.691815e-01 1.222021e-01 3.166220e-01 2.011933e-02 6.786603e-02 -4.950788e-02
<VARIANCE> 39
 1.308877e+01 6.171088e+01 3.117917e+01 5.619021e+01 8.375774e+01 6.036324e+01 3.929633e+01 3.706503e+01 3.731066e+01 2.793230e+01 2.508683e+01 2.306907e+01 2.147541e+01 1.459859e+00 4.673228e+00 3.787349e+00 5.244390e+00 5.101747e+00 4.475818e+00 4.652374e+00 4.298998e+00 4.004140e+00 3.475904e+00 3.671565e+00 2.188729e+00 2.151497e+00 1.851410e-01 1.059478e+00 4.517229e-01 7.195970e-01 8.258419e-01 8.395780e-01 5.340255e-01 4.991219e-01 4.452931e-01 4.852487e-01 4.838945e-01 3.097079e-01 4.559455e-01
<GCONST> 1.258886e+02
<STATE> 4
<MEAN> 39
 4.344585e+00 -2.823949e+01 3.410324e+00 1.068880e+01 -2.324882e+01 2.077499e+01 -6.208031e+00 -5.991580e+00 5.135441e+00 -1.085478e+01 -3.089731e+00 3.022097e+00 7.539042e+01 5.267081e-01 5.445750e-01 1.551758e-01 9.224045e-01 1.179410e+00 -5.573461e-02 -1.413732e-01 -4.497244e-01 4.510982e-01 2.517048e-01 -2.064765e-01 -2.796936e-01 4.249896e-01 4.635770e-01 1.396987e+00 -1.538288e-01 8.617764e-01 8.531375e-01 -1.795150e-01 -1.886481e-01 -2.225185e-01 3.247082e-01 2.756648e-01 -1.875199e-01 -2.541270e-01 -2.970097e-01
<VARIANCE> 39
 1.481481e+01 4.591633e+01 4.420519e+01 5.568384e+01 6.874333e+01 4.973234e+01 4.411647e+01 4.078407e+01 4.646625e+01 3.767504e+01 3.305602e+01 2.027535e+01 1.829086e+01 1.894199e+00 6.013303e+00 2.358160e+00 3.698911e+00 4.337543e+00 3.840377e+00 2.105948e+00 2.226780e+00 2.683628e+00 2.417524e+00 2.440393e+00 2.429555e+00 1.763989e+00 2.544646e-01 8.285295e-01 6.623818e-01 8.886914e-01 8.906220e-01 9.107428e-01 6.644443e-01 6.535435e-01 7.653878e-01 7.628015e-01 7.454978e-01 4.451711e-01 4.769674e-01
<GCONST> 1.261848e+02
<TRANSP> 5
 0.000000e+00 1.000000e+00 0.000000e+00 0.000000e+00 0.000000e+00
 0.000000e+00 6.935173e-01 3.064826e-01 0.000000e+00 0.000000e+00
 0.000000e+00 0.000000e+00 3.950418e-01 6.049582e-01 0.000000e+00
 0.000000e+00 0.000000e+00 0.000000e+00 5.775729e-01 4.224270e-01
 0.000000e+00 0.000000e+00 0.000000e+00 0.000000e+00 0.000000e+00
<ENDHMM>
~h "l"
<BEGINHMM>
<NUMSTATES> 5
<STATE> 2
<MEAN> 39
 1.100859e+01 -1.482375e+01 4.005801e+00 1.898878e+01 -1.659272e+01 1.876363e+01 -6.094642e+00 -6.698369e+00 7.753768e+00 -1.162683e+01 -6.512499e+00 -1.197105e+00 7.539805e+01 2.595388e-01 7.442072e-01 1.431868e-01 4.591046e-01 -5.146407e-01 -2.142749e-01 9.247812e-01 4.868914e-01 -8.473542e-02 -1.671330e-01 -6.497069e-01 -3.787536e-01 -2.945414e-01 7.188131e-02 -1.960434e-01 -2.230042e-01 -2.071440e-01 2.764757e-02 -2.561001e-01 -1.587801e-01 -7.359702e-02 3.936069e-02 -1.511758e-01 2.039903e-02 4.712880e-03 2.850469e-01
<VARIANCE> 39
 1.320629e+01 4.552975e+01 3.242271e+01 3.769198e+01 6.925145e+01 4.559633e+01 2.660464e+01 3.543827e+01 4.166297e+01 2.946763e+01 3.235951e+01 4.328760e+01 1.233986e+01 2.003220e+00 2.941506e+00 2.486819e+00 2.019034e+00 3.761286e+00 3.179899e+00 2.466675e+00 2.727321e+00 2.661617e+00 2.885882e+00 2.382020e+00 2.688616e+00 1.333696e+00 1.402103e-01 4.423092e-01 3.949330e-01 4.338332e-01 4.888326e-01 4.485678e-01 3.948527e-01 4.114561e-01 4.275770e-01 5.915518e-01 4.477386e-01 4.074239e-01 2.040606e-01
<GCONST> 1.163757e+02
<STATE> 3
<MEAN> 39
 1.133871e+01 -1.385061e+01 4.269080e+00 1.917021e+01 -1.749607e+01 1.829391e+01 -4.999431e+00 -5.849928e+00 7.853693e+00 -1.221759e+01 -7.452257e+00 -1.685598e+00 7.525449e+01 4.006147e-01 3.061851e-01 -3.345423e-01 2.843719e-02 -4.043474e-01 -5.363820e-01 6.169535e-01 2.426566e-01 -1.253543e-01 -3.934165e-01 -5.787480e-01 -3.832467e-01 2.133587e-01 6.925581e-02 -3.373157e-01 -3.813561e-01 -3.472769e-01 1.692925e-01 -2.002909e-01 -3.873305e-01 -2.215231e-01 4.335079e-02 -8.613732e-02 2.303463e-01 1.482968e-01 3.560169e-01
<VARIANCE> 39
 1.053550e+01 3.818328e+01 2.629885e+01 3.880517e+01 6.287048e+01 4.605861e+01 2.596920e+01 3.439296e+01 4.003225e+01 3.075699e+01 3.501235e+01 5.223878e+01 1.243772e+01 1.676633e+00 3.215686e+00 2.538194e+00 1.702114e+00 3.029334e+00 2.507941e+00 2.052675e+00 2.216547e+00 2.513481e+00 3.261571e+00 1.605772e+00 1.851099e+00 1.419071e+00 2.150952e-01 3.992250e-01 4.563987e-01 4.718081e-01 5.454173e-01 6.189525e-01 3.730183e-01 4.890422e-01 4.297207e-01 5.231037e-01 5.423639e-01 6.129705e-01 2.216547e-01
<GCONST> 1.158722e+02
<STATE> 4
<MEAN> 39
 1.207117e+01 -1.370085e+01 3.392951e+00 1.857515e+01 -1.861353e+01 1.747764e+01 -3.243217e+00 -5.078084e+00 7.534282e+00 -1.320098e+01 -8.816585e+00 -2.903485e+00 7.590910e+01 4.386526e-01 -1.805623e-01 -8.981520e-01 -5.408509e-01 -9.984635e-02 -7.322457e-01 -1.023757e-01 -1.584647e-01 -5.089311e-02 -3.745390e-01 -8.916931e-02 -9.760581e-03 6.301942e-01 -1.433027e-02 -2.908965e-01 -2.628801e-01 -2.851994e-01 2.479004e-01 -2.539836e-02 -4.676889e-01 -2.483456e-01 7.234994e-02 3.641966e-02 4.073790e-01 3.368673e-01 2.265740e-01
<VARIANCE> 39
 8.151956e+00 3.166295e+01 2.081263e+01 3.761875e+01 5.991799e+01 4.111587e+01 3.123614e+01 3.456752e+01 3.599781e+01 2.920983e+01 3.701578e+01 5.318470e+01 1.272440e+01 9.969648e-01 2.748098e+00 3.102370e+00 2.203335e+00 2.599820e+00 2.943007e+00 1.722566e+00 2.299622e+00 2.715535e+00 3.043201e+00 2.174451e+00 2.452447e+00 1.572474e+00 2.048669e-01 3.524548e-01 3.910829e-01 3.926928e-01 5.349845e-01 5.460488e-01 4.059493e-01 3.929914e-01 3.990697e-01 4.787853e-01 3.900311e-01 4.992057e-01 1.891917e-01
<GCONST> 1.138298e+02
<TRANSP> 5
 0.000000e+00 1.000000e+00 0.000000e+00 0.000000e+00 0.000000e+00
 0.000000e+00 7.984620e-02 9.201537e-01 0.000000e+00 0.000000e+00
 0.000000e+00 0.000000e+00 5.184561e-02 9.481543e-01 0.000000e+00
 0.000000e+00 0.000000e+00 0.000000e+00 2.282470e-01 7.717530e-01
 0.000000e+00 0.000000e+00 0.000000e+00 0.000000e+00 0.000000e+00
<ENDHMM>
~h "m"
<BEGINHMM>
<NUMSTATES> 5
<STATE> 2
<MEAN> 39
 1.358875e+01 -9.382783e+00 -5.797116e-01 1.798101e+01 -1.508909e+01 2.139005e+01 -3.594180e+00 -8.291101e+00 8.157420e+00 -8.261786e+00 -4.098211e+00 -1.714425e+00 7.400303e+01 5.174692e-02 1.701596e+00 4.150330e-01 4.069730e-01 2.989841e-01 1.276408e+00 5.613498e-01 -9.136108e-01 -1.312315e-01 1.403845e+00 5.572064e-02 -1.185471e+00 -9.051400e-01 -8.435491e-02 -4.527330e-01 6.244127e-04 -1.737625e-01 -5.136840e-02 -2.291264e-01 -1.681201e-01 -2.388057e-02 -5.808217e-02 -2.180452e-01 1.023168e-01 2.514421e-01 2.986889e-01
<VARIANCE> 39
 5.640555e+00 1.088987e+01 2.320792e+01 1.651996e+01 2.420251e+01 2.180564e+01 1.081801e+01 1.715072e+01 1.695951e+01 1.366996e+01 1.441570e+01 1.844680e+01 6.433654e+00 7.231648e-01 1.150798e+00 1.232322e+00 1.532414e+00 1.576292e+00 1.973661e+00 1.047069e+00 1.470685e+00 1.188119e+00 1.855427e+00 1.047590e+00 1.411618e+00 7.441951e-01 6.986478e-02 1.247254e-01 1.926347e-01 2.290505e-01 2.717880e-01 3.797159e-01 1.664695e-01 2.938001e-01 2.082559e-01 2.620222e-01 1.625056e-01 2.084649e-01 6.928064e-02
<GCONST> 8.691640e+01
<STATE> 3
<MEAN> 39
 1.269736e+01 -6.481273e+00 1.772166e+00 1.916475e+01 -1.473527e+01 2.340776e+01 -2.549147e+00 -1.069939e+01 7.283855e+00 -5.073891e+00 -3.933149e+00 -4.483102e+00 7.226344e+01 3.384538e-03 4.873903e-01 -1.986357e-02 -1.481934e-01 2.241580e-01 1.499786e-01 1.089326e-01 -2.171750e-01 -2.057581e-01 2.147278e-01 7.295118e-02 -5.004109e-02 -1.623727e-01 1.087245e-03 -4.993420e-01 -1.494370e-01 -5.676600e-02 -1.230191e-02 -3.576019e-01 -2.049789e-01 3.851148e-01 9.684795e-02 -5.492755e-01 -1.021505e-01 3.597831e-01 2.456802e-01
<VARIANCE> 39
 4.266161e+00 1.090580e+01 1.303012e+01 1.104592e+01 1.858648e+01 1.404653e+01 7.943574e+00 1.679559e+01 1.494444e+01 1.416598e+01 1.334898e+01 1.324155e+01 7.243189e+00 3.152758e-01 6.071992e-01 7.743369e-01 8.421155e-01 1.121143e+00 1.059896e+00 6.757322e-01 1.103016e+00 7.923107e-01 1.159380e+00 6.774765e-01 7.641929e-01 2.560918e-01 5.742619e-02 2.095061e-01 1.475358e-01 2.516684e-01 2.863609e-01 3.934856e-01 2.160441e-01 2.691068e-01 1.981130e-01 2.630371e-01 1.731247e-01 2.127197e-01 7.984193e-02
<GCONST> 7.762190e+01
<STATE> 4
<MEAN> 39
 1.262542e+01 -7.477381e+00 4.065734e-01 1.696225e+01 -1.504752e+01 2.340414e+01 -1.918887e+00 -9.534663e+00 6.744285e+00 -6.897037e+00 -4.501258e+00 -2.710417e+00 7.260224e+01 3.046036e-02 -1.345486e+00 -5.443165e-01 -2.236920e-01 1.323912e-01 -1.139650e+00 -8.215109e-01 1.031513e+00 3.677274e-01 -1.601452e+00 -2.344542e-01 1.155733e+00 7.386718e-01 -1.385947e-01 -7.479767e-01 9.044798e-02 8.977362e-02 -4.016989e-02 -3.914645e-01 -4.531601e-01 2.382815e-01 2.473104e-01 -3.414438e-01 7.104757e-02 3.605044e-01 2.987510e-01
<VARIANCE> 39
 8.814768e+00 1.254462e+01 1.303136e+01 1.667560e+01 2.517510e+01 1.874915e+01 1.220956e+01 1.874188e+01 1.805879e+01 1.759342e+01 1.611345e+01 1.609096e+01 1.170281e+01 8.336381e-01 2.030511e+00 2.513982e+00 3.037570e+00 2.653788e+00 3.981524e+00 2.285923e+00 2.368492e+00 1.912186e+00 2.522618e+00 1.363284e+00 1.670669e+00 1.101288e+00 1.238434e-01 3.711860e-01 2.871107e-01 3.839669e-01 3.394630e-01 5.752612e-01 3.855524e-01 4.238276e-01 2.875040e-01 4.465757e-01 2.725208e-01 3.889381e-01 1.058891e-01
<GCONST> 1.009601e+02
<TRANSP> 5
 0.000000e+00 1.000000e+00 0.000000e+00 0.000000e+00 0.000000e+00
 0.000000e+00 4.861414e-01 5.138586e-01 0.000000e+00 0.000000e+00
 0.000000e+00 0.000000e+00 6.843753e-01 3.156248e-01 0.000000e+00
 0.000000e+00 0.000000e+00 0.000000e+00 4.984453e-01 5.015547e-01
 0.000000e+00 0.000000e+00 0.000000e+00 0.000000e+00 0.000000e+00
<ENDHMM>
~h "n"
<BEGINHMM>
<NUMSTATES> 5
<STATE> 2
<MEAN> 39
 1.373433e+01 -1.228951e+01 -1.016850e+00 1.771560e+01 -1.409696e+01 1.925009e+01 -5.291068e+00 -7.750092e+00 8.173287e+00 -1.014163e+01 -3.956232e+00 -2.011180e-02 7.615683e+01 -6.655499e-02 1.864540e+00 4.711685e-01 4.688227e-01 1.388429e-01 1.311116e+00 7.037261e-01 -9.170794e-01 -4.132009e-01 1.553720e+00 -2.138844e-01 -1.368118e+00 -1.276456e+00 -5.917884e-02 -1.129944e-01 6.222764e-02 -5.474434e-02 -1.447750e-01 -7.066993e-02 -5.565822e-03 -5.207948e-02 -5.414502e-02 -7.118386e-02 2.292107e-02 2.683058e-02 7.218660e-02
<VARIANCE> 39
 3.237710e+00 1.312682e+01 1.913205e+01 2.446764e+01 3.786564e+01 3.297940e+01 2.932807e+01 2.970745e+01 2.612327e+01 2.528107e+01 2.013024e+01 2.452949e+01 6.766627e+00 2.736723e-01 8.676387e-01 1.241434e+00 1.709218e+00 2.476245e+00 2.272001e+00 2.386422e+00 2.012498e+00 2.121855e+00 1.656403e+00 1.099978e+00 1.541332e+00 4.045547e-01 4.564827e-02 2.352013e-01 1.588470e-01 2.280103e-01 3.411972e-01 4.274625e-01 2.586588e-01 2.600487e-01 3.379170e-01 3.015118e-01 1.742583e-01 2.276139e-01 8.892142e-02
<GCONST> 9.316545e+01
<STATE> 3
<MEAN> 39
 1.352173e+01 -8.039710e+00 7.294050e-01 1.877568e+01 -1.450580e+01 2.274686e+01 -4.261516e+00 -1.135165e+01 7.362520e+00 -6.470683e+00 -4.565850e+00 -3.890485e+00 7.355537e+01 -1.594075e-01 9.685878e-01 3.404999e-01 1.421290e-01 -8.726893e-02 2.943636e-01 3.756394e-01 -3.176018e-01 -2.642500e-01 6.969353e-01 -1.413029e-01 -5.118322e-01 -6.316601e-01 -6.894339e-02 -5.156707e-01 4.831767e-03 6.898215e-03 -9.952541e-02 -3.735314e-01 -1.004298e-01 3.734579e-01 5.397272e-02 -4.079457e-01 6.540529e-02 3.873039e-01 2.419215e-01
<VARIANCE> 39
 1.796732e+00 8.523166e+00 9.513402e+00 1.025554e+01 1.690403e+01 1.778404e+01 1.440187e+01 1.839660e+01 1.587987e+01 1.337645e+01 1.377727e+01 1.587546e+01 3.682265e+00 1.648735e-01 6.883022e-01 6.606403e-01 8.734781e-01 1.376948e+00 1.323168e+00 1.243603e+00 1.159615e+00 1.204290e+00 1.055185e+00 7.096820e-01 9.310855e-01 2.555659e-01 3.815930e-02 2.452028e-01 1.618861e-01 1.981040e-01 2.542603e-01 2.766522e-01 2.675393e-01 2.535426e-01 2.440820e-01 2.552120e-01 1.678844e-01 1.990826e-01 1.022452e-01
<GCONST> 7.711142e+01
<STATE> 4
<MEAN> 39
 1.237584e+01 -8.144379e+00 1.820070e+00 1.936205e+01 -1.548429e+01 2.116661e+01 -3.164355e+00 -9.168445e+00 6.462292e+00 -6.998802e+00 -4.829056e+00 -2.496011e+00 7.247733e+01 -3.783572e-01 -1.023297e+00 2.545356e-01 4.264966e-01 -3.333129e-01 -5.840817e-01 1.435710e-01 8.778191e-01 -1.081310e-01 -6.162769e-01 1.860306e-01 8.051822e-01 9.790507e-02 -6.565396e-02 -6.330438e-01 -7.040054e-02 -1.361803e-01 1.603415e-02 -2.034993e-01 -3.102933e-01 2.168364e-01 2.153724e-01 -3.623878e-01 8.069593e-02 3.954631e-01 3.108905e-01
<VARIANCE> 39
 4.053770e+00 1.800501e+01 1.385492e+01 1.681851e+01 1.974812e+01 1.938914e+01 1.692421e+01 2.372645e+01 1.888670e+01 1.944264e+01 1.791490e+01 2.054891e+01 8.458668e+00 5.259927e-01 2.370978e+00 1.850615e+00 1.445021e+00 1.574330e+00 1.981941e+00 1.821924e+00 1.771314e+00 1.799944e+00 2.319645e+00 1.356960e+00 1.523505e+00 1.159255e+00 7.691530e-02 4.541435e-01 2.715790e-01 2.820988e-01 3.251123e-01 3.896784e-01 4.148887e-01 3.725143e-01 2.991396e-01 3.944519e-01 2.429869e-01 3.260293e-01 1.584479e-01
<GCONST> 9.675690e+01
<TRANSP> 5
 0.000000e+00 1.000000e+00 0.000000e+00 0.000000e+00 0.000000e+00
 0.000000e+00 3.779000e-01 6.221000e-01 0.000000e+00 0.000000e+00
 0.000000e+00 0.000000e+00 6.322331e-01 3.677669e-01 0.000000e+00
 0.000000e+00 0.000000e+00 0.000000e+00 5.134285e-01 4.865715e-01
 0.000000e+00 0.000000e+00 0.000000e+00 0.000000e+00 0.000000e+00
<ENDHMM>
~h "o"
<BEGINHMM>
<NUMSTATES> 5
<STATE> 2
<MEAN> 39
 8.828719e+00 -1.790618e+01 7.642847e-01 1.232892e+01 -2.137830e+01 1.662931e+01 -5.489289e+00 -2.995593e+00 1.025807e+01 -1.202215e+01 -8.994438e+00 2.321983e+00 7.428711e+01 1.773209e+00 1.772191e+00 -5.040653e-01 -4.101609e-02 -1.373246e+00 -1.645553e+00 -3.305024e-01 9.611027e-01 1.700239e+00 -8.956569e-01 -9.902632e-01 -1.799533e+00 7.808901e-01 7.531209e-02 1.831889e-01 2.128187e-01 1.423730e-01 -1.532239e-01 -4.594378e-01 -3.681115e-01 3.813705e-02 4.014196e-01 1.780200e-01 2.260663e-01 -2.018777e-01 1.820876e-01
<VARIANCE> 39
 2.658003e+01 6.185169e+01 2.665566e+01 2.815364e+01 4.749644e+01 3.921455e+01 3.225922e+01 3.726330e+01 3.032063e+01 4.780070e+01 2.286887e+01 3.166858e+01 3.531778e+01 2.862060e+00 7.124325e+00 3.107076e+00 3.673478e+00 3.934841e+00 3.527831e+00 2.890886e+00 2.717274e+00 3.929986e+00 3.743706e+00 2.712902e+00 4.465703e+00 1.555732e+00 2.794052e-01 6.876063e-01 4.627858e-01 4.347794e-01 5.268919e-01 6.478625e-01 6.043530e-01 4.528780e-01 7.631928e-01 6.376925e-01 4.448167e-01 6.447186e-01 2.304307e-01
<GCONST> 1.244588e+02
<STATE> 3
<MEAN> 39
 1.518394e+01 -1.424208e+01 -5.925199e-01 1.256282e+01 -2.434539e+01 1.130318e+01 -7.541904e+00 -9.666643e-01 1.551748e+01 -1.648845e+01 -1.128405e+01 -4.748638e+00 7.984954e+01 9.480971e-01 1.361406e+00 -3.051116e-01 3.015399e-03 -1.217207e+00 -2.607449e+00 -8.606073e-01 9.375898e-01 1.855391e+00 5.171617e-01 3.865065e-02 -1.242781e+00 5.229417e-01 -6.210436e-01 -4.331656e-01 2.178855e-01 9.505525e-02 4.875758e-01 1.986904e-01 7.480027e-02 -2.334412e-01 -5.180124e-01 6.589370e-01 5.061912e-01 7.578720e-01 -3.695839e-01
<VARIANCE> 39
 2.637659e+00 1.421067e+01 2.116018e+01 1.436245e+01 4.362150e+01 3.880769e+01 2.179982e+01 2.328831e+01 3.462159e+01 4.035393e+01 1.846354e+01 1.899696e+01 7.244934e+00 1.297686e+00 2.458107e+00 1.736012e+00 1.998308e+00 3.951387e+00 3.111170e+00 2.061828e+00 1.728228e+00 2.730794e+00 3.687937e+00 1.874086e+00 2.812210e+00 8.596966e-01 2.087720e-01 5.718469e-01 3.276492e-01 4.215495e-01 4.763792e-01 6.032870e-01 4.375360e-01 2.471839e-01 5.122428e-01 6.464815e-01 3.817343e-01 3.807057e-01 1.414229e-01
<GCONST> 1.072025e+02
<STATE> 4
<MEAN> 39
 1.452244e+01 -1.092253e+01 3.853322e-01 1.389246e+01 -2.614425e+01 3.777432e+00 -9.075581e+00 1.288341e+00 1.682405e+01 -1.127164e+01 -8.834618e+00 -3.096228e+00 7.748311e+01 -2.298810e-01 3.891646e-01 2.303278e-01 5.139366e-01 3.526950e-01 2.936236e-01 2.681929e-01 9.941609e-03 -2.122574e-01 5.254102e-01 1.646795e-01 2.504111e-01 -5.945389e-01 -1.230211e-01 -1.085019e-01 5.763371e-02 6.258532e-02 2.014018e-01 5.791759e-01 1.341449e-01 -2.725964e-01 -2.988332e-01 -4.437019e-02 -1.528311e-02 1.018163e-01 -1.431370e-01
<VARIANCE> 39
 2.928430e+00 1.529523e+01 1.834380e+01 2.177085e+01 3.901276e+01 5.101315e+01 2.158754e+01 1.951691e+01 2.174518e+01 3.069679e+01 2.211673e+01 2.291110e+01 1.088714e+01 2.898289e-01 1.119655e+00 1.173576e+00 1.488614e+00 2.485549e+00 4.894805e+00 2.223874e+00 1.957874e+00 2.083511e+00 2.459797e+00 1.783061e+00 1.696289e+00 8.141670e-01 7.140242e-02 2.330800e-01 2.033648e-01 3.077373e-01 4.005723e-01 5.375491e-01 3.908000e-01 3.128384e-01 4.236082e-01 4.264643e-01 2.931863e-01 3.290752e-01 1.220884e-01
<GCONST> 9.950819e+01
<TRANSP> 5
 0.000000e+00 1.000000e+00 0.000000e+00 0.000000e+00 0.000000e+00
 0.000000e+00 5.152537e-01 4.847463e-01 0.000000e+00 0.000000e+00
 0.000000e+00 0.000000e+00 5.269750e-01 4.730251e-01 0.000000e+00
 0.000000e+00 0.000000e+00 0.000000e+00 8.042142e-01 1.957858e-01
 0.000000e+00 0.000000e+00 0.000000e+00 0.000000e+00 0.000000e+00
<ENDHMM>
~h "p"
<BEGINHMM>
<NUMSTATES> 5
<STATE> 2
<MEAN> 39
 7.837307e+00 -1.122450e+01 1.487020e+00 1.814887e+01 -1.978534e+01 1.675388e+01 -5.893237e+00 -5.014653e+00 8.943127e+00 -3.216531e+00 -2.864064e+00 4.643999e+00 6.770866e+01 -8.935937e-01 -2.915242e-01 -1.587350e-01 -2.620794e-01 -2.457668e-01 -6.126187e-02 -2.059616e-02 -2.460268e-01 -7.011809e-01 3.200665e-01 -4.329412e-01 -2.593737e-02 -9.337984e-01 1.856085e-01 -6.381769e-01 -9.140664e-02 -2.774170e-01 -1.475023e-02 2.183980e-01 -8.296648e-02 5.858789e-02 1.149563e-01 -6.753687e-01 -2.605892e-01 -3.926710e-01 6.130258e-01
<VARIANCE> 39
 1.005921e+01 1.598974e+01 8.022857e+00 1.080824e+01 2.901957e+01 2.086336e+01 1.300475e+01 2.990994e+01 2.648029e+01 1.223294e+01 2.000959e+01 1.249144e+01 6.688793e+00 1.655765e-01 1.821029e+00 3.292094e-01 8.107362e-01 1.061276e+00 1.659612e+00 1.131796e+00 1.483117e+00 1.500770e+00 2.742721e+00 1.671593e+00 1.562226e+00 9.988328e-01 2.796334e-02 2.307835e-01 1.122232e-01 1.047257e-01 2.126191e-01 2.533831e-01 1.749634e-01 3.141548e-01 2.402533e-01 2.787439e-01 3.579422e-01 3.188403e-01 8.982246e-02
<GCONST> 8.513693e+01
<STATE> 3
<MEAN> 39
 5.751650e+00 -1.758438e+01 -9.245011e-01 1.529208e+01 -2.058113e+01 1.784671e+01 -5.972664e+00 -5.030174e+00 5.185982e+00 -8.655149e+00 -5.371639e+00 2.829732e+00 6.841544e+01 5.295584e-02 -2.553380e+00 -4.591937e-01 -1.059125e+00 -9.923385e-01 5.781871e-01 2.784749e-01 8.533394e-01 4.319639e-01 -1.470213e+00 -6.701969e-01 -2.815690e-01 1.228100e+00 2.417112e-01 2.258514e-01 4.498434e-01 1.688120e-01 3.981922e-02 -8.120850e-02 2.383206e-01 4.396977e-02 2.613306e-01 1.692361e-01 -8.878595e-02 -1.429371e-01 3.301188e-01
<VARIANCE> 39
 1.505926e+01 4.970898e+01 1.010159e+01 1.925512e+01 3.906641e+01 1.873939e+01 1.202625e+01 2.567616e+01 1.800953e+01 5.638660e+01 1.306211e+01 6.007057e+00 2.454786e+01 4.440711e-01 5.003926e+00 1.058072e+00 7.351030e-01 3.100503e+00 1.519403e+00 1.491422e+00 2.041249e+00 2.730220e+00 3.214271e+00 1.127305e+00 1.109602e+00 1.976627e+00 2.252858e-01 1.645028e+00 2.084506e-01 5.285602e-01 4.820488e-01 5.020838e-01 4.238649e-01 5.415131e-01 2.044427e-01 9.771893e-01 3.492399e-01 3.719066e-01 5.749490e-01
<GCONST> 1.063745e+02
<STATE> 4
<MEAN> 39
 4.713295e+00 -2.110560e+01 3.584512e-01 1.396145e+01 -2.194612e+01 1.834286e+01 -6.722009e+00 -4.832054e+00 7.754388e+00 -7.927141e+00 -6.995417e+00 3.347533e+00 6.974123e+01 4.769208e-01 -9.362648e-01 1.485141e+00 -5.185293e-01 -4.935910e-01 5.420724e-01 4.466655e-01 4.745552e-01 4.214737e-01 -9.151869e-01 -7.267625e-01 -6.855392e-01 1.523615e+00 3.281906e-01 6.793825e-01 2.866077e-01 2.389341e-01 1.656038e-01 -5.672959e-01 1.658033e-01 1.490829e-01 6.217625e-02 5.170843e-02 1.900576e-01 -2.131619e-01 2.798548e-01
<VARIANCE> 39
 1.246366e+01 4.046977e+01 2.008383e+01 2.564413e+01 4.726931e+01 2.103922e+01 3.024747e+01 1.784501e+01 1.664946e+01 1.879881e+01 2.637557e+01 1.584342e+01 2.257926e+01 2.185058e+00 6.654080e+00 2.264819e+00 4.250393e+00 2.979638e+00 2.329143e+00 3.099815e+00 2.284245e+00 2.167231e+00 4.673425e+00 1.694852e+00 2.020619e+00 3.169579e+00 2.153354e-01 1.830862e+00 5.470530e-01 4.319849e-01 3.780885e-01 5.971433e-01 4.534912e-01 3.981246e-01 6.209041e-01 6.298303e-01 4.572546e-01 3.012149e-01 4.459942e-01
<GCONST> 1.164705e+02
<TRANSP> 5
 0.000000e+00 1.000000e+00 0.000000e+00 0.000000e+00 0.000000e+00
 0.000000e+00 7.299061e-01 2.700939e-01 0.000000e+00 0.000000e+00
 0.000000e+00 0.000000e+00 4.446035e-01 5.553966e-01 0.000000e+00
 0.000000e+00 0.000000e+00 0.000000e+00 3.675952e-01 6.324049e-01
 0.000000e+00 0.000000e+00 0.000000e+00 0.000000e+00 0.000000e+00
<ENDHMM>
~h "r"
<BEGINHMM>
<NUMSTATES> 5
<STATE> 2
<MEAN> 39
 9.518801e+00 -2.210645e+01 -2.360405e+00 1.669830e+01 -1.331263e+01 1.874145e+01 -5.722588e+00 -7.926047e+00 3.784646e+00 -1.295085e+01 -2.216339e+00 6.092361e+00 7.722124e+01 -3.884878e-01 -3.761182e-01 -8.275503e-02 1.504997e-01 2.061823e-02 6.330509e-02 4.061462e-01 -5.993495e-02 -8.870476e-01 -6.359793e-02 -8.267897e-02 3.033903e-01 -4.136948e-01 8.690107e-02 3.471658e-01 -6.065138e-02 -3.701650e-02 -3.976975e-02 -5.566358e-02 -1.846029e-01 -5.009870e-02 1.334782e-01 4.365952e-02 -1.242760e-01 -1.657190e-01 -1.315233e-01
<VARIANCE> 39
 4.062016e+01 7.989509e+01 5.268088e+01 5.498178e+01 4.788350e+01 5.751991e+01 3.682751e+01 3.355714e+01 3.242515e+01 3.936467e+01 4.509338e+01 3.776845e+01 1.707405e+01 8.504615e-01 3.540167e+00 3.219374e+00 2.412931e+00 3.419020e+00 3.652663e+00 2.284641e+00 1.941326e+00 2.052436e+00 2.405286e+00 1.969425e+00 1.533787e+00 1.046117e+00 1.719118e-01 6.431147e-01 5.749367e-01 4.050696e-01 6.177403e-01 7.928299e-01 4.862186e-01 3.816627e-01 4.163749e-01 4.640051e-01 4.025348e-01 2.953811e-01 1.759040e-01
<GCONST> 1.185485e+02
<STATE> 3
<MEAN> 39
 1.189107e+01 -1.737626e+01 -3.207026e+00 1.842614e+01 -1.140677e+01 1.814122e+01 -5.903670e+00 -8.643036e+00 1.697057e+00 -1.412182e+01 -3.113172e+00 4.451942e+00 7.636580e+01 -2.688158e-01 6.077901e-01 4.278314e-01 5.086161e-01 -1.825684e-01 4.531423e-01 2.113107e-01 -6.431879e-02 -1.400095e-01 4.712431e-01 -4.070076e-01 -1.780461e-01 -9.631353e-01 3.195705e-02 1.000510e-01 -2.636304e-02 -9.826940e-02 -8.664170e-02 -9.956414e-02 -2.237588e-01 2.549724e-02 3.684451e-01 8.216767e-02 -1.323234e-02 -1.410629e-01 5.251430e-02
<VARIANCE> 39
 1.911554e+01 4.425530e+01 4.641516e+01 4.499142e+01 4.509012e+01 4.241720e+01 3.011389e+01 3.220865e+01 2.802948e+01 3.548192e+01 3.478797e+01 3.055211e+01 1.093197e+01 4.500034e-01 1.679959e+00 2.668532e+00 1.854000e+00 3.525025e+00 2.869996e+00 1.886921e+00 1.662420e+00 1.816892e+00 1.713705e+00 1.665726e+00 1.390159e+00 7.387757e-01 1.136521e-01 3.767591e-01 5.012574e-01 2.914165e-01 6.970434e-01 6.456693e-01 4.877436e-01 4.123947e-01 3.716999e-01 3.755669e-01 3.082693e-01 3.194770e-01 1.661677e-01
<GCONST> 1.096491e+02
<STATE> 4
<MEAN> 39
 6.018909e+00 -2.085244e+01 -4.755954e+00 1.587006e+01 -1.549308e+01 1.990715e+01 -4.861713e+00 -8.161454e+00 2.395250e+00 -1.008151e+01 -4.308354e+00 6.008440e+00 7.058241e+01 -1.831063e-01 8.433359e-01 -1.439200e-01 -1.256261e-01 -2.920930e-01 -3.855346e-01 -1.424910e-01 2.235938e-01 3.627980e-01 4.958464e-01 -2.506625e-01 -3.850667e-01 -7.010916e-01 2.053800e-02 -5.403539e-02 4.968977e-02 -2.627322e-02 1.888053e-02 -9.555437e-02 -1.549307e-01 4.064660e-02 1.978018e-01 -4.255351e-02 5.808479e-02 -6.452651e-02 1.502931e-01
<VARIANCE> 39
 3.646295e+01 6.444849e+01 3.796855e+01 3.271988e+01 3.546157e+01 2.548688e+01 2.445640e+01 2.410570e+01 2.485275e+01 3.312720e+01 2.815234e+01 3.617633e+01 2.931277e+01 4.662836e-01 1.911305e+00 1.987642e+00 1.390443e+00 2.103451e+00 1.980278e+00 1.573539e+00 1.409944e+00 1.752877e+00 1.908376e+00 1.390422e+00 1.518986e+00 7.152168e-01 8.982492e-02 2.411333e-01 3.704754e-01 2.221494e-01 4.201017e-01 3.787700e-01 3.335555e-01 2.757486e-01 3.491795e-01 3.352437e-01 2.613002e-01 2.869467e-01 1.030441e-01
<GCONST> 1.039504e+02
<TRANSP> 5
 0.000000e+00 1.000000e+00 0.000000e+00 0.000000e+00 0.000000e+00
 0.000000e+00 4.480253e-01 5.519747e-01 0.000000e+00 0.000000e+00
 0.000000e+00 0.000000e+00 3.571554e-01 6.428446e-01 0.000000e+00
 0.000000e+00 0.000000e+00 0.000000e+00 5.402923e-01 4.597077e-01
 0.000000e+00 0.000000e+00 0.000000e+00 0.000000e+00 0.000000e+00
<ENDHMM>
~h "s"
<BEGINHMM>
<NUMSTATES> 5
<STATE> 2
<MEAN> 39
 3.860903e+00 -2.259208e+01 1.221899e+01 1.211914e+01 -1.763626e+01 2.371624e+01 -2.068395e+00 -4.965902e+00 6.740422e+00 -9.622439e+00 -1.629021e+00 5.009794e+00 7.738305e+01 -3.460342e+00 -2.942822e+00 5.206740e+00 -1.783475e+00 -8.140253e-01 8.942766e-01 5.453699e-01 4.983360e-01 -3.531845e-01 2.186956e-01 7.196294e-01 1.292986e+00 7.592896e-01 -2.467903e-01 -2.026053e-01 -2.095791e-02 -3.409359e-01 -1.941581e-01 -3.907960e-01 -4.387932e-01 -1.001340e-01 1.423186e-01 -4.666208e-01 -1.882289e-01 -8.258530e-02 1.776239e-01
<VARIANCE> 39
 4.424995e+01 5.413559e+01 7.712901e+01 3.549989e+01 4.737550e+01 4.336055e+01 3.639000e+01 6.110193e+01 3.343977e+01 3.981649e+01 2.273351e+01 2.386388e+01 1.817717e+01 1.432836e+00 2.025000e+00 3.197453e+00 2.324813e+00 2.808630e+00 3.506857e+00 3.424689e+00 2.885753e+00 2.346267e+00 4.249659e+00 2.174281e+00 2.265774e+00 6.510763e-01 4.323361e-01 7.393857e-01 1.319996e+00 3.783405e-01 4.426112e-01 5.149385e-01 5.194544e-01 4.098777e-01 4.065470e-01 5.961934e-01 3.453011e-01 4.267887e-01 1.707473e-01
<GCONST> 1.202530e+02
<STATE> 3
<MEAN> 39
 -8.051440e+00 -3.247283e+01 2.421856e+01 3.566278e+00 -2.096603e+01 2.411250e+01 -4.629827e+00 -5.629428e+00 7.583405e+00 -1.182682e+01 -1.704300e+00 6.916483e+00 8.018143e+01 -7.524140e-01 -9.744090e-01 -3.068744e-01 -7.448516e-01 -2.927141e-01 -3.010228e-01 -4.876072e-01 -1.698895e-01 1.402734e-01 -5.140602e-03 -1.412624e-01 1.436633e-01 -1.401884e-03 7.133058e-01 3.776858e-01 -1.022742e+00 4.414042e-01 2.065451e-01 -8.949595e-02 3.569640e-02 -7.014587e-02 -6.338255e-02 1.976091e-01 -9.153814e-02 -1.190336e-01 -1.943952e-01
<VARIANCE> 39
 1.340098e+01 2.068503e+01 1.911382e+01 3.093506e+01 2.788881e+01 3.696300e+01 2.954710e+01 4.925454e+01 2.726147e+01 3.097845e+01 1.783306e+01 1.651883e+01 4.784163e+00 2.216051e+00 9.128653e-01 5.087533e+00 1.853793e+00 1.506252e+00 1.526010e+00 2.226956e+00 1.616400e+00 1.705532e+00 1.903830e+00 1.471583e+00 1.103358e+00 3.444306e-01 1.837327e-01 2.839417e-01 5.045790e-01 2.509276e-01 2.664810e-01 3.303739e-01 3.983391e-01 3.354332e-01 3.034828e-01 3.080136e-01 3.013205e-01 2.699217e-01 4.669571e-02
<GCONST> 1.001473e+02
<STATE> 4
<MEAN> 39
 -3.433460e+00 -3.232971e+01 1.310112e+01 5.393274e+00 -2.011972e+01 2.314610e+01 -5.263207e+00 -6.492656e+00 7.135195e+00 -9.148665e+00 -3.056912e+00 7.091917e+00 7.749870e+01 2.943475e+00 2.630695e+00 -2.606330e+00 1.591457e+00 4.907940e-01 1.317063e-01 -2.316168e-01 -1.313205e-01 8.792602e-02 -3.626667e-01 -6.032995e-01 -9.297137e-01 -6.322022e-01 5.292140e-01 8.318841e-01 2.139070e-01 2.715492e-01 -4.829786e-02 1.992941e-02 -1.726635e-01 1.185990e-02 2.478844e-01 -5.230696e-01 -1.969791e-02 -4.308607e-01 2.469651e-01
<VARIANCE> 39
 2.458218e+01 3.914333e+01 3.631470e+01 2.575931e+01 3.448073e+01 3.461177e+01 4.452323e+01 4.639044e+01 2.303905e+01 3.423625e+01 1.956159e+01 1.972502e+01 1.242175e+01 2.865613e+00 4.631851e+00 3.386550e+00 1.962498e+00 2.599242e+00 3.000504e+00 2.651143e+00 2.929006e+00 2.369051e+00 2.782094e+00 1.566091e+00 2.418894e+00 1.284121e+00 4.098081e-01 8.078270e-01 4.746259e-01 3.500372e-01 4.307778e-01 5.323848e-01 5.933267e-01 4.667347e-01 4.546902e-01 4.266491e-01 3.231589e-01 3.900492e-01 2.388884e-01
<GCONST> 1.165019e+02
<TRANSP> 5
 0.000000e+00 1.000000e+00 0.000000e+00 0.000000e+00 0.000000e+00
 0.000000e+00 6.691724e-01 3.308277e-01 0.000000e+00 0.000000e+00
 0.000000e+00 0.000000e+00 8.425844e-01 1.574156e-01 0.000000e+00
 0.000000e+00 0.000000e+00 0.000000e+00 7.089792e-01 2.910208e-01
 0.000000e+00 0.000000e+00 0.000000e+00 0.000000e+00 0.000000e+00
<ENDHMM>
~h "t"
<BEGINHMM>
<NUMSTATES> 5
<STATE> 2
<MEAN> 39
 3.212523e+00 -1.658786e+01 3.038479e+00 1.821056e+01 -1.746245e+01 1.899356e+01 -7.043665e+00 -7.132759e+00 5.886318e+00 -5.147347e+00 -4.822217e+00 2.835976e+00 6.697893e+01 -4.598707e-01 -1.817069e+00 4.034457e-02 -1.712780e+00 -7.354975e-01 -1.174579e-01 -4.840262e-01 1.699569e-01 -2.955123e-01 -6.299292e-01 -1.388147e-01 1.659340e-01 7.535281e-01 1.530412e-01 -1.145157e+00 3.483956e-01 -6.461372e-01 -2.093478e-01 2.180365e-01 -2.343525e-01 -1.590384e-01 7.164948e-02 -5.315127e-01 6.873646e-02 3.265445e-02 1.086535e+00
<VARIANCE> 39
 2.448187e+01 4.632342e+01 2.691902e+01 2.743327e+01 4.075396e+01 2.954004e+01 2.868514e+01 3.716555e+01 2.610456e+01 1.711130e+01 1.920878e+01 1.770035e+01 9.720245e+00 1.308789e+00 6.803777e+00 3.131972e+00 3.920477e+00 3.435318e+00 2.756594e+00 3.020996e+00 2.336368e+00 2.367543e+00 2.660704e+00 1.843498e+00 1.784733e+00 3.857566e+00 1.653307e-01 5.221741e-01 4.855757e-01 5.090958e-01 4.249222e-01 4.206350e-01 4.483788e-01 4.142046e-01 4.315293e-01 4.291156e-01 3.742357e-01 3.354836e-01 2.308818e-01
<GCONST> 1.143838e+02
<STATE> 3
<MEAN> 39
 1.273962e+00 -3.147237e+01 7.997929e+00 8.609035e+00 -2.218841e+01 2.041986e+01 -1.008034e+01 -6.081873e+00 6.931951e+00 -9.742361e+00 -4.121138e+00 3.732821e+00 7.634553e+01 2.531828e-01 -2.840229e+00 6.944087e-01 -1.440146e+00 -8.617755e-01 4.028532e-01 -5.099480e-01 -5.094503e-01 -3.190062e-02 -8.111978e-01 3.429098e-01 4.844615e-01 2.240014e+00 5.712090e-01 1.462422e+00 -5.879382e-01 1.118296e+00 7.237375e-01 -1.066539e-01 5.177386e-01 -1.157713e-01 -1.323046e-02 2.483903e-01 2.714134e-02 -7.922071e-02 -4.630272e-01
<VARIANCE> 39
 2.658706e+01 3.216789e+01 6.038636e+01 3.878722e+01 4.859768e+01 3.399795e+01 3.999774e+01 3.237053e+01 3.110334e+01 2.618011e+01 1.774267e+01 1.719988e+01 1.763045e+01 2.608097e+00 5.689397e+00 4.090909e+00 4.404778e+00 3.397407e+00 2.772240e+00 3.783792e+00 3.020391e+00 3.968967e+00 3.364969e+00 1.922981e+00 1.839545e+00 2.552379e+00 2.840989e-01 9.775004e-01 8.067107e-01 8.395308e-01 1.068998e+00 6.333968e-01 7.571896e-01 6.860673e-01 7.223122e-01 5.437559e-01 4.056867e-01 4.609328e-01 4.548883e-01
<GCONST> 1.250013e+02
<STATE> 4
<MEAN> 39
 2.866367e+00 -2.944524e+01 5.937255e+00 1.125156e+01 -1.977028e+01 1.987191e+01 -7.317339e+00 -8.371767e+00 5.092771e+00 -7.757014e+00 -3.225722e+00 4.881890e+00 7.629758e+01 2.280743e+00 2.852858e+00 -1.692038e+00 1.699219e+00 1.780844e+00 1.698926e-01 9.254271e-01 -1.013507e-01 1.314913e-01 -7.579154e-01 1.705423e-02 -4.794858e-01 3.278624e-01 4.234660e-01 1.130039e+00 -2.945019e-01 5.439430e-01 4.077308e-01 -6.563662e-02 -5.808276e-02 1.564751e-01 2.759878e-01 -2.825350e-01 -7.302175e-02 -3.655656e-01 -2.167878e-01
<VARIANCE> 39
 1.881196e+01 4.282998e+01 3.256538e+01 3.499837e+01 3.791473e+01 2.644579e+01 4.203483e+01 3.537791e+01 2.841719e+01 3.059797e+01 2.163632e+01 1.760821e+01 1.494929e+01 2.471278e+00 3.447453e+00 3.517547e+00 3.717438e+00 4.271784e+00 3.646963e+00 3.643215e+00 3.860975e+00 2.496253e+00 3.257454e+00 2.382034e+00 2.562056e+00 2.428462e+00 4.017750e-01 1.164751e+00 6.226211e-01 7.550996e-01 6.206742e-01 5.996519e-01 7.688786e-01 4.914726e-01 4.745492e-01 6.881586e-01 4.332302e-01 5.218379e-01 3.703229e-01
<GCONST> 1.228575e+02
<TRANSP> 5
 0.000000e+00 1.000000e+00 0.000000e+00 0.000000e+00 0.000000e+00
 0.000000e+00 6.564510e-01 3.435490e-01 0.000000e+00 0.000000e+00
 0.000000e+00 0.000000e+00 5.410818e-01 4.589182e-01 0.000000e+00
 0.000000e+00 0.000000e+00 0.000000e+00 5.256760e-01 4.743240e-01
 0.000000e+00 0.000000e+00 0.000000e+00 0.000000e+00 0.000000e+00
<ENDHMM>
~h "u"
<BEGINHMM>
<NUMSTATES> 5
<STATE> 2
<MEAN> 39
 1.299114e+01 -1.245520e+01 1.690990e+00 1.761136e+01 -2.044243e+01 1.247229e+01 -6.440843e+00 -1.494918e+00 1.402476e+01 -1.170652e+01 -1.167188e+01 -5.300314e+00 7.587284e+01 6.322929e-01 7.931439e-01 -2.400514e-01 6.473780e-01 2.900879e-02 -1.940797e+00 -3.621489e-01 9.030291e-01 8.620952e-01 -5.681757e-01 -1.129152e+00 -9.773525e-01 3.987604e-01 -2.449161e-01 1.516922e-02 8.868242e-02 2.172105e-04 1.596911e-01 2.884819e-01 7.527824e-02 -1.158836e-01 -9.706795e-02 4.102176e-01 2.405747e-01 1.790056e-01 -2.520037e-01
<VARIANCE> 39
 6.552492e+00 2.853738e+01 1.920789e+01 2.333278e+01 5.048542e+01 6.392102e+01 2.857536e+01 2.579672e+01 3.000941e+01 4.033792e+01 2.667356e+01 3.003774e+01 7.975497e+00 7.321540e-01 3.240261e+00 1.825742e+00 2.678909e+00 3.977643e+00 5.078534e+00 2.822717e+00 1.853769e+00 2.006463e+00 3.195792e+00 2.870280e+00 2.627927e+00 8.063875e-01 1.700215e-01 7.587526e-01 3.748880e-01 4.537224e-01 5.654398e-01 8.560432e-01 4.106422e-01 2.921991e-01 3.919386e-01 5.134272e-01 4.486665e-01 4.127096e-01 1.255583e-01
<GCONST> 1.123024e+02
<STATE> 3
<MEAN> 39
 1.317389e+01 -9.918449e+00 1.348960e+00 1.990125e+01 -1.956984e+01 9.254496e+00 -6.916485e+00 8.968280e-01 1.629859e+01 -1.025754e+01 -1.282877e+01 -5.773346e+00 7.452079e+01 -3.249945e-01 -9.951895e-02 4.958129e-02 3.491166e-02 5.490277e-01 1.146329e+00 5.974090e-01 -2.342093e-01 -2.735743e-01 6.292224e-01 2.001700e-01 2.168971e-01 -3.493452e-01 -2.641239e-01 -2.927957e-01 2.144359e-01 -1.559868e-01 5.260900e-02 6.502788e-01 1.861921e-01 -4.369120e-01 -4.088638e-01 2.602489e-01 3.809181e-01 2.470421e-01 -8.427173e-02
<VARIANCE> 39
 6.471517e+00 2.452588e+01 1.443105e+01 2.081253e+01 3.380370e+01 6.007470e+01 2.814379e+01 2.444451e+01 3.060183e+01 3.311507e+01 2.367154e+01 2.205976e+01 1.334381e+01 3.902806e-01 1.835305e+00 1.259292e+00 9.028184e-01 2.001603e+00 3.977478e+00 2.219070e+00 2.666491e+00 1.836639e+00 2.362793e+00 1.982314e+00 1.911023e+00 6.503901e-01 1.251109e-01 5.065882e-01 3.108808e-01 2.386280e-01 3.808641e-01 6.223938e-01 3.960244e-01 4.432818e-01 4.473857e-01 4.715843e-01 4.287221e-01 4.032845e-01 1.300778e-01
<GCONST> 1.044961e+02
<STATE> 4
<MEAN> 39
 1.123445e+01 -1.300827e+01 1.380813e+00 1.894739e+01 -1.722807e+01 1.662424e+01 -3.970778e+00 -2.125952e+00 1.251681e+01 -9.208354e+00 -1.054504e+01 -3.199322e+00 7.383817e+01 -8.068757e-01 -7.895715e-01 5.911745e-01 -4.682371e-02 3.922331e-01 1.644848e+00 7.785217e-01 -1.018325e+00 -1.027119e+00 9.446042e-01 8.324932e-01 4.634989e-01 -3.091321e-01 -1.621001e-01 -2.873728e-01 2.602283e-01 -1.330684e-01 -1.835167e-01 -1.536552e-02 -8.541916e-02 -1.139584e-01 -1.307997e-01 -1.383701e-01 6.376769e-02 4.400754e-02 1.084698e-01
<VARIANCE> 39
 1.463560e+01 3.833076e+01 1.351839e+01 2.363143e+01 3.960270e+01 5.475831e+01 4.648615e+01 3.190494e+01 4.471793e+01 4.024289e+01 3.059368e+01 2.370094e+01 1.896714e+01 9.494792e-01 5.604300e+00 2.090360e+00 1.821300e+00 2.361106e+00 3.418635e+00 3.709870e+00 3.205330e+00 3.201205e+00 2.949555e+00 2.039516e+00 2.287594e+00 1.197729e+00 1.854789e-01 3.779132e-01 4.315338e-01 2.754793e-01 4.405561e-01 6.305372e-01 4.143373e-01 4.248460e-01 3.741913e-01 4.075023e-01 5.684317e-01 3.286392e-01 1.272752e-01
<GCONST> 1.138949e+02
<TRANSP> 5
 0.000000e+00 1.000000e+00 0.000000e+00 0.000000e+00 0.000000e+00
 0.000000e+00 5.779048e-01 4.220953e-01 0.000000e+00 0.000000e+00
 0.000000e+00 0.000000e+00 5.967901e-01 4.032099e-01 0.000000e+00
 0.000000e+00 0.000000e+00 0.000000e+00 1.799645e-01 8.200355e-01
 0.000000e+00 0.000000e+00 0.000000e+00 0.000000e+00 0.000000e+00
<ENDHMM>
~h "v"
<BEGINHMM>
<NUMSTATES> 5
<STATE> 2
<MEAN> 39
 1.231878e+01 -1.595446e+01 7.876692e-01 1.761473e+01 -1.447265e+01 2.036945e+01 -8.680725e+00 -1.109860e+01 6.094689e+00 -1.199306e+01 -4.328044e+00 -1.060720e+00 7.700314e+01 -1.988470e-01 8.073134e-01 -1.794566e-01 -9.887633e-02 5.898044e-02 1.448981e-01 8.348799e-01 3.619687e-01 -2.922455e-01 6.722276e-01 -3.849769e-01 -6.386580e-02 -7.705408e-01 -9.450030e-02 7.980346e-02 4.662208e-02 -6.564191e-02 -8.169003e-02 2.638620e-02 -1.036294e-02 1.330842e-01 5.037015e-02 4.437859e-02 2.732489e-02 1.944060e-01 -1.588131e-01
<VARIANCE> 39
 1.234347e+01 2.601857e+01 2.184032e+01 1.852151e+01 4.729890e+01 3.164898e+01 2.326292e+01 3.297708e+01 2.720196e+01 2.858671e+01 1.748383e+01 3.875521e+01 1.549362e+01 3.068676e-01 1.522480e+00 9.719840e-01 8.273363e-01 1.375255e+00 1.953160e+00 1.626447e+00 1.929159e+00 1.781427e+00 1.578441e+00 1.142527e+00 1.260450e+00 8.360252e-01 6.553306e-02 2.144125e-01 1.812104e-01 1.386364e-01 2.745617e-01 4.027422e-01 2.231224e-01 2.631628e-01 2.788197e-01 2.812325e-01 2.085067e-01 2.447300e-01 1.302823e-01
<GCONST> 9.514764e+01
<STATE> 3
<MEAN> 39
 1.099796e+01 -1.066949e+01 2.021371e-01 1.703861e+01 -1.585358e+01 2.047009e+01 -5.083303e+00 -7.344809e+00 6.332277e+00 -8.649095e+00 -5.894982e+00 1.052541e-01 7.166949e+01 -7.268207e-01 5.400176e-01 4.842701e-01 1.862713e-01 -3.417592e-01 1.978692e-01 2.797469e-01 7.721118e-01 4.542351e-01 6.003972e-01 -1.448889e-01 7.673007e-01 -1.193028e+00 2.298931e-02 -4.582714e-01 2.862464e-02 1.035328e-02 -2.069683e-02 6.283559e-02 -1.211013e-01 -1.125754e-01 -1.328751e-03 -3.440229e-01 1.118539e-01 4.805161e-02 3.321663e-01
<VARIANCE> 39
 1.348043e+01 2.910944e+01 2.244364e+01 2.017769e+01 3.110145e+01 3.189524e+01 1.565859e+01 2.875549e+01 2.978782e+01 1.732189e+01 1.816553e+01 2.723300e+01 1.113045e+01 2.928005e-01 1.496437e+00 8.835444e-01 8.976063e-01 1.897067e+00 1.542245e+00 1.223327e+00 1.297834e+00 1.522570e+00 1.277367e+00 9.209170e-01 1.105313e+00 5.233592e-01 8.799536e-02 2.605526e-01 2.319592e-01 2.104739e-01 2.989362e-01 3.503061e-01 3.155448e-01 3.372099e-01 3.380780e-01 4.210514e-01 1.894228e-01 2.530504e-01 1.342809e-01
<GCONST> 9.386140e+01
<STATE> 4
<MEAN> 39
 7.002934e+00 -1.080965e+01 2.629358e+00 1.861198e+01 -1.638957e+01 2.242004e+01 -2.149356e+00 -4.536007e+00 7.780081e+00 -6.375507e+00 -4.951827e+00 2.379695e+00 6.787025e+01 6.307408e-02 -7.648790e-01 -2.157718e-01 -2.447384e-01 1.408181e-01 2.700639e-01 -1.252846e-02 1.116582e-01 -2.408836e-01 -9.224264e-01 -4.341181e-02 3.135751e-01 4.375788e-01 3.917719e-01 -2.756462e-01 -2.996726e-01 -1.310340e-01 1.707779e-01 -1.210455e-01 -3.506359e-01 -3.750711e-01 -2.506306e-01 -5.557973e-01 5.488131e-02 -1.298860e-01 5.865675e-01
<VARIANCE> 39
 1.716970e+01 3.315548e+01 1.502614e+01 1.780051e+01 2.275087e+01 1.696177e+01 2.487759e+01 2.269469e+01 2.209642e+01 1.911307e+01 1.337599e+01 2.093957e+01 1.427619e+01 1.135090e+00 1.827232e+00 1.396028e+00 1.501534e+00 1.474956e+00 1.855060e+00 1.655564e+00 1.391675e+00 1.621787e+00 3.217949e+00 1.542944e+00 1.019752e+00 1.228608e+00 1.852579e-01 2.605143e-01 1.944333e-01 2.647038e-01 2.587649e-01 3.469515e-01 2.537261e-01 2.852897e-01 3.283244e-01 4.648534e-01 2.950283e-01 2.197508e-01 2.310095e-01
<GCONST> 9.874885e+01
<TRANSP> 5
 0.000000e+00 1.000000e+00 0.000000e+00 0.000000e+00 0.000000e+00
 0.000000e+00 6.092327e-01 3.907673e-01 0.000000e+00 0.000000e+00
 0.000000e+00 0.000000e+00 5.071518e-01 4.928482e-01 0.000000e+00
 0.000000e+00 0.000000e+00 0.000000e+00 6.877964e-01 3.122036e-01
 0.000000e+00 0.000000e+00 0.000000e+00 0.000000e+00 0.000000e+00
<ENDHMM>
~h "y"
<BEGINHMM>
<NUMSTATES> 5
<STATE> 2
<MEAN> 39
 5.694458e+00 -1.759011e+01 6.418523e-01 1.902268e+01 -1.480654e+01 1.831188e+01 -9.139305e+00 -8.887134e+00 6.915256e+00 -6.783977e+00 -3.529728e+00 1.968475e+00 7.044357e+01 -3.268255e-01 -2.034370e-01 2.337438e-01 2.522599e-01 1.251421e-01 -2.118413e-01 -4.207075e-01 1.574769e-01 3.166506e-01 -3.867956e-02 -2.194271e-01 -1.545255e-01 -1.951803e-01 9.438474e-02 3.131878e-02 -1.074391e-01 -9.603553e-02 7.332813e-03 9.403278e-02 4.259939e-02 -7.514490e-02 -6.756657e-02 -7.533710e-02 1.906174e-02 -3.885906e-03 7.577683e-02
<VARIANCE> 39
 3.356982e+01 2.939216e+01 7.153077e+01 4.308950e+01 3.725690e+01 2.665198e+01 3.101764e+01 2.723708e+01 2.712868e+01 3.231830e+01 2.118893e+01 3.007906e+01 6.093492e+01 3.830183e-01 1.147856e+00 1.764084e+00 1.367048e+00 1.471650e+00 1.475933e+00 1.461033e+00 1.540882e+00 1.656392e+00 1.548519e+00 1.269721e+00 1.437373e+00 3.819367e-01 5.998101e-02 1.522165e-01 2.427983e-01 2.234367e-01 3.334834e-01 2.932804e-01 2.443538e-01 3.504149e-01 2.768875e-01 2.937827e-01 2.338141e-01 2.791192e-01 4.686054e-02
<GCONST> 9.912302e+01
<STATE> 3
<MEAN> 39
 9.729679e+00 -1.881993e+01 5.056048e+00 2.373774e+01 -9.288392e+00 1.820241e+01 -1.484944e+01 -1.150379e+01 1.033719e+01 -1.007843e+01 -3.794271e+00 -2.040145e+00 7.726847e+01 3.896392e-01 -1.465383e-01 -7.646477e-01 -5.044777e-01 5.705864e-01 6.478162e-01 -2.428082e-01 -9.580016e-01 -5.590250e-01 -2.109159e-01 1.736277e-01 -1.050108e-01 4.492971e-01 1.922561e-01 1.935821e-01 -2.958283e-01 -4.127938e-01 -2.209578e-01 2.450420e-01 4.569969e-01 2.015342e-02 -3.515316e-01 -1.821375e-01 1.271767e-01 1.760255e-01 6.319159e-02
<VARIANCE> 39
 1.755196e+01 1.581870e+01 3.329654e+01 2.907433e+01 3.310027e+01 3.260180e+01 1.922338e+01 2.779951e+01 2.369357e+01 2.539480e+01 1.718128e+01 3.761252e+01 2.615224e+01 4.686570e-01 1.258128e+00 2.684525e+00 2.387652e+00 2.924014e+00 2.541962e+00 1.953608e+00 1.985430e+00 2.269065e+00 1.972832e+00 1.549274e+00 2.005031e+00 7.334552e-01 1.063174e-01 2.060885e-01 3.610200e-01 3.640563e-01 5.602560e-01 4.450409e-01 3.445760e-01 4.512516e-01 3.713124e-01 3.970287e-01 2.994941e-01 3.301114e-01 1.239326e-01
<GCONST> 1.051754e+02
<STATE> 4
<MEAN> 39
 9.048016e+00 -1.746572e+01 3.751778e+00 2.137450e+01 -1.009221e+01 2.037678e+01 -1.222477e+01 -1.029912e+01 8.565019e+00 -1.112996e+01 -2.488628e+00 4.203149e-01 7.566032e+01 1.252422e+00 2.530085e-01 -5.408431e-01 -4.236891e-01 5.088683e-01 6.756939e-01 1.236485e-01 -4.381632e-01 -4.453925e-01 -1.140705e+00 3.445064e-01 1.258828e-02 1.248986e+00 7.693991e-04 1.066562e-01 -1.778422e-01 -2.822553e-01 -3.980511e-01 -1.602405e-01 3.358356e-01 2.488668e-01 -6.880886e-02 -7.750545e-02 -1.488341e-01 5.852669e-03 -8.608266e-02
<VARIANCE> 39
 3.195315e+01 2.387165e+01 3.991722e+01 3.639288e+01 5.839272e+01 3.266040e+01 3.647531e+01 4.353982e+01 2.771806e+01 3.738496e+01 1.625893e+01 3.520606e+01 4.554364e+01 1.603207e+00 2.223175e+00 6.004824e+00 6.370039e+00 5.623562e+00 3.156983e+00 4.242566e+00 2.808504e+00 3.446364e+00 2.881323e+00 1.653270e+00 2.579287e+00 2.284015e+00 2.757292e-01 4.132940e-01 7.328744e-01 6.997169e-01 9.295103e-01 5.805825e-01 7.631213e-01 6.639502e-01 5.663763e-01 6.614216e-01 3.095589e-01 4.371091e-01 2.950414e-01
<GCONST> 1.241330e+02
<TRANSP> 5
 0.000000e+00 1.000000e+00 0.000000e+00 0.000000e+00 0.000000e+00
 0.000000e+00 7.348917e-01 2.651083e-01 0.000000e+00 0.000000e+00
 0.000000e+00 0.000000e+00 5.905359e-01 4.094640e-01 0.000000e+00
 0.000000e+00 0.000000e+00 0.000000e+00 4.887305e-01 5.112696e-01
 0.000000e+00 0.000000e+00 0.000000e+00 0.000000e+00 0.000000e+00
<ENDHMM>
~h "z"
<BEGINHMM>
<NUMSTATES> 5
<STATE> 2
<MEAN> 39
 1.272243e+01 -1.586923e+01 5.020498e+00 1.534376e+01 -1.798537e+01 2.261161e+01 -2.467842e+00 -6.627538e+00 7.527721e+00 -1.813562e+01 -1.086720e+01 -4.861657e+00 7.986060e+01 -8.963499e-01 -3.406693e-01 2.374522e+00 -4.639779e-01 -9.308076e-01 7.250105e-01 6.366380e-01 2.135952e-01 2.022354e-01 3.776598e-01 1.330929e-01 2.116476e-01 3.896730e-02 -7.535678e-01 -5.438143e-01 1.272036e+00 -4.626616e-01 -3.417138e-01 4.726318e-01 3.868580e-02 1.046942e-01 -1.230126e-02 4.431384e-01 6.003119e-01 6.024031e-01 -5.873977e-02
<VARIANCE> 39
 4.320027e+00 1.271026e+01 2.154716e+01 2.680320e+01 4.897831e+01 4.102325e+01 3.086365e+01 3.746928e+01 2.562100e+01 1.765706e+01 4.516247e+01 3.089717e+01 3.929832e+00 1.225152e+00 1.838868e+00 4.820652e+00 1.564725e+00 2.618572e+00 3.747174e+00 2.311876e+00 1.767228e+00 1.839736e+00 2.520326e+00 2.846820e+00 1.970478e+00 3.484697e-01 1.017578e-01 2.025746e-01 3.455395e-01 2.999227e-01 4.148791e-01 5.444833e-01 2.728073e-01 3.112938e-01 3.344349e-01 3.454532e-01 3.559901e-01 3.731759e-01 8.045041e-02
<GCONST> 1.033533e+02
<STATE> 3
<MEAN> 39
 6.221398e+00 -2.058461e+01 1.856540e+01 1.275114e+01 -2.060852e+01 2.658745e+01 -2.270709e+00 -5.297379e+00 7.203433e+00 -1.533819e+01 -5.001235e+00 -5.597532e-02 8.015054e+01 -2.595458e+00 -1.427680e+00 4.641738e+00 -1.426977e+00 -1.067258e+00 8.912684e-01 8.726953e-01 3.526280e-01 -3.957292e-01 9.930167e-01 1.261258e+00 1.323133e+00 1.635643e-01 -4.828463e-02 -4.423499e-02 -4.675331e-01 8.564164e-02 4.177348e-01 -2.356936e-01 -1.948890e-01 -1.252127e-01 1.811207e-02 9.006220e-02 -1.244033e-01 -7.860869e-03 -2.097479e-02
<VARIANCE> 39
 1.082273e+01 1.322463e+01 3.250056e+01 4.309079e+01 4.977125e+01 3.360904e+01 3.540270e+01 4.030852e+01 2.919075e+01 2.706311e+01 5.808795e+01 2.969755e+01 2.874847e+00 8.715325e-01 8.915213e-01 2.596878e+00 1.475862e+00 3.035166e+00 2.825371e+00 2.530289e+00 2.090334e+00 1.522017e+00 2.428512e+00 1.954025e+00 1.953164e+00 2.106952e-01 2.228207e-01 2.025755e-01 7.801601e-01 2.512342e-01 3.673329e-01 5.128409e-01 5.599983e-01 3.800606e-01 2.763496e-01 4.950595e-01 5.570801e-01 3.050575e-01 4.146742e-02
<GCONST> 1.048587e+02
<STATE> 4
<MEAN> 39
 -2.023490e-01 -2.488865e+01 2.412364e+01 9.789318e+00 -2.011185e+01 2.734703e+01 -2.106476e+00 -5.608734e+00 6.549739e+00 -1.230907e+01 -3.993355e+00 2.576212e+00 7.963391e+01 3.916288e-01 1.236299e-02 -1.316764e+00 4.004389e-01 3.535374e-01 -2.625279e-01 -4.189031e-01 -1.151159e-01 2.209900e-02 2.862237e-03 -3.085524e-01 -1.111518e-01 -2.930893e-01 6.843147e-01 4.315034e-01 -1.047344e+00 2.950197e-01 7.560972e-02 -2.460163e-01 -1.670833e-01 -5.642166e-02 1.221643e-01 -2.698216e-01 -2.081717e-01 -2.233464e-01 -2.756985e-02
<VARIANCE> 39
 2.052441e+01 2.539438e+01 3.617322e+01 4.725647e+01 3.138134e+01 3.150384e+01 4.162019e+01 4.030004e+01 3.101777e+01 2.484933e+01 2.823232e+01 2.027500e+01 6.744931e+00 3.687151e+00 2.851348e+00 7.050082e+00 2.105589e+00 2.718178e+00 2.871722e+00 3.295365e+00 2.815436e+00 1.620259e+00 2.372506e+00 2.427800e+00 1.648774e+00 5.715052e-01 3.025343e-01 3.570963e-01 8.056295e-01 3.130805e-01 5.265900e-01 5.366607e-01 6.371819e-01 4.755914e-01 3.343070e-01 4.488686e-01 4.188624e-01 3.423510e-01 9.451158e-02
<GCONST> 1.138532e+02
<TRANSP> 5
 0.000000e+00 1.000000e+00 0.000000e+00 0.000000e+00 0.000000e+00
 0.000000e+00 5.644269e-01 4.355731e-01 0.000000e+00 0.000000e+00
 0.000000e+00 0.000000e+00 6.393660e-01 3.606340e-01 0.000000e+00
 0.000000e+00 0.000000e+00 0.000000e+00 8.401397e-01 1.598603e-01
 0.000000e+00 0.000000e+00 0.000000e+00 0.000000e+00 0.000000e+00
<ENDHMM>
~h "ch"
<BEGINHMM>
<NUMSTATES> 5
<STATE> 2
<MEAN> 39
 5.243549e+00 -2.006179e+01 6.269853e+00 1.890888e+01 -1.586001e+01 1.944285e+01 -5.288363e+00 -5.774841e+00 5.767726e+00 -7.704957e+00 -3.029290e+00 4.185036e+00 7.258074e+01 -2.290241e+00 -3.084634e+00 2.467770e+00 -5.890728e-01 -6.343398e-01 -1.493439e+00 6.445283e-01 9.589814e-01 -1.280664e-01 2.791007e-01 -7.190333e-01 6.333257e-01 8.856423e-01 -2.942497e-01 -1.129437e+00 3.148754e-01 -2.967891e-01 -1.426899e-02 -1.107989e-01 -4.072981e-01 -3.649530e-01 2.049946e-01 -2.498241e-01 -8.174903e-02 5.557410e-02 8.692839e-01
<VARIANCE> 39
 2.049951e+01 3.488764e+01 4.615891e+01 3.809384e+01 3.657903e+01 3.160777e+01 3.986453e+01 2.893200e+01 2.800397e+01 2.786753e+01 2.908543e+01 2.151380e+01 1.921441e+01 1.159711e+00 6.509467e+00 5.170025e+00 2.791750e+00 2.247032e+00 2.485085e+00 3.437482e+00 2.687820e+00 2.449516e+00 3.014658e+00 2.265945e+00 2.071670e+00 4.173143e+00 1.901982e-01 6.738100e-01 8.405582e-01 5.221198e-01 4.384092e-01 5.727710e-01 6.350728e-01 5.306608e-01 4.987730e-01 4.523891e-01 5.028725e-01 3.274151e-01 3.060018e-01
<GCONST> 1.196639e+02
<STATE> 3
<MEAN> 39
 -4.320520e+00 -3.769877e+01 1.650131e+01 1.741282e+01 -1.735974e+01 1.568319e+01 -7.324276e+00 -6.144768e+00 7.638043e+00 -8.526966e+00 -4.773442e+00 7.229196e+00 8.089072e+01 -1.194649e+00 -3.418014e+00 1.380502e-01 -5.273618e-01 -4.264796e-02 1.362709e-01 -8.093354e-01 -1.156234e+00 3.845091e-01 6.030716e-01 1.013535e-01 4.763194e-01 1.599483e+00 8.569619e-01 1.195847e+00 -1.210202e+00 -3.187523e-02 2.543386e-01 5.165347e-01 1.380103e-01 -2.555325e-01 -3.182032e-01 1.276977e-01 2.609099e-01 -2.302675e-01 -5.904936e-01
<VARIANCE> 39
 1.376412e+01 2.208946e+01 2.488351e+01 2.331502e+01 3.879981e+01 2.781521e+01 2.985726e+01 3.412400e+01 2.315836e+01 2.417786e+01 2.347873e+01 2.183621e+01 9.045960e+00 2.070586e+00 4.215846e+00 4.974926e+00 2.024345e+00 2.414601e+00 2.029114e+00 2.826724e+00 2.419969e+00 1.939941e+00 1.696789e+00 1.526822e+00 1.384372e+00 1.733921e+00 2.356596e-01 7.623128e-01 5.250713e-01 3.687685e-01 4.661972e-01 3.542730e-01 5.432135e-01 5.449591e-01 3.845423e-01 3.658004e-01 3.333419e-01 3.025173e-01 3.234779e-01
<GCONST> 1.111555e+02
<STATE> 4
<MEAN> 39
 -2.161971e+00 -3.915800e+01 8.803530e+00 1.416106e+01 -1.580857e+01 1.857648e+01 -6.625889e+00 -1.059236e+01 5.254622e+00 -6.033690e+00 -3.984821e+00 6.728685e+00 8.099499e+01 2.018996e+00 2.566079e+00 -1.820417e+00 8.256947e-02 5.439271e-01 8.397632e-01 5.098267e-01 -4.330893e-01 -7.633626e-01 -6.948451e-01 3.368083e-01 -6.809427e-01 -7.789151e-01 6.516065e-01 1.214546e+00 1.071352e-01 4.306608e-01 -5.185019e-02 2.561871e-02 8.200291e-04 3.342854e-01 2.922798e-01 -5.040573e-01 -5.966051e-02 -4.204425e-01 -1.497533e-01
<VARIANCE> 39
 1.190900e+01 2.388150e+01 2.183153e+01 1.543823e+01 2.323136e+01 2.191575e+01 2.588789e+01 2.001537e+01 2.190150e+01 1.788151e+01 2.035195e+01 1.776089e+01 8.554288e+00 2.871134e+00 5.587014e+00 1.726961e+00 2.896102e+00 3.191337e+00 2.171156e+00 2.032233e+00 2.099214e+00 1.875575e+00 2.648833e+00 1.508774e+00 2.128453e+00 8.360722e-01 3.242651e-01 7.802759e-01 3.324597e-01 3.419285e-01 4.660992e-01 4.175455e-01 4.004648e-01 3.808720e-01 4.759366e-01 4.268177e-01 3.144704e-01 3.856227e-01 3.988282e-01
<GCONST> 1.083110e+02
<TRANSP> 5
 0.000000e+00 1.000000e+00 0.000000e+00 0.000000e+00 0.000000e+00
 0.000000e+00 7.258886e-01 2.741114e-01 0.000000e+00 0.000000e+00
 0.000000e+00 0.000000e+00 7.047392e-01 2.952608e-01 0.000000e+00
 0.000000e+00 0.000000e+00 0.000000e+00 7.436661e-01 2.563339e-01
 0.000000e+00 0.000000e+00 0.000000e+00 0.000000e+00 0.000000e+00
<ENDHMM>
~h "gh"
<BEGINHMM>
<NUMSTATES> 5
<STATE> 2
<MEAN> 39
 1.413498e+01 -1.552991e+01 -2.493592e-02 1.614356e+01 -1.701061e+01 1.319590e+01 -8.918104e+00 -6.977682e+00 1.180768e+01 -1.373763e+01 -8.056522e+00 -3.200837e+00 8.081189e+01 1.379678e-01 6.047197e-01 -1.167427e-01 -5.202463e-02 -1.949808e-01 -4.623819e-01 5.213243e-02 2.888414e-01 1.562454e-01 4.865253e-01 4.633610e-01 -1.006326e-01 -2.643732e-01 -9.756492e-02 -6.502327e-02 1.450718e-01 1.729837e-02 -2.553837e-02 2.973820e-01 1.486965e-01 -3.443074e-02 -2.099847e-01 -1.211536e-01 2.210948e-02 9.959224e-02 -1.357128e-01
<VARIANCE> 39
 3.394209e+00 2.189102e+01 1.609742e+01 4.693057e+01 8.243951e+01 9.546895e+01 3.410258e+01 7.108684e+01 6.399373e+01 2.573321e+01 3.496240e+01 3.916180e+01 6.627244e+00 1.863685e-01 6.536466e-01 6.137642e-01 1.414062e+00 2.012268e+00 2.086653e+00 8.260458e-01 1.496889e+00 1.119026e+00 1.821263e+00 9.190183e-01 7.787000e-01 1.356331e-01 4.615751e-02 8.502842e-02 7.627169e-02 2.901782e-01 2.593267e-01 2.742407e-01 2.548027e-01 1.978498e-01 3.058197e-01 2.644662e-01 1.393050e-01 1.615393e-01 3.300178e-02
<GCONST> 8.897417e+01
<STATE> 3
<MEAN> 39
 1.440223e+01 -1.135714e+01 9.416916e-01 1.594296e+01 -2.022205e+01 9.359200e+00 -7.066911e+00 -3.780486e+00 1.347446e+01 -1.145897e+01 -8.541853e+00 -4.172514e+00 7.875807e+01 -5.959144e-03 3.643747e-01 1.081557e-01 8.406492e-02 -4.769417e-03 8.177876e-02 4.450430e-02 1.903292e-02 -2.971557e-01 -6.571184e-02 2.119120e-01 1.084183e-01 -2.986964e-01 9.577198e-03 -1.089708e-01 -4.826698e-02 -3.660913e-02 -6.258739e-04 2.608902e-01 4.940711e-02 -3.084201e-02 -4.976822e-02 -1.662573e-01 -9.443171e-02 -1.043728e-02 1.544185e-02
<VARIANCE> 39
 2.804250e+00 2.311237e+01 1.821779e+01 3.556647e+01 6.940219e+01 1.082878e+02 4.388036e+01 6.673628e+01 6.676633e+01 2.851342e+01 2.898388e+01 3.236286e+01 6.008027e+00 1.275008e-01 3.713905e-01 3.429330e-01 1.007577e+00 1.196446e+00 1.188125e+00 7.688080e-01 9.128832e-01 8.064268e-01 8.509064e-01 8.195441e-01 8.519580e-01 1.214497e-01 2.672916e-02 7.091436e-02 7.039919e-02 1.610843e-01 2.624889e-01 2.307398e-01 1.426905e-01 1.496092e-01 1.449502e-01 1.777243e-01 1.329913e-01 1.197464e-01 1.856838e-02
<GCONST> 7.927512e+01
<STATE> 4
<MEAN> 39
 1.486523e+01 -1.143663e+01 -4.276189e-02 1.525227e+01 -2.102995e+01 9.789337e+00 -5.308910e+00 -1.567094e+00 1.172770e+01 -1.472195e+01 -1.028607e+01 -5.164271e+00 7.847511e+01 -2.112875e-02 -1.933864e-01 -1.008340e-01 3.143584e-02 1.515916e-01 1.168714e+00 4.808859e-01 -5.668636e-01 -6.534056e-01 -2.269059e-01 -1.737887e-01 1.199186e-01 -1.633539e-01 -5.694058e-02 -3.554133e-02 3.589389e-02 -1.647813e-02 2.192248e-03 1.187869e-01 3.830072e-02 -1.343850e-01 -8.401307e-02 9.404482e-02 4.038785e-02 1.463213e-01 -4.231234e-02
<VARIANCE> 39
 2.662480e+00 1.634572e+01 1.777353e+01 2.209849e+01 5.479856e+01 6.926172e+01 2.613456e+01 5.838754e+01 5.197177e+01 2.594233e+01 2.901586e+01 3.999231e+01 7.363857e+00 2.324152e-01 7.219551e-01 1.053782e+00 1.158317e+00 2.502086e+00 3.636583e+00 1.610514e+00 1.821491e+00 1.874706e+00 1.347662e+00 1.355549e+00 1.799144e+00 2.928093e-01 3.505568e-02 1.152546e-01 1.369174e-01 1.741203e-01 4.045857e-01 4.554935e-01 2.155911e-01 3.234374e-01 3.472139e-01 2.545458e-01 1.989848e-01 2.566762e-01 5.400417e-02
<GCONST> 9.362262e+01
<TRANSP> 5
 0.000000e+00 1.000000e+00 0.000000e+00 0.000000e+00 0.000000e+00
 0.000000e+00 2.341671e-01 7.658329e-01 0.000000e+00 0.000000e+00
 0.000000e+00 0.000000e+00 7.664532e-01 2.335468e-01 0.000000e+00
 0.000000e+00 0.000000e+00 0.000000e+00 6.852142e-01 3.147859e-01
 0.000000e+00 0.000000e+00 0.000000e+00 0.000000e+00 0.000000e+00
<ENDHMM>
~h "oe"
<BEGINHMM>
<NUMSTATES> 5
<STATE> 2
<MEAN> 39
 1.184696e+01 -1.922634e+01 6.904355e-01 1.719094e+01 -9.372078e+00 2.181904e+01 -1.182648e+01 -1.045704e+01 5.466002e+00 -1.860684e+01 -4.213387e+00 1.424132e+00 7.990248e+01 1.214206e+00 2.938479e-01 -1.332840e+00 -7.920627e-01 -7.162246e-02 -3.821134e-01 -3.252261e-01 -5.145008e-01 -2.287884e-01 -2.321077e+00 -1.016181e+00 -3.999681e-01 1.407652e+00 -1.972810e-01 5.331542e-02 9.577193e-02 -1.809966e-01 -5.874832e-01 -6.044632e-02 3.101232e-01 3.636211e-01 1.929505e-01 4.307410e-01 7.904235e-02 1.648973e-01 -3.513908e-01
<VARIANCE> 39
 5.606175e+00 1.478278e+01 1.735073e+01 2.888094e+01 4.504061e+01 2.694050e+01 1.896901e+01 2.723059e+01 3.388083e+01 2.424241e+01 2.467099e+01 1.457529e+01 1.394966e+01 7.102004e-01 2.924215e+00 1.525455e+00 2.308958e+00 3.518676e+00 2.878108e+00 1.906510e+00 2.184847e+00 3.039509e+00 3.336228e+00 2.132121e+00 1.562509e+00 8.487831e-01 1.814705e-01 7.397559e-01 2.930521e-01 3.816650e-01 5.673739e-01 4.824423e-01 2.726960e-01 4.841268e-01 6.113629e-01 6.108956e-01 3.364751e-01 2.851644e-01 1.720304e-01
<GCONST> 1.073710e+02
<STATE> 3
<MEAN> 39
 1.362719e+01 -1.913956e+01 -1.347793e+00 1.416798e+01 -1.246120e+01 2.099857e+01 -1.104772e+01 -9.415677e+00 6.439104e+00 -2.199628e+01 -6.030948e+00 1.412676e+00 8.181794e+01 3.074602e-01 4.242928e-01 -2.181839e-01 -5.411168e-01 -1.156023e+00 -1.322512e-01 4.438741e-01 6.792426e-01 4.571123e-01 -2.649094e-01 -2.128550e-01 7.326675e-02 -2.296449e-01 -2.345986e-01 1.498969e-01 2.452562e-01 3.279280e-01 1.427442e-01 5.069311e-02 1.578747e-01 1.200026e-01 -5.717232e-02 6.203794e-01 2.433559e-01 8.265127e-02 -4.481915e-01
<VARIANCE> 39
 2.707546e+00 8.921477e+00 1.102898e+01 1.591848e+01 4.463098e+01 2.326660e+01 1.263884e+01 2.610200e+01 1.938110e+01 1.696223e+01 2.111833e+01 1.540429e+01 7.086759e+00 2.851929e-01 9.528815e-01 1.129600e+00 1.952108e+00 2.193757e+00 1.462225e+00 1.193038e+00 1.019160e+00 1.380979e+00 1.830186e+00 1.582304e+00 9.724054e-01 7.286227e-01 9.519996e-02 2.434743e-01 2.245206e-01 2.341706e-01 4.686769e-01 3.262979e-01 2.435517e-01 2.428043e-01 3.519642e-01 4.050707e-01 2.487033e-01 2.015989e-01 1.276873e-01
<GCONST> 8.978795e+01
<STATE> 4
<MEAN> 39
 1.410894e+01 -1.549294e+01 -2.167240e+00 1.317117e+01 -1.471026e+01 2.009779e+01 -8.997949e+00 -6.280346e+00 7.065416e+00 -2.129904e+01 -5.881152e+00 2.906496e+00 7.875256e+01 -8.810920e-02 5.783724e-01 -4.034297e-01 5.445720e-01 8.338130e-01 -2.068276e-02 4.125792e-01 1.036661e-01 -3.451810e-01 8.285887e-01 3.737559e-01 3.376321e-01 -5.720274e-01 -1.116550e-01 -4.500407e-02 4.751471e-02 1.313709e-01 1.355508e-01 5.262014e-02 2.961476e-02 -2.295117e-01 -1.738138e-01 2.407639e-01 -1.016679e-03 -7.418636e-02 -6.626808e-02
<VARIANCE> 39
 4.089544e+00 8.885431e+00 1.779285e+01 1.872756e+01 4.286244e+01 2.510386e+01 1.383839e+01 2.405998e+01 1.703631e+01 3.298312e+01 2.178380e+01 2.233279e+01 7.626620e+00 4.093268e-01 8.879123e-01 1.038554e+00 1.477792e+00 2.364814e+00 1.661009e+00 1.229632e+00 1.491151e+00 1.334546e+00 2.752937e+00 1.350367e+00 1.010117e+00 1.242345e+00 8.093673e-02 1.782972e-01 3.004656e-01 2.609786e-01 4.321832e-01 3.292862e-01 2.665474e-01 2.237579e-01 3.056377e-01 4.320350e-01 2.480922e-01 2.093930e-01 1.008640e-01
<GCONST> 9.280808e+01
<TRANSP> 5
 0.000000e+00 1.000000e+00 0.000000e+00 0.000000e+00 0.000000e+00
 0.000000e+00 5.260286e-01 4.739714e-01 0.000000e+00 0.000000e+00
 0.000000e+00 0.000000e+00 6.743414e-01 3.256586e-01 0.000000e+00
 0.000000e+00 0.000000e+00 0.000000e+00 7.680491e-01 2.319510e-01
 0.000000e+00 0.000000e+00 0.000000e+00 0.000000e+00 0.000000e+00
<ENDHMM>
~h "sh"
<BEGINHMM>
<NUMSTATES> 5
<STATE> 2
<MEAN> 39
 2.031822e+00 -3.111829e+01 1.203308e+01 1.993865e+01 -1.030488e+01 2.368915e+01 -4.269307e+00 -6.849531e+00 7.443785e+00 -7.641095e+00 -2.172757e+00 6.391537e+00 7.980179e+01 -2.663742e+00 -4.308560e+00 1.842259e+00 -3.926331e-01 -4.026313e-01 -3.325834e-01 5.368975e-01 -6.813560e-02 -3.868745e-01 2.237478e-01 -8.536653e-01 1.138569e+00 1.207286e+00 2.139171e-01 3.281456e-01 -6.453397e-01 -1.118167e-01 -2.679404e-01 -4.408575e-01 -4.636065e-01 -2.503404e-01 1.311633e-01 -3.318868e-01 -3.750982e-01 -2.677113e-01 -2.768601e-02
<VARIANCE> 39
 1.390217e+01 4.309807e+01 2.388266e+01 1.832357e+01 2.605372e+01 2.527106e+01 3.462782e+01 2.445696e+01 2.482090e+01 2.065096e+01 2.138413e+01 2.242283e+01 8.357944e+00 6.348798e-01 1.962665e+00 2.524434e+00 1.316969e+00 1.834571e+00 2.503799e+00 2.975176e+00 2.514163e+00 2.173889e+00 1.790022e+00 1.763158e+00 1.521952e+00 3.534972e-01 1.883922e-01 9.220294e-01 3.715301e-01 2.771419e-01 3.025771e-01 5.186117e-01 3.973612e-01 3.542005e-01 3.919137e-01 3.212823e-01 3.460541e-01 3.177212e-01 1.850420e-01
<GCONST> 1.043814e+02
<STATE> 3
<MEAN> 39
 -4.652065e+00 -4.076457e+01 1.221257e+01 1.743233e+01 -1.366747e+01 1.982509e+01 -5.689073e+00 -9.194596e+00 6.920372e+00 -7.699278e+00 -6.080558e+00 7.714933e+00 8.169926e+01 -2.954123e-01 -4.860985e-02 -5.568762e-01 -5.432996e-01 -4.921640e-01 -5.064073e-01 -1.314663e-01 -1.523245e-01 -3.133483e-01 1.577461e-01 5.518296e-02 -6.500230e-02 -4.770340e-01 5.354080e-01 8.559818e-01 -2.538089e-01 8.287679e-02 8.486120e-02 1.956592e-01 6.732924e-02 1.179159e-01 -3.003688e-02 3.241917e-02 2.431622e-01 -2.013489e-01 -3.363302e-01
<VARIANCE> 39
 6.723526e+00 6.887445e+00 2.170620e+01 1.326751e+01 2.049167e+01 2.230606e+01 2.397253e+01 2.631305e+01 2.324263e+01 1.624617e+01 1.984206e+01 1.736507e+01 6.793219e+00 1.279753e+00 2.329339e+00 1.795051e+00 1.065825e+00 1.486886e+00 1.802861e+00 1.453486e+00 1.440460e+00 1.265741e+00 1.221303e+00 1.509285e+00 1.256304e+00 5.667855e-01 1.495625e-01 2.628547e-01 2.869509e-01 2.328401e-01 2.145246e-01 2.732987e-01 2.459689e-01 2.551336e-01 2.423856e-01 2.738640e-01 2.701111e-01 2.638574e-01 5.570506e-02
<GCONST> 9.162458e+01
<STATE> 4
<MEAN> 39
 -1.214930e+00 -3.335693e+01 7.494825e+00 1.582537e+01 -1.551597e+01 1.969635e+01 -4.679447e+00 -7.672708e+00 5.278772e+00 -6.317997e+00 -3.829726e+00 6.116756e+00 7.585290e+01 2.403161e+00 3.764284e+00 -1.326304e+00 8.242378e-01 -4.669171e-01 2.755897e-01 1.000687e-01 1.470186e-01 2.856985e-01 -1.207055e-01 7.067771e-02 -1.362072e+00 -1.236592e+00 3.704785e-01 2.769170e-01 4.148385e-02 1.571230e-01 -1.056812e-01 4.314234e-02 -1.289571e-01 -1.523303e-01 2.358153e-01 -3.599275e-01 -1.230944e-01 -2.302755e-01 4.280315e-01
<VARIANCE> 39
 2.355905e+01 2.657758e+01 4.201110e+01 2.223853e+01 3.366124e+01 2.919514e+01 2.944796e+01 2.294004e+01 2.281371e+01 2.114907e+01 1.808912e+01 1.770523e+01 1.454339e+01 2.590315e+00 3.107549e+00 1.949359e+00 2.190043e+00 2.493314e+00 1.921293e+00 2.158172e+00 1.949022e+00 1.693705e+00 2.577579e+00 1.323618e+00 1.588819e+00 1.282315e+00 3.201746e-01 7.111083e-01 4.038220e-01 4.788096e-01 4.861657e-01 3.963453e-01 3.986067e-01 3.268868e-01 3.175303e-01 4.412292e-01 2.745508e-01 3.349338e-01 1.902277e-01
<GCONST> 1.091747e+02
<TRANSP> 5
 0.000000e+00 1.000000e+00 0.000000e+00 0.000000e+00 0.000000e+00
 0.000000e+00 7.166486e-01 2.833514e-01 0.000000e+00 0.000000e+00
 0.000000e+00 0.000000e+00 8.358824e-01 1.641175e-01 0.000000e+00
 0.000000e+00 0.000000e+00 0.000000e+00 6.322689e-01 3.677312e-01
 0.000000e+00 0.000000e+00 0.000000e+00 0.000000e+00 0.000000e+00
<ENDHMM>
~h "sp"
<BEGINHMM>
<NUMSTATES> 3
<STATE> 2
~s "silst"
<TRANSP> 3
