~o
<STREAMINFO> 1 39
<VECSIZE> 39<NULLD><MFCC_D_A_0><DIAGC>
~h "a"
<BEGINHMM>
<NUMSTATES> 5
<STATE> 2
<MEAN> 39
 8.198758e+00 -1.749645e+01 1.051393e+00 1.445678e+01 -1.839556e+01 1.729640e+01 -5.784273e+00 -5.957325e+00 7.438040e+00 -1.083265e+01 -4.964728e+00 1.998634e+00 7.456227e+01 1.792861e-02 -1.602118e-02 8.367098e-03 1.112888e-02 -9.962265e-03 2.098617e-03 2.163196e-04 -3.811003e-03 7.612761e-03 -8.206814e-03 -8.135524e-03 7.401552e-03 2.161184e-02 5.634723e-05 3.217461e-04 -1.101770e-03 5.771932e-04 1.946912e-03 6.256888e-04 -1.062267e-03 -1.324078e-03 -3.121365e-04 5.665855e-04 7.910501e-04 -3.795022e-04 -3.186982e-04
<VARIANCE> 39
 6.308917e+01 6.900156e+01 7.248341e+01 4.628860e+01 5.610470e+01 6.185597e+01 3.299238e+01 4.268587e+01 3.746376e+01 4.441143e+01 2.927188e+01 3.562300e+01 6.468520e+01 1.853425e+00 3.830641e+00 3.260043e+00 2.385103e+00 2.865236e+00 3.461925e+00 2.216300e+00 2.255884e+00 2.170564e+00 2.971272e+00 1.851432e+00 2.042006e+00 1.829213e+00 2.488923e-01 6.272889e-01 4.907126e-01 4.221091e-01 4.970407e-01 6.014923e-01 4.065465e-01 3.988209e-01 3.884807e-01 5.505118e-01 3.443005e-01 3.545721e-01 2.907738e-01
<GCONST> 1.224861e+02
<STATE> 3
<MEAN> 39
 8.240509e+00 -1.753320e+01 1.067589e+00 1.448927e+01 -1.841041e+01 1.730501e+01 -5.787079e+00 -5.974703e+00 7.451801e+00 -1.084950e+01 -4.981353e+00 2.013527e+00 7.461023e+01 1.838781e-02 -1.523855e-02 6.075055e-03 1.290167e-02 -5.104600e-03 3.901771e-03 -1.895400e-03 -6.954863e-03 6.607411e-03 -7.128385e-03 -6.283560e-03 6.029878e-03 2.105846e-02 8.412919e-05 4.171897e-04 -9.081882e-04 7.375175e-04 2.011280e-03 5.510711e-04 -8.046541e-04 -1.119288e-03 -4.011141e-04 4.669036e-04 7.454472e-04 -7.035590e-04 -3.046897e-04
<VARIANCE> 39
 6.079676e+01 6.864360e+01 7.204005e+01 4.616486e+01 5.584858e+01 6.123194e+01 3.297371e+01 4.242189e+01 3.702643e+01 4.438497e+01 2.927670e+01 3.550864e+01 6.193257e+01 1.847195e+00 3.825809e+00 3.259442e+00 2.379331e+00 2.858640e+00 3.459833e+00 2.216264e+00 2.260243e+00 2.164936e+00 2.976003e+00 1.855160e+00 2.044453e+00 1.814385e+00 2.476312e-01 6.261154e-01 4.900911e-01 4.204713e-01 4.958757e-01 6.017350e-01 4.063824e-01 4.002695e-01 3.880691e-01 5.517030e-01 3.451528e-01 3.550084e-01 2.881398e-01
<GCONST> 1.223254e+02
<STATE> 4
<MEAN> 39
 8.274551e+00 -1.756920e+01 1.047694e+00 1.452901e+01 -1.843432e+01 1.729996e+01 -5.785426e+00 -6.010009e+00 7.451883e+00 -1.085051e+01 -5.019408e+00 2.023909e+00 7.463241e+01 1.707370e-02 -1.312212e-02 3.627027e-03 1.520682e-02 1.712138e-03 5.647494e-03 -4.240288e-03 -1.034298e-02 3.821177e-03 -6.156649e-03 -3.925181e-03 3.539975e-03 1.836524e-02 -3.969758e-04 5.952152e-04 -6.988271e-04 5.639587e-04 2.128374e-03 3.855987e-04 -6.677673e-04 -6.926619e-04 -6.502350e-04 2.300837e-04 7.084598e-04 -8.408249e-04 -6.458106e-04
<VARIANCE> 39
 5.845911e+01 6.817908e+01 7.108446e+01 4.590200e+01 5.553300e+01 6.040582e+01 3.287519e+01 4.211667e+01 3.648061e+01 4.436889e+01 2.926797e+01 3.529710e+01 5.920031e+01 1.820304e+00 3.802003e+00 3.232678e+00 2.365143e+00 2.844674e+00 3.451272e+00 2.206292e+00 2.257070e+00 2.154881e+00 2.974971e+00 1.857179e+00 2.041314e+00 1.786791e+00 2.434932e-01 6.213999e-01 4.855980e-01 4.172584e-01 4.936916e-01 6.010389e-01 4.042514e-01 4.007098e-01 3.869725e-01 5.517162e-01 3.458724e-01 3.545385e-01 2.833905e-01
<GCONST> 1.220254e+02
<TRANSP> 5
 0.000000e+00 1.000000e+00 0.000000e+00 0.000000e+00 0.000000e+00
 0.000000e+00 5.867801e-01 4.132198e-01 0.000000e+00 0.000000e+00
 0.000000e+00 0.000000e+00 5.867794e-01 4.132207e-01 0.000000e+00
 0.000000e+00 0.000000e+00 0.000000e+00 6.864417e-01 3.135583e-01
 0.000000e+00 0.000000e+00 0.000000e+00 0.000000e+00 0.000000e+00
<ENDHMM>
~h "b"
<BEGINHMM>
<NUMSTATES> 5
<STATE> 2
<MEAN> 39
 3.658834e+00 -1.478101e+01 -6.954166e-01 1.501490e+01 -1.473352e+01 1.620052e+01 -6.902499e+00 -6.127453e+00 5.630419e+00 -8.739702e+00 -3.565688e+00 1.460346e+00 6.920562e+01 5.236962e-02 -3.575010e-02 -3.100909e-03 2.795824e-02 -2.866852e-02 5.247424e-03 1.638234e-02 -1.103773e-02 1.537565e-02 -2.430425e-03 -1.606448e-02 -2.092924e-03 4.773518e-02 7.221095e-03 -7.315766e-03 1.644783e-03 3.930855e-03 -1.842322e-03 1.433079e-03 5.390640e-04 -2.557528e-03 -2.087688e-05 -3.065400e-03 -1.648825e-03 1.773895e-03 8.701526e-03
<VARIANCE> 39
 2.209226e+02 9.452526e+01 6.938385e+01 6.707535e+01 5.684020e+01 7.889664e+01 2.793552e+01 5.072657e+01 4.436399e+01 5.277492e+01 2.457442e+01 3.089043e+01 2.477470e+02 1.491127e+00 3.587381e+00 2.440593e+00 2.172522e+00 2.396316e+00 2.929262e+00 2.071027e+00 2.034357e+00 1.825896e+00 2.646727e+00 1.538406e+00 1.803011e+00 2.205995e+00 2.095635e-01 6.039160e-01 3.742480e-01 3.783802e-01 4.211463e-01 5.135444e-01 3.901260e-01 3.649238e-01 3.274746e-01 4.909397e-01 2.843771e-01 3.232089e-01 3.565387e-01
<GCONST> 1.230076e+02
<STATE> 3
<MEAN> 39
 3.869811e+00 -1.494090e+01 -6.813866e-01 1.511224e+01 -1.483334e+01 1.623789e+01 -6.861038e+00 -6.182543e+00 5.677079e+00 -8.768935e+00 -3.610440e+00 1.467962e+00 6.941785e+01 9.026893e-02 -6.304861e-02 4.398264e-03 4.132806e-02 -3.936751e-02 1.782729e-02 1.747813e-02 -2.418960e-02 1.626738e-02 -1.377076e-02 -1.680071e-02 2.786609e-03 8.785053e-02 1.594311e-02 -1.172577e-02 2.961901e-03 5.658141e-03 -4.085235e-03 6.616166e-03 1.603383e-03 -5.378815e-03 1.077792e-04 -4.367366e-03 -4.209030e-04 2.026035e-03 1.683888e-02
<VARIANCE> 39
 2.121504e+02 9.261278e+01 6.851990e+01 6.648173e+01 5.736852e+01 7.877837e+01 2.815428e+01 5.036684e+01 4.391284e+01 5.259872e+01 2.473323e+01 3.116212e+01 2.377393e+02 1.687789e+00 3.781022e+00 2.415300e+00 2.208836e+00 2.452051e+00 3.006149e+00 2.111031e+00 2.074180e+00 1.848524e+00 2.683811e+00 1.550939e+00 1.829328e+00 2.483129e+00 2.337225e-01 6.364417e-01 3.711742e-01 3.827548e-01 4.314914e-01 5.248637e-01 3.993145e-01 3.713418e-01 3.327386e-01 4.967955e-01 2.868745e-01 3.272539e-01 3.973419e-01
<GCONST> 1.237402e+02
<STATE> 4
<MEAN> 39
 4.308181e+00 -1.532071e+01 -6.692801e-01 1.528168e+01 -1.505799e+01 1.635672e+01 -6.770155e+00 -6.315364e+00 5.737123e+00 -8.831959e+00 -3.690853e+00 1.519804e+00 6.986741e+01 1.639840e-01 -1.159298e-01 1.757135e-02 6.407073e-02 -6.347310e-02 5.496920e-02 2.812483e-02 -4.758971e-02 2.432858e-02 -3.018782e-02 -2.002597e-02 1.700412e-02 1.649502e-01 2.038676e-02 -1.442919e-02 3.985391e-03 6.907311e-03 -5.978656e-03 1.089487e-02 2.975476e-03 -6.871637e-03 1.933355e-03 -4.789561e-03 -1.813690e-03 3.946340e-03 2.114459e-02
<VARIANCE> 39
 1.912671e+02 8.927612e+01 6.719967e+01 6.457401e+01 5.829636e+01 7.704542e+01 2.877462e+01 4.927226e+01 4.323104e+01 5.186056e+01 2.499360e+01 3.173180e+01 2.147269e+02 2.076458e+00 4.111527e+00 2.392003e+00 2.275172e+00 2.571221e+00 3.146575e+00 2.165487e+00 2.146579e+00 1.887695e+00 2.723950e+00 1.573646e+00 1.871782e+00 2.980277e+00 2.779486e-01 6.886942e-01 3.679821e-01 3.906572e-01 4.518500e-01 5.441469e-01 4.108480e-01 3.812350e-01 3.406412e-01 5.022934e-01 2.907903e-01 3.340897e-01 4.652449e-01
<GCONST> 1.247890e+02
<TRANSP> 5
 0.000000e+00 1.000000e+00 0.000000e+00 0.000000e+00 0.000000e+00
 0.000000e+00 5.869569e-01 4.130432e-01 0.000000e+00 0.000000e+00
 0.000000e+00 0.000000e+00 5.869565e-01 4.130435e-01 0.000000e+00
 0.000000e+00 0.000000e+00 0.000000e+00 6.865581e-01 3.134419e-01
 0.000000e+00 0.000000e+00 0.000000e+00 0.000000e+00 0.000000e+00
<ENDHMM>
~h "c"
<BEGINHMM>
<NUMSTATES> 5
<STATE> 2
<MEAN> 39
 7.357672e+00 -1.854845e+01 2.867522e+00 1.822105e+01 -1.457695e+01 1.892637e+01 -7.988969e+00 -8.746528e+00 7.139503e+00 -9.870091e+00 -4.379258e+00 1.388021e+00 7.442572e+01 1.121146e-01 3.756267e-02 3.978136e-02 7.631858e-02 1.175234e-03 4.559169e-02 3.099579e-02 -5.553711e-02 8.230109e-03 3.368944e-03 6.492328e-03 -2.864545e-02 7.928926e-02 -2.602415e-03 5.491427e-03 -5.696547e-03 -2.787521e-03 6.223597e-04 1.584899e-03 4.768099e-03 1.615402e-03 -1.774993e-03 1.227716e-03 -5.809442e-04 4.059865e-04 -6.127454e-03
<VARIANCE> 39
 6.076887e+01 6.681474e+01 5.882148e+01 4.921164e+01 5.863492e+01 5.080937e+01 3.673253e+01 4.002081e+01 3.720288e+01 4.297428e+01 2.288479e+01 2.616383e+01 6.711972e+01 2.098201e+00 4.383725e+00 3.237589e+00 2.160837e+00 2.780942e+00 2.582490e+00 2.379551e+00 2.176868e+00 1.858560e+00 2.932606e+00 1.712220e+00 1.797827e+00 1.873153e+00 2.957988e-01 7.183597e-01 5.060008e-01 3.798339e-01 4.924996e-01 4.518842e-01 4.415028e-01 4.034485e-01 3.356228e-01 5.575587e-01 3.331318e-01 3.262928e-01 2.865986e-01
<GCONST> 1.208852e+02
<STATE> 3
<MEAN> 39
 7.598907e+00 -1.842006e+01 2.945970e+00 1.839288e+01 -1.456957e+01 1.903671e+01 -7.901877e+00 -8.867043e+00 7.151859e+00 -9.850262e+00 -4.361150e+00 1.319467e+00 7.456860e+01 1.027580e-01 5.382336e-02 2.648100e-02 6.747091e-02 3.006134e-03 4.522264e-02 4.051086e-02 -4.815533e-02 2.152786e-03 5.070248e-03 7.650812e-03 -2.764124e-02 6.199218e-02 -4.737152e-03 6.384694e-03 -5.804049e-03 -4.685179e-03 2.693880e-04 -7.134850e-04 3.260880e-03 3.453318e-03 -2.165441e-03 9.613362e-04 2.921768e-04 7.398928e-04 -7.770267e-03
<VARIANCE> 39
 5.416392e+01 6.608257e+01 5.686526e+01 4.840873e+01 5.781271e+01 4.954870e+01 3.738889e+01 3.915300e+01 3.765946e+01 4.212957e+01 2.287099e+01 2.636535e+01 5.915152e+01 2.015363e+00 4.425737e+00 3.194439e+00 2.142108e+00 2.695179e+00 2.578414e+00 2.387818e+00 2.158564e+00 1.850017e+00 2.899755e+00 1.722052e+00 1.810079e+00 1.756320e+00 2.857256e-01 7.208390e-01 4.968036e-01 3.745933e-01 4.795412e-01 4.547265e-01 4.434198e-01 4.015297e-01 3.322729e-01 5.544001e-01 3.355213e-01 3.266589e-01 2.708222e-01
<GCONST> 1.202316e+02
<STATE> 4
<MEAN> 39
 7.830684e+00 -1.820420e+01 2.995527e+00 1.858782e+01 -1.454585e+01 1.916692e+01 -7.787025e+00 -8.996929e+00 7.118343e+00 -9.806926e+00 -4.323038e+00 1.232050e+00 7.464211e+01 8.842285e-02 7.279573e-02 1.282500e-02 5.448356e-02 3.705567e-03 3.877380e-02 4.603688e-02 -3.538433e-02 -4.150227e-03 7.371131e-03 1.164091e-02 -2.622076e-02 4.024962e-02 -4.638633e-03 4.417776e-03 -4.725683e-03 -5.405424e-03 -4.314745e-04 -2.312818e-03 1.140049e-03 4.294374e-03 -1.362622e-03 4.859211e-04 8.782463e-04 1.012305e-03 -6.096010e-03
<VARIANCE> 39
 4.902545e+01 6.616727e+01 5.501991e+01 4.749537e+01 5.624494e+01 4.808583e+01 3.824812e+01 3.769975e+01 3.815157e+01 4.110006e+01 2.268781e+01 2.715035e+01 5.278563e+01 1.919104e+00 4.507284e+00 3.148681e+00 2.119573e+00 2.591940e+00 2.586243e+00 2.392836e+00 2.121766e+00 1.851469e+00 2.861416e+00 1.722870e+00 1.843603e+00 1.630376e+00 2.744545e-01 7.328104e-01 4.880809e-01 3.677363e-01 4.645835e-01 4.615839e-01 4.431575e-01 3.958368e-01 3.316912e-01 5.514110e-01 3.350882e-01 3.299343e-01 2.541694e-01
<GCONST> 1.195759e+02
<TRANSP> 5
 0.000000e+00 1.000000e+00 0.000000e+00 0.000000e+00 0.000000e+00
 0.000000e+00 5.801666e-01 4.198335e-01 0.000000e+00 0.000000e+00
 0.000000e+00 0.000000e+00 5.801671e-01 4.198329e-01 0.000000e+00
 0.000000e+00 0.000000e+00 0.000000e+00 6.777543e-01 3.222457e-01
 0.000000e+00 0.000000e+00 0.000000e+00 0.000000e+00 0.000000e+00
<ENDHMM>
~h "d"
<BEGINHMM>
<NUMSTATES> 5
<STATE> 2
<MEAN> 39
 6.776124e+00 -1.696487e+01 1.009354e+00 1.512289e+01 -1.700172e+01 1.807984e+01 -6.443987e+00 -7.053782e+00 6.903259e+00 -9.814369e+00 -4.871688e+00 1.151572e+00 7.292467e+01 4.234372e-02 -2.118384e-03 3.308235e-02 1.439916e-02 -8.800203e-03 2.540269e-02 -1.697452e-02 -1.165816e-02 2.850483e-02 -1.342921e-02 -1.105465e-02 -2.326563e-02 4.028291e-02 -1.328655e-03 9.626042e-04 1.603879e-03 1.008626e-04 1.412223e-03 -1.437016e-03 -1.921946e-03 2.682060e-03 2.242805e-03 -1.028755e-03 2.698791e-04 -3.141268e-04 -7.379099e-04
<VARIANCE> 39
 9.249268e+01 6.598857e+01 7.641841e+01 4.698832e+01 5.465937e+01 5.615951e+01 3.485708e+01 4.287649e+01 3.784348e+01 4.610808e+01 2.850377e+01 3.461900e+01 1.030991e+02 1.595545e+00 3.518000e+00 2.972411e+00 2.180758e+00 2.663627e+00 2.971317e+00 2.336880e+00 2.126658e+00 2.082205e+00 2.788654e+00 1.816352e+00 1.988905e+00 1.770765e+00 2.156337e-01 5.824187e-01 4.374766e-01 3.790358e-01 4.649894e-01 5.205229e-01 4.197820e-01 3.827970e-01 3.782925e-01 5.130157e-01 3.403799e-01 3.554419e-01 2.763849e-01
<GCONST> 1.216383e+02
<STATE> 3
<MEAN> 39
 6.878909e+00 -1.697050e+01 1.097326e+00 1.515404e+01 -1.702478e+01 1.813235e+01 -6.493625e+00 -7.069735e+00 6.983528e+00 -9.855078e+00 -4.900491e+00 1.092276e+00 7.302731e+01 4.373077e-02 -3.002202e-03 3.636871e-02 1.550398e-02 -6.529151e-03 2.320948e-02 -2.259089e-02 -7.400525e-03 3.299717e-02 -1.762979e-02 -1.024165e-02 -2.381384e-02 4.318499e-02 1.060497e-03 -6.452893e-04 7.519138e-04 5.507107e-04 5.355251e-04 -1.295559e-03 -1.943060e-03 1.436880e-03 1.762615e-03 -1.736479e-03 2.084854e-04 1.376111e-04 1.541416e-03
<VARIANCE> 39
 8.994846e+01 6.539063e+01 7.567668e+01 4.723419e+01 5.473586e+01 5.570482e+01 3.546879e+01 4.279393e+01 3.743518e+01 4.587188e+01 2.845476e+01 3.473605e+01 9.969554e+01 1.596924e+00 3.521641e+00 2.987922e+00 2.193016e+00 2.673817e+00 2.980484e+00 2.389359e+00 2.142808e+00 2.107631e+00 2.800888e+00 1.825957e+00 2.012046e+00 1.781582e+00 2.167606e-01 5.847950e-01 4.407592e-01 3.819355e-01 4.664604e-01 5.230266e-01 4.296450e-01 3.854420e-01 3.833332e-01 5.152616e-01 3.419321e-01 3.606865e-01 2.790510e-01
<GCONST> 1.217553e+02
<STATE> 4
<MEAN> 39
 7.013274e+00 -1.701052e+01 1.178746e+00 1.518248e+01 -1.709725e+01 1.819071e+01 -6.548009e+00 -7.080975e+00 7.093656e+00 -9.911682e+00 -4.969611e+00 1.023464e+00 7.315395e+01 5.340356e-02 -1.051865e-02 3.803810e-02 1.636907e-02 -9.866825e-03 2.137453e-02 -2.707011e-02 -4.352446e-03 3.907143e-02 -2.410557e-02 -1.041022e-02 -2.343043e-02 5.507274e-02 3.358973e-03 -2.419499e-03 8.117256e-05 8.653450e-04 -1.025641e-03 -7.823363e-04 -9.472957e-04 3.649631e-04 1.549541e-03 -1.992860e-03 -2.044468e-04 8.334377e-04 3.759170e-03
<VARIANCE> 39
 8.510486e+01 6.409765e+01 7.444485e+01 4.723256e+01 5.485325e+01 5.499000e+01 3.609259e+01 4.259833e+01 3.694412e+01 4.554494e+01 2.855359e+01 3.504246e+01 9.385995e+01 1.633924e+00 3.532324e+00 3.001928e+00 2.209080e+00 2.694864e+00 2.996656e+00 2.449346e+00 2.169790e+00 2.136767e+00 2.819395e+00 1.839074e+00 2.035209e+00 1.841332e+00 2.219801e-01 5.887497e-01 4.447124e-01 3.858380e-01 4.696898e-01 5.265711e-01 4.416705e-01 3.885838e-01 3.892952e-01 5.180938e-01 3.435168e-01 3.660510e-01 2.881585e-01
<GCONST> 1.219290e+02
<TRANSP> 5
 0.000000e+00 1.000000e+00 0.000000e+00 0.000000e+00 0.000000e+00
 0.000000e+00 5.851125e-01 4.148874e-01 0.000000e+00 0.000000e+00
 0.000000e+00 0.000000e+00 5.851126e-01 4.148874e-01 0.000000e+00
 0.000000e+00 0.000000e+00 0.000000e+00 6.843369e-01 3.156631e-01
 0.000000e+00 0.000000e+00 0.000000e+00 0.000000e+00 0.000000e+00
<ENDHMM>
~h "e"
<BEGINHMM>
<NUMSTATES> 5
<STATE> 2
<MEAN> 39
 8.246139e+00 -1.829732e+01 1.876710e+00 1.653950e+01 -1.517679e+01 1.896308e+01 -7.591371e+00 -8.400032e+00 6.784369e+00 -1.017050e+01 -3.300450e+00 2.251720e+00 7.523175e+01 1.894248e-02 6.916994e-03 -1.013949e-02 7.085304e-03 1.268089e-05 7.928251e-03 1.401030e-03 -1.294300e-02 2.164578e-03 1.086734e-02 5.600661e-03 5.584639e-03 6.211715e-03 1.050394e-03 7.009112e-04 -1.254075e-04 -2.784852e-05 -1.076963e-03 -5.716649e-04 3.904439e-04 2.162611e-04 5.529259e-04 5.066862e-05 -7.585296e-04 -4.545454e-04 2.649833e-04
<VARIANCE> 39
 5.879242e+01 7.232425e+01 6.992579e+01 4.889013e+01 5.122504e+01 4.760757e+01 3.696640e+01 3.894020e+01 3.212400e+01 4.036242e+01 2.754134e+01 3.401429e+01 5.674339e+01 1.926811e+00 4.294774e+00 3.375785e+00 2.463384e+00 2.739650e+00 2.931929e+00 2.481848e+00 2.169120e+00 2.057252e+00 2.809271e+00 1.784425e+00 1.995539e+00 1.934604e+00 2.652652e-01 7.091510e-01 5.095047e-01 4.233375e-01 4.897415e-01 5.313811e-01 4.583683e-01 3.996483e-01 3.865905e-01 5.292402e-01 3.357366e-01 3.600189e-01 3.123769e-01
<GCONST> 1.218603e+02
<STATE> 3
<MEAN> 39
 8.293619e+00 -1.828030e+01 1.851717e+00 1.655641e+01 -1.518106e+01 1.898006e+01 -7.585942e+00 -8.429918e+00 6.791661e+00 -1.014342e+01 -3.289265e+00 2.264613e+00 7.524709e+01 2.119222e-02 8.142672e-03 -1.025554e-02 6.809818e-03 -3.086342e-03 6.413390e-03 2.448102e-03 -1.228344e-02 3.471343e-03 1.096348e-02 3.920468e-03 4.051102e-03 6.910814e-03 7.719577e-04 2.744400e-04 -4.563102e-05 -2.956761e-04 -1.374286e-03 -5.045387e-04 3.858806e-04 2.446333e-04 5.181897e-04 9.089724e-05 -6.306123e-04 -6.327105e-04 2.408977e-04
<VARIANCE> 39
 5.726637e+01 7.196915e+01 6.961267e+01 4.893066e+01 5.118890e+01 4.726044e+01 3.690234e+01 3.871261e+01 3.210929e+01 4.024412e+01 2.752710e+01 3.428135e+01 5.520481e+01 1.929199e+00 4.288040e+00 3.370139e+00 2.479725e+00 2.749528e+00 2.936163e+00 2.484713e+00 2.168218e+00 2.063456e+00 2.813433e+00 1.778693e+00 1.992572e+00 1.948382e+00 2.650671e-01 7.075863e-01 5.086813e-01 4.253092e-01 4.914788e-01 5.311435e-01 4.588748e-01 3.994103e-01 3.879178e-01 5.295841e-01 3.345533e-01 3.588998e-01 3.132008e-01
<GCONST> 1.218073e+02
<STATE> 4
<MEAN> 39
 8.349571e+00 -1.826615e+01 1.812399e+00 1.657028e+01 -1.521156e+01 1.900269e+01 -7.551823e+00 -8.475107e+00 6.790111e+00 -1.010061e+01 -3.307922e+00 2.269550e+00 7.526048e+01 2.094487e-02 8.716006e-03 -1.087186e-02 5.136450e-03 -7.162080e-03 3.802569e-03 3.527238e-03 -1.102872e-02 4.199446e-03 1.216591e-02 2.876387e-03 1.931698e-03 5.851476e-03 -1.248202e-04 3.537355e-05 -1.570180e-04 -6.607997e-04 -1.340711e-03 -6.652133e-04 2.627766e-04 4.035494e-04 1.878046e-04 3.207240e-04 -4.341906e-04 -7.995985e-04 -3.517088e-04
<VARIANCE> 39
 5.497291e+01 7.145744e+01 6.913023e+01 4.887532e+01 5.122381e+01 4.686919e+01 3.697234e+01 3.857172e+01 3.211790e+01 4.009541e+01 2.757302e+01 3.478005e+01 5.305077e+01 1.920269e+00 4.265443e+00 3.352324e+00 2.491585e+00 2.757236e+00 2.931929e+00 2.490633e+00 2.162997e+00 2.068667e+00 2.814303e+00 1.766973e+00 1.989902e+00 1.950622e+00 2.637223e-01 7.029369e-01 5.064927e-01 4.259657e-01 4.929305e-01 5.288892e-01 4.596359e-01 3.979248e-01 3.890165e-01 5.294961e-01 3.320903e-01 3.574789e-01 3.123969e-01
<GCONST> 1.216725e+02
<TRANSP> 5
 0.000000e+00 1.000000e+00 0.000000e+00 0.000000e+00 0.000000e+00
 0.000000e+00 5.826122e-01 4.173878e-01 0.000000e+00 0.000000e+00
 0.000000e+00 0.000000e+00 5.826104e-01 4.173895e-01 0.000000e+00
 0.000000e+00 0.000000e+00 0.000000e+00 6.812909e-01 3.187092e-01
 0.000000e+00 0.000000e+00 0.000000e+00 0.000000e+00 0.000000e+00
<ENDHMM>
~h "f"
<BEGINHMM>
<NUMSTATES> 5
<STATE> 2
<MEAN> 39
 3.447526e+00 -1.531710e+01 -4.856861e-01 1.164235e+01 -1.810066e+01 1.473442e+01 -5.835428e+00 -2.049128e+00 6.937690e+00 -1.019702e+01 -4.120700e+00 1.928319e+00 6.945836e+01 1.721534e-01 -1.340304e-01 -2.493881e-02 5.320063e-02 -3.909714e-02 4.090602e-02 1.949766e-02 -6.736604e-02 3.944822e-03 -5.490510e-02 -9.593917e-03 5.481046e-02 1.842554e-01 6.533537e-03 -6.966652e-03 -6.744924e-03 -1.418941e-03 -1.770016e-03 1.025800e-03 -1.742764e-03 -3.328021e-03 2.300282e-03 2.907666e-03 -2.409210e-03 -1.050256e-03 6.287677e-03
<VARIANCE> 39
 2.283783e+02 1.061665e+02 8.844698e+01 4.879484e+01 5.776376e+01 7.822153e+01 2.686613e+01 3.805693e+01 5.362750e+01 5.849429e+01 2.845838e+01 2.746158e+01 2.540917e+02 2.499048e+00 4.018731e+00 2.884632e+00 2.632853e+00 2.778033e+00 3.648737e+00 2.117100e+00 2.245144e+00 2.212650e+00 2.494217e+00 1.773872e+00 2.061008e+00 2.500932e+00 3.271203e-01 6.311612e-01 3.850000e-01 4.691736e-01 4.509644e-01 6.400073e-01 3.947642e-01 3.747132e-01 3.960523e-01 4.576799e-01 3.347405e-01 3.831634e-01 3.989071e-01
<GCONST> 1.267463e+02
<STATE> 3
<MEAN> 39
 3.923004e+00 -1.572751e+01 -5.531029e-01 1.176472e+01 -1.823625e+01 1.487472e+01 -5.793616e+00 -2.238941e+00 6.964608e+00 -1.032877e+01 -4.147835e+00 2.065858e+00 6.997506e+01 1.988944e-01 -1.561778e-01 -3.546345e-02 4.931040e-02 -5.304953e-02 4.466208e-02 8.467016e-03 -7.908264e-02 1.846887e-02 -4.528826e-02 -9.089323e-03 4.917065e-02 2.115802e-01 9.871889e-03 -6.391953e-03 -4.120938e-03 -2.318239e-03 -4.468334e-03 1.407411e-03 -4.466797e-03 -4.866784e-03 5.706619e-03 4.729474e-03 1.770528e-03 -2.274145e-03 9.873179e-03
<VARIANCE> 39
 2.111034e+02 1.020615e+02 8.697224e+01 4.765377e+01 5.709819e+01 7.393423e+01 2.657255e+01 3.829648e+01 5.060193e+01 5.850443e+01 2.755171e+01 2.731746e+01 2.335062e+02 2.684282e+00 4.141603e+00 2.928820e+00 2.631587e+00 2.815890e+00 3.617942e+00 2.123108e+00 2.283709e+00 2.268728e+00 2.541544e+00 1.763386e+00 2.074162e+00 2.770276e+00 3.506103e-01 6.468184e-01 3.949365e-01 4.680544e-01 4.558654e-01 6.365044e-01 3.962908e-01 3.837529e-01 4.095197e-01 4.668632e-01 3.322254e-01 3.858628e-01 4.376437e-01
<GCONST> 1.269183e+02
<STATE> 4
<MEAN> 39
 4.503876e+00 -1.632208e+01 -7.814599e-01 1.182256e+01 -1.852373e+01 1.496616e+01 -5.819558e+00 -2.513288e+00 7.066180e+00 -1.038220e+01 -4.181942e+00 2.247262e+00 7.059276e+01 2.538042e-01 -1.918321e-01 -2.958077e-02 5.002098e-02 -8.522153e-02 6.185341e-02 -6.406109e-03 -1.008081e-01 4.716761e-02 -4.480980e-02 -1.167570e-02 4.536358e-02 2.685699e-01 1.376894e-02 -3.145605e-03 1.382265e-03 -1.031299e-03 -6.398377e-03 1.129159e-03 -5.185613e-03 -5.156152e-03 7.556374e-03 3.840695e-04 -4.078384e-04 -2.974236e-03 1.308910e-02
<VARIANCE> 39
 1.863010e+02 9.550642e+01 8.436742e+01 4.617841e+01 5.568299e+01 6.934229e+01 2.635649e+01 3.854799e+01 4.670479e+01 5.885879e+01 2.698689e+01 2.724905e+01 2.037766e+02 3.075465e+00 4.333910e+00 2.976612e+00 2.638589e+00 2.877818e+00 3.579818e+00 2.124781e+00 2.343881e+00 2.389436e+00 2.633031e+00 1.796306e+00 2.100551e+00 3.306106e+00 3.931527e-01 6.739685e-01 4.086784e-01 4.691721e-01 4.637424e-01 6.326132e-01 3.974050e-01 4.002948e-01 4.331698e-01 4.858772e-01 3.389061e-01 3.923627e-01 5.052997e-01
<GCONST> 1.273988e+02
<TRANSP> 5
 0.000000e+00 1.000000e+00 0.000000e+00 0.000000e+00 0.000000e+00
 0.000000e+00 5.802575e-01 4.197424e-01 0.000000e+00 0.000000e+00
 0.000000e+00 0.000000e+00 5.802574e-01 4.197427e-01 0.000000e+00
 0.000000e+00 0.000000e+00 0.000000e+00 6.792001e-01 3.207999e-01
 0.000000e+00 0.000000e+00 0.000000e+00 0.000000e+00 0.000000e+00
<ENDHMM>
~h "g"
<BEGINHMM>
<NUMSTATES> 5
<STATE> 2
<MEAN> 39
 7.230419e+00 -1.824378e+01 2.422079e+00 1.657576e+01 -1.494172e+01 1.889663e+01 -7.430987e+00 -7.638916e+00 7.059041e+00 -1.052659e+01 -4.037609e+00 1.605322e+00 7.457248e+01 3.029097e-03 -1.523040e-02 -1.045041e-02 1.305606e-02 6.898399e-03 9.923818e-03 -7.411796e-03 -4.024650e-02 -1.941317e-02 3.723697e-02 2.356757e-02 -6.783252e-03 2.278797e-04 1.357118e-03 1.721933e-03 5.106060e-04 -9.123065e-04 -5.796225e-04 2.702985e-03 3.502426e-04 -5.235434e-04 -1.168254e-03 2.845420e-04 3.561590e-03 2.816077e-03 -3.922211e-04
<VARIANCE> 39
 9.092895e+01 8.363210e+01 7.539811e+01 5.092133e+01 5.361792e+01 5.371146e+01 3.680009e+01 4.012814e+01 3.275170e+01 4.604832e+01 3.004162e+01 3.533225e+01 9.402333e+01 1.819341e+00 4.271332e+00 3.343955e+00 2.297711e+00 2.776289e+00 2.826058e+00 2.605462e+00 2.230228e+00 2.049563e+00 3.140701e+00 1.833433e+00 2.163675e+00 1.938430e+00 2.494209e-01 7.194071e-01 4.982305e-01 4.069062e-01 4.912215e-01 5.134013e-01 4.760830e-01 4.034730e-01 3.696178e-01 5.709012e-01 3.388701e-01 3.906044e-01 3.043647e-01
<GCONST> 1.236618e+02
<STATE> 3
<MEAN> 39
 7.244268e+00 -1.828556e+01 2.406988e+00 1.660234e+01 -1.493468e+01 1.893260e+01 -7.443699e+00 -7.734848e+00 7.012086e+00 -1.043735e+01 -3.976330e+00 1.604014e+00 7.458059e+01 1.018870e-02 -1.415888e-02 -7.839748e-03 1.411104e-02 5.851677e-03 1.669314e-02 -7.247899e-03 -4.194857e-02 -2.328615e-02 3.447156e-02 2.789879e-02 3.779295e-04 3.774399e-03 3.419788e-03 -9.440375e-05 1.392880e-03 9.814760e-04 -6.313465e-05 3.412273e-03 2.602192e-04 -9.021303e-04 -1.709654e-03 -2.080861e-03 1.077590e-03 2.712977e-03 2.207988e-03
<VARIANCE> 39
 8.947775e+01 8.361334e+01 7.486741e+01 5.078646e+01 5.308360e+01 5.316855e+01 3.618806e+01 3.990619e+01 3.214558e+01 4.641742e+01 3.018735e+01 3.538975e+01 9.177671e+01 1.862699e+00 4.305258e+00 3.338360e+00 2.313446e+00 2.771886e+00 2.840412e+00 2.587440e+00 2.240813e+00 2.041034e+00 3.128499e+00 1.828459e+00 2.149633e+00 1.972130e+00 2.570834e-01 7.279090e-01 5.002412e-01 4.090827e-01 4.904836e-01 5.169107e-01 4.754236e-01 4.070909e-01 3.692071e-01 5.671942e-01 3.381867e-01 3.873424e-01 3.097776e-01
<GCONST> 1.236665e+02
<STATE> 4
<MEAN> 39
 7.301382e+00 -1.834097e+01 2.417254e+00 1.663820e+01 -1.493055e+01 1.904267e+01 -7.424165e+00 -7.870395e+00 6.936977e+00 -1.034839e+01 -3.915257e+00 1.611905e+00 7.462925e+01 2.552334e-02 -2.171489e-02 -3.006671e-03 2.048463e-02 3.240375e-03 2.706472e-02 -6.787759e-03 -4.511063e-02 -2.337948e-02 2.507616e-02 2.433864e-02 6.855742e-03 1.785980e-02 5.416271e-03 -2.185148e-03 1.547677e-03 2.647718e-03 -5.945447e-05 3.863557e-03 -2.823953e-04 -1.415615e-03 -1.435136e-04 -4.015070e-03 -1.007993e-03 2.177051e-03 4.808893e-03
<VARIANCE> 39
 8.513645e+01 8.271974e+01 7.416549e+01 5.039882e+01 5.222453e+01 5.220034e+01 3.558168e+01 3.938246e+01 3.137659e+01 4.649134e+01 3.026405e+01 3.569787e+01 8.662428e+01 1.963980e+00 4.380362e+00 3.333394e+00 2.338948e+00 2.768620e+00 2.864238e+00 2.560833e+00 2.260617e+00 2.028197e+00 3.121380e+00 1.826947e+00 2.145155e+00 2.056526e+00 2.718966e-01 7.435070e-01 5.034058e-01 4.122315e-01 4.891180e-01 5.225560e-01 4.733478e-01 4.124722e-01 3.685563e-01 5.639089e-01 3.380674e-01 3.854342e-01 3.212351e-01
<GCONST> 1.237022e+02
<TRANSP> 5
 0.000000e+00 1.000000e+00 0.000000e+00 0.000000e+00 0.000000e+00
 0.000000e+00 5.803059e-01 4.196940e-01 0.000000e+00 0.000000e+00
 0.000000e+00 0.000000e+00 5.803058e-01 4.196942e-01 0.000000e+00
 0.000000e+00 0.000000e+00 0.000000e+00 6.779816e-01 3.220185e-01
 0.000000e+00 0.000000e+00 0.000000e+00 0.000000e+00 0.000000e+00
<ENDHMM>
~h "h"
<BEGINHMM>
<NUMSTATES> 5
<STATE> 2
<MEAN> 39
 8.658825e+00 -1.790751e+01 1.178598e+00 1.435217e+01 -1.781176e+01 1.749328e+01 -6.384292e+00 -6.704546e+00 8.232411e+00 -1.001442e+01 -4.332461e+00 1.743319e+00 7.559534e+01 8.422996e-02 -2.974748e-02 9.658876e-03 5.267123e-02 1.009233e-02 9.692218e-03 -2.572773e-02 -1.461585e-02 3.739354e-02 -3.099856e-02 -1.813066e-02 2.955917e-02 7.445587e-02 -4.237812e-03 3.077555e-03 2.647701e-04 7.695705e-04 1.038746e-03 2.279473e-03 1.967466e-03 6.759780e-04 -1.469448e-03 1.008795e-03 1.043262e-03 -1.711596e-03 -5.998722e-03
<VARIANCE> 39
 5.883714e+01 5.692629e+01 7.088864e+01 5.342182e+01 6.451169e+01 6.071191e+01 3.920571e+01 4.975829e+01 3.946569e+01 4.144801e+01 2.776138e+01 3.572558e+01 6.469868e+01 1.734218e+00 3.706500e+00 2.987105e+00 2.594603e+00 2.834554e+00 3.385945e+00 2.436246e+00 2.453792e+00 2.380629e+00 2.957297e+00 1.783500e+00 1.889706e+00 1.985519e+00 2.390087e-01 6.458427e-01 4.367648e-01 4.479851e-01 5.023392e-01 5.806250e-01 4.254447e-01 4.221589e-01 4.406297e-01 5.672664e-01 3.419214e-01 3.373418e-01 3.087671e-01
<GCONST> 1.229913e+02
<STATE> 3
<MEAN> 39
 8.831678e+00 -1.796161e+01 1.187402e+00 1.447544e+01 -1.777987e+01 1.752273e+01 -6.444403e+00 -6.737728e+00 8.310178e+00 -1.007940e+01 -4.366862e+00 1.810095e+00 7.573239e+01 7.055070e-02 -1.987470e-02 7.968906e-03 5.170742e-02 1.396188e-02 1.483227e-02 -2.033749e-02 -1.285799e-02 2.959933e-02 -2.902773e-02 -1.446399e-02 2.532287e-02 5.641254e-02 -5.939638e-03 4.176334e-03 -1.337091e-03 -1.204396e-03 9.327768e-04 1.479914e-03 2.875424e-03 1.108292e-03 -3.729037e-03 1.015032e-03 1.810425e-03 -1.862554e-03 -7.649994e-03
<VARIANCE> 39
 5.276823e+01 5.514975e+01 6.845091e+01 5.290384e+01 6.387053e+01 5.966409e+01 3.963205e+01 4.968804e+01 3.811286e+01 4.166941e+01 2.743585e+01 3.519836e+01 5.806357e+01 1.643702e+00 3.686065e+00 2.926878e+00 2.601076e+00 2.822372e+00 3.372173e+00 2.438414e+00 2.448598e+00 2.371408e+00 2.972885e+00 1.767487e+00 1.867237e+00 1.937472e+00 2.279061e-01 6.442435e-01 4.305533e-01 4.516413e-01 5.000032e-01 5.833439e-01 4.255652e-01 4.220903e-01 4.410828e-01 5.682250e-01 3.388633e-01 3.331619e-01 3.049777e-01
<GCONST> 1.224057e+02
<STATE> 4
<MEAN> 39
 8.995779e+00 -1.796176e+01 1.212070e+00 1.459270e+01 -1.781921e+01 1.754278e+01 -6.449089e+00 -6.736800e+00 8.393759e+00 -1.008350e+01 -4.418088e+00 1.800120e+00 7.581973e+01 5.105051e-02 -8.644224e-03 1.575779e-04 4.451476e-02 1.806640e-02 2.009534e-02 -1.317428e-02 -1.220077e-02 1.395827e-02 -2.691246e-02 -9.335936e-03 2.109935e-02 3.263792e-02 -5.537576e-03 3.248354e-03 -2.339929e-03 -2.828500e-03 1.929656e-04 9.300603e-04 3.358993e-03 6.687869e-04 -5.024266e-03 5.443756e-04 1.569431e-03 -1.705605e-03 -6.420590e-03
<VARIANCE> 39
 4.758376e+01 5.378983e+01 6.557191e+01 5.243982e+01 6.330502e+01 5.925346e+01 3.966377e+01 4.987045e+01 3.684677e+01 4.260263e+01 2.703052e+01 3.567073e+01 5.247363e+01 1.530020e+00 3.634858e+00 2.833474e+00 2.600829e+00 2.784864e+00 3.340917e+00 2.412992e+00 2.444310e+00 2.350994e+00 2.982449e+00 1.748649e+00 1.839538e+00 1.864513e+00 2.140218e-01 6.361027e-01 4.209114e-01 4.537887e-01 4.932069e-01 5.803240e-01 4.207790e-01 4.211500e-01 4.397348e-01 5.658055e-01 3.347462e-01 3.266466e-01 2.986036e-01
<GCONST> 1.216908e+02
<TRANSP> 5
 0.000000e+00 1.000000e+00 0.000000e+00 0.000000e+00 0.000000e+00
 0.000000e+00 5.870714e-01 4.129286e-01 0.000000e+00 0.000000e+00
 0.000000e+00 0.000000e+00 5.870718e-01 4.129282e-01 0.000000e+00
 0.000000e+00 0.000000e+00 0.000000e+00 6.869223e-01 3.130777e-01
 0.000000e+00 0.000000e+00 0.000000e+00 0.000000e+00 0.000000e+00
<ENDHMM>
~h "i"
<BEGINHMM>
<NUMSTATES> 5
<STATE> 2
<MEAN> 39
 5.945838e+00 -1.808514e+01 1.583711e+00 1.673077e+01 -1.531660e+01 1.856255e+01 -7.290446e+00 -8.177991e+00 6.270378e+00 -8.911098e+00 -3.649095e+00 1.746838e+00 7.270634e+01 5.317070e-02 -4.410113e-02 1.589297e-03 2.239575e-02 -3.434304e-02 1.674863e-02 -1.023041e-03 -2.263795e-02 1.467019e-02 -3.925120e-03 -1.484155e-02 -7.947850e-03 4.928802e-02 3.466494e-03 -1.998415e-03 1.336741e-03 -1.123402e-03 -4.000118e-03 1.146397e-03 5.656931e-04 -1.643731e-04 1.830304e-03 -6.780349e-04 -1.100022e-03 -6.798152e-04 3.553786e-03
<VARIANCE> 39
 9.408649e+01 8.099535e+01 7.274125e+01 5.414030e+01 5.306176e+01 5.165989e+01 3.465520e+01 4.063255e+01 3.270607e+01 4.168446e+01 2.349909e+01 3.430329e+01 1.032774e+02 1.993680e+00 4.399576e+00 2.934259e+00 2.365137e+00 2.630560e+00 2.715404e+00 2.511402e+00 2.149812e+00 1.957372e+00 2.603424e+00 1.566317e+00 1.888103e+00 2.101960e+00 2.683549e-01 7.132196e-01 4.458187e-01 3.993680e-01 4.630970e-01 4.868625e-01 4.603235e-01 3.941906e-01 3.650825e-01 4.919416e-01 2.948583e-01 3.361461e-01 3.335561e-01
<GCONST> 1.221226e+02
<STATE> 3
<MEAN> 39
 6.087187e+00 -1.820142e+01 1.593527e+00 1.678183e+01 -1.541721e+01 1.860617e+01 -7.291444e+00 -8.229728e+00 6.316957e+00 -8.923919e+00 -3.691788e+00 1.726049e+00 7.283908e+01 5.825224e-02 -4.712119e-02 4.890851e-03 1.932638e-02 -4.309356e-02 1.798683e-02 -1.320898e-04 -2.117000e-02 1.920826e-02 -5.862567e-03 -1.812343e-02 -9.512024e-03 5.465276e-02 1.584885e-03 -8.627698e-04 1.370916e-03 -1.094280e-03 -3.198060e-03 4.034866e-04 3.435287e-04 7.134657e-04 1.494449e-03 -7.441050e-04 -1.369041e-03 -8.700347e-04 1.657448e-03
<VARIANCE> 39
 8.607616e+01 7.891223e+01 7.187064e+01 5.310976e+01 5.325888e+01 5.021499e+01 3.509389e+01 4.001782e+01 3.223529e+01 4.128725e+01 2.347722e+01 3.448324e+01 9.417900e+01 2.012803e+00 4.409683e+00 2.915868e+00 2.360137e+00 2.635339e+00 2.712860e+00 2.533941e+00 2.154299e+00 1.970627e+00 2.606257e+00 1.567470e+00 1.895407e+00 2.129182e+00 2.692333e-01 7.136007e-01 4.435633e-01 3.986639e-01 4.631228e-01 4.864237e-01 4.642360e-01 3.944780e-01 3.668325e-01 4.921355e-01 2.950978e-01 3.378763e-01 3.362154e-01
<GCONST> 1.219020e+02
<STATE> 4
<MEAN> 39
 6.267827e+00 -1.833574e+01 1.617311e+00 1.683173e+01 -1.559503e+01 1.864730e+01 -7.268723e+00 -8.283033e+00 6.392863e+00 -8.929853e+00 -3.778959e+00 1.675286e+00 7.300452e+01 5.245860e-02 -4.395582e-02 8.506239e-03 1.396991e-02 -4.852909e-02 1.526976e-02 -9.490910e-05 -1.396644e-02 2.259047e-02 -7.545968e-03 -2.091150e-02 -1.215082e-02 4.973599e-02 -2.214614e-03 1.248816e-03 1.253965e-03 -1.487476e-03 -9.740150e-04 -7.006835e-04 -1.421161e-04 2.278093e-03 6.793676e-04 -5.053882e-04 -6.842128e-04 -1.032751e-03 -1.859586e-03
<VARIANCE> 39
 7.595261e+01 7.605163e+01 7.061385e+01 5.169004e+01 5.361681e+01 4.856065e+01 3.570206e+01 3.933992e+01 3.170601e+01 4.085496e+01 2.351717e+01 3.480862e+01 8.280420e+01 1.970130e+00 4.374916e+00 2.887796e+00 2.342399e+00 2.627498e+00 2.699792e+00 2.550423e+00 2.150152e+00 1.984233e+00 2.604227e+00 1.568885e+00 1.903971e+00 2.086240e+00 2.628891e-01 7.077200e-01 4.398919e-01 3.958892e-01 4.616415e-01 4.842028e-01 4.669068e-01 3.936408e-01 3.686650e-01 4.914734e-01 2.956905e-01 3.397835e-01 3.304439e-01
<GCONST> 1.214075e+02
<TRANSP> 5
 0.000000e+00 1.000000e+00 0.000000e+00 0.000000e+00 0.000000e+00
 0.000000e+00 5.846092e-01 4.153908e-01 0.000000e+00 0.000000e+00
 0.000000e+00 0.000000e+00 5.846099e-01 4.153901e-01 0.000000e+00
 0.000000e+00 0.000000e+00 0.000000e+00 6.837634e-01 3.162366e-01
 0.000000e+00 0.000000e+00 0.000000e+00 0.000000e+00 0.000000e+00
<ENDHMM>
~h "j"
<BEGINHMM>
<NUMSTATES> 5
<STATE> 2
<MEAN> 39
 9.736346e+00 -1.722810e+01 4.595575e+00 1.779892e+01 -1.751738e+01 1.799644e+01 -6.483492e+00 -7.099131e+00 8.589174e+00 -1.001811e+01 -4.603087e+00 1.197906e+00 7.634584e+01 -6.074842e-02 -6.008342e-02 1.049626e-01 2.833613e-02 -4.112010e-02 2.343291e-02 6.657352e-02 4.343579e-02 1.779214e-02 3.565382e-02 -6.081354e-03 -3.234282e-03 -4.731532e-03 -1.861288e-05 1.651205e-03 -4.277959e-03 1.487999e-03 2.740428e-03 -9.765836e-05 1.049059e-03 1.413350e-03 -3.029952e-03 -6.775520e-04 1.549216e-03 1.583141e-03 -3.018106e-03
<VARIANCE> 39
 2.565219e+01 7.183382e+01 6.604858e+01 4.662066e+01 6.851989e+01 5.646229e+01 4.299743e+01 3.519875e+01 3.048220e+01 3.617372e+01 4.119064e+01 4.546178e+01 2.667109e+01 1.367817e+00 4.478343e+00 3.595800e+00 2.727721e+00 3.288255e+00 2.983628e+00 2.606766e+00 2.017096e+00 2.328037e+00 2.808400e+00 2.246134e+00 1.924854e+00 1.591696e+00 1.782576e-01 7.554882e-01 4.972614e-01 4.556483e-01 6.144939e-01 5.522346e-01 4.483248e-01 3.649802e-01 4.398325e-01 5.107320e-01 4.057585e-01 3.260407e-01 2.616079e-01
<GCONST> 1.212437e+02
<STATE> 3
<MEAN> 39
 9.579788e+00 -1.737540e+01 4.833717e+00 1.786989e+01 -1.762515e+01 1.803785e+01 -6.312552e+00 -6.977919e+00 8.624394e+00 -9.923196e+00 -4.622587e+00 1.192282e+00 7.631422e+01 -6.078574e-02 -5.674497e-02 9.232874e-02 3.198963e-02 -3.238730e-02 2.504245e-02 6.922264e-02 4.642818e-02 9.299751e-03 3.374574e-02 -1.839521e-03 8.852651e-04 -1.261048e-02 6.211606e-04 2.143473e-03 -6.133174e-03 9.440201e-04 3.413116e-03 3.989065e-04 8.488551e-04 8.308520e-04 -3.601141e-03 -9.348587e-04 1.736375e-03 1.791106e-03 -3.146102e-03
<VARIANCE> 39
 2.672347e+01 7.412361e+01 6.780118e+01 4.605646e+01 6.821712e+01 5.654406e+01 4.228184e+01 3.404362e+01 3.036572e+01 3.564170e+01 4.059892e+01 4.536721e+01 2.678419e+01 1.412812e+00 4.541316e+00 3.698308e+00 2.710840e+00 3.196527e+00 2.960269e+00 2.656816e+00 2.022363e+00 2.345438e+00 2.771737e+00 2.244588e+00 1.911019e+00 1.560183e+00 1.825440e-01 7.564113e-01 5.108581e-01 4.512764e-01 5.936880e-01 5.475811e-01 4.580836e-01 3.661235e-01 4.460210e-01 5.030040e-01 4.058609e-01 3.208499e-01 2.559356e-01
<GCONST> 1.212511e+02
<STATE> 4
<MEAN> 39
 9.421228e+00 -1.741185e+01 4.971491e+00 1.788538e+01 -1.787002e+01 1.795533e+01 -6.077425e+00 -6.774475e+00 8.626637e+00 -9.793685e+00 -4.662310e+00 1.245794e+00 7.616763e+01 -6.070006e-02 -5.387373e-02 7.052892e-02 3.388523e-02 -2.145340e-02 2.671939e-02 7.204650e-02 4.902785e-02 -2.175938e-03 3.240918e-02 1.751257e-03 5.724096e-03 -2.355019e-02 1.089700e-03 2.178122e-03 -7.707431e-03 3.399154e-04 4.335407e-03 1.291828e-03 6.749428e-04 -1.902296e-05 -4.047671e-03 -1.090144e-03 1.942548e-03 1.959930e-03 -2.962030e-03
<VARIANCE> 39
 2.824730e+01 7.817404e+01 6.829642e+01 4.495055e+01 6.798229e+01 5.821147e+01 4.148259e+01 3.294030e+01 3.050724e+01 3.490539e+01 3.998562e+01 4.485183e+01 2.703576e+01 1.456838e+00 4.595173e+00 3.764105e+00 2.679960e+00 3.072610e+00 2.972418e+00 2.735354e+00 2.022731e+00 2.381165e+00 2.726280e+00 2.253042e+00 1.892356e+00 1.518960e+00 1.854887e-01 7.486304e-01 5.217136e-01 4.447988e-01 5.632292e-01 5.458122e-01 4.720370e-01 3.667323e-01 4.572255e-01 4.931993e-01 4.089932e-01 3.152337e-01 2.483439e-01
<GCONST> 1.212441e+02
<TRANSP> 5
 0.000000e+00 1.000000e+00 0.000000e+00 0.000000e+00 0.000000e+00
 0.000000e+00 5.992535e-01 4.007465e-01 0.000000e+00 0.000000e+00
 0.000000e+00 0.000000e+00 5.992538e-01 4.007463e-01 0.000000e+00
 0.000000e+00 0.000000e+00 0.000000e+00 7.014103e-01 2.985897e-01
 0.000000e+00 0.000000e+00 0.000000e+00 0.000000e+00 0.000000e+00
<ENDHMM>
~h "k"
<BEGINHMM>
<NUMSTATES> 5
<STATE> 2
<MEAN> 39
 7.284291e+00 -1.839549e+01 1.491723e+00 1.552081e+01 -1.678167e+01 1.843695e+01 -6.947038e+00 -7.494254e+00 6.837223e+00 -9.530637e+00 -4.116125e+00 1.962698e+00 7.397857e+01 4.029802e-02 -5.384276e-02 2.247896e-02 -1.120846e-03 -4.627791e-02 2.181189e-02 1.859782e-02 -1.058110e-02 1.815324e-02 -2.673907e-03 -1.300949e-02 3.507882e-03 5.832732e-02 -2.457187e-03 9.957313e-04 -9.359971e-04 -1.371347e-03 7.878417e-04 -5.506856e-04 6.322046e-04 3.852950e-04 -1.866131e-03 -2.260481e-04 6.062893e-04 -7.805384e-04 -2.099781e-03
<VARIANCE> 39
 6.546291e+01 7.476000e+01 6.924287e+01 5.219931e+01 6.006409e+01 5.572554e+01 3.633635e+01 4.426284e+01 3.675486e+01 4.266172e+01 2.840312e+01 3.368490e+01 6.994978e+01 2.240850e+00 4.541615e+00 3.282283e+00 2.740050e+00 3.051025e+00 3.119791e+00 2.440869e+00 2.316980e+00 2.308966e+00 3.067932e+00 1.830312e+00 2.036934e+00 2.401603e+00 3.043242e-01 7.589016e-01 5.197504e-01 4.750276e-01 5.382885e-01 5.511253e-01 4.561341e-01 4.238448e-01 4.353481e-01 5.809427e-01 3.525288e-01 3.664105e-01 3.736712e-01
<GCONST> 1.248572e+02
<STATE> 3
<MEAN> 39
 7.360792e+00 -1.851037e+01 1.542110e+00 1.551117e+01 -1.688810e+01 1.847970e+01 -6.900873e+00 -7.512397e+00 6.871969e+00 -9.537237e+00 -4.146770e+00 1.967104e+00 7.409694e+01 3.148776e-02 -4.936810e-02 1.980521e-02 -5.546123e-03 -4.229285e-02 1.961775e-02 1.934213e-02 -8.529555e-03 1.303708e-02 -3.090178e-03 -1.056188e-02 2.031081e-03 5.047102e-02 -3.611425e-03 2.325702e-03 -1.277028e-03 -1.748943e-03 1.798775e-03 -1.084167e-03 1.478216e-04 1.043650e-03 -1.863276e-03 -7.936959e-05 1.016311e-03 -6.909686e-04 -3.500735e-03
<VARIANCE> 39
 6.066084e+01 7.356831e+01 6.904800e+01 5.159109e+01 6.013685e+01 5.533807e+01 3.634784e+01 4.384697e+01 3.615855e+01 4.232665e+01 2.864193e+01 3.364327e+01 6.421421e+01 2.204590e+00 4.524583e+00 3.302627e+00 2.755581e+00 3.067376e+00 3.116613e+00 2.442997e+00 2.317643e+00 2.302859e+00 3.071068e+00 1.840773e+00 2.037381e+00 2.345948e+00 2.995058e-01 7.572362e-01 5.222275e-01 4.785204e-01 5.409797e-01 5.503840e-01 4.565771e-01 4.240038e-01 4.344370e-01 5.810854e-01 3.541983e-01 3.668285e-01 3.655881e-01
<GCONST> 1.245920e+02
<STATE> 4
<MEAN> 39
 7.426639e+00 -1.860865e+01 1.582494e+00 1.547715e+01 -1.704446e+01 1.851274e+01 -6.821010e+00 -7.516374e+00 6.903209e+00 -9.546211e+00 -4.222320e+00 1.953882e+00 7.419023e+01 1.852291e-02 -3.991341e-02 1.606128e-02 -1.135622e-02 -3.485849e-02 1.595561e-02 1.855068e-02 -4.111313e-03 7.250031e-03 -3.833139e-03 -7.186394e-03 1.526840e-03 3.725909e-02 -3.546493e-03 2.974446e-03 -1.286607e-03 -1.701933e-03 2.428789e-03 -9.603009e-04 -3.825811e-04 1.312660e-03 -1.493621e-03 -2.448169e-04 1.121451e-03 -2.961138e-04 -3.726226e-03
<VARIANCE> 39
 5.615057e+01 7.219533e+01 6.871701e+01 5.099989e+01 6.023615e+01 5.496346e+01 3.627721e+01 4.334098e+01 3.560865e+01 4.195921e+01 2.896643e+01 3.370395e+01 5.880691e+01 2.136179e+00 4.474528e+00 3.298903e+00 2.762789e+00 3.070593e+00 3.098387e+00 2.441682e+00 2.310570e+00 2.286740e+00 3.060801e+00 1.845753e+00 2.038091e+00 2.261334e+00 2.905989e-01 7.512220e-01 5.202283e-01 4.807302e-01 5.418540e-01 5.464037e-01 4.572904e-01 4.231357e-01 4.306998e-01 5.785326e-01 3.547181e-01 3.673684e-01 3.534037e-01
<GCONST> 1.241808e+02
<TRANSP> 5
 0.000000e+00 1.000000e+00 0.000000e+00 0.000000e+00 0.000000e+00
 0.000000e+00 5.858766e-01 4.141234e-01 0.000000e+00 0.000000e+00
 0.000000e+00 0.000000e+00 5.858768e-01 4.141231e-01 0.000000e+00
 0.000000e+00 0.000000e+00 0.000000e+00 6.854053e-01 3.145947e-01
 0.000000e+00 0.000000e+00 0.000000e+00 0.000000e+00 0.000000e+00
<ENDHMM>
~h "l"
<BEGINHMM>
<NUMSTATES> 5
<STATE> 2
<MEAN> 39
 7.754173e+00 -1.766019e+01 1.698462e+00 1.589843e+01 -1.670794e+01 1.852853e+01 -6.537890e+00 -7.534109e+00 6.755406e+00 -1.034619e+01 -4.511611e+00 1.629883e+00 7.422948e+01 2.445826e-02 -1.447476e-02 2.197772e-02 1.328250e-02 -1.533547e-02 1.838787e-02 6.605944e-03 7.646903e-04 1.798641e-02 -4.454793e-03 -6.851595e-03 4.237430e-03 2.654587e-02 -4.441847e-03 -9.826509e-04 3.009213e-04 -2.149125e-03 7.985160e-04 -1.187100e-03 -5.482365e-04 2.072605e-03 -1.545260e-04 -4.636780e-04 -5.104775e-04 9.714399e-05 -2.494635e-03
<VARIANCE> 39
 5.884379e+01 6.883543e+01 7.351343e+01 4.659605e+01 5.431371e+01 5.623338e+01 3.415041e+01 4.044405e+01 3.502581e+01 4.377177e+01 2.868826e+01 3.588716e+01 6.285267e+01 1.762948e+00 3.942427e+00 3.042965e+00 2.294664e+00 2.710656e+00 3.042419e+00 2.288624e+00 2.164214e+00 2.057723e+00 2.808756e+00 1.742692e+00 1.976170e+00 1.819783e+00 2.347957e-01 6.395596e-01 4.578129e-01 3.911838e-01 4.718670e-01 5.312303e-01 4.154738e-01 3.888684e-01 3.719200e-01 5.138168e-01 3.252245e-01 3.406525e-01 2.822583e-01
<GCONST> 1.210299e+02
<STATE> 3
<MEAN> 39
 7.792889e+00 -1.769094e+01 1.753382e+00 1.592435e+01 -1.673570e+01 1.856949e+01 -6.525475e+00 -7.526476e+00 6.798549e+00 -1.035571e+01 -4.527897e+00 1.639668e+00 7.427870e+01 1.238746e-02 -1.606632e-02 2.154494e-02 7.103302e-03 -1.275109e-02 1.428929e-02 5.151738e-03 6.357220e-03 1.725393e-02 -5.043826e-03 -8.007434e-03 3.997888e-03 1.918953e-02 -4.723269e-03 -7.455620e-04 -1.550820e-04 -2.518856e-03 1.010327e-03 -1.555918e-03 -5.111498e-04 2.251458e-03 -3.796977e-04 -3.291906e-04 -3.812515e-04 2.417073e-05 -2.830787e-03
<VARIANCE> 39
 5.617749e+01 6.836221e+01 7.358001e+01 4.642091e+01 5.442781e+01 5.574115e+01 3.404750e+01 4.008203e+01 3.458434e+01 4.361676e+01 2.853314e+01 3.577177e+01 5.967647e+01 1.713592e+00 3.905737e+00 3.055650e+00 2.280123e+00 2.697383e+00 3.043070e+00 2.290741e+00 2.148681e+00 2.054639e+00 2.809390e+00 1.733092e+00 1.980469e+00 1.759106e+00 2.290462e-01 6.321511e-01 4.596006e-01 3.898694e-01 4.697851e-01 5.309294e-01 4.167738e-01 3.867541e-01 3.716310e-01 5.141365e-01 3.234500e-01 3.414119e-01 2.743104e-01
<GCONST> 1.207136e+02
<STATE> 4
<MEAN> 39
 7.773983e+00 -1.772871e+01 1.773074e+00 1.590953e+01 -1.679029e+01 1.861223e+01 -6.491154e+00 -7.509817e+00 6.831470e+00 -1.034940e+01 -4.584425e+00 1.652023e+00 7.426591e+01 -2.651848e-04 -1.743832e-02 2.002005e-02 7.424932e-04 -8.991595e-03 9.204218e-03 3.505680e-03 1.145925e-02 1.616969e-02 -4.337804e-03 -8.819772e-03 3.095637e-03 1.128568e-02 -3.638939e-03 -7.564456e-04 -5.752720e-04 -2.118761e-03 7.809873e-04 -1.577394e-03 -3.055781e-04 1.760256e-03 -4.602984e-04 -2.012828e-05 -3.312966e-04 -1.188879e-04 -2.216856e-03
<VARIANCE> 39
 5.465788e+01 6.773011e+01 7.373996e+01 4.631852e+01 5.467194e+01 5.513410e+01 3.387940e+01 3.970402e+01 3.399031e+01 4.362487e+01 2.832043e+01 3.561131e+01 5.782772e+01 1.657582e+00 3.835653e+00 3.056278e+00 2.256369e+00 2.673636e+00 3.032866e+00 2.291130e+00 2.123203e+00 2.048659e+00 2.797530e+00 1.719887e+00 1.982256e+00 1.688269e+00 2.227008e-01 6.195408e-01 4.596283e-01 3.874126e-01 4.660640e-01 5.288160e-01 4.180432e-01 3.828766e-01 3.708911e-01 5.122049e-01 3.208111e-01 3.418707e-01 2.649572e-01
<GCONST> 1.203340e+02
<TRANSP> 5
 0.000000e+00 1.000000e+00 0.000000e+00 0.000000e+00 0.000000e+00
 0.000000e+00 5.878830e-01 4.121170e-01 0.000000e+00 0.000000e+00
 0.000000e+00 0.000000e+00 5.878843e-01 4.121157e-01 0.000000e+00
 0.000000e+00 0.000000e+00 0.000000e+00 6.878597e-01 3.121403e-01
 0.000000e+00 0.000000e+00 0.000000e+00 0.000000e+00 0.000000e+00
<ENDHMM>
~h "m"
<BEGINHMM>
<NUMSTATES> 5
<STATE> 2
<MEAN> 39
 7.553906e+00 -1.817615e+01 1.586799e+00 1.570567e+01 -1.705698e+01 1.848130e+01 -6.197253e+00 -7.223291e+00 7.352444e+00 -9.730571e+00 -4.480020e+00 2.001850e+00 7.427364e+01 -5.150102e-04 -3.118455e-02 1.687638e-02 -1.014310e-02 -2.906774e-02 -2.018386e-03 9.148780e-03 7.776670e-03 1.737564e-02 1.235009e-03 -2.306952e-03 5.394607e-03 2.233334e-02 -2.500691e-03 1.706644e-03 -1.011069e-03 -1.273572e-03 1.435273e-03 -1.371546e-03 -1.342371e-03 4.270673e-05 -1.924019e-03 -5.327511e-04 1.437840e-03 9.425655e-04 -2.789066e-03
<VARIANCE> 39
 5.885045e+01 7.966345e+01 6.617872e+01 4.798907e+01 5.223207e+01 5.757259e+01 3.273873e+01 3.846369e+01 3.217278e+01 3.969122e+01 2.508089e+01 3.294128e+01 5.570282e+01 1.878949e+00 4.673919e+00 3.104172e+00 2.390173e+00 2.441299e+00 3.109381e+00 2.249854e+00 2.133051e+00 1.982713e+00 2.825500e+00 1.603124e+00 1.999037e+00 1.802898e+00 2.441661e-01 7.355808e-01 4.614182e-01 4.135215e-01 4.295178e-01 5.440199e-01 4.115130e-01 3.943224e-01 3.667003e-01 5.310215e-01 3.024800e-01 3.502759e-01 2.951995e-01
<GCONST> 1.207319e+02
<STATE> 3
<MEAN> 39
 7.553284e+00 -1.822663e+01 1.619556e+00 1.568338e+01 -1.711769e+01 1.846655e+01 -6.174991e+00 -7.202078e+00 7.386319e+00 -9.728896e+00 -4.485447e+00 2.008414e+00 7.431577e+01 -4.657004e-03 -2.604000e-02 1.393191e-02 -1.186076e-02 -2.562739e-02 -4.834040e-03 5.723504e-03 6.725689e-03 1.230136e-02 1.178887e-04 8.402178e-04 7.178967e-03 1.577396e-02 -1.114405e-03 3.148573e-03 -2.065900e-03 -5.754647e-04 1.269556e-03 -1.713744e-03 -1.275808e-03 -3.057103e-04 -2.248473e-03 -4.503253e-04 1.175688e-03 4.456477e-04 -3.094138e-03
<VARIANCE> 39
 5.871180e+01 7.978719e+01 6.659691e+01 4.788984e+01 5.206248e+01 5.757008e+01 3.299589e+01 3.857291e+01 3.214997e+01 3.963941e+01 2.528408e+01 3.282886e+01 5.477228e+01 1.871560e+00 4.658738e+00 3.113168e+00 2.380457e+00 2.414134e+00 3.122993e+00 2.255939e+00 2.128030e+00 1.977274e+00 2.820360e+00 1.597867e+00 1.990029e+00 1.783284e+00 2.431665e-01 7.312872e-01 4.626995e-01 4.117066e-01 4.247926e-01 5.461317e-01 4.125188e-01 3.932677e-01 3.659648e-01 5.302067e-01 3.008582e-01 3.477530e-01 2.933207e-01
<GCONST> 1.206488e+02
<STATE> 4
<MEAN> 39
 7.537599e+00 -1.824690e+01 1.615759e+00 1.565235e+01 -1.720302e+01 1.843322e+01 -6.139091e+00 -7.196874e+00 7.394231e+00 -9.714944e+00 -4.523779e+00 1.995291e+00 7.431424e+01 -4.429400e-03 -1.294516e-02 7.290677e-03 -1.004418e-02 -2.116648e-02 -9.330765e-03 2.249075e-03 4.664144e-03 5.317589e-03 -5.464922e-04 2.671374e-03 5.623573e-03 6.340982e-03 2.519105e-04 4.315583e-03 -2.957248e-03 3.034944e-04 1.070094e-03 -1.715906e-03 -1.227037e-03 -7.372050e-04 -2.428673e-03 -3.156426e-04 7.552073e-04 -2.052482e-04 -3.332784e-03
<VARIANCE> 39
 5.890276e+01 7.934701e+01 6.647319e+01 4.761939e+01 5.149689e+01 5.748528e+01 3.334727e+01 3.871851e+01 3.220932e+01 3.971400e+01 2.561271e+01 3.295448e+01 5.469079e+01 1.859986e+00 4.614425e+00 3.095632e+00 2.367342e+00 2.374848e+00 3.133052e+00 2.263776e+00 2.115986e+00 1.973596e+00 2.809358e+00 1.588266e+00 1.979084e+00 1.765987e+00 2.422553e-01 7.249700e-01 4.610008e-01 4.093618e-01 4.175587e-01 5.475711e-01 4.138305e-01 3.904626e-01 3.653524e-01 5.285191e-01 2.982813e-01 3.448660e-01 2.919081e-01
<GCONST> 1.205236e+02
<TRANSP> 5
 0.000000e+00 1.000000e+00 0.000000e+00 0.000000e+00 0.000000e+00
 0.000000e+00 5.875254e-01 4.124747e-01 0.000000e+00 0.000000e+00
 0.000000e+00 0.000000e+00 5.875256e-01 4.124744e-01 0.000000e+00
 0.000000e+00 0.000000e+00 0.000000e+00 6.874615e-01 3.125386e-01
 0.000000e+00 0.000000e+00 0.000000e+00 0.000000e+00 0.000000e+00
<ENDHMM>
~h "n"
<BEGINHMM>
<NUMSTATES> 5
<STATE> 2
<MEAN> 39
 8.724712e+00 -1.738458e+01 1.783423e+00 1.599380e+01 -1.667066e+01 1.839569e+01 -6.450786e+00 -7.045968e+00 7.611434e+00 -1.045043e+01 -4.235659e+00 1.742696e+00 7.509771e+01 2.770896e-02 -3.100685e-02 -1.679027e-03 1.788362e-02 -3.773499e-03 1.524501e-02 7.554758e-04 -1.414975e-02 3.261825e-03 -6.495378e-03 2.209058e-03 1.418439e-02 3.045755e-02 -2.028911e-03 3.030220e-03 -6.530914e-04 -7.442699e-05 8.286086e-04 -1.414386e-03 -2.847220e-05 1.213041e-03 2.594887e-04 1.292819e-03 3.408372e-04 -1.331772e-03 -2.913203e-03
<VARIANCE> 39
 5.812142e+01 7.327083e+01 6.898603e+01 4.660942e+01 5.561714e+01 5.493755e+01 3.719810e+01 4.116972e+01 3.359317e+01 4.172878e+01 2.892201e+01 3.781823e+01 5.455207e+01 1.796445e+00 4.142075e+00 3.047157e+00 2.367952e+00 2.715004e+00 3.214507e+00 2.401102e+00 2.250048e+00 2.086212e+00 2.869210e+00 1.760842e+00 2.091202e+00 1.924860e+00 2.401977e-01 6.695724e-01 4.483126e-01 4.077632e-01 4.701876e-01 5.726610e-01 4.358292e-01 4.063220e-01 3.813126e-01 5.305614e-01 3.296140e-01 3.702255e-01 3.039024e-01
<GCONST> 1.218322e+02
<STATE> 3
<MEAN> 39
 8.776193e+00 -1.744790e+01 1.778039e+00 1.603336e+01 -1.667463e+01 1.842640e+01 -6.451681e+00 -7.073658e+00 7.619637e+00 -1.045982e+01 -4.228422e+00 1.772456e+00 7.515475e+01 2.105680e-02 -2.235388e-02 -3.382412e-03 1.675467e-02 -1.588572e-03 1.087536e-02 1.867646e-04 -1.082011e-02 3.187833e-03 -2.778491e-03 2.854333e-03 1.019976e-02 2.157756e-02 -2.700272e-03 3.645266e-03 -6.203683e-04 -5.221796e-04 7.772067e-04 -1.788890e-03 -2.581436e-04 1.276635e-03 -9.655679e-05 1.556519e-03 2.094783e-04 -1.786737e-03 -3.668651e-03
<VARIANCE> 39
 5.526463e+01 7.313270e+01 6.836753e+01 4.614815e+01 5.529487e+01 5.456918e+01 3.724088e+01 4.095306e+01 3.330134e+01 4.154807e+01 2.881508e+01 3.791525e+01 5.115653e+01 1.751095e+00 4.126191e+00 3.031644e+00 2.355127e+00 2.700676e+00 3.195296e+00 2.396421e+00 2.233349e+00 2.089839e+00 2.863952e+00 1.756578e+00 2.097910e+00 1.874213e+00 2.353108e-01 6.657790e-01 4.461862e-01 4.055487e-01 4.681852e-01 5.696305e-01 4.348061e-01 4.039629e-01 3.821194e-01 5.299346e-01 3.293960e-01 3.712144e-01 2.977841e-01
<GCONST> 1.215077e+02
<STATE> 4
<MEAN> 39
 8.793730e+00 -1.750114e+01 1.736227e+00 1.606368e+01 -1.670570e+01 1.844414e+01 -6.440326e+00 -7.112916e+00 7.615119e+00 -1.042953e+01 -4.248691e+00 1.783933e+00 7.515889e+01 1.281373e-02 -1.251562e-02 -4.385975e-03 1.460223e-02 4.924107e-04 6.008043e-03 -1.483148e-03 -7.720202e-03 3.127267e-03 2.466125e-03 3.254881e-03 4.653842e-03 1.102200e-02 -2.195562e-03 3.357634e-03 -3.672636e-04 -5.502322e-04 4.345047e-04 -1.569468e-03 -3.638277e-04 8.285025e-04 -8.280505e-05 1.683042e-03 6.886257e-06 -1.930272e-03 -3.203856e-03
<VARIANCE> 39
 5.301875e+01 7.317128e+01 6.725552e+01 4.569656e+01 5.498991e+01 5.437245e+01 3.734507e+01 4.066306e+01 3.308126e+01 4.132784e+01 2.861615e+01 3.813065e+01 4.861055e+01 1.695230e+00 4.098078e+00 2.993431e+00 2.336209e+00 2.674773e+00 3.169432e+00 2.390620e+00 2.205461e+00 2.094966e+00 2.842682e+00 1.746372e+00 2.100283e+00 1.814014e+00 2.289654e-01 6.598537e-01 4.414913e-01 4.024482e-01 4.648350e-01 5.653492e-01 4.334501e-01 3.991847e-01 3.833244e-01 5.266325e-01 3.282813e-01 3.711918e-01 2.905064e-01
<GCONST> 1.211121e+02
<TRANSP> 5
 0.000000e+00 1.000000e+00 0.000000e+00 0.000000e+00 0.000000e+00
 0.000000e+00 5.855632e-01 4.144368e-01 0.000000e+00 0.000000e+00
 0.000000e+00 0.000000e+00 5.855640e-01 4.144361e-01 0.000000e+00
 0.000000e+00 0.000000e+00 0.000000e+00 6.850955e-01 3.149045e-01
 0.000000e+00 0.000000e+00 0.000000e+00 0.000000e+00 0.000000e+00
<ENDHMM>
~h "o"
<BEGINHMM>
<NUMSTATES> 5
<STATE> 2
<MEAN> 39
 8.378376e+00 -1.679414e+01 1.245981e+00 1.474221e+01 -1.817808e+01 1.672829e+01 -6.249362e+00 -5.955705e+00 8.123393e+00 -1.048880e+01 -5.530925e+00 1.084174e+00 7.455707e+01 7.606798e-02 -3.690971e-02 4.552314e-03 -1.234154e-02 -6.422688e-02 3.512446e-04 5.431364e-03 5.470810e-03 3.916687e-02 -2.640760e-02 -2.236506e-02 1.178198e-02 7.616286e-02 3.144471e-03 -1.711058e-03 1.151106e-03 1.774219e-03 -1.140414e-03 -2.214116e-03 -9.267270e-04 4.753165e-04 1.152608e-03 -1.213014e-03 4.857365e-04 1.023692e-03 3.479012e-03
<VARIANCE> 39
 8.172396e+01 7.963608e+01 6.498998e+01 4.689895e+01 6.175130e+01 6.888297e+01 3.286156e+01 4.843639e+01 4.548359e+01 4.491048e+01 3.489297e+01 3.876398e+01 8.033671e+01 2.148380e+00 4.505622e+00 2.873999e+00 2.482695e+00 3.018519e+00 3.648907e+00 2.317014e+00 2.466822e+00 2.544948e+00 3.205158e+00 2.094806e+00 2.365779e+00 2.228264e+00 2.770061e-01 7.246882e-01 4.301067e-01 4.255022e-01 5.084167e-01 6.372620e-01 4.331879e-01 4.325395e-01 4.591879e-01 6.028627e-01 3.815004e-01 4.218927e-01 3.520421e-01
<GCONST> 1.260439e+02
<STATE> 3
<MEAN> 39
 8.581997e+00 -1.689130e+01 1.266007e+00 1.472130e+01 -1.834600e+01 1.672081e+01 -6.240677e+00 -5.942454e+00 8.227861e+00 -1.055801e+01 -5.587685e+00 1.115559e+00 7.476060e+01 8.093378e-02 -3.753973e-02 8.122303e-03 -6.320253e-03 -6.530737e-02 -6.130490e-03 3.052024e-03 8.213943e-03 4.047319e-02 -2.971385e-02 -2.152424e-02 1.320803e-02 8.050510e-02 1.553164e-03 -5.684402e-04 1.625905e-03 2.713684e-03 -3.421000e-04 -2.143844e-03 -6.669640e-04 1.140343e-03 2.561292e-04 -1.069980e-03 5.782830e-04 7.701496e-04 1.395446e-03
<VARIANCE> 39
 7.391985e+01 7.832587e+01 6.462801e+01 4.621346e+01 6.115525e+01 6.826322e+01 3.267935e+01 4.771944e+01 4.514597e+01 4.448676e+01 3.510054e+01 3.868834e+01 7.110047e+01 2.190729e+00 4.552881e+00 2.884730e+00 2.485116e+00 3.023630e+00 3.646925e+00 2.320290e+00 2.467281e+00 2.559076e+00 3.214558e+00 2.112934e+00 2.369510e+00 2.270380e+00 2.812525e-01 7.332758e-01 4.323092e-01 4.259092e-01 5.086682e-01 6.349979e-01 4.346166e-01 4.320896e-01 4.603605e-01 6.037145e-01 3.840585e-01 4.238113e-01 3.545341e-01
<GCONST> 1.258616e+02
<STATE> 4
<MEAN> 39
 8.770826e+00 -1.702106e+01 1.246007e+00 1.470845e+01 -1.858645e+01 1.669824e+01 -6.221645e+00 -5.951199e+00 8.320087e+00 -1.059423e+01 -5.661339e+00 1.188132e+00 7.492163e+01 7.432286e-02 -3.090823e-02 1.363656e-02 2.209791e-03 -6.114134e-02 -1.435624e-02 5.658543e-04 1.610017e-02 3.965464e-02 -3.020491e-02 -1.980135e-02 1.349700e-02 7.177366e-02 -2.828818e-03 1.343613e-03 1.609903e-03 2.833381e-03 1.751127e-03 -1.984081e-03 -4.868249e-04 2.508136e-03 -8.171442e-04 9.360225e-05 1.047444e-03 4.787365e-04 -3.205706e-03
<VARIANCE> 39
 6.475436e+01 7.712983e+01 6.380824e+01 4.511569e+01 6.035008e+01 6.769473e+01 3.233015e+01 4.683892e+01 4.484280e+01 4.365340e+01 3.503812e+01 3.848227e+01 6.024190e+01 2.157989e+00 4.573721e+00 2.865747e+00 2.470921e+00 2.987104e+00 3.628844e+00 2.317772e+00 2.443314e+00 2.553982e+00 3.196147e+00 2.120113e+00 2.360424e+00 2.211882e+00 2.766649e-01 7.381230e-01 4.306555e-01 4.239497e-01 5.020849e-01 6.290743e-01 4.349253e-01 4.271905e-01 4.579807e-01 5.993117e-01 3.850316e-01 4.232899e-01 3.444119e-01
<GCONST> 1.252509e+02
<TRANSP> 5
 0.000000e+00 1.000000e+00 0.000000e+00 0.000000e+00 0.000000e+00
 0.000000e+00 5.942168e-01 4.057831e-01 0.000000e+00 0.000000e+00
 0.000000e+00 0.000000e+00 5.942172e-01 4.057828e-01 0.000000e+00
 0.000000e+00 0.000000e+00 0.000000e+00 6.956913e-01 3.043087e-01
 0.000000e+00 0.000000e+00 0.000000e+00 0.000000e+00 0.000000e+00
<ENDHMM>
~h "p"
<BEGINHMM>
<NUMSTATES> 5
<STATE> 2
<MEAN> 39
 8.710829e+00 -1.790452e+01 2.618505e+00 1.403632e+01 -1.739027e+01 1.934589e+01 -7.061728e+00 -7.707283e+00 7.100244e+00 -1.112375e+01 -4.374553e+00 2.900100e+00 7.566593e+01 -4.068862e-02 1.574223e-02 -4.162928e-02 9.439442e-03 -3.543516e-02 -3.004307e-04 1.042954e-02 -3.314973e-02 -2.124457e-02 8.387361e-02 9.591626e-04 6.184247e-03 -8.543932e-02 3.004629e-03 5.566831e-03 -5.431585e-03 3.834174e-03 -2.052806e-03 -7.841556e-03 3.750136e-03 8.661848e-03 5.016936e-03 2.531960e-03 -2.481780e-04 -5.392723e-03 -2.223779e-03
<VARIANCE> 39
 4.693358e+01 7.387272e+01 7.672250e+01 3.948691e+01 4.841398e+01 5.765849e+01 3.903331e+01 4.705656e+01 2.925871e+01 4.311508e+01 2.495284e+01 3.811889e+01 3.878565e+01 2.046160e+00 4.747766e+00 3.326793e+00 2.445689e+00 2.955613e+00 2.689008e+00 2.261285e+00 2.352507e+00 2.081228e+00 3.101346e+00 1.562729e+00 2.100367e+00 1.860401e+00 2.874116e-01 8.109328e-01 5.094494e-01 4.058383e-01 5.086640e-01 4.828368e-01 4.067599e-01 4.126389e-01 3.748677e-01 5.829998e-01 2.989061e-01 3.598996e-01 3.145200e-01
<GCONST> 1.216103e+02
<STATE> 3
<MEAN> 39
 8.605759e+00 -1.786903e+01 2.500063e+00 1.407844e+01 -1.748486e+01 1.931578e+01 -7.042560e+00 -7.756134e+00 7.066874e+00 -1.090983e+01 -4.369326e+00 2.916640e+00 7.543610e+01 -3.302801e-02 3.013466e-02 -5.422540e-02 2.052351e-02 -3.901422e-02 -1.950598e-02 2.030866e-02 -1.135592e-02 -9.606319e-03 8.905932e-02 -2.145814e-04 -7.861598e-03 -9.073570e-02 3.145750e-03 5.821405e-03 -3.999912e-03 4.964731e-03 3.585108e-04 -6.926482e-03 3.541567e-03 7.954285e-03 4.425709e-03 1.999269e-03 8.994841e-05 -5.411661e-03 -1.372405e-03
<VARIANCE> 39
 4.662655e+01 7.374453e+01 7.404302e+01 3.885787e+01 4.797049e+01 5.568636e+01 3.864877e+01 4.683571e+01 2.930433e+01 4.328424e+01 2.405417e+01 3.715216e+01 4.090719e+01 2.030643e+00 4.823492e+00 3.258956e+00 2.460741e+00 2.950395e+00 2.735821e+00 2.270478e+00 2.363640e+00 2.063223e+00 3.084825e+00 1.528156e+00 2.081935e+00 1.893699e+00 2.870122e-01 8.243362e-01 5.006448e-01 4.110837e-01 5.131173e-01 4.939495e-01 4.085201e-01 4.142543e-01 3.720468e-01 5.840076e-01 2.941824e-01 3.571686e-01 3.200361e-01
<GCONST> 1.215168e+02
<STATE> 4
<MEAN> 39
 8.444067e+00 -1.784678e+01 2.373274e+00 1.417349e+01 -1.760488e+01 1.927174e+01 -7.008096e+00 -7.801770e+00 7.101038e+00 -1.054194e+01 -4.390954e+00 2.915705e+00 7.512263e+01 -2.772427e-02 4.124049e-02 -6.403550e-02 3.661048e-02 -3.750542e-02 -3.960123e-02 2.887620e-02 1.306026e-02 2.013529e-03 9.276264e-02 -7.930361e-04 -2.086058e-02 -9.615204e-02 2.516704e-03 4.551754e-03 -2.137101e-03 5.304299e-03 2.457160e-03 -5.134711e-03 3.344815e-03 6.464462e-03 3.254925e-03 1.307253e-03 1.602483e-04 -4.966574e-03 -2.259548e-04
<VARIANCE> 39
 4.631571e+01 7.385658e+01 6.970544e+01 3.859118e+01 4.785727e+01 5.369478e+01 3.850486e+01 4.686152e+01 2.958684e+01 4.349740e+01 2.322395e+01 3.644034e+01 4.320132e+01 2.013240e+00 4.908408e+00 3.148579e+00 2.489529e+00 2.936048e+00 2.816681e+00 2.296164e+00 2.379917e+00 2.045608e+00 3.085842e+00 1.504354e+00 2.076934e+00 1.933279e+00 2.875047e-01 8.375858e-01 4.890835e-01 4.166305e-01 5.149768e-01 5.143330e-01 4.149280e-01 4.183674e-01 3.687785e-01 5.873913e-01 2.911467e-01 3.578603e-01 3.246862e-01
<GCONST> 1.215199e+02
<TRANSP> 5
 0.000000e+00 1.000000e+00 0.000000e+00 0.000000e+00 0.000000e+00
 0.000000e+00 5.935423e-01 4.064577e-01 0.000000e+00 0.000000e+00
 0.000000e+00 0.000000e+00 5.935425e-01 4.064576e-01 0.000000e+00
 0.000000e+00 0.000000e+00 0.000000e+00 6.945357e-01 3.054642e-01
 0.000000e+00 0.000000e+00 0.000000e+00 0.000000e+00 0.000000e+00
<ENDHMM>
~h "r"
<BEGINHMM>
<NUMSTATES> 5
<STATE> 2
<MEAN> 39
 6.700541e+00 -1.782552e+01 2.507269e-01 1.507411e+01 -1.699368e+01 1.790610e+01 -6.876087e+00 -7.020559e+00 6.751387e+00 -9.744575e+00 -4.421497e+00 2.032449e+00 7.280708e+01 3.257650e-02 -5.095742e-02 1.241580e-02 -8.441390e-03 -4.366055e-02 7.736116e-03 -3.805784e-03 3.140383e-03 2.046573e-02 -1.696371e-02 -1.175387e-02 -2.315367e-03 4.728849e-02 -4.307412e-03 -1.731148e-04 1.029095e-03 6.238476e-05 1.932108e-04 3.173617e-04 2.123215e-03 2.408967e-03 -5.981039e-04 1.523259e-03 6.005635e-04 -3.195857e-04 -3.033368e-03
<VARIANCE> 39
 7.003797e+01 6.142101e+01 6.871152e+01 4.812373e+01 5.649076e+01 5.226364e+01 3.623285e+01 4.051627e+01 3.542327e+01 4.607376e+01 2.832220e+01 3.492891e+01 7.717645e+01 1.656983e+00 3.692092e+00 2.839516e+00 2.191236e+00 2.702931e+00 2.858608e+00 2.493833e+00 2.042920e+00 2.116591e+00 2.665414e+00 1.718625e+00 1.901523e+00 1.879906e+00 2.260561e-01 6.293206e-01 4.339640e-01 3.818322e-01 4.741833e-01 5.017531e-01 4.655811e-01 3.680394e-01 3.905244e-01 4.889920e-01 3.165283e-01 3.442155e-01 2.954386e-01
<GCONST> 1.208889e+02
<STATE> 3
<MEAN> 39
 6.762136e+00 -1.794322e+01 2.851400e-01 1.505066e+01 -1.709627e+01 1.791891e+01 -6.893264e+00 -7.007514e+00 6.802917e+00 -9.779551e+00 -4.446843e+00 2.020346e+00 7.290733e+01 2.018908e-02 -4.850302e-02 1.367169e-02 -8.455025e-03 -4.152489e-02 9.201122e-03 3.370004e-03 9.934727e-03 1.825863e-02 -1.231671e-02 -9.360527e-03 -2.199302e-03 3.687285e-02 -5.212493e-03 3.875838e-03 -4.891696e-04 1.214753e-03 1.194443e-03 9.339107e-04 4.920767e-03 1.923038e-03 -1.460749e-03 3.221210e-03 8.131801e-04 5.994799e-04 -6.161313e-03
<VARIANCE> 39
 6.625817e+01 6.091111e+01 6.833793e+01 4.781793e+01 5.706886e+01 5.177867e+01 3.712471e+01 4.072136e+01 3.537012e+01 4.554370e+01 2.822573e+01 3.510091e+01 7.259166e+01 1.601657e+00 3.673284e+00 2.831347e+00 2.174558e+00 2.707333e+00 2.838740e+00 2.516230e+00 2.049049e+00 2.120708e+00 2.654341e+00 1.718033e+00 1.899196e+00 1.829008e+00 2.192947e-01 6.278285e-01 4.314048e-01 3.787794e-01 4.763048e-01 4.989323e-01 4.701200e-01 3.704021e-01 3.914206e-01 4.870118e-01 3.169878e-01 3.443223e-01 2.898392e-01
<GCONST> 1.206455e+02
<STATE> 4
<MEAN> 39
 6.788996e+00 -1.805280e+01 3.041681e-01 1.501674e+01 -1.724678e+01 1.790173e+01 -6.892124e+00 -6.974274e+00 6.872617e+00 -9.774334e+00 -4.497003e+00 1.992861e+00 7.296445e+01 5.609389e-03 -3.352935e-02 9.461528e-03 -5.040031e-03 -3.658234e-02 1.055118e-02 1.734823e-02 1.322837e-02 1.290204e-02 -1.798339e-03 -6.561725e-03 8.688623e-05 1.725365e-02 -4.630922e-03 8.213153e-03 -3.127744e-03 2.637803e-03 2.199514e-03 -6.194535e-04 6.053324e-03 -1.405666e-03 -3.700172e-03 5.114980e-03 4.094874e-04 1.480200e-03 -8.392742e-03
<VARIANCE> 39
 6.334406e+01 6.051143e+01 6.723186e+01 4.724205e+01 5.768311e+01 5.148987e+01 3.780224e+01 4.123248e+01 3.531353e+01 4.502642e+01 2.794762e+01 3.523352e+01 6.888629e+01 1.525055e+00 3.621280e+00 2.808993e+00 2.148954e+00 2.690091e+00 2.821567e+00 2.519729e+00 2.054238e+00 2.119605e+00 2.633443e+00 1.708781e+00 1.892322e+00 1.754166e+00 2.100585e-01 6.191010e-01 4.268604e-01 3.736293e-01 4.740516e-01 4.967599e-01 4.707793e-01 3.725365e-01 3.918782e-01 4.835401e-01 3.162211e-01 3.428341e-01 2.803434e-01
<GCONST> 1.202495e+02
<TRANSP> 5
 0.000000e+00 1.000000e+00 0.000000e+00 0.000000e+00 0.000000e+00
 0.000000e+00 5.886015e-01 4.113985e-01 0.000000e+00 0.000000e+00
 0.000000e+00 0.000000e+00 5.886037e-01 4.113962e-01 0.000000e+00
 0.000000e+00 0.000000e+00 0.000000e+00 6.888800e-01 3.111200e-01
 0.000000e+00 0.000000e+00 0.000000e+00 0.000000e+00 0.000000e+00
<ENDHMM>
~h "s"
<BEGINHMM>
<NUMSTATES> 5
<STATE> 2
<MEAN> 39
 4.334030e+00 -1.880592e+01 2.683774e+00 1.360711e+01 -1.677584e+01 1.889713e+01 -6.405202e+00 -7.064085e+00 6.271414e+00 -9.662839e+00 -3.997356e+00 2.279376e+00 7.276086e+01 5.003214e-02 -4.603466e-02 1.910748e-02 3.527394e-03 -3.318794e-02 1.272462e-02 -1.331547e-02 -2.993129e-03 3.503778e-02 -3.292546e-02 -1.549303e-02 7.506783e-03 6.686717e-02 3.764267e-03 -7.660832e-05 -1.453220e-03 5.791297e-04 -3.083228e-03 -3.335951e-03 -1.264446e-03 2.657427e-03 3.297268e-03 3.654826e-04 1.495640e-03 5.500333e-06 2.373150e-03
<VARIANCE> 39
 1.215971e+02 8.723383e+01 1.066345e+02 5.979326e+01 5.046975e+01 6.050360e+01 3.192512e+01 4.126924e+01 3.804234e+01 4.734756e+01 2.548571e+01 3.334917e+01 1.294828e+02 2.875159e+00 4.067473e+00 4.342297e+00 2.780108e+00 2.630173e+00 2.969652e+00 2.289171e+00 2.005870e+00 1.924349e+00 2.617835e+00 1.723508e+00 2.058442e+00 1.877809e+00 3.548373e-01 6.391767e-01 5.911226e-01 4.473658e-01 4.621966e-01 5.333040e-01 4.217509e-01 3.685461e-01 3.579015e-01 4.952505e-01 3.191311e-01 3.659350e-01 2.993068e-01
<GCONST> 1.249028e+02
<STATE> 3
<MEAN> 39
 4.461617e+00 -1.890936e+01 2.722663e+00 1.362593e+01 -1.685458e+01 1.891259e+01 -6.444983e+00 -7.061694e+00 6.366007e+00 -9.736280e+00 -4.029000e+00 2.292382e+00 7.292153e+01 5.833649e-02 -4.573184e-02 1.671786e-02 5.594970e-03 -3.898100e-02 4.096915e-03 -1.765189e-02 2.578949e-03 4.345514e-02 -3.126218e-02 -1.278336e-02 5.637865e-03 7.246555e-02 3.667934e-03 -3.128431e-04 -5.618794e-04 5.523543e-04 -2.707416e-03 -3.081448e-03 -1.241350e-03 2.357059e-03 3.842863e-03 8.641620e-04 1.144698e-03 -9.092022e-04 2.941108e-03
<VARIANCE> 39
 1.165487e+02 8.580649e+01 1.060760e+02 5.892775e+01 4.939040e+01 5.946038e+01 3.153263e+01 4.103342e+01 3.761826e+01 4.699317e+01 2.554913e+01 3.299806e+01 1.227301e+02 2.880341e+00 4.073752e+00 4.337714e+00 2.768951e+00 2.611680e+00 2.967397e+00 2.268043e+00 1.993791e+00 1.919887e+00 2.628114e+00 1.719772e+00 2.041291e+00 1.876667e+00 3.558126e-01 6.378057e-01 5.915987e-01 4.453616e-01 4.571898e-01 5.336183e-01 4.166841e-01 3.661711e-01 3.565565e-01 4.970410e-01 3.182120e-01 3.625565e-01 2.976584e-01
<GCONST> 1.246024e+02
<STATE> 4
<MEAN> 39
 4.681897e+00 -1.905658e+01 2.764866e+00 1.366872e+01 -1.699221e+01 1.892350e+01 -6.494284e+00 -7.090303e+00 6.496310e+00 -9.820124e+00 -4.079638e+00 2.297210e+00 7.317566e+01 6.910299e-02 -4.438976e-02 1.583389e-02 9.172722e-03 -4.136247e-02 -2.293463e-03 -1.846322e-02 5.417358e-03 5.077479e-02 -2.905988e-02 -1.029780e-02 8.198426e-04 8.095178e-02 4.404201e-03 -7.453692e-04 4.203907e-04 3.634262e-04 -1.875414e-03 -1.459579e-03 7.011049e-05 1.010626e-03 2.817878e-03 3.035971e-04 1.113033e-03 -8.760862e-04 4.328445e-03
<VARIANCE> 39
 1.086439e+02 8.369548e+01 1.045434e+02 5.751102e+01 4.837831e+01 5.756463e+01 3.127971e+01 4.082109e+01 3.675922e+01 4.663403e+01 2.560424e+01 3.273058e+01 1.121859e+02 2.880045e+00 4.094719e+00 4.308664e+00 2.745990e+00 2.597830e+00 2.959474e+00 2.254955e+00 1.980554e+00 1.911682e+00 2.648224e+00 1.713041e+00 2.020100e+00 1.888817e+00 3.556094e-01 6.393428e-01 5.891945e-01 4.416856e-01 4.523571e-01 5.336549e-01 4.128773e-01 3.632320e-01 3.539005e-01 5.001216e-01 3.159033e-01 3.574847e-01 2.966834e-01
<GCONST> 1.241761e+02
<TRANSP> 5
 0.000000e+00 1.000000e+00 0.000000e+00 0.000000e+00 0.000000e+00
 0.000000e+00 5.827218e-01 4.172782e-01 0.000000e+00 0.000000e+00
 0.000000e+00 0.000000e+00 5.827230e-01 4.172770e-01 0.000000e+00
 0.000000e+00 0.000000e+00 0.000000e+00 6.815436e-01 3.184563e-01
 0.000000e+00 0.000000e+00 0.000000e+00 0.000000e+00 0.000000e+00
<ENDHMM>
~h "t"
<BEGINHMM>
<NUMSTATES> 5
<STATE> 2
<MEAN> 39
 4.727975e+00 -1.886894e+01 8.016810e-01 1.477151e+01 -1.729606e+01 1.796041e+01 -6.558608e+00 -6.679165e+00 6.632077e+00 -8.406559e+00 -4.052963e+00 2.458739e+00 7.157986e+01 3.529541e-02 -4.456709e-02 -1.334452e-02 -8.618098e-03 -2.569840e-02 3.096532e-02 7.769066e-03 -1.937709e-02 9.189637e-03 -1.778723e-02 -1.371969e-02 1.261421e-02 4.237478e-02 -1.592590e-03 6.547870e-04 -2.530619e-05 6.657974e-04 2.326702e-03 -2.749069e-05 -1.711820e-03 7.499648e-04 -5.596870e-04 -2.168002e-03 -5.624669e-04 1.077663e-03 -1.223084e-03
<VARIANCE> 39
 9.886636e+01 8.184546e+01 7.108085e+01 5.227449e+01 5.879063e+01 5.991334e+01 3.264986e+01 4.175003e+01 3.282537e+01 4.301705e+01 2.653253e+01 3.056229e+01 1.123992e+02 2.196680e+00 4.813431e+00 3.209615e+00 2.698602e+00 2.961131e+00 2.905080e+00 2.373023e+00 2.189005e+00 2.132197e+00 2.651403e+00 1.766121e+00 1.933597e+00 2.259114e+00 3.000187e-01 8.277449e-01 5.297880e-01 4.666692e-01 5.123041e-01 5.156974e-01 4.466187e-01 3.983979e-01 3.917807e-01 5.091945e-01 3.333406e-01 3.510540e-01 3.653581e-01
<GCONST> 1.244338e+02
<STATE> 3
<MEAN> 39
 4.824870e+00 -1.898096e+01 7.692679e-01 1.475833e+01 -1.735737e+01 1.804348e+01 -6.546903e+00 -6.737980e+00 6.652910e+00 -8.454038e+00 -4.089766e+00 2.496219e+00 7.169166e+01 3.501642e-02 -4.500045e-02 -1.393455e-02 -7.831497e-03 -2.338883e-02 3.046338e-02 3.054093e-03 -1.822633e-02 1.092010e-02 -2.108339e-02 -1.468251e-02 1.556149e-02 4.236489e-02 4.838519e-05 2.305531e-04 -5.680891e-04 -4.347299e-04 8.236768e-05 -3.398906e-04 -1.189703e-03 1.027284e-03 5.127285e-04 -1.322704e-03 -4.764543e-04 1.048029e-03 -2.432502e-04
<VARIANCE> 39
 9.395901e+01 7.967107e+01 7.104737e+01 5.187128e+01 5.893515e+01 5.922256e+01 3.261556e+01 4.141258e+01 3.251387e+01 4.305873e+01 2.635977e+01 3.042292e+01 1.067274e+02 2.199147e+00 4.827965e+00 3.220138e+00 2.707121e+00 2.945587e+00 2.901925e+00 2.370219e+00 2.187551e+00 2.122959e+00 2.662099e+00 1.765539e+00 1.924891e+00 2.216240e+00 3.040515e-01 8.348688e-01 5.303926e-01 4.667294e-01 5.092225e-01 5.141271e-01 4.461886e-01 3.977885e-01 3.903098e-01 5.104604e-01 3.334055e-01 3.497939e-01 3.621192e-01
<GCONST> 1.242340e+02
<STATE> 4
<MEAN> 39
 4.903889e+00 -1.907046e+01 6.379713e-01 1.467348e+01 -1.751356e+01 1.807437e+01 -6.520055e+00 -6.775451e+00 6.678456e+00 -8.493678e+00 -4.179038e+00 2.552262e+00 7.173960e+01 4.330552e-02 -4.788554e-02 -1.438331e-02 -6.910559e-03 -2.881297e-02 2.920865e-02 1.279648e-04 -1.759534e-02 1.482839e-02 -2.383655e-02 -1.574014e-02 1.759560e-02 4.873352e-02 1.493849e-03 6.846806e-04 -4.816235e-04 -8.179093e-04 -1.977877e-03 -1.191474e-03 -6.197637e-05 1.302469e-03 4.832344e-04 -1.024086e-03 -5.532951e-04 -1.461833e-04 4.748393e-04
<VARIANCE> 39
 8.776997e+01 7.649636e+01 7.121755e+01 5.123330e+01 5.865136e+01 5.829582e+01 3.266114e+01 4.068813e+01 3.216474e+01 4.320646e+01 2.625386e+01 3.024817e+01 9.991355e+01 2.218013e+00 4.818584e+00 3.193524e+00 2.685011e+00 2.911914e+00 2.897262e+00 2.373688e+00 2.187045e+00 2.110942e+00 2.664707e+00 1.760928e+00 1.908977e+00 2.191968e+00 3.095523e-01 8.341560e-01 5.238295e-01 4.610813e-01 5.023614e-01 5.111170e-01 4.470773e-01 3.970764e-01 3.883591e-01 5.103582e-01 3.320775e-01 3.472565e-01 3.593178e-01
<GCONST> 1.238958e+02
<TRANSP> 5
 0.000000e+00 1.000000e+00 0.000000e+00 0.000000e+00 0.000000e+00
 0.000000e+00 5.900347e-01 4.099653e-01 0.000000e+00 0.000000e+00
 0.000000e+00 0.000000e+00 5.900354e-01 4.099647e-01 0.000000e+00
 0.000000e+00 0.000000e+00 0.000000e+00 6.908726e-01 3.091274e-01
 0.000000e+00 0.000000e+00 0.000000e+00 0.000000e+00 0.000000e+00
<ENDHMM>
~h "u"
<BEGINHMM>
<NUMSTATES> 5
<STATE> 2
<MEAN> 39
 5.949861e+00 -1.629034e+01 -1.267508e+00 1.423299e+01 -1.855650e+01 1.619732e+01 -6.053330e+00 -5.190583e+00 8.005144e+00 -8.748924e+00 -5.952362e+00 1.132585e+00 7.086788e+01 6.665264e-02 -6.431870e-02 7.831851e-03 2.135427e-02 -2.514157e-02 3.570990e-02 -1.097277e-02 -5.997946e-03 1.391341e-02 -2.490382e-02 7.411702e-03 2.559527e-02 6.544833e-02 5.466326e-03 -5.275929e-03 3.190301e-03 3.092604e-03 3.456768e-04 4.844566e-03 2.672889e-03 -2.253245e-03 2.236658e-04 -2.238160e-03 -1.044300e-03 1.975822e-03 7.449957e-03
<VARIANCE> 39
 1.091072e+02 7.384042e+01 4.769227e+01 4.012106e+01 5.533902e+01 5.569500e+01 3.275391e+01 3.591667e+01 4.429077e+01 4.651778e+01 2.904748e+01 3.807172e+01 1.160751e+02 1.603979e+00 3.540977e+00 1.969861e+00 1.877752e+00 2.656577e+00 3.113815e+00 2.228780e+00 2.005983e+00 2.094035e+00 2.581217e+00 1.742194e+00 1.893376e+00 1.988470e+00 2.174415e-01 5.856126e-01 3.170793e-01 3.392574e-01 4.640839e-01 5.310085e-01 4.119778e-01 3.594946e-01 3.862258e-01 4.767334e-01 3.246783e-01 3.335852e-01 3.178829e-01
<GCONST> 1.202866e+02
<STATE> 3
<MEAN> 39
 6.135323e+00 -1.647740e+01 -1.235735e+00 1.429509e+01 -1.862444e+01 1.630507e+01 -6.085623e+00 -5.214429e+00 8.047108e+00 -8.819057e+00 -5.931525e+00 1.204593e+00 7.105854e+01 7.264598e-02 -7.382187e-02 1.430264e-02 2.765207e-02 -2.282916e-02 4.483178e-02 -5.005362e-03 -1.046070e-02 1.303408e-02 -2.883427e-02 5.537138e-03 2.999391e-02 7.651140e-02 2.412007e-03 -5.346484e-03 2.401542e-03 2.263689e-03 5.062320e-07 3.749471e-03 3.132397e-03 -1.945755e-03 8.642441e-05 -8.267506e-04 -1.525645e-03 1.426056e-03 5.197802e-03
<VARIANCE> 39
 9.859882e+01 7.122005e+01 4.730597e+01 3.942427e+01 5.500950e+01 5.418540e+01 3.321662e+01 3.512469e+01 4.341462e+01 4.550744e+01 2.900514e+01 3.784570e+01 1.047774e+02 1.642297e+00 3.605157e+00 1.992635e+00 1.904536e+00 2.684523e+00 3.123068e+00 2.252024e+00 2.024310e+00 2.083574e+00 2.582702e+00 1.753789e+00 1.893498e+00 2.052344e+00 2.219189e-01 5.985025e-01 3.213673e-01 3.448165e-01 4.698001e-01 5.325311e-01 4.159457e-01 3.636228e-01 3.839395e-01 4.778383e-01 3.264921e-01 3.339906e-01 3.271692e-01
<GCONST> 1.202040e+02
<STATE> 4
<MEAN> 39
 6.248047e+00 -1.678551e+01 -1.238379e+00 1.431829e+01 -1.879950e+01 1.643923e+01 -6.134341e+00 -5.278764e+00 8.080384e+00 -8.840637e+00 -5.909272e+00 1.329320e+00 7.119540e+01 6.231870e-02 -7.936507e-02 1.901328e-02 2.708709e-02 -2.139011e-02 4.645250e-02 -2.250500e-03 -1.021763e-02 1.258717e-02 -2.805486e-02 4.255371e-03 3.155132e-02 7.400150e-02 -3.604344e-03 -3.610096e-03 1.446346e-03 -3.551258e-04 -4.122013e-04 7.001270e-04 2.281418e-03 1.855360e-04 1.378413e-04 6.432462e-04 -1.391445e-03 4.757535e-04 -1.040416e-04
<VARIANCE> 39
 8.557882e+01 6.739157e+01 4.634514e+01 3.838943e+01 5.433421e+01 5.154225e+01 3.344328e+01 3.392016e+01 4.208142e+01 4.416861e+01 2.864726e+01 3.775874e+01 9.096271e+01 1.579468e+00 3.588654e+00 2.008542e+00 1.915885e+00 2.671334e+00 3.071095e+00 2.254062e+00 2.028201e+00 2.064090e+00 2.555036e+00 1.742615e+00 1.882018e+00 1.997436e+00 2.142683e-01 5.975610e-01 3.251894e-01 3.479442e-01 4.696240e-01 5.238135e-01 4.159387e-01 3.657430e-01 3.796421e-01 4.741392e-01 3.237893e-01 3.321037e-01 3.198711e-01
<GCONST> 1.194616e+02
<TRANSP> 5
 0.000000e+00 1.000000e+00 0.000000e+00 0.000000e+00 0.000000e+00
 0.000000e+00 5.968079e-01 4.031921e-01 0.000000e+00 0.000000e+00
 0.000000e+00 0.000000e+00 5.968080e-01 4.031920e-01 0.000000e+00
 0.000000e+00 0.000000e+00 0.000000e+00 6.991338e-01 3.008663e-01
 0.000000e+00 0.000000e+00 0.000000e+00 0.000000e+00 0.000000e+00
<ENDHMM>
~h "v"
<BEGINHMM>
<NUMSTATES> 5
<STATE> 2
<MEAN> 39
 8.272350e+00 -1.754957e+01 1.802552e+00 1.636642e+01 -1.637498e+01 1.895689e+01 -7.019423e+00 -7.499462e+00 7.512383e+00 -9.671282e+00 -4.504365e+00 1.588068e+00 7.435047e+01 -3.176351e-02 -2.919166e-02 -1.366779e-02 3.969611e-03 9.172192e-03 9.081235e-03 -4.278023e-02 -2.373195e-02 -4.387405e-03 1.789633e-02 1.801942e-02 1.948746e-02 -2.999469e-02 1.986718e-03 2.198461e-03 -2.665807e-03 -2.077750e-04 3.615177e-04 2.270179e-03 7.157332e-04 -8.022430e-04 2.746027e-04 -1.274010e-03 5.285162e-04 8.494949e-04 -4.232220e-04
<VARIANCE> 39
 4.606403e+01 7.659937e+01 5.975468e+01 4.598641e+01 5.887323e+01 5.275600e+01 3.784370e+01 4.248869e+01 3.359568e+01 3.462045e+01 2.736400e+01 3.544717e+01 4.695385e+01 1.718166e+00 4.165680e+00 2.907493e+00 2.207873e+00 2.690602e+00 2.779305e+00 2.458126e+00 2.231673e+00 2.101951e+00 2.724568e+00 1.684675e+00 1.833162e+00 1.728063e+00 2.361361e-01 6.736295e-01 4.531551e-01 3.705595e-01 4.736160e-01 4.696567e-01 4.643873e-01 4.134625e-01 3.964111e-01 5.066602e-01 3.090869e-01 3.288255e-01 2.716493e-01
<GCONST> 1.199640e+02
<STATE> 3
<MEAN> 39
 8.202824e+00 -1.761289e+01 1.767869e+00 1.638227e+01 -1.634802e+01 1.898593e+01 -7.119450e+00 -7.557495e+00 7.506419e+00 -9.631010e+00 -4.468986e+00 1.629012e+00 7.427910e+01 -2.760918e-02 -2.367564e-02 -1.959801e-02 3.781595e-03 1.042104e-02 1.433179e-02 -4.049712e-02 -2.560586e-02 -3.951674e-03 1.495456e-02 1.845023e-02 2.149140e-02 -3.136693e-02 1.409369e-03 2.334562e-03 -2.382062e-03 3.885076e-04 4.560190e-04 1.638422e-03 1.390474e-03 -6.438062e-04 -4.066255e-04 -1.376736e-03 1.603732e-05 1.051983e-03 -9.081151e-04
<VARIANCE> 39
 4.649769e+01 7.561933e+01 5.890533e+01 4.444499e+01 5.764758e+01 5.182502e+01 3.835551e+01 4.245212e+01 3.351638e+01 3.509443e+01 2.725931e+01 3.539384e+01 4.776509e+01 1.707284e+00 4.156055e+00 2.890336e+00 2.174258e+00 2.699823e+00 2.764492e+00 2.483760e+00 2.238879e+00 2.103813e+00 2.737601e+00 1.676888e+00 1.815130e+00 1.724086e+00 2.343845e-01 6.758724e-01 4.496667e-01 3.662763e-01 4.772674e-01 4.679790e-01 4.680862e-01 4.153635e-01 3.976291e-01 5.097972e-01 3.071237e-01 3.259490e-01 2.724938e-01
<GCONST> 1.198698e+02
<STATE> 4
<MEAN> 39
 8.114103e+00 -1.767354e+01 1.710576e+00 1.638292e+01 -1.633190e+01 1.907004e+01 -7.167183e+00 -7.648564e+00 7.462295e+00 -9.560021e+00 -4.417245e+00 1.671326e+00 7.418221e+01 -2.404194e-02 -1.722434e-02 -2.391823e-02 5.771330e-03 1.229139e-02 1.799143e-02 -3.586439e-02 -2.673834e-02 -4.155030e-03 1.148426e-02 1.545660e-02 2.225246e-02 -3.291109e-02 7.911491e-04 2.272729e-03 -2.009618e-03 7.557996e-04 2.371740e-04 4.750345e-04 1.972211e-03 -3.318176e-04 -9.431386e-04 -1.174875e-03 -4.231734e-04 1.102097e-03 -1.173521e-03
<VARIANCE> 39
 4.695922e+01 7.449680e+01 5.793523e+01 4.248878e+01 5.606241e+01 5.049814e+01 3.881377e+01 4.239069e+01 3.355067e+01 3.574723e+01 2.720777e+01 3.573875e+01 4.891651e+01 1.693301e+00 4.122394e+00 2.861230e+00 2.121047e+00 2.702603e+00 2.736393e+00 2.507124e+00 2.240236e+00 2.092523e+00 2.764020e+00 1.662194e+00 1.794958e+00 1.717179e+00 2.319150e-01 6.726428e-01 4.446578e-01 3.586484e-01 4.799080e-01 4.651683e-01 4.709639e-01 4.148607e-01 3.956940e-01 5.146726e-01 3.036145e-01 3.216024e-01 2.725039e-01
<GCONST> 1.196770e+02
<TRANSP> 5
 0.000000e+00 1.000000e+00 0.000000e+00 0.000000e+00 0.000000e+00
 0.000000e+00 5.865254e-01 4.134746e-01 0.000000e+00 0.000000e+00
 0.000000e+00 0.000000e+00 5.865256e-01 4.134743e-01 0.000000e+00
 0.000000e+00 0.000000e+00 0.000000e+00 6.859381e-01 3.140619e-01
 0.000000e+00 0.000000e+00 0.000000e+00 0.000000e+00 0.000000e+00
<ENDHMM>
~h "y"
<BEGINHMM>
<NUMSTATES> 5
<STATE> 2
<MEAN> 39
 5.994889e+00 -1.701063e+01 1.123560e+00 1.533926e+01 -1.597713e+01 1.784734e+01 -7.144495e+00 -7.317793e+00 6.464504e+00 -9.552813e+00 -3.902961e+00 1.558357e+00 7.250917e+01 3.748202e-02 -5.946541e-03 1.355428e-02 1.130104e-02 -1.187394e-02 2.365201e-02 8.393067e-03 -1.061956e-03 1.159582e-02 -4.228516e-03 -6.540463e-03 -4.742473e-03 2.706888e-02 -3.416851e-03 -2.008086e-03 3.167543e-03 -4.916560e-04 -6.856938e-04 -1.092127e-03 3.470823e-04 7.077754e-04 -4.474402e-04 1.003614e-03 1.144447e-03 -9.631825e-05 -6.276020e-04
<VARIANCE> 39
 1.274603e+02 7.612402e+01 7.868764e+01 5.540844e+01 5.491149e+01 5.964824e+01 3.610630e+01 4.507256e+01 3.820135e+01 4.680007e+01 2.767965e+01 3.542535e+01 1.450788e+02 1.754793e+00 3.662364e+00 3.007111e+00 2.464446e+00 2.723888e+00 2.803511e+00 2.354149e+00 2.145442e+00 2.065510e+00 2.716519e+00 1.718685e+00 1.951497e+00 1.781909e+00 2.353976e-01 6.064620e-01 4.476387e-01 4.191754e-01 4.602768e-01 5.026394e-01 4.163916e-01 3.792530e-01 3.733006e-01 4.897503e-01 3.198744e-01 3.389879e-01 2.791883e-01
<GCONST> 1.229831e+02
<STATE> 3
<MEAN> 39
 6.090225e+00 -1.704398e+01 1.164494e+00 1.537051e+01 -1.601665e+01 1.790387e+01 -7.121698e+00 -7.325610e+00 6.490315e+00 -9.558502e+00 -3.916955e+00 1.550918e+00 7.258805e+01 3.859168e-02 -1.722835e-02 2.142103e-02 1.316338e-02 -1.746390e-02 2.536376e-02 9.420081e-03 -4.188477e-03 1.131840e-02 -1.372816e-03 -5.366386e-03 -2.462720e-03 3.516074e-02 8.783165e-04 -5.461865e-03 3.294003e-03 8.330289e-04 -2.512655e-03 1.420426e-03 9.608765e-04 -1.230146e-03 1.055243e-04 1.069795e-03 4.513533e-04 1.304123e-03 4.042504e-03
<VARIANCE> 39
 1.229709e+02 7.519675e+01 7.806573e+01 5.449043e+01 5.478219e+01 5.898086e+01 3.618578e+01 4.466177e+01 3.811495e+01 4.633443e+01 2.792025e+01 3.540946e+01 1.402314e+02 1.810459e+00 3.720429e+00 3.023007e+00 2.470585e+00 2.732289e+00 2.798480e+00 2.362649e+00 2.147605e+00 2.072923e+00 2.728267e+00 1.734146e+00 1.952596e+00 1.857585e+00 2.439627e-01 6.161879e-01 4.506744e-01 4.205431e-01 4.629255e-01 5.014355e-01 4.176219e-01 3.796265e-01 3.754090e-01 4.920804e-01 3.223836e-01 3.387836e-01 2.912019e-01
<GCONST> 1.231000e+02
<STATE> 4
<MEAN> 39
 6.242751e+00 -1.715578e+01 1.229069e+00 1.541934e+01 -1.611274e+01 1.801102e+01 -7.071771e+00 -7.365424e+00 6.517238e+00 -9.553565e+00 -3.944145e+00 1.556036e+00 7.273776e+01 5.598622e-02 -4.190450e-02 3.035574e-02 2.093257e-02 -2.883742e-02 3.717051e-02 1.366612e-02 -1.352152e-02 1.442942e-02 -8.928240e-04 -7.500678e-03 2.771993e-03 6.003720e-02 4.930347e-03 -7.993841e-03 3.198632e-03 2.241246e-03 -3.350311e-03 3.690483e-03 1.156923e-03 -2.888580e-03 1.103178e-03 -1.102989e-04 -7.462943e-04 1.644568e-03 7.739026e-03
<VARIANCE> 39
 1.136171e+02 7.337529e+01 7.766522e+01 5.313057e+01 5.431718e+01 5.781424e+01 3.638736e+01 4.394074e+01 3.805488e+01 4.589885e+01 2.814111e+01 3.556645e+01 1.298627e+02 1.960379e+00 3.819916e+00 3.047412e+00 2.492919e+00 2.761146e+00 2.807676e+00 2.379339e+00 2.170862e+00 2.086061e+00 2.744338e+00 1.749622e+00 1.960730e+00 2.039591e+00 2.625026e-01 6.300588e-01 4.547665e-01 4.235510e-01 4.687008e-01 5.008869e-01 4.205302e-01 3.829241e-01 3.780074e-01 4.951864e-01 3.246485e-01 3.396738e-01 3.157541e-01
<GCONST> 1.233668e+02
<TRANSP> 5
 0.000000e+00 1.000000e+00 0.000000e+00 0.000000e+00 0.000000e+00
 0.000000e+00 5.848463e-01 4.151536e-01 0.000000e+00 0.000000e+00
 0.000000e+00 0.000000e+00 5.848464e-01 4.151535e-01 0.000000e+00
 0.000000e+00 0.000000e+00 0.000000e+00 6.838650e-01 3.161350e-01
 0.000000e+00 0.000000e+00 0.000000e+00 0.000000e+00 0.000000e+00
<ENDHMM>
~h "z"
<BEGINHMM>
<NUMSTATES> 5
<STATE> 2
<MEAN> 39
 8.153835e+00 -1.774100e+01 3.836652e+00 1.601375e+01 -1.631762e+01 2.000457e+01 -6.507034e+00 -7.583915e+00 7.314514e+00 -1.111164e+01 -5.044940e+00 4.865130e-01 7.539271e+01 2.135150e-02 9.720106e-03 3.230865e-02 -7.410767e-03 7.027404e-03 1.392735e-02 -5.045692e-03 1.443820e-02 1.834640e-02 -3.914507e-02 -1.280932e-02 -9.926792e-03 3.450686e-02 1.608509e-04 6.667597e-04 -5.594472e-04 -2.094193e-03 -1.351157e-03 1.288504e-03 2.115698e-03 1.284075e-03 -2.820186e-04 1.920931e-04 2.225499e-03 2.790373e-03 -2.236285e-04
<VARIANCE> 39
 4.654979e+01 5.693006e+01 8.660748e+01 4.691276e+01 5.701210e+01 5.021009e+01 3.805430e+01 3.964847e+01 3.219807e+01 4.338158e+01 2.938240e+01 3.987971e+01 4.839922e+01 1.766124e+00 3.464581e+00 4.042055e+00 2.475169e+00 3.049754e+00 3.227851e+00 2.583847e+00 2.290182e+00 2.195457e+00 2.803457e+00 2.016473e+00 2.168817e+00 1.684976e+00 2.421274e-01 5.905898e-01 5.812333e-01 4.234746e-01 5.231071e-01 5.803829e-01 4.453581e-01 4.041304e-01 3.952993e-01 4.859635e-01 3.762104e-01 3.883184e-01 2.531750e-01
<GCONST> 1.221286e+02
<STATE> 3
<MEAN> 39
 8.209751e+00 -1.771580e+01 3.909072e+00 1.597895e+01 -1.631066e+01 2.004105e+01 -6.506509e+00 -7.542588e+00 7.352729e+00 -1.121393e+01 -5.067271e+00 4.738716e-01 7.548081e+01 2.163376e-02 1.043363e-02 3.114781e-02 -1.194007e-02 4.563918e-03 1.744303e-02 9.043375e-06 1.637721e-02 1.664235e-02 -3.872283e-02 -6.697118e-03 -2.305919e-03 3.436996e-02 1.079007e-04 -1.071419e-04 -3.358792e-04 -1.847410e-03 -9.309712e-04 1.570104e-03 2.085963e-03 7.757596e-04 -7.322877e-04 -5.339811e-06 2.539227e-03 3.110343e-03 2.016318e-04
<VARIANCE> 39
 4.637028e+01 5.695208e+01 8.702242e+01 4.701586e+01 5.695271e+01 5.055349e+01 3.796341e+01 3.932391e+01 3.223242e+01 4.303031e+01 2.966438e+01 3.991414e+01 4.772278e+01 1.785463e+00 3.464954e+00 4.103984e+00 2.481307e+00 3.057283e+00 3.246724e+00 2.581408e+00 2.299631e+00 2.197174e+00 2.797944e+00 2.046547e+00 2.179171e+00 1.680733e+00 2.450185e-01 5.905802e-01 5.901664e-01 4.251242e-01 5.244412e-01 5.851094e-01 4.459181e-01 4.051190e-01 3.946901e-01 4.846981e-01 3.828094e-01 3.906971e-01 2.531096e-01
<GCONST> 1.222369e+02
<STATE> 4
<MEAN> 39
 8.261732e+00 -1.768419e+01 3.979261e+00 1.590034e+01 -1.632726e+01 2.009802e+01 -6.458065e+00 -7.473564e+00 7.372880e+00 -1.135609e+01 -5.098406e+00 4.798484e-01 7.557153e+01 2.180317e-02 8.434750e-03 2.889613e-02 -1.787823e-02 1.881016e-03 2.088534e-02 6.391431e-03 1.684111e-02 1.172471e-02 -3.950136e-02 1.079558e-03 7.988697e-03 3.567402e-02 -1.632294e-04 -1.153320e-03 -3.342652e-04 -1.459072e-03 -4.874297e-04 1.326130e-03 1.766841e-03 6.549660e-05 -1.304133e-03 2.189876e-05 2.555178e-03 3.265258e-03 5.018506e-04
<VARIANCE> 39
 4.626620e+01 5.697680e+01 8.801349e+01 4.716770e+01 5.686588e+01 5.109304e+01 3.785334e+01 3.894511e+01 3.237797e+01 4.278403e+01 3.012214e+01 3.997675e+01 4.714810e+01 1.813895e+00 3.456489e+00 4.181760e+00 2.485876e+00 3.066625e+00 3.260411e+00 2.568853e+00 2.303009e+00 2.198194e+00 2.795955e+00 2.086097e+00 2.194012e+00 1.673005e+00 2.487195e-01 5.882092e-01 6.001328e-01 4.264691e-01 5.264415e-01 5.889474e-01 4.446458e-01 4.044052e-01 3.937921e-01 4.839129e-01 3.913277e-01 3.932081e-01 2.522515e-01
<GCONST> 1.223663e+02
<TRANSP> 5
 0.000000e+00 1.000000e+00 0.000000e+00 0.000000e+00 0.000000e+00
 0.000000e+00 5.855500e-01 4.144500e-01 0.000000e+00 0.000000e+00
 0.000000e+00 0.000000e+00 5.855514e-01 4.144485e-01 0.000000e+00
 0.000000e+00 0.000000e+00 0.000000e+00 6.845241e-01 3.154759e-01
 0.000000e+00 0.000000e+00 0.000000e+00 0.000000e+00 0.000000e+00
<ENDHMM>
~h "ch"
<BEGINHMM>
<NUMSTATES> 5
<STATE> 2
<MEAN> 39
 5.948978e+00 -1.909516e+01 2.101457e+00 1.594870e+01 -1.589010e+01 1.794513e+01 -6.770346e+00 -7.104263e+00 6.746259e+00 -9.355318e+00 -3.754565e+00 2.299313e+00 7.381609e+01 5.064739e-02 -4.290197e-02 3.765987e-03 -6.232996e-03 -2.001762e-02 2.242476e-02 4.311177e-03 -2.941303e-02 4.717303e-03 -5.542180e-03 -8.976943e-03 8.016584e-04 6.515685e-02 -4.548925e-04 6.811684e-04 -1.419328e-04 -8.184578e-04 -5.073691e-04 2.099052e-04 -2.686755e-03 -1.554355e-03 8.046054e-04 -1.940241e-03 -9.284503e-04 2.313897e-03 -1.155026e-03
<VARIANCE> 39
 1.096004e+02 1.058537e+02 7.404191e+01 5.371269e+01 5.958591e+01 5.323237e+01 3.482537e+01 4.135889e+01 3.705044e+01 4.633448e+01 2.995575e+01 3.719638e+01 1.148671e+02 2.537022e+00 5.374633e+00 3.116487e+00 2.554376e+00 2.845823e+00 2.912450e+00 2.559734e+00 2.218985e+00 2.229766e+00 3.046505e+00 1.834335e+00 2.373589e+00 2.448402e+00 3.351334e-01 8.460779e-01 4.854355e-01 4.484097e-01 5.190387e-01 5.385820e-01 4.779171e-01 4.045785e-01 4.262315e-01 5.778742e-01 3.510863e-01 4.353970e-01 4.004130e-01
<GCONST> 1.267908e+02
<STATE> 3
<MEAN> 39
 6.066189e+00 -1.919004e+01 2.103082e+00 1.592137e+01 -1.594134e+01 1.798859e+01 -6.777019e+00 -7.183799e+00 6.759019e+00 -9.380136e+00 -3.779030e+00 2.312266e+00 7.396509e+01 5.084305e-02 -3.889238e-02 4.219035e-03 -8.392625e-03 -2.042172e-02 2.296047e-02 -5.338632e-03 -3.599176e-02 6.614538e-03 -1.306629e-02 -1.220932e-02 6.410076e-03 6.263570e-02 2.061198e-04 1.130393e-03 4.099072e-04 -1.121623e-03 -3.866079e-04 8.266848e-04 -3.714546e-03 -2.784740e-03 1.083260e-03 -2.908023e-03 -1.185887e-03 2.353157e-03 -5.910608e-04
<VARIANCE> 39
 1.058677e+02 1.048654e+02 7.462527e+01 5.383466e+01 6.007484e+01 5.353745e+01 3.462447e+01 4.165508e+01 3.712261e+01 4.567674e+01 3.001353e+01 3.733025e+01 1.096496e+02 2.544957e+00 5.386876e+00 3.141849e+00 2.592369e+00 2.875754e+00 2.932585e+00 2.536625e+00 2.249614e+00 2.255885e+00 3.036760e+00 1.836069e+00 2.365679e+00 2.426181e+00 3.375106e-01 8.482946e-01 4.898315e-01 4.559774e-01 5.263315e-01 5.415486e-01 4.747301e-01 4.102141e-01 4.307869e-01 5.779936e-01 3.516456e-01 4.337855e-01 3.994030e-01
<GCONST> 1.268342e+02
<STATE> 4
<MEAN> 39
 6.240738e+00 -1.937148e+01 2.131352e+00 1.589366e+01 -1.604756e+01 1.809529e+01 -6.798877e+00 -7.359514e+00 6.786994e+00 -9.419271e+00 -3.846965e+00 2.345527e+00 7.420012e+01 5.730026e-02 -3.801487e-02 3.516446e-03 -1.242567e-02 -2.579888e-02 2.477249e-02 -1.229603e-02 -4.380102e-02 1.147434e-02 -1.676991e-02 -1.410207e-02 1.235850e-02 6.660727e-02 3.164558e-03 -1.085916e-03 8.622969e-04 -6.584353e-04 -2.179768e-03 2.134343e-03 -1.693767e-03 -2.610150e-03 2.299766e-03 -8.359333e-04 -4.736072e-04 2.036840e-03 2.773221e-03
<VARIANCE> 39
 9.862200e+01 1.031876e+02 7.422949e+01 5.331654e+01 6.010387e+01 5.291271e+01 3.415350e+01 4.143568e+01 3.659205e+01 4.465747e+01 2.992004e+01 3.735034e+01 1.006820e+02 2.595554e+00 5.416533e+00 3.174111e+00 2.633949e+00 2.912282e+00 2.974603e+00 2.503816e+00 2.302631e+00 2.299251e+00 3.035790e+00 1.848804e+00 2.346100e+00 2.451323e+00 3.455192e-01 8.515373e-01 4.958354e-01 4.641237e-01 5.341377e-01 5.475649e-01 4.695273e-01 4.192109e-01 4.393343e-01 5.806651e-01 3.552505e-01 4.302536e-01 4.038090e-01
<GCONST> 1.268240e+02
<TRANSP> 5
 0.000000e+00 1.000000e+00 0.000000e+00 0.000000e+00 0.000000e+00
 0.000000e+00 5.873815e-01 4.126185e-01 0.000000e+00 0.000000e+00
 0.000000e+00 0.000000e+00 5.873813e-01 4.126187e-01 0.000000e+00
 0.000000e+00 0.000000e+00 0.000000e+00 6.871188e-01 3.128811e-01
 0.000000e+00 0.000000e+00 0.000000e+00 0.000000e+00 0.000000e+00
<ENDHMM>
~h "gh"
<BEGINHMM>
<NUMSTATES> 5
<STATE> 2
<MEAN> 39
 9.151511e+00 -1.725866e+01 2.567909e-01 1.490142e+01 -1.793970e+01 1.620016e+01 -6.421443e+00 -5.975957e+00 8.151050e+00 -1.122710e+01 -5.747758e+00 1.231257e+00 7.540707e+01 6.482162e-02 1.590031e-02 -5.476382e-04 5.011654e-02 1.387921e-02 -1.021934e-02 -3.918550e-02 -2.061411e-03 3.817607e-02 2.571509e-03 7.034522e-04 -8.724410e-03 2.968436e-02 -2.534449e-03 1.215852e-03 1.039256e-03 2.679801e-03 4.445226e-03 2.151481e-03 -1.253066e-04 -1.306350e-03 -1.247496e-03 1.569596e-03 6.469663e-04 -2.810222e-04 -2.869762e-03
<VARIANCE> 39
 6.007622e+01 7.685606e+01 6.038630e+01 4.140965e+01 5.805422e+01 6.668600e+01 3.078337e+01 4.640192e+01 4.699742e+01 4.450936e+01 3.329553e+01 4.002886e+01 5.586070e+01 1.791555e+00 4.094426e+00 2.816073e+00 2.361518e+00 2.871919e+00 3.476825e+00 2.069274e+00 2.360954e+00 2.323754e+00 2.868088e+00 1.970756e+00 2.225264e+00 1.808810e+00 2.355433e-01 6.669769e-01 4.266640e-01 4.210321e-01 4.982321e-01 5.976632e-01 3.971857e-01 4.060587e-01 4.226731e-01 5.463615e-01 3.652966e-01 4.028789e-01 3.008214e-01
<GCONST> 1.228842e+02
<STATE> 3
<MEAN> 39
 9.300483e+00 -1.719855e+01 2.569363e-01 1.503016e+01 -1.788318e+01 1.617437e+01 -6.518768e+00 -5.985450e+00 8.236991e+00 -1.121504e+01 -5.740854e+00 1.203494e+00 7.546612e+01 5.589105e-02 1.953933e-02 1.536296e-03 5.408692e-02 2.525364e-02 -4.679554e-03 -3.859685e-02 -6.102544e-03 3.326279e-02 6.755976e-03 2.890130e-03 -9.099261e-03 2.112083e-02 -3.783617e-03 1.250869e-03 1.102867e-03 1.363098e-03 4.719737e-03 2.759075e-03 4.433609e-04 -1.829627e-03 -2.210430e-03 1.678654e-03 1.185335e-03 -5.166512e-05 -3.307038e-03
<VARIANCE> 39
 5.570232e+01 7.524858e+01 5.953532e+01 4.080947e+01 5.843540e+01 6.700117e+01 3.097022e+01 4.657583e+01 4.721750e+01 4.377153e+01 3.336797e+01 3.984378e+01 5.154572e+01 1.722679e+00 4.076690e+00 2.790174e+00 2.352058e+00 2.891361e+00 3.464927e+00 2.069575e+00 2.362352e+00 2.317676e+00 2.879665e+00 1.962841e+00 2.222315e+00 1.787723e+00 2.283126e-01 6.713349e-01 4.232084e-01 4.209598e-01 5.023392e-01 5.975415e-01 3.957843e-01 4.067817e-01 4.207311e-01 5.497947e-01 3.625496e-01 4.035860e-01 2.998617e-01
<GCONST> 1.225824e+02
<STATE> 4
<MEAN> 39
 9.385766e+00 -1.717131e+01 2.224098e-01 1.516416e+01 -1.781512e+01 1.614835e+01 -6.636301e+00 -6.020407e+00 8.298477e+00 -1.116708e+01 -5.716546e+00 1.227342e+00 7.545883e+01 4.381397e-02 2.429435e-02 2.750889e-03 5.319205e-02 3.776728e-02 2.878386e-03 -3.571133e-02 -1.381914e-02 2.393223e-02 1.146549e-02 6.779151e-03 -8.841787e-03 1.179785e-02 -4.044329e-03 1.054540e-04 9.375910e-04 -1.013727e-04 3.928565e-03 3.569645e-03 1.180189e-03 -2.760104e-03 -3.103929e-03 1.453558e-03 1.514130e-03 6.325020e-04 -2.525245e-03
<VARIANCE> 39
 5.213684e+01 7.382888e+01 5.818806e+01 4.014595e+01 5.869721e+01 6.715033e+01 3.097604e+01 4.660080e+01 4.779242e+01 4.299888e+01 3.326732e+01 3.958889e+01 4.868819e+01 1.639109e+00 4.049468e+00 2.745733e+00 2.334841e+00 2.892024e+00 3.434638e+00 2.063215e+00 2.348981e+00 2.303562e+00 2.880553e+00 1.940779e+00 2.211605e+00 1.757127e+00 2.188385e-01 6.739662e-01 4.170650e-01 4.193704e-01 5.034541e-01 5.942624e-01 3.927978e-01 4.060285e-01 4.174232e-01 5.505913e-01 3.574275e-01 4.027974e-01 2.965879e-01
<GCONST> 1.221536e+02
<TRANSP> 5
 0.000000e+00 1.000000e+00 0.000000e+00 0.000000e+00 0.000000e+00
 0.000000e+00 5.894295e-01 4.105705e-01 0.000000e+00 0.000000e+00
 0.000000e+00 0.000000e+00 5.894289e-01 4.105710e-01 0.000000e+00
 0.000000e+00 0.000000e+00 0.000000e+00 6.890436e-01 3.109564e-01
 0.000000e+00 0.000000e+00 0.000000e+00 0.000000e+00 0.000000e+00
<ENDHMM>
~h "oe"
<BEGINHMM>
<NUMSTATES> 5
<STATE> 2
<MEAN> 39
 8.422509e+00 -1.801307e+01 9.542093e-01 1.547118e+01 -1.547608e+01 1.891995e+01 -7.372697e+00 -7.527184e+00 6.797870e+00 -1.170287e+01 -4.293038e+00 2.503909e+00 7.507505e+01 2.834114e-02 -1.863464e-02 -8.445299e-03 -2.690534e-03 -3.310703e-03 1.214186e-02 -2.878782e-02 -5.800674e-03 1.540289e-02 -1.116912e-02 2.395889e-02 3.687631e-02 2.582050e-02 2.872099e-03 -2.103528e-03 3.635229e-03 1.247879e-03 -1.667625e-03 1.236970e-03 -1.168172e-03 -1.006000e-03 3.534342e-03 -1.003702e-05 -1.554839e-03 -5.213043e-04 4.324795e-03
<VARIANCE> 39
 6.681336e+01 6.984909e+01 6.404978e+01 4.148777e+01 5.148294e+01 5.072402e+01 3.213820e+01 3.664142e+01 3.326606e+01 5.447164e+01 3.016932e+01 2.915247e+01 7.063625e+01 1.787056e+00 3.813107e+00 3.035772e+00 2.252299e+00 2.742149e+00 2.833893e+00 2.388693e+00 2.048922e+00 2.007651e+00 3.310896e+00 1.792939e+00 1.929049e+00 1.917581e+00 2.397762e-01 6.410831e-01 4.469623e-01 3.974611e-01 4.756690e-01 5.059525e-01 4.320280e-01 3.728299e-01 3.674881e-01 5.915108e-01 3.384664e-01 3.641667e-01 2.927462e-01
<GCONST> 1.210556e+02
<STATE> 3
<MEAN> 39
 8.499060e+00 -1.807236e+01 9.435412e-01 1.546547e+01 -1.549297e+01 1.896100e+01 -7.453835e+00 -7.547477e+00 6.850112e+00 -1.173068e+01 -4.240510e+00 2.593480e+00 7.515055e+01 3.492935e-02 -2.208688e-02 -6.392496e-04 3.469391e-04 -6.525245e-03 1.374390e-02 -3.237113e-02 -8.201357e-03 2.468091e-02 -1.045283e-02 2.059105e-02 3.361321e-02 3.548777e-02 2.192415e-03 -1.494427e-03 3.133892e-03 9.486115e-04 -1.057464e-03 8.530907e-04 -1.064066e-03 -8.407558e-04 3.374624e-03 4.702025e-04 -1.131684e-03 -1.323121e-03 3.659065e-03
<VARIANCE> 39
 6.264022e+01 6.841595e+01 6.314538e+01 4.076841e+01 5.128202e+01 4.943225e+01 3.193053e+01 3.664404e+01 3.244841e+01 5.394408e+01 3.010226e+01 2.912926e+01 6.596468e+01 1.806910e+00 3.792327e+00 3.026904e+00 2.229592e+00 2.745191e+00 2.817697e+00 2.363964e+00 2.048543e+00 2.004782e+00 3.292916e+00 1.803868e+00 1.924190e+00 1.945766e+00 2.408019e-01 6.398592e-01 4.463808e-01 3.937390e-01 4.739816e-01 5.025223e-01 4.281786e-01 3.710728e-01 3.668391e-01 5.870454e-01 3.394111e-01 3.641723e-01 2.955087e-01
<GCONST> 1.207556e+02
<STATE> 4
<MEAN> 39
 8.615600e+00 -1.814044e+01 9.260562e-01 1.542193e+01 -1.555336e+01 1.903477e+01 -7.549810e+00 -7.560347e+00 6.941967e+00 -1.178457e+01 -4.209521e+00 2.709728e+00 7.525565e+01 3.594854e-02 -2.241928e-02 5.480282e-03 2.008304e-03 -5.175126e-03 1.380295e-02 -3.646788e-02 -9.746984e-03 3.204031e-02 -9.530313e-03 1.861344e-02 2.786841e-02 4.022830e-02 -1.359099e-04 5.146931e-05 2.207493e-03 4.543923e-04 7.880690e-04 -2.361707e-04 -3.374189e-04 -9.424350e-05 1.771303e-03 6.209045e-04 -3.070044e-04 -1.900691e-03 1.387573e-03
<VARIANCE> 39
 5.680210e+01 6.645994e+01 6.177084e+01 3.994054e+01 5.093680e+01 4.804580e+01 3.169132e+01 3.651082e+01 3.140290e+01 5.321214e+01 3.011908e+01 2.920994e+01 5.948287e+01 1.782778e+00 3.757088e+00 3.002975e+00 2.201255e+00 2.731298e+00 2.801402e+00 2.329717e+00 2.038799e+00 2.000846e+00 3.268157e+00 1.822788e+00 1.916799e+00 1.933310e+00 2.368619e-01 6.371086e-01 4.451246e-01 3.901931e-01 4.703543e-01 4.998896e-01 4.227083e-01 3.674146e-01 3.662915e-01 5.815342e-01 3.417475e-01 3.629068e-01 2.932172e-01
<GCONST> 1.202265e+02
<TRANSP> 5
 0.000000e+00 1.000000e+00 0.000000e+00 0.000000e+00 0.000000e+00
 0.000000e+00 5.886365e-01 4.113635e-01 0.000000e+00 0.000000e+00
 0.000000e+00 0.000000e+00 5.886376e-01 4.113624e-01 0.000000e+00
 0.000000e+00 0.000000e+00 0.000000e+00 6.884432e-01 3.115568e-01
 0.000000e+00 0.000000e+00 0.000000e+00 0.000000e+00 0.000000e+00
<ENDHMM>
~h "sh"
<BEGINHMM>
<NUMSTATES> 5
<STATE> 2
<MEAN> 39
 5.158101e+00 -2.021589e+01 1.917756e+00 1.666106e+01 -1.662506e+01 1.871769e+01 -6.597860e+00 -7.140199e+00 6.910340e+00 -8.887826e+00 -4.445522e+00 2.662604e+00 7.269233e+01 -3.905103e-03 -5.925966e-03 -2.191658e-02 -5.690455e-04 -1.315472e-02 -2.483174e-02 -8.506352e-03 -7.015290e-04 -2.039266e-03 5.834021e-03 -3.906378e-03 2.474803e-03 -1.298910e-02 3.293278e-03 4.268270e-03 -1.817183e-03 -8.337704e-04 1.983558e-03 2.505179e-05 -1.433627e-03 -2.269890e-03 3.134637e-04 -1.137746e-03 -5.875644e-04 -1.903129e-03 1.514741e-03
<VARIANCE> 39
 6.154753e+01 9.402117e+01 6.363831e+01 3.834460e+01 4.865342e+01 4.258155e+01 2.967531e+01 3.365028e+01 2.878403e+01 3.838617e+01 2.483994e+01 3.143822e+01 6.505598e+01 1.872283e+00 4.584395e+00 2.845450e+00 2.033551e+00 2.420169e+00 2.576924e+00 2.042446e+00 2.069899e+00 1.805904e+00 2.571564e+00 1.597756e+00 1.940753e+00 1.472351e+00 2.381060e-01 6.679459e-01 4.457297e-01 3.561828e-01 4.136472e-01 4.609019e-01 3.769586e-01 3.749710e-01 3.355883e-01 4.858006e-01 2.995037e-01 3.377077e-01 2.390317e-01
<GCONST> 1.179286e+02
<STATE> 3
<MEAN> 39
 5.153886e+00 -2.022593e+01 1.864806e+00 1.665894e+01 -1.665099e+01 1.865333e+01 -6.625923e+00 -7.145170e+00 6.906222e+00 -8.877460e+00 -4.453090e+00 2.665196e+00 7.266774e+01 2.545482e-03 1.512630e-03 -2.476796e-02 -2.257922e-03 -8.240852e-03 -2.401644e-02 -1.320896e-02 -6.120274e-03 -5.208403e-04 2.729396e-03 -6.144862e-03 -1.998909e-03 -8.883230e-03 1.992049e-03 1.645921e-03 -1.291500e-03 -5.654378e-04 3.294625e-03 7.044662e-04 -3.099643e-03 -2.188521e-03 1.311591e-03 -1.477786e-03 -1.050781e-03 -9.968057e-04 1.960974e-03
<VARIANCE> 39
 6.119275e+01 9.312483e+01 6.239655e+01 3.838020e+01 4.902848e+01 4.238748e+01 2.988811e+01 3.371421e+01 2.869266e+01 3.875362e+01 2.455914e+01 3.112356e+01 6.532893e+01 1.876108e+00 4.600682e+00 2.829047e+00 2.041479e+00 2.448323e+00 2.580464e+00 2.055324e+00 2.066948e+00 1.823706e+00 2.580989e+00 1.596339e+00 1.938090e+00 1.485928e+00 2.390493e-01 6.782570e-01 4.449036e-01 3.564398e-01 4.191393e-01 4.605075e-01 3.799380e-01 3.733198e-01 3.378432e-01 4.879375e-01 2.991083e-01 3.373295e-01 2.417136e-01
<GCONST> 1.179914e+02
<STATE> 4
<MEAN> 39
 5.079501e+00 -2.020477e+01 1.721251e+00 1.662068e+01 -1.670578e+01 1.853258e+01 -6.695021e+00 -7.186492e+00 6.881438e+00 -8.818468e+00 -4.489093e+00 2.644710e+00 7.253930e+01 4.987480e-03 2.264973e-03 -2.478422e-02 -4.156653e-03 -9.612963e-04 -2.196877e-02 -2.291116e-02 -1.090904e-02 3.358460e-03 -1.227684e-03 -8.645999e-03 -4.937909e-03 -3.616851e-03 3.305159e-04 -4.979180e-04 -8.558595e-04 -1.116227e-03 3.205247e-03 9.894632e-04 -4.107523e-03 -1.549938e-03 1.879049e-03 -1.644569e-03 -1.269948e-03 -1.209976e-04 1.576002e-03
<VARIANCE> 39
 6.120706e+01 9.111670e+01 6.103346e+01 3.848652e+01 4.942688e+01 4.208577e+01 2.999108e+01 3.367442e+01 2.842695e+01 3.927702e+01 2.419229e+01 3.071777e+01 6.685770e+01 1.862866e+00 4.573934e+00 2.767387e+00 2.022686e+00 2.439451e+00 2.565703e+00 2.071282e+00 2.046784e+00 1.832312e+00 2.563317e+00 1.590650e+00 1.931406e+00 1.485331e+00 2.383337e-01 6.818382e-01 4.359385e-01 3.513639e-01 4.186173e-01 4.568947e-01 3.846900e-01 3.685638e-01 3.388315e-01 4.846336e-01 2.983243e-01 3.366566e-01 2.422044e-01
<GCONST> 1.178391e+02
<TRANSP> 5
 0.000000e+00 1.000000e+00 0.000000e+00 0.000000e+00 0.000000e+00
 0.000000e+00 5.840567e-01 4.159434e-01 0.000000e+00 0.000000e+00
 0.000000e+00 0.000000e+00 5.840569e-01 4.159431e-01 0.000000e+00
 0.000000e+00 0.000000e+00 0.000000e+00 6.834378e-01 3.165622e-01
 0.000000e+00 0.000000e+00 0.000000e+00 0.000000e+00 0.000000e+00
<ENDHMM>
~h "ue"
<BEGINHMM>
<NUMSTATES> 5
<STATE> 2
<MEAN> 39
 6.128792e+00 -1.885375e+01 1.546634e+00 1.668106e+01 -1.453727e+01 1.895421e+01 -8.210799e+00 -7.606067e+00 7.162799e+00 -9.790774e+00 -3.455482e+00 2.760890e+00 7.323170e+01 3.654687e-02 -6.909969e-02 3.449179e-02 3.266014e-02 6.364809e-03 4.983360e-02 -2.491019e-02 -4.388859e-02 9.063947e-03 -8.378155e-03 -5.130036e-03 9.683237e-03 5.848294e-02 3.564035e-03 -1.675949e-03 -1.681807e-03 9.106810e-05 -2.094239e-03 1.860761e-03 -4.132034e-05 -2.610099e-03 -3.707042e-04 -9.231915e-04 -1.572993e-03 9.568830e-04 2.215853e-03
<VARIANCE> 39
 8.611659e+01 7.354244e+01 7.064893e+01 4.564555e+01 5.690257e+01 5.447468e+01 3.479104e+01 4.040667e+01 3.018432e+01 4.762841e+01 2.579862e+01 2.816328e+01 9.434505e+01 1.867310e+00 4.300502e+00 3.015018e+00 2.194383e+00 2.595991e+00 2.725543e+00 2.405081e+00 2.145340e+00 1.912686e+00 2.801617e+00 1.609680e+00 1.928324e+00 1.984390e+00 2.518313e-01 7.130442e-01 4.781160e-01 3.794594e-01 4.474165e-01 4.972015e-01 4.253950e-01 3.857286e-01 3.560251e-01 5.149065e-01 2.916019e-01 3.575068e-01 3.202814e-01
<GCONST> 1.214393e+02
<STATE> 3
<MEAN> 39
