
~h "a"
<BEGINHMM>
<NUMSTATES> 5
<STATE> 2
<MEAN> 39
 6.707855e+00 -1.768463e+01 1.252256e+00 1.539251e+01 -1.668408e+01 1.808373e+01 -6.701271e+00 -7.042653e+00 6.889536e+00 -9.796343e+00 -4.355540e+00 1.748858e+00 7.326752e+01 3.328507e-02 -2.352392e-02 8.640007e-03 1.186019e-02 -1.639696e-02 1.441048e-02 1.499655e-03 -8.659299e-03 1.256061e-02 -5.673023e-03 -5.965582e-03 2.039411e-03 3.436080e-02 6.271758e-05 2.965386e-04 -7.100627e-04 -1.045769e-03 -5.200538e-04 7.722446e-05 2.680612e-05 -7.544252e-04 -5.288762e-04 1.771268e-04 6.646332e-04 7.342880e-04 -1.443067e-04
<VARIANCE> 39
 8.983979e+01 7.565530e+01 7.332420e+01 5.019836e+01 5.624637e+01 5.733911e+01 3.506507e+01 4.230246e+01 3.633398e+01 4.495449e+01 2.801809e+01 3.492205e+01 9.709326e+01 1.845017e+00 3.999241e+00 3.044322e+00 2.333326e+00 2.700648e+00 2.973695e+00 2.359299e+00 2.156001e+00 2.075893e+00 2.771460e+00 1.741253e+00 1.985936e+00 1.904773e+00 2.474196e-01 6.560865e-01 4.583352e-01 4.024896e-01 4.706515e-01 5.255622e-01 4.317569e-01 3.882029e-01 3.806162e-01 5.134221e-01 3.252152e-01 3.526792e-01 3.011891e-01
<GCONST> 1.225675e+02
<STATE> 3
<MEAN> 39
 6.707855e+00 -1.768463e+01 1.252256e+00 1.539251e+01 -1.668408e+01 1.808373e+01 -6.701271e+00 -7.042653e+00 6.889536e+00 -9.796343e+00 -4.355540e+00 1.748858e+00 7.326752e+01 3.328507e-02 -2.352392e-02 8.640007e-03 1.186019e-02 -1.639696e-02 1.441048e-02 1.499655e-03 -8.659299e-03 1.256061e-02 -5.673023e-03 -5.965582e-03 2.039411e-03 3.436080e-02 6.271758e-05 2.965386e-04 -7.100627e-04 -1.045769e-03 -5.200538e-04 7.722446e-05 2.680612e-05 -7.544252e-04 -5.288762e-04 1.771268e-04 6.646332e-04 7.342880e-04 -1.443067e-04
<VARIANCE> 39
 8.983979e+01 7.565530e+01 7.332420e+01 5.019836e+01 5.624637e+01 5.733911e+01 3.506507e+01 4.230246e+01 3.633398e+01 4.495449e+01 2.801809e+01 3.492205e+01 9.709326e+01 1.845017e+00 3.999241e+00 3.044322e+00 2.333326e+00 2.700648e+00 2.973695e+00 2.359299e+00 2.156001e+00 2.075893e+00 2.771460e+00 1.741253e+00 1.985936e+00 1.904773e+00 2.474196e-01 6.560865e-01 4.583352e-01 4.024896e-01 4.706515e-01 5.255622e-01 4.317569e-01 3.882029e-01 3.806162e-01 5.134221e-01 3.252152e-01 3.526792e-01 3.011891e-01
<GCONST> 1.225675e+02
<STATE> 4
<MEAN> 39
 6.707855e+00 -1.768463e+01 1.252256e+00 1.539251e+01 -1.668408e+01 1.808373e+01 -6.701271e+00 -7.042653e+00 6.889536e+00 -9.796343e+00 -4.355540e+00 1.748858e+00 7.326752e+01 3.328507e-02 -2.352392e-02 8.640007e-03 1.186019e-02 -1.639696e-02 1.441048e-02 1.499655e-03 -8.659299e-03 1.256061e-02 -5.673023e-03 -5.965582e-03 2.039411e-03 3.436080e-02 6.271758e-05 2.965386e-04 -7.100627e-04 -1.045769e-03 -5.200538e-04 7.722446e-05 2.680612e-05 -7.544252e-04 -5.288762e-04 1.771268e-04 6.646332e-04 7.342880e-04 -1.443067e-04
<VARIANCE> 39
 8.983979e+01 7.565530e+01 7.332420e+01 5.019836e+01 5.624637e+01 5.733911e+01 3.506507e+01 4.230246e+01 3.633398e+01 4.495449e+01 2.801809e+01 3.492205e+01 9.709326e+01 1.845017e+00 3.999241e+00 3.044322e+00 2.333326e+00 2.700648e+00 2.973695e+00 2.359299e+00 2.156001e+00 2.075893e+00 2.771460e+00 1.741253e+00 1.985936e+00 1.904773e+00 2.474196e-01 6.560865e-01 4.583352e-01 4.024896e-01 4.706515e-01 5.255622e-01 4.317569e-01 3.882029e-01 3.806162e-01 5.134221e-01 3.252152e-01 3.526792e-01 3.011891e-01
<GCONST> 1.225675e+02
<TRANSP> 5
 0.000000e+00 1.000000e+00 0.000000e+00 0.000000e+00 0.000000e+00
 0.000000e+00 6.000000e-01 4.000000e-01 0.000000e+00 0.000000e+00
 0.000000e+00 0.000000e+00 6.000000e-01 4.000000e-01 0.000000e+00
 0.000000e+00 0.000000e+00 0.000000e+00 7.000000e-01 3.000000e-01
 0.000000e+00 0.000000e+00 0.000000e+00 0.000000e+00 0.000000e+00
<ENDHMM>
~h "b"
<BEGINHMM>
<NUMSTATES> 5
<STATE> 2
<MEAN> 39
 6.707855e+00 -1.768463e+01 1.252256e+00 1.539251e+01 -1.668408e+01 1.808373e+01 -6.701271e+00 -7.042653e+00 6.889536e+00 -9.796343e+00 -4.355540e+00 1.748858e+00 7.326752e+01 3.328507e-02 -2.352392e-02 8.640007e-03 1.186019e-02 -1.639696e-02 1.441048e-02 1.499655e-03 -8.659299e-03 1.256061e-02 -5.673023e-03 -5.965582e-03 2.039411e-03 3.436080e-02 6.271758e-05 2.965386e-04 -7.100627e-04 -1.045769e-03 -5.200538e-04 7.722446e-05 2.680612e-05 -7.544252e-04 -5.288762e-04 1.771268e-04 6.646332e-04 7.342880e-04 -1.443067e-04
<VARIANCE> 39
 8.983979e+01 7.565530e+01 7.332420e+01 5.019836e+01 5.624637e+01 5.733911e+01 3.506507e+01 4.230246e+01 3.633398e+01 4.495449e+01 2.801809e+01 3.492205e+01 9.709326e+01 1.845017e+00 3.999241e+00 3.044322e+00 2.333326e+00 2.700648e+00 2.973695e+00 2.359299e+00 2.156001e+00 2.075893e+00 2.771460e+00 1.741253e+00 1.985936e+00 1.904773e+00 2.474196e-01 6.560865e-01 4.583352e-01 4.024896e-01 4.706515e-01 5.255622e-01 4.317569e-01 3.882029e-01 3.806162e-01 5.134221e-01 3.252152e-01 3.526792e-01 3.011891e-01
<GCONST> 1.225675e+02
<STATE> 3
<MEAN> 39
 6.707855e+00 -1.768463e+01 1.252256e+00 1.539251e+01 -1.668408e+01 1.808373e+01 -6.701271e+00 -7.042653e+00 6.889536e+00 -9.796343e+00 -4.355540e+00 1.748858e+00 7.326752e+01 3.328507e-02 -2.352392e-02 8.640007e-03 1.186019e-02 -1.639696e-02 1.441048e-02 1.499655e-03 -8.659299e-03 1.256061e-02 -5.673023e-03 -5.965582e-03 2.039411e-03 3.436080e-02 6.271758e-05 2.965386e-04 -7.100627e-04 -1.045769e-03 -5.200538e-04 7.722446e-05 2.680612e-05 -7.544252e-04 -5.288762e-04 1.771268e-04 6.646332e-04 7.342880e-04 -1.443067e-04
<VARIANCE> 39
 8.983979e+01 7.565530e+01 7.332420e+01 5.019836e+01 5.624637e+01 5.733911e+01 3.506507e+01 4.230246e+01 3.633398e+01 4.495449e+01 2.801809e+01 3.492205e+01 9.709326e+01 1.845017e+00 3.999241e+00 3.044322e+00 2.333326e+00 2.700648e+00 2.973695e+00 2.359299e+00 2.156001e+00 2.075893e+00 2.771460e+00 1.741253e+00 1.985936e+00 1.904773e+00 2.474196e-01 6.560865e-01 4.583352e-01 4.024896e-01 4.706515e-01 5.255622e-01 4.317569e-01 3.882029e-01 3.806162e-01 5.134221e-01 3.252152e-01 3.526792e-01 3.011891e-01
<GCONST> 1.225675e+02
<STATE> 4
<MEAN> 39
 6.707855e+00 -1.768463e+01 1.252256e+00 1.539251e+01 -1.668408e+01 1.808373e+01 -6.701271e+00 -7.042653e+00 6.889536e+00 -9.796343e+00 -4.355540e+00 1.748858e+00 7.326752e+01 3.328507e-02 -2.352392e-02 8.640007e-03 1.186019e-02 -1.639696e-02 1.441048e-02 1.499655e-03 -8.659299e-03 1.256061e-02 -5.673023e-03 -5.965582e-03 2.039411e-03 3.436080e-02 6.271758e-05 2.965386e-04 -7.100627e-04 -1.045769e-03 -5.200538e-04 7.722446e-05 2.680612e-05 -7.544252e-04 -5.288762e-04 1.771268e-04 6.646332e-04 7.342880e-04 -1.443067e-04
<VARIANCE> 39
 8.983979e+01 7.565530e+01 7.332420e+01 5.019836e+01 5.624637e+01 5.733911e+01 3.506507e+01 4.230246e+01 3.633398e+01 4.495449e+01 2.801809e+01 3.492205e+01 9.709326e+01 1.845017e+00 3.999241e+00 3.044322e+00 2.333326e+00 2.700648e+00 2.973695e+00 2.359299e+00 2.156001e+00 2.075893e+00 2.771460e+00 1.741253e+00 1.985936e+00 1.904773e+00 2.474196e-01 6.560865e-01 4.583352e-01 4.024896e-01 4.706515e-01 5.255622e-01 4.317569e-01 3.882029e-01 3.806162e-01 5.134221e-01 3.252152e-01 3.526792e-01 3.011891e-01
<GCONST> 1.225675e+02
<TRANSP> 5
 0.000000e+00 1.000000e+00 0.000000e+00 0.000000e+00 0.000000e+00
 0.000000e+00 6.000000e-01 4.000000e-01 0.000000e+00 0.000000e+00
 0.000000e+00 0.000000e+00 6.000000e-01 4.000000e-01 0.000000e+00
 0.000000e+00 0.000000e+00 0.000000e+00 7.000000e-01 3.000000e-01
 0.000000e+00 0.000000e+00 0.000000e+00 0.000000e+00 0.000000e+00
<ENDHMM>
~h "c"
<BEGINHMM>
<NUMSTATES> 5
<STATE> 2
<MEAN> 39
 6.707855e+00 -1.768463e+01 1.252256e+00 1.539251e+01 -1.668408e+01 1.808373e+01 -6.701271e+00 -7.042653e+00 6.889536e+00 -9.796343e+00 -4.355540e+00 1.748858e+00 7.326752e+01 3.328507e-02 -2.352392e-02 8.640007e-03 1.186019e-02 -1.639696e-02 1.441048e-02 1.499655e-03 -8.659299e-03 1.256061e-02 -5.673023e-03 -5.965582e-03 2.039411e-03 3.436080e-02 6.271758e-05 2.965386e-04 -7.100627e-04 -1.045769e-03 -5.200538e-04 7.722446e-05 2.680612e-05 -7.544252e-04 -5.288762e-04 1.771268e-04 6.646332e-04 7.342880e-04 -1.443067e-04
<VARIANCE> 39
 8.983979e+01 7.565530e+01 7.332420e+01 5.019836e+01 5.624637e+01 5.733911e+01 3.506507e+01 4.230246e+01 3.633398e+01 4.495449e+01 2.801809e+01 3.492205e+01 9.709326e+01 1.845017e+00 3.999241e+00 3.044322e+00 2.333326e+00 2.700648e+00 2.973695e+00 2.359299e+00 2.156001e+00 2.075893e+00 2.771460e+00 1.741253e+00 1.985936e+00 1.904773e+00 2.474196e-01 6.560865e-01 4.583352e-01 4.024896e-01 4.706515e-01 5.255622e-01 4.317569e-01 3.882029e-01 3.806162e-01 5.134221e-01 3.252152e-01 3.526792e-01 3.011891e-01
<GCONST> 1.225675e+02
<STATE> 3
<MEAN> 39
 6.707855e+00 -1.768463e+01 1.252256e+00 1.539251e+01 -1.668408e+01 1.808373e+01 -6.701271e+00 -7.042653e+00 6.889536e+00 -9.796343e+00 -4.355540e+00 1.748858e+00 7.326752e+01 3.328507e-02 -2.352392e-02 8.640007e-03 1.186019e-02 -1.639696e-02 1.441048e-02 1.499655e-03 -8.659299e-03 1.256061e-02 -5.673023e-03 -5.965582e-03 2.039411e-03 3.436080e-02 6.271758e-05 2.965386e-04 -7.100627e-04 -1.045769e-03 -5.200538e-04 7.722446e-05 2.680612e-05 -7.544252e-04 -5.288762e-04 1.771268e-04 6.646332e-04 7.342880e-04 -1.443067e-04
<VARIANCE> 39
 8.983979e+01 7.565530e+01 7.332420e+01 5.019836e+01 5.624637e+01 5.733911e+01 3.506507e+01 4.230246e+01 3.633398e+01 4.495449e+01 2.801809e+01 3.492205e+01 9.709326e+01 1.845017e+00 3.999241e+00 3.044322e+00 2.333326e+00 2.700648e+00 2.973695e+00 2.359299e+00 2.156001e+00 2.075893e+00 2.771460e+00 1.741253e+00 1.985936e+00 1.904773e+00 2.474196e-01 6.560865e-01 4.583352e-01 4.024896e-01 4.706515e-01 5.255622e-01 4.317569e-01 3.882029e-01 3.806162e-01 5.134221e-01 3.252152e-01 3.526792e-01 3.011891e-01
<GCONST> 1.225675e+02
<STATE> 4
<MEAN> 39
 6.707855e+00 -1.768463e+01 1.252256e+00 1.539251e+01 -1.668408e+01 1.808373e+01 -6.701271e+00 -7.042653e+00 6.889536e+00 -9.796343e+00 -4.355540e+00 1.748858e+00 7.326752e+01 3.328507e-02 -2.352392e-02 8.640007e-03 1.186019e-02 -1.639696e-02 1.441048e-02 1.499655e-03 -8.659299e-03 1.256061e-02 -5.673023e-03 -5.965582e-03 2.039411e-03 3.436080e-02 6.271758e-05 2.965386e-04 -7.100627e-04 -1.045769e-03 -5.200538e-04 7.722446e-05 2.680612e-05 -7.544252e-04 -5.288762e-04 1.771268e-04 6.646332e-04 7.342880e-04 -1.443067e-04
<VARIANCE> 39
 8.983979e+01 7.565530e+01 7.332420e+01 5.019836e+01 5.624637e+01 5.733911e+01 3.506507e+01 4.230246e+01 3.633398e+01 4.495449e+01 2.801809e+01 3.492205e+01 9.709326e+01 1.845017e+00 3.999241e+00 3.044322e+00 2.333326e+00 2.700648e+00 2.973695e+00 2.359299e+00 2.156001e+00 2.075893e+00 2.771460e+00 1.741253e+00 1.985936e+00 1.904773e+00 2.474196e-01 6.560865e-01 4.583352e-01 4.024896e-01 4.706515e-01 5.255622e-01 4.317569e-01 3.882029e-01 3.806162e-01 5.134221e-01 3.252152e-01 3.526792e-01 3.011891e-01
<GCONST> 1.225675e+02
<TRANSP> 5
 0.000000e+00 1.000000e+00 0.000000e+00 0.000000e+00 0.000000e+00
 0.000000e+00 6.000000e-01 4.000000e-01 0.000000e+00 0.000000e+00
 0.000000e+00 0.000000e+00 6.000000e-01 4.000000e-01 0.000000e+00
 0.000000e+00 0.000000e+00 0.000000e+00 7.000000e-01 3.000000e-01
 0.000000e+00 0.000000e+00 0.000000e+00 0.000000e+00 0.000000e+00
<ENDHMM>
~h "ch"
<BEGINHMM>
<NUMSTATES> 5
<STATE> 2
<MEAN> 39
 6.707855e+00 -1.768463e+01 1.252256e+00 1.539251e+01 -1.668408e+01 1.808373e+01 -6.701271e+00 -7.042653e+00 6.889536e+00 -9.796343e+00 -4.355540e+00 1.748858e+00 7.326752e+01 3.328507e-02 -2.352392e-02 8.640007e-03 1.186019e-02 -1.639696e-02 1.441048e-02 1.499655e-03 -8.659299e-03 1.256061e-02 -5.673023e-03 -5.965582e-03 2.039411e-03 3.436080e-02 6.271758e-05 2.965386e-04 -7.100627e-04 -1.045769e-03 -5.200538e-04 7.722446e-05 2.680612e-05 -7.544252e-04 -5.288762e-04 1.771268e-04 6.646332e-04 7.342880e-04 -1.443067e-04
<VARIANCE> 39
 8.983979e+01 7.565530e+01 7.332420e+01 5.019836e+01 5.624637e+01 5.733911e+01 3.506507e+01 4.230246e+01 3.633398e+01 4.495449e+01 2.801809e+01 3.492205e+01 9.709326e+01 1.845017e+00 3.999241e+00 3.044322e+00 2.333326e+00 2.700648e+00 2.973695e+00 2.359299e+00 2.156001e+00 2.075893e+00 2.771460e+00 1.741253e+00 1.985936e+00 1.904773e+00 2.474196e-01 6.560865e-01 4.583352e-01 4.024896e-01 4.706515e-01 5.255622e-01 4.317569e-01 3.882029e-01 3.806162e-01 5.134221e-01 3.252152e-01 3.526792e-01 3.011891e-01
<GCONST> 1.225675e+02
<STATE> 3
<MEAN> 39
 6.707855e+00 -1.768463e+01 1.252256e+00 1.539251e+01 -1.668408e+01 1.808373e+01 -6.701271e+00 -7.042653e+00 6.889536e+00 -9.796343e+00 -4.355540e+00 1.748858e+00 7.326752e+01 3.328507e-02 -2.352392e-02 8.640007e-03 1.186019e-02 -1.639696e-02 1.441048e-02 1.499655e-03 -8.659299e-03 1.256061e-02 -5.673023e-03 -5.965582e-03 2.039411e-03 3.436080e-02 6.271758e-05 2.965386e-04 -7.100627e-04 -1.045769e-03 -5.200538e-04 7.722446e-05 2.680612e-05 -7.544252e-04 -5.288762e-04 1.771268e-04 6.646332e-04 7.342880e-04 -1.443067e-04
<VARIANCE> 39
 8.983979e+01 7.565530e+01 7.332420e+01 5.019836e+01 5.624637e+01 5.733911e+01 3.506507e+01 4.230246e+01 3.633398e+01 4.495449e+01 2.801809e+01 3.492205e+01 9.709326e+01 1.845017e+00 3.999241e+00 3.044322e+00 2.333326e+00 2.700648e+00 2.973695e+00 2.359299e+00 2.156001e+00 2.075893e+00 2.771460e+00 1.741253e+00 1.985936e+00 1.904773e+00 2.474196e-01 6.560865e-01 4.583352e-01 4.024896e-01 4.706515e-01 5.255622e-01 4.317569e-01 3.882029e-01 3.806162e-01 5.134221e-01 3.252152e-01 3.526792e-01 3.011891e-01
<GCONST> 1.225675e+02
<STATE> 4
<MEAN> 39
 6.707855e+00 -1.768463e+01 1.252256e+00 1.539251e+01 -1.668408e+01 1.808373e+01 -6.701271e+00 -7.042653e+00 6.889536e+00 -9.796343e+00 -4.355540e+00 1.748858e+00 7.326752e+01 3.328507e-02 -2.352392e-02 8.640007e-03 1.186019e-02 -1.639696e-02 1.441048e-02 1.499655e-03 -8.659299e-03 1.256061e-02 -5.673023e-03 -5.965582e-03 2.039411e-03 3.436080e-02 6.271758e-05 2.965386e-04 -7.100627e-04 -1.045769e-03 -5.200538e-04 7.722446e-05 2.680612e-05 -7.544252e-04 -5.288762e-04 1.771268e-04 6.646332e-04 7.342880e-04 -1.443067e-04
<VARIANCE> 39
 8.983979e+01 7.565530e+01 7.332420e+01 5.019836e+01 5.624637e+01 5.733911e+01 3.506507e+01 4.230246e+01 3.633398e+01 4.495449e+01 2.801809e+01 3.492205e+01 9.709326e+01 1.845017e+00 3.999241e+00 3.044322e+00 2.333326e+00 2.700648e+00 2.973695e+00 2.359299e+00 2.156001e+00 2.075893e+00 2.771460e+00 1.741253e+00 1.985936e+00 1.904773e+00 2.474196e-01 6.560865e-01 4.583352e-01 4.024896e-01 4.706515e-01 5.255622e-01 4.317569e-01 3.882029e-01 3.806162e-01 5.134221e-01 3.252152e-01 3.526792e-01 3.011891e-01
<GCONST> 1.225675e+02
<TRANSP> 5
 0.000000e+00 1.000000e+00 0.000000e+00 0.000000e+00 0.000000e+00
 0.000000e+00 6.000000e-01 4.000000e-01 0.000000e+00 0.000000e+00
 0.000000e+00 0.000000e+00 6.000000e-01 4.000000e-01 0.000000e+00
 0.000000e+00 0.000000e+00 0.000000e+00 7.000000e-01 3.000000e-01
 0.000000e+00 0.000000e+00 0.000000e+00 0.000000e+00 0.000000e+00
<ENDHMM>
~h "d"
<BEGINHMM>
<NUMSTATES> 5
<STATE> 2
<MEAN> 39
 6.707855e+00 -1.768463e+01 1.252256e+00 1.539251e+01 -1.668408e+01 1.808373e+01 -6.701271e+00 -7.042653e+00 6.889536e+00 -9.796343e+00 -4.355540e+00 1.748858e+00 7.326752e+01 3.328507e-02 -2.352392e-02 8.640007e-03 1.186019e-02 -1.639696e-02 1.441048e-02 1.499655e-03 -8.659299e-03 1.256061e-02 -5.673023e-03 -5.965582e-03 2.039411e-03 3.436080e-02 6.271758e-05 2.965386e-04 -7.100627e-04 -1.045769e-03 -5.200538e-04 7.722446e-05 2.680612e-05 -7.544252e-04 -5.288762e-04 1.771268e-04 6.646332e-04 7.342880e-04 -1.443067e-04
<VARIANCE> 39
 8.983979e+01 7.565530e+01 7.332420e+01 5.019836e+01 5.624637e+01 5.733911e+01 3.506507e+01 4.230246e+01 3.633398e+01 4.495449e+01 2.801809e+01 3.492205e+01 9.709326e+01 1.845017e+00 3.999241e+00 3.044322e+00 2.333326e+00 2.700648e+00 2.973695e+00 2.359299e+00 2.156001e+00 2.075893e+00 2.771460e+00 1.741253e+00 1.985936e+00 1.904773e+00 2.474196e-01 6.560865e-01 4.583352e-01 4.024896e-01 4.706515e-01 5.255622e-01 4.317569e-01 3.882029e-01 3.806162e-01 5.134221e-01 3.252152e-01 3.526792e-01 3.011891e-01
<GCONST> 1.225675e+02
<STATE> 3
<MEAN> 39
 6.707855e+00 -1.768463e+01 1.252256e+00 1.539251e+01 -1.668408e+01 1.808373e+01 -6.701271e+00 -7.042653e+00 6.889536e+00 -9.796343e+00 -4.355540e+00 1.748858e+00 7.326752e+01 3.328507e-02 -2.352392e-02 8.640007e-03 1.186019e-02 -1.639696e-02 1.441048e-02 1.499655e-03 -8.659299e-03 1.256061e-02 -5.673023e-03 -5.965582e-03 2.039411e-03 3.436080e-02 6.271758e-05 2.965386e-04 -7.100627e-04 -1.045769e-03 -5.200538e-04 7.722446e-05 2.680612e-05 -7.544252e-04 -5.288762e-04 1.771268e-04 6.646332e-04 7.342880e-04 -1.443067e-04
<VARIANCE> 39
 8.983979e+01 7.565530e+01 7.332420e+01 5.019836e+01 5.624637e+01 5.733911e+01 3.506507e+01 4.230246e+01 3.633398e+01 4.495449e+01 2.801809e+01 3.492205e+01 9.709326e+01 1.845017e+00 3.999241e+00 3.044322e+00 2.333326e+00 2.700648e+00 2.973695e+00 2.359299e+00 2.156001e+00 2.075893e+00 2.771460e+00 1.741253e+00 1.985936e+00 1.904773e+00 2.474196e-01 6.560865e-01 4.583352e-01 4.024896e-01 4.706515e-01 5.255622e-01 4.317569e-01 3.882029e-01 3.806162e-01 5.134221e-01 3.252152e-01 3.526792e-01 3.011891e-01
<GCONST> 1.225675e+02
<STATE> 4
<MEAN> 39
 6.707855e+00 -1.768463e+01 1.252256e+00 1.539251e+01 -1.668408e+01 1.808373e+01 -6.701271e+00 -7.042653e+00 6.889536e+00 -9.796343e+00 -4.355540e+00 1.748858e+00 7.326752e+01 3.328507e-02 -2.352392e-02 8.640007e-03 1.186019e-02 -1.639696e-02 1.441048e-02 1.499655e-03 -8.659299e-03 1.256061e-02 -5.673023e-03 -5.965582e-03 2.039411e-03 3.436080e-02 6.271758e-05 2.965386e-04 -7.100627e-04 -1.045769e-03 -5.200538e-04 7.722446e-05 2.680612e-05 -7.544252e-04 -5.288762e-04 1.771268e-04 6.646332e-04 7.342880e-04 -1.443067e-04
<VARIANCE> 39
 8.983979e+01 7.565530e+01 7.332420e+01 5.019836e+01 5.624637e+01 5.733911e+01 3.506507e+01 4.230246e+01 3.633398e+01 4.495449e+01 2.801809e+01 3.492205e+01 9.709326e+01 1.845017e+00 3.999241e+00 3.044322e+00 2.333326e+00 2.700648e+00 2.973695e+00 2.359299e+00 2.156001e+00 2.075893e+00 2.771460e+00 1.741253e+00 1.985936e+00 1.904773e+00 2.474196e-01 6.560865e-01 4.583352e-01 4.024896e-01 4.706515e-01 5.255622e-01 4.317569e-01 3.882029e-01 3.806162e-01 5.134221e-01 3.252152e-01 3.526792e-01 3.011891e-01
<GCONST> 1.225675e+02
<TRANSP> 5
 0.000000e+00 1.000000e+00 0.000000e+00 0.000000e+00 0.000000e+00
 0.000000e+00 6.000000e-01 4.000000e-01 0.000000e+00 0.000000e+00
 0.000000e+00 0.000000e+00 6.000000e-01 4.000000e-01 0.000000e+00
 0.000000e+00 0.000000e+00 0.000000e+00 7.000000e-01 3.000000e-01
 0.000000e+00 0.000000e+00 0.000000e+00 0.000000e+00 0.000000e+00
<ENDHMM>
~h "e"
<BEGINHMM>
<NUMSTATES> 5
<STATE> 2
<MEAN> 39
 6.707855e+00 -1.768463e+01 1.252256e+00 1.539251e+01 -1.668408e+01 1.808373e+01 -6.701271e+00 -7.042653e+00 6.889536e+00 -9.796343e+00 -4.355540e+00 1.748858e+00 7.326752e+01 3.328507e-02 -2.352392e-02 8.640007e-03 1.186019e-02 -1.639696e-02 1.441048e-02 1.499655e-03 -8.659299e-03 1.256061e-02 -5.673023e-03 -5.965582e-03 2.039411e-03 3.436080e-02 6.271758e-05 2.965386e-04 -7.100627e-04 -1.045769e-03 -5.200538e-04 7.722446e-05 2.680612e-05 -7.544252e-04 -5.288762e-04 1.771268e-04 6.646332e-04 7.342880e-04 -1.443067e-04
<VARIANCE> 39
 8.983979e+01 7.565530e+01 7.332420e+01 5.019836e+01 5.624637e+01 5.733911e+01 3.506507e+01 4.230246e+01 3.633398e+01 4.495449e+01 2.801809e+01 3.492205e+01 9.709326e+01 1.845017e+00 3.999241e+00 3.044322e+00 2.333326e+00 2.700648e+00 2.973695e+00 2.359299e+00 2.156001e+00 2.075893e+00 2.771460e+00 1.741253e+00 1.985936e+00 1.904773e+00 2.474196e-01 6.560865e-01 4.583352e-01 4.024896e-01 4.706515e-01 5.255622e-01 4.317569e-01 3.882029e-01 3.806162e-01 5.134221e-01 3.252152e-01 3.526792e-01 3.011891e-01
<GCONST> 1.225675e+02
<STATE> 3
<MEAN> 39
 6.707855e+00 -1.768463e+01 1.252256e+00 1.539251e+01 -1.668408e+01 1.808373e+01 -6.701271e+00 -7.042653e+00 6.889536e+00 -9.796343e+00 -4.355540e+00 1.748858e+00 7.326752e+01 3.328507e-02 -2.352392e-02 8.640007e-03 1.186019e-02 -1.639696e-02 1.441048e-02 1.499655e-03 -8.659299e-03 1.256061e-02 -5.673023e-03 -5.965582e-03 2.039411e-03 3.436080e-02 6.271758e-05 2.965386e-04 -7.100627e-04 -1.045769e-03 -5.200538e-04 7.722446e-05 2.680612e-05 -7.544252e-04 -5.288762e-04 1.771268e-04 6.646332e-04 7.342880e-04 -1.443067e-04
<VARIANCE> 39
 8.983979e+01 7.565530e+01 7.332420e+01 5.019836e+01 5.624637e+01 5.733911e+01 3.506507e+01 4.230246e+01 3.633398e+01 4.495449e+01 2.801809e+01 3.492205e+01 9.709326e+01 1.845017e+00 3.999241e+00 3.044322e+00 2.333326e+00 2.700648e+00 2.973695e+00 2.359299e+00 2.156001e+00 2.075893e+00 2.771460e+00 1.741253e+00 1.985936e+00 1.904773e+00 2.474196e-01 6.560865e-01 4.583352e-01 4.024896e-01 4.706515e-01 5.255622e-01 4.317569e-01 3.882029e-01 3.806162e-01 5.134221e-01 3.252152e-01 3.526792e-01 3.011891e-01
<GCONST> 1.225675e+02
<STATE> 4
<MEAN> 39
 6.707855e+00 -1.768463e+01 1.252256e+00 1.539251e+01 -1.668408e+01 1.808373e+01 -6.701271e+00 -7.042653e+00 6.889536e+00 -9.796343e+00 -4.355540e+00 1.748858e+00 7.326752e+01 3.328507e-02 -2.352392e-02 8.640007e-03 1.186019e-02 -1.639696e-02 1.441048e-02 1.499655e-03 -8.659299e-03 1.256061e-02 -5.673023e-03 -5.965582e-03 2.039411e-03 3.436080e-02 6.271758e-05 2.965386e-04 -7.100627e-04 -1.045769e-03 -5.200538e-04 7.722446e-05 2.680612e-05 -7.544252e-04 -5.288762e-04 1.771268e-04 6.646332e-04 7.342880e-04 -1.443067e-04
<VARIANCE> 39
 8.983979e+01 7.565530e+01 7.332420e+01 5.019836e+01 5.624637e+01 5.733911e+01 3.506507e+01 4.230246e+01 3.633398e+01 4.495449e+01 2.801809e+01 3.492205e+01 9.709326e+01 1.845017e+00 3.999241e+00 3.044322e+00 2.333326e+00 2.700648e+00 2.973695e+00 2.359299e+00 2.156001e+00 2.075893e+00 2.771460e+00 1.741253e+00 1.985936e+00 1.904773e+00 2.474196e-01 6.560865e-01 4.583352e-01 4.024896e-01 4.706515e-01 5.255622e-01 4.317569e-01 3.882029e-01 3.806162e-01 5.134221e-01 3.252152e-01 3.526792e-01 3.011891e-01
<GCONST> 1.225675e+02
<TRANSP> 5
 0.000000e+00 1.000000e+00 0.000000e+00 0.000000e+00 0.000000e+00
 0.000000e+00 6.000000e-01 4.000000e-01 0.000000e+00 0.000000e+00
 0.000000e+00 0.000000e+00 6.000000e-01 4.000000e-01 0.000000e+00
 0.000000e+00 0.000000e+00 0.000000e+00 7.000000e-01 3.000000e-01
 0.000000e+00 0.000000e+00 0.000000e+00 0.000000e+00 0.000000e+00
<ENDHMM>
~h "f"
<BEGINHMM>
<NUMSTATES> 5
<STATE> 2
<MEAN> 39
 6.707855e+00 -1.768463e+01 1.252256e+00 1.539251e+01 -1.668408e+01 1.808373e+01 -6.701271e+00 -7.042653e+00 6.889536e+00 -9.796343e+00 -4.355540e+00 1.748858e+00 7.326752e+01 3.328507e-02 -2.352392e-02 8.640007e-03 1.186019e-02 -1.639696e-02 1.441048e-02 1.499655e-03 -8.659299e-03 1.256061e-02 -5.673023e-03 -5.965582e-03 2.039411e-03 3.436080e-02 6.271758e-05 2.965386e-04 -7.100627e-04 -1.045769e-03 -5.200538e-04 7.722446e-05 2.680612e-05 -7.544252e-04 -5.288762e-04 1.771268e-04 6.646332e-04 7.342880e-04 -1.443067e-04
<VARIANCE> 39
 8.983979e+01 7.565530e+01 7.332420e+01 5.019836e+01 5.624637e+01 5.733911e+01 3.506507e+01 4.230246e+01 3.633398e+01 4.495449e+01 2.801809e+01 3.492205e+01 9.709326e+01 1.845017e+00 3.999241e+00 3.044322e+00 2.333326e+00 2.700648e+00 2.973695e+00 2.359299e+00 2.156001e+00 2.075893e+00 2.771460e+00 1.741253e+00 1.985936e+00 1.904773e+00 2.474196e-01 6.560865e-01 4.583352e-01 4.024896e-01 4.706515e-01 5.255622e-01 4.317569e-01 3.882029e-01 3.806162e-01 5.134221e-01 3.252152e-01 3.526792e-01 3.011891e-01
<GCONST> 1.225675e+02
<STATE> 3
<MEAN> 39
 6.707855e+00 -1.768463e+01 1.252256e+00 1.539251e+01 -1.668408e+01 1.808373e+01 -6.701271e+00 -7.042653e+00 6.889536e+00 -9.796343e+00 -4.355540e+00 1.748858e+00 7.326752e+01 3.328507e-02 -2.352392e-02 8.640007e-03 1.186019e-02 -1.639696e-02 1.441048e-02 1.499655e-03 -8.659299e-03 1.256061e-02 -5.673023e-03 -5.965582e-03 2.039411e-03 3.436080e-02 6.271758e-05 2.965386e-04 -7.100627e-04 -1.045769e-03 -5.200538e-04 7.722446e-05 2.680612e-05 -7.544252e-04 -5.288762e-04 1.771268e-04 6.646332e-04 7.342880e-04 -1.443067e-04
<VARIANCE> 39
 8.983979e+01 7.565530e+01 7.332420e+01 5.019836e+01 5.624637e+01 5.733911e+01 3.506507e+01 4.230246e+01 3.633398e+01 4.495449e+01 2.801809e+01 3.492205e+01 9.709326e+01 1.845017e+00 3.999241e+00 3.044322e+00 2.333326e+00 2.700648e+00 2.973695e+00 2.359299e+00 2.156001e+00 2.075893e+00 2.771460e+00 1.741253e+00 1.985936e+00 1.904773e+00 2.474196e-01 6.560865e-01 4.583352e-01 4.024896e-01 4.706515e-01 5.255622e-01 4.317569e-01 3.882029e-01 3.806162e-01 5.134221e-01 3.252152e-01 3.526792e-01 3.011891e-01
<GCONST> 1.225675e+02
<STATE> 4
<MEAN> 39
 6.707855e+00 -1.768463e+01 1.252256e+00 1.539251e+01 -1.668408e+01 1.808373e+01 -6.701271e+00 -7.042653e+00 6.889536e+00 -9.796343e+00 -4.355540e+00 1.748858e+00 7.326752e+01 3.328507e-02 -2.352392e-02 8.640007e-03 1.186019e-02 -1.639696e-02 1.441048e-02 1.499655e-03 -8.659299e-03 1.256061e-02 -5.673023e-03 -5.965582e-03 2.039411e-03 3.436080e-02 6.271758e-05 2.965386e-04 -7.100627e-04 -1.045769e-03 -5.200538e-04 7.722446e-05 2.680612e-05 -7.544252e-04 -5.288762e-04 1.771268e-04 6.646332e-04 7.342880e-04 -1.443067e-04
<VARIANCE> 39
 8.983979e+01 7.565530e+01 7.332420e+01 5.019836e+01 5.624637e+01 5.733911e+01 3.506507e+01 4.230246e+01 3.633398e+01 4.495449e+01 2.801809e+01 3.492205e+01 9.709326e+01 1.845017e+00 3.999241e+00 3.044322e+00 2.333326e+00 2.700648e+00 2.973695e+00 2.359299e+00 2.156001e+00 2.075893e+00 2.771460e+00 1.741253e+00 1.985936e+00 1.904773e+00 2.474196e-01 6.560865e-01 4.583352e-01 4.024896e-01 4.706515e-01 5.255622e-01 4.317569e-01 3.882029e-01 3.806162e-01 5.134221e-01 3.252152e-01 3.526792e-01 3.011891e-01
<GCONST> 1.225675e+02
<TRANSP> 5
 0.000000e+00 1.000000e+00 0.000000e+00 0.000000e+00 0.000000e+00
 0.000000e+00 6.000000e-01 4.000000e-01 0.000000e+00 0.000000e+00
 0.000000e+00 0.000000e+00 6.000000e-01 4.000000e-01 0.000000e+00
 0.000000e+00 0.000000e+00 0.000000e+00 7.000000e-01 3.000000e-01
 0.000000e+00 0.000000e+00 0.000000e+00 0.000000e+00 0.000000e+00
<ENDHMM>
~h "g"
<BEGINHMM>
<NUMSTATES> 5
<STATE> 2
<MEAN> 39
 6.707855e+00 -1.768463e+01 1.252256e+00 1.539251e+01 -1.668408e+01 1.808373e+01 -6.701271e+00 -7.042653e+00 6.889536e+00 -9.796343e+00 -4.355540e+00 1.748858e+00 7.326752e+01 3.328507e-02 -2.352392e-02 8.640007e-03 1.186019e-02 -1.639696e-02 1.441048e-02 1.499655e-03 -8.659299e-03 1.256061e-02 -5.673023e-03 -5.965582e-03 2.039411e-03 3.436080e-02 6.271758e-05 2.965386e-04 -7.100627e-04 -1.045769e-03 -5.200538e-04 7.722446e-05 2.680612e-05 -7.544252e-04 -5.288762e-04 1.771268e-04 6.646332e-04 7.342880e-04 -1.443067e-04
<VARIANCE> 39
 8.983979e+01 7.565530e+01 7.332420e+01 5.019836e+01 5.624637e+01 5.733911e+01 3.506507e+01 4.230246e+01 3.633398e+01 4.495449e+01 2.801809e+01 3.492205e+01 9.709326e+01 1.845017e+00 3.999241e+00 3.044322e+00 2.333326e+00 2.700648e+00 2.973695e+00 2.359299e+00 2.156001e+00 2.075893e+00 2.771460e+00 1.741253e+00 1.985936e+00 1.904773e+00 2.474196e-01 6.560865e-01 4.583352e-01 4.024896e-01 4.706515e-01 5.255622e-01 4.317569e-01 3.882029e-01 3.806162e-01 5.134221e-01 3.252152e-01 3.526792e-01 3.011891e-01
<GCONST> 1.225675e+02
<STATE> 3
<MEAN> 39
 6.707855e+00 -1.768463e+01 1.252256e+00 1.539251e+01 -1.668408e+01 1.808373e+01 -6.701271e+00 -7.042653e+00 6.889536e+00 -9.796343e+00 -4.355540e+00 1.748858e+00 7.326752e+01 3.328507e-02 -2.352392e-02 8.640007e-03 1.186019e-02 -1.639696e-02 1.441048e-02 1.499655e-03 -8.659299e-03 1.256061e-02 -5.673023e-03 -5.965582e-03 2.039411e-03 3.436080e-02 6.271758e-05 2.965386e-04 -7.100627e-04 -1.045769e-03 -5.200538e-04 7.722446e-05 2.680612e-05 -7.544252e-04 -5.288762e-04 1.771268e-04 6.646332e-04 7.342880e-04 -1.443067e-04
<VARIANCE> 39
 8.983979e+01 7.565530e+01 7.332420e+01 5.019836e+01 5.624637e+01 5.733911e+01 3.506507e+01 4.230246e+01 3.633398e+01 4.495449e+01 2.801809e+01 3.492205e+01 9.709326e+01 1.845017e+00 3.999241e+00 3.044322e+00 2.333326e+00 2.700648e+00 2.973695e+00 2.359299e+00 2.156001e+00 2.075893e+00 2.771460e+00 1.741253e+00 1.985936e+00 1.904773e+00 2.474196e-01 6.560865e-01 4.583352e-01 4.024896e-01 4.706515e-01 5.255622e-01 4.317569e-01 3.882029e-01 3.806162e-01 5.134221e-01 3.252152e-01 3.526792e-01 3.011891e-01
<GCONST> 1.225675e+02
<STATE> 4
<MEAN> 39
 6.707855e+00 -1.768463e+01 1.252256e+00 1.539251e+01 -1.668408e+01 1.808373e+01 -6.701271e+00 -7.042653e+00 6.889536e+00 -9.796343e+00 -4.355540e+00 1.748858e+00 7.326752e+01 3.328507e-02 -2.352392e-02 8.640007e-03 1.186019e-02 -1.639696e-02 1.441048e-02 1.499655e-03 -8.659299e-03 1.256061e-02 -5.673023e-03 -5.965582e-03 2.039411e-03 3.436080e-02 6.271758e-05 2.965386e-04 -7.100627e-04 -1.045769e-03 -5.200538e-04 7.722446e-05 2.680612e-05 -7.544252e-04 -5.288762e-04 1.771268e-04 6.646332e-04 7.342880e-04 -1.443067e-04
<VARIANCE> 39
 8.983979e+01 7.565530e+01 7.332420e+01 5.019836e+01 5.624637e+01 5.733911e+01 3.506507e+01 4.230246e+01 3.633398e+01 4.495449e+01 2.801809e+01 3.492205e+01 9.709326e+01 1.845017e+00 3.999241e+00 3.044322e+00 2.333326e+00 2.700648e+00 2.973695e+00 2.359299e+00 2.156001e+00 2.075893e+00 2.771460e+00 1.741253e+00 1.985936e+00 1.904773e+00 2.474196e-01 6.560865e-01 4.583352e-01 4.024896e-01 4.706515e-01 5.255622e-01 4.317569e-01 3.882029e-01 3.806162e-01 5.134221e-01 3.252152e-01 3.526792e-01 3.011891e-01
<GCONST> 1.225675e+02
<TRANSP> 5
 0.000000e+00 1.000000e+00 0.000000e+00 0.000000e+00 0.000000e+00
 0.000000e+00 6.000000e-01 4.000000e-01 0.000000e+00 0.000000e+00
 0.000000e+00 0.000000e+00 6.000000e-01 4.000000e-01 0.000000e+00
 0.000000e+00 0.000000e+00 0.000000e+00 7.000000e-01 3.000000e-01
 0.000000e+00 0.000000e+00 0.000000e+00 0.000000e+00 0.000000e+00
<ENDHMM>
~h "gh"
<BEGINHMM>
<NUMSTATES> 5
<STATE> 2
<MEAN> 39
 6.707855e+00 -1.768463e+01 1.252256e+00 1.539251e+01 -1.668408e+01 1.808373e+01 -6.701271e+00 -7.042653e+00 6.889536e+00 -9.796343e+00 -4.355540e+00 1.748858e+00 7.326752e+01 3.328507e-02 -2.352392e-02 8.640007e-03 1.186019e-02 -1.639696e-02 1.441048e-02 1.499655e-03 -8.659299e-03 1.256061e-02 -5.673023e-03 -5.965582e-03 2.039411e-03 3.436080e-02 6.271758e-05 2.965386e-04 -7.100627e-04 -1.045769e-03 -5.200538e-04 7.722446e-05 2.680612e-05 -7.544252e-04 -5.288762e-04 1.771268e-04 6.646332e-04 7.342880e-04 -1.443067e-04
<VARIANCE> 39
 8.983979e+01 7.565530e+01 7.332420e+01 5.019836e+01 5.624637e+01 5.733911e+01 3.506507e+01 4.230246e+01 3.633398e+01 4.495449e+01 2.801809e+01 3.492205e+01 9.709326e+01 1.845017e+00 3.999241e+00 3.044322e+00 2.333326e+00 2.700648e+00 2.973695e+00 2.359299e+00 2.156001e+00 2.075893e+00 2.771460e+00 1.741253e+00 1.985936e+00 1.904773e+00 2.474196e-01 6.560865e-01 4.583352e-01 4.024896e-01 4.706515e-01 5.255622e-01 4.317569e-01 3.882029e-01 3.806162e-01 5.134221e-01 3.252152e-01 3.526792e-01 3.011891e-01
<GCONST> 1.225675e+02
<STATE> 3
<MEAN> 39
 6.707855e+00 -1.768463e+01 1.252256e+00 1.539251e+01 -1.668408e+01 1.808373e+01 -6.701271e+00 -7.042653e+00 6.889536e+00 -9.796343e+00 -4.355540e+00 1.748858e+00 7.326752e+01 3.328507e-02 -2.352392e-02 8.640007e-03 1.186019e-02 -1.639696e-02 1.441048e-02 1.499655e-03 -8.659299e-03 1.256061e-02 -5.673023e-03 -5.965582e-03 2.039411e-03 3.436080e-02 6.271758e-05 2.965386e-04 -7.100627e-04 -1.045769e-03 -5.200538e-04 7.722446e-05 2.680612e-05 -7.544252e-04 -5.288762e-04 1.771268e-04 6.646332e-04 7.342880e-04 -1.443067e-04
<VARIANCE> 39
 8.983979e+01 7.565530e+01 7.332420e+01 5.019836e+01 5.624637e+01 5.733911e+01 3.506507e+01 4.230246e+01 3.633398e+01 4.495449e+01 2.801809e+01 3.492205e+01 9.709326e+01 1.845017e+00 3.999241e+00 3.044322e+00 2.333326e+00 2.700648e+00 2.973695e+00 2.359299e+00 2.156001e+00 2.075893e+00 2.771460e+00 1.741253e+00 1.985936e+00 1.904773e+00 2.474196e-01 6.560865e-01 4.583352e-01 4.024896e-01 4.706515e-01 5.255622e-01 4.317569e-01 3.882029e-01 3.806162e-01 5.134221e-01 3.252152e-01 3.526792e-01 3.011891e-01
<GCONST> 1.225675e+02
<STATE> 4
<MEAN> 39
 6.707855e+00 -1.768463e+01 1.252256e+00 1.539251e+01 -1.668408e+01 1.808373e+01 -6.701271e+00 -7.042653e+00 6.889536e+00 -9.796343e+00 -4.355540e+00 1.748858e+00 7.326752e+01 3.328507e-02 -2.352392e-02 8.640007e-03 1.186019e-02 -1.639696e-02 1.441048e-02 1.499655e-03 -8.659299e-03 1.256061e-02 -5.673023e-03 -5.965582e-03 2.039411e-03 3.436080e-02 6.271758e-05 2.965386e-04 -7.100627e-04 -1.045769e-03 -5.200538e-04 7.722446e-05 2.680612e-05 -7.544252e-04 -5.288762e-04 1.771268e-04 6.646332e-04 7.342880e-04 -1.443067e-04
<VARIANCE> 39
 8.983979e+01 7.565530e+01 7.332420e+01 5.019836e+01 5.624637e+01 5.733911e+01 3.506507e+01 4.230246e+01 3.633398e+01 4.495449e+01 2.801809e+01 3.492205e+01 9.709326e+01 1.845017e+00 3.999241e+00 3.044322e+00 2.333326e+00 2.700648e+00 2.973695e+00 2.359299e+00 2.156001e+00 2.075893e+00 2.771460e+00 1.741253e+00 1.985936e+00 1.904773e+00 2.474196e-01 6.560865e-01 4.583352e-01 4.024896e-01 4.706515e-01 5.255622e-01 4.317569e-01 3.882029e-01 3.806162e-01 5.134221e-01 3.252152e-01 3.526792e-01 3.011891e-01
<GCONST> 1.225675e+02
<TRANSP> 5
 0.000000e+00 1.000000e+00 0.000000e+00 0.000000e+00 0.000000e+00
 0.000000e+00 6.000000e-01 4.000000e-01 0.000000e+00 0.000000e+00
 0.000000e+00 0.000000e+00 6.000000e-01 4.000000e-01 0.000000e+00
 0.000000e+00 0.000000e+00 0.000000e+00 7.000000e-01 3.000000e-01
 0.000000e+00 0.000000e+00 0.000000e+00 0.000000e+00 0.000000e+00
<ENDHMM>
~h "h"
<BEGINHMM>
<NUMSTATES> 5
<STATE> 2
<MEAN> 39
 6.707855e+00 -1.768463e+01 1.252256e+00 1.539251e+01 -1.668408e+01 1.808373e+01 -6.701271e+00 -7.042653e+00 6.889536e+00 -9.796343e+00 -4.355540e+00 1.748858e+00 7.326752e+01 3.328507e-02 -2.352392e-02 8.640007e-03 1.186019e-02 -1.639696e-02 1.441048e-02 1.499655e-03 -8.659299e-03 1.256061e-02 -5.673023e-03 -5.965582e-03 2.039411e-03 3.436080e-02 6.271758e-05 2.965386e-04 -7.100627e-04 -1.045769e-03 -5.200538e-04 7.722446e-05 2.680612e-05 -7.544252e-04 -5.288762e-04 1.771268e-04 6.646332e-04 7.342880e-04 -1.443067e-04
<VARIANCE> 39
 8.983979e+01 7.565530e+01 7.332420e+01 5.019836e+01 5.624637e+01 5.733911e+01 3.506507e+01 4.230246e+01 3.633398e+01 4.495449e+01 2.801809e+01 3.492205e+01 9.709326e+01 1.845017e+00 3.999241e+00 3.044322e+00 2.333326e+00 2.700648e+00 2.973695e+00 2.359299e+00 2.156001e+00 2.075893e+00 2.771460e+00 1.741253e+00 1.985936e+00 1.904773e+00 2.474196e-01 6.560865e-01 4.583352e-01 4.024896e-01 4.706515e-01 5.255622e-01 4.317569e-01 3.882029e-01 3.806162e-01 5.134221e-01 3.252152e-01 3.526792e-01 3.011891e-01
<GCONST> 1.225675e+02
<STATE> 3
<MEAN> 39
 6.707855e+00 -1.768463e+01 1.252256e+00 1.539251e+01 -1.668408e+01 1.808373e+01 -6.701271e+00 -7.042653e+00 6.889536e+00 -9.796343e+00 -4.355540e+00 1.748858e+00 7.326752e+01 3.328507e-02 -2.352392e-02 8.640007e-03 1.186019e-02 -1.639696e-02 1.441048e-02 1.499655e-03 -8.659299e-03 1.256061e-02 -5.673023e-03 -5.965582e-03 2.039411e-03 3.436080e-02 6.271758e-05 2.965386e-04 -7.100627e-04 -1.045769e-03 -5.200538e-04 7.722446e-05 2.680612e-05 -7.544252e-04 -5.288762e-04 1.771268e-04 6.646332e-04 7.342880e-04 -1.443067e-04
<VARIANCE> 39
 8.983979e+01 7.565530e+01 7.332420e+01 5.019836e+01 5.624637e+01 5.733911e+01 3.506507e+01 4.230246e+01 3.633398e+01 4.495449e+01 2.801809e+01 3.492205e+01 9.709326e+01 1.845017e+00 3.999241e+00 3.044322e+00 2.333326e+00 2.700648e+00 2.973695e+00 2.359299e+00 2.156001e+00 2.075893e+00 2.771460e+00 1.741253e+00 1.985936e+00 1.904773e+00 2.474196e-01 6.560865e-01 4.583352e-01 4.024896e-01 4.706515e-01 5.255622e-01 4.317569e-01 3.882029e-01 3.806162e-01 5.134221e-01 3.252152e-01 3.526792e-01 3.011891e-01
<GCONST> 1.225675e+02
<STATE> 4
<MEAN> 39
 6.707855e+00 -1.768463e+01 1.252256e+00 1.539251e+01 -1.668408e+01 1.808373e+01 -6.701271e+00 -7.042653e+00 6.889536e+00 -9.796343e+00 -4.355540e+00 1.748858e+00 7.326752e+01 3.328507e-02 -2.352392e-02 8.640007e-03 1.186019e-02 -1.639696e-02 1.441048e-02 1.499655e-03 -8.659299e-03 1.256061e-02 -5.673023e-03 -5.965582e-03 2.039411e-03 3.436080e-02 6.271758e-05 2.965386e-04 -7.100627e-04 -1.045769e-03 -5.200538e-04 7.722446e-05 2.680612e-05 -7.544252e-04 -5.288762e-04 1.771268e-04 6.646332e-04 7.342880e-04 -1.443067e-04
<VARIANCE> 39
 8.983979e+01 7.565530e+01 7.332420e+01 5.019836e+01 5.624637e+01 5.733911e+01 3.506507e+01 4.230246e+01 3.633398e+01 4.495449e+01 2.801809e+01 3.492205e+01 9.709326e+01 1.845017e+00 3.999241e+00 3.044322e+00 2.333326e+00 2.700648e+00 2.973695e+00 2.359299e+00 2.156001e+00 2.075893e+00 2.771460e+00 1.741253e+00 1.985936e+00 1.904773e+00 2.474196e-01 6.560865e-01 4.583352e-01 4.024896e-01 4.706515e-01 5.255622e-01 4.317569e-01 3.882029e-01 3.806162e-01 5.134221e-01 3.252152e-01 3.526792e-01 3.011891e-01
<GCONST> 1.225675e+02
<TRANSP> 5
 0.000000e+00 1.000000e+00 0.000000e+00 0.000000e+00 0.000000e+00
 0.000000e+00 6.000000e-01 4.000000e-01 0.000000e+00 0.000000e+00
 0.000000e+00 0.000000e+00 6.000000e-01 4.000000e-01 0.000000e+00
 0.000000e+00 0.000000e+00 0.000000e+00 7.000000e-01 3.000000e-01
 0.000000e+00 0.000000e+00 0.000000e+00 0.000000e+00 0.000000e+00
<ENDHMM>
~h "i"
<BEGINHMM>
<NUMSTATES> 5
<STATE> 2
<MEAN> 39
 6.707855e+00 -1.768463e+01 1.252256e+00 1.539251e+01 -1.668408e+01 1.808373e+01 -6.701271e+00 -7.042653e+00 6.889536e+00 -9.796343e+00 -4.355540e+00 1.748858e+00 7.326752e+01 3.328507e-02 -2.352392e-02 8.640007e-03 1.186019e-02 -1.639696e-02 1.441048e-02 1.499655e-03 -8.659299e-03 1.256061e-02 -5.673023e-03 -5.965582e-03 2.039411e-03 3.436080e-02 6.271758e-05 2.965386e-04 -7.100627e-04 -1.045769e-03 -5.200538e-04 7.722446e-05 2.680612e-05 -7.544252e-04 -5.288762e-04 1.771268e-04 6.646332e-04 7.342880e-04 -1.443067e-04
<VARIANCE> 39
 8.983979e+01 7.565530e+01 7.332420e+01 5.019836e+01 5.624637e+01 5.733911e+01 3.506507e+01 4.230246e+01 3.633398e+01 4.495449e+01 2.801809e+01 3.492205e+01 9.709326e+01 1.845017e+00 3.999241e+00 3.044322e+00 2.333326e+00 2.700648e+00 2.973695e+00 2.359299e+00 2.156001e+00 2.075893e+00 2.771460e+00 1.741253e+00 1.985936e+00 1.904773e+00 2.474196e-01 6.560865e-01 4.583352e-01 4.024896e-01 4.706515e-01 5.255622e-01 4.317569e-01 3.882029e-01 3.806162e-01 5.134221e-01 3.252152e-01 3.526792e-01 3.011891e-01
<GCONST> 1.225675e+02
<STATE> 3
<MEAN> 39
 6.707855e+00 -1.768463e+01 1.252256e+00 1.539251e+01 -1.668408e+01 1.808373e+01 -6.701271e+00 -7.042653e+00 6.889536e+00 -9.796343e+00 -4.355540e+00 1.748858e+00 7.326752e+01 3.328507e-02 -2.352392e-02 8.640007e-03 1.186019e-02 -1.639696e-02 1.441048e-02 1.499655e-03 -8.659299e-03 1.256061e-02 -5.673023e-03 -5.965582e-03 2.039411e-03 3.436080e-02 6.271758e-05 2.965386e-04 -7.100627e-04 -1.045769e-03 -5.200538e-04 7.722446e-05 2.680612e-05 -7.544252e-04 -5.288762e-04 1.771268e-04 6.646332e-04 7.342880e-04 -1.443067e-04
<VARIANCE> 39
 8.983979e+01 7.565530e+01 7.332420e+01 5.019836e+01 5.624637e+01 5.733911e+01 3.506507e+01 4.230246e+01 3.633398e+01 4.495449e+01 2.801809e+01 3.492205e+01 9.709326e+01 1.845017e+00 3.999241e+00 3.044322e+00 2.333326e+00 2.700648e+00 2.973695e+00 2.359299e+00 2.156001e+00 2.075893e+00 2.771460e+00 1.741253e+00 1.985936e+00 1.904773e+00 2.474196e-01 6.560865e-01 4.583352e-01 4.024896e-01 4.706515e-01 5.255622e-01 4.317569e-01 3.882029e-01 3.806162e-01 5.134221e-01 3.252152e-01 3.526792e-01 3.011891e-01
<GCONST> 1.225675e+02
<STATE> 4
<MEAN> 39
 6.707855e+00 -1.768463e+01 1.252256e+00 1.539251e+01 -1.668408e+01 1.808373e+01 -6.701271e+00 -7.042653e+00 6.889536e+00 -9.796343e+00 -4.355540e+00 1.748858e+00 7.326752e+01 3.328507e-02 -2.352392e-02 8.640007e-03 1.186019e-02 -1.639696e-02 1.441048e-02 1.499655e-03 -8.659299e-03 1.256061e-02 -5.673023e-03 -5.965582e-03 2.039411e-03 3.436080e-02 6.271758e-05 2.965386e-04 -7.100627e-04 -1.045769e-03 -5.200538e-04 7.722446e-05 2.680612e-05 -7.544252e-04 -5.288762e-04 1.771268e-04 6.646332e-04 7.342880e-04 -1.443067e-04
<VARIANCE> 39
 8.983979e+01 7.565530e+01 7.332420e+01 5.019836e+01 5.624637e+01 5.733911e+01 3.506507e+01 4.230246e+01 3.633398e+01 4.495449e+01 2.801809e+01 3.492205e+01 9.709326e+01 1.845017e+00 3.999241e+00 3.044322e+00 2.333326e+00 2.700648e+00 2.973695e+00 2.359299e+00 2.156001e+00 2.075893e+00 2.771460e+00 1.741253e+00 1.985936e+00 1.904773e+00 2.474196e-01 6.560865e-01 4.583352e-01 4.024896e-01 4.706515e-01 5.255622e-01 4.317569e-01 3.882029e-01 3.806162e-01 5.134221e-01 3.252152e-01 3.526792e-01 3.011891e-01
<GCONST> 1.225675e+02
<TRANSP> 5
 0.000000e+00 1.000000e+00 0.000000e+00 0.000000e+00 0.000000e+00
 0.000000e+00 6.000000e-01 4.000000e-01 0.000000e+00 0.000000e+00
 0.000000e+00 0.000000e+00 6.000000e-01 4.000000e-01 0.000000e+00
 0.000000e+00 0.000000e+00 0.000000e+00 7.000000e-01 3.000000e-01
 0.000000e+00 0.000000e+00 0.000000e+00 0.000000e+00 0.000000e+00
<ENDHMM>
~h "j"
<BEGINHMM>
<NUMSTATES> 5
<STATE> 2
<MEAN> 39
 6.707855e+00 -1.768463e+01 1.252256e+00 1.539251e+01 -1.668408e+01 1.808373e+01 -6.701271e+00 -7.042653e+00 6.889536e+00 -9.796343e+00 -4.355540e+00 1.748858e+00 7.326752e+01 3.328507e-02 -2.352392e-02 8.640007e-03 1.186019e-02 -1.639696e-02 1.441048e-02 1.499655e-03 -8.659299e-03 1.256061e-02 -5.673023e-03 -5.965582e-03 2.039411e-03 3.436080e-02 6.271758e-05 2.965386e-04 -7.100627e-04 -1.045769e-03 -5.200538e-04 7.722446e-05 2.680612e-05 -7.544252e-04 -5.288762e-04 1.771268e-04 6.646332e-04 7.342880e-04 -1.443067e-04
<VARIANCE> 39
 8.983979e+01 7.565530e+01 7.332420e+01 5.019836e+01 5.624637e+01 5.733911e+01 3.506507e+01 4.230246e+01 3.633398e+01 4.495449e+01 2.801809e+01 3.492205e+01 9.709326e+01 1.845017e+00 3.999241e+00 3.044322e+00 2.333326e+00 2.700648e+00 2.973695e+00 2.359299e+00 2.156001e+00 2.075893e+00 2.771460e+00 1.741253e+00 1.985936e+00 1.904773e+00 2.474196e-01 6.560865e-01 4.583352e-01 4.024896e-01 4.706515e-01 5.255622e-01 4.317569e-01 3.882029e-01 3.806162e-01 5.134221e-01 3.252152e-01 3.526792e-01 3.011891e-01
<GCONST> 1.225675e+02
<STATE> 3
<MEAN> 39
 6.707855e+00 -1.768463e+01 1.252256e+00 1.539251e+01 -1.668408e+01 1.808373e+01 -6.701271e+00 -7.042653e+00 6.889536e+00 -9.796343e+00 -4.355540e+00 1.748858e+00 7.326752e+01 3.328507e-02 -2.352392e-02 8.640007e-03 1.186019e-02 -1.639696e-02 1.441048e-02 1.499655e-03 -8.659299e-03 1.256061e-02 -5.673023e-03 -5.965582e-03 2.039411e-03 3.436080e-02 6.271758e-05 2.965386e-04 -7.100627e-04 -1.045769e-03 -5.200538e-04 7.722446e-05 2.680612e-05 -7.544252e-04 -5.288762e-04 1.771268e-04 6.646332e-04 7.342880e-04 -1.443067e-04
<VARIANCE> 39
 8.983979e+01 7.565530e+01 7.332420e+01 5.019836e+01 5.624637e+01 5.733911e+01 3.506507e+01 4.230246e+01 3.633398e+01 4.495449e+01 2.801809e+01 3.492205e+01 9.709326e+01 1.845017e+00 3.999241e+00 3.044322e+00 2.333326e+00 2.700648e+00 2.973695e+00 2.359299e+00 2.156001e+00 2.075893e+00 2.771460e+00 1.741253e+00 1.985936e+00 1.904773e+00 2.474196e-01 6.560865e-01 4.583352e-01 4.024896e-01 4.706515e-01 5.255622e-01 4.317569e-01 3.882029e-01 3.806162e-01 5.134221e-01 3.252152e-01 3.526792e-01 3.011891e-01
<GCONST> 1.225675e+02
<STATE> 4
<MEAN> 39
 6.707855e+00 -1.768463e+01 1.252256e+00 1.539251e+01 -1.668408e+01 1.808373e+01 -6.701271e+00 -7.042653e+00 6.889536e+00 -9.796343e+00 -4.355540e+00 1.748858e+00 7.326752e+01 3.328507e-02 -2.352392e-02 8.640007e-03 1.186019e-02 -1.639696e-02 1.441048e-02 1.499655e-03 -8.659299e-03 1.256061e-02 -5.673023e-03 -5.965582e-03 2.039411e-03 3.436080e-02 6.271758e-05 2.965386e-04 -7.100627e-04 -1.045769e-03 -5.200538e-04 7.722446e-05 2.680612e-05 -7.544252e-04 -5.288762e-04 1.771268e-04 6.646332e-04 7.342880e-04 -1.443067e-04
<VARIANCE> 39
 8.983979e+01 7.565530e+01 7.332420e+01 5.019836e+01 5.624637e+01 5.733911e+01 3.506507e+01 4.230246e+01 3.633398e+01 4.495449e+01 2.801809e+01 3.492205e+01 9.709326e+01 1.845017e+00 3.999241e+00 3.044322e+00 2.333326e+00 2.700648e+00 2.973695e+00 2.359299e+00 2.156001e+00 2.075893e+00 2.771460e+00 1.741253e+00 1.985936e+00 1.904773e+00 2.474196e-01 6.560865e-01 4.583352e-01 4.024896e-01 4.706515e-01 5.255622e-01 4.317569e-01 3.882029e-01 3.806162e-01 5.134221e-01 3.252152e-01 3.526792e-01 3.011891e-01
<GCONST> 1.225675e+02
<TRANSP> 5
 0.000000e+00 1.000000e+00 0.000000e+00 0.000000e+00 0.000000e+00
 0.000000e+00 6.000000e-01 4.000000e-01 0.000000e+00 0.000000e+00
 0.000000e+00 0.000000e+00 6.000000e-01 4.000000e-01 0.000000e+00
 0.000000e+00 0.000000e+00 0.000000e+00 7.000000e-01 3.000000e-01
 0.000000e+00 0.000000e+00 0.000000e+00 0.000000e+00 0.000000e+00
<ENDHMM>
~h "k"
<BEGINHMM>
<NUMSTATES> 5
<STATE> 2
<MEAN> 39
 6.707855e+00 -1.768463e+01 1.252256e+00 1.539251e+01 -1.668408e+01 1.808373e+01 -6.701271e+00 -7.042653e+00 6.889536e+00 -9.796343e+00 -4.355540e+00 1.748858e+00 7.326752e+01 3.328507e-02 -2.352392e-02 8.640007e-03 1.186019e-02 -1.639696e-02 1.441048e-02 1.499655e-03 -8.659299e-03 1.256061e-02 -5.673023e-03 -5.965582e-03 2.039411e-03 3.436080e-02 6.271758e-05 2.965386e-04 -7.100627e-04 -1.045769e-03 -5.200538e-04 7.722446e-05 2.680612e-05 -7.544252e-04 -5.288762e-04 1.771268e-04 6.646332e-04 7.342880e-04 -1.443067e-04
<VARIANCE> 39
 8.983979e+01 7.565530e+01 7.332420e+01 5.019836e+01 5.624637e+01 5.733911e+01 3.506507e+01 4.230246e+01 3.633398e+01 4.495449e+01 2.801809e+01 3.492205e+01 9.709326e+01 1.845017e+00 3.999241e+00 3.044322e+00 2.333326e+00 2.700648e+00 2.973695e+00 2.359299e+00 2.156001e+00 2.075893e+00 2.771460e+00 1.741253e+00 1.985936e+00 1.904773e+00 2.474196e-01 6.560865e-01 4.583352e-01 4.024896e-01 4.706515e-01 5.255622e-01 4.317569e-01 3.882029e-01 3.806162e-01 5.134221e-01 3.252152e-01 3.526792e-01 3.011891e-01
<GCONST> 1.225675e+02
<STATE> 3
<MEAN> 39
 6.707855e+00 -1.768463e+01 1.252256e+00 1.539251e+01 -1.668408e+01 1.808373e+01 -6.701271e+00 -7.042653e+00 6.889536e+00 -9.796343e+00 -4.355540e+00 1.748858e+00 7.326752e+01 3.328507e-02 -2.352392e-02 8.640007e-03 1.186019e-02 -1.639696e-02 1.441048e-02 1.499655e-03 -8.659299e-03 1.256061e-02 -5.673023e-03 -5.965582e-03 2.039411e-03 3.436080e-02 6.271758e-05 2.965386e-04 -7.100627e-04 -1.045769e-03 -5.200538e-04 7.722446e-05 2.680612e-05 -7.544252e-04 -5.288762e-04 1.771268e-04 6.646332e-04 7.342880e-04 -1.443067e-04
<VARIANCE> 39
 8.983979e+01 7.565530e+01 7.332420e+01 5.019836e+01 5.624637e+01 5.733911e+01 3.506507e+01 4.230246e+01 3.633398e+01 4.495449e+01 2.801809e+01 3.492205e+01 9.709326e+01 1.845017e+00 3.999241e+00 3.044322e+00 2.333326e+00 2.700648e+00 2.973695e+00 2.359299e+00 2.156001e+00 2.075893e+00 2.771460e+00 1.741253e+00 1.985936e+00 1.904773e+00 2.474196e-01 6.560865e-01 4.583352e-01 4.024896e-01 4.706515e-01 5.255622e-01 4.317569e-01 3.882029e-01 3.806162e-01 5.134221e-01 3.252152e-01 3.526792e-01 3.011891e-01
<GCONST> 1.225675e+02
<STATE> 4
<MEAN> 39
 6.707855e+00 -1.768463e+01 1.252256e+00 1.539251e+01 -1.668408e+01 1.808373e+01 -6.701271e+00 -7.042653e+00 6.889536e+00 -9.796343e+00 -4.355540e+00 1.748858e+00 7.326752e+01 3.328507e-02 -2.352392e-02 8.640007e-03 1.186019e-02 -1.639696e-02 1.441048e-02 1.499655e-03 -8.659299e-03 1.256061e-02 -5.673023e-03 -5.965582e-03 2.039411e-03 3.436080e-02 6.271758e-05 2.965386e-04 -7.100627e-04 -1.045769e-03 -5.200538e-04 7.722446e-05 2.680612e-05 -7.544252e-04 -5.288762e-04 1.771268e-04 6.646332e-04 7.342880e-04 -1.443067e-04
<VARIANCE> 39
 8.983979e+01 7.565530e+01 7.332420e+01 5.019836e+01 5.624637e+01 5.733911e+01 3.506507e+01 4.230246e+01 3.633398e+01 4.495449e+01 2.801809e+01 3.492205e+01 9.709326e+01 1.845017e+00 3.999241e+00 3.044322e+00 2.333326e+00 2.700648e+00 2.973695e+00 2.359299e+00 2.156001e+00 2.075893e+00 2.771460e+00 1.741253e+00 1.985936e+00 1.904773e+00 2.474196e-01 6.560865e-01 4.583352e-01 4.024896e-01 4.706515e-01 5.255622e-01 4.317569e-01 3.882029e-01 3.806162e-01 5.134221e-01 3.252152e-01 3.526792e-01 3.011891e-01
<GCONST> 1.225675e+02
<TRANSP> 5
 0.000000e+00 1.000000e+00 0.000000e+00 0.000000e+00 0.000000e+00
 0.000000e+00 6.000000e-01 4.000000e-01 0.000000e+00 0.000000e+00
 0.000000e+00 0.000000e+00 6.000000e-01 4.000000e-01 0.000000e+00
 0.000000e+00 0.000000e+00 0.000000e+00 7.000000e-01 3.000000e-01
 0.000000e+00 0.000000e+00 0.000000e+00 0.000000e+00 0.000000e+00
<ENDHMM>
~h "l"
<BEGINHMM>
<NUMSTATES> 5
<STATE> 2
<MEAN> 39
 6.707855e+00 -1.768463e+01 1.252256e+00 1.539251e+01 -1.668408e+01 1.808373e+01 -6.701271e+00 -7.042653e+00 6.889536e+00 -9.796343e+00 -4.355540e+00 1.748858e+00 7.326752e+01 3.328507e-02 -2.352392e-02 8.640007e-03 1.186019e-02 -1.639696e-02 1.441048e-02 1.499655e-03 -8.659299e-03 1.256061e-02 -5.673023e-03 -5.965582e-03 2.039411e-03 3.436080e-02 6.271758e-05 2.965386e-04 -7.100627e-04 -1.045769e-03 -5.200538e-04 7.722446e-05 2.680612e-05 -7.544252e-04 -5.288762e-04 1.771268e-04 6.646332e-04 7.342880e-04 -1.443067e-04
<VARIANCE> 39
 8.983979e+01 7.565530e+01 7.332420e+01 5.019836e+01 5.624637e+01 5.733911e+01 3.506507e+01 4.230246e+01 3.633398e+01 4.495449e+01 2.801809e+01 3.492205e+01 9.709326e+01 1.845017e+00 3.999241e+00 3.044322e+00 2.333326e+00 2.700648e+00 2.973695e+00 2.359299e+00 2.156001e+00 2.075893e+00 2.771460e+00 1.741253e+00 1.985936e+00 1.904773e+00 2.474196e-01 6.560865e-01 4.583352e-01 4.024896e-01 4.706515e-01 5.255622e-01 4.317569e-01 3.882029e-01 3.806162e-01 5.134221e-01 3.252152e-01 3.526792e-01 3.011891e-01
<GCONST> 1.225675e+02
<STATE> 3
<MEAN> 39
 6.707855e+00 -1.768463e+01 1.252256e+00 1.539251e+01 -1.668408e+01 1.808373e+01 -6.701271e+00 -7.042653e+00 6.889536e+00 -9.796343e+00 -4.355540e+00 1.748858e+00 7.326752e+01 3.328507e-02 -2.352392e-02 8.640007e-03 1.186019e-02 -1.639696e-02 1.441048e-02 1.499655e-03 -8.659299e-03 1.256061e-02 -5.673023e-03 -5.965582e-03 2.039411e-03 3.436080e-02 6.271758e-05 2.965386e-04 -7.100627e-04 -1.045769e-03 -5.200538e-04 7.722446e-05 2.680612e-05 -7.544252e-04 -5.288762e-04 1.771268e-04 6.646332e-04 7.342880e-04 -1.443067e-04
<VARIANCE> 39
 8.983979e+01 7.565530e+01 7.332420e+01 5.019836e+01 5.624637e+01 5.733911e+01 3.506507e+01 4.230246e+01 3.633398e+01 4.495449e+01 2.801809e+01 3.492205e+01 9.709326e+01 1.845017e+00 3.999241e+00 3.044322e+00 2.333326e+00 2.700648e+00 2.973695e+00 2.359299e+00 2.156001e+00 2.075893e+00 2.771460e+00 1.741253e+00 1.985936e+00 1.904773e+00 2.474196e-01 6.560865e-01 4.583352e-01 4.024896e-01 4.706515e-01 5.255622e-01 4.317569e-01 3.882029e-01 3.806162e-01 5.134221e-01 3.252152e-01 3.526792e-01 3.011891e-01
<GCONST> 1.225675e+02
<STATE> 4
<MEAN> 39
 6.707855e+00 -1.768463e+01 1.252256e+00 1.539251e+01 -1.668408e+01 1.808373e+01 -6.701271e+00 -7.042653e+00 6.889536e+00 -9.796343e+00 -4.355540e+00 1.748858e+00 7.326752e+01 3.328507e-02 -2.352392e-02 8.640007e-03 1.186019e-02 -1.639696e-02 1.441048e-02 1.499655e-03 -8.659299e-03 1.256061e-02 -5.673023e-03 -5.965582e-03 2.039411e-03 3.436080e-02 6.271758e-05 2.965386e-04 -7.100627e-04 -1.045769e-03 -5.200538e-04 7.722446e-05 2.680612e-05 -7.544252e-04 -5.288762e-04 1.771268e-04 6.646332e-04 7.342880e-04 -1.443067e-04
<VARIANCE> 39
 8.983979e+01 7.565530e+01 7.332420e+01 5.019836e+01 5.624637e+01 5.733911e+01 3.506507e+01 4.230246e+01 3.633398e+01 4.495449e+01 2.801809e+01 3.492205e+01 9.709326e+01 1.845017e+00 3.999241e+00 3.044322e+00 2.333326e+00 2.700648e+00 2.973695e+00 2.359299e+00 2.156001e+00 2.075893e+00 2.771460e+00 1.741253e+00 1.985936e+00 1.904773e+00 2.474196e-01 6.560865e-01 4.583352e-01 4.024896e-01 4.706515e-01 5.255622e-01 4.317569e-01 3.882029e-01 3.806162e-01 5.134221e-01 3.252152e-01 3.526792e-01 3.011891e-01
<GCONST> 1.225675e+02
<TRANSP> 5
 0.000000e+00 1.000000e+00 0.000000e+00 0.000000e+00 0.000000e+00
 0.000000e+00 6.000000e-01 4.000000e-01 0.000000e+00 0.000000e+00
 0.000000e+00 0.000000e+00 6.000000e-01 4.000000e-01 0.000000e+00
 0.000000e+00 0.000000e+00 0.000000e+00 7.000000e-01 3.000000e-01
 0.000000e+00 0.000000e+00 0.000000e+00 0.000000e+00 0.000000e+00
<ENDHMM>
~h "m"
<BEGINHMM>
<NUMSTATES> 5
<STATE> 2
<MEAN> 39
 6.707855e+00 -1.768463e+01 1.252256e+00 1.539251e+01 -1.668408e+01 1.808373e+01 -6.701271e+00 -7.042653e+00 6.889536e+00 -9.796343e+00 -4.355540e+00 1.748858e+00 7.326752e+01 3.328507e-02 -2.352392e-02 8.640007e-03 1.186019e-02 -1.639696e-02 1.441048e-02 1.499655e-03 -8.659299e-03 1.256061e-02 -5.673023e-03 -5.965582e-03 2.039411e-03 3.436080e-02 6.271758e-05 2.965386e-04 -7.100627e-04 -1.045769e-03 -5.200538e-04 7.722446e-05 2.680612e-05 -7.544252e-04 -5.288762e-04 1.771268e-04 6.646332e-04 7.342880e-04 -1.443067e-04
<VARIANCE> 39
 8.983979e+01 7.565530e+01 7.332420e+01 5.019836e+01 5.624637e+01 5.733911e+01 3.506507e+01 4.230246e+01 3.633398e+01 4.495449e+01 2.801809e+01 3.492205e+01 9.709326e+01 1.845017e+00 3.999241e+00 3.044322e+00 2.333326e+00 2.700648e+00 2.973695e+00 2.359299e+00 2.156001e+00 2.075893e+00 2.771460e+00 1.741253e+00 1.985936e+00 1.904773e+00 2.474196e-01 6.560865e-01 4.583352e-01 4.024896e-01 4.706515e-01 5.255622e-01 4.317569e-01 3.882029e-01 3.806162e-01 5.134221e-01 3.252152e-01 3.526792e-01 3.011891e-01
<GCONST> 1.225675e+02
<STATE> 3
<MEAN> 39
 6.707855e+00 -1.768463e+01 1.252256e+00 1.539251e+01 -1.668408e+01 1.808373e+01 -6.701271e+00 -7.042653e+00 6.889536e+00 -9.796343e+00 -4.355540e+00 1.748858e+00 7.326752e+01 3.328507e-02 -2.352392e-02 8.640007e-03 1.186019e-02 -1.639696e-02 1.441048e-02 1.499655e-03 -8.659299e-03 1.256061e-02 -5.673023e-03 -5.965582e-03 2.039411e-03 3.436080e-02 6.271758e-05 2.965386e-04 -7.100627e-04 -1.045769e-03 -5.200538e-04 7.722446e-05 2.680612e-05 -7.544252e-04 -5.288762e-04 1.771268e-04 6.646332e-04 7.342880e-04 -1.443067e-04
<VARIANCE> 39
 8.983979e+01 7.565530e+01 7.332420e+01 5.019836e+01 5.624637e+01 5.733911e+01 3.506507e+01 4.230246e+01 3.633398e+01 4.495449e+01 2.801809e+01 3.492205e+01 9.709326e+01 1.845017e+00 3.999241e+00 3.044322e+00 2.333326e+00 2.700648e+00 2.973695e+00 2.359299e+00 2.156001e+00 2.075893e+00 2.771460e+00 1.741253e+00 1.985936e+00 1.904773e+00 2.474196e-01 6.560865e-01 4.583352e-01 4.024896e-01 4.706515e-01 5.255622e-01 4.317569e-01 3.882029e-01 3.806162e-01 5.134221e-01 3.252152e-01 3.526792e-01 3.011891e-01
<GCONST> 1.225675e+02
<STATE> 4
<MEAN> 39
 6.707855e+00 -1.768463e+01 1.252256e+00 1.539251e+01 -1.668408e+01 1.808373e+01 -6.701271e+00 -7.042653e+00 6.889536e+00 -9.796343e+00 -4.355540e+00 1.748858e+00 7.326752e+01 3.328507e-02 -2.352392e-02 8.640007e-03 1.186019e-02 -1.639696e-02 1.441048e-02 1.499655e-03 -8.659299e-03 1.256061e-02 -5.673023e-03 -5.965582e-03 2.039411e-03 3.436080e-02 6.271758e-05 2.965386e-04 -7.100627e-04 -1.045769e-03 -5.200538e-04 7.722446e-05 2.680612e-05 -7.544252e-04 -5.288762e-04 1.771268e-04 6.646332e-04 7.342880e-04 -1.443067e-04
<VARIANCE> 39
 8.983979e+01 7.565530e+01 7.332420e+01 5.019836e+01 5.624637e+01 5.733911e+01 3.506507e+01 4.230246e+01 3.633398e+01 4.495449e+01 2.801809e+01 3.492205e+01 9.709326e+01 1.845017e+00 3.999241e+00 3.044322e+00 2.333326e+00 2.700648e+00 2.973695e+00 2.359299e+00 2.156001e+00 2.075893e+00 2.771460e+00 1.741253e+00 1.985936e+00 1.904773e+00 2.474196e-01 6.560865e-01 4.583352e-01 4.024896e-01 4.706515e-01 5.255622e-01 4.317569e-01 3.882029e-01 3.806162e-01 5.134221e-01 3.252152e-01 3.526792e-01 3.011891e-01
<GCONST> 1.225675e+02
<TRANSP> 5
 0.000000e+00 1.000000e+00 0.000000e+00 0.000000e+00 0.000000e+00
 0.000000e+00 6.000000e-01 4.000000e-01 0.000000e+00 0.000000e+00
 0.000000e+00 0.000000e+00 6.000000e-01 4.000000e-01 0.000000e+00
 0.000000e+00 0.000000e+00 0.000000e+00 7.000000e-01 3.000000e-01
 0.000000e+00 0.000000e+00 0.000000e+00 0.000000e+00 0.000000e+00
<ENDHMM>
~h "n"
<BEGINHMM>
<NUMSTATES> 5
<STATE> 2
<MEAN> 39
 6.707855e+00 -1.768463e+01 1.252256e+00 1.539251e+01 -1.668408e+01 1.808373e+01 -6.701271e+00 -7.042653e+00 6.889536e+00 -9.796343e+00 -4.355540e+00 1.748858e+00 7.326752e+01 3.328507e-02 -2.352392e-02 8.640007e-03 1.186019e-02 -1.639696e-02 1.441048e-02 1.499655e-03 -8.659299e-03 1.256061e-02 -5.673023e-03 -5.965582e-03 2.039411e-03 3.436080e-02 6.271758e-05 2.965386e-04 -7.100627e-04 -1.045769e-03 -5.200538e-04 7.722446e-05 2.680612e-05 -7.544252e-04 -5.288762e-04 1.771268e-04 6.646332e-04 7.342880e-04 -1.443067e-04
<VARIANCE> 39
 8.983979e+01 7.565530e+01 7.332420e+01 5.019836e+01 5.624637e+01 5.733911e+01 3.506507e+01 4.230246e+01 3.633398e+01 4.495449e+01 2.801809e+01 3.492205e+01 9.709326e+01 1.845017e+00 3.999241e+00 3.044322e+00 2.333326e+00 2.700648e+00 2.973695e+00 2.359299e+00 2.156001e+00 2.075893e+00 2.771460e+00 1.741253e+00 1.985936e+00 1.904773e+00 2.474196e-01 6.560865e-01 4.583352e-01 4.024896e-01 4.706515e-01 5.255622e-01 4.317569e-01 3.882029e-01 3.806162e-01 5.134221e-01 3.252152e-01 3.526792e-01 3.011891e-01
<GCONST> 1.225675e+02
<STATE> 3
<MEAN> 39
 6.707855e+00 -1.768463e+01 1.252256e+00 1.539251e+01 -1.668408e+01 1.808373e+01 -6.701271e+00 -7.042653e+00 6.889536e+00 -9.796343e+00 -4.355540e+00 1.748858e+00 7.326752e+01 3.328507e-02 -2.352392e-02 8.640007e-03 1.186019e-02 -1.639696e-02 1.441048e-02 1.499655e-03 -8.659299e-03 1.256061e-02 -5.673023e-03 -5.965582e-03 2.039411e-03 3.436080e-02 6.271758e-05 2.965386e-04 -7.100627e-04 -1.045769e-03 -5.200538e-04 7.722446e-05 2.680612e-05 -7.544252e-04 -5.288762e-04 1.771268e-04 6.646332e-04 7.342880e-04 -1.443067e-04
<VARIANCE> 39
 8.983979e+01 7.565530e+01 7.332420e+01 5.019836e+01 5.624637e+01 5.733911e+01 3.506507e+01 4.230246e+01 3.633398e+01 4.495449e+01 2.801809e+01 3.492205e+01 9.709326e+01 1.845017e+00 3.999241e+00 3.044322e+00 2.333326e+00 2.700648e+00 2.973695e+00 2.359299e+00 2.156001e+00 2.075893e+00 2.771460e+00 1.741253e+00 1.985936e+00 1.904773e+00 2.474196e-01 6.560865e-01 4.583352e-01 4.024896e-01 4.706515e-01 5.255622e-01 4.317569e-01 3.882029e-01 3.806162e-01 5.134221e-01 3.252152e-01 3.526792e-01 3.011891e-01
<GCONST> 1.225675e+02
<STATE> 4
<MEAN> 39
 6.707855e+00 -1.768463e+01 1.252256e+00 1.539251e+01 -1.668408e+01 1.808373e+01 -6.701271e+00 -7.042653e+00 6.889536e+00 -9.796343e+00 -4.355540e+00 1.748858e+00 7.326752e+01 3.328507e-02 -2.352392e-02 8.640007e-03 1.186019e-02 -1.639696e-02 1.441048e-02 1.499655e-03 -8.659299e-03 1.256061e-02 -5.673023e-03 -5.965582e-03 2.039411e-03 3.436080e-02 6.271758e-05 2.965386e-04 -7.100627e-04 -1.045769e-03 -5.200538e-04 7.722446e-05 2.680612e-05 -7.544252e-04 -5.288762e-04 1.771268e-04 6.646332e-04 7.342880e-04 -1.443067e-04
<VARIANCE> 39
 8.983979e+01 7.565530e+01 7.332420e+01 5.019836e+01 5.624637e+01 5.733911e+01 3.506507e+01 4.230246e+01 3.633398e+01 4.495449e+01 2.801809e+01 3.492205e+01 9.709326e+01 1.845017e+00 3.999241e+00 3.044322e+00 2.333326e+00 2.700648e+00 2.973695e+00 2.359299e+00 2.156001e+00 2.075893e+00 2.771460e+00 1.741253e+00 1.985936e+00 1.904773e+00 2.474196e-01 6.560865e-01 4.583352e-01 4.024896e-01 4.706515e-01 5.255622e-01 4.317569e-01 3.882029e-01 3.806162e-01 5.134221e-01 3.252152e-01 3.526792e-01 3.011891e-01
<GCONST> 1.225675e+02
<TRANSP> 5
 0.000000e+00 1.000000e+00 0.000000e+00 0.000000e+00 0.000000e+00
 0.000000e+00 6.000000e-01 4.000000e-01 0.000000e+00 0.000000e+00
 0.000000e+00 0.000000e+00 6.000000e-01 4.000000e-01 0.000000e+00
 0.000000e+00 0.000000e+00 0.000000e+00 7.000000e-01 3.000000e-01
 0.000000e+00 0.000000e+00 0.000000e+00 0.000000e+00 0.000000e+00
<ENDHMM>
~h "o"
<BEGINHMM>
<NUMSTATES> 5
<STATE> 2
<MEAN> 39
 6.707855e+00 -1.768463e+01 1.252256e+00 1.539251e+01 -1.668408e+01 1.808373e+01 -6.701271e+00 -7.042653e+00 6.889536e+00 -9.796343e+00 -4.355540e+00 1.748858e+00 7.326752e+01 3.328507e-02 -2.352392e-02 8.640007e-03 1.186019e-02 -1.639696e-02 1.441048e-02 1.499655e-03 -8.659299e-03 1.256061e-02 -5.673023e-03 -5.965582e-03 2.039411e-03 3.436080e-02 6.271758e-05 2.965386e-04 -7.100627e-04 -1.045769e-03 -5.200538e-04 7.722446e-05 2.680612e-05 -7.544252e-04 -5.288762e-04 1.771268e-04 6.646332e-04 7.342880e-04 -1.443067e-04
<VARIANCE> 39
 8.983979e+01 7.565530e+01 7.332420e+01 5.019836e+01 5.624637e+01 5.733911e+01 3.506507e+01 4.230246e+01 3.633398e+01 4.495449e+01 2.801809e+01 3.492205e+01 9.709326e+01 1.845017e+00 3.999241e+00 3.044322e+00 2.333326e+00 2.700648e+00 2.973695e+00 2.359299e+00 2.156001e+00 2.075893e+00 2.771460e+00 1.741253e+00 1.985936e+00 1.904773e+00 2.474196e-01 6.560865e-01 4.583352e-01 4.024896e-01 4.706515e-01 5.255622e-01 4.317569e-01 3.882029e-01 3.806162e-01 5.134221e-01 3.252152e-01 3.526792e-01 3.011891e-01
<GCONST> 1.225675e+02
<STATE> 3
<MEAN> 39
 6.707855e+00 -1.768463e+01 1.252256e+00 1.539251e+01 -1.668408e+01 1.808373e+01 -6.701271e+00 -7.042653e+00 6.889536e+00 -9.796343e+00 -4.355540e+00 1.748858e+00 7.326752e+01 3.328507e-02 -2.352392e-02 8.640007e-03 1.186019e-02 -1.639696e-02 1.441048e-02 1.499655e-03 -8.659299e-03 1.256061e-02 -5.673023e-03 -5.965582e-03 2.039411e-03 3.436080e-02 6.271758e-05 2.965386e-04 -7.100627e-04 -1.045769e-03 -5.200538e-04 7.722446e-05 2.680612e-05 -7.544252e-04 -5.288762e-04 1.771268e-04 6.646332e-04 7.342880e-04 -1.443067e-04
<VARIANCE> 39
 8.983979e+01 7.565530e+01 7.332420e+01 5.019836e+01 5.624637e+01 5.733911e+01 3.506507e+01 4.230246e+01 3.633398e+01 4.495449e+01 2.801809e+01 3.492205e+01 9.709326e+01 1.845017e+00 3.999241e+00 3.044322e+00 2.333326e+00 2.700648e+00 2.973695e+00 2.359299e+00 2.156001e+00 2.075893e+00 2.771460e+00 1.741253e+00 1.985936e+00 1.904773e+00 2.474196e-01 6.560865e-01 4.583352e-01 4.024896e-01 4.706515e-01 5.255622e-01 4.317569e-01 3.882029e-01 3.806162e-01 5.134221e-01 3.252152e-01 3.526792e-01 3.011891e-01
<GCONST> 1.225675e+02
<STATE> 4
<MEAN> 39
 6.707855e+00 -1.768463e+01 1.252256e+00 1.539251e+01 -1.668408e+01 1.808373e+01 -6.701271e+00 -7.042653e+00 6.889536e+00 -9.796343e+00 -4.355540e+00 1.748858e+00 7.326752e+01 3.328507e-02 -2.352392e-02 8.640007e-03 1.186019e-02 -1.639696e-02 1.441048e-02 1.499655e-03 -8.659299e-03 1.256061e-02 -5.673023e-03 -5.965582e-03 2.039411e-03 3.436080e-02 6.271758e-05 2.965386e-04 -7.100627e-04 -1.045769e-03 -5.200538e-04 7.722446e-05 2.680612e-05 -7.544252e-04 -5.288762e-04 1.771268e-04 6.646332e-04 7.342880e-04 -1.443067e-04
<VARIANCE> 39
 8.983979e+01 7.565530e+01 7.332420e+01 5.019836e+01 5.624637e+01 5.733911e+01 3.506507e+01 4.230246e+01 3.633398e+01 4.495449e+01 2.801809e+01 3.492205e+01 9.709326e+01 1.845017e+00 3.999241e+00 3.044322e+00 2.333326e+00 2.700648e+00 2.973695e+00 2.359299e+00 2.156001e+00 2.075893e+00 2.771460e+00 1.741253e+00 1.985936e+00 1.904773e+00 2.474196e-01 6.560865e-01 4.583352e-01 4.024896e-01 4.706515e-01 5.255622e-01 4.317569e-01 3.882029e-01 3.806162e-01 5.134221e-01 3.252152e-01 3.526792e-01 3.011891e-01
<GCONST> 1.225675e+02
<TRANSP> 5
 0.000000e+00 1.000000e+00 0.000000e+00 0.000000e+00 0.000000e+00
 0.000000e+00 6.000000e-01 4.000000e-01 0.000000e+00 0.000000e+00
 0.000000e+00 0.000000e+00 6.000000e-01 4.000000e-01 0.000000e+00
 0.000000e+00 0.000000e+00 0.000000e+00 7.000000e-01 3.000000e-01
 0.000000e+00 0.000000e+00 0.000000e+00 0.000000e+00 0.000000e+00
<ENDHMM>
~h "oe"
<BEGINHMM>
<NUMSTATES> 5
<STATE> 2
<MEAN> 39
 6.707855e+00 -1.768463e+01 1.252256e+00 1.539251e+01 -1.668408e+01 1.808373e+01 -6.701271e+00 -7.042653e+00 6.889536e+00 -9.796343e+00 -4.355540e+00 1.748858e+00 7.326752e+01 3.328507e-02 -2.352392e-02 8.640007e-03 1.186019e-02 -1.639696e-02 1.441048e-02 1.499655e-03 -8.659299e-03 1.256061e-02 -5.673023e-03 -5.965582e-03 2.039411e-03 3.436080e-02 6.271758e-05 2.965386e-04 -7.100627e-04 -1.045769e-03 -5.200538e-04 7.722446e-05 2.680612e-05 -7.544252e-04 -5.288762e-04 1.771268e-04 6.646332e-04 7.342880e-04 -1.443067e-04
<VARIANCE> 39
 8.983979e+01 7.565530e+01 7.332420e+01 5.019836e+01 5.624637e+01 5.733911e+01 3.506507e+01 4.230246e+01 3.633398e+01 4.495449e+01 2.801809e+01 3.492205e+01 9.709326e+01 1.845017e+00 3.999241e+00 3.044322e+00 2.333326e+00 2.700648e+00 2.973695e+00 2.359299e+00 2.156001e+00 2.075893e+00 2.771460e+00 1.741253e+00 1.985936e+00 1.904773e+00 2.474196e-01 6.560865e-01 4.583352e-01 4.024896e-01 4.706515e-01 5.255622e-01 4.317569e-01 3.882029e-01 3.806162e-01 5.134221e-01 3.252152e-01 3.526792e-01 3.011891e-01
<GCONST> 1.225675e+02
<STATE> 3
<MEAN> 39
 6.707855e+00 -1.768463e+01 1.252256e+00 1.539251e+01 -1.668408e+01 1.808373e+01 -6.701271e+00 -7.042653e+00 6.889536e+00 -9.796343e+00 -4.355540e+00 1.748858e+00 7.326752e+01 3.328507e-02 -2.352392e-02 8.640007e-03 1.186019e-02 -1.639696e-02 1.441048e-02 1.499655e-03 -8.659299e-03 1.256061e-02 -5.673023e-03 -5.965582e-03 2.039411e-03 3.436080e-02 6.271758e-05 2.965386e-04 -7.100627e-04 -1.045769e-03 -5.200538e-04 7.722446e-05 2.680612e-05 -7.544252e-04 -5.288762e-04 1.771268e-04 6.646332e-04 7.342880e-04 -1.443067e-04
<VARIANCE> 39
 8.983979e+01 7.565530e+01 7.332420e+01 5.019836e+01 5.624637e+01 5.733911e+01 3.506507e+01 4.230246e+01 3.633398e+01 4.495449e+01 2.801809e+01 3.492205e+01 9.709326e+01 1.845017e+00 3.999241e+00 3.044322e+00 2.333326e+00 2.700648e+00 2.973695e+00 2.359299e+00 2.156001e+00 2.075893e+00 2.771460e+00 1.741253e+00 1.985936e+00 1.904773e+00 2.474196e-01 6.560865e-01 4.583352e-01 4.024896e-01 4.706515e-01 5.255622e-01 4.317569e-01 3.882029e-01 3.806162e-01 5.134221e-01 3.252152e-01 3.526792e-01 3.011891e-01
<GCONST> 1.225675e+02
<STATE> 4
<MEAN> 39
 6.707855e+00 -1.768463e+01 1.252256e+00 1.539251e+01 -1.668408e+01 1.808373e+01 -6.701271e+00 -7.042653e+00 6.889536e+00 -9.796343e+00 -4.355540e+00 1.748858e+00 7.326752e+01 3.328507e-02 -2.352392e-02 8.640007e-03 1.186019e-02 -1.639696e-02 1.441048e-02 1.499655e-03 -8.659299e-03 1.256061e-02 -5.673023e-03 -5.965582e-03 2.039411e-03 3.436080e-02 6.271758e-05 2.965386e-04 -7.100627e-04 -1.045769e-03 -5.200538e-04 7.722446e-05 2.680612e-05 -7.544252e-04 -5.288762e-04 1.771268e-04 6.646332e-04 7.342880e-04 -1.443067e-04
<VARIANCE> 39
 8.983979e+01 7.565530e+01 7.332420e+01 5.019836e+01 5.624637e+01 5.733911e+01 3.506507e+01 4.230246e+01 3.633398e+01 4.495449e+01 2.801809e+01 3.492205e+01 9.709326e+01 1.845017e+00 3.999241e+00 3.044322e+00 2.333326e+00 2.700648e+00 2.973695e+00 2.359299e+00 2.156001e+00 2.075893e+00 2.771460e+00 1.741253e+00 1.985936e+00 1.904773e+00 2.474196e-01 6.560865e-01 4.583352e-01 4.024896e-01 4.706515e-01 5.255622e-01 4.317569e-01 3.882029e-01 3.806162e-01 5.134221e-01 3.252152e-01 3.526792e-01 3.011891e-01
<GCONST> 1.225675e+02
<TRANSP> 5
 0.000000e+00 1.000000e+00 0.000000e+00 0.000000e+00 0.000000e+00
 0.000000e+00 6.000000e-01 4.000000e-01 0.000000e+00 0.000000e+00
 0.000000e+00 0.000000e+00 6.000000e-01 4.000000e-01 0.000000e+00
 0.000000e+00 0.000000e+00 0.000000e+00 7.000000e-01 3.000000e-01
 0.000000e+00 0.000000e+00 0.000000e+00 0.000000e+00 0.000000e+00
<ENDHMM>
~h "p"
<BEGINHMM>
<NUMSTATES> 5
<STATE> 2
<MEAN> 39
 6.707855e+00 -1.768463e+01 1.252256e+00 1.539251e+01 -1.668408e+01 1.808373e+01 -6.701271e+00 -7.042653e+00 6.889536e+00 -9.796343e+00 -4.355540e+00 1.748858e+00 7.326752e+01 3.328507e-02 -2.352392e-02 8.640007e-03 1.186019e-02 -1.639696e-02 1.441048e-02 1.499655e-03 -8.659299e-03 1.256061e-02 -5.673023e-03 -5.965582e-03 2.039411e-03 3.436080e-02 6.271758e-05 2.965386e-04 -7.100627e-04 -1.045769e-03 -5.200538e-04 7.722446e-05 2.680612e-05 -7.544252e-04 -5.288762e-04 1.771268e-04 6.646332e-04 7.342880e-04 -1.443067e-04
<VARIANCE> 39
 8.983979e+01 7.565530e+01 7.332420e+01 5.019836e+01 5.624637e+01 5.733911e+01 3.506507e+01 4.230246e+01 3.633398e+01 4.495449e+01 2.801809e+01 3.492205e+01 9.709326e+01 1.845017e+00 3.999241e+00 3.044322e+00 2.333326e+00 2.700648e+00 2.973695e+00 2.359299e+00 2.156001e+00 2.075893e+00 2.771460e+00 1.741253e+00 1.985936e+00 1.904773e+00 2.474196e-01 6.560865e-01 4.583352e-01 4.024896e-01 4.706515e-01 5.255622e-01 4.317569e-01 3.882029e-01 3.806162e-01 5.134221e-01 3.252152e-01 3.526792e-01 3.011891e-01
<GCONST> 1.225675e+02
<STATE> 3
<MEAN> 39
 6.707855e+00 -1.768463e+01 1.252256e+00 1.539251e+01 -1.668408e+01 1.808373e+01 -6.701271e+00 -7.042653e+00 6.889536e+00 -9.796343e+00 -4.355540e+00 1.748858e+00 7.326752e+01 3.328507e-02 -2.352392e-02 8.640007e-03 1.186019e-02 -1.639696e-02 1.441048e-02 1.499655e-03 -8.659299e-03 1.256061e-02 -5.673023e-03 -5.965582e-03 2.039411e-03 3.436080e-02 6.271758e-05 2.965386e-04 -7.100627e-04 -1.045769e-03 -5.200538e-04 7.722446e-05 2.680612e-05 -7.544252e-04 -5.288762e-04 1.771268e-04 6.646332e-04 7.342880e-04 -1.443067e-04
<VARIANCE> 39
 8.983979e+01 7.565530e+01 7.332420e+01 5.019836e+01 5.624637e+01 5.733911e+01 3.506507e+01 4.230246e+01 3.633398e+01 4.495449e+01 2.801809e+01 3.492205e+01 9.709326e+01 1.845017e+00 3.999241e+00 3.044322e+00 2.333326e+00 2.700648e+00 2.973695e+00 2.359299e+00 2.156001e+00 2.075893e+00 2.771460e+00 1.741253e+00 1.985936e+00 1.904773e+00 2.474196e-01 6.560865e-01 4.583352e-01 4.024896e-01 4.706515e-01 5.255622e-01 4.317569e-01 3.882029e-01 3.806162e-01 5.134221e-01 3.252152e-01 3.526792e-01 3.011891e-01
<GCONST> 1.225675e+02
<STATE> 4
<MEAN> 39
 6.707855e+00 -1.768463e+01 1.252256e+00 1.539251e+01 -1.668408e+01 1.808373e+01 -6.701271e+00 -7.042653e+00 6.889536e+00 -9.796343e+00 -4.355540e+00 1.748858e+00 7.326752e+01 3.328507e-02 -2.352392e-02 8.640007e-03 1.186019e-02 -1.639696e-02 1.441048e-02 1.499655e-03 -8.659299e-03 1.256061e-02 -5.673023e-03 -5.965582e-03 2.039411e-03 3.436080e-02 6.271758e-05 2.965386e-04 -7.100627e-04 -1.045769e-03 -5.200538e-04 7.722446e-05 2.680612e-05 -7.544252e-04 -5.288762e-04 1.771268e-04 6.646332e-04 7.342880e-04 -1.443067e-04
<VARIANCE> 39
 8.983979e+01 7.565530e+01 7.332420e+01 5.019836e+01 5.624637e+01 5.733911e+01 3.506507e+01 4.230246e+01 3.633398e+01 4.495449e+01 2.801809e+01 3.492205e+01 9.709326e+01 1.845017e+00 3.999241e+00 3.044322e+00 2.333326e+00 2.700648e+00 2.973695e+00 2.359299e+00 2.156001e+00 2.075893e+00 2.771460e+00 1.741253e+00 1.985936e+00 1.904773e+00 2.474196e-01 6.560865e-01 4.583352e-01 4.024896e-01 4.706515e-01 5.255622e-01 4.317569e-01 3.882029e-01 3.806162e-01 5.134221e-01 3.252152e-01 3.526792e-01 3.011891e-01
<GCONST> 1.225675e+02
<TRANSP> 5
 0.000000e+00 1.000000e+00 0.000000e+00 0.000000e+00 0.000000e+00
 0.000000e+00 6.000000e-01 4.000000e-01 0.000000e+00 0.000000e+00
 0.000000e+00 0.000000e+00 6.000000e-01 4.000000e-01 0.000000e+00
 0.000000e+00 0.000000e+00 0.000000e+00 7.000000e-01 3.000000e-01
 0.000000e+00 0.000000e+00 0.000000e+00 0.000000e+00 0.000000e+00
<ENDHMM>
~h "r"
<BEGINHMM>
<NUMSTATES> 5
<STATE> 2
<MEAN> 39
 6.707855e+00 -1.768463e+01 1.252256e+00 1.539251e+01 -1.668408e+01 1.808373e+01 -6.701271e+00 -7.042653e+00 6.889536e+00 -9.796343e+00 -4.355540e+00 1.748858e+00 7.326752e+01 3.328507e-02 -2.352392e-02 8.640007e-03 1.186019e-02 -1.639696e-02 1.441048e-02 1.499655e-03 -8.659299e-03 1.256061e-02 -5.673023e-03 -5.965582e-03 2.039411e-03 3.436080e-02 6.271758e-05 2.965386e-04 -7.100627e-04 -1.045769e-03 -5.200538e-04 7.722446e-05 2.680612e-05 -7.544252e-04 -5.288762e-04 1.771268e-04 6.646332e-04 7.342880e-04 -1.443067e-04
<VARIANCE> 39
 8.983979e+01 7.565530e+01 7.332420e+01 5.019836e+01 5.624637e+01 5.733911e+01 3.506507e+01 4.230246e+01 3.633398e+01 4.495449e+01 2.801809e+01 3.492205e+01 9.709326e+01 1.845017e+00 3.999241e+00 3.044322e+00 2.333326e+00 2.700648e+00 2.973695e+00 2.359299e+00 2.156001e+00 2.075893e+00 2.771460e+00 1.741253e+00 1.985936e+00 1.904773e+00 2.474196e-01 6.560865e-01 4.583352e-01 4.024896e-01 4.706515e-01 5.255622e-01 4.317569e-01 3.882029e-01 3.806162e-01 5.134221e-01 3.252152e-01 3.526792e-01 3.011891e-01
<GCONST> 1.225675e+02
<STATE> 3
<MEAN> 39
 6.707855e+00 -1.768463e+01 1.252256e+00 1.539251e+01 -1.668408e+01 1.808373e+01 -6.701271e+00 -7.042653e+00 6.889536e+00 -9.796343e+00 -4.355540e+00 1.748858e+00 7.326752e+01 3.328507e-02 -2.352392e-02 8.640007e-03 1.186019e-02 -1.639696e-02 1.441048e-02 1.499655e-03 -8.659299e-03 1.256061e-02 -5.673023e-03 -5.965582e-03 2.039411e-03 3.436080e-02 6.271758e-05 2.965386e-04 -7.100627e-04 -1.045769e-03 -5.200538e-04 7.722446e-05 2.680612e-05 -7.544252e-04 -5.288762e-04 1.771268e-04 6.646332e-04 7.342880e-04 -1.443067e-04
<VARIANCE> 39
 8.983979e+01 7.565530e+01 7.332420e+01 5.019836e+01 5.624637e+01 5.733911e+01 3.506507e+01 4.230246e+01 3.633398e+01 4.495449e+01 2.801809e+01 3.492205e+01 9.709326e+01 1.845017e+00 3.999241e+00 3.044322e+00 2.333326e+00 2.700648e+00 2.973695e+00 2.359299e+00 2.156001e+00 2.075893e+00 2.771460e+00 1.741253e+00 1.985936e+00 1.904773e+00 2.474196e-01 6.560865e-01 4.583352e-01 4.024896e-01 4.706515e-01 5.255622e-01 4.317569e-01 3.882029e-01 3.806162e-01 5.134221e-01 3.252152e-01 3.526792e-01 3.011891e-01
<GCONST> 1.225675e+02
<STATE> 4
<MEAN> 39
 6.707855e+00 -1.768463e+01 1.252256e+00 1.539251e+01 -1.668408e+01 1.808373e+01 -6.701271e+00 -7.042653e+00 6.889536e+00 -9.796343e+00 -4.355540e+00 1.748858e+00 7.326752e+01 3.328507e-02 -2.352392e-02 8.640007e-03 1.186019e-02 -1.639696e-02 1.441048e-02 1.499655e-03 -8.659299e-03 1.256061e-02 -5.673023e-03 -5.965582e-03 2.039411e-03 3.436080e-02 6.271758e-05 2.965386e-04 -7.100627e-04 -1.045769e-03 -5.200538e-04 7.722446e-05 2.680612e-05 -7.544252e-04 -5.288762e-04 1.771268e-04 6.646332e-04 7.342880e-04 -1.443067e-04
<VARIANCE> 39
 8.983979e+01 7.565530e+01 7.332420e+01 5.019836e+01 5.624637e+01 5.733911e+01 3.506507e+01 4.230246e+01 3.633398e+01 4.495449e+01 2.801809e+01 3.492205e+01 9.709326e+01 1.845017e+00 3.999241e+00 3.044322e+00 2.333326e+00 2.700648e+00 2.973695e+00 2.359299e+00 2.156001e+00 2.075893e+00 2.771460e+00 1.741253e+00 1.985936e+00 1.904773e+00 2.474196e-01 6.560865e-01 4.583352e-01 4.024896e-01 4.706515e-01 5.255622e-01 4.317569e-01 3.882029e-01 3.806162e-01 5.134221e-01 3.252152e-01 3.526792e-01 3.011891e-01
<GCONST> 1.225675e+02
<TRANSP> 5
 0.000000e+00 1.000000e+00 0.000000e+00 0.000000e+00 0.000000e+00
 0.000000e+00 6.000000e-01 4.000000e-01 0.000000e+00 0.000000e+00
 0.000000e+00 0.000000e+00 6.000000e-01 4.000000e-01 0.000000e+00
 0.000000e+00 0.000000e+00 0.000000e+00 7.000000e-01 3.000000e-01
 0.000000e+00 0.000000e+00 0.000000e+00 0.000000e+00 0.000000e+00
<ENDHMM>
~h "s"
<BEGINHMM>
<NUMSTATES> 5
<STATE> 2
<MEAN> 39
 6.707855e+00 -1.768463e+01 1.252256e+00 1.539251e+01 -1.668408e+01 1.808373e+01 -6.701271e+00 -7.042653e+00 6.889536e+00 -9.796343e+00 -4.355540e+00 1.748858e+00 7.326752e+01 3.328507e-02 -2.352392e-02 8.640007e-03 1.186019e-02 -1.639696e-02 1.441048e-02 1.499655e-03 -8.659299e-03 1.256061e-02 -5.673023e-03 -5.965582e-03 2.039411e-03 3.436080e-02 6.271758e-05 2.965386e-04 -7.100627e-04 -1.045769e-03 -5.200538e-04 7.722446e-05 2.680612e-05 -7.544252e-04 -5.288762e-04 1.771268e-04 6.646332e-04 7.342880e-04 -1.443067e-04
<VARIANCE> 39
 8.983979e+01 7.565530e+01 7.332420e+01 5.019836e+01 5.624637e+01 5.733911e+01 3.506507e+01 4.230246e+01 3.633398e+01 4.495449e+01 2.801809e+01 3.492205e+01 9.709326e+01 1.845017e+00 3.999241e+00 3.044322e+00 2.333326e+00 2.700648e+00 2.973695e+00 2.359299e+00 2.156001e+00 2.075893e+00 2.771460e+00 1.741253e+00 1.985936e+00 1.904773e+00 2.474196e-01 6.560865e-01 4.583352e-01 4.024896e-01 4.706515e-01 5.255622e-01 4.317569e-01 3.882029e-01 3.806162e-01 5.134221e-01 3.252152e-01 3.526792e-01 3.011891e-01
<GCONST> 1.225675e+02
<STATE> 3
<MEAN> 39
 6.707855e+00 -1.768463e+01 1.252256e+00 1.539251e+01 -1.668408e+01 1.808373e+01 -6.701271e+00 -7.042653e+00 6.889536e+00 -9.796343e+00 -4.355540e+00 1.748858e+00 7.326752e+01 3.328507e-02 -2.352392e-02 8.640007e-03 1.186019e-02 -1.639696e-02 1.441048e-02 1.499655e-03 -8.659299e-03 1.256061e-02 -5.673023e-03 -5.965582e-03 2.039411e-03 3.436080e-02 6.271758e-05 2.965386e-04 -7.100627e-04 -1.045769e-03 -5.200538e-04 7.722446e-05 2.680612e-05 -7.544252e-04 -5.288762e-04 1.771268e-04 6.646332e-04 7.342880e-04 -1.443067e-04
<VARIANCE> 39
 8.983979e+01 7.565530e+01 7.332420e+01 5.019836e+01 5.624637e+01 5.733911e+01 3.506507e+01 4.230246e+01 3.633398e+01 4.495449e+01 2.801809e+01 3.492205e+01 9.709326e+01 1.845017e+00 3.999241e+00 3.044322e+00 2.333326e+00 2.700648e+00 2.973695e+00 2.359299e+00 2.156001e+00 2.075893e+00 2.771460e+00 1.741253e+00 1.985936e+00 1.904773e+00 2.474196e-01 6.560865e-01 4.583352e-01 4.024896e-01 4.706515e-01 5.255622e-01 4.317569e-01 3.882029e-01 3.806162e-01 5.134221e-01 3.252152e-01 3.526792e-01 3.011891e-01
<GCONST> 1.225675e+02
<STATE> 4
<MEAN> 39
 6.707855e+00 -1.768463e+01 1.252256e+00 1.539251e+01 -1.668408e+01 1.808373e+01 -6.701271e+00 -7.042653e+00 6.889536e+00 -9.796343e+00 -4.355540e+00 1.748858e+00 7.326752e+01 3.328507e-02 -2.352392e-02 8.640007e-03 1.186019e-02 -1.639696e-02 1.441048e-02 1.499655e-03 -8.659299e-03 1.256061e-02 -5.673023e-03 -5.965582e-03 2.039411e-03 3.436080e-02 6.271758e-05 2.965386e-04 -7.100627e-04 -1.045769e-03 -5.200538e-04 7.722446e-05 2.680612e-05 -7.544252e-04 -5.288762e-04 1.771268e-04 6.646332e-04 7.342880e-04 -1.443067e-04
<VARIANCE> 39
 8.983979e+01 7.565530e+01 7.332420e+01 5.019836e+01 5.624637e+01 5.733911e+01 3.506507e+01 4.230246e+01 3.633398e+01 4.495449e+01 2.801809e+01 3.492205e+01 9.709326e+01 1.845017e+00 3.999241e+00 3.044322e+00 2.333326e+00 2.700648e+00 2.973695e+00 2.359299e+00 2.156001e+00 2.075893e+00 2.771460e+00 1.741253e+00 1.985936e+00 1.904773e+00 2.474196e-01 6.560865e-01 4.583352e-01 4.024896e-01 4.706515e-01 5.255622e-01 4.317569e-01 3.882029e-01 3.806162e-01 5.134221e-01 3.252152e-01 3.526792e-01 3.011891e-01
<GCONST> 1.225675e+02
<TRANSP> 5
 0.000000e+00 1.000000e+00 0.000000e+00 0.000000e+00 0.000000e+00
 0.000000e+00 6.000000e-01 4.000000e-01 0.000000e+00 0.000000e+00
 0.000000e+00 0.000000e+00 6.000000e-01 4.000000e-01 0.000000e+00
 0.000000e+00 0.000000e+00 0.000000e+00 7.000000e-01 3.000000e-01
 0.000000e+00 0.000000e+00 0.000000e+00 0.000000e+00 0.000000e+00
<ENDHMM>
~h "schwa"
<BEGINHMM>
<NUMSTATES> 5
<STATE> 2
<MEAN> 39
 6.707855e+00 -1.768463e+01 1.252256e+00 1.539251e+01 -1.668408e+01 1.808373e+01 -6.701271e+00 -7.042653e+00 6.889536e+00 -9.796343e+00 -4.355540e+00 1.748858e+00 7.326752e+01 3.328507e-02 -2.352392e-02 8.640007e-03 1.186019e-02 -1.639696e-02 1.441048e-02 1.499655e-03 -8.659299e-03 1.256061e-02 -5.673023e-03 -5.965582e-03 2.039411e-03 3.436080e-02 6.271758e-05 2.965386e-04 -7.100627e-04 -1.045769e-03 -5.200538e-04 7.722446e-05 2.680612e-05 -7.544252e-04 -5.288762e-04 1.771268e-04 6.646332e-04 7.342880e-04 -1.443067e-04
<VARIANCE> 39
 8.983979e+01 7.565530e+01 7.332420e+01 5.019836e+01 5.624637e+01 5.733911e+01 3.506507e+01 4.230246e+01 3.633398e+01 4.495449e+01 2.801809e+01 3.492205e+01 9.709326e+01 1.845017e+00 3.999241e+00 3.044322e+00 2.333326e+00 2.700648e+00 2.973695e+00 2.359299e+00 2.156001e+00 2.075893e+00 2.771460e+00 1.741253e+00 1.985936e+00 1.904773e+00 2.474196e-01 6.560865e-01 4.583352e-01 4.024896e-01 4.706515e-01 5.255622e-01 4.317569e-01 3.882029e-01 3.806162e-01 5.134221e-01 3.252152e-01 3.526792e-01 3.011891e-01
<GCONST> 1.225675e+02
<STATE> 3
<MEAN> 39
 6.707855e+00 -1.768463e+01 1.252256e+00 1.539251e+01 -1.668408e+01 1.808373e+01 -6.701271e+00 -7.042653e+00 6.889536e+00 -9.796343e+00 -4.355540e+00 1.748858e+00 7.326752e+01 3.328507e-02 -2.352392e-02 8.640007e-03 1.186019e-02 -1.639696e-02 1.441048e-02 1.499655e-03 -8.659299e-03 1.256061e-02 -5.673023e-03 -5.965582e-03 2.039411e-03 3.436080e-02 6.271758e-05 2.965386e-04 -7.100627e-04 -1.045769e-03 -5.200538e-04 7.722446e-05 2.680612e-05 -7.544252e-04 -5.288762e-04 1.771268e-04 6.646332e-04 7.342880e-04 -1.443067e-04
<VARIANCE> 39
 8.983979e+01 7.565530e+01 7.332420e+01 5.019836e+01 5.624637e+01 5.733911e+01 3.506507e+01 4.230246e+01 3.633398e+01 4.495449e+01 2.801809e+01 3.492205e+01 9.709326e+01 1.845017e+00 3.999241e+00 3.044322e+00 2.333326e+00 2.700648e+00 2.973695e+00 2.359299e+00 2.156001e+00 2.075893e+00 2.771460e+00 1.741253e+00 1.985936e+00 1.904773e+00 2.474196e-01 6.560865e-01 4.583352e-01 4.024896e-01 4.706515e-01 5.255622e-01 4.317569e-01 3.882029e-01 3.806162e-01 5.134221e-01 3.252152e-01 3.526792e-01 3.011891e-01
<GCONST> 1.225675e+02
<STATE> 4
<MEAN> 39
 6.707855e+00 -1.768463e+01 1.252256e+00 1.539251e+01 -1.668408e+01 1.808373e+01 -6.701271e+00 -7.042653e+00 6.889536e+00 -9.796343e+00 -4.355540e+00 1.748858e+00 7.326752e+01 3.328507e-02 -2.352392e-02 8.640007e-03 1.186019e-02 -1.639696e-02 1.441048e-02 1.499655e-03 -8.659299e-03 1.256061e-02 -5.673023e-03 -5.965582e-03 2.039411e-03 3.436080e-02 6.271758e-05 2.965386e-04 -7.100627e-04 -1.045769e-03 -5.200538e-04 7.722446e-05 2.680612e-05 -7.544252e-04 -5.288762e-04 1.771268e-04 6.646332e-04 7.342880e-04 -1.443067e-04
<VARIANCE> 39
 8.983979e+01 7.565530e+01 7.332420e+01 5.019836e+01 5.624637e+01 5.733911e+01 3.506507e+01 4.230246e+01 3.633398e+01 4.495449e+01 2.801809e+01 3.492205e+01 9.709326e+01 1.845017e+00 3.999241e+00 3.044322e+00 2.333326e+00 2.700648e+00 2.973695e+00 2.359299e+00 2.156001e+00 2.075893e+00 2.771460e+00 1.741253e+00 1.985936e+00 1.904773e+00 2.474196e-01 6.560865e-01 4.583352e-01 4.024896e-01 4.706515e-01 5.255622e-01 4.317569e-01 3.882029e-01 3.806162e-01 5.134221e-01 3.252152e-01 3.526792e-01 3.011891e-01
<GCONST> 1.225675e+02
<TRANSP> 5
 0.000000e+00 1.000000e+00 0.000000e+00 0.000000e+00 0.000000e+00
 0.000000e+00 6.000000e-01 4.000000e-01 0.000000e+00 0.000000e+00
 0.000000e+00 0.000000e+00 6.000000e-01 4.000000e-01 0.000000e+00
 0.000000e+00 0.000000e+00 0.000000e+00 7.000000e-01 3.000000e-01
 0.000000e+00 0.000000e+00 0.000000e+00 0.000000e+00 0.000000e+00
<ENDHMM>
~h "sh"
<BEGINHMM>
<NUMSTATES> 5
<STATE> 2
<MEAN> 39
 6.707855e+00 -1.768463e+01 1.252256e+00 1.539251e+01 -1.668408e+01 1.808373e+01 -6.701271e+00 -7.042653e+00 6.889536e+00 -9.796343e+00 -4.355540e+00 1.748858e+00 7.326752e+01 3.328507e-02 -2.352392e-02 8.640007e-03 1.186019e-02 -1.639696e-02 1.441048e-02 1.499655e-03 -8.659299e-03 1.256061e-02 -5.673023e-03 -5.965582e-03 2.039411e-03 3.436080e-02 6.271758e-05 2.965386e-04 -7.100627e-04 -1.045769e-03 -5.200538e-04 7.722446e-05 2.680612e-05 -7.544252e-04 -5.288762e-04 1.771268e-04 6.646332e-04 7.342880e-04 -1.443067e-04
<VARIANCE> 39
 8.983979e+01 7.565530e+01 7.332420e+01 5.019836e+01 5.624637e+01 5.733911e+01 3.506507e+01 4.230246e+01 3.633398e+01 4.495449e+01 2.801809e+01 3.492205e+01 9.709326e+01 1.845017e+00 3.999241e+00 3.044322e+00 2.333326e+00 2.700648e+00 2.973695e+00 2.359299e+00 2.156001e+00 2.075893e+00 2.771460e+00 1.741253e+00 1.985936e+00 1.904773e+00 2.474196e-01 6.560865e-01 4.583352e-01 4.024896e-01 4.706515e-01 5.255622e-01 4.317569e-01 3.882029e-01 3.806162e-01 5.134221e-01 3.252152e-01 3.526792e-01 3.011891e-01
<GCONST> 1.225675e+02
<STATE> 3
<MEAN> 39
 6.707855e+00 -1.768463e+01 1.252256e+00 1.539251e+01 -1.668408e+01 1.808373e+01 -6.701271e+00 -7.042653e+00 6.889536e+00 -9.796343e+00 -4.355540e+00 1.748858e+00 7.326752e+01 3.328507e-02 -2.352392e-02 8.640007e-03 1.186019e-02 -1.639696e-02 1.441048e-02 1.499655e-03 -8.659299e-03 1.256061e-02 -5.673023e-03 -5.965582e-03 2.039411e-03 3.436080e-02 6.271758e-05 2.965386e-04 -7.100627e-04 -1.045769e-03 -5.200538e-04 7.722446e-05 2.680612e-05 -7.544252e-04 -5.288762e-04 1.771268e-04 6.646332e-04 7.342880e-04 -1.443067e-04
<VARIANCE> 39
 8.983979e+01 7.565530e+01 7.332420e+01 5.019836e+01 5.624637e+01 5.733911e+01 3.506507e+01 4.230246e+01 3.633398e+01 4.495449e+01 2.801809e+01 3.492205e+01 9.709326e+01 1.845017e+00 3.999241e+00 3.044322e+00 2.333326e+00 2.700648e+00 2.973695e+00 2.359299e+00 2.156001e+00 2.075893e+00 2.771460e+00 1.741253e+00 1.985936e+00 1.904773e+00 2.474196e-01 6.560865e-01 4.583352e-01 4.024896e-01 4.706515e-01 5.255622e-01 4.317569e-01 3.882029e-01 3.806162e-01 5.134221e-01 3.252152e-01 3.526792e-01 3.011891e-01
<GCONST> 1.225675e+02
<STATE> 4
<MEAN> 39
 6.707855e+00 -1.768463e+01 1.252256e+00 1.539251e+01 -1.668408e+01 1.808373e+01 -6.701271e+00 -7.042653e+00 6.889536e+00 -9.796343e+00 -4.355540e+00 1.748858e+00 7.326752e+01 3.328507e-02 -2.352392e-02 8.640007e-03 1.186019e-02 -1.639696e-02 1.441048e-02 1.499655e-03 -8.659299e-03 1.256061e-02 -5.673023e-03 -5.965582e-03 2.039411e-03 3.436080e-02 6.271758e-05 2.965386e-04 -7.100627e-04 -1.045769e-03 -5.200538e-04 7.722446e-05 2.680612e-05 -7.544252e-04 -5.288762e-04 1.771268e-04 6.646332e-04 7.342880e-04 -1.443067e-04
<VARIANCE> 39
 8.983979e+01 7.565530e+01 7.332420e+01 5.019836e+01 5.624637e+01 5.733911e+01 3.506507e+01 4.230246e+01 3.633398e+01 4.495449e+01 2.801809e+01 3.492205e+01 9.709326e+01 1.845017e+00 3.999241e+00 3.044322e+00 2.333326e+00 2.700648e+00 2.973695e+00 2.359299e+00 2.156001e+00 2.075893e+00 2.771460e+00 1.741253e+00 1.985936e+00 1.904773e+00 2.474196e-01 6.560865e-01 4.583352e-01 4.024896e-01 4.706515e-01 5.255622e-01 4.317569e-01 3.882029e-01 3.806162e-01 5.134221e-01 3.252152e-01 3.526792e-01 3.011891e-01
<GCONST> 1.225675e+02
<TRANSP> 5
 0.000000e+00 1.000000e+00 0.000000e+00 0.000000e+00 0.000000e+00
 0.000000e+00 6.000000e-01 4.000000e-01 0.000000e+00 0.000000e+00
 0.000000e+00 0.000000e+00 6.000000e-01 4.000000e-01 0.000000e+00
 0.000000e+00 0.000000e+00 0.000000e+00 7.000000e-01 3.000000e-01
 0.000000e+00 0.000000e+00 0.000000e+00 0.000000e+00 0.000000e+00
<ENDHMM>
~h "t"
<BEGINHMM>
<NUMSTATES> 5
<STATE> 2
<MEAN> 39
 6.707855e+00 -1.768463e+01 1.252256e+00 1.539251e+01 -1.668408e+01 1.808373e+01 -6.701271e+00 -7.042653e+00 6.889536e+00 -9.796343e+00 -4.355540e+00 1.748858e+00 7.326752e+01 3.328507e-02 -2.352392e-02 8.640007e-03 1.186019e-02 -1.639696e-02 1.441048e-02 1.499655e-03 -8.659299e-03 1.256061e-02 -5.673023e-03 -5.965582e-03 2.039411e-03 3.436080e-02 6.271758e-05 2.965386e-04 -7.100627e-04 -1.045769e-03 -5.200538e-04 7.722446e-05 2.680612e-05 -7.544252e-04 -5.288762e-04 1.771268e-04 6.646332e-04 7.342880e-04 -1.443067e-04
<VARIANCE> 39
 8.983979e+01 7.565530e+01 7.332420e+01 5.019836e+01 5.624637e+01 5.733911e+01 3.506507e+01 4.230246e+01 3.633398e+01 4.495449e+01 2.801809e+01 3.492205e+01 9.709326e+01 1.845017e+00 3.999241e+00 3.044322e+00 2.333326e+00 2.700648e+00 2.973695e+00 2.359299e+00 2.156001e+00 2.075893e+00 2.771460e+00 1.741253e+00 1.985936e+00 1.904773e+00 2.474196e-01 6.560865e-01 4.583352e-01 4.024896e-01 4.706515e-01 5.255622e-01 4.317569e-01 3.882029e-01 3.806162e-01 5.134221e-01 3.252152e-01 3.526792e-01 3.011891e-01
<GCONST> 1.225675e+02
<STATE> 3
<MEAN> 39
 6.707855e+00 -1.768463e+01 1.252256e+00 1.539251e+01 -1.668408e+01 1.808373e+01 -6.701271e+00 -7.042653e+00 6.889536e+00 -9.796343e+00 -4.355540e+00 1.748858e+00 7.326752e+01 3.328507e-02 -2.352392e-02 8.640007e-03 1.186019e-02 -1.639696e-02 1.441048e-02 1.499655e-03 -8.659299e-03 1.256061e-02 -5.673023e-03 -5.965582e-03 2.039411e-03 3.436080e-02 6.271758e-05 2.965386e-04 -7.100627e-04 -1.045769e-03 -5.200538e-04 7.722446e-05 2.680612e-05 -7.544252e-04 -5.288762e-04 1.771268e-04 6.646332e-04 7.342880e-04 -1.443067e-04
<VARIANCE> 39
 8.983979e+01 7.565530e+01 7.332420e+01 5.019836e+01 5.624637e+01 5.733911e+01 3.506507e+01 4.230246e+01 3.633398e+01 4.495449e+01 2.801809e+01 3.492205e+01 9.709326e+01 1.845017e+00 3.999241e+00 3.044322e+00 2.333326e+00 2.700648e+00 2.973695e+00 2.359299e+00 2.156001e+00 2.075893e+00 2.771460e+00 1.741253e+00 1.985936e+00 1.904773e+00 2.474196e-01 6.560865e-01 4.583352e-01 4.024896e-01 4.706515e-01 5.255622e-01 4.317569e-01 3.882029e-01 3.806162e-01 5.134221e-01 3.252152e-01 3.526792e-01 3.011891e-01
<GCONST> 1.225675e+02
<STATE> 4
<MEAN> 39
 6.707855e+00 -1.768463e+01 1.252256e+00 1.539251e+01 -1.668408e+01 1.808373e+01 -6.701271e+00 -7.042653e+00 6.889536e+00 -9.796343e+00 -4.355540e+00 1.748858e+00 7.326752e+01 3.328507e-02 -2.352392e-02 8.640007e-03 1.186019e-02 -1.639696e-02 1.441048e-02 1.499655e-03 -8.659299e-03 1.256061e-02 -5.673023e-03 -5.965582e-03 2.039411e-03 3.436080e-02 6.271758e-05 2.965386e-04 -7.100627e-04 -1.045769e-03 -5.200538e-04 7.722446e-05 2.680612e-05 -7.544252e-04 -5.288762e-04 1.771268e-04 6.646332e-04 7.342880e-04 -1.443067e-04
<VARIANCE> 39
 8.983979e+01 7.565530e+01 7.332420e+01 5.019836e+01 5.624637e+01 5.733911e+01 3.506507e+01 4.230246e+01 3.633398e+01 4.495449e+01 2.801809e+01 3.492205e+01 9.709326e+01 1.845017e+00 3.999241e+00 3.044322e+00 2.333326e+00 2.700648e+00 2.973695e+00 2.359299e+00 2.156001e+00 2.075893e+00 2.771460e+00 1.741253e+00 1.985936e+00 1.904773e+00 2.474196e-01 6.560865e-01 4.583352e-01 4.024896e-01 4.706515e-01 5.255622e-01 4.317569e-01 3.882029e-01 3.806162e-01 5.134221e-01 3.252152e-01 3.526792e-01 3.011891e-01
<GCONST> 1.225675e+02
<TRANSP> 5
 0.000000e+00 1.000000e+00 0.000000e+00 0.000000e+00 0.000000e+00
 0.000000e+00 6.000000e-01 4.000000e-01 0.000000e+00 0.000000e+00
 0.000000e+00 0.000000e+00 6.000000e-01 4.000000e-01 0.000000e+00
 0.000000e+00 0.000000e+00 0.000000e+00 7.000000e-01 3.000000e-01
 0.000000e+00 0.000000e+00 0.000000e+00 0.000000e+00 0.000000e+00
<ENDHMM>
~h "u"
<BEGINHMM>
<NUMSTATES> 5
<STATE> 2
<MEAN> 39
 6.707855e+00 -1.768463e+01 1.252256e+00 1.539251e+01 -1.668408e+01 1.808373e+01 -6.701271e+00 -7.042653e+00 6.889536e+00 -9.796343e+00 -4.355540e+00 1.748858e+00 7.326752e+01 3.328507e-02 -2.352392e-02 8.640007e-03 1.186019e-02 -1.639696e-02 1.441048e-02 1.499655e-03 -8.659299e-03 1.256061e-02 -5.673023e-03 -5.965582e-03 2.039411e-03 3.436080e-02 6.271758e-05 2.965386e-04 -7.100627e-04 -1.045769e-03 -5.200538e-04 7.722446e-05 2.680612e-05 -7.544252e-04 -5.288762e-04 1.771268e-04 6.646332e-04 7.342880e-04 -1.443067e-04
<VARIANCE> 39
 8.983979e+01 7.565530e+01 7.332420e+01 5.019836e+01 5.624637e+01 5.733911e+01 3.506507e+01 4.230246e+01 3.633398e+01 4.495449e+01 2.801809e+01 3.492205e+01 9.709326e+01 1.845017e+00 3.999241e+00 3.044322e+00 2.333326e+00 2.700648e+00 2.973695e+00 2.359299e+00 2.156001e+00 2.075893e+00 2.771460e+00 1.741253e+00 1.985936e+00 1.904773e+00 2.474196e-01 6.560865e-01 4.583352e-01 4.024896e-01 4.706515e-01 5.255622e-01 4.317569e-01 3.882029e-01 3.806162e-01 5.134221e-01 3.252152e-01 3.526792e-01 3.011891e-01
<GCONST> 1.225675e+02
<STATE> 3
<MEAN> 39
 6.707855e+00 -1.768463e+01 1.252256e+00 1.539251e+01 -1.668408e+01 1.808373e+01 -6.701271e+00 -7.042653e+00 6.889536e+00 -9.796343e+00 -4.355540e+00 1.748858e+00 7.326752e+01 3.328507e-02 -2.352392e-02 8.640007e-03 1.186019e-02 -1.639696e-02 1.441048e-02 1.499655e-03 -8.659299e-03 1.256061e-02 -5.673023e-03 -5.965582e-03 2.039411e-03 3.436080e-02 6.271758e-05 2.965386e-04 -7.100627e-04 -1.045769e-03 -5.200538e-04 7.722446e-05 2.680612e-05 -7.544252e-04 -5.288762e-04 1.771268e-04 6.646332e-04 7.342880e-04 -1.443067e-04
<VARIANCE> 39
 8.983979e+01 7.565530e+01 7.332420e+01 5.019836e+01 5.624637e+01 5.733911e+01 3.506507e+01 4.230246e+01 3.633398e+01 4.495449e+01 2.801809e+01 3.492205e+01 9.709326e+01 1.845017e+00 3.999241e+00 3.044322e+00 2.333326e+00 2.700648e+00 2.973695e+00 2.359299e+00 2.156001e+00 2.075893e+00 2.771460e+00 1.741253e+00 1.985936e+00 1.904773e+00 2.474196e-01 6.560865e-01 4.583352e-01 4.024896e-01 4.706515e-01 5.255622e-01 4.317569e-01 3.882029e-01 3.806162e-01 5.134221e-01 3.252152e-01 3.526792e-01 3.011891e-01
<GCONST> 1.225675e+02
<STATE> 4
<MEAN> 39
 6.707855e+00 -1.768463e+01 1.252256e+00 1.539251e+01 -1.668408e+01 1.808373e+01 -6.701271e+00 -7.042653e+00 6.889536e+00 -9.796343e+00 -4.355540e+00 1.748858e+00 7.326752e+01 3.328507e-02 -2.352392e-02 8.640007e-03 1.186019e-02 -1.639696e-02 1.441048e-02 1.499655e-03 -8.659299e-03 1.256061e-02 -5.673023e-03 -5.965582e-03 2.039411e-03 3.436080e-02 6.271758e-05 2.965386e-04 -7.100627e-04 -1.045769e-03 -5.200538e-04 7.722446e-05 2.680612e-05 -7.544252e-04 -5.288762e-04 1.771268e-04 6.646332e-04 7.342880e-04 -1.443067e-04
<VARIANCE> 39
 8.983979e+01 7.565530e+01 7.332420e+01 5.019836e+01 5.624637e+01 5.733911e+01 3.506507e+01 4.230246e+01 3.633398e+01 4.495449e+01 2.801809e+01 3.492205e+01 9.709326e+01 1.845017e+00 3.999241e+00 3.044322e+00 2.333326e+00 2.700648e+00 2.973695e+00 2.359299e+00 2.156001e+00 2.075893e+00 2.771460e+00 1.741253e+00 1.985936e+00 1.904773e+00 2.474196e-01 6.560865e-01 4.583352e-01 4.024896e-01 4.706515e-01 5.255622e-01 4.317569e-01 3.882029e-01 3.806162e-01 5.134221e-01 3.252152e-01 3.526792e-01 3.011891e-01
<GCONST> 1.225675e+02
<TRANSP> 5
 0.000000e+00 1.000000e+00 0.000000e+00 0.000000e+00 0.000000e+00
 0.000000e+00 6.000000e-01 4.000000e-01 0.000000e+00 0.000000e+00
 0.000000e+00 0.000000e+00 6.000000e-01 4.000000e-01 0.000000e+00
 0.000000e+00 0.000000e+00 0.000000e+00 7.000000e-01 3.000000e-01
 0.000000e+00 0.000000e+00 0.000000e+00 0.000000e+00 0.000000e+00
<ENDHMM>
~h "ue"
<BEGINHMM>
<NUMSTATES> 5
<STATE> 2
<MEAN> 39
 6.707855e+00 -1.768463e+01 1.252256e+00 1.539251e+01 -1.668408e+01 1.808373e+01 -6.701271e+00 -7.042653e+00 6.889536e+00 -9.796343e+00 -4.355540e+00 1.748858e+00 7.326752e+01 3.328507e-02 -2.352392e-02 8.640007e-03 1.186019e-02 -1.639696e-02 1.441048e-02 1.499655e-03 -8.659299e-03 1.256061e-02 -5.673023e-03 -5.965582e-03 2.039411e-03 3.436080e-02 6.271758e-05 2.965386e-04 -7.100627e-04 -1.045769e-03 -5.200538e-04 7.722446e-05 2.680612e-05 -7.544252e-04 -5.288762e-04 1.771268e-04 6.646332e-04 7.342880e-04 -1.443067e-04
<VARIANCE> 39
 8.983979e+01 7.565530e+01 7.332420e+01 5.019836e+01 5.624637e+01 5.733911e+01 3.506507e+01 4.230246e+01 3.633398e+01 4.495449e+01 2.801809e+01 3.492205e+01 9.709326e+01 1.845017e+00 3.999241e+00 3.044322e+00 2.333326e+00 2.700648e+00 2.973695e+00 2.359299e+00 2.156001e+00 2.075893e+00 2.771460e+00 1.741253e+00 1.985936e+00 1.904773e+00 2.474196e-01 6.560865e-01 4.583352e-01 4.024896e-01 4.706515e-01 5.255622e-01 4.317569e-01 3.882029e-01 3.806162e-01 5.134221e-01 3.252152e-01 3.526792e-01 3.011891e-01
<GCONST> 1.225675e+02
<STATE> 3
<MEAN> 39
 6.707855e+00 -1.768463e+01 1.252256e+00 1.539251e+01 -1.668408e+01 1.808373e+01 -6.701271e+00 -7.042653e+00 6.889536e+00 -9.796343e+00 -4.355540e+00 1.748858e+00 7.326752e+01 3.328507e-02 -2.352392e-02 8.640007e-03 1.186019e-02 -1.639696e-02 1.441048e-02 1.499655e-03 -8.659299e-03 1.256061e-02 -5.673023e-03 -5.965582e-03 2.039411e-03 3.436080e-02 6.271758e-05 2.965386e-04 -7.100627e-04 -1.045769e-03 -5.200538e-04 7.722446e-05 2.680612e-05 -7.544252e-04 -5.288762e-04 1.771268e-04 6.646332e-04 7.342880e-04 -1.443067e-04
<VARIANCE> 39
 8.983979e+01 7.565530e+01 7.332420e+01 5.019836e+01 5.624637e+01 5.733911e+01 3.506507e+01 4.230246e+01 3.633398e+01 4.495449e+01 2.801809e+01 3.492205e+01 9.709326e+01 1.845017e+00 3.999241e+00 3.044322e+00 2.333326e+00 2.700648e+00 2.973695e+00 2.359299e+00 2.156001e+00 2.075893e+00 2.771460e+00 1.741253e+00 1.985936e+00 1.904773e+00 2.474196e-01 6.560865e-01 4.583352e-01 4.024896e-01 4.706515e-01 5.255622e-01 4.317569e-01 3.882029e-01 3.806162e-01 5.134221e-01 3.252152e-01 3.526792e-01 3.011891e-01
<GCONST> 1.225675e+02
<STATE> 4
<MEAN> 39
 6.707855e+00 -1.768463e+01 1.252256e+00 1.539251e+01 -1.668408e+01 1.808373e+01 -6.701271e+00 -7.042653e+00 6.889536e+00 -9.796343e+00 -4.355540e+00 1.748858e+00 7.326752e+01 3.328507e-02 -2.352392e-02 8.640007e-03 1.186019e-02 -1.639696e-02 1.441048e-02 1.499655e-03 -8.659299e-03 1.256061e-02 -5.673023e-03 -5.965582e-03 2.039411e-03 3.436080e-02 6.271758e-05 2.965386e-04 -7.100627e-04 -1.045769e-03 -5.200538e-04 7.722446e-05 2.680612e-05 -7.544252e-04 -5.288762e-04 1.771268e-04 6.646332e-04 7.342880e-04 -1.443067e-04
<VARIANCE> 39
 8.983979e+01 7.565530e+01 7.332420e+01 5.019836e+01 5.624637e+01 5.733911e+01 3.506507e+01 4.230246e+01 3.633398e+01 4.495449e+01 2.801809e+01 3.492205e+01 9.709326e+01 1.845017e+00 3.999241e+00 3.044322e+00 2.333326e+00 2.700648e+00 2.973695e+00 2.359299e+00 2.156001e+00 2.075893e+00 2.771460e+00 1.741253e+00 1.985936e+00 1.904773e+00 2.474196e-01 6.560865e-01 4.583352e-01 4.024896e-01 4.706515e-01 5.255622e-01 4.317569e-01 3.882029e-01 3.806162e-01 5.134221e-01 3.252152e-01 3.526792e-01 3.011891e-01
<GCONST> 1.225675e+02
<TRANSP> 5
 0.000000e+00 1.000000e+00 0.000000e+00 0.000000e+00 0.000000e+00
 0.000000e+00 6.000000e-01 4.000000e-01 0.000000e+00 0.000000e+00
 0.000000e+00 0.000000e+00 6.000000e-01 4.000000e-01 0.000000e+00
 0.000000e+00 0.000000e+00 0.000000e+00 7.000000e-01 3.000000e-01
 0.000000e+00 0.000000e+00 0.000000e+00 0.000000e+00 0.000000e+00
<ENDHMM>
~h "v"
<BEGINHMM>
<NUMSTATES> 5
<STATE> 2
<MEAN> 39
 6.707855e+00 -1.768463e+01 1.252256e+00 1.539251e+01 -1.668408e+01 1.808373e+01 -6.701271e+00 -7.042653e+00 6.889536e+00 -9.796343e+00 -4.355540e+00 1.748858e+00 7.326752e+01 3.328507e-02 -2.352392e-02 8.640007e-03 1.186019e-02 -1.639696e-02 1.441048e-02 1.499655e-03 -8.659299e-03 1.256061e-02 -5.673023e-03 -5.965582e-03 2.039411e-03 3.436080e-02 6.271758e-05 2.965386e-04 -7.100627e-04 -1.045769e-03 -5.200538e-04 7.722446e-05 2.680612e-05 -7.544252e-04 -5.288762e-04 1.771268e-04 6.646332e-04 7.342880e-04 -1.443067e-04
<VARIANCE> 39
 8.983979e+01 7.565530e+01 7.332420e+01 5.019836e+01 5.624637e+01 5.733911e+01 3.506507e+01 4.230246e+01 3.633398e+01 4.495449e+01 2.801809e+01 3.492205e+01 9.709326e+01 1.845017e+00 3.999241e+00 3.044322e+00 2.333326e+00 2.700648e+00 2.973695e+00 2.359299e+00 2.156001e+00 2.075893e+00 2.771460e+00 1.741253e+00 1.985936e+00 1.904773e+00 2.474196e-01 6.560865e-01 4.583352e-01 4.024896e-01 4.706515e-01 5.255622e-01 4.317569e-01 3.882029e-01 3.806162e-01 5.134221e-01 3.252152e-01 3.526792e-01 3.011891e-01
<GCONST> 1.225675e+02
<STATE> 3
<MEAN> 39
 6.707855e+00 -1.768463e+01 1.252256e+00 1.539251e+01 -1.668408e+01 1.808373e+01 -6.701271e+00 -7.042653e+00 6.889536e+00 -9.796343e+00 -4.355540e+00 1.748858e+00 7.326752e+01 3.328507e-02 -2.352392e-02 8.640007e-03 1.186019e-02 -1.639696e-02 1.441048e-02 1.499655e-03 -8.659299e-03 1.256061e-02 -5.673023e-03 -5.965582e-03 2.039411e-03 3.436080e-02 6.271758e-05 2.965386e-04 -7.100627e-04 -1.045769e-03 -5.200538e-04 7.722446e-05 2.680612e-05 -7.544252e-04 -5.288762e-04 1.771268e-04 6.646332e-04 7.342880e-04 -1.443067e-04
<VARIANCE> 39
 8.983979e+01 7.565530e+01 7.332420e+01 5.019836e+01 5.624637e+01 5.733911e+01 3.506507e+01 4.230246e+01 3.633398e+01 4.495449e+01 2.801809e+01 3.492205e+01 9.709326e+01 1.845017e+00 3.999241e+00 3.044322e+00 2.333326e+00 2.700648e+00 2.973695e+00 2.359299e+00 2.156001e+00 2.075893e+00 2.771460e+00 1.741253e+00 1.985936e+00 1.904773e+00 2.474196e-01 6.560865e-01 4.583352e-01 4.024896e-01 4.706515e-01 5.255622e-01 4.317569e-01 3.882029e-01 3.806162e-01 5.134221e-01 3.252152e-01 3.526792e-01 3.011891e-01
<GCONST> 1.225675e+02
<STATE> 4
<MEAN> 39
 6.707855e+00 -1.768463e+01 1.252256e+00 1.539251e+01 -1.668408e+01 1.808373e+01 -6.701271e+00 -7.042653e+00 6.889536e+00 -9.796343e+00 -4.355540e+00 1.748858e+00 7.326752e+01 3.328507e-02 -2.352392e-02 8.640007e-03 1.186019e-02 -1.639696e-02 1.441048e-02 1.499655e-03 -8.659299e-03 1.256061e-02 -5.673023e-03 -5.965582e-03 2.039411e-03 3.436080e-02 6.271758e-05 2.965386e-04 -7.100627e-04 -1.045769e-03 -5.200538e-04 7.722446e-05 2.680612e-05 -7.544252e-04 -5.288762e-04 1.771268e-04 6.646332e-04 7.342880e-04 -1.443067e-04
<VARIANCE> 39
 8.983979e+01 7.565530e+01 7.332420e+01 5.019836e+01 5.624637e+01 5.733911e+01 3.506507e+01 4.230246e+01 3.633398e+01 4.495449e+01 2.801809e+01 3.492205e+01 9.709326e+01 1.845017e+00 3.999241e+00 3.044322e+00 2.333326e+00 2.700648e+00 2.973695e+00 2.359299e+00 2.156001e+00 2.075893e+00 2.771460e+00 1.741253e+00 1.985936e+00 1.904773e+00 2.474196e-01 6.560865e-01 4.583352e-01 4.024896e-01 4.706515e-01 5.255622e-01 4.317569e-01 3.882029e-01 3.806162e-01 5.134221e-01 3.252152e-01 3.526792e-01 3.011891e-01
<GCONST> 1.225675e+02
<TRANSP> 5
 0.000000e+00 1.000000e+00 0.000000e+00 0.000000e+00 0.000000e+00
 0.000000e+00 6.000000e-01 4.000000e-01 0.000000e+00 0.000000e+00
 0.000000e+00 0.000000e+00 6.000000e-01 4.000000e-01 0.000000e+00
 0.000000e+00 0.000000e+00 0.000000e+00 7.000000e-01 3.000000e-01
 0.000000e+00 0.000000e+00 0.000000e+00 0.000000e+00 0.000000e+00
<ENDHMM>
~h "y"
<BEGINHMM>
<NUMSTATES> 5
<STATE> 2
<MEAN> 39
 6.707855e+00 -1.768463e+01 1.252256e+00 1.539251e+01 -1.668408e+01 1.808373e+01 -6.701271e+00 -7.042653e+00 6.889536e+00 -9.796343e+00 -4.355540e+00 1.748858e+00 7.326752e+01 3.328507e-02 -2.352392e-02 8.640007e-03 1.186019e-02 -1.639696e-02 1.441048e-02 1.499655e-03 -8.659299e-03 1.256061e-02 -5.673023e-03 -5.965582e-03 2.039411e-03 3.436080e-02 6.271758e-05 2.965386e-04 -7.100627e-04 -1.045769e-03 -5.200538e-04 7.722446e-05 2.680612e-05 -7.544252e-04 -5.288762e-04 1.771268e-04 6.646332e-04 7.342880e-04 -1.443067e-04
<VARIANCE> 39
 8.983979e+01 7.565530e+01 7.332420e+01 5.019836e+01 5.624637e+01 5.733911e+01 3.506507e+01 4.230246e+01 3.633398e+01 4.495449e+01 2.801809e+01 3.492205e+01 9.709326e+01 1.845017e+00 3.999241e+00 3.044322e+00 2.333326e+00 2.700648e+00 2.973695e+00 2.359299e+00 2.156001e+00 2.075893e+00 2.771460e+00 1.741253e+00 1.985936e+00 1.904773e+00 2.474196e-01 6.560865e-01 4.583352e-01 4.024896e-01 4.706515e-01 5.255622e-01 4.317569e-01 3.882029e-01 3.806162e-01 5.134221e-01 3.252152e-01 3.526792e-01 3.011891e-01
<GCONST> 1.225675e+02
<STATE> 3
<MEAN> 39
