~o
<STREAMINFO> 1 39
<VECSIZE> 39<NULLD><MFCC_D_A_0><DIAGC>
~h "a"
<BEGINHMM>
<NUMSTATES> 5
<STATE> 2
<MEAN> 39
 1.298274e+01 -1.684091e+01 -2.990377e+00 1.068082e+01 -2.186173e+01 1.317650e+01 -4.197933e+00 -2.669982e+00 9.104827e+00 -1.437254e+01 -5.054040e+00 2.901195e+00 7.885135e+01 4.323713e-01 1.553111e-01 -6.436611e-01 -2.385586e-01 -1.663104e-01 -8.640172e-01 1.791470e-02 5.573227e-01 3.265837e-01 -4.209218e-01 4.064394e-02 2.345219e-01 3.745325e-01 -1.631670e-01 -5.682698e-02 1.604601e-01 8.463895e-02 1.077693e-01 1.919886e-01 -4.017620e-02 -1.404669e-01 -7.392471e-02 1.582135e-01 3.793749e-02 2.677018e-02 -1.275039e-01
<VARIANCE> 39
 1.587006e+01 3.132350e+01 3.274062e+01 3.143120e+01 5.331147e+01 6.863071e+01 2.231107e+01 4.362617e+01 3.778719e+01 4.071687e+01 2.920452e+01 2.868097e+01 3.053085e+01 1.525586e+00 2.909193e+00 2.970187e+00 2.674384e+00 3.438205e+00 5.922616e+00 1.771717e+00 2.768569e+00 2.671489e+00 3.995315e+00 2.015793e+00 2.303368e+00 2.291010e+00 2.409596e-01 4.868189e-01 4.585838e-01 4.526576e-01 5.724279e-01 9.207965e-01 3.302784e-01 4.367681e-01 4.261190e-01 7.046885e-01 3.419189e-01 3.591102e-01 3.212653e-01
<GCONST> 1.195671e+02
<STATE> 3
<MEAN> 39
 1.347865e+01 -1.650572e+01 -3.964800e+00 1.065261e+01 -2.173201e+01 1.240289e+01 -4.206302e+00 -2.109380e+00 9.453541e+00 -1.472405e+01 -4.808586e+00 3.575215e+00 7.901145e+01 2.960502e-02 1.366294e-01 -9.313332e-02 1.512141e-01 1.340510e-01 1.799251e-02 -3.211375e-02 1.534435e-02 2.076710e-04 5.466169e-02 1.100824e-01 2.364174e-01 -1.386609e-01 -1.605219e-01 -9.135188e-03 2.372614e-01 1.292212e-01 9.089237e-02 2.762896e-01 -2.369976e-02 -1.860725e-01 -1.139963e-01 2.044547e-01 2.254147e-02 -4.308717e-02 -1.734689e-01
<VARIANCE> 39
 1.353911e+01 2.417365e+01 2.859363e+01 2.943435e+01 5.002758e+01 6.837836e+01 2.175202e+01 4.346190e+01 3.704927e+01 3.723695e+01 2.986254e+01 2.781275e+01 2.925524e+01 1.051981e+00 2.272243e+00 2.579644e+00 2.218803e+00 3.164128e+00 5.057670e+00 1.658157e+00 2.589130e+00 2.225176e+00 3.434944e+00 1.933546e+00 1.990349e+00 1.978085e+00 1.738185e-01 4.130999e-01 4.082224e-01 3.962319e-01 5.407878e-01 8.484035e-01 3.169065e-01 4.297128e-01 3.962302e-01 6.295682e-01 3.492732e-01 3.453101e-01 2.913180e-01
<GCONST> 1.154644e+02
<STATE> 4
<MEAN> 39
 1.296692e+01 -1.556433e+01 -3.454928e+00 1.156295e+01 -2.142728e+01 1.375160e+01 -4.137639e+00 -2.361412e+00 9.207500e+00 -1.367183e+01 -4.617658e+00 4.214956e+00 7.726914e+01 -3.273070e-01 1.260278e-01 4.541752e-01 4.023863e-01 2.732541e-01 5.757210e-01 -5.660388e-02 -3.436257e-01 -2.577044e-01 4.809222e-01 1.300119e-01 7.793587e-02 -5.058291e-01 -1.130205e-01 -5.485653e-02 1.622145e-01 2.029564e-02 2.171372e-02 7.618010e-02 -2.085048e-02 -7.321692e-02 -3.912516e-02 1.065138e-01 -3.182695e-03 -6.416947e-02 -3.761429e-02
<VARIANCE> 39
 1.549596e+01 2.562800e+01 2.952625e+01 2.773623e+01 4.742666e+01 5.936559e+01 2.259605e+01 4.033577e+01 3.516527e+01 3.678384e+01 3.089902e+01 2.765983e+01 3.188424e+01 9.690117e-01 2.480904e+00 2.528288e+00 1.945876e+00 3.018880e+00 4.136888e+00 1.771453e+00 2.329310e+00 1.871963e+00 2.935555e+00 1.911456e+00 1.834977e+00 1.538506e+00 1.444110e-01 4.504365e-01 3.983743e-01 3.640094e-01 5.404195e-01 7.364005e-01 3.144591e-01 4.102504e-01 3.480700e-01 5.336567e-01 3.591525e-01 3.248762e-01 2.680061e-01
<GCONST> 1.135263e+02
<TRANSP> 5
 0.000000e+00 1.000000e+00 0.000000e+00 0.000000e+00 0.000000e+00
 0.000000e+00 5.462956e-01 4.537044e-01 0.000000e+00 0.000000e+00
 0.000000e+00 0.000000e+00 5.510255e-01 4.489746e-01 0.000000e+00
 0.000000e+00 0.000000e+00 0.000000e+00 6.971247e-01 3.028754e-01
 0.000000e+00 0.000000e+00 0.000000e+00 0.000000e+00 0.000000e+00
<ENDHMM>
~h "b"
<BEGINHMM>
<NUMSTATES> 5
<STATE> 2
<MEAN> 39
 3.762847e+00 -1.151496e+01 -2.167789e+00 1.628185e+01 -1.546051e+01 1.567503e+01 -6.207819e+00 -5.537305e+00 6.324256e+00 -5.851420e+00 -4.155480e+00 1.611004e+00 6.594077e+01 -2.702315e-01 4.861752e-01 2.148570e-01 2.557190e-01 1.148257e-01 -1.700408e-01 9.017463e-02 3.729732e-01 1.477846e-01 4.435814e-01 9.165049e-02 2.744866e-01 -5.392966e-01 9.518162e-02 -2.741789e-01 2.455892e-02 4.401850e-04 -6.700823e-03 2.174772e-01 5.943070e-02 -1.039704e-01 -4.478242e-02 -1.462574e-01 -4.150081e-02 -3.473595e-03 2.037907e-01
<VARIANCE> 39
 1.363117e+02 4.949559e+01 2.757958e+01 4.216120e+01 4.149102e+01 5.325617e+01 1.715340e+01 3.344494e+01 2.647259e+01 3.963094e+01 1.338331e+01 1.594567e+01 1.289161e+02 3.559282e-01 1.444012e+00 8.195724e-01 1.033738e+00 1.237081e+00 2.330986e+00 1.008729e+00 1.335122e+00 1.001823e+00 1.876480e+00 1.044785e+00 1.122380e+00 1.293443e+00 2.081981e-01 4.387602e-01 1.548958e-01 2.297881e-01 2.846671e-01 3.831539e-01 2.177181e-01 2.664627e-01 2.550308e-01 4.573875e-01 2.097525e-01 2.245682e-01 4.852638e-01
<GCONST> 1.036380e+02
<STATE> 3
<MEAN> 39
 6.330134e+00 -8.592584e+00 -3.386373e-01 1.790804e+01 -1.387783e+01 1.603693e+01 -6.043395e+00 -5.064926e+00 6.914118e+00 -6.705996e+00 -3.839080e+00 1.422723e+00 6.748553e+01 -2.398790e-02 -1.078760e-01 3.055982e-01 3.245328e-01 1.790718e-01 3.618803e-01 2.932889e-01 2.734186e-01 1.002032e-01 1.602065e-01 4.986003e-04 2.809774e-01 -1.025069e-01 3.132742e-01 -6.623718e-01 -7.448846e-02 -6.900593e-02 -8.713672e-03 3.450035e-01 -4.933825e-02 -3.224874e-01 -5.590041e-02 -4.384309e-01 -1.052597e-01 -1.146351e-01 6.132204e-01
<VARIANCE> 39
 1.475333e+02 4.677189e+01 3.312206e+01 5.480568e+01 4.175414e+01 7.627180e+01 2.168668e+01 4.129865e+01 4.081092e+01 3.805031e+01 1.525092e+01 1.639466e+01 1.471235e+02 1.768915e+00 3.119172e+00 1.097719e+00 1.452215e+00 1.671111e+00 2.818086e+00 1.424039e+00 1.840486e+00 1.443047e+00 2.804464e+00 1.155833e+00 1.362612e+00 3.392670e+00 3.908067e-01 7.454792e-01 2.743628e-01 3.836180e-01 4.406222e-01 6.347946e-01 3.857848e-01 4.033369e-01 3.053046e-01 6.219478e-01 2.377111e-01 2.961288e-01 8.190345e-01
<GCONST> 1.173722e+02
<STATE> 4
<MEAN> 39
 1.989097e+00 -1.227959e+01 -2.494087e+00 1.595183e+01 -1.418206e+01 1.672481e+01 -4.357534e+00 -5.079425e+00 4.925424e+00 -5.131217e+00 -3.706590e+00 2.576654e+00 6.466117e+01 1.233725e+00 -1.524327e+00 2.307980e-01 4.587351e-01 -2.160698e-01 1.026926e+00 3.225151e-02 -6.613110e-01 1.312016e-01 -8.313665e-01 -2.589926e-01 7.347547e-02 1.665731e+00 7.441225e-03 -1.525480e-01 -1.094478e-01 -4.220670e-02 3.484058e-02 -9.514666e-02 -3.177861e-01 -1.820053e-01 -2.466136e-02 -2.725774e-01 -1.884621e-02 -1.638850e-01 1.516386e-01
<VARIANCE> 39
 1.185933e+02 6.843161e+01 4.941678e+01 5.863855e+01 5.032724e+01 7.024557e+01 2.264135e+01 3.371296e+01 4.176450e+01 3.911153e+01 1.477483e+01 1.533080e+01 1.063295e+02 5.613045e+00 7.734970e+00 1.878104e+00 3.331474e+00 4.382294e+00 4.814730e+00 2.697951e+00 3.228631e+00 2.045004e+00 3.654602e+00 1.290506e+00 1.680695e+00 8.586154e+00 6.270051e-01 1.186135e+00 2.919259e-01 5.513445e-01 6.677815e-01 8.825485e-01 4.562588e-01 5.285316e-01 3.164764e-01 6.368994e-01 2.460555e-01 3.242755e-01 1.243850e+00
<GCONST> 1.287149e+02
<TRANSP> 5
 0.000000e+00 1.000000e+00 0.000000e+00 0.000000e+00 0.000000e+00
 0.000000e+00 4.480579e-01 5.519421e-01 0.000000e+00 0.000000e+00
 0.000000e+00 0.000000e+00 2.236970e-01 7.763030e-01 0.000000e+00
 0.000000e+00 0.000000e+00 0.000000e+00 5.817972e-01 4.182028e-01
 0.000000e+00 0.000000e+00 0.000000e+00 0.000000e+00 0.000000e+00
<ENDHMM>
~h "c"
<BEGINHMM>
<NUMSTATES> 5
<STATE> 2
<MEAN> 39
 7.428419e+00 -2.153795e+01 7.899789e+00 2.200592e+01 -1.144806e+01 1.982756e+01 -8.263400e+00 -9.276893e+00 7.943079e+00 -1.010735e+01 -3.648291e+00 1.900892e+00 7.804986e+01 -4.009650e-01 -1.056542e+00 7.079452e-01 2.343511e-01 1.487626e-01 -1.425411e-01 -3.040302e-01 -3.387125e-01 1.521103e-02 -2.940730e-03 -1.833640e-01 6.140159e-03 5.080505e-01 2.304440e-01 2.658971e-01 -3.318107e-01 -7.828184e-02 -3.678852e-02 6.333554e-02 3.034477e-02 -1.015807e-01 -6.462490e-02 -2.964791e-02 2.726033e-02 -1.305282e-01 -4.505683e-02
<VARIANCE> 39
 3.476573e+01 9.791415e+01 6.081114e+01 2.202533e+01 4.355843e+01 3.405059e+01 4.327847e+01 2.645885e+01 2.937126e+01 4.301961e+01 2.534849e+01 2.086090e+01 1.980176e+01 4.176940e+00 1.016666e+01 7.712085e+00 1.907025e+00 3.900449e+00 2.459792e+00 2.903405e+00 2.756438e+00 1.710911e+00 3.124154e+00 2.096059e+00 2.197937e+00 1.558552e+00 8.245653e-01 2.060877e+00 1.459587e+00 3.357656e-01 7.533445e-01 4.463798e-01 4.974892e-01 5.162779e-01 3.743711e-01 5.810968e-01 3.866087e-01 4.117081e-01 2.583911e-01
<GCONST> 1.248302e+02
<STATE> 3
<MEAN> 39
 8.105656e+00 -2.219527e+01 7.202234e+00 2.257399e+01 -1.076995e+01 2.033748e+01 -8.825243e+00 -1.091920e+01 7.765804e+00 -1.026851e+01 -4.063798e+00 9.183159e-01 7.874863e+01 3.536810e-01 4.272330e-02 -3.670973e-01 1.333190e-01 6.513661e-02 -5.500995e-03 -1.544888e-01 -4.211660e-01 -2.000585e-01 -1.435190e-01 -3.888026e-02 -1.990141e-01 1.560677e-01 8.659992e-02 1.919694e-01 -1.721471e-01 -7.342206e-02 -6.652030e-02 1.636641e-02 5.540884e-02 2.886346e-02 -3.487661e-02 -2.597235e-02 3.072624e-03 -6.749056e-03 -9.480044e-02
<VARIANCE> 39
 2.948895e+01 7.814226e+01 4.819245e+01 2.374185e+01 3.649290e+01 3.422417e+01 4.235154e+01 2.223737e+01 3.249771e+01 4.233046e+01 2.590565e+01 1.921970e+01 1.441170e+01 3.861269e+00 8.421122e+00 6.882163e+00 1.647553e+00 2.819471e+00 1.791338e+00 3.076557e+00 2.159878e+00 1.692765e+00 3.587036e+00 2.149689e+00 1.798337e+00 1.247395e+00 6.304891e-01 1.503122e+00 1.052720e+00 2.997707e-01 5.789602e-01 3.499818e-01 4.877135e-01 4.165463e-01 3.553880e-01 5.876725e-01 3.940710e-01 3.385986e-01 1.980744e-01
<GCONST> 1.197488e+02
<STATE> 4
<MEAN> 39
 1.043051e+01 -1.792585e+01 4.297561e+00 2.330951e+01 -1.030052e+01 1.972838e+01 -1.030486e+01 -1.200170e+01 6.479175e+00 -1.090920e+01 -3.965869e+00 -1.927116e-01 7.689884e+01 4.715596e-02 1.984358e-01 -8.998986e-02 -7.973640e-02 -6.708446e-02 -2.015930e-02 -9.228462e-02 -7.148780e-03 2.924276e-02 1.368585e-02 -2.558478e-02 -2.007166e-02 -1.188312e-01 -5.933744e-02 -3.515773e-02 3.919697e-02 -5.076571e-02 -1.933148e-02 1.450849e-03 3.222521e-02 5.237996e-02 1.938587e-02 1.398727e-02 8.589171e-03 5.597046e-02 -1.111350e-02
<VARIANCE> 39
 1.425401e+01 4.795973e+01 3.850498e+01 2.247737e+01 2.652148e+01 2.987900e+01 4.231732e+01 1.823611e+01 3.836559e+01 3.114594e+01 1.905759e+01 2.423439e+01 1.442406e+01 1.525490e+00 4.296991e+00 3.203455e+00 1.407777e+00 1.961583e+00 1.699495e+00 2.938202e+00 1.683056e+00 1.965819e+00 2.934503e+00 1.320971e+00 1.478745e+00 1.198207e+00 2.659178e-01 7.943125e-01 5.657820e-01 2.399984e-01 3.764619e-01 2.867842e-01 5.161366e-01 3.331645e-01 3.870344e-01 5.445542e-01 2.474856e-01 2.777185e-01 2.162046e-01
<GCONST> 1.096693e+02
<TRANSP> 5
 0.000000e+00 1.000000e+00 0.000000e+00 0.000000e+00 0.000000e+00
 0.000000e+00 7.049323e-01 2.950676e-01 0.000000e+00 0.000000e+00
 0.000000e+00 0.000000e+00 6.915495e-01 3.084505e-01 0.000000e+00
 0.000000e+00 0.000000e+00 0.000000e+00 9.149519e-01 8.504816e-02
 0.000000e+00 0.000000e+00 0.000000e+00 0.000000e+00 0.000000e+00
<ENDHMM>
~h "d"
<BEGINHMM>
<NUMSTATES> 5
<STATE> 2
<MEAN> 39
 4.814481e+00 -1.454536e+01 -2.221000e+00 1.409886e+01 -1.866922e+01 1.746259e+01 -5.990901e+00 -7.639174e+00 5.144504e+00 -7.842248e+00 -5.562109e+00 1.420406e+00 6.803149e+01 -1.053348e-01 1.498903e-01 2.382889e-01 1.733174e-01 -1.089423e-01 6.632941e-02 9.046943e-02 1.230482e-01 1.726650e-01 2.579985e-01 -1.193923e-01 3.331272e-02 -2.414954e-01 -2.194631e-02 -9.097317e-02 2.160139e-02 1.953549e-02 3.025606e-02 -3.469024e-03 -3.323866e-02 3.995519e-03 6.833087e-03 -1.181694e-02 4.567134e-02 5.374600e-02 3.527199e-02
<VARIANCE> 39
 8.386916e+01 3.698225e+01 4.268288e+01 3.514186e+01 3.945521e+01 3.578095e+01 2.141124e+01 2.390992e+01 3.001051e+01 4.140607e+01 2.558538e+01 3.456419e+01 9.111871e+01 1.109125e+00 1.765920e+00 1.229677e+00 1.346426e+00 1.748514e+00 1.922036e+00 1.601458e+00 1.632945e+00 1.610950e+00 2.000219e+00 1.542131e+00 1.407941e+00 1.619019e+00 1.469403e-01 3.178410e-01 2.173506e-01 2.422192e-01 2.991851e-01 3.493655e-01 3.213297e-01 3.048008e-01 2.903855e-01 3.990927e-01 2.763720e-01 2.434659e-01 2.558632e-01
<GCONST> 1.079131e+02
<STATE> 3
<MEAN> 39
 7.443371e+00 -1.370988e+01 5.233037e-02 1.588725e+01 -1.761459e+01 1.897734e+01 -5.742939e+00 -7.758840e+00 6.369086e+00 -8.565561e+00 -5.828948e+00 4.865341e-01 7.050223e+01 -2.504103e-01 2.967206e-02 2.691161e-01 1.579502e-01 -8.007832e-02 3.401181e-02 4.784976e-02 1.986279e-01 1.647843e-01 2.801217e-01 1.662735e-02 1.864418e-01 -3.019645e-01 1.498611e-02 -2.058929e-01 -7.698007e-03 -2.181500e-02 1.583484e-02 -1.965767e-03 -5.041602e-02 -2.906696e-02 -3.943615e-02 -1.158927e-01 6.484047e-02 9.326381e-02 1.370385e-01
<VARIANCE> 39
 5.866863e+01 3.951389e+01 3.509765e+01 3.125843e+01 3.571721e+01 3.186440e+01 2.561861e+01 2.471863e+01 2.735966e+01 3.772021e+01 2.763957e+01 3.820959e+01 6.434844e+01 6.533026e-01 2.468424e+00 1.461305e+00 1.516301e+00 1.738585e+00 2.162554e+00 1.946029e+00 1.696249e+00 1.797181e+00 2.449513e+00 1.757761e+00 1.623229e+00 1.655354e+00 1.118972e-01 4.568438e-01 2.720502e-01 2.947903e-01 3.215182e-01 4.056664e-01 3.667931e-01 3.342334e-01 3.244129e-01 4.941384e-01 3.298074e-01 2.945505e-01 3.041043e-01
<GCONST> 1.098215e+02
<STATE> 4
<MEAN> 39
 7.158106e+00 -1.380370e+01 8.026362e-01 1.623091e+01 -1.789241e+01 1.908581e+01 -5.666108e+00 -7.337654e+00 6.797818e+00 -8.175056e+00 -5.769326e+00 6.725879e-01 7.024255e+01 -1.902861e-01 -3.353691e-01 2.410483e-01 8.795945e-02 -6.752906e-02 1.737843e-02 -3.777482e-02 1.424520e-01 6.216998e-02 1.439994e-02 1.388962e-01 3.663727e-01 -2.064902e-02 7.302096e-02 -2.304651e-01 -1.908693e-02 -4.889738e-02 3.377319e-02 -3.660500e-03 -6.904857e-02 -4.146666e-02 -4.488008e-02 -2.122027e-01 3.277640e-02 5.512293e-02 2.269671e-01
<VARIANCE> 39
 5.264625e+01 4.250246e+01 3.247448e+01 3.099151e+01 3.741004e+01 3.143443e+01 3.040885e+01 2.445180e+01 2.722094e+01 3.523893e+01 2.604520e+01 3.769267e+01 5.610807e+01 8.719379e-01 3.393054e+00 1.759521e+00 1.861109e+00 1.974614e+00 2.466732e+00 2.226097e+00 1.864066e+00 1.901371e+00 2.981101e+00 1.840668e+00 1.702610e+00 2.360233e+00 1.327410e-01 6.015357e-01 3.139980e-01 3.739258e-01 3.627944e-01 4.639283e-01 4.052614e-01 3.566076e-01 3.717242e-01 5.492830e-01 3.485788e-01 3.299657e-01 3.493861e-01
<GCONST> 1.135927e+02
<TRANSP> 5
 0.000000e+00 1.000000e+00 0.000000e+00 0.000000e+00 0.000000e+00
 0.000000e+00 5.485610e-01 4.514390e-01 0.000000e+00 0.000000e+00
 0.000000e+00 0.000000e+00 4.015677e-01 5.984323e-01 0.000000e+00
 0.000000e+00 0.000000e+00 0.000000e+00 4.529600e-01 5.470399e-01
 0.000000e+00 0.000000e+00 0.000000e+00 0.000000e+00 0.000000e+00
<ENDHMM>
~h "e"
<BEGINHMM>
<NUMSTATES> 5
<STATE> 2
<MEAN> 39
 1.142813e+01 -1.860377e+01 2.369767e-01 1.826179e+01 -1.200688e+01 1.933850e+01 -1.044860e+01 -1.111340e+01 5.935316e+00 -1.218939e+01 -1.115152e+00 3.426443e+00 7.820838e+01 3.163703e-01 -1.393411e-01 -2.616375e-01 4.708859e-02 2.934728e-01 -1.168795e-02 -5.275302e-01 -3.759662e-01 7.138303e-02 -2.201618e-01 3.628625e-01 1.825738e-01 4.115328e-01 -1.056596e-01 4.263225e-02 1.100538e-01 -1.780193e-02 -9.113698e-02 -1.826037e-03 1.244043e-01 5.580449e-02 -3.219999e-03 1.629121e-01 -4.172032e-02 -4.057394e-02 -1.189155e-01
<VARIANCE> 39
 1.956954e+01 3.721500e+01 4.348819e+01 3.755345e+01 3.210287e+01 3.248969e+01 3.450898e+01 2.615091e+01 2.664441e+01 3.250743e+01 2.156625e+01 3.062353e+01 2.922203e+01 1.771439e+00 4.026624e+00 3.382961e+00 2.601264e+00 2.848570e+00 2.974199e+00 3.112710e+00 2.127703e+00 2.158543e+00 3.585749e+00 1.762717e+00 2.383374e+00 2.486814e+00 3.018835e-01 6.845769e-01 5.797586e-01 4.431397e-01 5.250348e-01 5.744595e-01 5.620939e-01 3.983124e-01 4.154235e-01 6.401237e-01 3.256664e-01 4.323003e-01 3.971095e-01
<GCONST> 1.187730e+02
<STATE> 3
<MEAN> 39
 1.171277e+01 -1.874022e+01 8.807039e-02 1.837330e+01 -1.161106e+01 1.926307e+01 -1.115884e+01 -1.179336e+01 6.035549e+00 -1.194742e+01 -5.592985e-01 3.604223e+00 7.862067e+01 3.099141e-02 6.184722e-02 1.952835e-02 6.948821e-02 6.603880e-02 7.168422e-03 -7.908497e-02 -1.458490e-01 1.605119e-02 1.966418e-01 1.361539e-01 4.243977e-02 -1.969367e-02 -1.286607e-01 5.932172e-02 1.226476e-01 -1.886178e-04 -1.027871e-01 -4.000933e-03 1.904345e-01 1.228421e-01 -3.478720e-02 1.332803e-01 -1.055542e-01 -4.824812e-02 -1.667128e-01
<VARIANCE> 39
 1.661745e+01 2.834366e+01 4.091378e+01 3.795419e+01 3.244477e+01 3.101283e+01 3.377749e+01 2.538622e+01 2.691256e+01 3.126680e+01 2.115564e+01 3.077852e+01 2.615260e+01 1.489882e+00 3.164156e+00 3.348582e+00 2.623391e+00 2.700553e+00 2.727012e+00 3.033035e+00 1.886143e+00 2.166702e+00 3.275857e+00 1.739473e+00 2.114949e+00 2.550721e+00 2.446103e-01 5.958786e-01 5.431767e-01 4.425651e-01 5.095322e-01 5.130299e-01 5.373439e-01 3.591671e-01 4.099581e-01 6.131927e-01 3.228673e-01 4.042067e-01 3.800986e-01
<GCONST> 1.162663e+02
<STATE> 4
<MEAN> 39
 1.136401e+01 -1.827011e+01 5.804503e-01 1.902256e+01 -1.155555e+01 1.930287e+01 -1.093106e+01 -1.198861e+01 5.972387e+00 -1.072427e+01 -5.525904e-01 3.398260e+00 7.780212e+01 -2.241170e-01 1.538426e-01 1.948960e-01 3.858427e-02 -1.314380e-01 3.847572e-03 3.300967e-01 1.705264e-01 -7.986537e-02 3.397923e-01 -1.331236e-01 -5.171387e-02 -3.349555e-01 -8.717670e-02 -4.078283e-02 7.208516e-02 -5.789223e-02 -8.428297e-02 -9.899371e-03 9.688492e-02 9.875224e-02 -1.517041e-02 -3.340812e-03 -8.878998e-02 -3.134291e-02 -3.757771e-02
<VARIANCE> 39
 1.539285e+01 3.091007e+01 4.137047e+01 3.986290e+01 3.285982e+01 3.055987e+01 3.389080e+01 2.417876e+01 2.887807e+01 3.233001e+01 2.167552e+01 3.081817e+01 2.576424e+01 1.355193e+00 3.302693e+00 3.447332e+00 2.734119e+00 2.745450e+00 2.529185e+00 2.714168e+00 1.720708e+00 2.150186e+00 2.806534e+00 1.757320e+00 1.961333e+00 2.146513e+00 1.851843e-01 6.112915e-01 5.023072e-01 4.661277e-01 5.234452e-01 4.555646e-01 5.142570e-01 3.369940e-01 4.060861e-01 5.602016e-01 3.264132e-01 3.582443e-01 3.644559e-01
<GCONST> 1.150302e+02
<TRANSP> 5
 0.000000e+00 1.000000e+00 0.000000e+00 0.000000e+00 0.000000e+00
 0.000000e+00 5.641049e-01 4.358951e-01 0.000000e+00 0.000000e+00
 0.000000e+00 0.000000e+00 5.791295e-01 4.208705e-01 0.000000e+00
 0.000000e+00 0.000000e+00 0.000000e+00 7.202604e-01 2.797396e-01
 0.000000e+00 0.000000e+00 0.000000e+00 0.000000e+00 0.000000e+00
<ENDHMM>
~h "f"
<BEGINHMM>
<NUMSTATES> 5
<STATE> 2
<MEAN> 39
 -1.135783e+00 -2.101578e+01 -2.472095e+00 6.732561e+00 -2.246451e+01 1.593803e+01 -7.594558e+00 -2.087145e+00 8.041661e+00 -6.395780e+00 -3.705470e+00 3.567858e+00 6.614937e+01 3.160118e-01 1.332065e-01 -4.384758e-01 -4.746576e-01 -1.527428e-01 -2.444024e-01 -8.514348e-02 1.171837e-02 1.269152e-01 -1.483851e-01 -1.853517e-02 -1.352168e-01 3.171981e-01 3.880694e-01 1.645673e-01 -3.517015e-02 2.336381e-01 5.556849e-02 -7.243016e-02 -5.166232e-02 -1.514826e-01 2.489532e-02 -1.480369e-01 -8.862972e-03 -6.822667e-02 2.629991e-01
<VARIANCE> 39
 9.489265e+01 8.598679e+01 6.981317e+01 2.732002e+01 4.561262e+01 8.097430e+01 2.102822e+01 2.692367e+01 3.550547e+01 6.482728e+01 1.318677e+01 1.640656e+01 1.304334e+02 1.915700e+00 4.667293e+00 2.269490e+00 1.751483e+00 1.997209e+00 4.516186e+00 2.186556e+00 1.206819e+00 1.784472e+00 2.087102e+00 1.278909e+00 1.661224e+00 1.078632e+00 4.716005e-01 9.058186e-01 4.396079e-01 3.379852e-01 2.972889e-01 6.424565e-01 3.540746e-01 2.649166e-01 3.684721e-01 3.368050e-01 2.941636e-01 2.870518e-01 4.705760e-01
<GCONST> 1.175731e+02
<STATE> 3
<MEAN> 39
 5.052600e-01 -2.075585e+01 -1.967799e+00 6.617447e+00 -2.141463e+01 1.675546e+01 -7.525266e+00 -1.313694e+00 7.761040e+00 -9.153996e+00 -3.407213e+00 3.537745e+00 6.825205e+01 1.135917e+00 5.474708e-01 -4.356513e-01 1.640993e-01 2.257984e-01 -5.236927e-01 -1.092909e-01 -2.849274e-01 6.446111e-02 -4.727546e-01 -3.283315e-02 -2.168738e-01 9.034212e-01 4.598337e-01 9.412947e-02 2.079708e-02 4.025265e-01 6.085226e-02 -9.600289e-02 -2.418750e-02 -1.610972e-01 8.786774e-02 -1.179612e-01 -1.600308e-02 -4.283806e-02 3.296727e-01
<VARIANCE> 39
 1.237724e+02 9.046780e+01 6.877776e+01 2.830807e+01 4.855840e+01 8.424886e+01 1.835207e+01 2.592475e+01 4.262449e+01 5.142476e+01 1.779132e+01 1.779305e+01 1.507129e+02 3.435228e+00 7.527223e+00 2.856999e+00 2.448869e+00 2.429228e+00 4.847695e+00 2.446068e+00 1.551888e+00 2.312359e+00 2.113895e+00 1.993314e+00 2.216879e+00 3.257774e+00 6.595825e-01 1.128578e+00 5.210320e-01 4.041045e-01 4.255987e-01 9.684173e-01 3.353471e-01 2.676272e-01 4.363531e-01 3.745471e-01 3.000602e-01 2.586509e-01 7.363844e-01
<GCONST> 1.249497e+02
<STATE> 4
<MEAN> 39
 3.696296e+00 -1.970721e+01 -3.528271e+00 7.946965e+00 -2.059312e+01 1.300965e+01 -6.021030e+00 -1.653202e+00 7.409465e+00 -1.018392e+01 -3.588110e+00 3.005559e+00 7.173747e+01 2.132448e+00 1.365285e-01 -2.293070e-01 8.546487e-01 -1.849291e-01 -6.631181e-01 -6.419067e-02 -4.239703e-01 5.622543e-01 -7.220510e-01 -1.261721e-01 -2.633836e-01 2.014700e+00 -2.195974e-01 4.795046e-02 1.032648e-01 2.351990e-01 1.184122e-01 1.236407e-01 -9.314346e-02 -1.390016e-02 -1.315898e-02 7.562148e-02 2.012196e-02 2.280783e-02 -2.883813e-01
<VARIANCE> 39
 1.229732e+02 6.619871e+01 6.919190e+01 2.636022e+01 4.107456e+01 6.803265e+01 1.738891e+01 2.730554e+01 3.538855e+01 6.168723e+01 2.402293e+01 2.148837e+01 1.251568e+02 7.530249e+00 9.544596e+00 5.889205e+00 2.846644e+00 4.035326e+00 4.336749e+00 2.245034e+00 2.045585e+00 3.699725e+00 2.677266e+00 2.643737e+00 2.302581e+00 9.044601e+00 9.273084e-01 1.004291e+00 7.792197e-01 4.718500e-01 5.540576e-01 8.801537e-01 4.587975e-01 3.888054e-01 5.834162e-01 5.200123e-01 4.142160e-01 3.893370e-01 1.226038e+00
<GCONST> 1.325083e+02
<TRANSP> 5
 0.000000e+00 1.000000e+00 0.000000e+00 0.000000e+00 0.000000e+00
 0.000000e+00 4.791982e-01 5.208018e-01 0.000000e+00 0.000000e+00
 0.000000e+00 0.000000e+00 4.091070e-01 5.908930e-01 0.000000e+00
 0.000000e+00 0.000000e+00 0.000000e+00 7.006038e-01 2.993963e-01
 0.000000e+00 0.000000e+00 0.000000e+00 0.000000e+00 0.000000e+00
<ENDHMM>
~h "g"
<BEGINHMM>
<NUMSTATES> 5
<STATE> 2
<MEAN> 39
 8.239546e+00 -1.555506e+01 4.482914e+00 2.039034e+01 -1.232689e+01 2.084203e+01 -9.192471e+00 -8.970491e+00 7.176547e+00 -8.832014e+00 -1.918239e+00 7.754049e-01 7.351929e+01 -2.242037e-01 -6.012038e-01 4.586622e-01 4.521922e-01 4.006610e-01 9.403182e-02 -3.773676e-01 2.007325e-01 6.335774e-02 -1.662546e-01 2.409294e-01 1.496457e-01 1.494652e-01 1.008317e-01 -2.614779e-01 -9.931789e-02 -7.087497e-02 1.772092e-02 2.459385e-03 -3.286405e-02 7.685204e-03 2.753508e-02 -2.223468e-01 -5.842345e-02 3.404662e-02 2.434781e-01
<VARIANCE> 39
 4.383193e+01 8.005392e+01 4.938081e+01 2.981272e+01 3.451082e+01 3.502858e+01 3.455699e+01 3.859267e+01 2.750097e+01 4.039321e+01 2.228734e+01 2.476318e+01 4.659540e+01 1.609648e+00 7.901918e+00 2.793471e+00 2.411315e+00 2.976620e+00 2.842383e+00 3.398122e+00 3.679007e+00 2.048505e+00 4.532272e+00 1.894108e+00 2.510359e+00 2.982211e+00 2.648313e-01 1.619255e+00 4.852462e-01 4.653835e-01 5.956271e-01 5.769880e-01 5.955874e-01 7.375557e-01 3.773773e-01 7.523112e-01 3.709431e-01 5.023392e-01 4.803863e-01
<GCONST> 1.246899e+02
<STATE> 3
<MEAN> 39
 7.853516e+00 -1.709500e+01 5.177165e+00 2.092113e+01 -1.167318e+01 2.110857e+01 -9.743473e+00 -8.562599e+00 7.342184e+00 -9.203426e+00 -1.627296e+00 1.100706e+00 7.404042e+01 6.330886e-02 -1.001541e+00 1.528443e-01 2.642192e-01 4.726895e-01 9.434044e-02 -4.068887e-01 5.648229e-02 1.946628e-02 -5.879413e-01 9.974408e-02 1.260280e-01 6.594692e-01 2.011673e-01 -2.829223e-02 -2.375838e-01 -1.158403e-01 3.840338e-02 -6.135948e-02 -4.985293e-02 -1.463913e-01 -3.309560e-02 -2.179268e-01 -9.911384e-02 -5.624477e-02 2.283873e-01
<VARIANCE> 39
 3.632689e+01 8.371062e+01 4.045176e+01 2.906952e+01 3.224740e+01 3.450644e+01 3.334518e+01 3.939588e+01 2.736471e+01 3.893764e+01 2.309916e+01 2.371583e+01 4.342069e+01 2.248878e+00 9.031528e+00 3.361218e+00 2.697596e+00 3.446754e+00 3.186131e+00 3.323303e+00 4.228318e+00 2.166309e+00 4.909366e+00 2.216143e+00 2.548127e+00 3.578715e+00 2.790062e-01 1.897091e+00 5.291845e-01 5.000247e-01 6.285819e-01 6.215447e-01 5.974751e-01 8.510554e-01 3.929847e-01 7.616020e-01 3.699105e-01 5.104986e-01 5.097353e-01
<GCONST> 1.265064e+02
<STATE> 4
<MEAN> 39
 8.269842e+00 -1.977219e+01 5.024395e+00 2.093980e+01 -1.078434e+01 2.144956e+01 -1.031399e+01 -8.973213e+00 7.112593e+00 -1.064712e+01 -1.652869e+00 1.169060e+00 7.613667e+01 6.121733e-01 -5.817168e-01 -4.532434e-01 6.233369e-02 6.358084e-01 -1.279319e-01 -5.709184e-01 -5.050275e-01 -1.752802e-01 -1.027958e+00 -9.987059e-02 -1.537104e-01 1.046552e+00 1.551249e-01 3.756457e-01 -2.541654e-01 -1.053030e-01 8.901121e-03 -1.591772e-01 -1.374610e-02 -1.232394e-01 -3.746837e-02 -4.600871e-02 -8.161771e-02 -6.481075e-02 -2.432782e-02
<VARIANCE> 39
 2.078090e+01 6.846021e+01 3.562190e+01 3.076527e+01 3.381361e+01 3.811412e+01 3.375445e+01 3.538747e+01 2.569925e+01 4.046834e+01 2.709887e+01 2.271888e+01 3.389858e+01 2.379795e+00 9.224076e+00 3.466372e+00 3.098820e+00 3.843539e+00 3.684310e+00 3.310964e+00 4.462444e+00 2.455129e+00 4.516821e+00 2.290936e+00 2.578690e+00 3.203798e+00 3.368956e-01 1.720192e+00 5.586557e-01 5.552813e-01 6.463647e-01 6.898879e-01 6.292132e-01 8.748282e-01 4.413631e-01 8.254933e-01 4.345299e-01 5.077032e-01 5.154138e-01
<GCONST> 1.269253e+02
<TRANSP> 5
 0.000000e+00 1.000000e+00 0.000000e+00 0.000000e+00 0.000000e+00
 0.000000e+00 3.835591e-01 6.164410e-01 0.000000e+00 0.000000e+00
 0.000000e+00 0.000000e+00 4.077441e-01 5.922559e-01 0.000000e+00
 0.000000e+00 0.000000e+00 0.000000e+00 5.691623e-01 4.308377e-01
 0.000000e+00 0.000000e+00 0.000000e+00 0.000000e+00 0.000000e+00
<ENDHMM>
~h "h"
<BEGINHMM>
<NUMSTATES> 5
<STATE> 2
<MEAN> 39
 1.231147e+01 -1.866081e+01 -3.902579e+00 9.643951e+00 -2.187403e+01 1.704128e+01 -2.201688e+00 -1.824391e+00 1.052287e+01 -1.190392e+01 -2.918214e+00 4.174919e+00 7.824301e+01 2.023528e-01 -9.750406e-02 -4.259163e-01 -4.713708e-01 -2.944677e-01 -4.668462e-01 2.573296e-01 7.198046e-01 6.870949e-01 4.935369e-02 1.360782e-02 -4.012174e-02 3.238586e-01 -9.994056e-03 4.049104e-02 9.964508e-02 1.493305e-01 6.085909e-02 -6.928980e-02 -8.862548e-02 -1.030578e-01 -3.861974e-02 2.720278e-02 -2.608881e-02 -8.440769e-02 4.095934e-03
<VARIANCE> 39
 1.202713e+01 2.084841e+01 2.655890e+01 3.175739e+01 5.700820e+01 5.858614e+01 3.805766e+01 5.043259e+01 3.216172e+01 4.854618e+01 2.219838e+01 1.693261e+01 2.618621e+01 7.462803e-01 1.690724e+00 2.095052e+00 2.501189e+00 2.601518e+00 3.726377e+00 2.593192e+00 3.104201e+00 2.426656e+00 2.969693e+00 1.484385e+00 1.506356e+00 1.533907e+00 1.408704e-01 2.773757e-01 3.247898e-01 4.429476e-01 4.155002e-01 6.306491e-01 3.957428e-01 3.387468e-01 3.800828e-01 5.361331e-01 2.940802e-01 2.857739e-01 2.739399e-01
<GCONST> 1.117219e+02
<STATE> 3
<MEAN> 39
 1.296244e+01 -1.873744e+01 -4.587657e+00 9.022243e+00 -2.221934e+01 1.567296e+01 -1.939910e+00 -6.606350e-01 1.194826e+01 -1.183991e+01 -2.826847e+00 3.921049e+00 7.933659e+01 1.600016e-01 -4.005065e-03 -1.092987e-01 -1.248964e-01 -7.128096e-02 -4.480703e-01 -4.251483e-02 2.576031e-01 4.225245e-01 3.535488e-02 5.056220e-02 -1.341037e-01 3.388889e-01 -1.770987e-02 3.057448e-02 1.067977e-01 1.465196e-01 1.048026e-01 4.255737e-02 -1.415400e-01 -2.133946e-01 -1.023311e-01 -6.925123e-03 -1.900277e-03 -3.191606e-02 -1.314219e-02
<VARIANCE> 39
 9.667799e+00 1.711715e+01 2.519436e+01 2.794293e+01 4.955015e+01 5.603415e+01 3.990873e+01 6.307552e+01 2.857816e+01 4.358515e+01 1.971226e+01 1.493714e+01 2.122081e+01 6.702985e-01 1.395089e+00 1.869199e+00 2.281405e+00 2.499627e+00 3.374535e+00 2.745003e+00 2.786514e+00 2.045569e+00 2.266833e+00 1.163337e+00 1.130368e+00 1.269557e+00 1.102929e-01 2.378025e-01 2.888717e-01 4.158856e-01 3.782065e-01 5.163212e-01 4.003042e-01 3.081582e-01 3.046777e-01 4.226534e-01 2.424094e-01 2.437387e-01 1.854233e-01
<GCONST> 1.065173e+02
<STATE> 4
<MEAN> 39
 1.360880e+01 -1.833457e+01 -4.674695e+00 8.642071e+00 -2.248763e+01 1.438214e+01 -2.623279e+00 -5.797663e-01 1.337530e+01 -1.173848e+01 -2.708019e+00 3.523633e+00 8.044841e+01 5.836811e-02 1.197402e-01 1.665050e-01 3.003679e-01 2.515715e-01 3.908613e-02 -4.428778e-01 -4.940086e-01 1.312605e-03 9.089854e-02 6.536458e-02 -1.611695e-01 5.212405e-02 -2.706224e-02 2.046579e-02 6.313894e-02 1.312693e-01 9.262924e-02 1.111169e-01 -8.462732e-02 -1.508491e-01 -9.574762e-02 1.887912e-02 -1.564136e-02 -1.177198e-02 -8.553950e-02
<VARIANCE> 39
 7.018410e+00 1.424512e+01 2.415632e+01 3.458348e+01 5.012672e+01 5.919235e+01 3.389707e+01 7.060575e+01 2.892627e+01 3.611910e+01 1.815718e+01 1.677810e+01 1.572869e+01 5.123202e-01 1.138054e+00 1.303661e+00 2.084855e+00 2.221051e+00 3.596216e+00 2.398363e+00 2.122064e+00 1.927979e+00 1.910554e+00 1.214343e+00 1.181773e+00 1.051554e+00 8.568997e-02 2.098189e-01 2.338593e-01 3.504669e-01 3.554167e-01 5.282355e-01 4.060529e-01 3.455518e-01 3.004740e-01 3.580119e-01 2.035812e-01 2.002424e-01 1.393367e-01
<GCONST> 1.025359e+02
<TRANSP> 5
 0.000000e+00 1.000000e+00 0.000000e+00 0.000000e+00 0.000000e+00
 0.000000e+00 5.290517e-01 4.709482e-01 0.000000e+00 0.000000e+00
 0.000000e+00 0.000000e+00 5.885993e-01 4.114006e-01 0.000000e+00
 0.000000e+00 0.000000e+00 0.000000e+00 7.966798e-01 2.033202e-01
 0.000000e+00 0.000000e+00 0.000000e+00 0.000000e+00 0.000000e+00
<ENDHMM>
~h "i"
<BEGINHMM>
<NUMSTATES> 5
<STATE> 2
<MEAN> 39
 7.337648e+00 -1.773359e+01 3.428067e+00 2.105506e+01 -1.206362e+01 2.039539e+01 -8.338289e+00 -1.034600e+01 6.056020e+00 -8.319783e+00 -3.236561e+00 4.976293e-01 7.340852e+01 3.008725e-01 4.071369e-02 -1.381999e-01 3.632100e-01 2.603810e-01 1.756777e-01 -1.839922e-01 -2.894826e-01 7.988855e-02 -6.917319e-02 2.996417e-02 -2.234507e-01 1.550374e-01 -9.423540e-02 -5.437980e-02 1.917169e-02 -1.301132e-01 -6.833591e-02 -4.285628e-02 1.284468e-02 9.163027e-02 2.463860e-02 7.755658e-03 -1.855874e-02 2.018404e-02 -1.209908e-02
<VARIANCE> 39
 4.705328e+01 7.160632e+01 4.850548e+01 4.045219e+01 4.004104e+01 3.374641e+01 3.211919e+01 2.868758e+01 2.455336e+01 3.216025e+01 1.476641e+01 3.289118e+01 5.162056e+01 2.275536e+00 6.261440e+00 2.286370e+00 2.263122e+00 2.886007e+00 2.602961e+00 3.053402e+00 2.462377e+00 1.827811e+00 2.607563e+00 1.271766e+00 1.936100e+00 2.431591e+00 3.187590e-01 8.822781e-01 3.683538e-01 3.813387e-01 5.079113e-01 5.016010e-01 5.353851e-01 4.394755e-01 3.438045e-01 4.994529e-01 2.435876e-01 3.442865e-01 3.770034e-01
<GCONST> 1.186409e+02
<STATE> 3
<MEAN> 39
 8.005478e+00 -1.807662e+01 3.535736e+00 2.174960e+01 -1.149640e+01 2.077732e+01 -8.800176e+00 -1.076861e+01 6.376667e+00 -8.544719e+00 -3.221357e+00 8.329475e-02 7.415057e+01 9.003887e-02 -1.400259e-02 -1.095117e-01 8.252729e-02 8.568481e-02 7.558726e-02 -9.176694e-02 -7.036940e-02 7.376646e-02 -7.774128e-03 1.633238e-02 -1.336736e-01 5.245421e-02 -8.705556e-02 -3.614992e-02 3.117980e-02 -1.475018e-01 -1.215703e-01 -4.240019e-02 7.070937e-02 1.000192e-01 -8.368081e-03 2.313840e-02 -2.205316e-02 7.081225e-02 -2.956410e-02
<VARIANCE> 39
 3.443399e+01 7.023022e+01 4.139490e+01 3.515903e+01 3.930975e+01 3.056946e+01 3.238039e+01 2.720703e+01 2.414824e+01 3.146178e+01 1.445722e+01 3.478914e+01 3.840001e+01 1.720966e+00 5.638837e+00 2.289053e+00 2.158085e+00 2.610931e+00 2.440086e+00 3.031743e+00 2.233695e+00 1.821916e+00 2.420740e+00 1.243247e+00 1.853453e+00 2.140215e+00 2.309886e-01 8.203225e-01 3.613080e-01 3.700413e-01 4.849851e-01 4.677893e-01 5.581564e-01 4.149507e-01 3.456057e-01 4.955710e-01 2.429202e-01 3.359093e-01 3.449931e-01
<GCONST> 1.158829e+02
<STATE> 4
<MEAN> 39
 7.217955e+00 -1.811909e+01 2.695759e+00 2.130406e+01 -1.202441e+01 2.070604e+01 -8.883064e+00 -1.085578e+01 6.200823e+00 -7.781548e+00 -3.572253e+00 5.845022e-02 7.293258e+01 -8.602847e-02 -4.994310e-04 -1.271067e-01 -1.969837e-01 -1.704437e-01 -7.605821e-03 9.779709e-02 1.296352e-01 -2.371281e-02 2.940803e-02 -1.007633e-02 6.499186e-02 -1.198091e-01 -3.986505e-02 -2.296475e-02 1.314719e-02 -1.111091e-01 -8.234026e-02 -3.986602e-02 4.806760e-02 6.546526e-02 -1.174503e-02 -2.124913e-02 -2.208009e-02 6.087751e-02 2.403908e-03
<VARIANCE> 39
 3.401897e+01 6.984629e+01 4.482788e+01 3.685390e+01 3.806850e+01 2.750205e+01 3.025069e+01 2.680746e+01 2.327492e+01 3.029915e+01 1.592960e+01 3.682021e+01 4.374689e+01 1.158348e+00 4.180114e+00 2.134137e+00 1.927607e+00 2.135729e+00 2.151961e+00 2.575470e+00 1.882674e+00 1.824643e+00 2.184106e+00 1.298971e+00 1.675651e+00 1.725197e+00 1.572272e-01 6.606919e-01 3.284221e-01 3.352895e-01 4.150929e-01 4.151343e-01 4.975370e-01 3.511327e-01 3.320672e-01 4.344874e-01 2.476139e-01 3.050579e-01 2.908541e-01
<GCONST> 1.122966e+02
<TRANSP> 5
 0.000000e+00 1.000000e+00 0.000000e+00 0.000000e+00 0.000000e+00
 0.000000e+00 4.168871e-01 5.831129e-01 0.000000e+00 0.000000e+00
 0.000000e+00 0.000000e+00 4.369479e-01 5.630521e-01 0.000000e+00
 0.000000e+00 0.000000e+00 0.000000e+00 6.229699e-01 3.770300e-01
 0.000000e+00 0.000000e+00 0.000000e+00 0.000000e+00 0.000000e+00
<ENDHMM>
~h "j"
<BEGINHMM>
<NUMSTATES> 5
<STATE> 2
<MEAN> 39
 1.095206e+01 -1.821807e+01 4.285613e+00 1.901003e+01 -1.398515e+01 1.814546e+01 -1.137945e+01 -8.669132e+00 1.038822e+01 -1.213302e+01 -3.332302e+00 1.018452e+00 7.834975e+01 -1.039679e-01 1.758396e-01 6.079967e-01 7.376520e-01 7.044002e-02 1.944625e-01 5.536938e-01 8.895928e-02 -3.233599e-01 2.393731e-01 8.847187e-02 -2.890812e-01 -1.835990e-01 -1.341934e-01 -1.300189e-01 1.266442e-01 4.517310e-02 -1.200732e-01 -6.463590e-02 1.935354e-01 7.993363e-02 -5.619343e-02 1.350581e-01 -4.088449e-02 -5.512401e-03 -3.515241e-02
<VARIANCE> 39
 1.098659e+01 3.622231e+01 4.931710e+01 4.785805e+01 9.068935e+01 4.749390e+01 3.491677e+01 2.429494e+01 3.645183e+01 4.495897e+01 4.315639e+01 4.502932e+01 1.378156e+01 1.043304e+00 4.692072e+00 2.792644e+00 3.174402e+00 4.185758e+00 2.331800e+00 2.310044e+00 1.747594e+00 1.807117e+00 3.049468e+00 2.458286e+00 1.693053e+00 1.918625e+00 1.427620e-01 1.033104e+00 4.791949e-01 5.188756e-01 9.072409e-01 5.349654e-01 4.462545e-01 3.428513e-01 3.686531e-01 5.528139e-01 4.562679e-01 2.775311e-01 3.667485e-01
<GCONST> 1.188009e+02
<STATE> 3
<MEAN> 39
 9.662750e+00 -1.890559e+01 7.920272e+00 2.060781e+01 -1.560019e+01 1.868410e+01 -7.582489e+00 -7.924973e+00 8.682157e+00 -1.119205e+01 -3.596441e+00 2.638744e-01 7.813959e+01 -4.263468e-01 -4.743975e-01 9.241805e-01 3.735548e-01 -2.185975e-01 6.905917e-02 5.516781e-01 1.490488e-01 -2.746696e-01 1.210280e-01 2.620528e-02 3.576321e-02 7.782187e-02 -6.957123e-02 -1.259103e-01 1.819956e-02 -1.101985e-01 -2.442157e-02 -5.132880e-02 -5.483212e-02 3.291242e-02 4.965424e-02 -2.621520e-02 -1.732227e-02 1.240990e-01 4.774634e-02
<VARIANCE> 39
 1.541127e+01 3.823318e+01 6.786627e+01 3.167531e+01 7.146914e+01 5.068503e+01 3.200339e+01 2.572227e+01 3.130786e+01 4.383713e+01 3.445728e+01 3.546161e+01 1.445443e+01 1.644513e+00 4.393568e+00 5.906843e+00 2.758906e+00 3.744754e+00 2.261418e+00 2.265100e+00 1.864298e+00 1.791442e+00 2.544647e+00 3.062703e+00 1.485848e+00 1.425344e+00 1.519251e-01 7.146752e-01 6.726773e-01 4.133871e-01 7.478156e-01 4.669444e-01 4.154927e-01 3.909802e-01 3.597579e-01 3.864154e-01 6.186984e-01 2.590170e-01 2.408886e-01
<GCONST> 1.177755e+02
<STATE> 4
<MEAN> 39
 8.751059e+00 -2.034968e+01 9.148717e+00 2.024865e+01 -1.716824e+01 1.824211e+01 -5.487834e+00 -6.054996e+00 7.726641e+00 -1.218358e+01 -3.885507e+00 1.931742e+00 7.826718e+01 -4.689095e-02 -2.117642e-01 -2.394462e-01 -1.623115e-01 2.742769e-01 -3.284318e-03 9.175748e-02 1.797924e-01 5.307599e-03 -2.320495e-01 -6.691130e-02 3.248393e-01 1.570719e-01 7.612202e-02 8.049848e-02 -2.157514e-01 -4.054385e-02 8.229561e-02 -1.990720e-02 -9.962956e-02 -6.725185e-02 2.734845e-02 4.073917e-03 4.502816e-02 -1.274223e-03 -5.048615e-03
<VARIANCE> 39
 2.442406e+01 5.718222e+01 7.630556e+01 3.635123e+01 5.373118e+01 5.704004e+01 2.610909e+01 3.285263e+01 2.405167e+01 3.948318e+01 3.174430e+01 4.214531e+01 1.148759e+01 1.678315e+00 4.536002e+00 5.525244e+00 2.002375e+00 3.142315e+00 2.391072e+00 1.811097e+00 1.769415e+00 2.580036e+00 2.832708e+00 2.910499e+00 1.858172e+00 1.140537e+00 1.171566e-01 6.464885e-01 5.286698e-01 3.306555e-01 5.444641e-01 4.714659e-01 3.218769e-01 3.540473e-01 5.545803e-01 4.657096e-01 5.628688e-01 2.738160e-01 1.895257e-01
<GCONST> 1.168052e+02
<TRANSP> 5
 0.000000e+00 1.000000e+00 0.000000e+00 0.000000e+00 0.000000e+00
 0.000000e+00 8.188421e-01 1.811579e-01 0.000000e+00 0.000000e+00
 0.000000e+00 0.000000e+00 7.955157e-01 2.044843e-01 0.000000e+00
 0.000000e+00 0.000000e+00 0.000000e+00 8.943170e-01 1.056830e-01
 0.000000e+00 0.000000e+00 0.000000e+00 0.000000e+00 0.000000e+00
<ENDHMM>
~h "k"
<BEGINHMM>
<NUMSTATES> 5
<STATE> 2
<MEAN> 39
 5.848509e+00 -1.897115e+01 2.267776e+00 1.683570e+01 -1.713259e+01 2.058976e+01 -7.209871e+00 -8.170452e+00 5.307039e+00 -7.602081e+00 -3.490826e+00 2.542005e+00 7.109049e+01 -3.443035e-01 -1.292178e+00 1.425322e-01 -8.914599e-01 -5.741172e-01 1.934800e-01 6.501868e-02 2.668660e-01 -2.103317e-01 -4.949923e-01 -5.142342e-02 1.603618e-02 4.627732e-01 2.009527e-01 -2.384965e-01 -3.598583e-02 -2.228565e-01 -1.261470e-02 -7.045915e-03 1.421234e-02 -7.079694e-02 2.981536e-02 -2.598828e-01 2.030541e-02 -1.182338e-01 4.683196e-01
<VARIANCE> 39
 2.352745e+01 6.591570e+01 3.515833e+01 5.602335e+01 5.760522e+01 3.346750e+01 3.497017e+01 3.830404e+01 3.039188e+01 3.172297e+01 2.600314e+01 2.373716e+01 2.933752e+01 1.746980e+00 7.831021e+00 2.738862e+00 5.061678e+00 4.768168e+00 3.590886e+00 3.418319e+00 3.041606e+00 2.594335e+00 3.726617e+00 2.504990e+00 2.135357e+00 4.335552e+00 2.658768e-01 1.674891e+00 4.720346e-01 1.022878e+00 8.846290e-01 7.017639e-01 6.204696e-01 6.116614e-01 5.135328e-01 7.547213e-01 4.781362e-01 3.973091e-01 7.401221e-01
<GCONST> 1.279963e+02
<STATE> 3
<MEAN> 39
 5.791625e+00 -2.210744e+01 2.467578e+00 1.442769e+01 -1.842664e+01 2.112977e+01 -7.011205e+00 -7.828617e+00 4.906471e+00 -9.274689e+00 -3.487644e+00 2.305022e+00 7.315553e+01 1.955807e-01 -1.097463e+00 -3.448907e-02 -9.063393e-01 -3.497489e-01 1.073123e-01 1.358798e-01 4.510753e-02 -9.425154e-02 -7.528672e-01 3.966035e-02 -1.671129e-01 1.061259e+00 2.299255e-01 2.928340e-01 -6.823849e-02 2.149976e-01 2.576034e-01 -1.100943e-01 -2.842162e-02 -1.181803e-01 1.076096e-01 -9.261729e-04 1.169729e-02 -6.240173e-02 1.416918e-01
<VARIANCE> 39
 2.123276e+01 7.117316e+01 3.658986e+01 6.377486e+01 6.720609e+01 4.211410e+01 3.879911e+01 3.920903e+01 3.557565e+01 3.451044e+01 2.692168e+01 2.281030e+01 2.991158e+01 2.479504e+00 9.665335e+00 3.111909e+00 6.898960e+00 6.593127e+00 4.134964e+00 3.710150e+00 3.773971e+00 3.190527e+00 3.879953e+00 2.835615e+00 2.374755e+00 4.035857e+00 3.262027e-01 1.841920e+00 5.593944e-01 1.272107e+00 1.093575e+00 7.866385e-01 6.527634e-01 6.316381e-01 6.055168e-01 7.894238e-01 5.407655e-01 4.362337e-01 7.604092e-01
<GCONST> 1.326235e+02
<STATE> 4
<MEAN> 39
 6.756464e+00 -2.325876e+01 2.253727e+00 1.346410e+01 -1.843391e+01 2.109745e+01 -6.771958e+00 -8.101391e+00 5.121937e+00 -1.050293e+01 -3.408550e+00 1.894296e+00 7.530841e+01 5.847034e-01 7.791176e-02 -1.630624e-01 2.468155e-02 4.136452e-01 -2.248311e-01 -4.140777e-02 -1.780461e-01 2.614551e-01 -4.024133e-01 -2.515234e-02 -2.755437e-01 8.584185e-01 8.747578e-02 4.185266e-01 5.347879e-03 3.425263e-01 2.540532e-01 -1.098890e-01 -8.488154e-02 -4.202985e-02 1.483528e-01 1.455120e-01 -2.954601e-02 -1.202945e-02 -1.145730e-01
<VARIANCE> 39
 2.368358e+01 5.924269e+01 4.057858e+01 6.357295e+01 7.608978e+01 4.471286e+01 4.041945e+01 4.069394e+01 3.900536e+01 3.656975e+01 2.766418e+01 2.329282e+01 2.817173e+01 2.677662e+00 8.781944e+00 3.260267e+00 6.746202e+00 6.430387e+00 4.297651e+00 3.170710e+00 3.622614e+00 3.284976e+00 3.739326e+00 2.585130e+00 2.416781e+00 3.140745e+00 3.903898e-01 1.585419e+00 6.002951e-01 1.235827e+00 1.147848e+00 7.754077e-01 6.378253e-01 6.373533e-01 6.348850e-01 7.611127e-01 5.871223e-01 4.549434e-01 6.040674e-01
<GCONST> 1.325334e+02
<TRANSP> 5
 0.000000e+00 1.000000e+00 0.000000e+00 0.000000e+00 0.000000e+00
 0.000000e+00 4.931204e-01 5.068796e-01 0.000000e+00 0.000000e+00
 0.000000e+00 0.000000e+00 5.042230e-01 4.957770e-01 0.000000e+00
 0.000000e+00 0.000000e+00 0.000000e+00 5.927390e-01 4.072609e-01
 0.000000e+00 0.000000e+00 0.000000e+00 0.000000e+00 0.000000e+00
<ENDHMM>
~h "l"
<BEGINHMM>
<NUMSTATES> 5
<STATE> 2
<MEAN> 39
 1.093629e+01 -1.606977e+01 1.196529e+00 1.784372e+01 -1.553278e+01 1.800287e+01 -6.943465e+00 -7.881940e+00 6.805307e+00 -1.189980e+01 -5.045057e+00 6.571456e-01 7.609382e+01 4.744065e-02 2.188912e-01 -1.209594e-01 2.143369e-01 1.422107e-01 8.241312e-02 1.045316e-01 -7.745278e-02 -2.315759e-01 -8.373663e-03 -3.972568e-03 6.543946e-02 -1.794091e-01 -6.929500e-02 -6.540132e-02 4.136416e-02 -4.747139e-02 -5.709055e-02 -1.791480e-02 1.844885e-02 7.412645e-02 5.187066e-02 1.165463e-02 -1.571641e-02 1.608275e-02 -2.141629e-02
<VARIANCE> 39
 2.449025e+01 5.025573e+01 4.674686e+01 4.617084e+01 5.705568e+01 4.441022e+01 2.922485e+01 4.053437e+01 3.474258e+01 3.824299e+01 2.948422e+01 3.849731e+01 3.212592e+01 1.138614e+00 2.485129e+00 2.529191e+00 2.194099e+00 2.987330e+00 2.905082e+00 1.984976e+00 2.301426e+00 2.168763e+00 2.771966e+00 1.885151e+00 1.939067e+00 1.296161e+00 1.634700e-01 4.172163e-01 3.959024e-01 3.685952e-01 4.944711e-01 5.302160e-01 3.752452e-01 4.230300e-01 3.637530e-01 5.217716e-01 3.471565e-01 3.461582e-01 2.210698e-01
<GCONST> 1.157845e+02
<STATE> 3
<MEAN> 39
 1.093200e+01 -1.576831e+01 1.163587e+00 1.815611e+01 -1.547763e+01 1.823773e+01 -6.720490e+00 -7.856762e+00 6.603041e+00 -1.186793e+01 -5.130617e+00 6.788136e-01 7.571763e+01 -3.184669e-02 1.303823e-01 -4.884023e-02 1.155834e-01 -7.056641e-03 1.777243e-02 1.445687e-01 6.859400e-02 -1.043267e-01 9.895803e-03 -5.130251e-02 4.717106e-02 -1.938323e-01 -3.319183e-02 -6.035968e-02 9.730549e-03 -7.568853e-02 -5.053814e-02 -6.294908e-02 -2.631233e-03 5.511212e-02 6.006238e-02 6.642969e-03 -1.103911e-02 1.643411e-03 2.853178e-02
<VARIANCE> 39
 2.308375e+01 4.849453e+01 4.458973e+01 4.202724e+01 5.402769e+01 4.212307e+01 2.890513e+01 3.848396e+01 3.338205e+01 3.700817e+01 2.877742e+01 3.907032e+01 3.156446e+01 9.368581e-01 2.335502e+00 2.200337e+00 2.060978e+00 2.668269e+00 2.817368e+00 2.028759e+00 2.063713e+00 2.026993e+00 2.595832e+00 1.796104e+00 1.843834e+00 1.206733e+00 1.393664e-01 4.166534e-01 3.858733e-01 3.457029e-01 4.618535e-01 5.231562e-01 3.842818e-01 4.121816e-01 3.600236e-01 5.034748e-01 3.320973e-01 3.453919e-01 2.156375e-01
<GCONST> 1.138329e+02
<STATE> 4
<MEAN> 39
 1.085631e+01 -1.557436e+01 1.085515e+00 1.839542e+01 -1.562612e+01 1.845386e+01 -6.530044e+00 -7.747338e+00 6.597868e+00 -1.182931e+01 -5.553975e+00 4.803176e-01 7.520501e+01 -7.656685e-02 5.196819e-02 -7.018075e-02 -4.000404e-02 -8.968611e-02 -1.028023e-01 9.988903e-02 1.374903e-01 3.499612e-04 4.156024e-02 -6.645841e-02 3.249254e-02 -1.463819e-01 -1.008710e-02 -6.707171e-02 -2.182429e-02 -8.623263e-02 -1.504591e-02 -5.674007e-02 -3.777507e-02 8.071624e-03 4.051611e-02 -2.329750e-04 2.153026e-02 2.351555e-02 6.652879e-02
<VARIANCE> 39
 2.134625e+01 4.691941e+01 4.071135e+01 4.010180e+01 4.986122e+01 4.024173e+01 3.200953e+01 3.473711e+01 3.174239e+01 3.448009e+01 2.889550e+01 3.900673e+01 2.981316e+01 8.285791e-01 2.486131e+00 2.079189e+00 2.098295e+00 2.399538e+00 2.815544e+00 2.260131e+00 2.023738e+00 1.991133e+00 2.603396e+00 1.763866e+00 1.955934e+00 1.221829e+00 1.171464e-01 4.124628e-01 3.542559e-01 3.528268e-01 4.285118e-01 4.954600e-01 4.048966e-01 3.727474e-01 3.643928e-01 4.907475e-01 3.091772e-01 3.604201e-01 2.079314e-01
<GCONST> 1.126973e+02
<TRANSP> 5
 0.000000e+00 1.000000e+00 0.000000e+00 0.000000e+00 0.000000e+00
 0.000000e+00 3.288541e-01 6.711460e-01 0.000000e+00 0.000000e+00
 0.000000e+00 0.000000e+00 3.513279e-01 6.486720e-01 0.000000e+00
 0.000000e+00 0.000000e+00 0.000000e+00 5.020942e-01 4.979059e-01
 0.000000e+00 0.000000e+00 0.000000e+00 0.000000e+00 0.000000e+00
<ENDHMM>
~h "m"
<BEGINHMM>
<NUMSTATES> 5
<STATE> 2
<MEAN> 39
 1.142001e+01 -1.195731e+01 6.403844e-01 1.759688e+01 -1.547284e+01 2.190986e+01 -3.723789e+00 -8.528706e+00 7.881231e+00 -7.955328e+00 -3.905844e+00 -7.208586e-01 7.377000e+01 1.898248e-01 9.310050e-01 -1.240502e-02 2.034442e-01 1.221317e-01 4.949008e-01 2.491968e-01 -2.453097e-01 -2.176185e-02 4.261027e-01 -2.300890e-03 -3.938982e-01 -4.744165e-01 -6.473739e-02 -2.856255e-01 5.939728e-02 -6.270590e-02 -2.603229e-02 -1.836462e-01 -9.204015e-02 9.841076e-02 4.328102e-03 -1.755767e-01 2.617547e-02 1.647227e-01 1.870212e-01
<VARIANCE> 39
 2.656813e+01 5.842244e+01 2.785662e+01 2.315122e+01 2.652888e+01 3.446043e+01 1.639126e+01 2.181065e+01 1.944936e+01 2.491090e+01 1.609512e+01 2.725305e+01 2.325452e+01 1.020803e+00 3.485209e+00 1.565830e+00 1.633318e+00 1.685489e+00 2.476198e+00 1.616085e+00 1.931717e+00 1.420533e+00 2.459285e+00 1.082326e+00 1.903849e+00 1.158177e+00 1.361247e-01 4.740839e-01 2.856151e-01 3.387236e-01 2.997953e-01 5.255667e-01 3.313047e-01 3.969791e-01 2.673524e-01 5.076243e-01 2.199965e-01 3.237008e-01 1.894294e-01
<GCONST> 1.052445e+02
<STATE> 3
<MEAN> 39
 1.165437e+01 -1.080525e+01 6.976048e-01 1.788345e+01 -1.541381e+01 2.242884e+01 -3.399703e+00 -8.800192e+00 7.841149e+00 -7.530904e+00 -3.909076e+00 -1.153277e+00 7.324630e+01 1.062782e-01 3.756823e-01 2.582438e-02 1.005430e-01 1.317291e-01 7.016183e-02 1.678591e-03 -9.238902e-03 1.173422e-02 3.648784e-02 2.835698e-02 -5.489513e-02 -1.002426e-01 -4.382031e-02 -3.838140e-01 -1.573704e-02 -9.656245e-02 -4.392022e-04 -2.914978e-01 -1.886373e-01 1.686666e-01 4.769259e-02 -2.579049e-01 2.945152e-02 2.212496e-01 2.494020e-01
<VARIANCE> 39
 2.211403e+01 4.711468e+01 2.325115e+01 2.119545e+01 2.700340e+01 2.880723e+01 1.722544e+01 2.019228e+01 1.794244e+01 2.364442e+01 1.459397e+01 2.330688e+01 2.062787e+01 1.058531e+00 3.960852e+00 1.512163e+00 1.694152e+00 1.611137e+00 2.870829e+00 1.805041e+00 1.989497e+00 1.391907e+00 2.709997e+00 1.028775e+00 2.100283e+00 1.109156e+00 1.395747e-01 5.014073e-01 2.791731e-01 3.796571e-01 3.225908e-01 6.040795e-01 3.530239e-01 4.425456e-01 2.610888e-01 5.010759e-01 2.118942e-01 3.425163e-01 1.902547e-01
<GCONST> 1.049143e+02
<STATE> 4
<MEAN> 39
 1.146653e+01 -1.066073e+01 6.712028e-01 1.769768e+01 -1.551446e+01 2.213904e+01 -3.352371e+00 -8.560096e+00 7.573225e+00 -7.681378e+00 -4.201194e+00 -8.025088e-01 7.297086e+01 -1.515227e-02 -2.885134e-01 -5.643295e-02 -5.369656e-02 1.696885e-01 -4.395792e-01 -3.772479e-01 3.053791e-01 1.221606e-01 -3.522103e-01 8.025710e-02 3.260081e-01 2.354933e-01 -5.815404e-02 -3.866466e-01 -2.075819e-02 -1.021679e-01 -1.433981e-02 -2.227158e-01 -1.842839e-01 1.281057e-01 5.758783e-02 -2.045855e-01 3.735008e-02 1.936627e-01 2.096743e-01
<VARIANCE> 39
 2.079825e+01 4.175629e+01 2.149514e+01 2.455241e+01 3.074547e+01 2.873011e+01 2.126153e+01 2.081258e+01 1.944769e+01 2.617230e+01 1.520353e+01 2.295733e+01 2.350404e+01 1.253938e+00 4.573528e+00 1.863969e+00 2.207281e+00 1.814488e+00 3.397173e+00 2.194462e+00 2.213361e+00 1.536349e+00 2.982562e+00 1.186989e+00 2.375845e+00 1.275595e+00 1.505001e-01 5.967557e-01 3.187194e-01 4.119358e-01 3.402349e-01 6.744560e-01 4.113692e-01 4.631280e-01 2.959127e-01 5.218217e-01 2.276887e-01 3.617626e-01 1.971540e-01
<GCONST> 1.086373e+02
<TRANSP> 5
 0.000000e+00 1.000000e+00 0.000000e+00 0.000000e+00 0.000000e+00
 0.000000e+00 3.955547e-01 6.044454e-01 0.000000e+00 0.000000e+00
 0.000000e+00 0.000000e+00 3.980683e-01 6.019317e-01 0.000000e+00
 0.000000e+00 0.000000e+00 0.000000e+00 5.001801e-01 4.998199e-01
 0.000000e+00 0.000000e+00 0.000000e+00 0.000000e+00 0.000000e+00
<ENDHMM>
~h "n"
<BEGINHMM>
<NUMSTATES> 5
<STATE> 2
<MEAN> 39
 1.269229e+01 -1.282956e+01 4.832127e-01 1.806058e+01 -1.528450e+01 1.979831e+01 -5.865674e+00 -8.283832e+00 8.388006e+00 -9.843266e+00 -3.798969e+00 -3.839653e-01 7.561544e+01 3.946422e-02 4.098646e-01 1.097579e-01 3.507639e-01 1.317053e-01 2.938916e-01 1.252318e-01 -2.427310e-01 -8.804230e-02 3.619758e-01 -4.079375e-02 -3.507920e-01 -2.904576e-01 -7.250274e-02 -1.405292e-01 2.779946e-03 -6.539000e-02 -4.008026e-02 -9.705439e-02 9.025393e-03 5.976206e-02 -2.728988e-02 -5.146076e-02 1.295596e-02 1.167365e-01 4.128649e-02
<VARIANCE> 39
 1.382991e+01 3.594889e+01 3.120837e+01 2.962544e+01 3.429425e+01 3.742579e+01 3.471027e+01 3.217739e+01 2.755392e+01 3.019390e+01 2.261295e+01 3.657398e+01 2.108770e+01 7.019382e-01 3.418401e+00 1.788629e+00 1.921660e+00 2.264677e+00 3.193707e+00 2.368461e+00 2.276516e+00 2.121150e+00 2.799308e+00 1.335891e+00 2.478567e+00 1.566177e+00 1.083237e-01 5.638295e-01 2.697883e-01 3.354696e-01 3.883107e-01 5.643285e-01 4.274930e-01 4.003915e-01 3.822334e-01 4.936797e-01 2.428543e-01 4.110223e-01 2.224264e-01
<GCONST> 1.106258e+02
<STATE> 3
<MEAN> 39
 1.266661e+01 -1.228587e+01 6.825913e-01 1.854050e+01 -1.514449e+01 2.014375e+01 -5.576079e+00 -8.635909e+00 8.112187e+00 -9.326485e+00 -3.831921e+00 -7.417883e-01 7.518378e+01 -8.866820e-02 1.574164e-01 9.488955e-02 1.716384e-01 3.194102e-02 8.980544e-02 1.305871e-01 -7.741779e-02 -1.152658e-01 2.355388e-01 3.675041e-03 -4.818936e-02 -2.106003e-01 -6.570002e-02 -1.483004e-01 2.703327e-03 -8.829714e-02 -3.642655e-02 -1.114914e-01 -2.293061e-02 1.013177e-01 7.014122e-03 -7.983185e-02 2.790050e-02 1.519861e-01 5.629500e-02
<VARIANCE> 39
 1.252731e+01 3.557940e+01 2.818204e+01 2.644568e+01 3.098947e+01 3.316792e+01 3.478326e+01 2.906295e+01 2.664042e+01 3.005556e+01 2.147620e+01 3.439823e+01 1.977077e+01 6.115084e-01 3.363872e+00 1.717344e+00 1.741620e+00 2.125200e+00 2.957377e+00 2.422824e+00 2.234616e+00 2.097800e+00 2.742131e+00 1.371260e+00 2.570234e+00 1.497208e+00 8.967152e-02 5.626519e-01 2.697361e-01 3.058542e-01 3.774419e-01 5.553838e-01 4.328113e-01 4.161429e-01 3.979266e-01 4.970535e-01 2.523066e-01 4.293761e-01 2.222151e-01
<GCONST> 1.091707e+02
<STATE> 4
<MEAN> 39
 1.235992e+01 -1.198564e+01 1.080883e+00 1.873332e+01 -1.533501e+01 2.020750e+01 -5.355642e+00 -8.543125e+00 7.899403e+00 -9.008952e+00 -3.725251e+00 -4.686080e-01 7.469061e+01 -2.234270e-01 -8.999731e-02 1.291524e-01 3.116417e-02 -2.074116e-02 -1.109297e-01 2.935563e-02 1.492025e-01 -4.661877e-02 8.283435e-02 5.143888e-02 2.199626e-01 -1.408392e-01 -5.947472e-02 -1.623850e-01 1.611667e-02 -8.293676e-02 3.566750e-04 -6.763441e-02 -5.787724e-02 8.077553e-02 2.536377e-02 -8.866378e-02 4.754435e-03 9.159659e-02 7.092910e-02
<VARIANCE> 39
 1.092008e+01 3.760313e+01 2.841838e+01 2.579585e+01 2.991767e+01 3.136968e+01 3.504256e+01 2.767858e+01 2.440334e+01 3.289805e+01 2.215023e+01 3.478792e+01 1.971040e+01 6.433150e-01 3.211045e+00 1.790303e+00 1.760160e+00 2.056650e+00 2.784932e+00 2.352901e+00 2.257557e+00 2.050007e+00 2.605481e+00 1.502279e+00 2.413342e+00 1.393565e+00 8.432659e-02 5.816363e-01 2.769200e-01 3.051537e-01 3.743268e-01 5.038041e-01 4.362659e-01 4.085138e-01 3.935677e-01 4.853781e-01 2.767060e-01 4.267394e-01 2.193563e-01
<GCONST> 1.087262e+02
<TRANSP> 5
 0.000000e+00 1.000000e+00 0.000000e+00 0.000000e+00 0.000000e+00
 0.000000e+00 4.334499e-01 5.665501e-01 0.000000e+00 0.000000e+00
 0.000000e+00 0.000000e+00 4.700164e-01 5.299836e-01 0.000000e+00
 0.000000e+00 0.000000e+00 0.000000e+00 6.153761e-01 3.846239e-01
 0.000000e+00 0.000000e+00 0.000000e+00 0.000000e+00 0.000000e+00
<ENDHMM>
~h "o"
<BEGINHMM>
<NUMSTATES> 5
<STATE> 2
<MEAN> 39
 9.992762e+00 -1.725097e+01 1.006529e+00 1.316699e+01 -2.104711e+01 1.482590e+01 -6.660231e+00 -2.672291e+00 1.099586e+01 -1.205741e+01 -7.823947e+00 5.503511e-01 7.576591e+01 1.184630e+00 8.983610e-01 -5.072256e-01 -5.299869e-02 -9.042652e-01 -1.329863e+00 -1.233940e-01 9.494321e-01 1.187836e+00 -6.940965e-01 -7.682865e-01 -9.014796e-01 6.089112e-01 1.431581e-02 6.254017e-02 1.378736e-01 4.052328e-02 -8.603521e-02 -1.720580e-01 -6.626406e-02 -3.166294e-02 8.223198e-02 4.352286e-02 8.231511e-02 -9.055666e-02 9.573837e-02
<VARIANCE> 39
 3.733802e+01 8.288103e+01 2.597995e+01 4.109744e+01 5.730299e+01 6.555477e+01 2.526307e+01 4.383543e+01 3.647643e+01 4.151540e+01 3.034396e+01 4.241872e+01 2.884344e+01 2.726694e+00 7.306568e+00 2.540443e+00 4.265324e+00 4.918776e+00 4.497433e+00 2.823644e+00 3.144238e+00 4.017441e+00 4.038171e+00 2.722486e+00 4.136550e+00 2.092659e+00 3.809637e-01 9.602467e-01 3.871211e-01 6.629148e-01 7.356364e-01 8.582263e-01 5.580836e-01 5.393110e-01 7.826976e-01 7.966762e-01 5.223613e-01 7.559210e-01 3.918947e-01
<GCONST> 1.300102e+02
<STATE> 3
<MEAN> 39
 1.221853e+01 -1.540489e+01 5.628768e-01 1.312454e+01 -2.335697e+01 1.128461e+01 -7.060431e+00 -8.728647e-01 1.354744e+01 -1.300654e+01 -8.900783e+00 -1.201062e+00 7.722914e+01 7.855319e-01 7.724463e-01 -2.098080e-01 6.309579e-02 -6.578741e-01 -1.186984e+00 -1.574265e-01 5.748785e-01 8.805878e-01 -2.249008e-01 -3.357088e-01 -6.844231e-01 4.318412e-01 -2.076658e-01 -6.165561e-02 1.297012e-01 3.722204e-02 1.467641e-01 1.111272e-01 -1.519493e-02 -1.596076e-01 -1.449260e-01 2.308480e-01 1.603509e-01 1.165687e-01 -1.208186e-01
<VARIANCE> 39
 2.220854e+01 5.161667e+01 2.023523e+01 3.224325e+01 5.734377e+01 7.513551e+01 2.483280e+01 3.674740e+01 3.983635e+01 4.692143e+01 2.591574e+01 3.748507e+01 2.216152e+01 2.536715e+00 5.324207e+00 2.099265e+00 3.574725e+00 4.630063e+00 5.340584e+00 2.583944e+00 2.732095e+00 4.053508e+00 4.600410e+00 2.952065e+00 4.138414e+00 2.139218e+00 3.207291e-01 7.850659e-01 3.231854e-01 5.571848e-01 7.256651e-01 9.106714e-01 4.963143e-01 4.480066e-01 7.470491e-01 8.009458e-01 5.076017e-01 7.397786e-01 3.349876e-01
<GCONST> 1.262692e+02
<STATE> 4
<MEAN> 39
 1.303008e+01 -1.336509e+01 3.168764e-01 1.385593e+01 -2.475863e+01 7.546314e+00 -6.787420e+00 7.486954e-01 1.456730e+01 -1.233822e+01 -9.405838e+00 -1.188575e+00 7.693237e+01 -1.288301e-02 -3.462801e-02 -4.082670e-02 1.271683e-01 2.406072e-01 8.858553e-02 9.603895e-02 -2.765838e-02 -1.193873e-01 -7.137073e-03 7.969093e-02 1.526589e-01 6.374680e-03 -1.094264e-01 -8.838515e-02 6.248732e-02 3.235380e-02 1.169891e-01 1.825335e-01 -1.634841e-03 -1.385585e-01 -1.364323e-01 7.035665e-02 8.954907e-02 7.791691e-02 -6.162497e-02
<VARIANCE> 39
 1.413545e+01 4.428188e+01 2.463334e+01 3.182004e+01 5.103243e+01 8.439073e+01 2.874393e+01 3.386942e+01 3.502830e+01 4.397917e+01 2.707279e+01 3.311369e+01 1.873890e+01 1.269567e+00 4.060889e+00 2.098930e+00 2.402864e+00 3.585395e+00 6.309815e+00 2.314823e+00 2.530808e+00 3.443088e+00 3.792580e+00 2.604112e+00 3.177374e+00 1.608166e+00 1.775301e-01 5.877100e-01 3.367622e-01 4.371695e-01 5.360637e-01 1.002511e+00 4.268226e-01 4.201912e-01 5.581554e-01 7.218791e-01 4.564198e-01 5.412058e-01 2.747182e-01
<GCONST> 1.202865e+02
<TRANSP> 5
 0.000000e+00 1.000000e+00 0.000000e+00 0.000000e+00 0.000000e+00
 0.000000e+00 5.322018e-01 4.677981e-01 0.000000e+00 0.000000e+00
 0.000000e+00 0.000000e+00 6.147447e-01 3.852553e-01 0.000000e+00
 0.000000e+00 0.000000e+00 0.000000e+00 8.579523e-01 1.420477e-01
 0.000000e+00 0.000000e+00 0.000000e+00 0.000000e+00 0.000000e+00
<ENDHMM>
~h "p"
<BEGINHMM>
<NUMSTATES> 5
<STATE> 2
<MEAN> 39
 7.838474e+00 -1.818084e+01 1.665905e+00 1.513337e+01 -1.984921e+01 1.929264e+01 -7.376608e+00 -5.968951e+00 7.017554e+00 -9.486410e+00 -4.403025e+00 3.696519e+00 7.200209e+01 -1.376507e-01 -4.840472e-01 -5.257307e-01 -6.800445e-01 -1.749020e-01 -1.236491e-01 5.513194e-01 3.169204e-01 -3.820251e-01 -1.319797e-01 -2.539530e-01 -9.497506e-02 8.896094e-02 7.097989e-02 4.727724e-03 -6.800795e-02 -2.209068e-03 3.992592e-02 -1.159705e-01 1.281092e-01 1.340495e-02 1.512501e-01 1.305249e-01 -1.608314e-02 -4.685936e-02 1.469977e-01
<VARIANCE> 39
 1.669800e+01 9.078404e+01 2.214618e+01 2.650373e+01 3.685625e+01 3.073082e+01 2.504231e+01 3.223524e+01 3.176603e+01 3.506831e+01 1.512263e+01 1.216636e+01 2.843961e+01 1.613232e+00 6.096823e+00 1.469460e+00 1.451871e+00 1.835575e+00 2.234793e+00 1.887971e+00 2.057359e+00 2.079747e+00 4.347535e+00 2.085709e+00 1.762037e+00 2.686981e+00 2.757701e-01 1.178247e+00 4.666910e-01 3.073340e-01 2.808354e-01 4.393376e-01 3.400087e-01 3.881896e-01 3.279455e-01 6.675468e-01 3.501612e-01 4.210221e-01 3.650434e-01
<GCONST> 1.133594e+02
<STATE> 3
<MEAN> 39
 8.253925e+00 -1.815924e+01 2.071569e-01 1.394865e+01 -1.984060e+01 1.858356e+01 -6.068666e+00 -5.442615e+00 6.893104e+00 -9.337469e+00 -5.031023e+00 3.146025e+00 7.254599e+01 1.884570e-02 -2.871502e-01 -3.372914e-01 -4.063352e-01 -1.256755e-01 -1.713791e-01 6.361153e-01 2.432879e-01 7.654308e-02 1.470457e-01 -2.806697e-01 -1.680680e-01 2.754301e-01 5.780491e-03 2.144436e-02 2.264443e-01 1.536891e-01 -3.049297e-02 -2.972963e-02 1.029154e-02 -1.329394e-02 1.490125e-01 5.077888e-02 3.140960e-02 -5.850638e-02 9.039386e-02
<VARIANCE> 39
 1.772429e+01 7.703809e+01 2.080733e+01 2.690686e+01 3.994681e+01 2.434684e+01 2.158153e+01 2.534129e+01 2.613888e+01 4.310676e+01 1.755645e+01 1.568893e+01 3.131710e+01 2.385980e+00 8.251065e+00 1.776899e+00 1.768440e+00 2.827931e+00 2.072144e+00 1.595535e+00 2.146886e+00 2.207845e+00 3.777325e+00 1.662556e+00 2.036103e+00 2.670078e+00 3.788597e-01 1.475729e+00 4.248260e-01 3.420338e-01 4.071353e-01 4.641839e-01 3.986525e-01 4.152527e-01 3.082443e-01 7.912070e-01 3.433187e-01 4.402996e-01 4.102194e-01
<GCONST> 1.157783e+02
<STATE> 4
<MEAN> 39
 9.035265e+00 -1.752183e+01 -3.086784e-01 1.402711e+01 -1.965763e+01 1.881344e+01 -4.641419e+00 -5.469922e+00 7.712450e+00 -8.714292e+00 -5.616605e+00 2.227324e+00 7.314629e+01 -3.001267e-02 -3.846458e-02 2.815177e-01 1.301644e-01 -2.057280e-01 -4.513456e-02 5.964494e-01 2.327791e-01 2.169536e-01 1.499052e-01 -1.232161e-01 -3.271083e-01 1.738112e-01 -6.667479e-03 6.554103e-02 2.312878e-01 9.996950e-02 -1.452868e-02 -1.288532e-01 -1.113365e-01 7.024375e-02 2.055957e-02 -1.119703e-01 7.088438e-02 -9.001739e-02 6.426443e-02
<VARIANCE> 39
 2.074105e+01 5.866730e+01 1.739313e+01 2.386215e+01 4.617738e+01 2.408353e+01 2.014867e+01 2.270586e+01 2.041963e+01 4.192509e+01 1.873723e+01 2.360154e+01 3.037794e+01 2.426090e+00 7.415701e+00 2.237467e+00 2.277645e+00 3.319421e+00 2.280580e+00 1.847506e+00 2.729653e+00 2.081176e+00 4.141318e+00 1.478505e+00 2.423707e+00 2.365567e+00 3.622664e-01 1.583023e+00 3.989587e-01 4.006920e-01 5.772600e-01 5.648343e-01 3.549343e-01 4.780542e-01 3.362317e-01 9.090655e-01 2.468274e-01 4.425142e-01 4.187395e-01
<GCONST> 1.171050e+02
<TRANSP> 5
 0.000000e+00 1.000000e+00 0.000000e+00 0.000000e+00 0.000000e+00
 0.000000e+00 4.209992e-01 5.790008e-01 0.000000e+00 0.000000e+00
 0.000000e+00 0.000000e+00 4.623328e-01 5.376671e-01 0.000000e+00
 0.000000e+00 0.000000e+00 0.000000e+00 6.030629e-01 3.969371e-01
 0.000000e+00 0.000000e+00 0.000000e+00 0.000000e+00 0.000000e+00
<ENDHMM>
~h "r"
<BEGINHMM>
<NUMSTATES> 5
<STATE> 2
<MEAN> 39
 9.803210e+00 -1.852902e+01 -3.960948e+00 1.582236e+01 -1.406755e+01 1.777830e+01 -6.731376e+00 -8.431653e+00 4.038224e+00 -1.178257e+01 -3.144324e+00 4.321236e+00 7.507417e+01 -1.146817e-01 3.104272e-01 -1.170857e-01 1.886431e-02 -1.079773e-01 -7.280421e-02 8.247038e-02 2.888211e-02 -1.418634e-01 3.193333e-01 8.334447e-03 -8.201586e-02 -4.220008e-01 -5.466165e-02 5.579916e-02 1.398737e-01 1.031041e-02 -9.655581e-02 1.703481e-02 -6.495133e-03 3.760034e-02 9.563239e-02 6.414821e-02 -2.801807e-02 -5.022569e-02 -7.121569e-02
<VARIANCE> 39
 4.002885e+01 4.779740e+01 4.405202e+01 4.662997e+01 5.192378e+01 3.879192e+01 3.100104e+01 3.390252e+01 3.117245e+01 4.258733e+01 3.060574e+01 3.861148e+01 4.628906e+01 6.005258e-01 2.033976e+00 2.194126e+00 1.705125e+00 2.736597e+00 2.549396e+00 2.299844e+00 1.737730e+00 2.268380e+00 2.077030e+00 1.522067e+00 1.585927e+00 1.165906e+00 1.131556e-01 3.396244e-01 3.850934e-01 2.824565e-01 4.963164e-01 4.520962e-01 4.429082e-01 3.149263e-01 3.920679e-01 4.032788e-01 2.841671e-01 2.889079e-01 1.960286e-01
<GCONST> 1.120444e+02
<STATE> 3
<MEAN> 39
 9.422069e+00 -1.801943e+01 -3.952543e+00 1.580670e+01 -1.458593e+01 1.779396e+01 -6.611875e+00 -8.300627e+00 4.055163e+00 -1.111486e+01 -3.171352e+00 4.113755e+00 7.413190e+01 -1.883840e-01 3.750325e-01 1.227426e-01 6.450898e-02 -2.348867e-01 -6.143816e-03 3.238279e-02 7.674542e-02 5.562794e-02 3.840030e-01 -3.421289e-02 -1.472004e-01 -5.049304e-01 -4.254559e-02 2.371944e-02 1.191958e-01 1.528706e-02 -4.878256e-02 3.679386e-02 -1.589765e-02 2.835591e-02 1.001576e-01 3.490804e-02 -1.998247e-02 -3.616738e-02 -2.999874e-02
<VARIANCE> 39
 4.079581e+01 4.438424e+01 4.384150e+01 4.723101e+01 5.271285e+01 3.661668e+01 3.385942e+01 3.279538e+01 3.050456e+01 4.343334e+01 2.960326e+01 3.869260e+01 4.782439e+01 5.022376e-01 1.885936e+00 1.900244e+00 1.412184e+00 2.582184e+00 2.321585e+00 2.104576e+00 1.625364e+00 2.185437e+00 1.987792e+00 1.390728e+00 1.455159e+00 9.989561e-01 9.150373e-02 3.259170e-01 3.443923e-01 2.540061e-01 4.791372e-01 4.203945e-01 4.490910e-01 3.086738e-01 4.009917e-01 3.832006e-01 2.812620e-01 2.863640e-01 1.761653e-01
<GCONST> 1.099632e+02
<STATE> 4
<MEAN> 39
 5.811374e+00 -1.790112e+01 -4.163158e+00 1.458516e+01 -1.718276e+01 1.750088e+01 -6.450216e+00 -7.260974e+00 4.787003e+00 -8.271235e+00 -3.482556e+00 4.092399e+00 6.982648e+01 -2.412356e-01 2.892313e-01 2.389954e-01 7.251164e-02 -1.963463e-01 1.229625e-02 -1.284093e-02 8.650746e-02 1.646625e-01 3.252400e-01 -7.357031e-02 -2.013253e-01 -4.158675e-01 -1.504140e-02 -1.993567e-02 5.760911e-02 1.175926e-02 9.915857e-03 2.291597e-02 3.282687e-03 8.668634e-03 3.370678e-02 -8.669345e-03 -1.158008e-02 -1.352076e-02 2.287800e-02
<VARIANCE> 39
 5.451827e+01 3.816331e+01 3.563546e+01 3.834248e+01 5.000644e+01 2.982754e+01 3.280453e+01 2.711119e+01 2.786879e+01 4.524806e+01 2.348830e+01 3.256424e+01 6.008279e+01 4.210817e-01 1.764019e+00 1.488343e+00 1.165891e+00 2.067552e+00 1.975669e+00 2.012564e+00 1.445614e+00 1.849015e+00 1.847142e+00 1.334786e+00 1.419812e+00 8.615216e-01 7.033207e-02 3.003522e-01 2.700643e-01 2.078137e-01 4.042379e-01 3.525726e-01 3.990437e-01 2.871683e-01 3.574089e-01 3.428365e-01 2.641668e-01 2.641137e-01 1.439939e-01
<GCONST> 1.054062e+02
<TRANSP> 5
 0.000000e+00 1.000000e+00 0.000000e+00 0.000000e+00 0.000000e+00
 0.000000e+00 3.965450e-01 6.034549e-01 0.000000e+00 0.000000e+00
 0.000000e+00 0.000000e+00 4.198189e-01 5.801811e-01 0.000000e+00
 0.000000e+00 0.000000e+00 0.000000e+00 6.597162e-01 3.402838e-01
 0.000000e+00 0.000000e+00 0.000000e+00 0.000000e+00 0.000000e+00
<ENDHMM>
~h "s"
<BEGINHMM>
<NUMSTATES> 5
<STATE> 2
<MEAN> 39
 -1.347868e+00 -2.547269e+01 1.479368e+01 8.451181e+00 -1.916532e+01 2.307825e+01 -3.219748e+00 -5.659229e+00 6.509119e+00 -9.678229e+00 -2.048977e+00 5.120090e+00 7.667415e+01 -2.010356e+00 -1.854050e+00 3.032867e+00 -1.376285e+00 -6.831682e-01 4.760525e-01 7.392237e-02 1.847675e-01 9.846483e-02 -1.286460e-01 2.088461e-01 5.886120e-01 6.972981e-01 1.003458e-01 7.703902e-02 -3.750709e-01 1.048497e-02 1.190726e-02 -2.131927e-01 -2.271656e-01 -7.644826e-02 7.030643e-02 -1.561378e-01 -1.107774e-01 -8.476980e-02 -1.907681e-02
<VARIANCE> 39
 7.503238e+01 7.627152e+01 1.315472e+02 5.181957e+01 4.270132e+01 5.421130e+01 3.367034e+01 5.143765e+01 3.298290e+01 3.927464e+01 2.047071e+01 2.147866e+01 6.738043e+01 5.414936e+00 3.451199e+00 9.065042e+00 2.982347e+00 2.363110e+00 2.847534e+00 2.975811e+00 2.416529e+00 2.041084e+00 2.733545e+00 1.964144e+00 2.145669e+00 1.530425e+00 6.725527e-01 6.914443e-01 1.400758e+00 5.689827e-01 4.288148e-01 4.843986e-01 5.422284e-01 3.880112e-01 3.890266e-01 5.237904e-01 3.610583e-01 3.663408e-01 2.475485e-01
<GCONST> 1.263784e+02
<STATE> 3
<MEAN> 39
 -5.456648e+00 -3.012467e+01 2.004578e+01 5.130941e+00 -2.062580e+01 2.335913e+01 -4.315677e+00 -5.825623e+00 7.330019e+00 -1.073220e+01 -2.095513e+00 6.256877e+00 7.875683e+01 -6.101933e-01 -8.459610e-01 2.617086e-01 -5.827197e-01 -2.270075e-01 -6.967203e-02 -3.359579e-01 -1.353974e-01 1.051002e-01 -1.563504e-01 -1.205993e-01 1.707180e-01 1.918867e-01 5.384296e-01 3.598690e-01 -7.820680e-01 3.013418e-01 1.231230e-01 -1.162545e-01 -6.513119e-02 -6.245125e-02 -5.503255e-03 2.863279e-03 -8.141489e-02 -1.345646e-01 -1.167755e-01
<VARIANCE> 39
 4.171809e+01 4.431324e+01 8.866974e+01 4.258996e+01 3.393493e+01 4.590580e+01 3.287107e+01 4.613197e+01 2.860869e+01 3.450479e+01 2.051437e+01 2.082231e+01 2.600296e+01 5.649634e+00 3.760627e+00 1.005278e+01 3.302836e+00 2.060132e+00 2.388009e+00 2.638154e+00 1.989813e+00 1.731293e+00 2.244926e+00 1.768089e+00 1.867416e+00 1.021405e+00 4.421772e-01 5.425999e-01 8.870453e-01 3.898127e-01 3.622088e-01 4.819846e-01 4.975964e-01 3.674251e-01 3.399428e-01 4.638249e-01 3.498165e-01 3.579283e-01 1.293856e-01
<GCONST> 1.188007e+02
<STATE> 4
<MEAN> 39
 -2.538898e+00 -2.981869e+01 1.462335e+01 6.103501e+00 -2.019788e+01 2.254809e+01 -6.024986e+00 -6.897233e+00 7.454377e+00 -1.077579e+01 -2.667380e+00 5.948997e+00 7.845974e+01 1.485404e+00 8.289905e-01 -1.644995e+00 6.235793e-01 2.572534e-01 -9.195202e-02 -3.527676e-01 -1.998703e-01 6.894509e-02 -2.890724e-01 -2.004012e-01 -3.572936e-01 8.158021e-03 2.976905e-01 3.399148e-01 -1.802087e-01 1.912800e-01 4.173140e-02 -6.401653e-02 -2.343065e-02 1.968481e-02 5.716924e-02 -5.841458e-02 5.062083e-03 -1.330617e-01 7.681529e-03
<VARIANCE> 39
 6.519832e+01 5.238443e+01 1.041100e+02 3.903093e+01 3.660066e+01 4.139568e+01 3.546079e+01 4.674738e+01 2.250947e+01 4.183391e+01 2.130774e+01 2.355189e+01 2.301206e+01 5.974089e+00 6.115588e+00 6.022697e+00 3.146647e+00 2.300886e+00 3.022869e+00 2.804099e+00 2.367112e+00 1.966262e+00 3.023630e+00 1.738073e+00 2.336695e+00 1.395659e+00 7.315096e-01 8.753999e-01 8.427842e-01 3.990658e-01 3.836932e-01 5.056752e-01 5.253991e-01 3.962653e-01 3.638417e-01 5.983222e-01 3.166588e-01 3.904054e-01 2.336154e-01
<GCONST> 1.231376e+02
<TRANSP> 5
 0.000000e+00 1.000000e+00 0.000000e+00 0.000000e+00 0.000000e+00
 0.000000e+00 7.360176e-01 2.639824e-01 0.000000e+00 0.000000e+00
 0.000000e+00 0.000000e+00 7.364318e-01 2.635682e-01 0.000000e+00
 0.000000e+00 0.000000e+00 0.000000e+00 8.399004e-01 1.600996e-01
 0.000000e+00 0.000000e+00 0.000000e+00 0.000000e+00 0.000000e+00
<ENDHMM>
~h "t"
<BEGINHMM>
<NUMSTATES> 5
<STATE> 2
<MEAN> 39
 6.184969e-01 -2.194337e+01 4.573057e+00 1.448463e+01 -1.879119e+01 1.826251e+01 -6.624812e+00 -6.443581e+00 5.624886e+00 -5.855862e+00 -3.695197e+00 3.620063e+00 6.954664e+01 1.164283e-01 -1.422310e+00 -1.588934e-02 -1.084496e+00 -5.731709e-01 1.985562e-01 -2.263915e-01 -8.162223e-02 -2.900091e-01 -3.667941e-01 2.197470e-02 1.360191e-01 8.670309e-01 2.285622e-01 -3.703552e-01 1.377540e-02 -1.177896e-01 4.443919e-02 1.124133e-01 -1.065829e-01 -1.203364e-01 4.067061e-02 -2.763605e-01 8.448584e-03 -1.512717e-02 5.005235e-01
<VARIANCE> 39
 6.427602e+01 1.084780e+02 7.609975e+01 5.007309e+01 4.489388e+01 3.959650e+01 3.022822e+01 3.283057e+01 2.529102e+01 2.650298e+01 2.096133e+01 1.774208e+01 7.493484e+01 3.350485e+00 8.542216e+00 4.022734e+00 4.905135e+00 4.077940e+00 2.926207e+00 2.892581e+00 2.759285e+00 2.320755e+00 2.759166e+00 1.846851e+00 1.889596e+00 4.873462e+00 4.160847e-01 1.762246e+00 7.922714e-01 1.062259e+00 7.605573e-01 5.065570e-01 5.538882e-01 4.814864e-01 4.273349e-01 5.438278e-01 3.979754e-01 3.834770e-01 8.704313e-01
<GCONST> 1.292457e+02
<STATE> 3
<MEAN> 39
 1.915050e+00 -2.608676e+01 5.139922e+00 1.224318e+01 -2.004482e+01 1.950392e+01 -7.444433e+00 -7.209191e+00 5.185291e+00 -7.518322e+00 -3.660640e+00 3.804058e+00 7.306554e+01 5.120975e-01 -1.249432e+00 -9.484736e-02 -7.103651e-01 -1.238572e-01 2.965458e-01 -2.527896e-01 -2.391056e-01 -1.315217e-01 -7.008592e-01 8.429568e-02 9.303649e-02 1.254787e+00 2.897941e-01 4.457751e-01 -1.676501e-01 4.015657e-01 3.053553e-01 1.275143e-02 7.642481e-02 -3.289328e-02 1.356000e-01 -1.043601e-01 -2.040301e-03 -5.312951e-02 1.208297e-02
<VARIANCE> 39
 3.166039e+01 8.061678e+01 6.323986e+01 4.880861e+01 4.727951e+01 3.452853e+01 3.229340e+01 3.085447e+01 2.433270e+01 3.028398e+01 1.998536e+01 1.851959e+01 4.738913e+01 3.332008e+00 1.182155e+01 4.454959e+00 6.581096e+00 5.213041e+00 3.093471e+00 3.451643e+00 2.970568e+00 2.786287e+00 3.195234e+00 2.021973e+00 2.046177e+00 3.816416e+00 4.532611e-01 2.212860e+00 8.508757e-01 1.225951e+00 9.370764e-01 5.621739e-01 6.885341e-01 5.542735e-01 5.128974e-01 6.346015e-01 3.962721e-01 4.221205e-01 8.354907e-01
<GCONST> 1.306897e+02
<STATE> 4
<MEAN> 39
 3.105591e+00 -2.644716e+01 3.434567e+00 1.232683e+01 -1.961800e+01 2.018369e+01 -6.952829e+00 -8.123394e+00 5.046903e+00 -8.612313e+00 -4.174423e+00 3.975398e+00 7.394313e+01 1.029884e+00 3.963077e-01 -5.366483e-01 4.506878e-01 6.260204e-01 1.514874e-01 9.485933e-02 -9.527606e-02 2.660791e-01 -6.840876e-01 -2.883804e-02 -5.290749e-02 7.533672e-01 1.462558e-01 5.176375e-01 -1.624633e-01 3.270525e-01 1.963243e-01 -8.456261e-02 6.111965e-02 7.267727e-02 1.278660e-01 -8.166313e-03 -4.493862e-04 -8.091722e-02 -1.693250e-01
<VARIANCE> 39
 3.346477e+01 5.470224e+01 5.433940e+01 5.312580e+01 5.088129e+01 3.578344e+01 3.644264e+01 3.184745e+01 2.817506e+01 3.492303e+01 2.209001e+01 1.868724e+01 4.738974e+01 3.407205e+00 1.022742e+01 3.909649e+00 5.838300e+00 4.700382e+00 3.357757e+00 3.673749e+00 2.947348e+00 2.790708e+00 3.305196e+00 2.058993e+00 2.261657e+00 2.920263e+00 5.695879e-01 1.961860e+00 7.359618e-01 1.049776e+00 7.927639e-01 5.721813e-01 6.790019e-01 5.007887e-01 5.238814e-01 6.781145e-01 3.793429e-01 4.192228e-01 5.387768e-01
<GCONST> 1.296376e+02
<TRANSP> 5
 0.000000e+00 1.000000e+00 0.000000e+00 0.000000e+00 0.000000e+00
 0.000000e+00 5.278872e-01 4.721128e-01 0.000000e+00 0.000000e+00
 0.000000e+00 0.000000e+00 5.345874e-01 4.654126e-01 0.000000e+00
 0.000000e+00 0.000000e+00 0.000000e+00 6.780195e-01 3.219805e-01
 0.000000e+00 0.000000e+00 0.000000e+00 0.000000e+00 0.000000e+00
<ENDHMM>
~h "u"
<BEGINHMM>
<NUMSTATES> 5
<STATE> 2
<MEAN> 39
 1.010200e+01 -1.261212e+01 -5.042958e-02 1.694839e+01 -2.024941e+01 1.283837e+01 -5.186804e+00 -2.571839e+00 1.190891e+01 -8.579927e+00 -1.025789e+01 -3.346505e+00 7.260223e+01 3.351377e-02 3.991101e-01 -1.063364e-02 9.898694e-02 -1.289944e-01 -2.987742e-01 -1.230417e-01 2.039000e-01 3.263096e-01 2.055802e-01 -1.888712e-01 -1.397054e-01 -2.143330e-01 -9.793831e-02 -7.877109e-02 3.486960e-02 -4.620874e-02 6.816597e-02 1.980683e-01 2.737045e-02 -7.765368e-02 -1.102739e-01 5.125930e-02 1.650217e-01 1.340908e-01 -5.034280e-02
<VARIANCE> 39
 4.501580e+01 5.781872e+01 2.766257e+01 2.712090e+01 3.661264e+01 7.633595e+01 3.853207e+01 3.135822e+01 6.085007e+01 3.328956e+01 2.514491e+01 4.340210e+01 3.872610e+01 6.940681e-01 2.470534e+00 1.246594e+00 1.586502e+00 2.145263e+00 3.880632e+00 2.291270e+00 1.794591e+00 2.113697e+00 2.308872e+00 1.621721e+00 1.922481e+00 8.826696e-01 1.163785e-01 3.898430e-01 1.959978e-01 2.791204e-01 3.496331e-01 6.252779e-01 3.579796e-01 3.275637e-01 3.668796e-01 3.854455e-01 2.707034e-01 2.978487e-01 1.490839e-01
<GCONST> 1.107719e+02
<STATE> 3
<MEAN> 39
 1.030181e+01 -1.237765e+01 1.271198e-01 1.706550e+01 -2.030433e+01 1.358429e+01 -5.105306e+00 -2.322562e+00 1.240940e+01 -8.562454e+00 -1.024277e+01 -2.985387e+00 7.248116e+01 -1.301974e-01 5.815352e-02 -1.578724e-02 2.540582e-02 5.922357e-02 2.615121e-01 7.654884e-02 2.341123e-02 -2.527574e-02 1.710576e-01 1.745016e-01 1.673983e-01 -2.297340e-01 -7.589424e-02 -1.267598e-01 3.972087e-02 -1.984584e-02 8.443030e-02 1.717755e-01 3.468059e-02 -9.134041e-02 -1.336580e-01 -3.797982e-03 1.160172e-01 7.647634e-02 4.740127e-03
<VARIANCE> 39
 3.984818e+01 5.373888e+01 2.427556e+01 2.612705e+01 3.513676e+01 6.128750e+01 3.088530e+01 3.101540e+01 5.445773e+01 3.277113e+01 2.515592e+01 3.787234e+01 3.530797e+01 5.898709e-01 2.359186e+00 1.194878e+00 1.225351e+00 2.175646e+00 3.488321e+00 2.139493e+00 1.914460e+00 1.990066e+00 2.232691e+00 1.635225e+00 1.581888e+00 9.629545e-01 1.068344e-01 3.869663e-01 2.227746e-01 2.358464e-01 3.477610e-01 5.745956e-01 3.331895e-01 3.446051e-01 3.900969e-01 3.912032e-01 3.000212e-01 2.893027e-01 1.506340e-01
<GCONST> 1.086776e+02
<STATE> 4
<MEAN> 39
 2.473214e+00 -1.563255e+01 -2.655441e+00 1.391465e+01 -2.139131e+01 1.551985e+01 -5.090573e+00 -4.225195e+00 8.274677e+00 -5.702581e+00 -7.359952e+00 7.050936e-01 6.559737e+01 -1.372176e-01 -9.994335e-02 5.851172e-02 -1.730949e-02 7.403849e-02 2.257958e-01 6.360385e-02 -5.824131e-02 -9.879695e-02 7.698853e-02 1.512088e-01 8.644205e-02 -7.585872e-02 -5.020610e-03 -5.100485e-02 4.026200e-02 -3.354832e-03 1.468246e-02 3.989720e-02 1.344982e-03 -3.503877e-02 -3.693913e-02 -2.685197e-02 1.933415e-02 3.195691e-03 4.118686e-02
<VARIANCE> 39
 6.895791e+01 3.769324e+01 2.217870e+01 2.372528e+01 2.332418e+01 2.862736e+01 2.591020e+01 2.262345e+01 4.153190e+01 2.476503e+01 2.145643e+01 2.861765e+01 5.439169e+01 3.749817e-01 1.504450e+00 8.553588e-01 8.972540e-01 1.401597e+00 1.904174e+00 1.659109e+00 1.567638e+00 1.571867e+00 1.416348e+00 1.276460e+00 1.123636e+00 6.190737e-01 6.536468e-02 2.570826e-01 1.729111e-01 1.605957e-01 2.582274e-01 3.152968e-01 2.957233e-01 2.815778e-01 2.937412e-01 2.674684e-01 2.454382e-01 2.001609e-01 1.059847e-01
<GCONST> 9.735194e+01
<TRANSP> 5
 0.000000e+00 1.000000e+00 0.000000e+00 0.000000e+00 0.000000e+00
 0.000000e+00 5.938526e-01 4.061474e-01 0.000000e+00 0.000000e+00
 0.000000e+00 0.000000e+00 5.501289e-01 4.498711e-01 0.000000e+00
 0.000000e+00 0.000000e+00 0.000000e+00 8.674608e-01 1.325392e-01
 0.000000e+00 0.000000e+00 0.000000e+00 0.000000e+00 0.000000e+00
<ENDHMM>
~h "v"
<BEGINHMM>
<NUMSTATES> 5
<STATE> 2
<MEAN> 39
 1.132423e+01 -1.524910e+01 1.811187e+00 1.787485e+01 -1.442252e+01 2.114957e+01 -7.640580e+00 -1.028993e+01 6.572984e+00 -1.043288e+01 -4.075747e+00 -3.103836e-01 7.572654e+01 -1.146779e-01 5.443763e-01 9.647101e-02 1.666581e-01 1.898053e-02 3.671592e-01 3.705533e-01 4.165949e-02 -7.160699e-03 5.119942e-01 -2.496833e-01 -1.759901e-01 -5.500265e-01 -2.255356e-02 -2.253898e-02 -3.017748e-02 -7.058538e-02 -5.169017e-02 5.775945e-03 -2.675723e-02 -1.769351e-02 -2.357963e-02 -3.905656e-02 1.507276e-02 4.992273e-02 -1.158385e-02
<VARIANCE> 39
 1.626553e+01 4.562539e+01 2.535420e+01 2.217222e+01 3.531643e+01 2.870026e+01 4.541710e+01 3.491504e+01 2.339076e+01 2.985194e+01 1.353223e+01 3.814956e+01 2.169177e+01 7.228135e-01 2.116994e+00 1.818316e+00 1.349747e+00 1.794364e+00 2.090622e+00 2.006394e+00 2.238975e+00 1.937320e+00 2.435353e+00 1.324735e+00 1.184873e+00 1.105520e+00 1.511849e-01 2.959256e-01 3.061570e-01 2.252722e-01 3.237848e-01 4.255485e-01 3.399495e-01 3.779869e-01 3.123748e-01 4.360123e-01 2.288910e-01 2.072092e-01 2.168918e-01
<GCONST> 1.046455e+02
<STATE> 3
<MEAN> 39
 1.097926e+01 -1.399892e+01 1.836743e+00 1.808000e+01 -1.452420e+01 2.188076e+01 -6.919570e+00 -1.017966e+01 6.557946e+00 -9.332024e+00 -4.382020e+00 -3.301752e-01 7.436489e+01 -9.002998e-02 4.123573e-01 -2.620893e-02 8.650875e-02 -2.138151e-02 2.446767e-01 2.299829e-01 9.215175e-02 -1.720725e-02 2.131711e-01 -1.732764e-01 4.522368e-02 -4.551923e-01 4.155433e-02 -9.682315e-02 -6.634583e-02 -4.633393e-02 7.824839e-03 -1.088783e-01 -1.059848e-01 -1.111722e-02 -3.197494e-02 -1.807044e-01 2.814607e-02 6.343462e-02 1.149316e-01
<VARIANCE> 39
 1.594828e+01 4.202823e+01 2.363358e+01 1.950476e+01 3.139899e+01 2.556533e+01 3.981256e+01 3.280862e+01 2.649349e+01 2.848674e+01 1.372018e+01 3.754873e+01 2.177255e+01 7.609613e-01 2.236646e+00 1.644099e+00 1.301268e+00 1.716265e+00 1.924371e+00 2.073052e+00 2.190678e+00 2.066117e+00 2.948264e+00 1.205643e+00 1.335685e+00 1.210103e+00 1.207463e-01 3.235348e-01 2.657553e-01 2.363698e-01 3.225047e-01 4.214318e-01 3.454279e-01 4.241536e-01 3.468478e-01 4.459289e-01 2.240199e-01 2.339982e-01 2.212557e-01
<GCONST> 1.043572e+02
<STATE> 4
<MEAN> 39
 1.009402e+01 -1.256770e+01 1.931046e+00 1.865478e+01 -1.461195e+01 2.234008e+01 -6.104748e+00 -9.614056e+00 6.689920e+00 -7.915714e+00 -4.611402e+00 3.194020e-01 7.230637e+01 -1.040149e-01 -3.325941e-02 -8.046332e-02 3.253078e-02 2.898233e-02 2.088716e-02 4.386575e-02 1.609063e-01 -7.119440e-02 -2.002909e-01 -2.163090e-02 2.993873e-01 -1.509065e-01 7.211863e-02 -1.557341e-01 -5.991062e-02 -2.946054e-02 1.946398e-02 -8.426050e-02 -1.188263e-01 -6.151922e-02 -4.926371e-02 -1.817207e-01 4.273162e-02 1.705666e-02 1.792476e-01
<VARIANCE> 39
 1.598272e+01 3.270406e+01 1.697560e+01 1.802085e+01 2.506395e+01 2.001176e+01 3.726931e+01 3.067140e+01 3.035016e+01 3.155490e+01 1.461621e+01 3.378960e+01 2.701849e+01 8.448803e-01 2.271506e+00 1.306960e+00 1.213881e+00 1.734272e+00 1.717921e+00 2.263713e+00 2.001615e+00 1.839316e+00 2.956288e+00 1.216062e+00 1.421992e+00 1.605186e+00 1.258908e-01 3.131866e-01 2.328388e-01 2.242448e-01 2.819110e-01 3.466197e-01 3.736435e-01 3.785785e-01 3.204466e-01 4.697471e-01 2.276611e-01 2.495899e-01 2.365730e-01
<GCONST> 1.030423e+02
<TRANSP> 5
 0.000000e+00 1.000000e+00 0.000000e+00 0.000000e+00 0.000000e+00
 0.000000e+00 5.545766e-01 4.454234e-01 0.000000e+00 0.000000e+00
 0.000000e+00 0.000000e+00 5.756646e-01 4.243353e-01 0.000000e+00
 0.000000e+00 0.000000e+00 0.000000e+00 7.847487e-01 2.152514e-01
 0.000000e+00 0.000000e+00 0.000000e+00 0.000000e+00 0.000000e+00
<ENDHMM>
~h "y"
<BEGINHMM>
<NUMSTATES> 5
<STATE> 2
<MEAN> 39
 7.192787e+00 -1.691303e+01 -6.075029e-01 1.665407e+01 -1.371889e+01 1.741398e+01 -9.424596e+00 -8.881020e+00 6.418698e+00 -9.092026e+00 -2.315043e+00 2.094429e+00 7.312376e+01 -8.075997e-03 1.316896e-02 -1.364938e-01 -3.602938e-02 1.242012e-01 -1.251194e-01 -3.368017e-01 -2.497897e-01 -8.460908e-02 1.048554e-01 8.303627e-02 2.781366e-02 -4.210815e-02 5.532743e-02 -1.256636e-02 3.698143e-02 -3.558784e-02 -1.128172e-01 9.559762e-02 1.576294e-01 5.904884e-02 2.242673e-02 -2.800836e-02 -7.295659e-02 -2.897472e-02 3.244215e-02
<VARIANCE> 39
 8.550944e+01 3.820384e+01 6.208184e+01 5.111933e+01 4.648008e+01 4.023174e+01 3.726778e+01 3.756345e+01 2.779720e+01 4.298304e+01 2.411998e+01 3.546318e+01 1.209986e+02 7.469674e-01 1.338085e+00 1.883605e+00 2.528767e+00 2.434311e+00 1.947343e+00 2.207764e+00 1.877322e+00 1.903687e+00 1.989451e+00 1.450936e+00 1.701226e+00 8.240800e-01 1.715655e-01 2.662886e-01 2.773405e-01 3.520706e-01 3.767874e-01 3.752395e-01 3.811069e-01 3.563886e-01 3.426199e-01 3.657866e-01 2.810698e-01 2.917426e-01 2.041714e-01
<GCONST> 1.122906e+02
<STATE> 3
<MEAN> 39
 7.637973e+00 -1.705926e+01 -3.471961e-01 1.690361e+01 -1.340286e+01 1.725022e+01 -1.027245e+01 -9.471605e+00 6.611258e+00 -9.311967e+00 -2.191532e+00 1.745198e+00 7.378727e+01 1.546836e-01 -4.009482e-02 -6.610330e-02 -6.063334e-02 -5.300382e-02 1.350609e-01 1.726827e-02 -1.227971e-01 -5.762204e-02 -2.419181e-02 -6.956786e-02 -2.426248e-02 8.355658e-02 7.090022e-02 -3.208882e-02 6.459886e-02 -1.158155e-02 -1.367277e-01 1.234045e-01 1.870175e-01 9.109257e-02 4.322136e-02 -6.272032e-02 -1.055245e-01 -3.226478e-02 5.077255e-02
<VARIANCE> 39
 9.102809e+01 4.012157e+01 5.855486e+01 5.073468e+01 4.750407e+01 3.924562e+01 3.339523e+01 3.863211e+01 2.847939e+01 4.455064e+01 2.598538e+01 3.630492e+01 1.208413e+02 1.307863e+00 1.791685e+00 2.054412e+00 2.760194e+00 2.664917e+00 2.116083e+00 2.501419e+00 1.957459e+00 2.024100e+00 2.046329e+00 1.546265e+00 1.716274e+00 1.575345e+00 2.050537e-01 3.426224e-01 2.933767e-01 3.926171e-01 3.924698e-01 3.940718e-01 3.936827e-01 3.629794e-01 3.533351e-01 3.889958e-01 3.115524e-01 2.980372e-01 2.619064e-01
<GCONST> 1.157865e+02
<STATE> 4
<MEAN> 39
 6.712439e+00 -1.723724e+01 -1.017689e+00 1.645568e+01 -1.400307e+01 1.713487e+01 -9.413960e+00 -9.302581e+00 5.775609e+00 -8.753949e+00 -2.483371e+00 1.614594e+00 7.258676e+01 5.652187e-01 -2.687050e-01 5.410362e-02 4.637070e-02 -3.709146e-01 4.200876e-01 2.461986e-01 -6.408136e-02 8.771468e-02 -2.621425e-01 -2.163891e-01 -3.284245e-02 4.738015e-01 -4.538900e-02 7.986992e-02 4.034583e-02 -3.811261e-02 -8.108532e-02 3.291798e-02 6.788878e-02 1.070437e-01 4.101894e-02 -5.588331e-02 -7.768348e-02 -4.130318e-02 -8.204588e-02
<VARIANCE> 39
 8.668094e+01 3.810839e+01 5.949051e+01 5.089460e+01 4.952940e+01 4.162743e+01 3.671339e+01 3.899849e+01 3.718945e+01 4.665907e+01 2.377641e+01 3.482634e+01 1.121132e+02 3.210339e+00 3.421159e+00 2.634962e+00 3.445656e+00 3.323337e+00 2.585316e+00 2.810164e+00 2.364873e+00 2.060941e+00 2.409569e+00 1.613622e+00 1.730158e+00 3.886289e+00 3.308034e-01 4.619583e-01 3.804396e-01 4.838209e-01 4.910296e-01 4.629071e-01 5.030805e-01 4.051991e-01 3.887788e-01 4.605416e-01 3.045461e-01 3.034390e-01 4.100134e-01
<GCONST> 1.225887e+02
<TRANSP> 5
 0.000000e+00 1.000000e+00 0.000000e+00 0.000000e+00 0.000000e+00
 0.000000e+00 4.089506e-01 5.910494e-01 0.000000e+00 0.000000e+00
 0.000000e+00 0.000000e+00 3.468723e-01 6.531277e-01 0.000000e+00
 0.000000e+00 0.000000e+00 0.000000e+00 4.509081e-01 5.490919e-01
 0.000000e+00 0.000000e+00 0.000000e+00 0.000000e+00 0.000000e+00
<ENDHMM>
~h "z"
<BEGINHMM>
<NUMSTATES> 5
<STATE> 2
<MEAN> 39
 9.666008e+00 -1.757812e+01 9.068085e+00 1.826449e+01 -1.490881e+01 2.337622e+01 -6.524411e+00 -8.243320e+00 8.301394e+00 -1.331076e+01 -5.571730e+00 -2.312568e+00 7.830275e+01 -1.752361e-01 -2.607518e-01 1.204003e+00 -4.309538e-01 -3.335430e-01 3.985470e-01 4.013133e-01 -4.366317e-02 -1.862656e-01 -3.254109e-01 -5.988428e-02 -3.027176e-01 5.605029e-01 -2.343885e-01 -4.956144e-02 1.130904e-01 -1.721738e-01 -1.578437e-01 -3.476738e-02 9.098620e-02 7.907940e-02 -5.416747e-02 1.639590e-01 4.684597e-02 1.146750e-01 -1.504374e-01
<VARIANCE> 39
 1.582746e+01 2.844020e+01 5.803703e+01 5.517499e+01 7.861889e+01 4.629365e+01 5.229296e+01 4.327784e+01 2.784856e+01 3.239882e+01 3.841100e+01 3.314746e+01 1.245781e+01 2.610872e+00 2.491757e+00 6.768257e+00 2.793900e+00 4.844451e+00 3.525767e+00 3.589549e+00 2.903030e+00 2.491311e+00 3.760804e+00 2.891079e+00 2.537100e+00 1.607773e+00 2.895486e-01 5.124090e-01 1.136670e+00 6.184078e-01 8.111069e-01 6.691241e-01 5.878924e-01 4.492987e-01 4.466261e-01 5.469353e-01 5.265608e-01 4.075054e-01 1.753520e-01
<GCONST> 1.240656e+02
<STATE> 3
<MEAN> 39
 8.135653e+00 -1.839997e+01 1.265871e+01 1.585828e+01 -1.711993e+01 2.444176e+01 -4.419907e+00 -7.356034e+00 7.652951e+00 -1.349306e+01 -5.801767e+00 -2.323273e+00 7.890575e+01 -5.947385e-01 -3.664719e-01 1.213597e+00 -5.711299e-01 -5.228179e-01 3.341493e-01 4.518393e-01 1.725890e-01 -1.655742e-01 3.888439e-02 1.168979e-02 1.108316e-01 1.264836e-01 -3.307136e-02 1.008105e-02 -1.272767e-01 5.924512e-03 1.832406e-02 -7.011505e-02 -3.311432e-02 1.231803e-02 1.874878e-02 8.900940e-02 9.358304e-03 7.640027e-02 -8.987477e-02
<VARIANCE> 39
 2.781003e+01 3.366270e+01 8.915286e+01 4.874014e+01 6.643119e+01 4.220121e+01 4.901178e+01 4.496085e+01 3.100178e+01 3.100420e+01 4.687383e+01 4.350899e+01 8.250935e+00 2.604515e+00 2.134227e+00 8.664075e+00 2.243487e+00 4.104826e+00 3.613889e+00 3.415688e+00 2.558821e+00 2.280916e+00 3.137856e+00 3.487237e+00 2.517448e+00 8.449529e-01 4.012510e-01 3.812354e-01 1.314357e+00 4.491055e-01 7.116526e-01 6.781337e-01 5.909996e-01 4.461256e-01 4.062750e-01 5.460221e-01 6.477489e-01 4.477186e-01 1.230425e-01
<GCONST> 1.233455e+02
<STATE> 4
<MEAN> 39
 6.681977e+00 -1.921249e+01 1.480700e+01 1.263033e+01 -1.916395e+01 2.542275e+01 -2.794901e+00 -5.938960e+00 8.076854e+00 -1.405490e+01 -7.000031e+00 -1.744054e+00 7.916335e+01 6.707340e-02 -7.841633e-02 -3.763250e-01 -1.680652e-01 1.652865e-02 -2.246324e-01 -7.376903e-02 2.520520e-02 1.431874e-02 -1.283521e-01 -1.390522e-02 2.494608e-01 7.915843e-02 1.322272e-01 7.836401e-02 -2.932359e-01 7.498257e-02 7.736220e-02 -1.152904e-01 -7.315847e-02 -1.008047e-02 3.207027e-02 -1.942779e-02 2.239291e-02 1.894870e-02 -5.441515e-03
<VARIANCE> 39
 3.604002e+01 4.010831e+01 1.047527e+02 4.324837e+01 4.006639e+01 4.067952e+01 3.814146e+01 3.731046e+01 3.105349e+01 3.147583e+01 4.034097e+01 4.059606e+01 1.125632e+01 3.625536e+00 2.865169e+00 1.036164e+01 2.526449e+00 3.255726e+00 4.084946e+00 3.194326e+00 2.553264e+00 2.282806e+00 3.208673e+00 3.342284e+00 3.069535e+00 1.023033e+00 4.796607e-01 4.979350e-01 1.246643e+00 4.197636e-01 5.504461e-01 6.766771e-01 5.370860e-01 4.243512e-01 4.028820e-01 5.763636e-01 6.265866e-01 5.511381e-01 1.573287e-01
<GCONST> 1.244512e+02
<TRANSP> 5
 0.000000e+00 1.000000e+00 0.000000e+00 0.000000e+00 0.000000e+00
 0.000000e+00 6.700593e-01 3.299407e-01 0.000000e+00 0.000000e+00
 0.000000e+00 0.000000e+00 7.095509e-01 2.904491e-01 0.000000e+00
 0.000000e+00 0.000000e+00 0.000000e+00 9.087194e-01 9.128057e-02
 0.000000e+00 0.000000e+00 0.000000e+00 0.000000e+00 0.000000e+00
<ENDHMM>
~h "ch"
<BEGINHMM>
<NUMSTATES> 5
<STATE> 2
<MEAN> 39
 1.469761e+00 -2.440664e+01 8.635130e+00 1.792154e+01 -1.572294e+01 1.782998e+01 -5.967300e+00 -5.701625e+00 6.089673e+00 -7.987923e+00 -3.299094e+00 4.818509e+00 7.406513e+01 -1.609719e+00 -2.906972e+00 1.554935e+00 -3.829830e-01 -3.014024e-01 -7.783912e-01 2.587715e-01 2.777054e-01 -3.324970e-03 2.076888e-01 -2.670350e-01 7.132960e-01 1.149893e+00 1.408021e-01 -3.696619e-01 -1.244224e-01 -1.375685e-01 -1.255174e-02 1.930327e-01 -1.786421e-01 -2.668354e-01 1.122040e-01 -1.253075e-01 -6.152957e-02 -8.034909e-02 3.922036e-01
<VARIANCE> 39
 7.286285e+01 1.261238e+02 7.700707e+01 4.296939e+01 3.494448e+01 3.435053e+01 3.707992e+01 3.441066e+01 3.165245e+01 3.022490e+01 2.538411e+01 2.888151e+01 8.404228e+01 3.565644e+00 7.557894e+00 5.520766e+00 2.821024e+00 2.464786e+00 3.034717e+00 3.521506e+00 3.307278e+00 2.565829e+00 2.938759e+00 2.213498e+00 2.076237e+00 3.644904e+00 5.891951e-01 1.814775e+00 1.150614e+00 5.144229e-01 4.851640e-01 5.377406e-01 6.488221e-01 5.940055e-01 5.407786e-01 5.327326e-01 4.756705e-01 3.926122e-01 7.850655e-01
<GCONST> 1.304679e+02
<STATE> 3
<MEAN> 39
 -1.440743e+00 -3.238919e+01 1.140476e+01 1.675102e+01 -1.639045e+01 1.718290e+01 -6.159597e+00 -6.397663e+00 6.489025e+00 -7.699968e+00 -4.019360e+00 5.995909e+00 7.807863e+01 -5.939373e-01 -2.188897e+00 3.251080e-01 -4.553631e-01 -1.395233e-01 2.857363e-02 -9.847869e-02 -4.989987e-01 -3.213533e-03 1.084510e-01 -1.407572e-01 2.476955e-01 1.115642e+00 5.086594e-01 5.945894e-01 -5.014505e-01 5.325137e-02 8.983551e-02 2.747442e-01 -4.523089e-02 -1.995413e-01 -5.486626e-02 -1.069975e-01 7.766347e-02 -2.007568e-01 -1.461542e-01
<VARIANCE> 39
 4.256768e+01 1.154385e+02 5.997863e+01 3.252845e+01 3.389083e+01 3.469843e+01 3.632760e+01 3.664705e+01 2.837232e+01 2.707618e+01 2.361547e+01 2.697649e+01 5.203551e+01 5.602962e+00 1.135399e+01 6.632591e+00 2.645251e+00 2.928616e+00 3.125598e+00 3.088078e+00 3.311296e+00 2.546872e+00 2.780142e+00 1.971771e+00 2.197910e+00 3.849219e+00 5.717538e-01 1.892844e+00 1.019816e+00 5.164016e-01 5.330744e-01 4.925167e-01 5.931482e-01 6.205634e-01 5.180479e-01 5.356538e-01 4.030335e-01 4.014566e-01 7.053477e-01
<GCONST> 1.290467e+02
<STATE> 4
<MEAN> 39
 4.442453e-02 -3.422332e+01 8.865895e+00 1.557813e+01 -1.619648e+01 1.873696e+01 -6.198035e+00 -8.976542e+00 5.616220e+00 -7.925915e+00 -3.966308e+00 5.689084e+00 7.976384e+01 1.178431e+00 8.361959e-01 -1.010201e+00 2.087279e-02 1.193105e-01 4.434910e-01 1.504669e-02 -4.535377e-01 -1.403249e-01 -4.337075e-01 1.400348e-01 -4.571614e-01 1.333271e-01 3.271267e-01 6.979233e-01 -1.345498e-01 1.609455e-01 -1.573099e-02 -9.377726e-03 1.903408e-03 1.350526e-01 1.179856e-01 -1.041681e-01 3.611145e-02 -2.157482e-01 -1.987276e-01
<VARIANCE> 39
 4.047295e+01 7.567575e+01 5.340965e+01 2.772020e+01 3.243609e+01 3.053613e+01 3.560637e+01 3.138095e+01 2.488172e+01 2.938613e+01 2.379271e+01 2.638157e+01 2.359354e+01 5.581194e+00 1.301355e+01 4.043660e+00 2.946533e+00 3.470952e+00 2.831683e+00 2.803088e+00 2.967794e+00 2.796662e+00 3.635012e+00 1.742530e+00 2.804847e+00 3.038031e+00 7.783506e-01 1.614166e+00 7.802607e-01 5.090812e-01 5.972088e-01 5.704470e-01 5.186642e-01 5.210319e-01 6.315044e-01 7.115558e-01 3.609267e-01 4.738143e-01 5.790454e-01
<GCONST> 1.271103e+02
<TRANSP> 5
 0.000000e+00 1.000000e+00 0.000000e+00 0.000000e+00 0.000000e+00
 0.000000e+00 6.195306e-01 3.804694e-01 0.000000e+00 0.000000e+00
 0.000000e+00 0.000000e+00 6.436594e-01 3.563406e-01 0.000000e+00
 0.000000e+00 0.000000e+00 0.000000e+00 8.132914e-01 1.867086e-01
 0.000000e+00 0.000000e+00 0.000000e+00 0.000000e+00 0.000000e+00
<ENDHMM>
~h "gh"
<BEGINHMM>
<NUMSTATES> 5
<STATE> 2
<MEAN> 39
 1.370998e+01 -1.402938e+01 2.447522e-01 1.423758e+01 -2.138827e+01 1.047012e+01 -7.667258e+00 -2.823235e+00 1.348038e+01 -1.337625e+01 -9.193587e+00 -3.223864e+00 7.899163e+01 2.548467e-01 6.462648e-01 -1.226204e-02 5.664086e-02 -1.980839e-01 -1.071216e+00 -8.561727e-02 3.873291e-01 4.970444e-01 3.813729e-01 -8.627179e-02 -4.241511e-01 6.738266e-02 -9.461509e-02 -9.729531e-03 8.722617e-03 7.629947e-02 1.807000e-01 1.575269e-01 6.948845e-02 -1.220809e-01 -2.443794e-01 4.821584e-02 1.073382e-01 1.665318e-01 -1.286644e-01
<VARIANCE> 39
 1.025786e+01 2.627408e+01 2.647762e+01 4.081001e+01 6.299539e+01 8.989075e+01 2.757711e+01 4.800584e+01 5.668467e+01 3.470617e+01 3.008101e+01 4.337336e+01 1.504628e+01 6.782826e-01 1.754277e+00 1.288196e+00 1.735912e+00 3.028205e+00 4.919103e+00 1.609437e+00 2.222944e+00 2.788242e+00 2.900710e+00 1.951420e+00 2.155481e+00 1.023453e+00 1.183600e-01 3.581528e-01 1.970862e-01 3.773705e-01 5.023740e-01 6.865574e-01 3.121908e-01 3.616945e-01 4.260646e-01 5.462095e-01 3.752567e-01 4.526153e-01 1.203783e-01
<GCONST> 1.117100e+02
<STATE> 3
<MEAN> 39
 1.406320e+01 -1.242049e+01 4.070491e-01 1.462356e+01 -2.151014e+01 8.571331e+00 -7.723930e+00 -1.952240e+00 1.417808e+01 -1.279215e+01 -9.428190e+00 -3.977674e+00 7.867515e+01 7.920463e-02 4.271912e-01 3.659132e-02 1.655347e-01 7.590851e-02 -2.926575e-01 1.728960e-02 1.717781e-03 -5.318461e-02 1.854157e-01 7.413679e-02 -1.028070e-01 -1.423029e-01 -5.478607e-02 -8.760621e-02 3.407928e-04 3.021846e-02 6.850568e-02 2.608153e-01 3.796203e-02 -1.326323e-01 -1.633255e-01 -4.722672e-02 5.753141e-02 1.226762e-01 -5.836452e-02
<VARIANCE> 39
 6.886923e+00 2.540583e+01 2.508174e+01 3.602544e+01 5.706641e+01 1.006169e+02 2.744642e+01 4.872625e+01 5.933161e+01 3.334600e+01 2.784901e+01 4.363406e+01 1.245223e+01 4.121188e-01 1.315129e+00 1.005451e+00 1.645937e+00 2.416834e+00 4.355925e+00 1.401074e+00 2.224260e+00 1.994358e+00 2.373899e+00 1.805333e+00 2.011175e+00 6.521720e-01 6.927432e-02 2.369929e-01 1.585431e-01 2.918566e-01 3.874602e-01 6.245033e-01 2.799945e-01 3.461332e-01 3.650206e-01 4.585837e-01 3.244669e-01 3.496558e-01 9.993646e-02
<GCONST> 1.053130e+02
<STATE> 4
<MEAN> 39
 1.429465e+01 -1.163397e+01 -3.020312e-01 1.453934e+01 -2.160644e+01 8.645757e+00 -6.432720e+00 -9.261045e-01 1.351043e+01 -1.373934e+01 -1.054542e+01 -3.807505e+00 7.795998e+01 -2.767364e-02 -3.272589e-03 -9.277327e-03 1.275776e-01 1.831899e-01 4.716457e-01 2.550559e-01 -2.206921e-01 -3.433280e-01 -7.877970e-03 -8.922573e-04 7.598200e-02 -1.187436e-01 -3.099120e-02 -5.190516e-02 1.276804e-02 -1.385866e-03 4.878961e-03 1.019820e-01 2.967823e-02 -3.960961e-02 -5.036616e-02 1.471511e-02 3.376481e-02 5.123654e-02 -1.629812e-02
<VARIANCE> 39
 4.975140e+00 2.394575e+01 2.510817e+01 2.869049e+01 5.262989e+01 9.894932e+01 2.810630e+01 4.477598e+01 5.281287e+01 3.659801e+01 3.546664e+01 4.348824e+01 1.374792e+01 3.181473e-01 1.475966e+00 1.226972e+00 1.583175e+00 2.910897e+00 4.880147e+00 1.700848e+00 2.272457e+00 2.395767e+00 2.411482e+00 2.087159e+00 1.936656e+00 7.843707e-01 5.443845e-02 2.648288e-01 1.982332e-01 2.564264e-01 5.240541e-01 7.890489e-01 3.242711e-01 4.256691e-01 4.413787e-01 4.605020e-01 3.772196e-01 3.300253e-01 1.271547e-01
<GCONST> 1.072619e+02
<TRANSP> 5
 0.000000e+00 1.000000e+00 0.000000e+00 0.000000e+00 0.000000e+00
 0.000000e+00 5.204661e-01 4.795340e-01 0.000000e+00 0.000000e+00
 0.000000e+00 0.000000e+00 6.023608e-01 3.976391e-01 0.000000e+00
 0.000000e+00 0.000000e+00 0.000000e+00 8.621413e-01 1.378587e-01
 0.000000e+00 0.000000e+00 0.000000e+00 0.000000e+00 0.000000e+00
<ENDHMM>
~h "oe"
<BEGINHMM>
<NUMSTATES> 5
<STATE> 2
<MEAN> 39
 1.189850e+01 -1.794937e+01 2.995071e-01 1.615301e+01 -1.170174e+01 2.095716e+01 -1.060535e+01 -9.047471e+00 5.730267e+00 -1.815022e+01 -4.162333e+00 2.389453e+00 7.883706e+01 6.153642e-01 3.702970e-01 -5.633938e-01 -4.941904e-01 -1.977207e-01 -1.806598e-01 -3.160442e-02 1.957779e-02 -3.942240e-02 -1.025788e+00 -3.551068e-01 -3.526600e-02 4.634064e-01 -1.526748e-01 1.953231e-02 6.230753e-02 7.984649e-03 -1.512729e-01 -2.334254e-02 1.351165e-01 1.244305e-01 7.534465e-02 2.633564e-01 2.194610e-02 2.704896e-02 -2.134178e-01
<VARIANCE> 39
 1.155533e+01 2.661264e+01 2.196018e+01 2.918456e+01 4.560947e+01 2.670637e+01 1.860215e+01 2.482033e+01 2.120690e+01 4.688201e+01 2.738207e+01 1.878345e+01 2.673424e+01 1.186689e+00 2.550673e+00 1.795935e+00 2.266947e+00 2.907214e+00 2.254409e+00 1.845577e+00 1.990689e+00 2.081131e+00 3.717340e+00 2.028855e+00 1.432319e+00 1.797609e+00 2.029713e-01 5.393001e-01 3.451051e-01 3.512759e-01 5.531747e-01 4.108782e-01 3.480030e-01 3.536976e-01 3.824340e-01 6.786635e-01 3.358160e-01 2.930637e-01 2.714023e-01
<GCONST> 1.100611e+02
<STATE> 3
<MEAN> 39
 1.271862e+01 -1.719634e+01 -7.516939e-01 1.505052e+01 -1.254025e+01 2.051322e+01 -1.019139e+01 -8.436023e+00 5.969832e+00 -1.954377e+01 -4.832685e+00 2.625788e+00 7.912057e+01 2.416438e-01 3.260143e-01 -3.687748e-01 -2.499178e-01 -2.475978e-01 -1.406985e-01 2.419392e-01 2.276884e-01 6.739329e-02 -2.859946e-01 -2.518522e-01 5.553238e-02 -3.612955e-02 -1.412295e-01 -4.842707e-03 8.994123e-02 1.258630e-01 1.229350e-02 3.529011e-02 9.514497e-02 3.235023e-02 -1.031973e-03 3.025579e-01 5.567483e-02 1.401595e-02 -1.918941e-01
<VARIANCE> 39
 9.317022e+00 1.996695e+01 1.925798e+01 2.724014e+01 4.434475e+01 2.773892e+01 1.545493e+01 2.488887e+01 2.066941e+01 4.232051e+01 2.487292e+01 1.967118e+01 2.389012e+01 7.409095e-01 1.952891e+00 1.496289e+00 2.078213e+00 2.735261e+00 1.839726e+00 1.554386e+00 1.650167e+00 1.725402e+00 3.685469e+00 1.965114e+00 1.285191e+00 1.685643e+00 1.556982e-01 3.997826e-01 3.040265e-01 3.374710e-01 4.756274e-01 3.613825e-01 2.924929e-01 3.163304e-01 3.512678e-01 6.478161e-01 3.252363e-01 2.441710e-01 2.683508e-01
<GCONST> 1.052098e+02
<STATE> 4
<MEAN> 39
 1.322835e+01 -1.589112e+01 -2.081154e+00 1.476702e+01 -1.283981e+01 2.039357e+01 -9.420672e+00 -7.712272e+00 6.191514e+00 -1.953259e+01 -5.298333e+00 3.416879e+00 7.817147e+01 -2.653347e-02 2.387838e-01 -1.818760e-01 2.729402e-01 1.261549e-01 -1.153088e-02 2.924744e-01 1.052979e-02 -1.002477e-01 4.566918e-01 5.715591e-02 5.951823e-02 -3.063442e-01 -8.934026e-02 -5.668159e-02 1.131602e-01 6.105139e-02 1.026310e-02 2.836689e-02 4.166368e-02 -5.290031e-02 -4.874359e-02 1.639909e-01 4.793249e-02 -2.672143e-02 -4.062574e-02
<VARIANCE> 39
 8.217770e+00 1.439554e+01 1.917928e+01 2.664279e+01 4.469990e+01 3.013983e+01 1.657145e+01 2.425017e+01 1.987759e+01 4.117715e+01 2.383622e+01 2.169683e+01 2.099497e+01 5.818993e-01 1.615708e+00 1.673615e+00 1.854585e+00 2.849761e+00 1.943656e+00 1.714630e+00 1.533528e+00 1.662583e+00 3.405179e+00 1.878155e+00 1.319680e+00 1.370094e+00 1.042527e-01 3.189897e-01 3.336080e-01 3.258248e-01 4.494474e-01 3.772181e-01 2.997182e-01 2.853049e-01 3.295546e-01 5.921621e-01 3.402228e-01 2.415363e-01 2.249774e-01
<GCONST> 1.031134e+02
<TRANSP> 5
 0.000000e+00 1.000000e+00 0.000000e+00 0.000000e+00 0.000000e+00
 0.000000e+00 5.875998e-01 4.124002e-01 0.000000e+00 0.000000e+00
 0.000000e+00 0.000000e+00 6.328475e-01 3.671525e-01 0.000000e+00
 0.000000e+00 0.000000e+00 0.000000e+00 8.377944e-01 1.622056e-01
 0.000000e+00 0.000000e+00 0.000000e+00 0.000000e+00 0.000000e+00
<ENDHMM>
~h "sh"
<BEGINHMM>
<NUMSTATES> 5
<STATE> 2
<MEAN> 39
 -8.552666e-01 -3.465747e+01 1.109641e+01 1.865973e+01 -1.249144e+01 2.160995e+01 -5.035867e+00 -7.752913e+00 7.213168e+00 -7.671660e+00 -4.364432e+00 7.045854e+00 7.982797e+01 -1.400876e+00 -2.084920e+00 4.230631e-01 -4.234847e-01 -5.474708e-01 -5.516364e-01 4.353905e-02 -1.980720e-01 -2.596322e-01 1.318725e-01 -4.794919e-01 4.611382e-01 3.802319e-01 3.041866e-01 5.435552e-01 -3.546989e-01 -2.575264e-02 -7.401431e-02 -9.173182e-02 -1.614574e-01 -5.505302e-02 5.331688e-02 -1.017079e-01 2.932169e-02 -1.994248e-01 -1.775049e-01
<VARIANCE> 39
 2.386541e+01 7.568495e+01 3.416506e+01 1.630695e+01 2.449302e+01 2.458213e+01 2.670400e+01 2.542348e+01 2.009447e+01 1.721132e+01 2.346872e+01 2.172199e+01 2.534069e+01 2.081534e+00 5.912226e+00 2.900324e+00 1.228293e+00 1.537037e+00 1.943106e+00 1.749184e+00 1.859897e+00 1.504507e+00 1.499381e+00 1.634133e+00 1.611776e+00 9.674199e-01 2.064465e-01 6.449985e-01 3.929646e-01 2.276037e-01 2.569148e-01 3.989878e-01 3.642634e-01 3.320374e-01 3.043119e-01 3.006349e-01 3.460464e-01 2.659754e-01 1.359788e-01
<GCONST> 1.059426e+02
<STATE> 3
<MEAN> 39
 -2.641178e+00 -3.670235e+01 1.014558e+01 1.752459e+01 -1.417341e+01 2.012878e+01 -5.390334e+00 -8.647291e+00 6.277246e+00 -7.577235e+00 -5.123455e+00 7.111982e+00 7.933083e+01 -1.252402e-01 8.106361e-02 -4.039781e-01 -3.049557e-01 -4.532970e-01 -3.313915e-01 -8.942731e-02 -1.240313e-01 -2.180215e-01 2.769841e-02 -2.777329e-02 -1.361445e-01 -3.758102e-01 3.999332e-01 6.403584e-01 -1.982192e-01 7.203841e-02 3.993859e-02 9.804124e-02 -1.102363e-02 4.643410e-02 4.564608e-02 -2.562452e-02 1.159059e-01 -1.741529e-01 -1.933256e-01
<VARIANCE> 39
 2.251006e+01 6.626224e+01 4.140500e+01 1.763364e+01 2.485433e+01 2.479592e+01 2.556750e+01 2.682490e+01 2.208537e+01 1.847395e+01 1.915647e+01 2.083069e+01 2.975116e+01 2.863698e+00 5.877472e+00 2.189198e+00 1.399443e+00 1.625568e+00 1.866039e+00 1.516353e+00 1.519194e+00 1.431631e+00 1.488836e+00 1.513968e+00 1.537138e+00 9.601864e-01 2.549773e-01 5.729457e-01 3.446876e-01 2.668447e-01 2.719824e-01 3.317478e-01 2.918831e-01 2.847274e-01 2.942349e-01 3.124699e-01 2.929994e-01 2.813589e-01 1.415953e-01
<GCONST> 1.053336e+02
<STATE> 4
<MEAN> 39
 -3.154850e-01 -2.774900e+01 3.242334e+00 1.608851e+01 -1.688923e+01 1.907310e+01 -6.004385e+00 -8.702178e+00 5.084227e+00 -6.723924e+00 -5.210399e+00 5.037782e+00 7.214283e+01 5.508689e-01 1.081850e+00 -5.443138e-01 -4.985696e-02 -2.309414e-01 -7.393652e-02 -3.548713e-02 5.861619e-02 8.076634e-04 -2.859951e-02 1.041683e-01 -3.463761e-01 -5.120736e-01 1.661647e-01 1.997077e-01 -4.576621e-02 4.429848e-02 1.297581e-02 4.289474e-02 1.455963e-03 3.567307e-03 3.642241e-02 -5.482581e-02 -1.921234e-03 -8.142614e-02 2.203613e-02
<VARIANCE> 39
 3.091744e+01 1.138472e+02 7.836662e+01 2.161455e+01 3.077171e+01 2.526679e+01 2.402313e+01 2.145656e+01 1.995510e+01 2.390611e+01 1.614969e+01 2.283932e+01 6.809116e+01 2.411192e+00 4.530042e+00 1.656695e+00 1.385848e+00 1.666775e+00 1.416867e+00 1.581172e+00 1.344646e+00 1.485273e+00 1.838199e+00 1.183088e+00 1.664655e+00 8.536350e-01 2.777337e-01 6.034799e-01 2.582023e-01 2.520557e-01 3.041561e-01 2.688332e-01 2.894790e-01 2.362699e-01 2.768318e-01 3.459486e-01 2.317278e-01 2.778736e-01 1.633684e-01
<GCONST> 1.062327e+02
<TRANSP> 5
 0.000000e+00 1.000000e+00 0.000000e+00 0.000000e+00 0.000000e+00
 0.000000e+00 7.357570e-01 2.642430e-01 0.000000e+00 0.000000e+00
 0.000000e+00 0.000000e+00 7.026082e-01 2.973919e-01 0.000000e+00
 0.000000e+00 0.000000e+00 0.000000e+00 8.430051e-01 1.569950e-01
 0.000000e+00 0.000000e+00 0.000000e+00 0.000000e+00 0.000000e+00
<ENDHMM>
~h "ue"
<BEGINHMM>
<NUMSTATES> 5
<STATE> 2
<MEAN> 39
 7.971717e+00 -1.958973e+01 2.877078e+00 1.932571e+01 -1.024937e+01 2.201871e+01 -1.088582e+01 -9.288815e+00 7.967185e+00 -1.106275e+01 -3.183424e+00 3.086859e+00 7.513000e+01 3.980266e-01 -1.941822e-02 -1.096492e-01 5.119866e-01 5.419549e-01 1.054225e-01 -4.545435e-01 -1.038389e-01 3.047264e-01 -3.079318e-01 1.307017e-01 8.901351e-02 3.450499e-01 -3.739177e-02 -1.884535e-02 5.233395e-02 -6.166179e-02 -1.213134e-01 1.715636e-02 1.169852e-01 4.255143e-03 -5.326817e-02 5.240520e-02 -2.489650e-02 -2.940892e-02 -1.044982e-02
<VARIANCE> 39
 3.484772e+01 6.711735e+01 4.981638e+01 3.400468e+01 4.311893e+01 3.430602e+01 3.462610e+01 3.500691e+01 2.518102e+01 4.191580e+01 2.516763e+01 1.800783e+01 2.769624e+01 2.468364e+00 7.371966e+00 2.710647e+00 2.211395e+00 3.024381e+00 2.504819e+00 2.693163e+00 2.754665e+00 1.887773e+00 3.609342e+00 1.539836e+00 1.906266e+00 2.700471e+00 3.298608e-01 1.065195e+00 4.556931e-01 4.208665e-01 5.417539e-01 4.887345e-01 5.037235e-01 5.049126e-01 3.255962e-01 7.062989e-01 3.074446e-01 3.206257e-01 3.748441e-01
<GCONST> 1.202152e+02
<STATE> 3
<MEAN> 39
